~o
<STREAMINFO> 1 39
<VECSIZE> 39<NULLD><MFCC_D_A_0><DIAGC>
~h "b"
<BEGINHMM>
<NUMSTATES> 5
<STATE> 2
<MEAN> 39
 -8.280721e+000 -6.429981e+000 -5.303138e+000 -9.865458e+000 -7.749785e+000 -4.786961e+000 -6.266751e+000 -2.221423e+000 -4.004762e+000 -1.546886e+000 -2.241791e+000 -2.547329e+000 5.387660e+001 3.744659e-002 -3.714616e-002 -1.733949e-002 -5.340660e-002 -2.702745e-002 -1.892706e-002 -1.383269e-002 1.205144e-002 1.127408e-002 1.240055e-002 -5.574329e-003 2.462358e-003 9.288443e-002 -9.794297e-004 -9.640196e-003 -3.748867e-003 -6.986528e-003 -5.969253e-003 -5.055653e-003 -1.329200e-003 3.435136e-003 4.138530e-003 9.233667e-004 -1.191638e-004 3.638216e-004 1.861553e-002
<VARIANCE> 39
 8.551937e+001 7.009542e+001 7.980449e+001 9.884780e+001 7.684924e+001 7.629220e+001 7.749084e+001 6.874598e+001 6.486060e+001 4.678544e+001 4.841103e+001 3.688974e+001 1.330777e+002 4.269303e+000 4.494032e+000 3.601078e+000 5.624782e+000 4.675179e+000 4.209683e+000 4.582382e+000 4.606259e+000 4.249247e+000 3.382410e+000 3.115176e+000 2.579736e+000 8.309804e+000 6.337267e-001 7.278786e-001 5.633304e-001 8.839293e-001 7.653418e-001 7.160354e-001 7.867243e-001 8.003867e-001 7.526160e-001 6.275085e-001 5.721824e-001 4.702864e-001 1.272225e+000
<GCONST> 1.415038e+002
<STATE> 3
<MEAN> 39
 -8.194443e+000 -6.566341e+000 -5.363631e+000 -1.003170e+001 -7.843224e+000 -4.850056e+000 -6.307011e+000 -2.172908e+000 -3.961287e+000 -1.513340e+000 -2.257402e+000 -2.537493e+000 5.418022e+001 2.808111e-002 -5.785557e-002 -2.280975e-002 -6.478080e-002 -3.938718e-002 -2.916875e-002 -1.479320e-002 2.169268e-002 1.997797e-002 1.334854e-002 -5.452159e-003 3.444199e-003 1.269992e-001 -4.407855e-003 -7.631718e-003 -1.920028e-003 -3.330442e-003 -4.059955e-003 -3.460422e-003 1.465537e-005 3.597103e-003 3.374700e-003 -2.445079e-005 -2.631294e-005 2.082515e-004 1.149448e-002
<VARIANCE> 39
 8.516805e+001 6.969291e+001 8.070172e+001 9.874217e+001 7.737218e+001 7.729507e+001 7.835867e+001 6.918848e+001 6.524493e+001 4.722754e+001 4.875333e+001 3.723013e+001 1.287242e+002 4.327410e+000 4.483064e+000 3.630675e+000 5.659283e+000 4.711834e+000 4.262811e+000 4.618898e+000 4.619904e+000 4.252729e+000 3.396107e+000 3.119349e+000 2.592888e+000 8.457582e+000 6.370062e-001 7.237930e-001 5.645066e-001 8.854133e-001 7.681903e-001 7.232820e-001 7.897828e-001 8.014749e-001 7.512143e-001 6.291692e-001 5.716521e-001 4.712932e-001 1.283480e+000
<GCONST> 1.416584e+002
<STATE> 4
<MEAN> 39
 -8.229928e+000 -6.770767e+000 -5.449982e+000 -1.022553e+001 -7.971113e+000 -4.924170e+000 -6.302321e+000 -2.090922e+000 -3.870173e+000 -1.502709e+000 -2.283775e+000 -2.523399e+000 5.457164e+001 -7.092242e-003 -6.072090e-002 -1.917604e-002 -4.989182e-002 -3.678346e-002 -3.112394e-002 -3.698379e-003 3.433875e-002 2.597872e-002 9.138280e-003 -6.363065e-003 6.602466e-003 1.106100e-001 -1.083725e-002 -5.139157e-004 1.337869e-003 5.626346e-003 1.580439e-003 -6.021418e-004 3.407962e-003 3.488042e-003 1.847777e-003 -1.418232e-003 -3.003023e-004 8.729242e-004 -5.862712e-003
<VARIANCE> 39
 8.593051e+001 6.908001e+001 8.174455e+001 9.807408e+001 7.845745e+001 7.851378e+001 7.939306e+001 6.966164e+001 6.561612e+001 4.798001e+001 4.916972e+001 3.770796e+001 1.243945e+002 4.314535e+000 4.386426e+000 3.616936e+000 5.555719e+000 4.693225e+000 4.290489e+000 4.612349e+000 4.598270e+000 4.202373e+000 3.394270e+000 3.110227e+000 2.594095e+000 8.276278e+000 6.287946e-001 7.060399e-001 5.583926e-001 8.671978e-001 7.612368e-001 7.257357e-001 7.846251e-001 7.960345e-001 7.396294e-001 6.277136e-001 5.677649e-001 4.701016e-001 1.254208e+000
<GCONST> 1.414965e+002
<TRANSP> 5
 0.000000e+000 1.000000e+000 0.000000e+000 0.000000e+000 0.000000e+000
 0.000000e+000 6.130242e-001 3.869758e-001 0.000000e+000 0.000000e+000
 0.000000e+000 0.000000e+000 6.130305e-001 3.869696e-001 0.000000e+000
 0.000000e+000 0.000000e+000 0.000000e+000 7.191106e-001 2.808894e-001
 0.000000e+000 0.000000e+000 0.000000e+000 0.000000e+000 0.000000e+000
<ENDHMM>
~h "d"
<BEGINHMM>
<NUMSTATES> 5
<STATE> 2
<MEAN> 39
 -9.619560e+000 -7.418941e+000 -4.099618e+000 -9.185421e+000 -8.697273e+000 -6.185351e+000 -6.096899e+000 -7.772892e-001 -3.761957e+000 -2.009889e+000 -2.788918e+000 -2.133524e+000 5.452615e+001 1.248606e-002 -4.169370e-002 -3.874719e-002 -3.326128e-002 2.736239e-002 -1.895598e-002 -3.388274e-002 1.144571e-002 1.112264e-002 -2.988787e-005 -9.296850e-003 -6.620646e-003 9.636848e-002 4.505983e-003 -3.467897e-003 -2.473570e-003 -7.436055e-003 -3.759148e-003 -1.330610e-003 -5.833542e-003 -1.282662e-003 -2.146674e-003 -1.138323e-003 -7.957945e-005 3.728101e-005 1.442366e-002
<VARIANCE> 39
 8.789417e+001 6.690174e+001 7.888127e+001 8.276767e+001 7.769050e+001 7.172575e+001 7.708878e+001 6.810329e+001 6.458017e+001 4.647042e+001 4.837791e+001 3.575881e+001 1.349773e+002 4.044902e+000 4.230067e+000 3.260552e+000 4.624729e+000 4.532677e+000 4.497179e+000 4.712253e+000 4.541784e+000 3.880419e+000 3.297318e+000 3.090142e+000 2.545228e+000 7.576855e+000 5.890896e-001 6.992321e-001 4.973076e-001 7.693986e-001 7.758722e-001 7.832966e-001 8.183019e-001 8.021042e-001 6.894974e-001 6.097392e-001 5.668439e-001 4.736891e-001 1.222264e+000
<GCONST> 1.402202e+002
<STATE> 3
<MEAN> 39
 -9.553431e+000 -7.546323e+000 -4.214303e+000 -9.303381e+000 -8.648129e+000 -6.238405e+000 -6.215919e+000 -7.552103e-001 -3.746826e+000 -2.014222e+000 -2.813579e+000 -2.152122e+000 5.484225e+001 2.603258e-002 -4.440247e-002 -4.675593e-002 -4.332741e-002 1.957356e-002 -1.505690e-002 -4.476064e-002 5.093863e-003 3.623281e-003 -2.616794e-003 -9.639869e-003 -7.839120e-003 1.130502e-001 4.694954e-003 -5.920851e-004 -3.156608e-003 -2.742346e-003 -2.858487e-003 2.362942e-003 -3.460962e-003 -2.465549e-003 -2.870782e-003 -5.360428e-004 3.658982e-004 -9.082889e-004 4.052494e-003
<VARIANCE> 39
 8.873422e+001 6.695335e+001 7.938575e+001 8.196442e+001 7.752938e+001 7.246867e+001 7.757176e+001 6.840101e+001 6.474836e+001 4.673346e+001 4.859460e+001 3.605031e+001 1.288022e+002 4.185642e+000 4.279390e+000 3.302794e+000 4.686855e+000 4.600196e+000 4.649148e+000 4.794698e+000 4.594420e+000 3.913892e+000 3.335563e+000 3.127377e+000 2.585983e+000 7.822889e+000 6.055838e-001 7.066174e-001 5.054328e-001 7.762511e-001 7.866070e-001 8.100698e-001 8.315132e-001 8.133141e-001 6.956077e-001 6.178210e-001 5.728233e-001 4.807838e-001 1.244343e+000
<GCONST> 1.406545e+002
<STATE> 4
<MEAN> 39
 -9.475929e+000 -7.692534e+000 -4.419601e+000 -9.456054e+000 -8.612929e+000 -6.250160e+000 -6.347207e+000 -7.732353e-001 -3.775368e+000 -2.040889e+000 -2.839281e+000 -2.189897e+000 5.520411e+001 2.515000e-002 -3.206864e-002 -5.650534e-002 -2.903162e-002 2.113823e-002 3.707363e-003 -3.827973e-002 -4.158088e-003 -5.381962e-003 -3.328726e-003 -6.752818e-003 -8.755370e-003 7.356081e-002 -1.612089e-003 3.623606e-003 -2.425918e-003 4.267125e-003 5.263210e-004 5.430641e-003 2.546212e-003 -2.193482e-003 -2.016677e-003 5.358018e-004 1.488638e-003 -4.038000e-004 -1.207009e-002
<VARIANCE> 39
 9.019179e+001 6.691917e+001 8.046076e+001 8.159961e+001 7.750536e+001 7.422315e+001 7.820087e+001 6.887243e+001 6.505326e+001 4.747653e+001 4.924635e+001 3.654693e+001 1.223779e+002 4.271503e+000 4.256077e+000 3.314492e+000 4.647151e+000 4.604086e+000 4.768796e+000 4.827602e+000 4.624039e+000 3.922230e+000 3.373844e+000 3.153364e+000 2.611102e+000 7.631931e+000 6.118477e-001 7.034296e-001 5.070392e-001 7.669613e-001 7.853758e-001 8.290679e-001 8.351227e-001 8.181276e-001 6.963539e-001 6.249092e-001 5.762811e-001 4.840337e-001 1.210675e+000
<GCONST> 1.407969e+002
<TRANSP> 5
 0.000000e+000 1.000000e+000 0.000000e+000 0.000000e+000 0.000000e+000
 0.000000e+000 6.170598e-001 3.829402e-001 0.000000e+000 0.000000e+000
 0.000000e+000 0.000000e+000 6.170575e-001 3.829425e-001 0.000000e+000
 0.000000e+000 0.000000e+000 0.000000e+000 7.236143e-001 2.763858e-001
 0.000000e+000 0.000000e+000 0.000000e+000 0.000000e+000 0.000000e+000
<ENDHMM>
~h "f"
<BEGINHMM>
<NUMSTATES> 5
<STATE> 2
<MEAN> 39
 -1.155141e+001 -7.975574e+000 -7.088323e+000 -9.901129e+000 -7.255809e+000 -5.090691e+000 -5.443092e+000 -1.065246e+000 -2.843010e+000 -1.343008e+000 -2.293260e+000 -1.838391e+000 5.542373e+001 1.391476e-003 5.069131e-003 -1.014628e-002 5.863509e-003 1.018539e-002 -5.697776e-003 -1.006291e-002 4.678345e-003 -4.624194e-003 -8.730792e-003 1.427905e-002 7.736082e-003 -1.074817e-002 7.023320e-003 3.166102e-004 2.653555e-003 -8.390746e-004 -2.091612e-003 -4.176503e-003 -5.111651e-003 2.257903e-003 -3.955158e-004 -1.914418e-003 -1.313400e-003 -7.345309e-004 -3.479185e-004
<VARIANCE> 39
 1.168580e+002 5.042134e+001 6.975542e+001 7.405642e+001 6.752991e+001 6.733362e+001 6.797720e+001 5.558227e+001 5.679855e+001 4.153076e+001 4.179640e+001 3.244586e+001 8.461469e+001 6.700111e+000 3.155746e+000 3.183997e+000 4.206475e+000 3.954945e+000 3.908370e+000 4.287382e+000 3.852645e+000 3.613703e+000 2.978509e+000 2.807617e+000 2.342208e+000 4.419396e+000 9.269107e-001 5.311466e-001 4.941169e-001 6.794048e-001 6.470824e-001 6.588687e-001 7.345091e-001 6.822354e-001 6.350570e-001 5.502355e-001 5.084397e-001 4.267029e-001 7.051076e-001
<GCONST> 1.356458e+002
<STATE> 3
<MEAN> 39
 -1.151488e+001 -7.960430e+000 -7.099293e+000 -9.886777e+000 -7.242748e+000 -5.129599e+000 -5.494669e+000 -1.044236e+000 -2.853650e+000 -1.372661e+000 -2.260236e+000 -1.819854e+000 5.539691e+001 2.271052e-002 8.137160e-003 -1.878426e-003 4.165084e-003 3.697683e-003 -1.556442e-002 -2.309611e-002 9.483279e-003 -5.540581e-003 -1.276652e-002 1.104338e-002 6.396544e-003 -1.328101e-002 7.754447e-003 1.563077e-003 3.627228e-003 -4.410855e-004 -2.903866e-003 -3.582828e-003 -4.878076e-003 1.604402e-003 -6.578477e-004 -1.462902e-003 -1.377206e-003 -7.161035e-004 -9.807150e-004
<VARIANCE> 39
 1.176004e+002 5.053243e+001 7.040852e+001 7.374374e+001 6.774940e+001 6.744164e+001 6.826738e+001 5.615324e+001 5.707573e+001 4.154818e+001 4.184067e+001 3.243277e+001 8.378586e+001 6.672959e+000 3.151832e+000 3.201019e+000 4.191211e+000 3.949779e+000 3.913882e+000 4.292337e+000 3.868840e+000 3.629997e+000 2.972388e+000 2.806990e+000 2.333285e+000 4.462391e+000 9.224965e-001 5.305582e-001 4.962142e-001 6.769434e-001 6.466897e-001 6.590217e-001 7.355232e-001 6.845237e-001 6.378306e-001 5.492277e-001 5.079648e-001 4.255183e-001 7.126954e-001
<GCONST> 1.356934e+002
<STATE> 4
<MEAN> 39
 -1.140359e+001 -7.908915e+000 -7.090432e+000 -9.866563e+000 -7.253021e+000 -5.202363e+000 -5.583632e+000 -1.022475e+000 -2.850648e+000 -1.445433e+000 -2.224924e+000 -1.801894e+000 5.534699e+001 4.838785e-002 1.583946e-002 1.147038e-002 4.252356e-003 -3.533417e-003 -2.390696e-002 -3.441422e-002 1.147208e-002 -8.634671e-003 -1.577154e-002 7.189226e-003 4.652668e-003 -2.171681e-002 6.719851e-003 2.507464e-003 4.413165e-003 4.869319e-005 -2.439609e-003 -2.284650e-003 -3.229250e-003 1.896072e-004 -1.329230e-003 -7.637198e-004 -1.417296e-003 -7.247617e-004 -2.437985e-003
<VARIANCE> 39
 1.177756e+002 5.122604e+001 7.173803e+001 7.365522e+001 6.873993e+001 6.820118e+001 6.900555e+001 5.741377e+001 5.785275e+001 4.187826e+001 4.224995e+001 3.262705e+001 8.512171e+001 6.512015e+000 3.135610e+000 3.206934e+000 4.150356e+000 3.943945e+000 3.923766e+000 4.273964e+000 3.893253e+000 3.636561e+000 2.968179e+000 2.807915e+000 2.323883e+000 4.528458e+000 8.986852e-001 5.258714e-001 4.955027e-001 6.698574e-001 6.454238e-001 6.582806e-001 7.313269e-001 6.873868e-001 6.378002e-001 5.476201e-001 5.075104e-001 4.239506e-001 7.241259e-001
<GCONST> 1.357713e+002
<TRANSP> 5
 0.000000e+000 1.000000e+000 0.000000e+000 0.000000e+000 0.000000e+000
 0.000000e+000 6.173517e-001 3.826483e-001 0.000000e+000 0.000000e+000
 0.000000e+000 0.000000e+000 6.173487e-001 3.826514e-001 0.000000e+000
 0.000000e+000 0.000000e+000 0.000000e+000 7.239264e-001 2.760737e-001
 0.000000e+000 0.000000e+000 0.000000e+000 0.000000e+000 0.000000e+000
<ENDHMM>
~h "g"
<BEGINHMM>
<NUMSTATES> 5
<STATE> 2
<MEAN> 39
 -8.520987e+000 -7.478895e+000 -4.438547e+000 -8.994049e+000 -8.991090e+000 -7.729254e+000 -6.223242e+000 -9.273894e-001 -5.457748e+000 -1.784897e+000 -2.145814e+000 -2.443188e+000 5.544036e+001 -4.050669e-002 2.784610e-002 -3.000433e-002 -4.697753e-002 2.391652e-002 2.385940e-002 1.872755e-002 -2.325570e-003 5.154827e-003 8.333226e-003 5.738706e-003 -5.235943e-003 2.819927e-002 -7.447677e-004 -1.330775e-003 -3.280357e-003 -3.098019e-003 -1.128136e-003 4.186126e-003 1.214825e-003 2.036236e-003 4.071686e-003 -8.202894e-004 -1.330669e-003 2.205256e-004 2.936790e-006
<VARIANCE> 39
 8.541317e+001 6.727766e+001 8.689247e+001 8.537234e+001 8.469423e+001 8.023727e+001 8.633372e+001 7.786581e+001 7.607854e+001 5.594827e+001 5.461151e+001 3.647399e+001 9.850268e+001 4.189476e+000 4.745790e+000 4.753086e+000 4.990499e+000 5.677217e+000 4.900370e+000 5.076269e+000 5.128617e+000 4.849473e+000 4.067106e+000 3.509922e+000 2.747929e+000 6.254892e+000 5.855687e-001 8.188409e-001 7.512203e-001 7.924298e-001 9.332961e-001 8.268872e-001 8.494306e-001 8.931041e-001 8.363009e-001 7.421895e-001 6.427585e-001 5.040013e-001 9.987773e-001
<GCONST> 1.438541e+002
<STATE> 3
<MEAN> 39
 -8.624511e+000 -7.411250e+000 -4.528847e+000 -9.135146e+000 -8.936126e+000 -7.652230e+000 -6.172623e+000 -9.272269e-001 -5.426214e+000 -1.764903e+000 -2.136068e+000 -2.453616e+000 5.552163e+001 -3.976802e-002 2.380548e-002 -3.712834e-002 -5.458834e-002 1.907099e-002 3.477594e-002 2.159571e-002 2.560771e-003 1.514280e-002 5.882975e-003 2.653057e-003 -4.537739e-003 2.719275e-002 3.304095e-004 -1.180312e-003 -2.514941e-003 -2.302049e-003 -1.703645e-003 4.219392e-003 1.121924e-003 1.632176e-003 3.633899e-003 -1.301222e-003 -1.232682e-003 6.128157e-004 -1.576606e-003
<VARIANCE> 39
 8.776355e+001 6.685228e+001 8.707136e+001 8.556060e+001 8.416518e+001 8.012942e+001 8.620853e+001 7.683924e+001 7.548207e+001 5.571189e+001 5.441970e+001 3.645909e+001 9.634750e+001 4.279803e+000 4.679458e+000 4.774090e+000 4.958600e+000 5.678967e+000 4.893973e+000 5.066835e+000 5.085268e+000 4.811227e+000 4.021760e+000 3.489716e+000 2.739929e+000 6.161699e+000 5.916646e-001 8.009147e-001 7.542893e-001 7.841706e-001 9.344131e-001 8.237057e-001 8.468316e-001 8.880501e-001 8.307620e-001 7.328426e-001 6.380616e-001 5.012804e-001 9.752569e-001
<GCONST> 1.436843e+002
<STATE> 4
<MEAN> 39
 -8.793119e+000 -7.310526e+000 -4.672369e+000 -9.342175e+000 -8.905880e+000 -7.474647e+000 -6.056173e+000 -9.761828e-001 -5.369606e+000 -1.764740e+000 -2.149360e+000 -2.477871e+000 5.559721e+001 -3.966988e-002 2.310140e-002 -4.127214e-002 -5.693366e-002 1.508569e-002 4.997910e-002 2.804345e-002 5.446150e-003 2.503549e-002 1.972529e-003 -6.461089e-004 -2.212432e-003 1.263510e-002 -4.153587e-004 1.119097e-004 -1.211863e-003 -3.905528e-005 -6.389609e-004 4.862897e-003 2.266578e-003 5.620804e-004 2.825714e-003 -1.637193e-003 -1.210688e-003 9.878773e-004 -5.719966e-003
<VARIANCE> 39
 9.104324e+001 6.625431e+001 8.694106e+001 8.576079e+001 8.334648e+001 8.002679e+001 8.557005e+001 7.533721e+001 7.475280e+001 5.523072e+001 5.404686e+001 3.650133e+001 9.496255e+001 4.339112e+000 4.516510e+000 4.736887e+000 4.864582e+000 5.614909e+000 4.832930e+000 4.991078e+000 4.984165e+000 4.718616e+000 3.926349e+000 3.436703e+000 2.709390e+000 5.943633e+000 5.920218e-001 7.642469e-001 7.464002e-001 7.657020e-001 9.233670e-001 8.113248e-001 8.344242e-001 8.731220e-001 8.152795e-001 7.141639e-001 6.256233e-001 4.936617e-001 9.308092e-001
<GCONST> 1.431567e+002
<TRANSP> 5
 0.000000e+000 1.000000e+000 0.000000e+000 0.000000e+000 0.000000e+000
 0.000000e+000 6.189116e-001 3.810884e-001 0.000000e+000 0.000000e+000
 0.000000e+000 0.000000e+000 6.189061e-001 3.810939e-001 0.000000e+000
 0.000000e+000 0.000000e+000 0.000000e+000 7.252893e-001 2.747107e-001
 0.000000e+000 0.000000e+000 0.000000e+000 0.000000e+000 0.000000e+000
<ENDHMM>
~h "k"
<BEGINHMM>
<NUMSTATES> 5
<STATE> 2
<MEAN> 39
 -1.125244e+001 -8.025901e+000 -5.490314e+000 -9.031365e+000 -7.627327e+000 -6.589325e+000 -5.067517e+000 2.245691e-001 -3.809990e+000 -1.256020e+000 -2.263550e+000 -1.908295e+000 5.461015e+001 5.318859e-002 -1.718080e-002 3.452330e-002 -2.657507e-002 -4.786796e-002 -9.424732e-003 -1.441320e-002 -2.675697e-002 -3.544214e-002 -9.245881e-003 -5.519438e-003 -7.200339e-003 2.871023e-002 7.987207e-003 -8.845750e-004 -6.528843e-004 -3.977595e-003 -3.347224e-003 2.490425e-003 -2.210480e-003 -2.994448e-003 -1.134242e-004 -1.536114e-003 -1.526558e-003 -2.374078e-003 3.586368e-003
<VARIANCE> 39
 1.008785e+002 5.995693e+001 7.431791e+001 7.517239e+001 8.233076e+001 7.391908e+001 7.602851e+001 6.815852e+001 6.512689e+001 4.600632e+001 4.743892e+001 3.448502e+001 1.202580e+002 5.247054e+000 4.121022e+000 3.738434e+000 4.595872e+000 4.985667e+000 4.789848e+000 4.598623e+000 4.525371e+000 4.389387e+000 3.457121e+000 3.208738e+000 2.533014e+000 8.614098e+000 7.424608e-001 7.366518e-001 6.156665e-001 7.745227e-001 8.313463e-001 8.468419e-001 8.053493e-001 8.149161e-001 7.915885e-001 6.430485e-001 5.904158e-001 4.665307e-001 1.485803e+000
<GCONST> 1.418840e+002
<STATE> 3
<MEAN> 39
 -1.108638e+001 -8.071517e+000 -5.402726e+000 -9.114751e+000 -7.764216e+000 -6.606947e+000 -5.114741e+000 1.450050e-001 -3.899576e+000 -1.288677e+000 -2.284230e+000 -1.934099e+000 5.470156e+001 7.059945e-002 -1.680977e-002 3.207487e-002 -3.447198e-002 -5.342096e-002 -2.355566e-003 -1.971344e-002 -3.294062e-002 -3.329585e-002 -1.402546e-002 -8.717904e-003 -1.274329e-002 3.392271e-002 5.061132e-003 1.081421e-003 -1.168622e-003 -1.982137e-003 -1.139083e-003 3.063194e-003 -1.580239e-003 -2.270465e-003 1.210120e-003 -1.416775e-003 -1.048674e-003 -1.747331e-003 1.509923e-004
<VARIANCE> 39
 9.988046e+001 5.935434e+001 7.510562e+001 7.543174e+001 8.280458e+001 7.411804e+001 7.620806e+001 6.851308e+001 6.561452e+001 4.654977e+001 4.791851e+001 3.466864e+001 1.169435e+002 5.145512e+000 4.033278e+000 3.701075e+000 4.571452e+000 4.938965e+000 4.719991e+000 4.555295e+000 4.499894e+000 4.352804e+000 3.445171e+000 3.187230e+000 2.519757e+000 8.411286e+000 7.282104e-001 7.217205e-001 6.085667e-001 7.711354e-001 8.231415e-001 8.317168e-001 7.960710e-001 8.099216e-001 7.850319e-001 6.398474e-001 5.857236e-001 4.637190e-001 1.449345e+000
<GCONST> 1.416035e+002
<STATE> 4
<MEAN> 39
 -1.086148e+001 -8.093422e+000 -5.333520e+000 -9.243960e+000 -7.949551e+000 -6.583842e+000 -5.164183e+000 -1.302227e-002 -3.998583e+000 -1.352093e+000 -2.318746e+000 -1.987666e+000 5.479580e+001 7.736286e-002 -7.998550e-003 2.772315e-002 -3.535443e-002 -5.215465e-002 6.886192e-003 -2.248285e-002 -3.715250e-002 -2.649806e-002 -1.821096e-002 -9.739261e-003 -1.561849e-002 2.244148e-002 5.299947e-004 3.425410e-003 -1.379343e-003 7.139217e-004 1.210503e-003 3.078775e-003 -2.843168e-004 -1.528556e-003 1.994603e-003 -5.812255e-004 -1.223769e-004 -5.241664e-004 -5.263084e-003
<VARIANCE> 39
 9.840042e+001 5.888601e+001 7.623527e+001 7.603530e+001 8.322219e+001 7.462566e+001 7.639697e+001 6.881611e+001 6.618179e+001 4.741088e+001 4.863210e+001 3.509441e+001 1.142268e+002 4.967373e+000 3.900618e+000 3.621279e+000 4.518718e+000 4.854798e+000 4.617281e+000 4.477808e+000 4.452934e+000 4.285858e+000 3.419930e+000 3.159100e+000 2.502998e+000 8.027479e+000 7.027995e-001 6.965294e-001 5.928901e-001 7.616964e-001 8.090981e-001 8.086310e-001 7.793881e-001 8.000094e-001 7.719214e-001 6.329108e-001 5.794782e-001 4.597845e-001 1.379815e+000
<GCONST> 1.411143e+002
<TRANSP> 5
 0.000000e+000 1.000000e+000 0.000000e+000 0.000000e+000 0.000000e+000
 0.000000e+000 6.155094e-001 3.844906e-001 0.000000e+000 0.000000e+000
 0.000000e+000 0.000000e+000 6.155022e-001 3.844978e-001 0.000000e+000
 0.000000e+000 0.000000e+000 0.000000e+000 7.216863e-001 2.783138e-001
 0.000000e+000 0.000000e+000 0.000000e+000 0.000000e+000 0.000000e+000
<ENDHMM>
~h "l"
<BEGINHMM>
<NUMSTATES> 5
<STATE> 2
<MEAN> 39
 -7.505473e+000 -7.362132e+000 -6.536675e+000 -1.322173e+001 -8.303375e+000 -4.437655e+000 -6.518131e+000 -2.030064e+000 -3.368115e+000 -1.353292e+000 -2.121497e+000 -2.361046e+000 5.661852e+001 -4.191689e-002 1.968332e-003 7.130942e-002 7.550978e-002 -2.105625e-002 -7.157417e-002 -7.543362e-003 3.317479e-002 -1.574817e-002 -1.648072e-002 -1.238824e-002 7.087791e-003 -1.839026e-002 -6.879729e-003 -2.393281e-003 -1.916830e-003 1.283045e-002 2.211581e-003 -4.604184e-003 4.244768e-003 6.111968e-003 1.368344e-003 -8.040791e-004 -9.052843e-004 1.746922e-003 -9.109265e-003
<VARIANCE> 39
 8.387676e+001 5.872815e+001 8.748039e+001 1.076449e+002 7.772343e+001 8.815671e+001 7.881959e+001 7.068974e+001 6.742418e+001 5.130534e+001 5.298927e+001 3.887008e+001 9.014074e+001 3.694955e+000 3.288478e+000 3.549302e+000 4.964085e+000 4.263495e+000 4.508767e+000 4.222427e+000 4.553646e+000 4.242854e+000 3.442376e+000 3.148010e+000 2.676653e+000 4.723948e+000 5.210179e-001 5.245795e-001 5.179902e-001 7.350149e-001 6.998891e-001 7.362111e-001 7.206153e-001 7.899700e-001 7.568182e-001 6.336690e-001 5.764843e-001 4.897689e-001 7.330605e-001
<GCONST> 1.389129e+002
<STATE> 3
<MEAN> 39
 -7.654044e+000 -7.355479e+000 -6.334605e+000 -1.296964e+001 -8.355328e+000 -4.643577e+000 -6.525283e+000 -1.928566e+000 -3.410145e+000 -1.395851e+000 -2.155070e+000 -2.336505e+000 5.652722e+001 -5.989264e-002 -4.905149e-003 6.422152e-002 1.077334e-001 -1.442639e-002 -8.204487e-002 4.647261e-003 4.887478e-002 -1.092881e-002 -1.775730e-002 -1.402991e-002 1.166387e-002 -4.213948e-002 -5.734721e-003 -2.171044e-003 -4.607528e-003 1.058098e-002 3.327001e-003 -2.809490e-003 4.626192e-003 5.230915e-003 2.523263e-003 -3.753165e-004 -7.808152e-004 1.743496e-003 -9.304240e-003
<VARIANCE> 39
 8.380924e+001 5.889621e+001 8.822190e+001 1.060136e+002 7.840711e+001 8.728551e+001 7.872128e+001 7.103984e+001 6.791866e+001 5.124074e+001 5.268724e+001 3.889506e+001 9.067700e+001 3.697410e+000 3.288797e+000 3.532773e+000 4.888399e+000 4.257672e+000 4.470401e+000 4.196757e+000 4.531539e+000 4.226840e+000 3.415482e+000 3.132805e+000 2.666581e+000 4.713710e+000 5.209914e-001 5.246419e-001 5.154043e-001 7.293317e-001 6.976268e-001 7.323095e-001 7.154841e-001 7.849117e-001 7.519827e-001 6.285496e-001 5.724245e-001 4.873124e-001 7.337583e-001
<GCONST> 1.387945e+002
<STATE> 4
<MEAN> 39
 -7.938630e+000 -7.337556e+000 -6.148362e+000 -1.257786e+001 -8.402300e+000 -4.884878e+000 -6.449846e+000 -1.797672e+000 -3.445005e+000 -1.470631e+000 -2.209684e+000 -2.296355e+000 5.631806e+001 -7.739278e-002 -1.027627e-002 5.066160e-002 1.352955e-001 -4.388541e-003 -8.729400e-002 2.014050e-002 6.243067e-002 -3.187688e-003 -1.707150e-002 -1.456361e-002 1.722641e-002 -6.906523e-002 -3.328518e-003 -1.318267e-003 -7.317386e-003 6.644550e-003 4.524842e-003 -4.171244e-004 4.612803e-003 3.808839e-003 3.502689e-003 -1.041456e-004 -7.475881e-004 1.603393e-003 -8.182681e-003
<VARIANCE> 39
 8.468824e+001 5.910037e+001 8.837772e+001 1.037480e+002 7.924129e+001 8.618108e+001 7.856655e+001 7.112777e+001 6.822734e+001 5.114471e+001 5.211441e+001 3.881217e+001 9.325298e+001 3.676389e+000 3.267667e+000 3.480500e+000 4.741537e+000 4.229292e+000 4.395592e+000 4.141774e+000 4.464304e+000 4.168307e+000 3.365717e+000 3.091948e+000 2.630913e+000 4.695519e+000 5.173622e-001 5.207789e-001 5.074767e-001 7.150638e-001 6.909149e-001 7.219086e-001 7.048792e-001 7.719244e-001 7.384729e-001 6.185608e-001 5.630926e-001 4.802974e-001 7.330998e-001
<GCONST> 1.384637e+002
<TRANSP> 5
 0.000000e+000 1.000000e+000 0.000000e+000 0.000000e+000 0.000000e+000
 0.000000e+000 6.190314e-001 3.809685e-001 0.000000e+000 0.000000e+000
 0.000000e+000 0.000000e+000 6.190305e-001 3.809694e-001 0.000000e+000
 0.000000e+000 0.000000e+000 0.000000e+000 7.260452e-001 2.739547e-001
 0.000000e+000 0.000000e+000 0.000000e+000 0.000000e+000 0.000000e+000
<ENDHMM>
~h "m"
<BEGINHMM>
<NUMSTATES> 5
<STATE> 2
<MEAN> 39
 -8.926242e+000 -6.945340e+000 -4.738153e+000 -9.531490e+000 -8.453116e+000 -5.524764e+000 -6.164258e+000 -2.235373e+000 -5.412511e+000 -2.071016e+000 -2.645026e+000 -3.045562e+000 5.513797e+001 4.529137e-002 -7.804609e-003 4.854799e-002 -1.825849e-002 -3.897180e-002 -1.771392e-002 -1.827776e-002 -2.177843e-002 -2.765259e-002 -2.861661e-003 -1.094203e-003 -9.060403e-003 2.890688e-002 -8.792242e-003 -1.831233e-003 -5.401439e-003 -2.228547e-003 3.554789e-003 1.873884e-003 2.769761e-003 6.605478e-003 1.056382e-002 8.679885e-004 -1.922358e-004 5.254373e-003 -2.033557e-004
<VARIANCE> 39
 8.611552e+001 5.595148e+001 7.716333e+001 7.992896e+001 8.457360e+001 7.302142e+001 7.030774e+001 7.463879e+001 7.714108e+001 5.018292e+001 5.426552e+001 4.011363e+001 9.314857e+001 4.256042e+000 3.514567e+000 3.429337e+000 4.630710e+000 4.598108e+000 4.087235e+000 4.231835e+000 5.074095e+000 5.005138e+000 3.416151e+000 3.243098e+000 2.690539e+000 5.446970e+000 5.916209e-001 5.911285e-001 5.484237e-001 7.651988e-001 7.555272e-001 7.075420e-001 7.493370e-001 8.869871e-001 8.789812e-001 6.301663e-001 5.918538e-001 4.856946e-001 8.970833e-001
<GCONST> 1.399306e+002
<STATE> 3
<MEAN> 39
 -8.848390e+000 -6.974562e+000 -4.644908e+000 -9.594680e+000 -8.534224e+000 -5.559871e+000 -6.199962e+000 -2.255208e+000 -5.435568e+000 -2.071022e+000 -2.644410e+000 -3.043521e+000 5.521206e+001 1.608726e-002 -1.340998e-002 3.157996e-002 -2.392581e-002 -2.719431e-002 -9.634925e-003 -9.352719e-003 -2.254586e-004 2.718255e-003 2.068739e-004 5.890274e-004 6.679617e-003 2.337953e-002 -1.178678e-002 -3.102703e-003 -7.657428e-003 -2.712478e-003 4.379722e-003 3.478899e-003 3.649827e-003 9.306202e-003 1.245410e-002 1.114413e-003 1.048257e-003 6.346620e-003 -2.636511e-003
<VARIANCE> 39
 8.503857e+001 5.617826e+001 7.815748e+001 8.059558e+001 8.525500e+001 7.348111e+001 7.048058e+001 7.498772e+001 7.739920e+001 5.015879e+001 5.452659e+001 4.004738e+001 9.191652e+001 4.234393e+000 3.532412e+000 3.437729e+000 4.676410e+000 4.621689e+000 4.109420e+000 4.229372e+000 5.069069e+000 5.017229e+000 3.411594e+000 3.242827e+000 2.678635e+000 5.552354e+000 5.876964e-001 5.947692e-001 5.491328e-001 7.716576e-001 7.600147e-001 7.106066e-001 7.458174e-001 8.867904e-001 8.818191e-001 6.286524e-001 5.924007e-001 4.839518e-001 9.137413e-001
<GCONST> 1.400253e+002
<STATE> 4
<MEAN> 39
 -8.918380e+000 -7.028831e+000 -4.634574e+000 -9.704110e+000 -8.582818e+000 -5.547844e+000 -6.188450e+000 -2.207743e+000 -5.335317e+000 -2.055841e+000 -2.630864e+000 -2.978364e+000 5.525803e+001 -2.526905e-002 -1.959877e-002 6.658930e-003 -2.477342e-002 -8.457476e-003 9.966685e-004 4.037014e-003 2.963988e-002 3.936002e-002 5.645557e-003 4.472699e-003 2.628649e-002 3.148579e-003 -1.223657e-002 -2.200849e-003 -7.677373e-003 -4.856839e-004 4.792245e-003 2.864661e-003 4.198161e-003 9.243619e-003 1.105371e-002 1.725513e-003 1.367845e-003 5.912028e-003 -6.232107e-003
<VARIANCE> 39
 8.529398e+001 5.650705e+001 7.917225e+001 8.088145e+001 8.621780e+001 7.428669e+001 7.081136e+001 7.503465e+001 7.708341e+001 4.998704e+001 5.432940e+001 3.969630e+001 9.313157e+001 4.186516e+000 3.520125e+000 3.417367e+000 4.671423e+000 4.613782e+000 4.117302e+000 4.206223e+000 4.997030e+000 4.936765e+000 3.380504e+000 3.218158e+000 2.637548e+000 5.630164e+000 5.806395e-001 5.926464e-001 5.440690e-001 7.701444e-001 7.592878e-001 7.102774e-001 7.380208e-001 8.744608e-001 8.680651e-001 6.214689e-001 5.882006e-001 4.772815e-001 9.317960e-001
<GCONST> 1.399138e+002
<TRANSP> 5
 0.000000e+000 1.000000e+000 0.000000e+000 0.000000e+000 0.000000e+000
 0.000000e+000 6.116884e-001 3.883116e-001 0.000000e+000 0.000000e+000
 0.000000e+000 0.000000e+000 6.116868e-001 3.883132e-001 0.000000e+000
 0.000000e+000 0.000000e+000 0.000000e+000 7.175535e-001 2.824465e-001
 0.000000e+000 0.000000e+000 0.000000e+000 0.000000e+000 0.000000e+000
<ENDHMM>
~h "n"
<BEGINHMM>
<NUMSTATES> 5
<STATE> 2
<MEAN> 39
 -8.666740e+000 -7.445470e+000 -4.641257e+000 -1.006913e+001 -9.188903e+000 -5.828469e+000 -6.058616e+000 -1.638462e+000 -4.734569e+000 -2.077178e+000 -3.304533e+000 -2.660862e+000 5.585264e+001 -1.462698e-002 7.967009e-003 -6.469106e-003 1.356502e-002 2.211507e-002 -2.306893e-002 1.128339e-002 1.528131e-003 -2.197262e-003 -7.736830e-003 -1.036027e-002 9.861272e-003 4.314845e-005 -9.180080e-003 9.287437e-004 -1.799392e-004 3.114365e-003 4.843981e-003 -4.821143e-004 2.771378e-003 5.703290e-003 4.806557e-003 4.380001e-004 3.522859e-003 3.971972e-003 -8.195047e-003
<VARIANCE> 39
 8.699242e+001 6.030203e+001 7.279107e+001 7.779248e+001 7.758965e+001 7.250452e+001 7.443701e+001 7.585746e+001 7.221568e+001 5.176947e+001 5.389137e+001 3.847069e+001 8.763058e+001 4.173220e+000 3.553141e+000 3.302951e+000 4.095251e+000 4.332127e+000 4.157459e+000 4.403998e+000 5.402916e+000 4.434247e+000 3.535032e+000 3.205415e+000 2.599475e+000 4.682411e+000 5.838479e-001 5.952718e-001 5.127861e-001 6.772641e-001 7.130281e-001 7.132835e-001 7.675729e-001 9.662831e-001 7.882128e-001 6.536048e-001 5.797584e-001 4.758917e-001 7.546191e-001
<GCONST> 1.389501e+002
<STATE> 3
<MEAN> 39
 -8.741688e+000 -7.416920e+000 -4.662135e+000 -1.002427e+001 -9.111366e+000 -5.891054e+000 -6.017386e+000 -1.608418e+000 -4.717835e+000 -2.092054e+000 -3.315501e+000 -2.620311e+000 5.582689e+001 -3.597600e-002 8.683760e-003 -9.807983e-003 1.754830e-002 3.401900e-002 -2.096023e-002 1.637824e-002 1.763451e-002 1.202353e-002 -5.485435e-003 6.218515e-005 1.875786e-002 -1.802712e-002 -7.431047e-003 8.932627e-006 -2.051079e-003 1.063115e-003 3.991558e-003 1.626282e-003 1.626348e-003 5.777976e-003 5.516811e-003 1.286853e-003 4.264587e-003 3.081745e-003 -7.159881e-003
<VARIANCE> 39
 8.791045e+001 6.075837e+001 7.288376e+001 7.742187e+001 7.790086e+001 7.201691e+001 7.473772e+001 7.591887e+001 7.207262e+001 5.162274e+001 5.357369e+001 3.841842e+001 8.735465e+001 4.185459e+000 3.563848e+000 3.327980e+000 4.071054e+000 4.335223e+000 4.131809e+000 4.398071e+000 5.387219e+000 4.419682e+000 3.523267e+000 3.191601e+000 2.589298e+000 4.631312e+000 5.848184e-001 5.942830e-001 5.154257e-001 6.736590e-001 7.120593e-001 7.090302e-001 7.655559e-001 9.628519e-001 7.856836e-001 6.507344e-001 5.774056e-001 4.741747e-001 7.470083e-001
<GCONST> 1.388843e+002
<STATE> 4
<MEAN> 39
 -8.919971e+000 -7.372498e+000 -4.749529e+000 -9.974493e+000 -8.989062e+000 -5.937450e+000 -5.929933e+000 -1.541862e+000 -4.650032e+000 -2.108943e+000 -3.278808e+000 -2.549308e+000 5.573959e+001 -5.424267e-002 1.005120e-002 -1.986760e-002 1.764341e-002 4.544832e-002 -1.120232e-002 1.966060e-002 3.210143e-002 2.746643e-002 7.717023e-005 1.451585e-002 2.546760e-002 -3.762244e-002 -4.630994e-003 3.278246e-004 -3.666974e-003 -5.463155e-005 2.683824e-003 3.534893e-003 8.695797e-004 3.413043e-003 4.346692e-003 2.085519e-003 4.358394e-003 1.566517e-003 -6.382209e-003
<VARIANCE> 39
 8.967709e+001 6.129936e+001 7.335813e+001 7.718640e+001 7.851408e+001 7.169565e+001 7.515184e+001 7.534361e+001 7.161028e+001 5.126327e+001 5.292100e+001 3.826723e+001 8.930039e+001 4.206008e+000 3.559656e+000 3.351044e+000 4.032795e+000 4.336891e+000 4.095980e+000 4.373257e+000 5.274518e+000 4.353497e+000 3.485507e+000 3.159937e+000 2.569507e+000 4.592264e+000 5.855483e-001 5.883219e-001 5.163360e-001 6.656350e-001 7.090730e-001 7.021967e-001 7.589726e-001 9.408203e-001 7.725645e-001 6.421713e-001 5.714929e-001 4.703360e-001 7.401363e-001
<GCONST> 1.387019e+002
<TRANSP> 5
 0.000000e+000 1.000000e+000 0.000000e+000 0.000000e+000 0.000000e+000
 0.000000e+000 6.126846e-001 3.873154e-001 0.000000e+000 0.000000e+000
 0.000000e+000 0.000000e+000 6.126776e-001 3.873224e-001 0.000000e+000
 0.000000e+000 0.000000e+000 0.000000e+000 7.184357e-001 2.815643e-001
 0.000000e+000 0.000000e+000 0.000000e+000 0.000000e+000 0.000000e+000
<ENDHMM>
~h "p"
<BEGINHMM>
<NUMSTATES> 5
<STATE> 2
<MEAN> 39
 -1.097357e+001 -7.073400e+000 -6.129627e+000 -9.231228e+000 -6.553753e+000 -4.882772e+000 -5.365235e+000 -1.077257e+000 -2.996577e+000 -1.254762e+000 -2.196818e+000 -2.023969e+000 5.330647e+001 4.122747e-002 -2.512856e-002 -2.854278e-002 -1.364662e-002 -1.189531e-002 -2.254056e-002 -1.259450e-002 4.615637e-003 9.120621e-003 -1.750113e-002 -6.141100e-004 4.318615e-003 3.892514e-002 4.225995e-003 -2.351218e-003 1.954776e-003 -1.450479e-003 -5.131940e-003 -4.516076e-003 -3.515697e-003 1.940249e-003 -2.063625e-003 -1.645833e-003 -1.441197e-003 1.062365e-003 7.657505e-003
<VARIANCE> 39
 9.981895e+001 5.920530e+001 6.949969e+001 8.015624e+001 7.202007e+001 7.003587e+001 6.945381e+001 5.798777e+001 5.856334e+001 4.287203e+001 4.462902e+001 3.361250e+001 1.381614e+002 5.796165e+000 4.038786e+000 3.423490e+000 4.913352e+000 4.505484e+000 4.403142e+000 4.697051e+000 4.332345e+000 4.153671e+000 3.322011e+000 3.111695e+000 2.542120e+000 9.831368e+000 8.469920e-001 6.813245e-001 5.432002e-001 7.949696e-001 7.424495e-001 7.559197e-001 8.028653e-001 7.827028e-001 7.453609e-001 6.214670e-001 5.762367e-001 4.696722e-001 1.557901e+000
<GCONST> 1.407736e+002
<STATE> 3
<MEAN> 39
 -1.084719e+001 -7.147725e+000 -6.197501e+000 -9.283568e+000 -6.610766e+000 -4.963185e+000 -5.416865e+000 -1.056961e+000 -2.983498e+000 -1.307081e+000 -2.207610e+000 -2.010959e+000 5.345379e+001 5.149667e-002 -2.940495e-002 -2.168572e-002 -1.897177e-002 -2.566065e-002 -3.278892e-002 -2.271927e-002 9.344889e-003 2.245873e-003 -2.230360e-002 -4.524413e-003 5.583516e-003 5.740606e-002 3.993304e-003 -1.700086e-003 2.947691e-003 -2.735977e-003 -5.418016e-003 -3.480645e-003 -3.889800e-003 1.948501e-003 -3.052206e-003 -1.727085e-003 -1.251826e-003 4.796926e-004 7.436185e-003
<VARIANCE> 39
 9.983773e+001 5.920587e+001 6.976056e+001 8.041947e+001 7.264465e+001 7.050903e+001 7.036452e+001 5.864718e+001 5.895102e+001 4.290606e+001 4.477262e+001 3.359350e+001 1.350972e+002 5.787399e+000 3.992245e+000 3.416622e+000 4.894938e+000 4.500655e+000 4.394594e+000 4.721969e+000 4.338994e+000 4.155160e+000 3.326690e+000 3.104892e+000 2.536843e+000 9.638058e+000 8.414986e-001 6.708519e-001 5.389886e-001 7.881889e-001 7.392729e-001 7.530914e-001 8.038701e-001 7.825896e-001 7.437278e-001 6.215563e-001 5.740286e-001 4.690661e-001 1.524227e+000
<GCONST> 1.406964e+002
<STATE> 4
<MEAN> 39
 -1.069724e+001 -7.241223e+000 -6.272025e+000 -9.391150e+000 -6.738517e+000 -5.084370e+000 -5.489128e+000 -1.037297e+000 -3.000794e+000 -1.400939e+000 -2.250307e+000 -1.997219e+000 5.370097e+001 5.498856e-002 -2.675799e-002 -9.564298e-003 -2.426418e-002 -3.941359e-002 -4.067094e-002 -3.199764e-002 1.288059e-002 -8.638988e-003 -2.658476e-002 -7.355433e-003 6.042470e-003 6.577857e-002 1.078917e-003 7.663481e-004 4.003324e-003 -1.706751e-003 -4.173605e-003 -1.917211e-003 -2.626881e-003 9.625191e-004 -3.779647e-003 -1.430264e-003 -4.197605e-004 5.985005e-005 2.515001e-003
<VARIANCE> 39
 1.001613e+002 5.943118e+001 7.062587e+001 8.110098e+001 7.400034e+001 7.165174e+001 7.179649e+001 5.982148e+001 5.973650e+001 4.328040e+001 4.520337e+001 3.371674e+001 1.316180e+002 5.699617e+000 3.895555e+000 3.394391e+000 4.823636e+000 4.474244e+000 4.370150e+000 4.730105e+000 4.327270e+000 4.128554e+000 3.323880e+000 3.091844e+000 2.520938e+000 9.104797e+000 8.218125e-001 6.508375e-001 5.312981e-001 7.733561e-001 7.313883e-001 7.467467e-001 8.013259e-001 7.770023e-001 7.360759e-001 6.193498e-001 5.699084e-001 4.662078e-001 1.438499e+000
<GCONST> 1.404577e+002
<TRANSP> 5
 0.000000e+000 1.000000e+000 0.000000e+000 0.000000e+000 0.000000e+000
 0.000000e+000 6.089492e-001 3.910508e-001 0.000000e+000 0.000000e+000
 0.000000e+000 0.000000e+000 6.089534e-001 3.910467e-001 0.000000e+000
 0.000000e+000 0.000000e+000 0.000000e+000 7.142493e-001 2.857507e-001
 0.000000e+000 0.000000e+000 0.000000e+000 0.000000e+000 0.000000e+000
<ENDHMM>
~h "r"
<BEGINHMM>
<NUMSTATES> 5
<STATE> 2
<MEAN> 39
 -7.656381e+000 -9.032557e+000 -6.608953e+000 -8.672605e+000 -8.140722e+000 -7.641627e+000 -7.469863e+000 5.199224e-001 -3.670341e+000 -2.332891e+000 -1.979299e+000 -1.728895e+000 5.593329e+001 -2.382316e-002 2.080932e-002 -2.882287e-002 -2.312220e-002 3.204829e-002 4.331212e-002 3.093528e-002 -2.630049e-002 1.679362e-003 8.055786e-004 -2.116164e-002 -1.679734e-002 -1.414318e-002 -9.154343e-003 6.499973e-003 1.152960e-002 -5.694343e-003 -5.152712e-003 6.394605e-003 5.276149e-003 -6.251124e-003 -4.877398e-003 2.661657e-003 1.063302e-003 -6.055278e-004 -6.718748e-003
<VARIANCE> 39
 1.089080e+002 6.414108e+001 9.225587e+001 7.756289e+001 8.134769e+001 8.477189e+001 9.328339e+001 7.781524e+001 7.589600e+001 5.043817e+001 4.960410e+001 3.612966e+001 9.023100e+001 4.888807e+000 3.868745e+000 4.085092e+000 4.100516e+000 4.547354e+000 4.727977e+000 5.307557e+000 4.667216e+000 4.188879e+000 3.374061e+000 3.083503e+000 2.464957e+000 5.353209e+000 6.540068e-001 6.340798e-001 5.803713e-001 6.596539e-001 7.353412e-001 7.808285e-001 8.693989e-001 7.963297e-001 7.173012e-001 6.055225e-001 5.518438e-001 4.487602e-001 8.610033e-001
<GCONST> 1.406252e+002
<STATE> 3
<MEAN> 39
 -7.763206e+000 -8.955130e+000 -6.649703e+000 -8.740894e+000 -8.062152e+000 -7.503497e+000 -7.362504e+000 4.384034e-001 -3.670478e+000 -2.323040e+000 -2.036942e+000 -1.772702e+000 5.586281e+001 -5.031418e-002 3.727904e-002 1.359860e-003 -3.696112e-002 1.856861e-002 6.024481e-002 4.571212e-002 -4.152414e-002 -1.003161e-002 8.668617e-003 -1.703105e-002 -1.750219e-002 -3.353174e-002 -8.603834e-003 6.485233e-003 9.839255e-003 -4.934962e-003 -4.938712e-003 4.966440e-003 4.135499e-003 -4.532195e-003 -3.241936e-003 3.363059e-003 1.875762e-003 1.475986e-004 -6.829519e-003
<VARIANCE> 39
 1.089449e+002 6.418987e+001 9.107816e+001 7.832014e+001 8.117396e+001 8.368109e+001 9.267576e+001 7.696700e+001 7.529523e+001 5.036764e+001 4.978231e+001 3.620794e+001 9.058243e+001 4.867417e+000 3.847325e+000 4.049565e+000 4.113176e+000 4.535762e+000 4.714947e+000 5.280622e+000 4.656842e+000 4.181694e+000 3.375532e+000 3.088643e+000 2.476228e+000 5.279568e+000 6.496221e-001 6.293302e-001 5.786585e-001 6.615722e-001 7.364978e-001 7.793710e-001 8.670216e-001 7.971252e-001 7.184801e-001 6.068101e-001 5.536355e-001 4.514855e-001 8.483983e-001
<GCONST> 1.405357e+002
<STATE> 4
<MEAN> 39
 -8.029464e+000 -8.781694e+000 -6.620472e+000 -8.881288e+000 -8.020053e+000 -7.287307e+000 -7.146065e+000 2.697406e-001 -3.714046e+000 -2.288007e+000 -2.100394e+000 -1.829499e+000 5.570833e+001 -7.998975e-002 5.633679e-002 2.757663e-002 -4.618130e-002 7.709832e-003 7.549731e-002 5.985984e-002 -5.336897e-002 -1.574003e-002 1.842805e-002 -1.103868e-002 -1.519557e-002 -5.873976e-002 -6.746985e-003 6.372136e-003 6.574501e-003 -2.660850e-003 -3.208581e-003 3.180369e-003 2.639622e-003 -2.773409e-003 -9.027713e-004 3.316330e-003 1.918513e-003 7.219583e-004 -6.376143e-003
<VARIANCE> 39
 1.091360e+002 6.418100e+001 8.961525e+001 7.931851e+001 8.103049e+001 8.263514e+001 9.148920e+001 7.571519e+001 7.415442e+001 5.016311e+001 4.990145e+001 3.629232e+001 9.320029e+001 4.760114e+000 3.796098e+000 3.973100e+000 4.103630e+000 4.497496e+000 4.662999e+000 5.164197e+000 4.612759e+000 4.139258e+000 3.358282e+000 3.082044e+000 2.478137e+000 5.177766e+000 6.344577e-001 6.185977e-001 5.705392e-001 6.588705e-001 7.331585e-001 7.722653e-001 8.518490e-001 7.925965e-001 7.135552e-001 6.049660e-001 5.530895e-001 4.523125e-001 8.316927e-001
<GCONST> 1.402344e+002
<TRANSP> 5
 0.000000e+000 1.000000e+000 0.000000e+000 0.000000e+000 0.000000e+000
 0.000000e+000 6.181118e-001 3.818883e-001 0.000000e+000 0.000000e+000
 0.000000e+000 0.000000e+000 6.181046e-001 3.818954e-001 0.000000e+000
 0.000000e+000 0.000000e+000 0.000000e+000 7.245075e-001 2.754925e-001
 0.000000e+000 0.000000e+000 0.000000e+000 0.000000e+000 0.000000e+000
<ENDHMM>
~h "s"
<BEGINHMM>
<NUMSTATES> 5
<STATE> 2
<MEAN> 39
 -1.417308e+001 -5.656986e+000 -5.714244e+000 -9.717793e+000 -6.523818e+000 -6.059237e+000 -5.135288e+000 -4.426780e-001 -3.283774e+000 -1.447438e+000 -2.347689e+000 -1.641050e+000 5.592314e+001 3.058253e-002 -4.325574e-003 1.411883e-002 -4.638080e-003 -9.823440e-003 3.589622e-002 1.472198e-003 -2.583229e-002 -9.358401e-003 1.100096e-002 1.910230e-002 -5.745885e-003 -7.060218e-002 1.693787e-002 -7.128508e-003 2.382212e-003 1.276194e-003 -8.444786e-003 6.450900e-004 -3.365078e-003 -2.011390e-003 -4.146436e-003 -8.846771e-004 -4.259149e-004 -2.195466e-003 -5.512120e-003
<VARIANCE> 39
 1.387833e+002 6.253479e+001 6.946173e+001 7.014906e+001 8.042332e+001 6.655519e+001 7.347698e+001 5.639479e+001 5.861391e+001 4.206520e+001 4.325835e+001 3.250021e+001 9.175056e+001 6.887166e+000 3.765049e+000 3.371045e+000 4.018422e+000 4.591840e+000 4.178834e+000 4.663254e+000 3.956458e+000 3.642151e+000 3.092524e+000 2.965113e+000 2.393828e+000 5.380245e+000 8.777062e-001 5.960416e-001 5.297586e-001 6.527778e-001 7.286317e-001 7.182409e-001 7.930779e-001 7.139570e-001 6.433875e-001 5.750554e-001 5.350182e-001 4.373187e-001 9.022354e-001
<GCONST> 1.380489e+002
<STATE> 3
<MEAN> 39
 -1.401744e+001 -5.703876e+000 -5.666233e+000 -9.741693e+000 -6.586226e+000 -5.969610e+000 -5.151546e+000 -5.178914e-001 -3.326791e+000 -1.424771e+000 -2.303818e+000 -1.667005e+000 5.573577e+001 7.497106e-002 -2.287485e-002 2.119767e-002 -1.309438e-003 -3.333532e-002 3.696975e-002 -7.395243e-003 -2.978996e-002 -1.984208e-002 7.693682e-003 1.632920e-002 -1.160954e-002 -8.168154e-002 1.399308e-002 -5.592806e-003 3.349558e-003 1.577717e-003 -8.642607e-003 -4.377065e-004 -3.191619e-003 -1.086172e-003 -3.846470e-003 -1.384827e-003 -9.470893e-004 -1.855484e-003 -2.180749e-003
<VARIANCE> 39
 1.373706e+002 6.166351e+001 7.003270e+001 7.105373e+001 8.080182e+001 6.660445e+001 7.311522e+001 5.626087e+001 5.883578e+001 4.208772e+001 4.321325e+001 3.252168e+001 9.261576e+001 6.803339e+000 3.736891e+000 3.361856e+000 4.056041e+000 4.593323e+000 4.185267e+000 4.649583e+000 3.965853e+000 3.659722e+000 3.097621e+000 2.962508e+000 2.394445e+000 5.477964e+000 8.698393e-001 5.949308e-001 5.295404e-001 6.583604e-001 7.320683e-001 7.190287e-001 7.926506e-001 7.166048e-001 6.473211e-001 5.767495e-001 5.351894e-001 4.372891e-001 9.180716e-001
<GCONST> 1.381019e+002
<STATE> 4
<MEAN> 39
 -1.367832e+001 -5.811878e+000 -5.600397e+000 -9.763916e+000 -6.778757e+000 -5.849625e+000 -5.189772e+000 -6.503558e-001 -3.428917e+000 -1.416631e+000 -2.264823e+000 -1.719318e+000 5.548469e+001 1.171492e-001 -4.019288e-002 3.070413e-002 2.132270e-003 -5.751286e-002 3.528429e-002 -1.665747e-002 -3.149971e-002 -2.810429e-002 3.767192e-003 1.172645e-002 -1.702813e-002 -8.758306e-002 9.342764e-003 -3.791960e-003 3.453995e-003 1.645245e-003 -6.549029e-003 -1.560974e-003 -2.756684e-003 -2.592744e-004 -2.161266e-003 -1.178758e-003 -9.215432e-004 -1.007707e-003 -2.871985e-004
<VARIANCE> 39
 1.347662e+002 6.080697e+001 7.138368e+001 7.285494e+001 8.152520e+001 6.724512e+001 7.286438e+001 5.661330e+001 5.960854e+001 4.246991e+001 4.350793e+001 3.281096e+001 9.525028e+001 6.541637e+000 3.673054e+000 3.344400e+000 4.085574e+000 4.578680e+000 4.178856e+000 4.604233e+000 3.977008e+000 3.679333e+000 3.106667e+000 2.955314e+000 2.393739e+000 5.533725e+000 8.410887e-001 5.893682e-001 5.270131e-001 6.622360e-001 7.348059e-001 7.173078e-001 7.866849e-001 7.190288e-001 6.513503e-001 5.786116e-001 5.347345e-001 4.369295e-001 9.282340e-001
<GCONST> 1.381235e+002
<TRANSP> 5
 0.000000e+000 1.000000e+000 0.000000e+000 0.000000e+000 0.000000e+000
 0.000000e+000 6.177459e-001 3.822541e-001 0.000000e+000 0.000000e+000
 0.000000e+000 0.000000e+000 6.177456e-001 3.822544e-001 0.000000e+000
 0.000000e+000 0.000000e+000 0.000000e+000 7.242597e-001 2.757402e-001
 0.000000e+000 0.000000e+000 0.000000e+000 0.000000e+000 0.000000e+000
<ENDHMM>
~h "t"
<BEGINHMM>
<NUMSTATES> 5
<STATE> 2
<MEAN> 39
 -1.042767e+001 -7.690713e+000 -5.044097e+000 -9.681891e+000 -8.446379e+000 -5.977447e+000 -5.588424e+000 -7.263561e-001 -3.429067e+000 -1.523359e+000 -2.535605e+000 -2.006552e+000 5.466476e+001 -2.127752e-002 1.739794e-002 5.538996e-003 1.330362e-002 2.603709e-002 -6.564938e-003 2.222070e-002 1.188676e-003 -1.119144e-002 -4.768902e-003 1.127405e-003 1.791522e-002 -4.086309e-002 -5.986229e-004 2.872925e-003 -3.520992e-003 1.899434e-003 4.592682e-003 5.003003e-003 1.302704e-003 -1.007974e-003 -8.538318e-004 7.851075e-004 2.228653e-003 6.453834e-004 -4.832669e-003
<VARIANCE> 39
 1.003640e+002 6.053976e+001 7.880795e+001 7.827057e+001 7.830686e+001 7.193987e+001 7.734096e+001 6.548417e+001 6.589044e+001 4.710273e+001 4.825116e+001 3.548412e+001 1.176226e+002 4.664048e+000 3.685397e+000 3.312413e+000 4.428610e+000 4.557014e+000 4.331971e+000 4.551262e+000 4.380708e+000 4.017097e+000 3.324691e+000 3.086391e+000 2.494384e+000 7.340723e+000 6.577016e-001 6.284952e-001 5.258545e-001 7.493539e-001 7.591514e-001 7.418536e-001 7.721314e-001 7.820476e-001 7.157518e-001 6.165134e-001 5.654688e-001 4.608226e-001 1.241041e+000
<GCONST> 1.398278e+002
<STATE> 3
<MEAN> 39
 -1.046912e+001 -7.640058e+000 -5.044991e+000 -9.650479e+000 -8.368999e+000 -5.981366e+000 -5.538323e+000 -7.285506e-001 -3.460638e+000 -1.532609e+000 -2.525453e+000 -1.962673e+000 5.455648e+001 -1.888658e-002 2.399793e-002 -1.761811e-003 1.823168e-002 3.448080e-002 6.313124e-003 2.306755e-002 -2.095982e-003 -1.457521e-002 -2.830977e-003 6.248470e-003 1.778327e-002 -5.353837e-002 1.116116e-003 2.078129e-003 -2.622676e-003 1.615320e-003 2.495108e-003 4.645746e-003 2.652526e-004 -1.039762e-003 -9.012717e-004 9.510254e-004 1.802117e-003 -4.570727e-004 -3.244852e-003
<VARIANCE> 39
 1.001747e+002 6.030008e+001 7.844099e+001 7.870624e+001 7.794350e+001 7.215757e+001 7.719086e+001 6.576380e+001 6.574807e+001 4.696735e+001 4.788872e+001 3.529957e+001 1.173485e+002 4.685251e+000 3.678393e+000 3.322065e+000 4.383224e+000 4.530999e+000 4.318315e+000 4.549856e+000 4.362052e+000 4.018200e+000 3.322800e+000 3.078674e+000 2.489895e+000 7.201657e+000 6.587489e-001 6.262509e-001 5.249842e-001 7.393261e-001 7.524580e-001 7.382154e-001 7.711300e-001 7.776356e-001 7.148741e-001 6.156443e-001 5.635029e-001 4.596284e-001 1.214313e+000
<GCONST> 1.396931e+002
<STATE> 4
<MEAN> 39
 -1.051811e+001 -7.554216e+000 -5.113575e+000 -9.610935e+000 -8.263720e+000 -5.931420e+000 -5.452674e+000 -7.749391e-001 -3.506377e+000 -1.542482e+000 -2.495622e+000 -1.920705e+000 5.438480e+001 -8.728295e-003 2.849483e-002 -5.034574e-003 2.148066e-002 3.526518e-002 1.721013e-002 1.792154e-002 -6.168943e-003 -1.857315e-002 -5.710608e-004 1.030151e-002 1.352740e-002 -6.317428e-002 2.758244e-003 1.120426e-003 -2.525710e-004 5.641889e-004 -5.716000e-004 2.138664e-003 -1.690880e-003 -9.341511e-004 -9.399175e-004 6.847616e-004 7.338102e-004 -1.531336e-003 -7.575015e-004
<VARIANCE> 39
 1.000458e+002 6.009350e+001 7.833556e+001 7.960928e+001 7.779546e+001 7.292218e+001 7.708204e+001 6.607669e+001 6.558884e+001 4.693195e+001 4.754693e+001 3.512824e+001 1.185499e+002 4.650135e+000 3.630158e+000 3.321453e+000 4.296521e+000 4.478113e+000 4.272337e+000 4.509072e+000 4.311933e+000 3.995338e+000 3.306771e+000 3.052171e+000 2.473088e+000 6.874442e+000 6.510316e-001 6.157910e-001 5.209206e-001 7.198922e-001 7.401097e-001 7.281785e-001 7.634959e-001 7.673026e-001 7.086551e-001 6.117128e-001 5.580381e-001 4.560931e-001 1.155761e+000
<GCONST> 1.393504e+002
<TRANSP> 5
 0.000000e+000 1.000000e+000 0.000000e+000 0.000000e+000 0.000000e+000
 0.000000e+000 6.148754e-001 3.851246e-001 0.000000e+000 0.000000e+000
 0.000000e+000 0.000000e+000 6.148679e-001 3.851320e-001 0.000000e+000
 0.000000e+000 0.000000e+000 0.000000e+000 7.209505e-001 2.790494e-001
 0.000000e+000 0.000000e+000 0.000000e+000 0.000000e+000 0.000000e+000
<ENDHMM>
~h "v"
<BEGINHMM>
<NUMSTATES> 5
<STATE> 2
<MEAN> 39
 -8.451702e+000 -7.337253e+000 -5.876947e+000 -1.048031e+001 -8.410593e+000 -6.034248e+000 -7.029948e+000 -1.719672e+000 -3.540743e+000 -1.544528e+000 -2.419674e+000 -2.474253e+000 5.635287e+001 5.674603e-004 5.747419e-003 -1.575417e-002 6.096742e-003 3.351441e-002 -5.326755e-003 2.659191e-003 -2.521139e-003 -8.894463e-003 -1.451247e-002 3.173499e-003 -1.164210e-004 -1.276131e-002 -6.375934e-003 2.366608e-003 1.957381e-003 3.038527e-003 2.296824e-003 2.366291e-003 4.941079e-003 5.064001e-004 -9.128965e-004 -5.939212e-004 -3.286180e-004 2.088583e-003 -7.212112e-003
<VARIANCE> 39
 9.276888e+001 5.846700e+001 7.622855e+001 7.885693e+001 7.420690e+001 7.242519e+001 7.845149e+001 6.548176e+001 6.333757e+001 4.739655e+001 5.016944e+001 3.666099e+001 8.640998e+001 4.789069e+000 3.613648e+000 3.158904e+000 4.197106e+000 4.179952e+000 3.964467e+000 4.487246e+000 4.350989e+000 3.810552e+000 3.202299e+000 2.949921e+000 2.438991e+000 5.086197e+000 7.088481e-001 5.988334e-001 4.862874e-001 6.812755e-001 6.784500e-001 6.790974e-001 7.650266e-001 7.675253e-001 6.796840e-001 5.917242e-001 5.393764e-001 4.419471e-001 8.255045e-001
<GCONST> 1.376051e+002
<STATE> 3
<MEAN> 39
 -8.484536e+000 -7.312401e+000 -5.909862e+000 -1.044993e+001 -8.313136e+000 -6.044159e+000 -6.996428e+000 -1.717549e+000 -3.564964e+000 -1.579682e+000 -2.412751e+000 -2.463940e+000 5.628724e+001 -1.634093e-002 1.038539e-002 -1.070961e-002 1.194162e-002 3.709466e-002 1.019909e-003 1.668044e-002 1.034953e-003 -1.050819e-002 -1.461891e-002 2.187142e-003 4.375898e-003 -2.988556e-002 -7.236358e-003 1.857385e-003 2.686479e-003 2.350094e-003 6.702275e-004 2.314145e-003 5.672714e-003 1.602728e-003 -5.281361e-004 3.311801e-004 -5.321875e-004 1.671038e-003 -6.810452e-003
<VARIANCE> 39
 9.304746e+001 5.819541e+001 7.686568e+001 7.866365e+001 7.432018e+001 7.279467e+001 7.828909e+001 6.528043e+001 6.329598e+001 4.742884e+001 4.989542e+001 3.664550e+001 8.622543e+001 4.781501e+000 3.605794e+000 3.187779e+000 4.211017e+000 4.201754e+000 3.986156e+000 4.494704e+000 4.342671e+000 3.825369e+000 3.211095e+000 2.955945e+000 2.439082e+000 5.109474e+000 7.068545e-001 5.988165e-001 4.903242e-001 6.840944e-001 6.819658e-001 6.822677e-001 7.672181e-001 7.666473e-001 6.826884e-001 5.938475e-001 5.404023e-001 4.430257e-001 8.318272e-001
<GCONST> 1.376761e+002
<STATE> 4
<MEAN> 39
 -8.648614e+000 -7.239819e+000 -5.966872e+000 -1.038853e+001 -8.183918e+000 -6.029051e+000 -6.867060e+000 -1.711269e+000 -3.592042e+000 -1.624762e+000 -2.426683e+000 -2.438629e+000 5.612170e+001 -3.738431e-002 1.448218e-002 -2.720159e-003 1.631266e-002 3.539995e-002 7.546851e-003 3.396853e-002 9.056876e-003 -1.069255e-002 -1.097421e-002 3.938477e-004 8.451371e-003 -4.839959e-002 -6.597016e-003 1.328342e-003 3.163903e-003 1.167740e-003 -1.266246e-003 2.044072e-003 4.970522e-003 2.349186e-003 4.443233e-005 1.318225e-003 -5.999943e-004 9.906157e-004 -5.554729e-003
<VARIANCE> 39
 9.402693e+001 5.809556e+001 7.749330e+001 7.864135e+001 7.489119e+001 7.345382e+001 7.789296e+001 6.507284e+001 6.315292e+001 4.740567e+001 4.947520e+001 3.667466e+001 8.807388e+001 4.736918e+000 3.575176e+000 3.211508e+000 4.208193e+000 4.233559e+000 4.014616e+000 4.472864e+000 4.325678e+000 3.831979e+000 3.218330e+000 2.957227e+000 2.439547e+000 5.132984e+000 6.963719e-001 5.939983e-001 4.933715e-001 6.834085e-001 6.854542e-001 6.855468e-001 7.639595e-001 7.639340e-001 6.840081e-001 5.949748e-001 5.405992e-001 4.442969e-001 8.378803e-001
<GCONST> 1.377144e+002
<TRANSP> 5
 0.000000e+000 1.000000e+000 0.000000e+000 0.000000e+000 0.000000e+000
 0.000000e+000 6.113821e-001 3.886178e-001 0.000000e+000 0.000000e+000
 0.000000e+000 0.000000e+000 6.113828e-001 3.886172e-001 0.000000e+000
 0.000000e+000 0.000000e+000 0.000000e+000 7.171418e-001 2.828583e-001
 0.000000e+000 0.000000e+000 0.000000e+000 0.000000e+000 0.000000e+000
<ENDHMM>
~h "w"
<BEGINHMM>
<NUMSTATES> 5
<STATE> 2
<MEAN> 39
 -6.734976e+000 -7.282837e+000 -8.336374e+000 -1.281669e+001 -8.679584e+000 -3.570967e+000 -6.021329e+000 -1.525425e+000 -4.036945e+000 -1.255755e+000 -1.564488e+000 -2.299232e+000 5.530364e+001 8.443994e-002 -2.625426e-002 -2.729425e-002 -1.764182e-002 -6.678360e-003 -4.319241e-002 -5.573303e-002 -1.303001e-002 1.141295e-002 7.720255e-003 -1.351086e-002 -1.328369e-002 1.125070e-001 -5.736678e-003 -3.608921e-003 8.080466e-003 5.217120e-003 3.684506e-004 -7.202349e-003 -3.655168e-003 5.869059e-004 -1.582368e-003 -2.016275e-003 -1.424024e-003 1.048342e-003 6.407548e-003
<VARIANCE> 39
 1.145554e+002 6.071674e+001 7.983250e+001 1.004539e+002 7.769961e+001 8.201779e+001 7.767764e+001 6.243887e+001 6.986816e+001 4.989064e+001 5.262484e+001 3.559659e+001 8.820792e+001 5.081225e+000 3.612565e+000 3.540599e+000 5.012871e+000 4.630552e+000 4.574851e+000 4.786096e+000 4.274458e+000 4.226685e+000 3.604821e+000 3.256026e+000 2.678547e+000 4.217082e+000 6.471258e-001 5.770455e-001 5.359265e-001 7.340928e-001 7.532244e-001 7.529553e-001 8.004953e-001 7.834628e-001 7.441614e-001 6.753014e-001 5.957253e-001 4.952823e-001 6.406776e-001
<GCONST> 1.398132e+002
<STATE> 3
<MEAN> 39
 -6.562170e+000 -7.381479e+000 -8.380689e+000 -1.282619e+001 -8.682268e+000 -3.704831e+000 -6.171428e+000 -1.544655e+000 -3.994189e+000 -1.239401e+000 -1.603532e+000 -2.324142e+000 5.560432e+001 5.611991e-002 -3.547284e-002 -5.968212e-003 1.843663e-003 -7.731359e-004 -5.693464e-002 -5.771139e-002 -7.557189e-003 1.244139e-002 4.659145e-003 -1.464375e-002 -8.356903e-003 1.152652e-001 -1.161616e-002 -3.724032e-003 8.600766e-003 7.460761e-003 1.997947e-003 -4.575809e-003 8.003728e-005 2.510167e-003 5.234876e-004 -1.190837e-003 -3.116484e-004 1.846707e-003 -4.554416e-004
<VARIANCE> 39
 1.136633e+002 6.082476e+001 8.190089e+001 1.006715e+002 7.793867e+001 8.347845e+001 7.900618e+001 6.345555e+001 7.069074e+001 5.026928e+001 5.321251e+001 3.586159e+001 8.241728e+001 5.095490e+000 3.627039e+000 3.547011e+000 5.059132e+000 4.640021e+000 4.660059e+000 4.891448e+000 4.329252e+000 4.273987e+000 3.643625e+000 3.283396e+000 2.699396e+000 4.358465e+000 6.501175e-001 5.819675e-001 5.364416e-001 7.404080e-001 7.539849e-001 7.646766e-001 8.121373e-001 7.932274e-001 7.522404e-001 6.818694e-001 6.010003e-001 4.987767e-001 6.605289e-001
<GCONST> 1.401351e+002
<STATE> 4
<MEAN> 39
 -6.527762e+000 -7.525267e+000 -8.400557e+000 -1.277352e+001 -8.663013e+000 -3.878070e+000 -6.274118e+000 -1.550228e+000 -3.912584e+000 -1.252953e+000 -1.671612e+000 -2.341473e+000 5.593677e+001 3.029144e-003 -3.817026e-002 1.189925e-002 3.129666e-002 1.485758e-002 -5.796628e-002 -3.747451e-002 4.700826e-003 2.531785e-002 2.696835e-003 -1.458486e-002 2.021410e-004 8.068520e-002 -1.447134e-002 -2.111147e-004 5.987258e-003 7.203352e-003 3.461460e-003 -1.367731e-004 6.168365e-003 3.018409e-003 2.779879e-003 -9.565298e-004 -2.866860e-004 2.080720e-003 -9.801645e-003
<VARIANCE> 39
 1.134862e+002 6.052674e+001 8.525907e+001 1.015945e+002 7.860944e+001 8.515143e+001 8.028607e+001 6.445609e+001 7.154826e+001 5.071669e+001 5.364429e+001 3.606447e+001 7.765402e+001 4.980299e+000 3.582528e+000 3.540650e+000 5.031553e+000 4.610855e+000 4.694986e+000 4.914157e+000 4.335336e+000 4.270416e+000 3.634252e+000 3.267220e+000 2.688897e+000 4.412971e+000 6.367509e-001 5.752123e-001 5.324309e-001 7.348990e-001 7.476865e-001 7.670277e-001 8.091403e-001 7.917112e-001 7.517363e-001 6.774937e-001 5.980512e-001 4.958880e-001 6.756936e-001
<GCONST> 1.401246e+002
<TRANSP> 5
 0.000000e+000 1.000000e+000 0.000000e+000 0.000000e+000 0.000000e+000
 0.000000e+000 6.206341e-001 3.793658e-001 0.000000e+000 0.000000e+000
 0.000000e+000 0.000000e+000 6.206294e-001 3.793706e-001 0.000000e+000
 0.000000e+000 0.000000e+000 0.000000e+000 7.276560e-001 2.723440e-001
 0.000000e+000 0.000000e+000 0.000000e+000 0.000000e+000 0.000000e+000
<ENDHMM>
~h "y"
<BEGINHMM>
<NUMSTATES> 5
<STATE> 2
<MEAN> 39
 -9.067730e+000 -7.585981e+000 1.248108e+000 -9.243052e+000 -1.199992e+001 -8.099357e+000 -7.751307e+000 -7.879289e-001 -6.312374e+000 -3.086159e+000 -1.717634e+000 -1.674845e+000 5.597913e+001 7.285471e-002 -3.489019e-002 -7.124066e-002 1.709337e-001 5.144214e-002 -1.530552e-001 -1.105249e-001 9.001841e-002 3.958414e-002 -4.772336e-002 8.003307e-003 3.513062e-002 -3.163012e-002 8.242051e-003 -3.680745e-003 -3.689202e-002 -2.013107e-003 1.861825e-002 5.561161e-003 5.036504e-003 6.239126e-003 1.612200e-002 1.997209e-003 -4.569130e-003 -1.465874e-003 8.784856e-004
<VARIANCE> 39
 7.455570e+001 5.812586e+001 1.116663e+002 8.492318e+001 8.026395e+001 8.260526e+001 7.964268e+001 7.297834e+001 7.349036e+001 5.393391e+001 4.876714e+001 3.306881e+001 9.423251e+001 3.535389e+000 3.620301e+000 4.092811e+000 3.738967e+000 4.411041e+000 4.762503e+000 4.385092e+000 4.156726e+000 3.890255e+000 3.196056e+000 2.726133e+000 2.183401e+000 5.180065e+000 4.928163e-001 5.834211e-001 5.038122e-001 6.307317e-001 7.245254e-001 7.859390e-001 7.332531e-001 6.997547e-001 6.487668e-001 5.722486e-001 4.871210e-001 3.993644e-001 8.439440e-001
<GCONST> 1.376453e+002
<STATE> 3
<MEAN> 39
 -8.839162e+000 -7.704703e+000 9.389544e-001 -8.790680e+000 -1.182464e+001 -8.505558e+000 -8.024678e+000 -5.196784e-001 -6.160073e+000 -3.198738e+000 -1.694144e+000 -1.585937e+000 5.591339e+001 9.142476e-002 -4.798500e-002 -1.771830e-001 1.634288e-001 1.052774e-001 -1.344770e-001 -9.125950e-002 1.103511e-001 8.824228e-002 -3.904886e-002 -4.630797e-003 3.035743e-002 -2.971009e-002 3.361765e-003 -3.077002e-003 -3.619777e-002 -3.930957e-003 2.079528e-002 1.058427e-002 8.167762e-003 4.918366e-003 1.697695e-002 3.822941e-003 -5.846984e-003 -2.633622e-003 -1.409416e-003
<VARIANCE> 39
 7.576819e+001 5.824175e+001 1.125140e+002 8.414204e+001 8.169347e+001 8.396847e+001 8.097252e+001 7.431594e+001 7.496413e+001 5.449105e+001 4.859861e+001 3.355173e+001 9.126197e+001 3.620479e+000 3.678205e+000 4.073035e+000 3.715582e+000 4.474690e+000 4.802585e+000 4.493452e+000 4.218432e+000 3.919517e+000 3.215835e+000 2.778013e+000 2.199622e+000 5.286683e+000 5.032291e-001 5.956478e-001 5.030466e-001 6.245908e-001 7.282914e-001 7.861672e-001 7.483049e-001 7.072369e-001 6.490873e-001 5.709534e-001 4.927659e-001 4.007891e-001 8.557089e-001
<GCONST> 1.379843e+002
<STATE> 4
<MEAN> 39
 -8.541256e+000 -7.866613e+000 1.712350e-001 -8.347893e+000 -1.143582e+001 -8.855919e+000 -8.253516e+000 -1.947831e-001 -5.821873e+000 -3.268819e+000 -1.721011e+000 -1.534331e+000 5.582928e+001 9.087228e-002 -6.058000e-002 -2.906578e-001 1.461041e-001 1.699717e-001 -9.481899e-002 -5.440959e-002 1.289533e-001 1.421550e-001 -2.062603e-002 -2.024491e-002 2.096011e-002 -4.032239e-002 -5.111439e-003 -9.441169e-004 -2.899281e-002 -6.786465e-003 2.069567e-002 1.753660e-002 1.242845e-002 1.266855e-003 1.408697e-002 5.520635e-003 -6.663709e-003 -3.731469e-003 -6.654984e-003
<VARIANCE> 39
 7.767358e+001 5.891335e+001 1.147207e+002 8.391058e+001 8.395850e+001 8.568353e+001 8.352489e+001 7.606824e+001 7.676824e+001 5.491396e+001 4.870834e+001 3.430417e+001 9.041123e+001 3.650122e+000 3.724985e+000 3.983028e+000 3.688150e+000 4.482159e+000 4.808918e+000 4.606577e+000 4.257854e+000 3.905962e+000 3.227075e+000 2.831407e+000 2.221347e+000 5.357726e+000 5.035577e-001 6.030202e-001 4.966866e-001 6.121547e-001 7.242942e-001 7.798694e-001 7.628276e-001 7.105322e-001 6.442765e-001 5.665607e-001 4.978766e-001 4.038864e-001 8.576220e-001
<GCONST> 1.382517e+002
<TRANSP> 5
 0.000000e+000 1.000000e+000 0.000000e+000 0.000000e+000 0.000000e+000
 0.000000e+000 6.217565e-001 3.782434e-001 0.000000e+000 0.000000e+000
 0.000000e+000 0.000000e+000 6.217585e-001 3.782415e-001 0.000000e+000
 0.000000e+000 0.000000e+000 0.000000e+000 7.285510e-001 2.714490e-001
 0.000000e+000 0.000000e+000 0.000000e+000 0.000000e+000 0.000000e+000
<ENDHMM>
~h "z"
<BEGINHMM>
<NUMSTATES> 5
<STATE> 2
<MEAN> 39
 -1.327582e+001 -5.182250e+000 -5.218449e+000 -9.919695e+000 -6.510959e+000 -6.583633e+000 -5.931931e+000 -1.234378e+000 -3.248446e+000 -1.491767e+000 -2.649327e+000 -1.714892e+000 5.524708e+001 2.362481e-002 -2.827149e-002 -5.122871e-002 3.521372e-002 3.891508e-002 5.118648e-002 1.991876e-002 7.458293e-003 2.418251e-002 2.521925e-003 7.922688e-003 7.571800e-004 -1.494960e-001 1.536189e-002 -1.808548e-003 -2.109103e-003 8.333031e-003 -5.560768e-003 9.415353e-003 3.383069e-003 -1.396588e-003 -2.466396e-003 5.579811e-005 1.198283e-003 -2.648248e-004 -1.731555e-002
<VARIANCE> 39
 1.201733e+002 6.323369e+001 7.023876e+001 6.817068e+001 8.089035e+001 6.906356e+001 7.208736e+001 5.878550e+001 5.739237e+001 4.419805e+001 4.253584e+001 3.253323e+001 8.799980e+001 6.317496e+000 3.752354e+000 2.956685e+000 3.756365e+000 4.338115e+000 4.113270e+000 4.303695e+000 3.997814e+000 3.510910e+000 3.038786e+000 2.783338e+000 2.299246e+000 4.379737e+000 8.514032e-001 5.920562e-001 4.559655e-001 6.072249e-001 6.813575e-001 7.029440e-001 7.363427e-001 7.121353e-001 6.161435e-001 5.573484e-001 5.053005e-001 4.232776e-001 7.056121e-001
<GCONST> 1.363052e+002
<STATE> 3
<MEAN> 39
 -1.317055e+001 -5.279765e+000 -5.356197e+000 -9.820876e+000 -6.423632e+000 -6.428208e+000 -5.876171e+000 -1.212114e+000 -3.190808e+000 -1.487318e+000 -2.623310e+000 -1.714794e+000 5.482038e+001 6.356660e-002 -3.184737e-002 -5.318129e-002 5.517429e-002 2.120066e-002 7.299348e-002 2.704807e-002 2.862315e-003 1.650088e-002 2.123064e-003 9.784452e-003 -1.208448e-004 -1.880937e-001 6.432456e-003 1.811969e-003 1.085985e-003 6.470408e-003 -5.988669e-003 6.604079e-003 4.223410e-003 -7.615194e-004 -2.631641e-003 5.632365e-004 1.015830e-003 4.406114e-004 -7.885625e-003
<VARIANCE> 39
 1.166590e+002 6.221177e+001 6.918394e+001 6.779679e+001 7.966238e+001 6.868443e+001 7.129951e+001 5.824945e+001 5.695361e+001 4.394314e+001 4.220146e+001 3.232042e+001 9.438093e+001 6.254457e+000 3.746813e+000 2.949651e+000 3.791611e+000 4.319480e+000 4.113338e+000 4.303605e+000 4.005808e+000 3.531349e+000 3.043303e+000 2.789548e+000 2.299756e+000 4.495502e+000 8.485731e-001 5.938045e-001 4.571086e-001 6.129881e-001 6.810116e-001 7.037593e-001 7.383038e-001 7.151071e-001 6.211470e-001 5.585692e-001 5.080835e-001 4.239065e-001 7.250605e-001
<GCONST> 1.363322e+002
<STATE> 4
<MEAN> 39
 -1.298908e+001 -5.390444e+000 -5.564387e+000 -9.659032e+000 -6.385250e+000 -6.179709e+000 -5.730726e+000 -1.212251e+000 -3.145391e+000 -1.489164e+000 -2.586122e+000 -1.707750e+000 5.423555e+001 8.336606e-002 -2.954461e-002 -4.438504e-002 6.607141e-002 1.253419e-003 8.580342e-002 3.333697e-002 -1.762354e-004 7.842977e-003 2.366720e-003 1.133769e-002 5.774103e-004 -1.995290e-001 -1.754769e-003 2.931705e-003 4.795593e-003 1.363280e-003 -5.205941e-003 1.338239e-003 2.436003e-003 3.122655e-004 -1.951398e-003 6.602677e-004 9.601679e-004 1.177027e-003 3.428017e-003
<VARIANCE> 39
 1.126246e+002 6.106163e+001 6.805119e+001 6.809651e+001 7.809560e+001 6.844638e+001 7.040627e+001 5.774728e+001 5.656934e+001 4.376233e+001 4.202023e+001 3.214197e+001 1.041214e+002 6.036550e+000 3.680278e+000 2.921122e+000 3.805627e+000 4.249688e+000 4.070959e+000 4.256485e+000 3.990702e+000 3.537243e+000 3.038423e+000 2.788087e+000 2.288828e+000 4.590998e+000 8.245180e-001 5.857153e-001 4.546800e-001 6.151952e-001 6.738136e-001 6.972356e-001 7.323032e-001 7.133215e-001 6.234561e-001 5.580173e-001 5.092862e-001 4.222978e-001 7.425531e-001
<GCONST> 1.361644e+002
<TRANSP> 5
 0.000000e+000 1.000000e+000 0.000000e+000 0.000000e+000 0.000000e+000
 0.000000e+000 6.170506e-001 3.829494e-001 0.000000e+000 0.000000e+000
 0.000000e+000 0.000000e+000 6.170503e-001 3.829498e-001 0.000000e+000
 0.000000e+000 0.000000e+000 0.000000e+000 7.238030e-001 2.761970e-001
 0.000000e+000 0.000000e+000 0.000000e+000 0.000000e+000 0.000000e+000
<ENDHMM>
~h "aa"
<BEGINHMM>
<NUMSTATES> 5
<STATE> 2
<MEAN> 39
 -8.463985e+000 -9.335329e+000 -8.768473e+000 -1.055586e+001 -5.936791e+000 -4.545116e+000 -6.379985e+000 -2.639230e-001 -2.622132e+000 -1.671415e+000 -2.333374e+000 -2.891111e+000 5.662600e+001 -2.563548e-002 -1.153098e-002 -2.469632e-002 -2.583661e-002 1.423563e-002 -8.627041e-003 -2.905688e-003 5.383712e-003 1.831843e-002 -6.861671e-003 -1.101673e-002 9.154503e-003 6.802947e-002 -1.058386e-002 1.106556e-002 1.672688e-002 8.256834e-003 -5.557106e-003 -5.420241e-003 6.060136e-004 -2.713612e-003 -3.967418e-003 -1.128080e-003 1.688190e-004 3.905610e-003 -1.343936e-002
<VARIANCE> 39
 1.133302e+002 7.149757e+001 8.557973e+001 8.316431e+001 7.087015e+001 8.788453e+001 8.106199e+001 7.312906e+001 6.643504e+001 4.680689e+001 5.062554e+001 3.887402e+001 1.144506e+002 5.215642e+000 4.425015e+000 3.666644e+000 4.621189e+000 4.067133e+000 4.912120e+000 4.853811e+000 4.432153e+000 3.973062e+000 3.233984e+000 3.138204e+000 2.591219e+000 7.604596e+000 7.132289e-001 7.135692e-001 5.318275e-001 7.290986e-001 6.879972e-001 8.363837e-001 8.273172e-001 7.798274e-001 6.965202e-001 5.924007e-001 5.666885e-001 4.671268e-001 1.213228e+000
<GCONST> 1.414141e+002
<STATE> 3
<MEAN> 39
 -8.594315e+000 -9.299970e+000 -8.746991e+000 -1.057277e+001 -5.922565e+000 -4.594072e+000 -6.382024e+000 -2.597938e-001 -2.599875e+000 -1.689301e+000 -2.357694e+000 -2.844491e+000 5.671701e+001 -5.248309e-002 2.031053e-002 2.196097e-002 -3.103609e-003 -1.820162e-003 -2.523884e-002 -2.922267e-003 -2.702495e-003 5.944713e-003 -8.079460e-003 -9.877397e-003 1.906865e-002 3.174958e-002 -9.980242e-003 1.239543e-002 1.800362e-002 8.746112e-003 -5.993268e-003 -6.464608e-003 -2.821124e-005 -3.382375e-003 -5.255376e-003 -4.411772e-004 4.859941e-004 3.588975e-003 -1.436989e-002
<VARIANCE> 39
 1.159763e+002 7.142709e+001 8.539040e+001 8.283270e+001 7.094615e+001 8.824072e+001 8.124130e+001 7.275565e+001 6.626640e+001 4.663594e+001 5.015306e+001 3.897898e+001 1.115359e+002 5.235889e+000 4.389265e+000 3.635823e+000 4.554548e+000 4.042605e+000 4.890495e+000 4.841170e+000 4.400666e+000 3.941113e+000 3.219577e+000 3.106742e+000 2.568324e+000 7.390739e+000 7.134129e-001 7.103823e-001 5.280932e-001 7.206786e-001 6.819873e-001 8.314394e-001 8.217072e-001 7.749052e-001 6.904933e-001 5.902022e-001 5.616549e-001 4.621376e-001 1.188025e+000
<GCONST> 1.411823e+002
<STATE> 4
<MEAN> 39
 -8.923630e+000 -9.100673e+000 -8.524170e+000 -1.049300e+001 -5.976855e+000 -4.730028e+000 -6.379751e+000 -2.968882e-001 -2.645961e+000 -1.720162e+000 -2.376492e+000 -2.744034e+000 5.668270e+001 -7.995872e-002 5.923931e-002 7.880948e-002 2.366892e-002 -2.402205e-002 -4.716211e-002 -4.598315e-003 -1.370005e-002 -1.284679e-002 -6.317578e-003 -7.586668e-003 2.852909e-002 -1.171162e-002 -6.701462e-003 1.071817e-002 1.612885e-002 7.211720e-003 -6.400439e-003 -6.232382e-003 -7.449980e-004 -3.527289e-003 -5.784487e-003 1.911256e-004 5.499239e-004 2.367159e-003 -1.221431e-002
<VARIANCE> 39
 1.194675e+002 7.136782e+001 8.561050e+001 8.226045e+001 7.174133e+001 8.797458e+001 8.145889e+001 7.191086e+001 6.592550e+001 4.646181e+001 4.936753e+001 3.893464e+001 1.094581e+002 5.225256e+000 4.314522e+000 3.577935e+000 4.464870e+000 4.033952e+000 4.844366e+000 4.797532e+000 4.353432e+000 3.892050e+000 3.195907e+000 3.063386e+000 2.530086e+000 7.146767e+000 7.098584e-001 7.029477e-001 5.226821e-001 7.096537e-001 6.779341e-001 8.228341e-001 8.097228e-001 7.670707e-001 6.816145e-001 5.859985e-001 5.551836e-001 4.551932e-001 1.157915e+000
<GCONST> 1.408372e+002
<TRANSP> 5
 0.000000e+000 1.000000e+000 0.000000e+000 0.000000e+000 0.000000e+000
 0.000000e+000 6.158823e-001 3.841177e-001 0.000000e+000 0.000000e+000
 0.000000e+000 0.000000e+000 6.158837e-001 3.841163e-001 0.000000e+000
 0.000000e+000 0.000000e+000 0.000000e+000 7.222348e-001 2.777651e-001
 0.000000e+000 0.000000e+000 0.000000e+000 0.000000e+000 0.000000e+000
<ENDHMM>
~h "ae"
<BEGINHMM>
<NUMSTATES> 5
<STATE> 2
<MEAN> 39
 -8.617802e+000 -9.353987e+000 -5.110627e+000 -1.048985e+001 -9.915174e+000 -6.562612e+000 -4.608830e+000 4.626991e-001 -3.553413e+000 -2.083870e+000 -3.267870e+000 -2.533940e+000 5.730013e+001 3.365748e-003 2.770003e-002 -3.285903e-002 -2.919475e-003 2.999510e-002 -1.478169e-003 1.324650e-002 -1.385843e-002 3.428994e-003 5.265840e-003 -5.031461e-003 -6.179375e-003 -1.743764e-002 -7.408980e-003 5.973901e-003 1.432967e-003 4.569872e-003 6.536924e-003 1.884719e-003 -4.941803e-003 -5.441396e-003 -4.059417e-004 1.903397e-003 4.038214e-003 2.029882e-003 -1.278799e-002
<VARIANCE> 39
 8.156800e+001 6.505058e+001 7.207497e+001 7.411662e+001 7.591851e+001 7.264693e+001 7.665353e+001 7.586346e+001 7.009716e+001 4.945255e+001 5.152872e+001 3.759970e+001 1.047828e+002 3.829886e+000 3.742854e+000 3.102782e+000 3.901599e+000 4.095070e+000 3.980211e+000 4.081638e+000 4.489576e+000 3.929127e+000 3.271171e+000 2.977649e+000 2.439103e+000 5.436616e+000 5.468234e-001 5.951114e-001 4.766067e-001 6.393555e-001 6.725154e-001 6.743640e-001 7.019944e-001 7.732160e-001 6.964350e-001 5.974308e-001 5.403373e-001 4.427646e-001 8.541840e-001
<GCONST> 1.374003e+002
<STATE> 3
<MEAN> 39
 -8.635267e+000 -9.256899e+000 -5.188313e+000 -1.047380e+001 -9.813374e+000 -6.557710e+000 -4.601171e+000 4.044220e-001 -3.547566e+000 -2.065623e+000 -3.264827e+000 -2.540798e+000 5.720021e+001 -1.398383e-002 4.550359e-002 -2.400596e-002 1.085602e-002 4.510408e-002 2.980103e-003 -3.715780e-003 -2.990205e-002 -3.926291e-004 9.643274e-003 6.098470e-003 -4.835991e-004 -5.476174e-002 -5.892392e-003 6.244108e-003 3.845720e-003 5.618381e-003 5.053684e-003 1.825458e-003 -6.260675e-003 -5.780956e-003 -1.739846e-003 1.292038e-003 4.297962e-003 2.302283e-003 -1.458713e-002
<VARIANCE> 39
 8.189215e+001 6.515909e+001 7.112603e+001 7.447012e+001 7.627664e+001 7.239700e+001 7.612550e+001 7.522917e+001 6.971716e+001 4.956742e+001 5.135356e+001 3.758810e+001 1.045171e+002 3.884247e+000 3.823011e+000 3.141923e+000 3.961989e+000 4.136264e+000 4.043048e+000 4.100057e+000 4.541293e+000 3.960248e+000 3.292746e+000 3.004187e+000 2.465133e+000 5.552824e+000 5.554811e-001 6.083146e-001 4.847836e-001 6.504180e-001 6.824472e-001 6.873280e-001 7.097674e-001 7.858980e-001 7.046189e-001 6.029813e-001 5.460141e-001 4.479823e-001 8.741379e-001
<GCONST> 1.377329e+002
<STATE> 4
<MEAN> 39
 -8.760223e+000 -9.051662e+000 -5.254135e+000 -1.039534e+001 -9.642003e+000 -6.528613e+000 -4.627302e+000 2.393331e-001 -3.582632e+000 -2.048659e+000 -3.217029e+000 -2.516494e+000 5.690858e+001 -2.832242e-002 6.609228e-002 -6.971598e-003 3.020144e-002 5.618386e-002 7.886627e-003 -2.673950e-002 -4.788037e-002 -7.855405e-003 1.303916e-002 1.976758e-002 7.644014e-003 -1.029014e-001 -3.931114e-003 5.551335e-003 5.114573e-003 6.116206e-003 2.863461e-003 2.023368e-003 -5.671432e-003 -4.843285e-003 -2.381019e-003 7.896855e-004 4.300001e-003 2.628771e-003 -1.480507e-002
<VARIANCE> 39
 8.317269e+001 6.512228e+001 7.065249e+001 7.535915e+001 7.683537e+001 7.231750e+001 7.562918e+001 7.413377e+001 6.908316e+001 4.970675e+001 5.093947e+001 3.748905e+001 1.060749e+002 3.933563e+000 3.877407e+000 3.196445e+000 4.038802e+000 4.203579e+000 4.138008e+000 4.131628e+000 4.597081e+000 3.993481e+000 3.319948e+000 3.032348e+000 2.493616e+000 5.697256e+000 5.633304e-001 6.204225e-001 4.955673e-001 6.654879e-001 6.980559e-001 7.066075e-001 7.206572e-001 8.014554e-001 7.140787e-001 6.100940e-001 5.520490e-001 4.542330e-001 9.034332e-001
<GCONST> 1.381679e+002
<TRANSP> 5
 0.000000e+000 1.000000e+000 0.000000e+000 0.000000e+000 0.000000e+000
 0.000000e+000 6.189574e-001 3.810426e-001 0.000000e+000 0.000000e+000
 0.000000e+000 0.000000e+000 6.189583e-001 3.810417e-001 0.000000e+000
 0.000000e+000 0.000000e+000 0.000000e+000 7.255642e-001 2.744358e-001
 0.000000e+000 0.000000e+000 0.000000e+000 0.000000e+000 0.000000e+000
<ENDHMM>
~h "ah"
<BEGINHMM>
<NUMSTATES> 5
<STATE> 2
<MEAN> 39
 -9.997229e+000 -7.305076e+000 -6.393380e+000 -1.049501e+001 -7.024780e+000 -4.744983e+000 -6.478329e+000 -1.383653e+000 -2.933602e+000 -1.181123e+000 -2.981604e+000 -2.636457e+000 5.561889e+001 3.729089e-002 -1.511954e-002 1.801064e-002 -4.325410e-002 -3.078941e-002 -1.929763e-002 -2.554641e-002 -1.099308e-002 -7.885777e-003 -9.983503e-003 -2.048930e-002 -7.609668e-003 8.343413e-002 -9.117516e-003 4.724532e-003 3.972622e-003 1.107381e-002 2.561691e-003 -8.949574e-004 6.742251e-003 4.799685e-004 -2.384195e-003 -2.742846e-003 2.046055e-003 4.917463e-003 -2.109545e-002
<VARIANCE> 39
 1.072174e+002 6.037132e+001 6.430507e+001 8.118638e+001 6.768441e+001 6.883909e+001 7.030166e+001 6.205009e+001 6.426247e+001 4.899722e+001 5.100562e+001 3.904747e+001 1.048329e+002 5.501704e+000 4.051051e+000 3.178304e+000 4.798378e+000 4.105887e+000 4.204108e+000 4.598993e+000 4.579278e+000 4.316854e+000 3.409753e+000 3.254258e+000 2.767275e+000 6.683952e+000 7.606035e-001 6.639822e-001 5.109826e-001 7.831231e-001 6.881654e-001 7.251244e-001 7.991004e-001 8.204615e-001 7.555448e-001 6.279666e-001 5.888628e-001 4.956284e-001 1.038480e+000
<GCONST> 1.399997e+002
<STATE> 3
<MEAN> 39
 -9.951203e+000 -7.309682e+000 -6.336960e+000 -1.054345e+001 -7.079294e+000 -4.791271e+000 -6.504145e+000 -1.413175e+000 -2.967289e+000 -1.218839e+000 -3.023844e+000 -2.635540e+000 5.571498e+001 1.228419e-002 -2.651348e-004 2.878061e-002 -1.148851e-002 -2.197802e-002 -2.214651e-002 -5.586321e-003 -1.052725e-002 -1.689566e-002 -1.631248e-002 -1.412297e-002 5.454490e-003 2.550319e-002 -9.833674e-003 5.681761e-003 3.248288e-003 1.237872e-002 4.134438e-003 -6.426082e-004 7.944286e-003 7.689051e-004 -3.111026e-003 -2.838010e-003 2.738493e-003 5.239345e-003 -2.238600e-002
<VARIANCE> 39
 1.069354e+002 6.058813e+001 6.471111e+001 8.115785e+001 6.793464e+001 6.903052e+001 7.060374e+001 6.233923e+001 6.468809e+001 4.916348e+001 5.094768e+001 3.911929e+001 1.023845e+002 5.488940e+000 4.065578e+000 3.180100e+000 4.789718e+000 4.112483e+000 4.198606e+000 4.594798e+000 4.595202e+000 4.324570e+000 3.424853e+000 3.261290e+000 2.768309e+000 6.529759e+000 7.585933e-001 6.665505e-001 5.093059e-001 7.847243e-001 6.902788e-001 7.247435e-001 7.996314e-001 8.229371e-001 7.551859e-001 6.312249e-001 5.905870e-001 4.961689e-001 1.026534e+000
<GCONST> 1.400007e+002
<STATE> 4
<MEAN> 39
 -1.005274e+001 -7.248073e+000 -6.291231e+000 -1.048079e+001 -7.094890e+000 -4.851060e+000 -6.421082e+000 -1.447551e+000 -3.025041e+000 -1.297493e+000 -3.052934e+000 -2.581215e+000 5.562249e+001 -1.421588e-002 1.479811e-002 3.813690e-002 2.280109e-002 -1.115059e-002 -2.455163e-002 1.602542e-002 -6.626253e-003 -2.774883e-002 -2.118189e-002 -4.493778e-003 1.846034e-002 -3.410044e-002 -7.365881e-003 3.563508e-003 1.970007e-003 9.477180e-003 3.058945e-003 -1.868102e-004 5.974780e-003 1.948265e-003 -2.437692e-003 -1.738998e-003 3.015429e-003 4.000446e-003 -1.622858e-002
<VARIANCE> 39
 1.067766e+002 6.069292e+001 6.522190e+001 8.075447e+001 6.836532e+001 6.915810e+001 7.080655e+001 6.248597e+001 6.492410e+001 4.889902e+001 5.040923e+001 3.892650e+001 1.022762e+002 5.424217e+000 4.039584e+000 3.154884e+000 4.701762e+000 4.098837e+000 4.179904e+000 4.547918e+000 4.566800e+000 4.282724e+000 3.409036e+000 3.238761e+000 2.733490e+000 6.348156e+000 7.481968e-001 6.626431e-001 5.039492e-001 7.739879e-001 6.877822e-001 7.214746e-001 7.918563e-001 8.160725e-001 7.462220e-001 6.288898e-001 5.870055e-001 4.908535e-001 1.010736e+000
<GCONST> 1.397493e+002
<TRANSP> 5
 0.000000e+000 1.000000e+000 0.000000e+000 0.000000e+000 0.000000e+000
 0.000000e+000 6.109412e-001 3.890587e-001 0.000000e+000 0.000000e+000
 0.000000e+000 0.000000e+000 6.109395e-001 3.890605e-001 0.000000e+000
 0.000000e+000 0.000000e+000 0.000000e+000 7.169199e-001 2.830802e-001
 0.000000e+000 0.000000e+000 0.000000e+000 0.000000e+000 0.000000e+000
<ENDHMM>
~h "ao"
<BEGINHMM>
<NUMSTATES> 5
<STATE> 2
<MEAN> 39
 -5.959248e+000 -8.496149e+000 -9.563874e+000 -1.367066e+001 -7.931266e+000 -2.799883e+000 -5.837615e+000 -1.538147e+000 -3.167259e+000 -1.440547e+000 -1.528415e+000 -2.319486e+000 5.665200e+001 3.150827e-002 3.357082e-003 5.867297e-002 2.410077e-002 -1.577804e-002 -6.216998e-002 -5.067051e-002 2.001852e-003 -2.650544e-002 -1.009479e-002 -4.212407e-003 -1.524414e-004 1.325327e-002 -3.874319e-003 3.980500e-003 9.875285e-003 7.130213e-003 -2.724500e-003 -5.853488e-003 -4.837821e-004 2.215597e-004 -2.798915e-003 -1.369689e-003 -5.025761e-004 1.014906e-003 -5.970028e-003
<VARIANCE> 39
 1.066923e+002 5.427513e+001 1.024771e+002 1.120213e+002 7.908349e+001 9.372153e+001 8.353315e+001 6.492222e+001 7.044678e+001 5.103452e+001 5.285002e+001 3.722819e+001 7.235231e+001 4.628333e+000 2.876249e+000 3.602197e+000 4.804436e+000 4.130291e+000 4.421249e+000 4.538624e+000 3.864137e+000 3.879391e+000 3.230226e+000 2.938549e+000 2.472283e+000 3.688728e+000 6.007300e-001 4.575364e-001 4.912817e-001 6.538270e-001 6.604874e-001 6.818621e-001 7.194101e-001 6.778426e-001 6.640630e-001 5.816376e-001 5.259044e-001 4.446476e-001 5.840008e-001
<GCONST> 1.373924e+002
<STATE> 3
<MEAN> 39
 -5.903849e+000 -8.464637e+000 -9.363406e+000 -1.357743e+001 -7.980597e+000 -2.983420e+000 -5.969070e+000 -1.536571e+000 -3.243164e+000 -1.468826e+000 -1.542170e+000 -2.313058e+000 5.665143e+001 1.592957e-002 1.375107e-002 8.558614e-002 4.505417e-002 -2.257365e-002 -7.782782e-002 -4.963494e-002 3.057273e-003 -3.231053e-002 -1.264927e-002 -5.526508e-003 4.033328e-003 -4.844388e-003 -5.252205e-003 2.950319e-003 8.253286e-003 6.528166e-003 -2.251303e-003 -4.688420e-003 1.441597e-003 7.681550e-004 -1.346701e-003 -9.031336e-004 -3.740955e-004 1.763716e-003 -6.314387e-003
<VARIANCE> 39
 1.046090e+002 5.419201e+001 1.072815e+002 1.115347e+002 7.974617e+001 9.466206e+001 8.420168e+001 6.570206e+001 7.146024e+001 5.145151e+001 5.326237e+001 3.724087e+001 7.079901e+001 4.547945e+000 2.852029e+000 3.608806e+000 4.776840e+000 4.118299e+000 4.425547e+000 4.542747e+000 3.865966e+000 3.889888e+000 3.228373e+000 2.930341e+000 2.461238e+000 3.667386e+000 5.899744e-001 4.536557e-001 4.887575e-001 6.526625e-001 6.585732e-001 6.822483e-001 7.189130e-001 6.761974e-001 6.647870e-001 5.803686e-001 5.240633e-001 4.432209e-001 5.803189e-001
<GCONST> 1.373652e+002
<STATE> 4
<MEAN> 39
 -5.956657e+000 -8.368118e+000 -9.074091e+000 -1.341602e+001 -8.050171e+000 -3.193015e+000 -6.061765e+000 -1.560472e+000 -3.332042e+000 -1.531649e+000 -1.567896e+000 -2.313800e+000 5.655194e+001 -1.168921e-002 2.415779e-002 1.113953e-001 7.011815e-002 -2.681067e-002 -9.161897e-002 -4.167499e-002 5.342476e-003 -3.254153e-002 -1.234881e-002 -7.648657e-003 1.091162e-002 -3.033832e-002 -6.635605e-003 1.564859e-003 5.098355e-003 6.249512e-003 -8.316158e-004 -3.535031e-003 2.696581e-003 1.733199e-003 7.472741e-004 -1.067156e-004 -4.688645e-004 2.157974e-003 -6.368158e-003
<VARIANCE> 39
 1.027767e+002 5.439517e+001 1.125015e+002 1.117332e+002 8.062117e+001 9.571393e+001 8.473106e+001 6.661697e+001 7.236437e+001 5.168222e+001 5.335110e+001 3.723011e+001 7.122585e+001 4.373843e+000 2.813586e+000 3.577731e+000 4.685817e+000 4.074448e+000 4.394912e+000 4.503828e+000 3.846773e+000 3.870328e+000 3.199101e+000 2.899347e+000 2.433683e+000 3.641654e+000 5.682048e-001 4.466917e-001 4.822523e-001 6.451808e-001 6.511680e-001 6.772118e-001 7.116966e-001 6.701040e-001 6.609094e-001 5.742188e-001 5.179302e-001 4.390615e-001 5.772256e-001
<GCONST> 1.371534e+002
<TRANSP> 5
 0.000000e+000 1.000000e+000 0.000000e+000 0.000000e+000 0.000000e+000
 0.000000e+000 6.265609e-001 3.734391e-001 0.000000e+000 0.000000e+000
 0.000000e+000 0.000000e+000 6.265596e-001 3.734404e-001 0.000000e+000
 0.000000e+000 0.000000e+000 0.000000e+000 7.343774e-001 2.656227e-001
 0.000000e+000 0.000000e+000 0.000000e+000 0.000000e+000 0.000000e+000
<ENDHMM>
~h "aw"
<BEGINHMM>
<NUMSTATES> 5
<STATE> 2
<MEAN> 39
 -7.237504e+000 -1.025312e+001 -8.970685e+000 -1.141463e+001 -6.659669e+000 -3.528194e+000 -5.011872e+000 -1.642579e+000 -2.577520e+000 -1.861596e+000 -3.633852e+000 -3.113122e+000 5.715940e+001 5.612324e-002 1.264263e-002 -1.593895e-002 -5.972777e-002 -1.360982e-002 -2.053423e-003 -2.678724e-002 -1.991358e-002 -1.692744e-002 -4.365233e-003 -1.140540e-002 -2.683555e-002 8.995106e-002 -5.699612e-003 1.217893e-002 7.412618e-003 3.238154e-003 -4.952328e-003 -5.026135e-003 -5.080466e-003 7.358923e-004 1.014860e-003 3.065880e-003 4.692463e-003 2.347110e-003 -1.426839e-002
<VARIANCE> 39
 8.468704e+001 7.242749e+001 7.083901e+001 8.209328e+001 6.806842e+001 7.817139e+001 7.692326e+001 7.026760e+001 6.563155e+001 5.218232e+001 5.287051e+001 4.048510e+001 1.074410e+002 3.855249e+000 3.946499e+000 2.987437e+000 4.175296e+000 3.805573e+000 3.853619e+000 3.972178e+000 4.305103e+000 3.786203e+000 3.106935e+000 3.067960e+000 2.491480e+000 5.563621e+000 5.395845e-001 6.122866e-001 4.528238e-001 6.666315e-001 6.308892e-001 6.403893e-001 6.731239e-001 7.410628e-001 6.650278e-001 5.525546e-001 5.436463e-001 4.400552e-001 8.344578e-001
<GCONST> 1.371922e+002
<STATE> 3
<MEAN> 39
 -7.131939e+000 -1.013888e+001 -8.974487e+000 -1.153520e+001 -6.716700e+000 -3.556226e+000 -5.111382e+000 -1.687634e+000 -2.617818e+000 -1.852755e+000 -3.632624e+000 -3.157869e+000 5.728302e+001 3.268374e-002 4.492256e-002 5.671066e-003 -4.510882e-002 -2.626691e-002 -1.590726e-002 -3.724606e-002 -1.499886e-002 -1.453075e-002 4.919432e-003 2.601580e-003 -1.480015e-002 4.298913e-002 -7.504213e-003 1.075970e-002 7.137640e-003 5.364125e-003 -4.686893e-003 -5.260526e-003 -4.374683e-003 2.140303e-003 8.759584e-004 3.482097e-003 5.445383e-003 4.717750e-003 -1.724111e-002
<VARIANCE> 39
 8.451635e+001 7.293861e+001 7.154324e+001 8.202957e+001 6.905413e+001 7.827326e+001 7.690777e+001 7.020821e+001 6.602100e+001 5.199344e+001 5.360490e+001 4.054678e+001 1.035425e+002 3.886298e+000 3.916747e+000 3.018043e+000 4.222951e+000 3.833684e+000 3.877165e+000 4.000311e+000 4.306109e+000 3.832308e+000 3.126808e+000 3.096116e+000 2.510851e+000 5.467802e+000 5.396525e-001 6.088151e-001 4.565724e-001 6.749901e-001 6.338784e-001 6.428865e-001 6.749379e-001 7.420785e-001 6.730748e-001 5.557492e-001 5.490716e-001 4.449444e-001 8.252367e-001
<GCONST> 1.373178e+002
<STATE> 4
<MEAN> 39
 -7.127357e+000 -9.867875e+000 -8.927299e+000 -1.164386e+001 -6.850980e+000 -3.665637e+000 -5.225229e+000 -1.755628e+000 -2.685421e+000 -1.821461e+000 -3.563936e+000 -3.133226e+000 5.726598e+001 -6.009756e-003 7.830144e-002 3.085774e-002 -1.725570e-002 -3.545586e-002 -3.479873e-002 -4.471336e-002 -3.051038e-003 -1.501856e-002 1.390568e-002 1.808690e-002 7.607264e-003 -2.095011e-002 -8.444935e-003 7.213168e-003 5.978276e-003 6.901310e-003 -2.513192e-003 -5.233883e-003 -1.894206e-003 2.832454e-003 -7.206780e-004 2.193625e-003 3.951194e-003 5.971225e-003 -1.573416e-002
<VARIANCE> 39
 8.605067e+001 7.315939e+001 7.337431e+001 8.288548e+001 7.052729e+001 7.836737e+001 7.689486e+001 6.970473e+001 6.677898e+001 5.163681e+001 5.434077e+001 4.050591e+001 1.005743e+002 3.868207e+000 3.823068e+000 3.036073e+000 4.254775e+000 3.860915e+000 3.896291e+000 4.017561e+000 4.275258e+000 3.862312e+000 3.148555e+000 3.113948e+000 2.521758e+000 5.333345e+000 5.329062e-001 5.932127e-001 4.568712e-001 6.799492e-001 6.357116e-001 6.457083e-001 6.746097e-001 7.380303e-001 6.777325e-001 5.585003e-001 5.539346e-001 4.509814e-001 8.165814e-001
<GCONST> 1.373654e+002
<TRANSP> 5
 0.000000e+000 1.000000e+000 0.000000e+000 0.000000e+000 0.000000e+000
 0.000000e+000 6.262767e-001 3.737233e-001 0.000000e+000 0.000000e+000
 0.000000e+000 0.000000e+000 6.262752e-001 3.737248e-001 0.000000e+000
 0.000000e+000 0.000000e+000 0.000000e+000 7.353940e-001 2.646059e-001
 0.000000e+000 0.000000e+000 0.000000e+000 0.000000e+000 0.000000e+000
<ENDHMM>
~h "ax"
<BEGINHMM>
<NUMSTATES> 5
<STATE> 2
<MEAN> 39
 -9.738730e+000 -6.668095e+000 -5.601501e+000 -1.006333e+001 -7.845591e+000 -5.659133e+000 -6.258600e+000 -1.645285e+000 -3.406966e+000 -1.378621e+000 -2.682029e+000 -2.293005e+000 5.505244e+001 4.019848e-002 -2.502130e-002 1.022533e-002 -5.205240e-002 -2.773575e-002 -1.569667e-002 -1.125022e-002 -8.839253e-003 -2.086820e-002 -8.135350e-003 -1.341326e-002 -1.408759e-002 1.401166e-001 -3.020782e-003 -3.688392e-003 -1.916778e-003 4.215428e-005 1.852584e-003 6.047140e-003 4.289345e-003 3.670595e-003 -2.059001e-003 -8.411068e-004 2.900953e-003 1.313500e-003 -7.885274e-003
<VARIANCE> 39
 9.591356e+001 5.918892e+001 7.030239e+001 8.156940e+001 7.463187e+001 7.337374e+001 7.365677e+001 6.496358e+001 6.272370e+001 4.682906e+001 4.764235e+001 3.651643e+001 1.051396e+002 5.210306e+000 3.881922e+000 3.256693e+000 4.636437e+000 4.417531e+000 4.362696e+000 4.680385e+000 4.489010e+000 4.201365e+000 3.390488e+000 3.169000e+000 2.608599e+000 6.943717e+000 7.597548e-001 6.718563e-001 5.207950e-001 7.713789e-001 7.309906e-001 7.533821e-001 8.253096e-001 8.119407e-001 7.598312e-001 6.354592e-001 5.829223e-001 4.821457e-001 1.148970e+000
<GCONST> 1.401511e+002
<STATE> 3
<MEAN> 39
 -9.651367e+000 -6.746705e+000 -5.592434e+000 -1.019540e+001 -7.900021e+000 -5.662216e+000 -6.264205e+000 -1.654015e+000 -3.465541e+000 -1.403401e+000 -2.700196e+000 -2.322865e+000 5.536471e+001 2.875774e-002 -3.151546e-002 3.642152e-003 -4.942573e-002 -2.062791e-002 2.498489e-004 -2.679574e-004 2.490646e-004 -2.328849e-002 -1.002819e-002 -4.833544e-003 -9.990995e-003 1.140585e-001 -4.662836e-003 -2.307503e-003 -2.479715e-003 1.525686e-003 2.501725e-003 5.823089e-003 4.008715e-003 3.416002e-003 -3.616579e-004 -8.737439e-004 3.317128e-003 1.577379e-003 -1.035859e-002
<VARIANCE> 39
 9.663053e+001 5.985000e+001 7.183588e+001 8.237487e+001 7.573636e+001 7.370291e+001 7.386105e+001 6.560630e+001 6.317582e+001 4.719434e+001 4.795974e+001 3.680798e+001 1.004567e+002 5.200253e+000 3.900025e+000 3.250732e+000 4.663463e+000 4.415770e+000 4.338155e+000 4.656805e+000 4.496514e+000 4.201298e+000 3.387532e+000 3.169216e+000 2.609083e+000 6.870875e+000 7.561716e-001 6.728094e-001 5.166199e-001 7.723500e-001 7.292371e-001 7.475708e-001 8.196842e-001 8.116097e-001 7.578260e-001 6.331119e-001 5.820935e-001 4.809919e-001 1.143723e+000
<GCONST> 1.401607e+002
<STATE> 4
<MEAN> 39
 -9.603219e+000 -6.867754e+000 -5.642139e+000 -1.036769e+001 -7.958242e+000 -5.601790e+000 -6.217670e+000 -1.658403e+000 -3.526958e+000 -1.457256e+000 -2.684780e+000 -2.344176e+000 5.567636e+001 1.682924e-002 -3.589018e-002 -5.749109e-003 -4.123870e-002 -1.205306e-002 1.290387e-002 7.045866e-003 9.323805e-003 -1.874598e-002 -1.273345e-002 4.134805e-003 -4.329969e-003 7.936135e-002 -3.564857e-003 -1.226986e-003 -2.120718e-003 2.979634e-003 1.982782e-003 2.958374e-003 1.775220e-003 2.676661e-003 1.784314e-003 -9.877663e-004 2.425095e-003 1.647483e-003 -9.865520e-003
<VARIANCE> 39
 9.779143e+001 6.071507e+001 7.377657e+001 8.365483e+001 7.729092e+001 7.440733e+001 7.401019e+001 6.643313e+001 6.365377e+001 4.766917e+001 4.833958e+001 3.710448e+001 9.799081e+001 5.083145e+000 3.865028e+000 3.218647e+000 4.629787e+000 4.377607e+000 4.281090e+000 4.573538e+000 4.471669e+000 4.154808e+000 3.361524e+000 3.143426e+000 2.586734e+000 6.653637e+000 7.348965e-001 6.604203e-001 5.064682e-001 7.606127e-001 7.196994e-001 7.340294e-001 8.014811e-001 8.033340e-001 7.464190e-001 6.252846e-001 5.759845e-001 4.749346e-001 1.110368e+000
<GCONST> 1.398930e+002
<TRANSP> 5
 0.000000e+000 1.000000e+000 0.000000e+000 0.000000e+000 0.000000e+000
 0.000000e+000 6.103619e-001 3.896381e-001 0.000000e+000 0.000000e+000
 0.000000e+000 0.000000e+000 6.103586e-001 3.896414e-001 0.000000e+000
 0.000000e+000 0.000000e+000 0.000000e+000 7.159634e-001 2.840366e-001
 0.000000e+000 0.000000e+000 0.000000e+000 0.000000e+000 0.000000e+000
<ENDHMM>
~h "ay"
<BEGINHMM>
<NUMSTATES> 5
<STATE> 2
<MEAN> 39
 -8.787518e+000 -9.284959e+000 -7.733464e+000 -1.044467e+001 -7.209285e+000 -4.822882e+000 -4.145710e+000 -5.824290e-001 -2.258564e+000 -1.855186e+000 -3.263656e+000 -2.898196e+000 5.603161e+001 -3.945404e-002 -2.498720e-002 2.112035e-002 -1.796783e-003 -1.619451e-002 -3.048387e-002 1.064054e-002 3.601934e-002 6.379620e-003 -2.841921e-002 -2.472652e-002 8.097421e-003 4.817476e-002 -1.032782e-003 2.437037e-003 5.070881e-003 1.507350e-003 -4.291386e-003 -3.615300e-003 -2.875050e-003 -1.378411e-003 -2.554879e-003 -1.159671e-003 -9.034955e-006 2.402592e-003 -3.394749e-003
<VARIANCE> 39
 8.778654e+001 7.285262e+001 6.935799e+001 7.874460e+001 7.266190e+001 7.451368e+001 6.756466e+001 6.735937e+001 6.503214e+001 4.705179e+001 4.815087e+001 3.997889e+001 1.215054e+002 4.140591e+000 3.858443e+000 3.474294e+000 4.320108e+000 4.417327e+000 4.186925e+000 3.770052e+000 4.296126e+000 3.897462e+000 3.070924e+000 2.992785e+000 2.568521e+000 5.836856e+000 5.895925e-001 5.757608e-001 5.409459e-001 6.853554e-001 7.278708e-001 6.907589e-001 6.487483e-001 7.431901e-001 6.805645e-001 5.589916e-001 5.414137e-001 4.551645e-001 8.665687e-001
<GCONST> 1.379228e+002
<STATE> 3
<MEAN> 39
 -8.905858e+000 -9.312545e+000 -7.643623e+000 -1.042644e+001 -7.270933e+000 -4.922401e+000 -4.128869e+000 -4.903135e-001 -2.259023e+000 -1.929630e+000 -3.318454e+000 -2.862489e+000 5.611339e+001 -4.344980e-002 -1.157524e-002 3.638039e-002 6.314713e-003 -2.724076e-002 -4.102712e-002 4.272844e-003 3.173598e-002 -1.938798e-003 -2.828244e-002 -2.315645e-002 1.545464e-002 3.069287e-002 -1.282268e-004 5.108848e-003 5.601946e-003 3.243556e-003 -4.453624e-003 -3.837426e-003 -2.525802e-003 -2.023317e-003 -3.143430e-003 8.265699e-004 7.777213e-004 2.297723e-003 -7.209380e-003
<VARIANCE> 39
 8.854742e+001 7.296465e+001 6.889494e+001 7.765146e+001 7.311418e+001 7.394479e+001 6.778387e+001 6.712924e+001 6.527344e+001 4.677724e+001 4.799543e+001 3.991506e+001 1.197425e+002 4.156008e+000 3.811801e+000 3.395765e+000 4.224336e+000 4.397161e+000 4.135417e+000 3.758134e+000 4.242066e+000 3.846489e+000 3.040898e+000 2.960068e+000 2.538367e+000 5.801030e+000 5.904917e-001 5.696164e-001 5.292864e-001 6.741135e-001 7.216083e-001 6.825998e-001 6.459951e-001 7.343138e-001 6.711932e-001 5.539547e-001 5.356699e-001 4.503651e-001 8.627002e-001
<GCONST> 1.376176e+002
<STATE> 4
<MEAN> 39
 -9.108744e+000 -9.242442e+000 -7.477785e+000 -1.037717e+001 -7.375749e+000 -5.054113e+000 -4.113406e+000 -4.388019e-001 -2.316680e+000 -2.012544e+000 -3.358443e+000 -2.792602e+000 5.609651e+001 -4.835734e-002 1.609310e-002 5.223524e-002 2.126680e-002 -3.485521e-002 -4.995145e-002 -2.474677e-003 2.364320e-002 -1.346997e-002 -1.920351e-002 -1.614843e-002 2.466003e-002 -9.558910e-003 2.741353e-004 6.850324e-003 3.908064e-003 3.703149e-003 -2.198401e-003 -2.021685e-003 -2.350897e-003 -2.879798e-003 -3.020921e-003 2.822772e-003 1.692118e-003 1.864083e-003 -1.102568e-002
<VARIANCE> 39
 8.900653e+001 7.266080e+001 6.831041e+001 7.649160e+001 7.368711e+001 7.291982e+001 6.810761e+001 6.675741e+001 6.550139e+001 4.657171e+001 4.792428e+001 3.956594e+001 1.192764e+002 4.099356e+000 3.708047e+000 3.275682e+000 4.076310e+000 4.341424e+000 4.046160e+000 3.737680e+000 4.161849e+000 3.766545e+000 3.014866e+000 2.912533e+000 2.478218e+000 5.655925e+000 5.811725e-001 5.566275e-001 5.102222e-001 6.560940e-001 7.077349e-001 6.675117e-001 6.416627e-001 7.209726e-001 6.570956e-001 5.501464e-001 5.272678e-001 4.408602e-001 8.488578e-001
<GCONST> 1.370547e+002
<TRANSP> 5
 0.000000e+000 1.000000e+000 0.000000e+000 0.000000e+000 0.000000e+000
 0.000000e+000 6.202724e-001 3.797276e-001 0.000000e+000 0.000000e+000
 0.000000e+000 0.000000e+000 6.202749e-001 3.797252e-001 0.000000e+000
 0.000000e+000 0.000000e+000 0.000000e+000 7.274908e-001 2.725092e-001
 0.000000e+000 0.000000e+000 0.000000e+000 0.000000e+000 0.000000e+000
<ENDHMM>
~h "ch"
<BEGINHMM>
<NUMSTATES> 5
<STATE> 2
<MEAN> 39
 -1.458295e+001 -7.321719e+000 -2.378173e+000 -9.780106e+000 -7.931381e+000 -5.118412e+000 -5.753617e+000 -7.123302e-001 -3.293941e+000 -1.791633e+000 -2.002667e+000 -1.537229e+000 5.549403e+001 -6.600698e-003 -4.639864e-003 -6.364851e-002 -1.543337e-003 4.658176e-002 9.250245e-003 1.433887e-002 1.993510e-002 3.151593e-002 4.687112e-003 -1.550235e-002 -5.066043e-003 8.494473e-003 1.125191e-002 -2.796759e-003 -1.159563e-002 -3.643369e-004 5.592589e-004 3.806975e-005 -1.786638e-003 6.553986e-006 5.014580e-004 -1.130816e-003 -6.660058e-004 -6.886506e-004 2.032465e-003
<VARIANCE> 39
 1.378834e+002 5.616825e+001 7.954181e+001 6.837888e+001 7.102495e+001 6.968864e+001 7.242065e+001 5.688543e+001 5.919657e+001 4.215898e+001 4.252055e+001 3.164100e+001 1.047568e+002 6.784362e+000 3.622396e+000 3.479759e+000 4.205595e+000 4.210227e+000 4.465121e+000 4.725413e+000 3.820351e+000 3.589908e+000 3.089309e+000 2.850992e+000 2.279772e+000 7.124846e+000 8.393582e-001 6.342050e-001 5.371650e-001 7.414366e-001 6.805939e-001 7.356939e-001 7.870222e-001 6.816327e-001 6.216555e-001 5.715455e-001 5.151113e-001 4.172312e-001 1.230405e+000
<GCONST> 1.384654e+002
<STATE> 3
<MEAN> 39
 -1.452735e+001 -7.349898e+000 -2.599190e+000 -9.784530e+000 -7.812843e+000 -5.111801e+000 -5.724540e+000 -6.563083e-001 -3.217676e+000 -1.785550e+000 -2.049960e+000 -1.558386e+000 5.553633e+001 2.746983e-002 -1.063312e-002 -9.011182e-002 -1.445907e-003 4.516819e-002 6.352592e-003 9.416311e-003 1.987242e-002 2.957127e-002 3.387870e-003 -1.731320e-002 -6.826854e-003 1.354968e-002 1.199350e-002 -2.127859e-003 -7.635966e-003 -7.400078e-004 -2.269599e-003 -1.327218e-003 -2.303044e-003 -8.174087e-004 -1.722092e-003 -4.669127e-004 2.289708e-005 -1.244549e-003 3.745163e-003
<VARIANCE> 39
 1.385589e+002 5.657164e+001 7.885567e+001 6.808510e+001 7.053332e+001 6.923163e+001 7.248264e+001 5.716341e+001 5.865891e+001 4.220127e+001 4.229748e+001 3.181758e+001 1.024458e+002 6.795486e+000 3.615274e+000 3.438349e+000 4.159397e+000 4.175682e+000 4.428668e+000 4.718630e+000 3.803054e+000 3.547586e+000 3.071630e+000 2.832321e+000 2.276958e+000 7.027886e+000 8.436152e-001 6.312785e-001 5.321091e-001 7.313150e-001 6.740394e-001 7.300682e-001 7.848805e-001 6.762718e-001 6.136466e-001 5.668749e-001 5.103016e-001 4.159819e-001 1.207878e+000
<GCONST> 1.382389e+002
<STATE> 4
<MEAN> 39
 -1.436047e+001 -7.361516e+000 -2.952920e+000 -9.779798e+000 -7.683064e+000 -5.099547e+000 -5.690317e+000 -6.330090e-001 -3.151326e+000 -1.789235e+000 -2.132142e+000 -1.624163e+000 5.558604e+001 7.438125e-002 -1.129201e-002 -1.108359e-001 1.840815e-003 3.937507e-002 -5.725694e-004 3.714767e-003 1.413131e-002 2.118715e-002 4.645510e-003 -1.919815e-002 -1.270778e-002 9.384783e-003 1.256541e-002 -2.092702e-004 -3.996290e-003 1.956356e-004 -3.014987e-003 -2.116261e-003 -2.687804e-003 -1.866335e-003 -2.932795e-003 4.316914e-004 4.515911e-004 -2.254551e-003 -4.858137e-004
<VARIANCE> 39
 1.384922e+002 5.780548e+001 7.837467e+001 6.822601e+001 7.041422e+001 6.906805e+001 7.270105e+001 5.827355e+001 5.835125e+001 4.237147e+001 4.217307e+001 3.233331e+001 1.015413e+002 6.660092e+000 3.559422e+000 3.354426e+000 4.036135e+000 4.129820e+000 4.350708e+000 4.656063e+000 3.783620e+000 3.491472e+000 3.040720e+000 2.802373e+000 2.270271e+000 6.747484e+000 8.293048e-001 6.157768e-001 5.192398e-001 7.055398e-001 6.650520e-001 7.164280e-001 7.728114e-001 6.680549e-001 6.045672e-001 5.594618e-001 5.027452e-001 4.138911e-001 1.148744e+000
<GCONST> 1.377985e+002
<TRANSP> 5
 0.000000e+000 1.000000e+000 0.000000e+000 0.000000e+000 0.000000e+000
 0.000000e+000 6.248454e-001 3.751546e-001 0.000000e+000 0.000000e+000
 0.000000e+000 0.000000e+000 6.248453e-001 3.751548e-001 0.000000e+000
 0.000000e+000 0.000000e+000 0.000000e+000 7.329947e-001 2.670053e-001
 0.000000e+000 0.000000e+000 0.000000e+000 0.000000e+000 0.000000e+000
<ENDHMM>
~h "dh"
<BEGINHMM>
<NUMSTATES> 5
<STATE> 2
<MEAN> 39
 -1.156805e+001 -6.072860e+000 -6.039858e+000 -8.230216e+000 -7.009206e+000 -5.257675e+000 -4.753692e+000 -9.487928e-001 -2.225554e+000 -1.112421e+000 -2.833330e+000 -1.830760e+000 5.109256e+001 1.168521e-001 -4.677330e-002 2.707556e-002 -1.045385e-001 -1.005381e-001 -1.184272e-001 -8.476595e-002 -3.974912e-002 -2.317289e-002 -2.327052e-002 -5.656935e-002 -3.624330e-002 3.855799e-001 2.092369e-002 -1.534333e-002 -2.424046e-003 -1.727364e-002 -2.116894e-002 -1.633120e-002 -1.317939e-002 4.982781e-004 -3.675675e-003 -7.914025e-003 -1.908269e-003 5.813977e-004 4.963247e-002
<VARIANCE> 39
 8.351219e+001 5.380206e+001 5.139798e+001 7.097393e+001 6.344980e+001 6.222196e+001 6.540427e+001 5.410953e+001 5.386890e+001 4.096743e+001 4.330507e+001 3.331653e+001 1.576329e+002 4.131588e+000 3.205441e+000 2.793978e+000 3.759006e+000 3.802693e+000 3.857667e+000 3.977091e+000 3.674655e+000 3.487288e+000 2.921740e+000 2.763560e+000 2.315608e+000 6.869022e+000 6.161327e-001 5.470662e-001 4.802569e-001 6.382651e-001 6.418867e-001 6.731004e-001 7.064208e-001 6.628295e-001 6.354634e-001 5.510243e-001 5.112280e-001 4.317645e-001 1.053254e+000
<GCONST> 1.348071e+002
<STATE> 3
<MEAN> 39
 -1.117419e+001 -6.266363e+000 -5.973954e+000 -8.578357e+000 -7.361877e+000 -5.611884e+000 -5.020045e+000 -1.041317e+000 -2.300244e+000 -1.206480e+000 -2.979138e+000 -1.919344e+000 5.229075e+001 1.527073e-001 -7.408108e-002 2.908177e-002 -1.294515e-001 -1.337417e-001 -1.328104e-001 -1.036911e-001 -3.398067e-002 -3.312580e-002 -3.687296e-002 -5.118751e-002 -3.280867e-002 4.504611e-001 1.103787e-002 -8.781970e-003 1.813953e-003 -6.934986e-003 -1.016758e-002 -3.154158e-003 -6.173384e-003 1.781747e-003 -4.598949e-003 -4.514294e-003 3.334263e-003 1.850418e-003 1.739389e-002
<VARIANCE> 39
 8.454761e+001 5.531389e+001 5.405680e+001 7.127351e+001 6.580018e+001 6.362888e+001 6.740120e+001 5.579572e+001 5.550939e+001 4.222704e+001 4.427394e+001 3.391667e+001 1.446331e+002 4.358761e+000 3.330216e+000 2.890235e+000 3.919512e+000 3.998463e+000 4.046844e+000 4.197511e+000 3.764391e+000 3.592771e+000 2.994751e+000 2.834840e+000 2.370292e+000 7.464187e+000 6.469023e-001 5.687661e-001 4.927798e-001 6.623163e-001 6.683052e-001 7.022007e-001 7.410446e-001 6.774992e-001 6.527802e-001 5.638822e-001 5.221258e-001 4.413361e-001 1.123918e+000
<GCONST> 1.360261e+002
<STATE> 4
<MEAN> 39
 -1.072026e+001 -6.558712e+000 -5.894597e+000 -9.018830e+000 -7.797412e+000 -5.953746e+000 -5.298019e+000 -1.152604e+000 -2.445416e+000 -1.358229e+000 -3.069774e+000 -2.001739e+000 5.371062e+001 1.304025e-001 -7.964804e-002 2.911229e-002 -1.136360e-001 -1.086802e-001 -8.527391e-002 -8.255038e-002 -2.025701e-002 -4.602177e-002 -3.917992e-002 -2.593054e-002 -2.213839e-002 3.623409e-001 -8.936455e-003 -1.509496e-004 3.067627e-007 6.412573e-003 9.011897e-003 1.420370e-002 6.543708e-003 3.323443e-003 -4.314890e-003 -6.923433e-005 7.839566e-003 3.304059e-003 -2.964703e-002
<VARIANCE> 39
 8.636375e+001 5.715255e+001 5.844622e+001 7.252927e+001 6.937358e+001 6.583826e+001 7.000224e+001 5.823475e+001 5.790341e+001 4.408834e+001 4.567937e+001 3.490025e+001 1.293341e+002 4.480607e+000 3.447090e+000 2.962091e+000 4.038011e+000 4.137543e+000 4.168585e+000 4.360411e+000 3.858787e+000 3.692067e+000 3.068808e+000 2.894520e+000 2.416285e+000 7.589602e+000 6.573001e-001 5.858048e-001 4.948646e-001 6.774176e-001 6.842217e-001 7.200010e-001 7.638724e-001 6.923569e-001 6.671391e-001 5.748646e-001 5.299798e-001 4.484295e-001 1.139911e+000
<GCONST> 1.369870e+002
<TRANSP> 5
 0.000000e+000 1.000000e+000 0.000000e+000 0.000000e+000 0.000000e+000
 0.000000e+000 6.155933e-001 3.844067e-001 0.000000e+000 0.000000e+000
 0.000000e+000 0.000000e+000 6.155922e-001 3.844077e-001 0.000000e+000
 0.000000e+000 0.000000e+000 0.000000e+000 7.218753e-001 2.781247e-001
 0.000000e+000 0.000000e+000 0.000000e+000 0.000000e+000 0.000000e+000
<ENDHMM>
~h "eh"
<BEGINHMM>
<NUMSTATES> 5
<STATE> 2
<MEAN> 39
 -1.003165e+001 -7.487843e+000 -5.213667e+000 -1.016306e+001 -8.734841e+000 -6.414580e+000 -6.012540e+000 -3.822449e-001 -3.177581e+000 -1.630267e+000 -2.727477e+000 -2.112285e+000 5.608212e+001 1.130821e-002 -3.424172e-002 -1.072548e-003 -2.125409e-002 -8.580372e-003 -2.273669e-002 -2.211958e-002 1.487171e-002 2.275183e-003 -1.308885e-002 -4.438984e-003 -1.657996e-003 6.188989e-002 -6.776693e-003 5.359838e-003 -7.821006e-004 6.220682e-003 5.176415e-003 2.985001e-003 2.894491e-003 -3.339685e-003 -1.944287e-003 -7.170762e-004 -6.201819e-005 1.686175e-003 -1.535921e-002
<VARIANCE> 39
 1.030309e+002 6.099613e+001 6.961454e+001 7.866012e+001 7.657169e+001 7.030087e+001 7.529755e+001 6.780624e+001 6.658956e+001 4.662448e+001 4.902591e+001 3.547509e+001 1.048818e+002 5.139670e+000 4.006832e+000 3.180123e+000 4.460513e+000 4.490238e+000 4.277224e+000 4.550128e+000 4.824533e+000 4.219770e+000 3.326278e+000 3.119706e+000 2.560011e+000 6.474002e+000 7.210871e-001 6.507635e-001 5.102996e-001 7.382933e-001 7.377017e-001 7.394685e-001 7.890599e-001 8.441206e-001 7.463129e-001 6.166620e-001 5.693634e-001 4.681441e-001 1.020755e+000
<GCONST> 1.398005e+002
<STATE> 3
<MEAN> 39
