~o
<STREAMINFO> 1 39
<VECSIZE> 39<NULLD><MFCC_D_A_0><DIAGC>
~s "silst"
<MEAN> 39
 -1.211179e+01 -8.317073e+00 7.938154e-02 -7.525924e-01 4.674079e-01 2.860998e+00 2.374274e+00 4.576573e+00 3.365279e+00 2.744934e+00 3.601085e+00 4.276258e+00 5.321902e+01 -3.245123e-01 -2.247167e-01 -1.530834e-02 1.011693e-01 2.543964e-01 9.301591e-02 2.583002e-01 3.563645e-01 1.739086e-01 2.442609e-01 2.988129e-01 1.941838e-01 -2.073760e-02 7.091854e-02 -3.244427e-03 2.762050e-03 -8.737525e-02 -7.634826e-02 -8.361805e-02 -1.135430e-01 -8.269369e-02 -8.539006e-02 -7.861651e-02 -7.836357e-02 -5.976707e-02 1.016813e-01
<VARIANCE> 39
 2.340633e+01 4.079283e+01 3.126809e+01 2.931130e+01 3.698641e+01 3.323098e+01 3.217134e+01 3.408752e+01 3.500412e+01 3.869810e+01 2.947619e+01 2.628010e+01 2.750119e+01 1.456371e+00 2.224005e+00 1.886047e+00 2.275211e+00 2.555536e+00 2.651397e+00 3.067863e+00 3.015644e+00 3.552131e+00 3.486681e+00 2.801842e+00 2.357466e+00 2.118971e+00 2.267139e-01 3.549152e-01 3.349564e-01 4.117706e-01 4.357920e-01 4.661872e-01 5.391248e-01 5.349172e-01 6.450661e-01 6.197280e-01 4.948370e-01 4.291378e-01 3.326669e-01
<GCONST> 1.176713e+02
~h "a"
<BEGINHMM>
<NUMSTATES> 5
<STATE> 2
<MEAN> 39
 -5.110617e+00 -2.043416e+01 -9.951919e+00 -8.459835e+00 -1.058551e+00 -4.515169e-01 -5.944498e+00 -2.552229e+00 -6.237601e+00 -7.455210e+00 -6.124685e+00 8.713679e-01 7.602718e+01 1.575159e-01 -2.731984e+00 -1.848219e+00 -2.447365e-01 9.939327e-01 4.617198e-01 -1.295348e+00 -1.370826e+00 -9.961600e-01 -1.059535e+00 -6.307402e-01 -3.919772e-01 1.708502e+00 -4.362839e-01 6.081913e-01 7.094622e-01 7.838019e-01 1.989938e-01 7.329535e-02 1.168169e-01 4.718988e-02 4.999377e-01 5.265239e-01 4.516666e-01 -6.084131e-02 -7.330502e-01
<VARIANCE> 39
 2.604519e+01 3.284012e+01 2.860289e+01 5.268517e+01 4.949344e+01 5.739425e+01 6.917935e+01 4.946313e+01 4.635159e+01 4.354439e+01 5.118577e+01 5.517971e+01 3.193129e+01 3.111951e+00 3.555111e+00 3.535213e+00 5.778262e+00 4.929897e+00 4.547781e+00 4.933144e+00 4.283781e+00 4.168199e+00 4.083432e+00 4.353492e+00 3.642764e+00 2.949543e+00 4.848169e-01 5.484322e-01 4.740422e-01 7.583758e-01 7.909814e-01 7.348835e-01 9.726331e-01 9.865761e-01 7.056611e-01 6.948461e-01 7.340183e-01 7.091954e-01 5.780045e-01
<GCONST> 1.342718e+02
<STATE> 3
<MEAN> 39
 -5.881475e+00 -2.402038e+01 -1.098015e+01 -4.379024e+00 2.718903e+00 1.379169e+00 -9.253702e+00 -5.504298e+00 -4.637459e+00 -7.167664e+00 -5.553260e+00 -1.045883e+00 7.655612e+01 2.839896e-02 1.680187e-02 5.473380e-02 7.183874e-02 -1.659598e-01 -3.588125e-02 1.214194e-01 8.043139e-02 6.035483e-02 -4.745554e-02 1.248156e-02 -1.521139e-02 -1.783922e-01 7.807041e-02 3.652736e-01 1.568364e-01 -2.309152e-01 -3.550835e-01 -1.365039e-01 2.690196e-01 2.716222e-01 -1.387957e-02 6.719686e-03 -3.592566e-02 8.736914e-02 -2.070832e-01
<VARIANCE> 39
 2.401097e+01 2.417375e+01 2.180603e+01 5.144132e+01 3.807261e+01 6.145367e+01 5.962011e+01 3.554372e+01 3.948061e+01 3.989746e+01 3.765374e+01 4.395582e+01 3.279613e+01 4.601178e-01 8.361175e-01 8.448507e-01 1.963782e+00 1.868623e+00 1.477807e+00 2.153104e+00 1.874085e+00 1.832760e+00 1.656585e+00 1.549323e+00 1.543604e+00 4.748120e-01 1.066229e-01 1.937226e-01 2.015657e-01 3.014412e-01 3.067558e-01 3.035714e-01 3.340797e-01 3.303760e-01 3.546459e-01 3.319388e-01 2.961741e-01 2.863937e-01 1.051407e-01
<GCONST> 1.038263e+02
<STATE> 4
<MEAN> 39
 -5.336557e+00 -1.937666e+01 -8.773546e+00 -7.211248e+00 -3.065264e+00 -1.152704e+00 -4.806951e+00 -1.934661e+00 -5.387094e+00 -7.707351e+00 -5.663541e+00 4.594278e-01 7.277342e+01 2.342944e-01 2.176690e+00 1.252911e+00 -1.986760e-01 -1.370232e+00 -7.506936e-01 5.247444e-01 7.514578e-01 5.293722e-01 7.373136e-01 2.622391e-01 1.706287e-01 -1.792786e+00 -1.725957e-01 4.075963e-01 3.099041e-01 4.385032e-01 3.161995e-01 5.820385e-02 -1.899576e-01 -1.780878e-01 2.364123e-01 3.949862e-01 2.496529e-01 -1.643080e-02 -4.162079e-01
<VARIANCE> 39
 2.530447e+01 4.334360e+01 3.596314e+01 6.760681e+01 7.989410e+01 6.006596e+01 7.917528e+01 5.547610e+01 5.811314e+01 5.078712e+01 5.064503e+01 5.139038e+01 6.804765e+01 1.580386e+00 3.198045e+00 2.442770e+00 4.869637e+00 5.144042e+00 4.080754e+00 4.966295e+00 4.025004e+00 3.827901e+00 4.065714e+00 3.541807e+00 3.221111e+00 2.428779e+00 2.989215e-01 5.190272e-01 4.067876e-01 7.894875e-01 9.914436e-01 7.413610e-01 9.270853e-01 8.189468e-01 7.166733e-01 7.241051e-01 6.329488e-01 5.820854e-01 3.706265e-01
<GCONST> 1.333847e+02
<TRANSP> 5
 0.000000e+00 1.000000e+00 0.000000e+00 0.000000e+00 0.000000e+00
 0.000000e+00 6.618581e-01 3.381419e-01 0.000000e+00 0.000000e+00
 0.000000e+00 0.000000e+00 8.234946e-01 1.765054e-01 0.000000e+00
 0.000000e+00 0.000000e+00 0.000000e+00 6.468684e-01 3.531317e-01
 0.000000e+00 0.000000e+00 0.000000e+00 0.000000e+00 0.000000e+00
<ENDHMM>
~h "b"
<BEGINHMM>
<NUMSTATES> 5
<STATE> 2
<MEAN> 39
 -2.433948e+00 -5.011734e+00 8.222452e-01 -5.096849e+00 -5.032132e+00 -2.956194e+00 -8.092029e+00 -4.959292e+00 -4.316737e+00 -2.783727e+00 -5.056568e+00 -1.828002e+00 5.947379e+01 -5.177559e-01 9.676429e-01 5.468081e-01 1.982312e+00 8.637117e-01 6.830341e-01 1.182945e+00 1.113892e-01 7.616961e-01 2.471567e-01 6.242329e-01 4.011364e-02 -2.105697e+00 -2.686393e-01 -3.860326e-01 -1.221111e-01 -3.582573e-01 -7.273616e-02 4.219661e-02 2.326261e-01 4.373073e-01 1.668714e-01 1.953599e-01 1.717888e-01 2.086006e-01 6.819046e-01
<VARIANCE> 39
 2.791695e+01 4.707252e+01 4.924399e+01 6.945129e+01 4.790409e+01 5.155052e+01 6.082948e+01 5.833970e+01 5.349140e+01 4.915519e+01 4.888926e+01 4.709259e+01 7.271030e+01 2.566937e+00 3.562215e+00 3.649894e+00 5.476230e+00 3.986699e+00 3.836045e+00 4.756959e+00 5.876397e+00 4.633842e+00 4.506506e+00 4.031934e+00 3.671874e+00 5.299018e+00 4.541088e-01 7.600872e-01 7.479305e-01 1.246824e+00 8.057457e-01 7.305678e-01 8.823481e-01 1.048955e+00 8.732530e-01 9.387320e-01 7.603511e-01 7.188002e-01 1.589191e+00
<GCONST> 1.394713e+02
<STATE> 3
<MEAN> 39
 -9.031019e+00 -5.096413e+00 4.349149e-01 -4.086301e-02 -1.462167e+00 1.706934e+00 7.223856e-01 1.647445e+00 3.262766e+00 2.886647e+00 1.676867e+00 2.253268e+00 5.194157e+01 -2.873285e-01 -5.401779e-01 9.731759e-02 -4.423722e-02 -1.786346e-02 5.643528e-02 4.841267e-01 7.331859e-01 4.694754e-01 4.698260e-01 4.940792e-01 3.977931e-01 1.729906e+00 5.886817e-01 -2.161809e-01 7.010721e-02 -8.164066e-01 -4.160942e-01 -3.662832e-01 -6.502861e-01 -3.289717e-01 -6.453456e-01 -3.756341e-01 -5.137126e-01 -1.697461e-01 1.450563e+00
<VARIANCE> 39
 2.322013e+01 3.495112e+01 2.717087e+01 2.467512e+01 3.008703e+01 3.047457e+01 4.041118e+01 4.092862e+01 4.266871e+01 3.843578e+01 3.667501e+01 3.154106e+01 2.874459e+01 2.245445e+00 2.835898e+00 3.186624e+00 2.607832e+00 2.699739e+00 2.977620e+00 3.752489e+00 4.129199e+00 4.254524e+00 4.002482e+00 3.577837e+00 3.047483e+00 6.669946e+00 4.850061e-01 7.958374e-01 9.288102e-01 9.855987e-01 7.501469e-01 6.734939e-01 7.928939e-01 9.301228e-01 8.536962e-01 8.119705e-01 7.332409e-01 6.423456e-01 1.072873e+00
<GCONST> 1.297688e+02
<STATE> 4
<MEAN> 39
 -4.970972e+00 -5.941224e+00 3.444865e+00 -2.047314e+00 -3.963730e+00 -1.045850e+00 -2.143564e+00 1.192719e-01 -1.054545e-01 7.101443e-01 -7.148057e-01 8.527338e-01 6.578315e+01 1.314021e+00 -1.180871e+00 1.154160e-01 -3.500000e+00 -1.619217e+00 -8.596802e-01 -1.568535e+00 -4.080088e-01 -1.590358e+00 -4.976161e-01 -1.330538e+00 7.625313e-03 4.952251e+00 -9.610548e-02 -1.915011e-01 -4.676350e-01 -1.096044e+00 -2.758111e-01 -5.920518e-02 -5.689076e-01 -3.361053e-01 -5.172783e-01 -2.276629e-01 -4.979176e-01 -6.082737e-02 -3.139969e-01
<VARIANCE> 39
 3.871837e+01 2.943395e+01 5.651411e+01 4.685149e+01 3.912200e+01 3.491430e+01 4.038372e+01 3.575401e+01 3.527929e+01 2.758638e+01 2.781948e+01 2.550634e+01 7.291586e+01 4.002679e+00 6.837422e+00 1.168469e+01 6.897669e+00 6.686933e+00 5.652460e+00 6.901765e+00 8.002814e+00 6.728098e+00 5.731525e+00 5.015807e+00 4.639363e+00 6.293882e+00 7.916182e-01 9.265774e-01 9.672138e-01 1.203652e+00 9.105793e-01 8.068439e-01 1.116775e+00 1.054907e+00 9.685587e-01 8.976745e-01 8.297890e-01 7.215090e-01 1.638284e+00
<GCONST> 1.423465e+02
<TRANSP> 5
 0.000000e+00 1.000000e+00 0.000000e+00 0.000000e+00 0.000000e+00
 0.000000e+00 6.645728e-01 3.354272e-01 0.000000e+00 0.000000e+00
 0.000000e+00 0.000000e+00 5.692090e-01 4.307910e-01 0.000000e+00
 0.000000e+00 0.000000e+00 0.000000e+00 5.498272e-01 4.501728e-01
 0.000000e+00 0.000000e+00 0.000000e+00 0.000000e+00 0.000000e+00
<ENDHMM>
~h "c"
<BEGINHMM>
<NUMSTATES> 5
<STATE> 2
<MEAN> 39
 -8.572363e+00 -1.828031e+00 -1.252205e+00 -2.649912e+00 -6.248197e+00 -5.432071e+00 -7.078233e+00 -3.761571e+00 -3.147109e+00 -2.695424e+00 -3.064586e+00 1.691748e-01 6.256740e+01 -2.403505e+00 1.734001e+00 -3.751166e-01 2.466075e+00 1.230110e+00 1.448654e+00 1.904661e+00 1.042497e+00 9.527541e-01 9.260808e-01 1.033460e+00 1.395447e-01 -8.868905e-01 -4.568553e-01 -3.351575e-01 -2.028973e-01 -2.443234e-01 1.787757e-01 3.616385e-01 4.577734e-01 5.001769e-01 1.843260e-01 3.933868e-01 2.088470e-01 1.310441e-01 4.838352e-01
<VARIANCE> 39
 4.674980e+01 4.599041e+01 4.547918e+01 5.900013e+01 5.871231e+01 5.532559e+01 6.050752e+01 5.155515e+01 5.074612e+01 4.658488e+01 4.241236e+01 3.968685e+01 5.474604e+01 4.393228e+00 4.622578e+00 4.181801e+00 4.995122e+00 4.827527e+00 5.918789e+00 6.275728e+00 5.861396e+00 4.844664e+00 5.185437e+00 4.206057e+00 3.876699e+00 3.960155e+00 7.945489e-01 8.185624e-01 6.149603e-01 9.578584e-01 7.913989e-01 9.616682e-01 9.620640e-01 8.651111e-01 7.926395e-01 8.350067e-01 6.883585e-01 6.460408e-01 6.261150e-01
<GCONST> 1.398678e+02
<STATE> 3
<MEAN> 39
 -1.857454e+01 7.702613e-01 -3.757234e+00 2.322888e+00 -1.577798e+00 6.197796e-01 2.473052e+00 3.194213e+00 2.197678e+00 3.463591e+00 2.304348e+00 2.325976e+00 6.458971e+01 1.109602e-02 -3.982744e-01 1.735094e-01 -8.583502e-02 5.789685e-01 9.788992e-02 7.588420e-01 7.107865e-01 -8.940482e-03 2.510628e-02 2.551771e-01 2.244842e-01 2.130826e+00 9.720657e-01 -4.647393e-01 3.200405e-01 -4.164051e-01 -4.279968e-02 -3.700823e-01 -6.111026e-01 -3.974633e-01 -4.482415e-01 -5.944414e-01 -3.738266e-01 -6.262121e-02 1.124329e-01
<VARIANCE> 39
 3.632842e+01 3.580150e+01 2.595605e+01 3.040620e+01 3.180810e+01 3.118209e+01 2.761341e+01 2.678701e+01 2.673081e+01 2.281846e+01 1.995440e+01 1.694629e+01 5.761250e+01 6.321893e+00 3.674800e+00 3.537089e+00 2.678707e+00 3.041162e+00 3.309386e+00 3.785001e+00 3.558011e+00 3.529688e+00 3.529669e+00 2.858317e+00 2.348375e+00 2.589661e+00 8.412284e-01 6.982787e-01 6.027436e-01 6.515779e-01 6.779255e-01 7.410986e-01 7.801209e-01 6.888378e-01 6.797798e-01 6.651474e-01 5.870593e-01 5.008288e-01 8.527163e-01
<GCONST> 1.260433e+02
<STATE> 4
<MEAN> 39
 -1.294433e+01 -5.751732e+00 6.423762e-02 6.863196e-01 2.876060e+00 1.014196e+00 1.364514e+00 3.628806e+00 -3.023555e-01 -1.717527e-01 1.130139e+00 2.647116e+00 6.983839e+01 1.464333e+00 -1.661667e+00 -2.470381e-01 -9.916706e-01 3.582088e-01 3.857083e-02 -1.232537e+00 -7.629763e-01 -7.971880e-01 -1.182007e+00 -7.114780e-01 -8.437948e-02 2.512437e-01 8.533760e-02 3.920025e-02 -5.178655e-01 -4.753938e-01 -4.707007e-01 -1.418639e-01 -4.427038e-01 -3.705031e-01 -1.983065e-01 -1.139652e-01 -2.267522e-01 -1.407578e-01 -1.774830e-01
<VARIANCE> 39
 3.890929e+01 6.814980e+01 2.654186e+01 2.847072e+01 4.394277e+01 4.727053e+01 4.176472e+01 3.462433e+01 3.530124e+01 3.238532e+01 2.725092e+01 2.312069e+01 5.197620e+01 4.356511e+00 4.553956e+00 3.223797e+00 3.908545e+00 4.909820e+00 4.301444e+00 4.824185e+00 4.099898e+00 3.624995e+00 3.833315e+00 3.272515e+00 2.846306e+00 2.019878e+00 6.473714e-01 6.798284e-01 6.185179e-01 7.333370e-01 8.390819e-01 7.667136e-01 7.570602e-01 7.441769e-01 6.901433e-01 6.369835e-01 5.870090e-01 5.624424e-01 4.130770e-01
<GCONST> 1.302234e+02
<TRANSP> 5
 0.000000e+00 1.000000e+00 0.000000e+00 0.000000e+00 0.000000e+00
 0.000000e+00 6.795509e-01 3.204491e-01 0.000000e+00 0.000000e+00
 0.000000e+00 0.000000e+00 7.330018e-01 2.669981e-01 0.000000e+00
 0.000000e+00 0.000000e+00 0.000000e+00 7.179793e-01 2.820207e-01
 0.000000e+00 0.000000e+00 0.000000e+00 0.000000e+00 0.000000e+00
<ENDHMM>
~h "d"
<BEGINHMM>
<NUMSTATES> 5
<STATE> 2
<MEAN> 39
 -3.636952e+00 -5.578071e+00 1.564993e+00 -6.877809e+00 -8.266228e+00 -7.360811e+00 -9.323172e+00 -4.226801e+00 -3.246828e+00 -3.636181e+00 -5.663936e+00 -4.132592e-01 6.223261e+01 -1.508320e-01 1.151797e+00 5.338310e-01 2.025773e+00 8.180110e-01 4.521203e-01 8.084474e-01 7.457880e-02 5.282556e-01 5.692923e-02 4.315754e-01 -2.006657e-01 -2.218120e+00 -3.487579e-01 -4.015426e-01 -3.353565e-01 -3.600561e-01 2.147958e-01 2.549593e-01 3.620584e-01 4.196504e-01 6.994411e-02 2.064469e-01 1.948194e-01 9.966031e-02 6.547799e-01
<VARIANCE> 39
 2.442608e+01 4.129918e+01 5.299204e+01 6.030463e+01 6.329538e+01 5.266973e+01 6.730463e+01 5.687379e+01 5.576125e+01 4.834130e+01 4.723246e+01 4.566808e+01 7.250824e+01 1.846707e+00 2.686936e+00 3.758892e+00 4.435742e+00 5.021694e+00 5.320599e+00 5.684272e+00 4.915301e+00 4.318711e+00 3.991335e+00 3.618086e+00 3.458905e+00 5.237853e+00 2.848428e-01 6.419607e-01 6.828102e-01 1.240255e+00 8.573606e-01 9.559032e-01 9.487844e-01 9.700636e-01 8.198605e-01 8.089586e-01 6.787361e-01 7.685055e-01 1.834783e+00
<GCONST> 1.383439e+02
<STATE> 3
<MEAN> 39
 -8.429589e+00 -4.343166e+00 1.343318e+00 -7.485569e-01 -2.940030e+00 -1.303635e+00 -1.924769e+00 -2.206557e-01 1.458486e+00 8.345528e-01 -5.050921e-01 8.574277e-01 5.482682e+01 -9.860293e-01 -8.935288e-01 -5.872091e-01 -8.347249e-01 2.518812e-01 -1.200584e-02 7.567697e-01 1.101461e+00 4.891659e-01 4.632310e-01 7.330863e-01 5.876962e-01 2.531119e+00 2.971498e-01 -4.966325e-01 -1.802836e-01 -1.179055e+00 -5.373355e-01 -5.904570e-01 -6.528537e-01 5.876229e-03 -4.146890e-01 -3.636656e-01 -4.626584e-01 1.436654e-01 1.707253e+00
<VARIANCE> 39
 2.855071e+01 3.379281e+01 2.941015e+01 3.017249e+01 3.583974e+01 4.452511e+01 5.506424e+01 4.333713e+01 4.548190e+01 4.380067e+01 4.258104e+01 3.374416e+01 4.389934e+01 2.069254e+00 2.816077e+00 3.579973e+00 3.441413e+00 3.905067e+00 4.813447e+00 4.844531e+00 4.689651e+00 4.349267e+00 4.307415e+00 3.834104e+00 3.333684e+00 7.881831e+00 4.673275e-01 8.624346e-01 9.185249e-01 8.384688e-01 9.015567e-01 9.687412e-01 1.194866e+00 1.230121e+00 1.011158e+00 9.489607e-01 8.149636e-01 7.474669e-01 9.733745e-01
<GCONST> 1.355286e+02
<STATE> 4
<MEAN> 39
 -8.089682e+00 -6.955405e+00 3.111678e-01 -7.003286e+00 -5.399035e+00 -6.114258e+00 -3.951585e+00 1.249668e+00 -5.611172e-02 -8.704518e-01 -7.410856e-01 2.282561e+00 7.020921e+01 6.465363e-01 -1.682382e+00 -1.135720e+00 -3.431135e+00 -1.021637e+00 -1.425812e+00 -1.426593e+00 8.138069e-01 -8.357480e-01 -8.736644e-01 -1.347921e+00 6.475138e-01 4.764650e+00 3.302089e-01 -2.510084e-01 -2.106014e-01 -3.935823e-01 -6.197820e-02 2.236595e-01 -5.407690e-01 -3.712395e-01 -4.225297e-01 -2.640998e-01 -6.671947e-01 -2.565894e-01 -6.339191e-01
<VARIANCE> 39
 3.325993e+01 3.028305e+01 4.067416e+01 3.808910e+01 4.365585e+01 6.531487e+01 5.801764e+01 4.357383e+01 3.647377e+01 3.409260e+01 3.677586e+01 3.095272e+01 3.668197e+01 3.070448e+00 5.715842e+00 8.006609e+00 3.724281e+00 5.745041e+00 5.821588e+00 9.918869e+00 9.158812e+00 6.848530e+00 6.216892e+00 5.382689e+00 4.707233e+00 5.254060e+00 5.013447e-01 6.812606e-01 8.323703e-01 7.664242e-01 9.236905e-01 1.147124e+00 1.191861e+00 1.060359e+00 8.822629e-01 8.789650e-01 8.400297e-01 7.576681e-01 1.013635e+00
<GCONST> 1.404913e+02
<TRANSP> 5
 0.000000e+00 1.000000e+00 0.000000e+00 0.000000e+00 0.000000e+00
 0.000000e+00 6.429166e-01 3.570834e-01 0.000000e+00 0.000000e+00
 0.000000e+00 0.000000e+00 5.283573e-01 4.716426e-01 0.000000e+00
 0.000000e+00 0.000000e+00 0.000000e+00 4.247797e-01 5.752203e-01
 0.000000e+00 0.000000e+00 0.000000e+00 0.000000e+00 0.000000e+00
<ENDHMM>
~h "e"
<BEGINHMM>
<NUMSTATES> 5
<STATE> 2
<MEAN> 39
 -3.924971e+00 -1.112225e+01 -5.148729e+00 -1.473458e+01 -5.383982e+00 -1.017002e+01 -1.289399e+01 1.273610e+00 -7.592710e-01 -2.014508e+00 -7.014609e+00 2.087498e+00 7.247003e+01 4.134172e-01 -1.550288e+00 -1.075440e+00 -2.876458e+00 -1.717285e-01 1.673453e-02 -5.509045e-01 9.246728e-01 6.091773e-02 -4.677342e-01 -1.606943e+00 -4.688759e-01 1.670211e+00 -3.827186e-01 1.467047e-01 1.538845e-01 7.157608e-01 3.447485e-01 5.393955e-01 5.882096e-01 -8.764862e-02 7.115718e-02 1.069030e-01 1.728404e-01 -2.887644e-01 -4.089130e-01
<VARIANCE> 39
 2.438751e+01 3.832259e+01 4.978496e+01 4.759678e+01 6.638614e+01 6.524733e+01 7.449317e+01 6.465108e+01 6.062861e+01 6.296384e+01 5.725668e+01 6.011232e+01 3.210963e+01 2.293039e+00 2.687853e+00 2.823577e+00 5.237936e+00 5.270786e+00 4.460572e+00 6.728028e+00 5.300468e+00 4.608335e+00 4.711539e+00 4.194338e+00 4.293325e+00 1.650008e+00 4.171717e-01 6.051117e-01 4.827263e-01 7.028726e-01 7.337237e-01 7.279834e-01 9.642939e-01 1.133667e+00 7.853867e-01 7.613248e-01 7.608629e-01 8.228106e-01 4.345134e-01
<GCONST> 1.359034e+02
<STATE> 3
<MEAN> 39
 -3.794404e+00 -1.416286e+01 -9.289317e+00 -1.720374e+01 -1.623436e+00 -4.713816e+00 -1.051590e+01 2.309836e+00 5.929008e-01 -3.371413e+00 -1.013909e+01 -2.584247e+00 7.409726e+01 3.033916e-02 -2.541468e-01 -1.358435e-01 3.268702e-02 8.108824e-02 4.270124e-01 4.084215e-01 -5.129940e-02 -2.003431e-02 -2.328687e-01 -1.138179e-01 -2.474271e-01 -4.666378e-02 2.367421e-02 3.730794e-01 3.248019e-01 4.664749e-01 -1.797823e-01 -1.029980e-01 -3.613706e-02 -2.792824e-01 -1.165921e-01 8.930136e-02 3.341210e-01 1.740716e-01 -4.282258e-01
<VARIANCE> 39
 2.372046e+01 2.884215e+01 4.435366e+01 4.321462e+01 5.875403e+01 7.394283e+01 6.847411e+01 6.069873e+01 5.865391e+01 6.588729e+01 4.504397e+01 4.703821e+01 3.241614e+01 4.939629e-01 1.058669e+00 1.419210e+00 1.618860e+00 2.690568e+00 2.569132e+00 2.254843e+00 2.264908e+00 2.184704e+00 2.366731e+00 2.203883e+00 2.401387e+00 7.805849e-01 1.204201e-01 2.524005e-01 2.255906e-01 4.084370e-01 3.700943e-01 3.961882e-01 4.546744e-01 5.509074e-01 4.447189e-01 4.687814e-01 4.663894e-01 4.028071e-01 2.197724e-01
<GCONST> 1.147414e+02
<STATE> 4
<MEAN> 39
 -3.574686e+00 -1.171111e+01 -4.473889e+00 -1.351144e+01 -6.148971e+00 -7.782514e+00 -9.501064e+00 7.741473e-01 -1.757573e+00 -4.221627e+00 -7.274599e+00 -7.315338e-03 7.085052e+01 -1.839819e-01 1.705507e+00 1.381085e+00 2.131078e+00 -2.838206e-01 5.865154e-01 5.199296e-01 -9.740882e-01 -4.186099e-01 2.972025e-01 1.167007e+00 1.844502e-01 -2.112092e+00 -3.291256e-01 3.270766e-01 1.709884e-01 4.787288e-01 2.808562e-01 3.304401e-01 2.587218e-01 2.219199e-02 1.614559e-01 2.397098e-01 1.933059e-01 -6.201945e-02 -4.302837e-01
<VARIANCE> 39
 2.557290e+01 3.808974e+01 6.110078e+01 5.611670e+01 8.476687e+01 8.241404e+01 6.779340e+01 6.302874e+01 6.878792e+01 5.954853e+01 4.907801e+01 4.681322e+01 5.270437e+01 2.048009e+00 3.097930e+00 2.915178e+00 4.714735e+00 4.877294e+00 4.747529e+00 5.094729e+00 4.967418e+00 4.537819e+00 4.466778e+00 3.943125e+00 3.569760e+00 3.202343e+00 3.403286e-01 6.275489e-01 5.452894e-01 7.792059e-01 8.362946e-01 8.229879e-01 9.416054e-01 1.096166e+00 8.598809e-01 8.574952e-01 7.682779e-01 6.943842e-01 5.162242e-01
<GCONST> 1.372556e+02
<TRANSP> 5
 0.000000e+00 1.000000e+00 0.000000e+00 0.000000e+00 0.000000e+00
 0.000000e+00 5.276870e-01 4.723131e-01 0.000000e+00 0.000000e+00
 0.000000e+00 0.000000e+00 7.441522e-01 2.558478e-01 0.000000e+00
 0.000000e+00 0.000000e+00 0.000000e+00 5.480275e-01 4.519725e-01
 0.000000e+00 0.000000e+00 0.000000e+00 0.000000e+00 0.000000e+00
<ENDHMM>
~h "f"
<BEGINHMM>
<NUMSTATES> 5
<STATE> 2
<MEAN> 39
 -6.631308e+00 -4.813195e+00 -1.234854e+00 -3.712713e+00 -4.623975e+00 -1.621435e+00 -5.989291e+00 -2.558686e+00 -4.575056e+00 -3.801454e+00 -3.431485e+00 -7.914103e-01 6.396251e+01 -2.229177e+00 8.394154e-01 9.723483e-01 2.945292e+00 1.056027e+00 1.125888e+00 1.516352e+00 6.584068e-01 1.055456e+00 1.028275e+00 9.527093e-01 3.029715e-01 -1.006329e+00 -4.007792e-01 -4.337570e-01 -9.136242e-02 -3.124245e-01 -2.960871e-02 6.855083e-02 2.239770e-01 4.365704e-01 2.693970e-01 3.754091e-01 1.863354e-01 1.777352e-01 3.137560e-01
<VARIANCE> 39
 4.884437e+01 2.723245e+01 3.850523e+01 6.255772e+01 3.561887e+01 4.183764e+01 4.216534e+01 3.634562e+01 3.817360e+01 3.511787e+01 2.964343e+01 2.860923e+01 3.719854e+01 3.552598e+00 3.521208e+00 3.968239e+00 6.094867e+00 3.974402e+00 4.151342e+00 4.338197e+00 5.024338e+00 4.515882e+00 4.157195e+00 3.348187e+00 3.044632e+00 1.869678e+00 7.954712e-01 4.577226e-01 5.976326e-01 1.160650e+00 5.928163e-01 6.084621e-01 7.549196e-01 7.371593e-01 6.761435e-01 6.764737e-01 5.453240e-01 4.901079e-01 2.739566e-01
<GCONST> 1.299575e+02
<STATE> 3
<MEAN> 39
 -1.632172e+01 -6.149797e+00 -7.661593e-02 2.447858e+00 -2.239133e+00 2.253086e+00 1.213482e-01 3.244895e+00 1.784819e+00 2.782411e+00 1.706149e+00 2.232139e+00 6.245395e+01 -6.287612e-01 -3.351679e-01 -1.308517e-01 1.545859e-01 1.156972e-01 1.573217e-01 3.111842e-01 4.163076e-01 4.382147e-01 4.385389e-01 3.990261e-01 2.548623e-01 3.180799e-01 9.688904e-01 -5.688568e-02 -2.662276e-01 -7.709015e-01 -2.243109e-01 -3.740384e-01 -5.149202e-01 -4.413280e-01 -4.753708e-01 -5.227988e-01 -4.288131e-01 -1.706688e-01 3.633185e-01
<VARIANCE> 39
 2.655478e+01 1.787526e+01 1.709028e+01 1.656926e+01 1.887875e+01 1.802733e+01 2.019816e+01 1.983035e+01 2.112221e+01 1.979311e+01 1.776142e+01 1.596665e+01 3.858482e+01 2.717067e+00 1.288331e+00 1.279691e+00 1.528293e+00 1.565815e+00 1.845053e+00 2.123664e+00 2.508627e+00 2.564269e+00 2.545348e+00 2.070343e+00 1.752071e+00 1.405624e+00 5.272888e-01 4.090931e-01 4.515382e-01 7.166407e-01 4.503010e-01 5.192783e-01 5.211712e-01 5.220613e-01 5.170717e-01 5.411562e-01 5.027549e-01 4.366586e-01 3.739357e-01
<GCONST> 1.096166e+02
<STATE> 4
<MEAN> 39
 -1.204476e+01 -5.637026e+00 -3.413876e-01 4.848722e-01 -2.656562e+00 4.667954e-01 -1.479740e+00 1.554908e+00 -6.458316e-02 5.542482e-01 3.164610e-01 1.507629e+00 6.540936e+01 3.424262e+00 -1.017336e+00 -1.714397e+00 -3.545673e+00 -6.953880e-01 -1.101118e+00 -1.715083e+00 -1.078234e+00 -1.199695e+00 -1.462390e+00 -1.535988e+00 -4.063203e-01 2.055483e+00 5.040001e-01 -5.808879e-01 -5.622789e-01 -1.116221e+00 -1.030906e-01 -6.222302e-02 -4.471477e-01 -1.905639e-01 -4.035439e-01 -3.166843e-01 -4.846446e-01 -1.380572e-01 3.917749e-01
<VARIANCE> 39
 5.587226e+01 2.184090e+01 2.054141e+01 2.504038e+01 1.977044e+01 2.318694e+01 2.428805e+01 2.075391e+01 2.037502e+01 2.082911e+01 1.920921e+01 1.695520e+01 3.158488e+01 3.084962e+00 4.548172e+00 4.087875e+00 5.329068e+00 3.763156e+00 4.475196e+00 3.407562e+00 3.390539e+00 3.319606e+00 3.575483e+00 4.001135e+00 3.663518e+00 2.593814e+00 9.838541e-01 5.865707e-01 5.065789e-01 7.903081e-01 6.125724e-01 6.405225e-01 6.548805e-01 6.231095e-01 5.613165e-01 6.491434e-01 6.343503e-01 5.477490e-01 3.603392e-01
<GCONST> 1.233877e+02
<TRANSP> 5
 0.000000e+00 1.000000e+00 0.000000e+00 0.000000e+00 0.000000e+00
 0.000000e+00 6.027056e-01 3.972944e-01 0.000000e+00 0.000000e+00
 0.000000e+00 0.000000e+00 7.124255e-01 2.875745e-01 0.000000e+00
 0.000000e+00 0.000000e+00 0.000000e+00 5.922779e-01 4.077221e-01
 0.000000e+00 0.000000e+00 0.000000e+00 0.000000e+00 0.000000e+00
<ENDHMM>
~h "g"
<BEGINHMM>
<NUMSTATES> 5
<STATE> 2
<MEAN> 39
 -2.567205e+00 -4.899357e+00 -1.565535e+00 -9.583580e+00 -6.824335e+00 -4.308029e+00 -8.979305e+00 -4.991748e+00 -4.565529e+00 -1.618885e+00 -5.818404e+00 -2.296718e-01 6.099342e+01 -3.535560e-01 7.123708e-01 4.762870e-02 2.099337e+00 9.472299e-01 6.350923e-01 1.422556e+00 3.215308e-01 8.503407e-01 3.999280e-01 8.548742e-01 1.337178e-01 -2.318717e+00 -2.685484e-01 -4.560046e-01 -3.630924e-01 -1.975839e-01 1.672283e-01 1.242699e-01 3.890866e-01 5.338050e-01 1.744240e-01 2.303186e-01 1.743381e-01 1.746389e-01 4.460173e-01
<VARIANCE> 39
 2.783807e+01 4.415821e+01 5.678524e+01 7.197169e+01 5.542347e+01 5.525552e+01 6.549545e+01 5.247451e+01 5.841771e+01 5.721498e+01 5.412686e+01 4.773881e+01 6.662316e+01 2.159919e+00 3.434305e+00 4.553072e+00 5.809104e+00 5.159141e+00 5.187800e+00 6.594240e+00 6.325384e+00 5.588709e+00 5.057884e+00 4.672627e+00 4.199797e+00 4.287990e+00 3.138755e-01 5.903295e-01 8.740742e-01 1.517897e+00 9.789590e-01 1.003701e+00 1.202433e+00 1.039626e+00 1.060869e+00 1.016501e+00 8.708068e-01 8.903225e-01 1.226974e+00
<GCONST> 1.423461e+02
<STATE> 3
<MEAN> 39
 -8.482456e+00 -5.895524e+00 -1.691117e+00 -1.688427e+00 -2.321681e+00 4.540982e-01 5.582750e-01 1.685022e+00 3.051512e+00 3.424822e+00 1.028035e+00 2.730145e+00 5.305951e+01 -1.616127e-01 -1.044746e+00 -2.010828e+00 -7.843182e-01 6.153885e-01 -2.366485e-01 8.024799e-01 1.322623e+00 2.338409e-01 7.016606e-01 4.025754e-02 6.776556e-01 1.590434e+00 6.344683e-01 -2.143282e-02 -4.186602e-01 -1.283926e+00 -3.943157e-01 -5.485598e-01 -8.964661e-01 -4.551097e-01 -8.260885e-01 -4.060933e-01 -7.399941e-01 -4.956857e-02 1.388703e+00
<VARIANCE> 39
 2.432889e+01 3.830167e+01 3.291274e+01 3.734081e+01 3.806951e+01 3.732517e+01 4.036690e+01 3.758313e+01 4.418977e+01 3.696999e+01 3.855321e+01 2.815481e+01 3.283464e+01 2.585478e+00 3.567102e+00 4.892501e+00 5.770916e+00 4.920013e+00 5.026903e+00 5.648892e+00 4.938796e+00 5.503294e+00 4.668870e+00 4.501139e+00 3.540850e+00 6.136477e+00 4.167829e-01 6.388910e-01 7.883823e-01 1.081586e+00 8.333603e-01 9.250202e-01 9.426177e-01 9.554108e-01 9.852081e-01 8.713063e-01 8.573273e-01 7.253243e-01 7.589719e-01
<GCONST> 1.352689e+02
<STATE> 4
<MEAN> 39
 -3.761683e+00 -7.092729e+00 -1.028070e+01 -9.558589e+00 -2.262789e+00 -3.514634e+00 -2.152431e+00 1.848591e+00 -2.300360e+00 2.473891e+00 -3.765824e+00 3.199792e+00 6.423476e+01 1.583534e+00 1.642393e-01 -1.119936e+00 -3.649509e+00 -8.565200e-01 -1.165401e+00 -2.130984e+00 -8.441243e-01 -2.000744e+00 -7.025760e-01 -1.556061e+00 3.813028e-01 3.391974e+00 2.830055e-02 5.231641e-02 7.827834e-01 -4.375917e-01 -3.703519e-01 1.916243e-01 -6.721378e-01 -5.364973e-01 -1.756155e-01 -3.548933e-01 -1.641148e-01 -2.989542e-01 -1.586707e-01
<VARIANCE> 39
 3.937748e+01 4.769746e+01 4.156404e+01 7.571690e+01 5.578876e+01 5.808303e+01 6.214928e+01 4.806726e+01 5.114600e+01 3.954819e+01 3.646280e+01 3.294717e+01 3.869994e+01 2.012470e+00 3.893696e+00 5.923795e+00 5.556211e+00 5.331357e+00 5.118238e+00 6.471114e+00 5.968871e+00 5.636289e+00 5.197909e+00 4.963527e+00 4.848577e+00 3.978242e+00 4.986992e-01 8.540280e-01 8.706183e-01 1.332992e+00 1.080281e+00 1.082036e+00 1.426196e+00 1.216957e+00 1.201777e+00 9.951747e-01 9.149070e-01 9.091055e-01 6.516201e-01
<GCONST> 1.417356e+02
<TRANSP> 5
 0.000000e+00 1.000000e+00 0.000000e+00 0.000000e+00 0.000000e+00
 0.000000e+00 6.788203e-01 3.211797e-01 0.000000e+00 0.000000e+00
 0.000000e+00 0.000000e+00 5.693659e-01 4.306342e-01 0.000000e+00
 0.000000e+00 0.000000e+00 0.000000e+00 5.611715e-01 4.388285e-01
 0.000000e+00 0.000000e+00 0.000000e+00 0.000000e+00 0.000000e+00
<ENDHMM>
~h "h"
<BEGINHMM>
<NUMSTATES> 5
<STATE> 2
<MEAN> 39
 -3.046309e+00 -8.707567e+00 -9.087618e+00 -1.272728e+01 -5.129082e-01 -1.244975e+00 -1.047584e+01 -2.066078e+00 -7.054373e+00 -5.648452e+00 -4.852065e+00 -2.145551e+00 6.740396e+01 -4.112692e-01 1.099081e+00 -1.145367e-01 1.562296e+00 1.762326e+00 1.260677e+00 7.891459e-01 -4.310977e-02 1.910066e-01 2.630250e-01 7.061204e-01 -2.618798e-01 -1.251932e+00 -4.662471e-01 -1.554489e-01 3.025728e-01 3.270527e-01 1.215813e-01 1.717643e-01 5.601220e-01 4.586077e-01 3.622681e-01 5.021896e-01 2.268399e-01 1.037042e-01 6.978355e-03
<VARIANCE> 39
 3.188552e+01 4.951781e+01 4.845150e+01 7.013571e+01 7.038234e+01 7.881957e+01 7.068933e+01 5.946489e+01 7.571593e+01 6.709554e+01 5.452671e+01 5.404521e+01 4.771918e+01 2.707317e+00 2.831506e+00 4.310932e+00 5.888303e+00 6.537021e+00 4.837719e+00 6.925629e+00 6.381224e+00 6.036196e+00 5.804803e+00 4.489170e+00 3.909553e+00 1.384536e+00 3.272635e-01 4.688255e-01 5.647067e-01 7.522371e-01 8.656495e-01 8.148053e-01 1.056316e+00 1.197259e+00 1.152260e+00 1.085702e+00 8.507210e-01 7.087469e-01 1.914211e-01
<GCONST> 1.390046e+02
<STATE> 3
<MEAN> 39
 -9.240647e+00 -7.423433e+00 -7.286848e+00 -4.212751e+00 6.876623e+00 4.238293e+00 -2.586267e+00 3.105951e+00 -1.761262e+00 -9.239018e-03 -7.276058e-01 -1.899708e+00 6.363631e+01 -1.409613e+00 -3.879745e-01 -1.279339e-01 1.051693e+00 1.077520e+00 9.549884e-01 1.625663e+00 1.889068e+00 1.788631e+00 1.812186e+00 1.068381e+00 3.339952e-01 -3.899945e-01 5.242690e-01 -1.484637e-01 -2.122250e-01 -8.356811e-01 -6.870569e-01 -4.212922e-01 -6.184761e-01 -4.122796e-01 -3.261715e-01 -4.052369e-01 -2.231274e-01 4.917486e-02 3.334708e-01
<VARIANCE> 39
 3.347915e+01 4.816798e+01 3.462875e+01 5.090089e+01 6.572236e+01 4.711879e+01 4.996291e+01 5.443272e+01 5.121712e+01 5.286832e+01 3.543101e+01 3.437981e+01 4.291196e+01 1.992741e+00 1.877905e+00 2.626992e+00 3.809641e+00 4.124254e+00 3.408682e+00 4.337445e+00 4.834532e+00 3.929512e+00 4.597368e+00 3.411187e+00 3.000581e+00 9.053956e-01 3.372990e-01 3.946249e-01 5.098418e-01 5.959171e-01 7.421829e-01 6.833045e-01 9.103271e-01 1.104187e+00 8.898177e-01 9.477948e-01 6.742236e-01 5.872530e-01 1.744210e-01
<GCONST> 1.289568e+02
<STATE> 4
<MEAN> 39
 -1.061144e+01 -8.330176e+00 -7.400948e+00 -3.873309e+00 6.707042e+00 4.660456e+00 -1.034862e+00 4.956238e+00 1.817209e+00 2.252308e+00 1.121493e+00 -6.131131e-01 6.238239e+01 1.044824e+00 4.886078e-02 -1.933905e-01 -1.049815e+00 -8.568432e-01 -4.565433e-01 -9.998723e-01 -1.038212e+00 -7.242411e-01 -7.928952e-01 -4.072780e-01 -7.051671e-02 6.156787e-01 5.098988e-01 -6.464388e-02 -1.122578e-01 -6.276515e-01 -4.268638e-01 -2.676039e-01 -5.171602e-01 -5.239613e-01 -4.557314e-01 -4.062466e-01 -3.039524e-01 -3.731033e-02 3.585379e-01
<VARIANCE> 39
 3.647198e+01 6.147493e+01 3.787893e+01 5.204983e+01 6.664318e+01 4.518582e+01 4.691685e+01 5.247435e+01 4.578902e+01 4.639144e+01 3.469183e+01 3.186917e+01 4.635934e+01 2.611314e+00 2.171206e+00 2.558238e+00 4.087181e+00 4.185727e+00 3.109483e+00 4.123803e+00 4.535648e+00 3.453380e+00 3.499805e+00 2.836546e+00 2.482941e+00 1.702439e+00 3.541240e-01 4.564368e-01 5.122522e-01 7.291318e-01 6.622983e-01 5.910993e-01 7.594420e-01 8.240265e-01 6.560190e-01 7.012084e-01 5.722709e-01 4.979534e-01 3.109454e-01
<GCONST> 1.284430e+02
<TRANSP> 5
 0.000000e+00 1.000000e+00 0.000000e+00 0.000000e+00 0.000000e+00
 0.000000e+00 6.547846e-01 3.452154e-01 0.000000e+00 0.000000e+00
 0.000000e+00 0.000000e+00 5.513200e-01 4.486800e-01 0.000000e+00
 0.000000e+00 0.000000e+00 0.000000e+00 7.731230e-01 2.268770e-01
 0.000000e+00 0.000000e+00 0.000000e+00 0.000000e+00 0.000000e+00
<ENDHMM>
~h "i"
<BEGINHMM>
<NUMSTATES> 5
<STATE> 2
<MEAN> 39
 -1.262254e+01 8.402441e-01 1.275452e+01 -1.561477e+01 -1.178541e+01 -4.758653e+00 -1.471308e+01 -1.017533e+01 -7.774728e+00 -1.157766e+00 -6.338147e+00 9.946993e-01 6.881101e+01 5.051105e-01 -5.955211e-01 1.600053e+00 -2.447606e+00 -1.390463e+00 -4.159298e-01 -1.913345e+00 -9.560823e-01 -1.362087e+00 4.147242e-02 -1.576868e+00 -3.590482e-02 5.828618e-01 -1.807888e-01 -1.829729e-01 -5.963938e-01 5.859214e-01 4.395706e-01 2.712263e-01 6.973315e-01 6.014546e-01 4.633073e-01 1.802352e-01 1.793903e-01 -4.577256e-02 -2.497501e-01
<VARIANCE> 39
 2.499947e+01 3.748972e+01 3.651858e+01 5.231321e+01 3.712199e+01 3.659739e+01 4.804577e+01 4.288872e+01 5.255527e+01 4.387925e+01 4.752059e+01 5.718225e+01 2.671062e+01 3.444295e+00 3.439473e+00 2.960093e+00 4.102409e+00 4.267106e+00 4.224763e+00 5.387434e+00 4.767483e+00 5.031147e+00 4.111750e+00 3.681152e+00 3.433242e+00 1.169412e+00 3.627722e-01 3.745423e-01 4.247420e-01 6.036643e-01 5.737171e-01 6.071954e-01 7.793888e-01 6.629977e-01 6.302509e-01 7.109195e-01 6.163203e-01 5.898950e-01 2.585700e-01
<GCONST> 1.284462e+02
<STATE> 3
<MEAN> 39
 -1.233632e+01 9.155625e-01 1.467480e+01 -1.895337e+01 -1.212911e+01 -3.802149e+00 -1.721275e+01 -9.135126e+00 -8.221418e+00 -3.563835e-01 -8.845094e+00 8.475311e-02 6.818964e+01 2.240449e-01 -3.191907e-01 4.255548e-04 2.146073e-01 -4.328112e-01 1.145523e-01 2.708840e-01 -1.211634e-01 2.012273e-01 1.765691e-01 2.343378e-02 8.860704e-02 -1.231925e-01 9.296024e-02 -3.159435e-02 -2.629831e-01 4.947802e-01 5.938081e-02 -2.701507e-02 3.689749e-01 7.630569e-02 1.401509e-01 -1.157751e-02 2.397207e-01 -9.252499e-03 -1.668955e-01
<VARIANCE> 39
 2.466430e+01 3.367483e+01 3.061039e+01 4.256038e+01 3.955095e+01 3.797403e+01 4.439603e+01 4.318318e+01 6.494129e+01 5.274648e+01 4.721347e+01 4.894725e+01 3.184054e+01 5.649721e-01 1.281575e+00 8.872492e-01 1.502351e+00 1.673640e+00 1.336280e+00 1.950611e+00 1.559266e+00 1.612774e+00 1.706391e+00 1.607398e+00 1.555465e+00 5.626183e-01 1.486382e-01 1.863115e-01 2.491272e-01 3.842980e-01 3.458016e-01 3.082270e-01 3.953483e-01 3.739682e-01 3.828816e-01 3.687364e-01 3.644315e-01 3.053639e-01 1.147081e-01
<GCONST> 1.066233e+02
<STATE> 4
<MEAN> 39
 -9.712655e+00 -3.220426e+00 1.128061e+01 -1.269474e+01 -1.456421e+01 -4.220671e+00 -1.110503e+01 -8.893941e+00 -6.690771e+00 6.710322e-01 -6.492939e+00 6.825496e-01 6.647024e+01 5.710666e-01 -3.654931e-01 -1.800797e+00 2.665999e+00 1.047417e+00 1.626864e-03 1.836564e+00 1.138310e+00 8.200779e-01 -2.929753e-01 1.067626e+00 -2.095827e-01 -1.314240e+00 -2.139879e-01 2.253233e-01 -3.448283e-01 2.678782e-01 7.208604e-01 1.688690e-01 8.673203e-02 3.933741e-01 2.638859e-01 -9.977185e-02 1.922983e-01 7.265173e-03 -2.697261e-01
<VARIANCE> 39
 2.889756e+01 4.743167e+01 4.614345e+01 6.666804e+01 5.252460e+01 4.568892e+01 5.739281e+01 5.599810e+01 6.731329e+01 4.914461e+01 5.250219e+01 4.609045e+01 6.175685e+01 2.445823e+00 3.031544e+00 2.966719e+00 4.255071e+00 5.165627e+00 3.986735e+00 4.761754e+00 4.326889e+00 4.397202e+00 4.231081e+00 3.513397e+00 3.084930e+00 2.625064e+00 3.435804e-01 4.971138e-01 4.937268e-01 8.407754e-01 8.735562e-01 6.619034e-01 8.362167e-01 8.127504e-01 7.350190e-01 7.643123e-01 6.355015e-01 5.284355e-01 4.274668e-01
<GCONST> 1.335718e+02
<TRANSP> 5
 0.000000e+00 1.000000e+00 0.000000e+00 0.000000e+00 0.000000e+00
 0.000000e+00 5.138229e-01 4.861771e-01 0.000000e+00 0.000000e+00
 0.000000e+00 0.000000e+00 7.788748e-01 2.211252e-01 0.000000e+00
 0.000000e+00 0.000000e+00 0.000000e+00 6.016687e-01 3.983313e-01
 0.000000e+00 0.000000e+00 0.000000e+00 0.000000e+00 0.000000e+00
<ENDHMM>
~h "j"
<BEGINHMM>
<NUMSTATES> 5
<STATE> 2
<MEAN> 39
 -6.953516e+00 -1.602819e+00 2.865494e+00 -3.808984e+00 -8.897947e+00 -5.591759e+00 -7.446789e+00 -5.926626e+00 -5.208283e+00 -3.745331e+00 -4.996161e+00 -1.475469e+00 6.112521e+01 -1.647319e+00 1.419190e+00 -3.934374e-01 1.997907e+00 1.589209e+00 1.340253e+00 1.539164e+00 6.725098e-01 1.004003e+00 5.139377e-01 9.205301e-01 -4.868276e-02 -1.495914e+00 -6.293520e-01 -2.352484e-01 -3.286983e-01 -3.177670e-01 2.647388e-01 3.056933e-01 2.408227e-01 4.278718e-01 3.413574e-01 4.388888e-01 2.393452e-01 2.263549e-01 5.431046e-01
<VARIANCE> 39
 3.553560e+01 4.438063e+01 3.942547e+01 5.002082e+01 5.236634e+01 4.635367e+01 5.361511e+01 5.205206e+01 4.754464e+01 4.074622e+01 4.024599e+01 4.032647e+01 5.735808e+01 4.304697e+00 3.911653e+00 4.135194e+00 4.182845e+00 4.955148e+00 4.743079e+00 5.490543e+00 5.870975e+00 5.005089e+00 4.863678e+00 3.947121e+00 3.834332e+00 4.782229e+00 5.664722e-01 6.228403e-01 6.499323e-01 9.367026e-01 1.040101e+00 8.868534e-01 9.293316e-01 8.704330e-01 8.238552e-01 7.983156e-01 6.679519e-01 7.050485e-01 9.465298e-01
<GCONST> 1.380871e+02
<STATE> 3
<MEAN> 39
 -1.846808e+01 7.172942e-02 -1.519991e+00 4.710704e-01 -1.307606e+00 1.977361e+00 8.344954e-01 1.829136e+00 3.195231e+00 3.226480e+00 1.989401e+00 2.204078e+00 5.912360e+01 -2.305114e+00 8.538126e-01 -2.273616e-01 -4.712415e-01 3.940380e-01 6.670395e-01 3.356263e-01 2.962108e-01 5.180062e-01 5.015137e-01 4.356787e-01 2.619765e-01 2.031694e+00 7.024069e-01 -3.736547e-02 7.003678e-01 -5.826821e-01 -6.666278e-01 -5.002027e-01 -6.268266e-01 -6.752613e-01 -5.927789e-01 -4.035102e-01 -3.899343e-01 -1.658343e-01 4.255395e-01
<VARIANCE> 39
 4.401487e+01 4.213229e+01 3.252238e+01 2.991803e+01 3.051380e+01 2.558588e+01 2.863152e+01 2.874265e+01 2.982630e+01 2.535085e+01 2.401901e+01 2.021897e+01 4.737990e+01 3.758767e+00 3.555390e+00 3.658598e+00 2.695141e+00 2.965033e+00 2.834628e+00 3.280185e+00 3.460938e+00 3.424788e+00 3.389962e+00 3.008714e+00 2.472326e+00 3.027997e+00 1.084324e+00 8.153378e-01 6.804613e-01 7.815706e-01 7.983072e-01 7.115769e-01 7.064353e-01 7.763174e-01 6.847625e-01 5.909552e-01 5.625520e-01 5.108163e-01 7.605362e-01
<GCONST> 1.267874e+02
<STATE> 4
<MEAN> 39
 -2.069710e+01 4.440394e+00 3.459628e+00 -3.618844e+00 -3.987283e+00 8.559657e-01 -2.246130e+00 -3.213039e+00 1.545667e-01 1.151221e+00 2.150993e-01 6.976953e-01 6.804901e+01 2.243808e+00 -7.361817e-01 2.798576e+00 -2.698406e+00 -3.072386e+00 -1.875574e+00 -2.297295e+00 -2.445595e+00 -2.020171e+00 -6.003819e-01 -8.857073e-01 -2.521537e-04 1.657682e+00 1.048886e+00 -9.912849e-01 1.908098e-01 -6.448506e-01 -7.028543e-01 -5.726717e-01 -5.161816e-01 -1.365165e-01 -5.629207e-01 -9.363542e-02 -5.187455e-01 8.382274e-03 -2.643400e-01
<VARIANCE> 39
 3.914059e+01 3.130098e+01 4.623442e+01 3.194492e+01 4.255318e+01 3.576029e+01 4.003226e+01 4.002002e+01 3.321496e+01 2.525827e+01 2.158978e+01 1.944973e+01 2.319363e+01 3.547173e+00 4.465776e+00 2.504945e+00 4.761880e+00 3.854679e+00 3.961285e+00 4.300227e+00 4.656775e+00 3.641056e+00 3.131642e+00 3.119436e+00 3.365958e+00 1.615721e+00 9.299482e-01 7.580904e-01 8.461315e-01 7.186126e-01 8.957862e-01 8.415241e-01 9.422323e-01 1.174931e+00 7.731801e-01 7.214442e-01 6.590829e-01 5.843255e-01 2.264355e-01
<GCONST> 1.288866e+02
<TRANSP> 5
 0.000000e+00 1.000000e+00 0.000000e+00 0.000000e+00 0.000000e+00
 0.000000e+00 7.262737e-01 2.737263e-01 0.000000e+00 0.000000e+00
 0.000000e+00 0.000000e+00 7.140647e-01 2.859353e-01 0.000000e+00
 0.000000e+00 0.000000e+00 0.000000e+00 6.227406e-01 3.772593e-01
 0.000000e+00 0.000000e+00 0.000000e+00 0.000000e+00 0.000000e+00
<ENDHMM>
~h "k"
<BEGINHMM>
<NUMSTATES> 5
<STATE> 2
<MEAN> 39
 -3.904778e+00 -5.286556e+00 -1.338980e+00 -7.843438e+00 -5.466623e+00 -3.175418e+00 -7.229852e+00 -4.007470e+00 -3.643612e+00 -1.171952e+00 -4.544010e+00 2.685523e-01 6.065950e+01 -7.498491e-01 1.066892e-01 -4.213010e-01 2.215303e+00 1.481131e+00 8.391734e-01 1.742904e+00 8.158052e-01 1.102991e+00 9.431124e-01 1.056836e+00 4.227315e-01 -1.702957e+00 -2.901320e-01 -5.851160e-01 -5.039549e-01 -1.166969e-01 3.320877e-01 1.152483e-01 3.609577e-01 6.018509e-01 2.621279e-01 2.873135e-01 1.558394e-01 1.170901e-01 5.988174e-01
<VARIANCE> 39
 3.048374e+01 3.895617e+01 5.397549e+01 7.676759e+01 6.132060e+01 5.488566e+01 6.990281e+01 5.311002e+01 5.892515e+01 5.416580e+01 5.183467e+01 4.499141e+01 6.331099e+01 2.281121e+00 3.931373e+00 5.270491e+00 6.278711e+00 5.326153e+00 4.986380e+00 6.740344e+00 6.546876e+00 5.881856e+00 5.160181e+00 4.934137e+00 4.209938e+00 5.855305e+00 3.659267e-01 5.651280e-01 8.009728e-01 1.251556e+00 9.512729e-01 9.903370e-01 1.253289e+00 9.867325e-01 9.969115e-01 9.543827e-01 9.204133e-01 7.728295e-01 1.197733e+00
<GCONST> 1.427403e+02
<STATE> 3
<MEAN> 39
 -8.207249e+00 -9.587632e+00 -7.866621e+00 -2.896671e+00 1.890361e+00 1.160050e-01 6.935489e-01 4.170302e+00 2.430711e+00 4.562906e+00 -1.795966e-01 2.798297e+00 6.171838e+01 -7.895656e-02 -7.524988e-01 -7.458445e-01 4.383439e-01 1.306705e+00 9.996690e-02 2.180951e-01 7.584743e-01 1.918127e-01 4.031129e-03 -1.393100e-01 -1.430104e-02 2.323781e+00 2.715299e-01 3.186043e-01 6.306792e-01 -1.526516e-01 -2.790605e-01 -8.911119e-02 -5.512026e-01 -5.991465e-01 -4.077477e-01 -5.390204e-01 -2.543441e-01 -1.679195e-01 1.873180e-01
<VARIANCE> 39
 3.219913e+01 3.849097e+01 5.560978e+01 5.849254e+01 4.805046e+01 5.426591e+01 4.839531e+01 3.661828e+01 4.706694e+01 3.744682e+01 3.760410e+01 2.887970e+01 7.789257e+01 2.466277e+00 4.227941e+00 8.123433e+00 5.489653e+00 4.444220e+00 5.578613e+00 5.671518e+00 5.242543e+00 5.264450e+00 4.827661e+00 4.626574e+00 3.612738e+00 5.909194e+00 4.764100e-01 7.485011e-01 1.436334e+00 1.260853e+00 9.445259e-01 1.165029e+00 1.134394e+00 9.787365e-01 1.072885e+00 9.022845e-01 1.014120e+00 7.284377e-01 1.731826e+00
<GCONST> 1.416028e+02
<STATE> 4
<MEAN> 39
 -8.830667e+00 -1.016389e+01 -2.376015e+00 1.676882e+00 5.763886e+00 1.441267e+00 -6.530553e-01 2.079300e+00 1.261104e+00 5.121042e-01 -9.827869e-01 1.940207e+00 6.884566e+01 6.710211e-01 -3.355065e-02 2.221036e-01 -1.071590e+00 -4.775942e-01 4.670288e-02 -1.308240e+00 -1.450969e+00 -1.100393e+00 -1.252887e+00 -5.438867e-01 -1.421565e-01 5.864433e-01 3.160977e-01 -1.850775e-01 -6.461128e-01 -9.558012e-01 -6.703267e-01 -3.432936e-01 -3.674805e-01 -2.097550e-01 -3.490663e-01 -1.163699e-01 -2.714484e-01 -1.236889e-02 -5.907224e-02
<VARIANCE> 39
 3.827599e+01 4.219951e+01 4.151063e+01 4.395210e+01 4.178029e+01 5.812539e+01 4.522629e+01 3.564586e+01 4.253748e+01 3.852274e+01 3.129015e+01 2.485535e+01 4.397837e+01 2.275822e+00 3.438999e+00 5.029749e+00 5.926895e+00 4.937979e+00 4.640682e+00 4.519416e+00 4.181822e+00 3.860010e+00 3.898057e+00 3.461026e+00 3.069865e+00 1.428224e+00 4.090291e-01 6.673384e-01 7.258317e-01 7.665058e-01 7.741231e-01 8.043951e-01 7.286856e-01 7.278751e-01 6.468995e-01 6.553612e-01 6.049849e-01 5.519959e-01 3.821009e-01
<GCONST> 1.306401e+02
<TRANSP> 5
 0.000000e+00 1.000000e+00 0.000000e+00 0.000000e+00 0.000000e+00
 0.000000e+00 6.542504e-01 3.457496e-01 0.000000e+00 0.000000e+00
 0.000000e+00 0.000000e+00 7.538351e-01 2.461649e-01 0.000000e+00
 0.000000e+00 0.000000e+00 0.000000e+00 7.183866e-01 2.816134e-01
 0.000000e+00 0.000000e+00 0.000000e+00 0.000000e+00 0.000000e+00
<ENDHMM>
~h "l"
<BEGINHMM>
<NUMSTATES> 5
<STATE> 2
<MEAN> 39
 -4.033864e+00 -1.148149e+01 -7.388534e-02 -8.245700e+00 -9.601891e+00 -6.851159e+00 -1.070251e+01 -2.674475e+00 -1.867849e+00 -3.805742e+00 -4.719131e+00 1.771174e+00 6.697680e+01 1.014607e-01 9.478329e-01 1.135093e+00 7.400470e-01 -7.205591e-02 -1.113597e+00 -1.160551e+00 -8.096649e-01 -2.299927e-02 -3.400093e-01 -2.027138e-01 3.533695e-01 -7.150447e-01 -1.564594e-01 -5.404292e-03 -2.713916e-02 -4.514313e-01 1.028663e-01 3.034502e-01 1.270837e-01 4.192842e-02 -2.338274e-01 1.196523e-01 -9.813514e-02 -1.603564e-01 3.124443e-01
<VARIANCE> 39
 3.483444e+01 5.202168e+01 6.718144e+01 8.529754e+01 7.142108e+01 9.223044e+01 9.248996e+01 8.190102e+01 7.953763e+01 6.953822e+01 6.384187e+01 5.208849e+01 7.163201e+01 1.418486e+00 3.163481e+00 3.809507e+00 5.712553e+00 5.432360e+00 6.847102e+00 6.741197e+00 5.915076e+00 6.246856e+00 5.732742e+00 4.452119e+00 3.815156e+00 2.998907e+00 2.172848e-01 5.929177e-01 5.604039e-01 1.153340e+00 9.685601e-01 1.406354e+00 1.289554e+00 1.252249e+00 1.138389e+00 1.173530e+00 8.704008e-01 7.294264e-01 4.877099e-01
<GCONST> 1.433697e+02
<STATE> 3
<MEAN> 39
 -4.372689e+00 -8.185147e+00 3.703464e+00 -9.346180e+00 -8.873966e+00 -9.000508e+00 -1.449595e+01 -4.785744e+00 -3.455389e+00 -4.306626e+00 -6.578338e+00 1.404392e+00 6.571594e+01 -3.065389e-01 -1.359685e-01 1.274100e-01 -1.058649e+00 -3.121663e-01 5.126709e-01 4.737763e-01 1.146901e-01 -3.307762e-01 7.227513e-01 -2.016130e-01 -4.259267e-01 8.255883e-01 -1.073795e-01 -5.320441e-01 -4.076489e-01 -5.467262e-01 -2.413853e-01 4.657793e-01 6.128250e-01 3.275271e-01 -9.126169e-02 2.220920e-01 -2.499968e-02 -1.266215e-01 6.555203e-01
<VARIANCE> 39
 2.933019e+01 3.647475e+01 7.570525e+01 8.403623e+01 6.205287e+01 7.144258e+01 7.790868e+01 7.217747e+01 8.039404e+01 6.709410e+01 6.116762e+01 5.185653e+01 3.868870e+01 8.404613e-01 1.944349e+00 3.009118e+00 3.423905e+00 3.861922e+00 4.391029e+00 5.710838e+00 4.989480e+00 4.750974e+00 5.184507e+00 3.916001e+00 3.065813e+00 1.778606e+00 1.627973e-01 4.160981e-01 5.298511e-01 9.017799e-01 8.332770e-01 1.173954e+00 1.401518e+00 1.035898e+00 1.045935e+00 1.269418e+00 8.356963e-01 7.202461e-01 3.306774e-01
<GCONST> 1.356114e+02
<STATE> 4
<MEAN> 39
 -6.787364e+00 -1.004928e+01 1.554170e+00 -8.400522e+00 -7.083655e+00 -4.675939e+00 -7.203826e+00 -5.293403e-01 -1.634350e+00 -8.371627e-01 -2.581512e+00 1.710784e+00 6.401251e+01 -3.012681e-01 -5.810585e-01 -2.087637e-01 -1.432066e+00 -5.440680e-01 7.475351e-01 6.557730e-01 2.443165e-01 -4.030170e-01 4.129635e-01 -4.249043e-01 -2.845164e-01 1.408099e+00 -2.668551e-02 -1.251343e-01 -1.555197e-01 -1.445131e-01 4.090809e-02 1.214955e-01 -4.767947e-02 -4.809025e-02 -1.139334e-01 -2.162446e-01 -1.528261e-01 2.222168e-02 1.961443e-01
<VARIANCE> 39
 3.648529e+01 3.969394e+01 6.600467e+01 7.280708e+01 7.769769e+01 6.559753e+01 8.251855e+01 6.853801e+01 7.017966e+01 4.835568e+01 5.746722e+01 4.008248e+01 9.107017e+01 1.214013e+00 2.932936e+00 3.648103e+00 4.713404e+00 4.503556e+00 5.818097e+00 6.955569e+00 5.612740e+00 5.070613e+00 6.334994e+00 3.877809e+00 3.468361e+00 2.529264e+00 1.481423e-01 3.204465e-01 3.613020e-01 5.574251e-01 5.923260e-01 7.613820e-01 8.636335e-01 7.075803e-01 7.676962e-01 7.020428e-01 5.944480e-01 4.906046e-01 2.408147e-01
<GCONST> 1.338215e+02
<TRANSP> 5
 0.000000e+00 1.000000e+00 0.000000e+00 0.000000e+00 0.000000e+00
 0.000000e+00 5.544583e-01 4.455417e-01 0.000000e+00 0.000000e+00
 0.000000e+00 0.000000e+00 5.211892e-01 4.788108e-01 0.000000e+00
 0.000000e+00 0.000000e+00 0.000000e+00 3.134272e-01 6.865728e-01
 0.000000e+00 0.000000e+00 0.000000e+00 0.000000e+00 0.000000e+00
<ENDHMM>
~h "m"
<BEGINHMM>
<NUMSTATES> 5
<STATE> 2
<MEAN> 39
 -2.795471e+00 -8.019405e+00 3.099420e-01 -6.415231e+00 -5.365125e+00 -4.054805e+00 -1.041297e+01 -3.790469e+00 -4.604208e+00 -1.555850e+00 -4.318566e+00 -1.678943e+00 6.212490e+01 3.758951e-01 9.782715e-01 1.226350e+00 1.687993e+00 -3.462629e-02 -9.438349e-01 -1.486514e+00 -1.763604e+00 -6.383362e-01 1.598472e-01 -8.150488e-01 -8.474015e-01 -1.293791e+00 -1.481460e-01 -2.353126e-01 -1.117300e-01 -4.141324e-01 -1.542704e-01 -4.994820e-02 -1.254258e-02 2.375805e-02 -2.049187e-01 -1.042214e-01 -1.587149e-01 -8.702116e-02 4.773226e-01
<VARIANCE> 39
 2.981637e+01 4.071896e+01 4.398598e+01 6.618539e+01 5.383703e+01 5.919260e+01 7.077110e+01 6.619868e+01 6.474094e+01 5.182309e+01 5.603715e+01 5.988213e+01 6.170983e+01 1.930563e+00 2.377070e+00 4.526989e+00 5.422049e+00 4.367177e+00 4.560685e+00 5.309371e+00 5.208885e+00 5.291367e+00 4.903473e+00 4.594613e+00 4.216033e+00 4.052833e+00 2.959844e-01 3.904006e-01 7.003855e-01 8.393037e-01 5.932688e-01 6.717823e-01 8.829353e-01 1.059271e+00 8.159684e-01 7.429293e-01 6.731824e-01 6.554581e-01 4.376532e-01
<GCONST> 1.364669e+02
<STATE> 3
<MEAN> 39
 -2.069751e+00 -6.696077e+00 3.085997e+00 -4.782074e+00 -6.809290e+00 -6.799220e+00 -1.468487e+01 -7.972724e+00 -7.961014e+00 -2.368615e+00 -8.284591e+00 -5.721451e+00 6.109887e+01 5.063291e-02 -2.903159e-01 -1.405594e-01 -4.641591e-01 -4.850571e-01 -2.623143e-01 -2.496726e-02 1.842054e-01 -4.767980e-02 -1.471761e-01 -1.315594e-01 -2.586075e-01 6.374384e-01 -8.440784e-02 -4.078517e-01 -3.779769e-01 -1.012110e+00 -2.315256e-01 3.492616e-01 5.173485e-01 7.007685e-01 2.324882e-01 -1.215253e-01 2.729841e-01 3.667732e-01 7.966473e-01
<VARIANCE> 39
 1.562676e+01 2.791488e+01 2.651245e+01 4.138440e+01 4.715046e+01 5.725606e+01 4.650225e+01 5.326281e+01 6.190443e+01 5.600037e+01 5.139542e+01 5.284689e+01 1.703779e+01 6.321905e-01 1.316039e+00 2.382339e+00 2.734444e+00 2.139247e+00 2.640385e+00 2.826973e+00 3.461672e+00 3.057782e+00 3.061815e+00 2.983020e+00 2.801253e+00 1.662643e+00 2.493526e-01 3.148507e-01 8.993129e-01 6.407723e-01 5.717461e-01 7.010983e-01 7.896933e-01 9.084872e-01 7.683644e-01 9.349861e-01 7.708919e-01 7.503305e-01 2.866187e-01
<GCONST> 1.234656e+02
<STATE> 4
<MEAN> 39
 -2.446871e+00 -8.427068e+00 1.742854e+00 -7.231945e+00 -9.168403e+00 -6.233523e+00 -1.205289e+01 -4.949929e+00 -5.727484e+00 -2.093745e+00 -5.582169e+00 -3.669226e+00 6.415829e+01 -5.158862e-01 -1.079781e+00 -3.305484e-01 -3.425890e+00 -1.211741e+00 9.025463e-01 8.729137e-01 1.454895e+00 2.020575e-01 -3.880970e-01 8.017604e-02 7.193600e-01 2.617872e+00 -3.328441e-01 1.084710e-01 -5.123478e-03 -6.563340e-01 2.488357e-01 4.693909e-01 1.307443e-01 1.294266e-01 -1.483185e-01 1.102502e-02 -9.651642e-02 1.232462e-01 2.153616e-01
<VARIANCE> 39
 2.169544e+01 2.941142e+01 4.538321e+01 4.692886e+01 5.356211e+01 4.852804e+01 4.662114e+01 4.912759e+01 4.740688e+01 4.037290e+01 4.439182e+01 5.156404e+01 3.287103e+01 2.647320e+00 3.058430e+00 1.016935e+01 4.835252e+00 5.081194e+00 5.353610e+00 5.954057e+00 6.884723e+00 4.834411e+00 6.158596e+00 4.789759e+00 4.594660e+00 2.082192e+00 2.268684e-01 4.377753e-01 5.772459e-01 7.569069e-01 6.614545e-01 6.157836e-01 7.924044e-01 7.172374e-01 6.637476e-01 6.528406e-01 5.934879e-01 5.604401e-01 2.819095e-01
<GCONST> 1.326023e+02
<TRANSP> 5
 0.000000e+00 1.000000e+00 0.000000e+00 0.000000e+00 0.000000e+00
 0.000000e+00 4.849269e-01 5.150731e-01 0.000000e+00 0.000000e+00
 0.000000e+00 0.000000e+00 6.383245e-01 3.616754e-01 0.000000e+00
 0.000000e+00 0.000000e+00 0.000000e+00 4.029796e-01 5.970204e-01
 0.000000e+00 0.000000e+00 0.000000e+00 0.000000e+00 0.000000e+00
<ENDHMM>
~h "n"
<BEGINHMM>
<NUMSTATES> 5
<STATE> 2
<MEAN> 39
 -6.487318e+00 -7.098557e+00 1.061165e+00 -5.816206e+00 -6.220424e+00 -4.907755e+00 -5.708178e+00 -9.389306e-01 -2.404924e+00 -1.493361e+00 -2.478603e+00 1.436647e+00 6.059377e+01 7.055703e-01 1.020491e+00 1.029275e+00 9.132900e-01 -8.790410e-01 -4.847775e-01 -8.217390e-01 -1.155297e+00 4.052146e-02 -3.697044e-01 -4.424507e-01 -2.361197e-01 -1.083253e+00 1.478830e-02 -6.966035e-02 -4.207829e-02 -3.057580e-01 -8.991004e-02 3.695555e-02 -2.353034e-01 -1.137037e-01 -1.325288e-01 -1.006217e-01 -1.761357e-01 -9.969210e-02 3.505560e-01
<VARIANCE> 39
 3.524118e+01 4.345506e+01 4.397583e+01 6.847128e+01 6.816511e+01 6.895625e+01 8.492856e+01 6.231505e+01 7.045269e+01 5.309114e+01 6.708380e+01 5.089022e+01 8.768858e+01 1.650321e+00 2.197096e+00 3.760716e+00 4.171813e+00 4.220938e+00 4.222004e+00 4.992127e+00 4.509056e+00 4.740889e+00 4.368981e+00 3.688759e+00 3.155480e+00 3.940414e+00 2.866649e-01 3.885737e-01 6.017008e-01 7.054476e-01 7.035288e-01 8.054905e-01 7.827885e-01 7.774568e-01 7.908004e-01 7.111877e-01 6.285823e-01 5.345975e-01 5.396402e-01
<GCONST> 1.353797e+02
<STATE> 3
<MEAN> 39
 -2.174075e+00 -4.789570e+00 4.390708e+00 -5.710866e+00 -1.186089e+01 -8.019278e+00 -1.196431e+01 -7.187401e+00 -3.892183e+00 -4.756687e+00 -7.339035e+00 -1.629018e+00 6.040068e+01 -1.378307e-01 2.171598e-01 8.153157e-02 -4.283710e-01 -2.173743e-01 -1.317548e-01 -4.146629e-01 -1.575866e-01 -3.107736e-02 -8.627836e-02 -4.559790e-01 -2.382540e-01 5.349736e-01 -4.965290e-01 -4.748366e-01 -5.090867e-01 -1.033868e+00 4.734875e-01 1.838591e-01 3.077503e-01 7.334899e-01 -2.787942e-01 2.376943e-01 8.742083e-02 9.675603e-02 1.095588e+00
<VARIANCE> 39
 1.782771e+01 2.975504e+01 2.534731e+01 3.641988e+01 3.825996e+01 3.809698e+01 4.724609e+01 4.704773e+01 5.916101e+01 4.964096e+01 5.660886e+01 5.191120e+01 1.820472e+01 1.490999e+00 1.814189e+00 3.464843e+00 4.453989e+00 3.697468e+00 3.765570e+00 4.306168e+00 4.298504e+00 3.593273e+00 3.652196e+00 3.329373e+00 2.718064e+00 3.556242e+00 2.804265e-01 4.170036e-01 1.202536e+00 7.603430e-01 8.568262e-01 8.147066e-01 1.011955e+00 8.465375e-01 7.828802e-01 8.213059e-01 6.957287e-01 6.198338e-01 3.613612e-01
<GCONST> 1.289211e+02
<STATE> 4
<MEAN> 39
 -5.157912e+00 -5.370928e+00 2.599351e+00 -1.034045e+01 -9.582504e+00 -8.347674e+00 -1.169815e+01 -3.965469e+00 -4.270391e+00 -3.614373e+00 -7.350879e+00 -1.157670e+00 6.552406e+01 -1.135569e+00 -1.292882e+00 -1.170405e+00 -3.098249e+00 1.024351e+00 5.769127e-01 2.766158e-01 1.684996e+00 -1.047209e+00 3.102541e-01 -2.053061e-01 6.006904e-02 3.195723e+00 -2.782551e-02 -4.305436e-01 -1.671766e-01 -1.809679e-01 1.405735e-01 4.909664e-01 2.187592e-01 1.067827e-01 -2.313145e-01 2.013670e-03 1.052421e-01 1.659141e-02 1.900828e-01
<VARIANCE> 39
 2.454852e+01 3.903178e+01 4.480050e+01 6.320088e+01 4.361577e+01 4.874620e+01 4.957467e+01 5.792429e+01 4.946236e+01 4.385956e+01 4.724399e+01 4.826434e+01 2.956582e+01 1.814126e+00 4.059649e+00 1.004363e+01 4.789356e+00 6.218127e+00 5.193092e+00 7.328232e+00 5.706654e+00 4.826644e+00 5.233987e+00 4.150658e+00 3.935847e+00 2.023066e+00 2.687189e-01 4.285576e-01 6.394984e-01 7.768373e-01 7.833328e-01 7.163649e-01 7.793536e-01 8.192145e-01 6.763226e-01 6.493410e-01 5.785117e-01 5.342731e-01 4.275489e-01
<GCONST> 1.339876e+02
<TRANSP> 5
 0.000000e+00 1.000000e+00 0.000000e+00 0.000000e+00 0.000000e+00
 0.000000e+00 4.964763e-01 5.035238e-01 0.000000e+00 0.000000e+00
 0.000000e+00 0.000000e+00 5.995380e-01 4.004621e-01 0.000000e+00
 0.000000e+00 0.000000e+00 0.000000e+00 4.442094e-01 5.557907e-01
 0.000000e+00 0.000000e+00 0.000000e+00 0.000000e+00 0.000000e+00
<ENDHMM>
~h "o"
<BEGINHMM>
<NUMSTATES> 5
<STATE> 2
<MEAN> 39
 2.017142e+00 -2.048712e+00 -8.998326e+00 -2.336170e+01 -6.637832e+00 -6.866836e-01 -9.048581e+00 1.473219e+00 -9.525323e+00 -3.921196e+00 -4.249802e+00 7.757895e-01 6.691586e+01 6.237898e-01 -2.134666e-04 -2.062376e+00 -4.515689e+00 1.057465e-01 3.888252e-01 -1.278017e+00 5.338558e-01 -1.214382e+00 -3.876438e-01 -2.060563e-01 4.281728e-01 1.190829e+00 -6.619621e-01 -5.770703e-01 3.728656e-01 1.108077e+00 6.335784e-01 2.568909e-01 1.731356e-01 -2.373438e-01 4.518093e-01 2.426850e-01 1.459723e-01 -1.623611e-01 -4.064804e-02
<VARIANCE> 39
 2.007021e+01 2.591619e+01 3.456256e+01 6.254788e+01 4.834202e+01 4.462808e+01 4.090118e+01 5.413636e+01 4.409278e+01 3.708560e+01 3.894707e+01 5.018904e+01 2.531868e+01 2.385176e+00 3.071699e+00 2.840085e+00 7.611658e+00 5.225618e+00 3.947042e+00 5.871434e+00 5.029977e+00 4.241598e+00 3.854715e+00 3.855936e+00 3.807429e+00 1.431012e+00 2.312926e-01 3.273929e-01 3.947718e-01 1.151396e+00 5.766242e-01 5.949385e-01 7.942384e-01 8.704996e-01 9.012535e-01 7.777720e-01 6.362472e-01 6.955670e-01 3.015932e-01
<GCONST> 1.293375e+02
<STATE> 3
<MEAN> 39
 4.308206e-01 -5.877044e+00 -1.274054e+01 -2.782651e+01 -1.653913e+00 3.594616e+00 -9.743609e+00 1.032697e+00 -9.410955e+00 -3.775707e+00 -2.111964e+00 -7.940803e-01 6.975785e+01 -3.545643e-01 -9.663477e-01 -3.243656e-01 3.455454e-01 9.098492e-01 3.795602e-01 -2.660999e-01 -5.455989e-01 5.915812e-01 4.195145e-01 1.073866e-01 -5.236015e-01 4.988287e-01 -3.111626e-02 -4.364117e-03 2.392713e-01 5.365838e-01 -1.347224e-01 -2.183529e-01 3.823708e-03 -7.149424e-02 2.768658e-01 4.085139e-02 -2.061973e-01 -1.086980e-01 -1.513910e-01
<VARIANCE> 39
 2.167537e+01 3.215583e+01 3.251225e+01 4.113163e+01 6.031585e+01 5.815322e+01 4.924522e+01 5.681864e+01 5.556676e+01 4.239766e+01 4.343182e+01 5.113556e+01 2.830923e+01 3.940429e-01 1.039709e+00 7.963110e-01 1.830522e+00 1.614311e+00 1.668686e+00 1.964494e+00 2.019956e+00 2.539121e+00 2.357193e+00 2.606373e+00 2.427582e+00 6.827177e-01 7.524841e-02 1.508656e-01 2.088429e-01 4.342623e-01 3.244975e-01 3.285584e-01 3.580481e-01 3.509541e-01 4.612502e-01 4.169798e-01 5.098594e-01 4.385214e-01 7.669805e-02
<GCONST> 1.085358e+02
<STATE> 4
<MEAN> 39
 -2.531374e+00 -1.202794e+01 -1.125307e+01 -1.946899e+01 -3.420090e-01 -1.327359e+00 -1.316212e+01 -1.672690e+00 -2.707273e+00 -2.042498e+00 -7.009427e+00 -2.749114e+00 7.179095e+01 -4.762683e-01 1.114229e-01 1.500355e+00 2.714140e+00 -1.067301e+00 -1.470933e+00 3.481965e-01 1.581046e-01 1.038825e+00 -4.157611e-01 -6.715269e-01 3.985339e-01 -9.433441e-01 -1.160669e-01 5.266411e-01 3.906795e-01 3.899994e-01 -1.885825e-01 8.960885e-02 5.745570e-01 1.302334e-01 -3.321552e-01 -7.277946e-02 4.708084e-01 3.548979e-01 -5.343029e-01
<VARIANCE> 39
 2.277741e+01 3.345306e+01 3.668810e+01 6.213866e+01 6.468713e+01 9.100325e+01 5.978150e+01 5.860143e+01 7.419094e+01 5.570199e+01 5.386540e+01 5.419438e+01 4.881978e+01 1.229069e+00 3.548725e+00 2.470294e+00 3.707596e+00 4.445325e+00 4.915343e+00 4.760231e+00 4.387504e+00 6.177094e+00 5.274479e+00 5.969756e+00 4.928449e+00 2.928887e+00 2.848530e-01 4.376064e-01 4.197931e-01 6.864553e-01 1.034387e+00 1.222436e+00 8.149310e-01 9.388081e-01 1.105235e+00 1.172683e+00 1.011837e+00 9.534290e-01 2.512520e-01
<GCONST> 1.363142e+02
<TRANSP> 5
 0.000000e+00 1.000000e+00 0.000000e+00 0.000000e+00 0.000000e+00
 0.000000e+00 6.720498e-01 3.279502e-01 0.000000e+00 0.000000e+00
 0.000000e+00 0.000000e+00 8.327848e-01 1.672152e-01 0.000000e+00
 0.000000e+00 0.000000e+00 0.000000e+00 7.174267e-01 2.825733e-01
 0.000000e+00 0.000000e+00 0.000000e+00 0.000000e+00 0.000000e+00
<ENDHMM>
~h "p"
<BEGINHMM>
<NUMSTATES> 5
<STATE> 2
<MEAN> 39
 -2.878499e+00 -5.089197e+00 1.834265e+00 -4.765088e+00 -4.983712e+00 -2.908413e+00 -7.552722e+00 -4.698827e+00 -4.264336e+00 -2.232071e+00 -4.249557e+00 -1.364971e+00 6.091644e+01 -6.917219e-01 9.092132e-01 5.828865e-01 2.188725e+00 1.256016e+00 9.957214e-01 1.632410e+00 6.634445e-01 1.081898e+00 5.006450e-01 8.872848e-01 3.330219e-01 -1.724650e+00 -4.250947e-01 -3.828430e-01 -7.067754e-02 -2.400097e-01 8.640451e-02 2.764955e-01 4.252265e-01 5.128815e-01 2.947410e-01 2.184218e-01 2.529065e-01 1.744827e-01 6.244816e-01
<VARIANCE> 39
 3.260881e+01 4.439309e+01 5.406388e+01 6.925434e+01 5.765184e+01 5.442413e+01 5.977565e+01 5.449294e+01 5.311309e+01 4.531319e+01 4.426535e+01 4.401330e+01 7.238551e+01 3.254950e+00 3.982485e+00 4.512137e+00 6.161998e+00 4.686724e+00 4.727625e+00 5.879986e+00 6.482370e+00 5.178624e+00 4.590836e+00 4.387543e+00 3.898217e+00 6.828387e+00 5.369083e-01 7.528760e-01 7.532529e-01 1.135390e+00 8.790079e-01 7.660309e-01 9.477496e-01 1.086219e+00 8.777342e-01 8.474708e-01 7.824500e-01 7.030610e-01 1.475588e+00
<GCONST> 1.415873e+02
<STATE> 3
<MEAN> 39
 -8.512015e+00 -5.771174e+00 2.547300e+00 5.739512e-01 -1.063366e+00 2.046379e+00 1.732980e+00 2.505685e+00 3.094831e+00 2.864283e+00 1.863828e+00 1.999519e+00 5.946914e+01 -6.520355e-01 -7.072921e-01 6.422127e-01 4.235195e-02 5.600830e-01 8.821049e-01 9.475937e-01 7.163993e-01 3.454859e-01 3.062215e-02 4.192986e-01 3.115335e-01 2.902234e+00 1.470317e-01 -9.379581e-02 -1.961164e-02 -5.919834e-01 -8.285154e-02 -7.176664e-02 -5.946991e-01 -5.174373e-01 -5.326717e-01 -4.640200e-01 -4.074590e-01 -1.536671e-01 5.962203e-01
<VARIANCE> 39
 3.137861e+01 2.938919e+01 3.647721e+01 2.361662e+01 3.066526e+01 2.672550e+01 2.660498e+01 2.798331e+01 3.034146e+01 2.852613e+01 2.461629e+01 2.103282e+01 9.160014e+01 4.041910e+00 3.890978e+00 5.409120e+00 3.497736e+00 4.598008e+00 4.056625e+00 4.283655e+00 4.781453e+00 4.889926e+00 4.457783e+00 4.031946e+00 3.252534e+00 8.196011e+00 6.990009e-01 7.718512e-01 9.034677e-01 8.229732e-01 8.157694e-01 7.297993e-01 7.954757e-01 8.131839e-01 7.985010e-01 7.225732e-01 6.465721e-01 5.749970e-01 2.129886e+00
<GCONST> 1.328636e+02
<STATE> 4
<MEAN> 39
 -1.183759e+01 -6.904966e+00 3.820741e+00 -3.347651e+00 2.351353e+00 5.064709e+00 -2.659269e-01 4.794126e-01 4.882903e-01 -7.001237e-01 4.789183e-01 1.498362e+00 6.944380e+01 9.427354e-02 2.120003e-02 -5.823202e-01 -1.413275e+00 -4.388380e-01 -3.420355e-01 -1.350168e+00 -9.970582e-01 -1.016831e+00 -7.590562e-01 -6.207669e-01 -1.134844e-01 4.005516e-01 4.674250e-01 6.523666e-02 -2.072216e-01 -3.511605e-01 -6.538343e-01 -4.826342e-01 -4.642805e-01 -2.947955e-01 -3.260732e-01 -1.679893e-02 -2.757606e-01 -7.829920e-02 -3.647782e-01
<VARIANCE> 39
 5.856039e+01 7.903940e+01 6.768289e+01 4.256272e+01 6.152637e+01 3.607119e+01 3.801582e+01 3.405368e+01 3.384396e+01 3.345490e+01 2.401266e+01 2.210439e+01 3.421405e+01 4.736549e+00 4.790284e+00 4.324794e+00 4.372697e+00 6.679001e+00 4.549167e+00 4.356330e+00 4.464811e+00 3.986140e+00 3.410336e+00 3.174377e+00 2.697794e+00 3.209651e+00 7.396663e-01 7.927456e-01 9.068434e-01 8.548078e-01 1.015303e+00 8.081638e-01 8.631306e-01 8.758373e-01 7.611737e-01 6.855292e-01 6.381448e-01 5.717723e-01 8.104303e-01
<GCONST> 1.350248e+02
<TRANSP> 5
 0.000000e+00 1.000000e+00 0.000000e+00 0.000000e+00 0.000000e+00
 0.000000e+00 6.505979e-01 3.494021e-01 0.000000e+00 0.000000e+00
 0.000000e+00 0.000000e+00 6.796538e-01 3.203462e-01 0.000000e+00
 0.000000e+00 0.000000e+00 0.000000e+00 7.824908e-01 2.175092e-01
 0.000000e+00 0.000000e+00 0.000000e+00 0.000000e+00 0.000000e+00
<ENDHMM>
~h "q"
<BEGINHMM>
<NUMSTATES> 5
<STATE> 2
<MEAN> 39
 -8.770263e+00 -1.558252e+00 2.116045e+00 -4.557221e+00 -7.624699e+00 -5.690158e+00 -6.766519e+00 -5.052582e+00 -4.359869e+00 -2.825836e+00 -4.023682e+00 -4.405802e-01 6.289840e+01 -2.347291e+00 1.720428e+00 -3.019816e-01 1.910048e+00 1.816121e+00 1.461232e+00 1.880574e+00 9.146370e-01 1.141657e+00 7.804115e-01 1.149397e+00 1.195364e-01 -1.133791e+00 -6.309713e-01 -2.777465e-01 -3.119593e-01 -3.513777e-01 3.316954e-01 4.450155e-01 3.118182e-01 4.832452e-01 3.540167e-01 4.955249e-01 2.006688e-01 1.299040e-01 5.029680e-01
<VARIANCE> 39
 4.782276e+01 5.171703e+01 4.517472e+01 5.219867e+01 5.717210e+01 5.104974e+01 5.655943e+01 5.354501e+01 4.781120e+01 4.012899e+01 3.983821e+01 3.844547e+01 5.656199e+01 5.015947e+00 4.757266e+00 4.825150e+00 4.831316e+00 5.779818e+00 5.437423e+00 6.300395e+00 6.376622e+00 5.511445e+00 5.506297e+00 4.164110e+00 3.932242e+00 4.419056e+00 6.875765e-01 7.596123e-01 7.301804e-01 9.431858e-01 1.119213e+00 9.577931e-01 1.042445e+00 9.390296e-01 8.838285e-01 8.785925e-01 7.296633e-01 7.101364e-01 8.056183e-01
<GCONST> 1.412352e+02
<STATE> 3
<MEAN> 39
 -2.176604e+01 1.201093e+00 -1.568700e+00 -1.412018e+00 -2.044228e-01 1.978412e+00 1.340428e+00 2.018596e+00 3.376433e+00 3.979847e+00 1.891527e+00 2.263186e+00 6.303338e+01 -1.633499e+00 3.191594e-01 3.351609e-01 -7.139010e-01 3.968291e-01 7.826022e-01 3.936906e-01 3.288392e-01 4.237528e-01 4.882401e-01 2.793300e-01 5.101219e-02 1.875439e+00 7.494484e-01 -1.692536e-01 5.375128e-01 -2.737651e-01 -5.163145e-01 -2.697057e-01 -4.491111e-01 -4.724610e-01 -4.381618e-01 -3.998452e-01 -3.128107e-01 -1.751213e-01 1.914043e-01
<VARIANCE> 39
 4.220761e+01 3.803569e+01 3.322316e+01 3.567622e+01 2.949167e+01 2.482430e+01 2.660999e+01 2.497099e+01 2.605346e+01 2.188553e+01 2.103962e+01 1.769155e+01 5.134089e+01 4.197588e+00 3.086782e+00 3.430165e+00 2.406401e+00 2.726710e+00 2.797589e+00 3.009976e+00 3.073518e+00 3.113896e+00 2.993183e+00 2.599854e+00 2.110899e+00 2.457354e+00 7.242036e-01 5.831543e-01 5.042662e-01 6.113825e-01 6.438289e-01 5.575771e-01 6.347792e-01 6.182183e-01 5.952141e-01 5.383587e-01 5.007044e-01 4.259800e-01 6.426207e-01
<GCONST> 1.220739e+02
<STATE> 4
<MEAN> 39
 -2.030765e+01 1.168239e+00 6.707238e+00 -5.373468e+00 -3.554275e+00 3.881118e+00 1.159944e-01 -1.148045e+00 8.099647e-01 2.383214e+00 3.248158e-01 1.999530e-01 7.163847e+01 1.857831e+00 -6.862316e-01 1.428045e+00 -6.995319e-01 -1.718163e+00 -6.740535e-01 -9.450273e-01 -1.136093e+00 -1.030584e+00 -5.624270e-01 -4.730684e-01 -6.006068e-02 2.039387e-01 4.659460e-01 -1.987021e-01 -1.300263e-01 -2.331221e-01 -3.722601e-01 -5.089759e-01 -4.230087e-01 -2.151714e-01 -3.580343e-01 -1.123310e-01 -2.457057e-01 7.826664e-02 -2.686261e-01
<VARIANCE> 39
 4.474883e+01 4.376935e+01 3.379913e+01 2.661210e+01 3.545662e+01 2.298438e+01 2.752674e+01 2.584127e+01 2.645005e+01 2.328118e+01 1.921662e+01 1.611456e+01 2.583433e+01 2.598745e+00 2.028497e+00 2.159340e+00 3.223862e+00 3.165358e+00 3.881753e+00 4.077586e+00 3.454014e+00 3.223347e+00 2.510704e+00 2.500755e+00 2.275276e+00 1.589745e+00 4.794933e-01 4.137804e-01 4.708339e-01 5.666237e-01 5.532678e-01 5.579585e-01 6.812268e-01 6.566111e-01 6.402472e-01 5.410049e-01 5.342947e-01 4.434063e-01 2.605588e-01
<GCONST> 1.190250e+02
<TRANSP> 5
 0.000000e+00 1.000000e+00 0.000000e+00 0.000000e+00 0.000000e+00
 0.000000e+00 7.139725e-01 2.860275e-01 0.000000e+00 0.000000e+00
 0.000000e+00 0.000000e+00 7.614636e-01 2.385364e-01 0.000000e+00
 0.000000e+00 0.000000e+00 0.000000e+00 8.110988e-01 1.889012e-01
 0.000000e+00 0.000000e+00 0.000000e+00 0.000000e+00 0.000000e+00
<ENDHMM>
~h "r"
<BEGINHMM>
<NUMSTATES> 5
<STATE> 2
<MEAN> 39
 -3.231107e+00 -1.331914e+01 1.354784e+00 -4.358667e+00 -1.392767e+01 -7.613252e+00 -1.020176e+01 -1.510991e+00 -4.760877e+00 -2.930393e+00 -2.938089e+00 9.842974e-01 6.637603e+01 2.720101e-01 -1.844791e-01 6.873298e-01 7.886946e-01 -1.020919e+00 -1.267485e+00 -9.200799e-02 3.065884e-03 -6.320187e-01 -4.744745e-01 3.299714e-01 1.963996e-01 1.751629e-01 -8.358282e-02 -3.098680e-02 -1.193261e-01 -4.816870e-01 1.609601e-01 2.229080e-01 1.020988e-01 1.005299e-01 -5.517902e-02 1.112339e-01 -5.447189e-02 -8.266596e-02 2.387737e-01
<VARIANCE> 39
 4.326577e+01 5.022280e+01 7.479926e+01 7.728608e+01 8.071910e+01 7.932689e+01 9.132957e+01 6.839269e+01 7.312497e+01 6.506846e+01 5.750835e+01 4.778600e+01 6.679813e+01 1.614694e+00 2.419953e+00 3.092737e+00 6.411108e+00 5.559123e+00 5.966995e+00 5.833917e+00 5.763660e+00 5.374796e+00 5.148152e+00 4.073903e+00 3.845519e+00 3.124853e+00 2.822204e-01 3.991537e-01 4.315762e-01 8.855968e-01 1.035058e+00 1.146838e+00 9.094049e-01 9.684954e-01 9.391511e-01 9.699728e-01 7.279809e-01 6.966204e-01 3.088431e-01
<GCONST> 1.396458e+02
<STATE> 3
<MEAN> 39
 -2.789269e+00 -1.549340e+01 5.922778e+00 -8.769011e+00 -1.933097e+01 -1.017839e+01 -7.479613e+00 -8.458048e-03 -8.548969e+00 -2.687063e+00 -1.916747e+00 -5.071060e-01 6.979919e+01 -1.646971e-01 -2.998224e-01 -4.657314e-01 -9.139218e-01 2.847806e-01 2.552429e-01 5.011932e-01 8.498642e-01 9.312755e-02 9.419828e-02 -3.704450e-01 -2.827375e-01 6.850661e-01 -8.015145e-02 2.858826e-02 -2.726206e-01 -1.903289e-01 3.339041e-01 1.819665e-01 4.311553e-02 4.027413e-02 9.485340e-02 -6.020079e-02 -2.414827e-01 -2.449944e-02 9.978966e-02
<VARIANCE> 39
 2.867967e+01 3.041204e+01 4.192425e+01 7.295356e+01 5.092134e+01 5.566149e+01 5.753305e+01 6.926536e+01 5.680171e+01 5.266847e+01 4.474500e+01 4.470334e+01 3.360718e+01 7.429591e-01 1.213142e+00 2.089975e+00 2.949757e+00 2.516986e+00 2.419530e+00 2.820821e+00 3.272116e+00 2.578088e+00 2.818947e+00 2.643240e+00 2.251207e+00 9.637299e-01 1.127412e-01 2.078753e-01 2.323859e-01 5.175791e-01 4.329443e-01 4.614320e-01 4.625151e-01 6.075456e-01 4.869708e-01 5.247493e-01 4.556108e-01 4.073329e-01 1.587784e-01
<GCONST> 1.176669e+02
<STATE> 4
<MEAN> 39
 -5.409613e+00 -1.444216e+01 9.597619e-01 -8.043950e+00 -1.241388e+01 -6.584588e+00 -4.072200e+00 3.369054e+00 -4.664800e+00 -3.445063e+00 -2.836346e+00 5.329506e-01 6.803892e+01 -1.693234e-01 9.577157e-02 -5.256166e-01 -3.982172e-01 5.946757e-01 2.810599e-01 1.285628e-01 6.157570e-02 -7.379798e-02 -1.424567e-01 -3.972855e-01 -3.710635e-02 2.785207e-01 6.604300e-02 9.791127e-02 2.347837e-02 1.622384e-02 1.348506e-02 8.161478e-04 -2.144075e-01 -2.117775e-01 -7.435181e-02 3.658908e-03 2.328326e-02 4.694596e-02 -1.153014e-01
<VARIANCE> 39
 3.747145e+01 3.456183e+01 4.253928e+01 6.776771e+01 7.542438e+01 5.479187e+01 7.393514e+01 6.395201e+01 5.947924e+01 4.392192e+01 4.636437e+01 3.813565e+01 8.154455e+01 6.953266e-01 1.357211e+00 1.784609e+00 2.444362e+00 2.513819e+00 2.471636e+00 2.700456e+00 2.627959e+00 2.531482e+00 2.746505e+00 2.360086e+00 1.915020e+00 9.609152e-01 1.308356e-01 1.803966e-01 1.991801e-01 4.104911e-01 3.871100e-01 4.437847e-01 4.272484e-01 4.888107e-01 4.236921e-01 4.397379e-01 3.859724e-01 3.546874e-01 1.137959e-01
<GCONST> 1.165338e+02
<TRANSP> 5
 0.000000e+00 1.000000e+00 0.000000e+00 0.000000e+00 0.000000e+00
 0.000000e+00 6.732853e-01 3.267147e-01 0.000000e+00 0.000000e+00
 0.000000e+00 0.000000e+00 7.050128e-01 2.949872e-01 0.000000e+00
 0.000000e+00 0.000000e+00 0.000000e+00 5.195045e-01 4.804955e-01
 0.000000e+00 0.000000e+00 0.000000e+00 0.000000e+00 0.000000e+00
<ENDHMM>
~h "s"
<BEGINHMM>
<NUMSTATES> 5
<STATE> 2
<MEAN> 39
 -9.592784e+00 -1.048396e+00 -2.969827e+00 -3.591938e+00 -5.975604e+00 -7.250258e+00 -6.288934e+00 -3.552852e+00 -5.270631e+00 -4.105462e+00 -3.041857e+00 3.555415e-01 6.688903e+01 -2.678155e+00 2.144194e+00 -3.563023e-02 3.076267e+00 1.272725e+00 1.235617e+00 1.840668e+00 5.735550e-01 1.086261e+00 7.846951e-01 9.944893e-01 8.806524e-02 -5.408562e-01 -4.994339e-01 -3.728952e-01 -3.318629e-02 -1.082948e-01 1.681208e-01 5.479205e-01 3.735723e-01 5.288901e-01 3.129257e-01 5.087413e-01 1.456842e-01 8.129744e-02 8.715874e-02
<VARIANCE> 39
 4.920786e+01 4.774619e+01 4.427099e+01 6.913098e+01 6.433335e+01 6.111430e+01 6.097047e+01 5.098799e+01 5.050156e+01 4.426453e+01 3.892503e+01 3.686629e+01 3.923362e+01 4.186097e+00 4.632358e+00 3.814620e+00 5.216748e+00 4.996748e+00 6.859482e+00 6.083499e+00 6.251715e+00 4.731990e+00 5.402861e+00 3.824773e+00 3.487974e+00 1.244767e+00 6.716697e-01 8.367789e-01 4.829184e-01 1.048290e+00 7.309822e-01 8.962166e-01 9.200529e-01 8.103492e-01 7.130969e-01 7.934094e-01 6.292893e-01 6.071407e-01 1.426580e-01
<GCONST> 1.361619e+02
<STATE> 3
<MEAN> 39
 -2.144185e+01 1.237330e+00 -4.016166e+00 3.794750e+00 -1.237335e+00 2.783804e-01 1.944659e+00 2.910031e+00 1.128455e+00 2.603577e+00 1.665474e+00 2.300493e+00 6.513122e+01 -8.955082e-01 -4.860863e-01 -1.930618e-01 1.498104e-01 3.599836e-01 7.188401e-01 5.815638e-01 9.637976e-01 7.339788e-01 7.946413e-01 4.762685e-01 3.711758e-01 -2.199106e-01 9.210719e-01 -2.629879e-01 1.129875e-01 -6.583131e-01 -3.585205e-01 -6.324402e-01 -6.607352e-01 -4.117054e-01 -4.006041e-01 -4.600214e-01 -3.149364e-01 -8.092476e-02 2.134767e-01
<VARIANCE> 39
 2.521155e+01 2.931748e+01 2.499088e+01 3.140236e+01 3.691721e+01 3.634772e+01 3.325811e+01 2.731812e+01 2.729848e+01 2.433568e+01 2.147044e+01 1.787766e+01 2.877413e+01 2.508467e+00 1.255153e+00 1.595107e+00 1.811596e+00 1.929996e+00 2.782023e+00 2.707013e+00 2.760284e+00 2.628075e+00 2.721066e+00 2.186008e+00 1.890778e+00 6.872829e-01 3.614288e-01 4.023074e-01 3.464494e-01 5.189114e-01 4.589217e-01 5.851740e-01 6.141764e-01 5.544092e-01 5.069537e-01 5.333754e-01 4.675826e-01 4.352071e-01 1.724075e-01
<GCONST> 1.129873e+02
<STATE> 4
<MEAN> 39
 -1.835004e+01 -4.101744e-01 -2.136584e+00 1.304079e+00 -7.372337e-01 -1.186991e+00 9.861062e-01 3.465203e+00 7.979679e-01 2.375741e+00 1.478617e+00 2.419389e+00 6.467652e+01 2.099283e+00 -7.540224e-01 -4.547658e-02 -1.752097e+00 -7.394273e-01 -1.485074e+00 -1.623544e+00 -5.900295e-01 -6.213137e-01 -8.326002e-01 -7.337512e-01 1.424597e-03 1.306080e+00 5.900168e-01 -4.585549e-01 -2.063574e-01 -7.037990e-01 -1.704403e-01 -2.562079e-01 -5.107230e-01 -1.955381e-01 -2.342622e-01 -2.788508e-01 -2.860549e-01 2.188553e-02 2.989028e-01
<VARIANCE> 39
 4.434563e+01 3.416607e+01 2.682143e+01 3.291880e+01 3.731168e+01 3.751627e+01 3.532465e+01 2.940816e+01 2.918643e+01 2.630681e+01 2.331926e+01 1.921178e+01 4.333176e+01 7.100694e+00 4.042811e+00 2.206081e+00 5.408260e+00 2.836083e+00 4.749555e+00 5.698096e+00 3.509252e+00 2.766437e+00 3.202702e+00 3.320177e+00 2.956964e+00 1.972765e+00 7.413706e-01 6.469339e-01 4.099033e-01 6.980619e-01 5.482610e-01 7.622187e-01 8.010221e-01 6.979278e-01 5.959344e-01 6.071529e-01 6.169129e-01 5.387853e-01 3.236699e-01
<GCONST> 1.263821e+02
<TRANSP> 5
 0.000000e+00 1.000000e+00 0.000000e+00 0.000000e+00 0.000000e+00
 0.000000e+00 6.742012e-01 3.257988e-01 0.000000e+00 0.000000e+00
 0.000000e+00 0.000000e+00 7.163543e-01 2.836457e-01 0.000000e+00
 0.000000e+00 0.000000e+00 0.000000e+00 6.905735e-01 3.094265e-01
 0.000000e+00 0.000000e+00 0.000000e+00 0.000000e+00 0.000000e+00
<ENDHMM>
~h "t"
<BEGINHMM>
<NUMSTATES> 5
<STATE> 2
<MEAN> 39
 -5.121417e+00 -4.728405e+00 1.871832e+00 -5.518474e+00 -6.822340e+00 -5.126599e+00 -7.115007e+00 -4.085815e+00 -2.844833e+00 -2.313452e+00 -3.864732e+00 2.349638e-01 6.082820e+01 -9.207222e-01 6.982914e-01 2.693474e-01 1.933310e+00 1.488125e+00 1.239035e+00 1.721688e+00 9.576452e-01 1.011759e+00 7.626692e-01 1.127838e+00 1.788070e-01 -1.574270e+00 -4.205496e-01 -3.630282e-01 -1.875321e-01 -1.973756e-01 3.440346e-01 4.342239e-01 4.975467e-01 5.440399e-01 2.503569e-01 3.181701e-01 3.031369e-01 1.105498e-01 7.089108e-01
<VARIANCE> 39
 2.936187e+01 3.876914e+01 4.559358e+01 5.828563e+01 6.362054e+01 5.120034e+01 6.432062e+01 5.713295e+01 5.387006e+01 4.759034e+01 4.709673e+01 4.236269e+01 7.361301e+01 2.748457e+00 3.561633e+00 4.087090e+00 4.752144e+00 5.324304e+00 5.497328e+00 6.796022e+00 6.142953e+00 5.055596e+00 4.937169e+00 4.507453e+00 3.721438e+00 7.271609e+00 4.088507e-01 5.880961e-01 6.005706e-01 8.969081e-01 8.694365e-01 8.864403e-01 1.037436e+00 9.361319e-01 8.476671e-01 8.187134e-01 7.221724e-01 7.049432e-01 1.551503e+00
<GCONST> 1.400863e+02
<STATE> 3
<MEAN> 39
 -1.128817e+01 -5.363630e+00 1.905823e+00 -6.281251e-01 6.351224e-01 2.095993e+00 2.642582e+00 3.698740e+00 3.224784e+00 3.207101e+00 2.797560e+00 2.393563e+00 6.341207e+01 -5.797196e-01 -4.033959e-01 8.129482e-02 2.334000e-01 1.318773e+00 7.483983e-01 5.620787e-01 7.379047e-01 6.892771e-02 -1.943970e-01 3.302902e-01 2.222127e-01 2.673437e+00 4.017159e-01 -1.214307e-01 -1.165210e-01 -3.697884e-01 -2.554178e-01 -3.655802e-01 -7.963489e-01 -5.689832e-01 -5.039431e-01 -5.378076e-01 -4.996900e-01 -9.381796e-02 9.220547e-02
<VARIANCE> 39
 3.320866e+01 3.915720e+01 3.158340e+01 3.235843e+01 3.923906e+01 3.671233e+01 3.636929e+01 3.437967e+01 3.693207e+01 3.204778e+01 2.626502e+01 2.386155e+01 1.018658e+02 4.001019e+00 5.035629e+00 4.357574e+00 3.862869e+00 4.662853e+00 4.973050e+00 5.688672e+00 5.285068e+00 5.278093e+00 5.071053e+00 4.320319e+00 3.356506e+00 8.589236e+00 7.232832e-01 8.578930e-01 9.621592e-01 8.875594e-01 9.882024e-01 1.032283e+00 1.111084e+00 1.077302e+00 1.001358e+00 9.321219e-01 8.348814e-01 7.006698e-01 2.616898e+00
<GCONST> 1.387283e+02
<STATE> 4
<MEAN> 39
 -1.289561e+01 -7.370688e+00 1.229838e+00 -1.153118e+00 4.132194e+00 3.297470e+00 -2.137867e-01 2.714228e+00 1.839590e+00 1.276237e-01 1.398546e+00 2.205655e+00 6.747226e+01 8.208698e-01 -4.427487e-01 -6.404742e-01 -1.103303e+00 -5.453505e-01 -4.170584e-01 -1.593502e+00 -1.262863e+00 -9.920780e-01 -9.319198e-01 -8.685068e-01 -2.289856e-01 1.530921e-01 4.378511e-01 1.995984e-02 -1.907989e-01 -5.423758e-01 -6.685759e-01 -2.921878e-01 -3.527914e-01 -3.542380e-01 -3.072557e-01 -6.915170e-02 -2.505581e-01 -8.253452e-02 -1.501717e-01
<VARIANCE> 39
 4.353741e+01 8.086475e+01 3.957065e+01 4.116917e+01 4.816613e+01 4.205107e+01 3.876217e+01 3.290738e+01 3.615559e+01 3.628300e+01 2.804494e+01 2.400918e+01 5.803255e+01 3.145451e+00 3.528297e+00 3.935977e+00 3.780949e+00 5.020924e+00 4.179279e+00 4.546756e+00 4.389236e+00 3.930831e+00 3.812886e+00 3.425068e+00 3.048099e+00 3.223856e+00 5.093551e-01 6.242401e-01 5.883702e-01 7.056713e-01 7.761720e-01 7.572592e-01 7.268652e-01 7.624905e-01 7.120048e-01 6.711589e-01 6.204328e-01 5.889745e-01 7.989048e-01
<GCONST> 1.320081e+02
<TRANSP> 5
 0.000000e+00 1.000000e+00 0.000000e+00 0.000000e+00 0.000000e+00
 0.000000e+00 6.425668e-01 3.574332e-01 0.000000e+00 0.000000e+00
 0.000000e+00 0.000000e+00 7.306043e-01 2.693957e-01 0.000000e+00
 0.000000e+00 0.000000e+00 0.000000e+00 7.112961e-01 2.887039e-01
 0.000000e+00 0.000000e+00 0.000000e+00 0.000000e+00 0.000000e+00
<ENDHMM>
~h "u"
<BEGINHMM>
<NUMSTATES> 5
<STATE> 2
<MEAN> 39
 -4.669246e-01 -3.813651e+00 -4.461926e+00 -1.171194e+01 -7.400453e+00 -2.744743e+00 -1.204172e+01 -5.147945e+00 -6.514409e+00 -1.850755e+00 -2.992552e+00 8.585695e-01 6.577865e+01 2.075071e+00 7.624848e-01 -1.325139e+00 -4.387656e+00 -1.077422e+00 4.133510e-01 -1.703699e+00 -7.257968e-01 -2.200693e+00 -7.352717e-01 -8.519882e-01 4.132068e-01 1.366792e-01 -6.593214e-01 -6.002065e-02 1.129777e-01 1.413062e-01 3.288562e-01 2.097983e-01 4.483573e-01 5.532349e-01 2.315897e-01 1.373108e-01 -1.730580e-02 4.540622e-02 -1.063281e-01
<VARIANCE> 39
 3.186109e+01 3.623441e+01 2.925378e+01 8.166676e+01 4.747378e+01 4.869610e+01 6.669520e+01 5.844479e+01 4.796935e+01 4.092627e+01 3.971688e+01 4.034870e+01 3.686115e+01 3.795113e+00 3.040188e+00 3.038073e+00 6.439935e+00 5.306710e+00 6.306929e+00 6.548940e+00 6.717070e+00 5.494917e+00 4.963455e+00 4.694766e+00 4.179026e+00 1.760958e+00 4.642811e-01 4.796292e-01 4.251861e-01 1.342950e+00 7.711196e-01 9.621134e-01 1.078828e+00 1.005114e+00 9.677486e-01 8.926338e-01 7.592434e-01 7.361454e-01 3.194285e-01
<GCONST> 1.365031e+02
<STATE> 3
<MEAN> 39
 1.835650e+00 3.037865e-01 -7.064182e+00 -2.275249e+01 -9.549087e+00 -2.397561e+00 -1.102390e+01 -7.861996e-01 -1.004709e+01 -3.665372e+00 -6.135668e+00 1.079269e+00 6.430485e+01 -7.277094e-02 -5.737232e-02 -1.711889e-01 -1.948403e-01 2.372776e-01 2.075733e-01 -8.550672e-02 -1.215301e-01 -2.744593e-02 1.733870e-01 6.119612e-02 1.093466e-01 -4.900658e-02 -2.361506e-01 -2.388858e-01 2.390767e-01 8.030802e-01 1.789922e-01 -8.458818e-02 2.951545e-02 -1.731090e-01 3.820810e-01 2.066084e-01 1.534527e-01 -1.051302e-01 -5.245719e-02
<VARIANCE> 39
 2.029957e+01 3.341610e+01 3.251260e+01 4.738568e+01 4.410866e+01 5.595443e+01 5.320766e+01 5.125577e+01 6.324664e+01 4.269310e+01 4.621697e+01 4.209961e+01 2.652273e+01 5.123944e-01 1.453476e+00 1.136398e+00 3.775140e+00 2.336800e+00 2.621488e+00 3.490262e+00 3.570416e+00 2.940341e+00 2.943359e+00 2.909213e+00 2.566654e+00 7.220961e-01 1.667660e-01 1.979458e-01 3.093187e-01 7.123377e-01 4.320811e-01 6.170781e-01 5.846069e-01 5.705343e-01 6.836411e-01 5.787561e-01 5.479963e-01 5.265884e-01 1.056142e-01
<GCONST> 1.175898e+02
<STATE> 4
<MEAN> 39
 -1.339222e+00 -5.295936e+00 -5.313940e+00 -1.436794e+01 -5.478041e+00 -2.532100e+00 -1.528413e+01 -5.622551e+00 -6.621545e+00 3.447767e-01 -4.575727e+00 1.102516e+00 6.586790e+01 -1.298607e+00 -5.833392e-01 1.699868e+00 2.951590e+00 1.594407e-01 -1.070426e+00 4.962187e-01 1.532223e-01 1.538971e+00 2.006546e-01 -1.857546e-01 -5.141164e-01 -5.118612e-01 -3.484230e-01 2.950636e-01 3.634179e-01 3.192060e-01 -1.484681e-01 1.294824e-02 8.424585e-01 4.562204e-01 4.625671e-02 -3.117680e-01 8.965561e-02 3.588633e-02 -2.968809e-01
<VARIANCE> 39
 2.894543e+01 4.413944e+01 4.684112e+01 7.504064e+01 5.638256e+01 6.819113e+01 9.348579e+01 6.454494e+01 7.075146e+01 5.952082e+01 6.147558e+01 4.699828e+01 5.424837e+01 2.174376e+00 3.165566e+00 4.210604e+00 6.109963e+00 5.832782e+00 6.838621e+00 8.591359e+00 5.726146e+00 5.516973e+00 6.480332e+00 5.149789e+00 4.108189e+00 2.742966e+00 3.548975e-01 5.731795e-01 8.034520e-01 1.328026e+00 1.051192e+00 1.385815e+00 1.531183e+00 1.158001e+00 1.156448e+00 1.244043e+00 1.047763e+00 8.102688e-01 4.384920e-01
<GCONST> 1.434552e+02
<TRANSP> 5
 0.000000e+00 1.000000e+00 0.000000e+00 0.000000e+00 0.000000e+00
 0.000000e+00 5.796366e-01 4.203634e-01 0.000000e+00 0.000000e+00
 0.000000e+00 0.000000e+00 8.032592e-01 1.967408e-01 0.000000e+00
 0.000000e+00 0.000000e+00 0.000000e+00 5.863615e-01 4.136384e-01
 0.000000e+00 0.000000e+00 0.000000e+00 0.000000e+00 0.000000e+00
<ENDHMM>
~h "v"
<BEGINHMM>
<NUMSTATES> 5
<STATE> 2
<MEAN> 39
 -9.666726e+00 -5.054791e+00 1.569439e+01 -1.139837e+01 -1.814894e+01 -4.589406e+00 -1.106561e+01 -1.212344e+01 -1.145263e+01 1.179659e+00 -6.329251e+00 -6.424171e-01 6.838802e+01 1.339008e+00 -1.141569e+00 7.912579e-01 -1.066929e+00 -1.618249e+00 -1.520860e+00 -9.805901e-01 -8.242880e-01 -1.777607e+00 7.182796e-02 -1.093923e+00 -1.713297e-01 4.469589e-01 -4.070483e-01 -4.931917e-02 -5.184318e-01 1.191749e-01 7.009401e-01 2.735603e-01 4.833711e-01 7.705967e-01 5.214614e-01 1.482709e-01 1.400528e-01 2.023251e-02 -6.267887e-02
<VARIANCE> 39
 2.958797e+01 3.140944e+01 2.692547e+01 5.554068e+01 2.934336e+01 3.645726e+01 3.828903e+01 4.517371e+01 5.173318e+01 3.473161e+01 4.735636e+01 4.771975e+01 2.751716e+01 3.792777e+00 2.509783e+00 2.598543e+00 2.994282e+00 4.332175e+00 4.400624e+00 4.852404e+00 5.729115e+00 4.944898e+00 3.521871e+00 4.332515e+00 3.306170e+00 8.967410e-01 3.805287e-01 3.274143e-01 2.961006e-01 5.022643e-01 5.097213e-01 6.192827e-01 6.235316e-01 6.720619e-01 6.108366e-01 6.174923e-01 6.115453e-01 5.442890e-01 1.259986e-01
<GCONST> 1.246147e+02
<STATE> 3
<MEAN> 39
 -7.944757e+00 -7.470932e+00 1.619418e+01 -1.280717e+01 -1.978609e+01 -6.454428e+00 -9.877658e+00 -1.096684e+01 -1.296958e+01 3.646818e+00 -8.192986e+00 -1.695115e+00 6.846174e+01 1.545371e-01 -6.291231e-02 -4.291141e-01 1.009529e-01 1.127857e-01 -3.657534e-01 2.315537e-01 4.553942e-01 1.903011e-01 -2.351821e-02 3.151993e-01 1.610154e-01 -1.571240e-01 -3.207428e-02 2.044302e-01 -2.802228e-01 2.821232e-01 3.216206e-01 1.065266e-01 5.449162e-02 1.481944e-01 3.375390e-01 -2.234262e-01 2.028625e-01 7.416389e-02 -2.075927e-01
<VARIANCE> 39
 2.555982e+01 3.042161e+01 2.691606e+01 5.392732e+01 2.740921e+01 3.891678e+01 4.060421e+01 5.315139e+01 6.349141e+01 3.420387e+01 4.617838e+01 3.598886e+01 3.078867e+01 5.970811e-01 1.036844e+00 1.214963e+00 1.506218e+00 1.349521e+00 1.823927e+00 1.815614e+00 2.003296e+00 1.860232e+00 1.902069e+00 2.064808e+00 1.686300e+00 5.581201e-01 1.667095e-01 1.955658e-01 2.472743e-01 3.585010e-01 3.417519e-01 3.357613e-01 4.178363e-01 3.682114e-01 4.445384e-01 3.497910e-01 3.835170e-01 2.999447e-01 1.106168e-01
<GCONST> 1.069254e+02
<STATE> 4
<MEAN> 39
 -7.004363e+00 -6.076151e+00 1.087367e+01 -9.307086e+00 -1.575801e+01 -7.486584e+00 -9.100782e+00 -7.462098e+00 -9.343965e+00 7.874413e-01 -5.267576e+00 -2.741858e-02 6.554913e+01 -5.920152e-02 6.359209e-01 -2.085700e+00 1.620393e+00 2.295020e+00 5.741309e-01 6.479505e-01 1.274280e+00 1.857373e+00 -7.196957e-01 7.525136e-01 2.488621e-01 -1.405838e+00 -2.441479e-01 9.852271e-02 -1.945242e-01 1.834701e-01 4.167230e-01 4.540812e-01 2.380701e-01 6.976295e-02 3.156205e-01 1.829345e-01 3.834886e-02 -4.646196e-02 -2.220641e-01
<VARIANCE> 39
 3.068979e+01 4.410097e+01 5.156398e+01 6.399837e+01 4.940170e+01 5.166502e+01 4.779853e+01 5.895129e+01 6.402895e+01 4.364310e+01 4.901639e+01 3.846367e+01 5.606460e+01 2.568151e+00 2.823945e+00 3.090808e+00 4.391355e+00 4.007179e+00 4.708967e+00 5.055765e+00 4.651064e+00 4.466488e+00 3.797864e+00 3.800479e+00 3.034912e+00 2.592846e+00 3.023257e-01 5.203175e-01 5.157796e-01 7.771448e-01 7.223496e-01 7.404358e-01 7.976705e-01 8.993245e-01 7.710188e-01 6.945627e-01 6.423481e-01 5.627848e-01 3.596567e-01
<GCONST> 1.328089e+02
<TRANSP> 5
 0.000000e+00 1.000000e+00 0.000000e+00 0.000000e+00 0.000000e+00
 0.000000e+00 4.708864e-01 5.291135e-01 0.000000e+00 0.000000e+00
 0.000000e+00 0.000000e+00 7.189534e-01 2.810466e-01 0.000000e+00
 0.000000e+00 0.000000e+00 0.000000e+00 5.976424e-01 4.023576e-01
 0.000000e+00 0.000000e+00 0.000000e+00 0.000000e+00 0.000000e+00
<ENDHMM>
~h "x"
<BEGINHMM>
<NUMSTATES> 5
<STATE> 2
<MEAN> 39
 -1.172836e+01 2.218711e-01 3.349367e+00 -6.362302e+00 -9.095481e+00 -5.233261e+00 -6.372235e+00 -5.835073e+00 -5.836152e+00 -2.474756e+00 -3.315163e+00 -1.953885e-01 6.752842e+01 -2.779519e+00 2.339673e+00 -3.270303e-02 2.359614e+00 1.608922e+00 1.389097e+00 1.980356e+00 4.752195e-01 1.085870e+00 6.115630e-01 1.203000e+00 -2.123442e-01 -3.213315e-01 -4.293190e-01 -3.268785e-01 -3.920735e-01 -1.292643e-01 4.603805e-01 4.668817e-01 2.924070e-01 5.107750e-01 4.377266e-01 4.410131e-01 8.604398e-02 5.936509e-02 1.481172e-01
<VARIANCE> 39
 5.152864e+01 5.662780e+01 5.297500e+01 6.188824e+01 5.656312e+01 5.359347e+01 6.502795e+01 5.771161e+01 5.174018e+01 4.085295e+01 3.899401e+01 3.601635e+01 3.716494e+01 3.725824e+00 4.744847e+00 5.067805e+00 5.064298e+00 6.399890e+00 5.817043e+00 6.951701e+00 6.482880e+00 5.664731e+00 5.606326e+00 4.238929e+00 3.672474e+00 1.444372e+00 6.399096e-01 8.742146e-01 6.294835e-01 9.754587e-01 9.715953e-01 8.928306e-01 1.139279e+00 9.118966e-01 8.154342e-01 8.528053e-01 7.378960e-01 6.800382e-01 1.557147e-01
<GCONST> 1.385456e+02
<STATE> 3
<MEAN> 39
 -2.408693e+01 4.094653e+00 6.721230e-02 -1.262576e+00 -1.346222e+00 2.781071e+00 9.077388e-01 7.953405e-02 1.993878e+00 2.827890e+00 9.360157e-01 7.492265e-01 6.751582e+01 -7.073811e-01 -2.632794e-01 -7.688858e-02 -2.012182e-01 2.877024e-01 6.362014e-01 2.317660e-01 4.349176e-01 5.902131e-01 3.527765e-01 2.188994e-01 1.739489e-01 1.922053e-01 8.202103e-01 -2.370228e-01 4.566925e-01 -4.533402e-01 -6.089844e-01 -4.855448e-01 -5.053254e-01 -4.739233e-01 -4.615586e-01 -3.130763e-01 -2.102198e-01 -2.118974e-02 5.805044e-02
<VARIANCE> 39
 2.606943e+01 3.302918e+01 4.026991e+01 3.402006e+01 3.057428e+01 2.375529e+01 2.685890e+01 2.700242e+01 2.682138e+01 2.345475e+01 2.095007e+01 1.700464e+01 2.786629e+01 2.165094e+00 1.144524e+00 2.139145e+00 1.634546e+00 2.121632e+00 2.148864e+00 2.402977e+00 2.680014e+00 2.507668e+00 2.401852e+00 1.942247e+00 1.721827e+00 5.830299e-01 3.541303e-01 3.512498e-01 3.106004e-01 4.941547e-01 5.344735e-01 5.071561e-01 5.750473e-01 5.586463e-01 5.065365e-01 4.929668e-01 4.482811e-01 4.067447e-01 1.148550e-01
<GCONST> 1.108290e+02
<STATE> 4
<MEAN> 39
 -2.035515e+01 2.754473e+00 4.065795e+00 -3.541039e+00 -4.084821e+00 2.068300e+00 -8.569725e-01 -2.082087e+00 5.705373e-01 1.924365e+00 6.515723e-01 5.853111e-01 6.845000e+01 3.135352e+00 -1.130913e+00 1.957802e+00 -2.201271e+00 -2.948082e+00 -2.127336e+00 -1.993688e+00 -1.858601e+00 -1.774572e+00 -6.607586e-01 -6.925752e-01 1.560657e-01 7.093185e-01 6.207407e-01 -6.766425e-01 -1.761960e-02 -7.074553e-01 -6.260049e-01 -5.576184e-01 -4.008664e-01 -8.624911e-02 -5.307477e-01 -1.009637e-01 -4.595553e-01 2.266212e-02 2.337726e-01
<VARIANCE> 39
 4.292330e+01 3.710853e+01 4.786540e+01 3.068139e+01 3.698157e+01 3.121572e+01 3.420171e+01 3.375369e+01 2.927736e+01 2.437123e+01 2.190182e+01 1.890033e+01 2.841676e+01 3.215043e+00 3.928014e+00 2.500889e+00 4.842320e+00 3.795603e+00 3.690632e+00 4.115395e+00 4.461090e+00 3.263710e+00 2.826923e+00 3.090739e+00 3.322390e+00 1.242121e+00 6.487696e-01 5.851173e-01 6.351193e-01 5.285199e-01 7.135349e-01 7.199106e-01 7.893083e-01 9.043192e-01 7.142448e-01 6.611446e-01 6.034598e-01 5.521620e-01 1.645272e-01
<GCONST> 1.250184e+02
<TRANSP> 5
 0.000000e+00 1.000000e+00 0.000000e+00 0.000000e+00 0.000000e+00
 0.000000e+00 7.139702e-01 2.860298e-01 0.000000e+00 0.000000e+00
 0.000000e+00 0.000000e+00 7.964802e-01 2.035197e-01 0.000000e+00
 0.000000e+00 0.000000e+00 0.000000e+00 6.326995e-01 3.673005e-01
 0.000000e+00 0.000000e+00 0.000000e+00 0.000000e+00 0.000000e+00
<ENDHMM>
~h "z"
<BEGINHMM>
<NUMSTATES> 5
<STATE> 2
<MEAN> 39
 -6.498341e+00 -2.167399e+00 1.737953e-01 -2.923168e+00 -7.211034e+00 -6.191589e+00 -8.079057e+00 -4.557550e+00 -4.213814e+00 -4.224211e+00 -4.273347e+00 -6.141789e-01 6.098585e+01 -1.780156e+00 1.431694e+00 -1.958073e-01 2.264991e+00 1.199993e+00 1.342618e+00 1.583687e+00 7.576818e-01 8.459042e-01 7.741126e-01 7.722525e-01 8.390953e-02 -1.530601e+00 -5.378310e-01 -3.334066e-01 -3.168084e-01 -2.707331e-01 1.422728e-01 3.333346e-01 4.110361e-01 4.990481e-01 2.274263e-01 4.387839e-01 2.663661e-01 1.944940e-01 4.757304e-01
<VARIANCE> 39
 3.363906e+01 4.058648e+01 4.307729e+01 5.534954e+01 5.842841e+01 5.201333e+01 5.997327e+01 4.891008e+01 4.842974e+01 4.619797e+01 4.203134e+01 4.015393e+01 5.432843e+01 3.757401e+00 3.768424e+00 3.868486e+00 4.576074e+00 4.608790e+00 5.389317e+00 5.948000e+00 5.343730e+00 4.668461e+00 5.104154e+00 3.894591e+00 3.664552e+00 4.151017e+00 5.289044e-01 6.353608e-01 5.675578e-01 9.774339e-01 8.001128e-01 9.559308e-01 9.523642e-01 7.815828e-01 7.684731e-01 8.027403e-01 6.497194e-01 6.806601e-01 8.166175e-01
<GCONST> 1.375188e+02
<STATE> 3
<MEAN> 39
 -1.634249e+01 -2.038135e+00 -2.105801e+00 1.773894e+00 -1.650120e+00 1.645279e+00 1.356075e+00 3.359876e+00 2.924027e+00 3.877428e+00 2.610246e+00 3.054901e+00 5.653446e+01 -1.849735e+00 3.588910e-01 -8.146065e-01 2.977700e-01 2.270124e-01 4.141160e-01 6.289884e-01 8.097285e-01 3.629042e-01 6.018239e-01 5.725560e-01 3.640488e-01 1.554509e+00 7.271473e-01 -8.975933e-02 1.446318e-01 -4.632130e-01 -3.447681e-01 -6.683666e-01 -6.295533e-01 -3.921249e-01 -4.311856e-01 -5.454736e-01 -3.866969e-01 -1.234088e-01 6.719890e-01
<VARIANCE> 39
 3.138102e+01 3.646716e+01 2.936187e+01 2.974844e+01 3.264896e+01 3.054751e+01 3.351754e+01 2.979207e+01 3.159207e+01 2.786301e+01 2.622383e+01 2.128687e+01 3.679192e+01 3.034187e+00 3.247053e+00 2.520776e+00 2.490240e+00 2.692546e+00 3.013133e+00 3.501236e+00 3.515375e+00 3.634927e+00 3.513443e+00 2.965584e+00 2.597837e+00 3.260250e+00 9.664274e-01 7.661166e-01 5.258348e-01 7.945153e-01 5.895553e-01 7.674952e-01 8.162134e-01 6.729851e-01 6.670139e-01 6.606392e-01 5.771614e-01 5.102774e-01 5.971619e-01
<GCONST> 1.253901e+02
<STATE> 4
<MEAN> 39
 -1.641403e+01 5.804870e-01 -3.165305e+00 7.025558e-01 -3.360959e+00 -2.547252e+00 -8.017484e-01 2.260124e+00 1.530496e-01 9.552633e-01 7.278116e-01 2.224085e+00 6.695497e+01 2.772515e+00 -1.486400e+00 -6.358258e-03 -2.655712e+00 -1.032606e+00 -2.303625e+00 -1.978923e+00 -3.079267e-01 -7.266486e-01 -1.209658e+00 -1.145395e+00 1.886388e-01 2.727745e+00 1.021383e+00 -9.639069e-01 -4.254360e-02 -1.077916e+00 -1.611374e-01 -2.358937e-01 -6.878940e-01 -2.902755e-01 -3.038351e-01 -3.448858e-01 -5.092500e-01 -8.320239e-02 -1.350634e-01
<VARIANCE> 39
 5.264738e+01 3.058907e+01 2.910328e+01 3.876773e+01 4.429066e+01 5.031492e+01 4.276320e+01 3.068257e+01 2.884250e+01 2.759539e+01 2.412979e+01 2.002977e+01 2.735216e+01 5.112583e+00 6.646208e+00 3.025785e+00 6.481437e+00 3.983526e+00 4.790706e+00 7.487351e+00 4.892358e+00 3.894377e+00 4.286193e+00 4.320374e+00 3.511730e+00 2.150930e+00 1.367765e+00 9.338488e-01 6.258269e-01 8.748254e-01 8.485638e-01 1.391084e+00 1.296021e+00 9.312085e-01 7.684963e-01 8.976711e-01 7.786316e-01 6.846375e-01 3.551069e-01
<GCONST> 1.344597e+02
<TRANSP> 5
 0.000000e+00 1.000000e+00 0.000000e+00 0.000000e+00 0.000000e+00
 0.000000e+00 6.945499e-01 3.054501e-01 0.000000e+00 0.000000e+00
 0.000000e+00 0.000000e+00 6.688496e-01 3.311504e-01 0.000000e+00
 0.000000e+00 0.000000e+00 0.000000e+00 6.009355e-01 3.990646e-01
 0.000000e+00 0.000000e+00 0.000000e+00 0.000000e+00 0.000000e+00
<ENDHMM>
~h "aa"
<BEGINHMM>
<NUMSTATES> 5
<STATE> 2
<MEAN> 39
 -7.643551e+00 -1.664474e+01 -8.363014e+00 -8.935027e+00 1.597484e+00 8.325917e-01 -3.936230e+00 2.968890e-01 -1.350497e+00 -3.243352e+00 -1.817812e+00 7.612537e-01 6.745393e+01 -1.426672e-01 -1.443477e+00 -4.927655e-01 5.876936e-01 8.596449e-01 2.540007e-02 -5.872551e-01 -5.300130e-01 -4.286787e-01 -7.625604e-01 -1.948325e-01 1.092092e-01 1.315769e+00 1.738422e-02 4.001411e-02 1.093914e-01 -4.548465e-02 -2.036818e-01 -9.207141e-02 -1.313159e-01 -1.010190e-01 -1.582700e-01 -2.587331e-02 -5.083445e-02 -3.197582e-03 1.560479e-01
<VARIANCE> 39
 2.688156e+01 6.335523e+01 5.681963e+01 9.761168e+01 8.857499e+01 6.474139e+01 8.754140e+01 6.684333e+01 7.033652e+01 6.460774e+01 5.685193e+01 5.372484e+01 1.215889e+02 1.483195e+00 4.185376e+00 3.112650e+00 4.869472e+00 4.912097e+00 4.157983e+00 6.110420e+00 4.990022e+00 5.424881e+00 5.138888e+00 4.319234e+00 4.090578e+00 8.810715e+00 2.310275e-01 8.407463e-01 4.888299e-01 6.739200e-01 7.627532e-01 7.014002e-01 1.057671e+00 9.061763e-01 8.793510e-01 9.050636e-01 7.573371e-01 7.626200e-01 1.497342e+00
<GCONST> 1.418770e+02
<STATE> 3
<MEAN> 39
 -6.239593e+00 -2.161446e+01 -1.009840e+01 -7.161065e+00 2.452608e+00 3.797754e-01 -1.082212e+01 -9.526480e-01 -5.469658e+00 -8.030915e+00 -5.396862e+00 -5.294854e-01 7.475317e+01 -9.603271e-02 -1.287313e-01 1.411537e-01 3.845264e-01 -2.197995e-01 -1.676397e-01 -9.024933e-03 -8.860456e-03 -2.692826e-01 -2.359248e-01 3.579304e-02 1.835607e-01 1.647604e-01 1.416499e-02 1.396975e-01 5.483656e-02 -1.302555e-01 -1.495351e-01 -8.050380e-03 1.711065e-01 5.936214e-02 -4.588137e-02 4.616502e-02 1.514319e-02 -1.433286e-02 -9.855877e-02
<VARIANCE> 39
 2.516470e+01 2.940533e+01 3.691240e+01 5.332978e+01 5.683562e+01 6.314095e+01 7.569206e+01 5.881010e+01 4.763576e+01 4.930370e+01 4.322825e+01 4.249366e+01 4.740988e+01 4.608640e-01 9.991102e-01 8.744286e-01 1.312854e+00 1.602513e+00 1.357117e+00 1.838032e+00 1.617877e+00 1.690424e+00 1.548912e+00 1.500863e+00 1.521932e+00 9.040034e-01 7.113695e-02 1.432086e-01 1.350332e-01 1.956435e-01 2.139358e-01 2.031739e-01 2.674965e-01 2.525151e-01 2.692522e-01 2.568817e-01 2.462212e-01 2.425273e-01 1.380892e-01
<GCONST> 1.029882e+02
<STATE> 4
<MEAN> 39
 -1.025358e+01 -1.535620e+01 -4.828608e+00 -2.791221e+00 2.958282e+00 1.202014e+00 -2.538515e+00 3.145126e+00 -2.542400e-01 -2.084430e+00 1.303011e+00 3.742635e+00 6.244051e+01 -1.225501e-03 1.233961e-01 1.140926e-01 -1.025962e-01 -3.855188e-01 -2.279397e-02 1.664110e-01 -1.642394e-01 -2.597826e-01 4.823357e-03 -4.246257e-02 -4.977800e-03 2.259387e-02 7.657268e-02 -6.095835e-02 -7.778387e-02 -2.146400e-01 -7.140175e-02 -3.985604e-02 -5.252066e-02 -3.978848e-02 -1.314089e-01 -9.495568e-02 -1.046459e-01 -8.907909e-02 1.083179e-01
<VARIANCE> 39
 2.616923e+01 6.275432e+01 3.658823e+01 4.895844e+01 5.163728e+01 4.321168e+01 6.535537e+01 5.832228e+01 6.342418e+01 6.280193e+01 5.155074e+01 3.636798e+01 1.601367e+02 5.840028e-01 2.054349e+00 1.452990e+00 1.506505e+00 2.304246e+00 1.937934e+00 2.597847e+00 2.271626e+00 2.635390e+00 2.588846e+00 1.980891e+00 1.918479e+00 1.400873e+00 1.211733e-01 4.828830e-01 3.089732e-01 3.242784e-01 3.853984e-01 3.401076e-01 4.764606e-01 4.237869e-01 4.827405e-01 5.214729e-01 3.944043e-01 3.842275e-01 4.475445e-01
<GCONST> 1.184182e+02
<TRANSP> 5
 0.000000e+00 1.000000e+00 0.000000e+00 0.000000e+00 0.000000e+00
 0.000000e+00 7.436709e-01 2.563291e-01 0.000000e+00 0.000000e+00
 0.000000e+00 0.000000e+00 7.685745e-01 2.314254e-01 0.000000e+00
 0.000000e+00 0.000000e+00 0.000000e+00 5.646191e-01 4.353810e-01
 0.000000e+00 0.000000e+00 0.000000e+00 0.000000e+00 0.000000e+00
<ENDHMM>
~h "ai"
<BEGINHMM>
<NUMSTATES> 5
<STATE> 2
<MEAN> 39
 -6.224642e+00 -1.943387e+01 -6.532306e+00 -8.502205e+00 -6.718022e+00 -2.688385e+00 -1.651415e+00 -3.623710e-01 -7.396466e+00 -7.901320e+00 -6.872593e+00 1.775090e+00 7.643337e+01 1.621928e-01 -2.283036e+00 -9.821815e-01 -1.240008e+00 -5.887768e-01 2.725590e-01 6.499557e-01 -4.202041e-01 -1.915008e+00 -1.308443e+00 -8.732051e-01 -2.528813e-01 1.621486e+00 -4.059486e-01 5.687140e-01 4.673232e-01 5.066668e-01 2.215903e-01 2.776830e-01 1.981612e-01 2.912981e-02 3.102043e-01 4.733230e-01 4.578559e-01 -1.026345e-01 -5.703406e-01
<VARIANCE> 39
 2.337644e+01 3.475972e+01 2.898615e+01 5.322402e+01 5.352954e+01 4.990217e+01 6.965087e+01 6.788232e+01 5.000950e+01 4.173482e+01 4.744034e+01 4.111989e+01 3.136069e+01 2.670227e+00 4.166332e+00 2.764930e+00 4.940251e+00 5.228281e+00 4.734981e+00 5.291023e+00 5.060907e+00 3.626481e+00 3.650512e+00 4.102293e+00 3.143077e+00 2.185097e+00 4.053248e-01 5.490156e-01 4.878954e-01 7.573840e-01 7.099382e-01 7.923101e-01 8.616998e-01 9.968477e-01 7.919552e-01 6.620258e-01 6.574260e-01 6.045752e-01 4.409602e-01
<GCONST> 1.325644e+02
<STATE> 3
<MEAN> 39
 -7.059694e+00 -2.186699e+01 -5.425526e+00 -9.410351e+00 -8.688079e+00 -2.158597e-01 1.585484e+00 -7.350260e-01 -1.052833e+01 -8.482278e+00 -6.374602e+00 3.015028e-01 7.752976e+01 -7.532635e-02 5.074641e-01 7.499015e-01 -7.501058e-01 -1.038608e+00 -9.603248e-02 5.476491e-01 2.378265e-01 2.048670e-01 4.661996e-01 -6.134406e-02 -5.258875e-01 -2.461457e-01 7.654335e-02 4.020397e-01 1.784054e-01 -6.856775e-02 -1.346329e-01 -2.509635e-01 -2.565852e-01 3.844200e-02 3.730198e-01 2.643941e-01 5.550947e-03 -1.093470e-02 -2.540239e-01
<VARIANCE> 39
 2.192125e+01 2.299950e+01 2.611785e+01 4.653639e+01 4.124203e+01 3.529868e+01 6.777434e+01 6.961713e+01 3.694480e+01 2.978911e+01 3.373678e+01 3.000631e+01 2.842134e+01 4.164318e-01 1.152773e+00 9.336617e-01 1.947545e+00 1.891140e+00 1.646932e+00 2.039100e+00 1.793009e+00 2.157038e+00 1.912340e+00 1.758030e+00 1.664297e+00 4.149501e-01 9.313364e-02 1.762324e-01 1.633854e-01 2.902509e-01 2.774244e-01 2.771487e-01 4.331370e-01 3.623104e-01 3.495066e-01 3.443071e-01 3.133389e-01 3.128494e-01 7.468137e-02
<GCONST> 1.033137e+02
<STATE> 4
<MEAN> 39
 -6.662006e+00 -1.458692e+01 9.825543e-01 -1.448608e+01 -1.564756e+01 -4.356501e+00 5.765643e-01 -4.692203e-01 -5.904196e+00 -3.061222e+00 -6.590633e+00 -1.918292e+00 7.345977e+01 2.803020e-01 2.037690e+00 1.225894e+00 5.082861e-01 -1.942765e-01 -8.652560e-01 -1.472116e+00 -6.730936e-01 8.776381e-01 9.618547e-01 5.847512e-01 4.147278e-01 -1.759149e+00 -5.044087e-02 1.547628e-01 -1.279877e-01 7.062083e-01 6.800484e-01 2.755927e-01 -1.126207e-01 -1.709064e-01 -1.320086e-01 -2.075201e-01 2.016371e-01 2.442069e-01 -3.735395e-01
<VARIANCE> 39
 2.165842e+01 3.890234e+01 3.717617e+01 5.109056e+01 4.562260e+01 4.940332e+01 6.717208e+01 6.775056e+01 4.661976e+01 4.321693e+01 3.257462e+01 3.264806e+01 4.672047e+01 1.037770e+00 1.844452e+00 2.019912e+00 4.309258e+00 3.919206e+00 3.054567e+00 3.997699e+00 3.328786e+00 3.365445e+00 3.444604e+00 2.478451e+00 2.528964e+00 1.709742e+00 2.126952e-01 3.322074e-01 3.156324e-01 4.961542e-01 5.158078e-01 6.153541e-01 9.020863e-01 7.037170e-01 6.382452e-01 6.554920e-01 5.034487e-01 5.288339e-01 2.250490e-01
<GCONST> 1.234422e+02
<TRANSP> 5
 0.000000e+00 1.000000e+00 0.000000e+00 0.000000e+00 0.000000e+00
 0.000000e+00 6.847806e-01 3.152194e-01 0.000000e+00 0.000000e+00
 0.000000e+00 0.000000e+00 8.127665e-01 1.872336e-01 0.000000e+00
 0.000000e+00 0.000000e+00 0.000000e+00 6.583541e-01 3.416459e-01
 0.000000e+00 0.000000e+00 0.000000e+00 0.000000e+00 0.000000e+00
<ENDHMM>
~h "an"
<BEGINHMM>
<NUMSTATES> 5
<STATE> 2
<MEAN> 39
 -5.773223e+00 -1.905850e+01 -6.772829e+00 -1.040421e+01 -5.539955e+00 -4.323923e+00 -3.470814e+00 1.112526e+00 -6.627640e+00 -8.285269e+00 -6.431565e+00 1.907203e+00 7.641771e+01 2.344574e-01 -2.439015e+00 -1.301550e+00 -1.165533e+00 1.153995e-01 1.439589e-01 -4.917331e-02 -1.953214e-01 -1.610868e+00 -1.559675e+00 -1.054562e+00 -8.880202e-02 1.497480e+00 -5.220105e-01 6.396939e-01 5.323614e-01 7.332420e-01 3.240205e-01 2.978396e-01 1.406877e-01 -2.215604e-02 2.225108e-01 4.525526e-01 4.976537e-01 -4.543887e-02 -6.353432e-01
<VARIANCE> 39
 2.392347e+01 3.415997e+01 3.295838e+01 4.909755e+01 5.563429e+01 5.030782e+01 7.391262e+01 5.745795e+01 5.248991e+01 4.512879e+01 5.826523e+01 5.450600e+01 2.918299e+01 2.950319e+00 4.294925e+00 2.966704e+00 4.838856e+00 4.964198e+00 4.662732e+00 5.000360e+00 4.454268e+00 3.804415e+00 3.810623e+00 4.395936e+00 3.563338e+00 2.258879e+00 5.131589e-01 5.957649e-01 4.820542e-01 6.600128e-01 7.567314e-01 7.743427e-01 8.501669e-01 9.222111e-01 7.189534e-01 6.669764e-01 7.364467e-01 7.349590e-01 4.079232e-01
<GCONST> 1.336055e+02
<STATE> 3
<MEAN> 39
 -6.839502e+00 -2.101312e+01 -6.301290e+00 -9.902917e+00 -4.988280e+00 -3.562694e+00 -3.585074e+00 1.844298e+00 -1.020705e+01 -9.787943e+00 -6.253493e+00 1.113162e+00 7.687520e+01 1.146023e-01 8.312082e-01 5.655184e-01 -1.229925e-01 -5.793422e-01 -5.228321e-01 -1.011211e-01 2.253056e-01 -8.935534e-02 4.100754e-01 1.871598e-01 -2.423102e-01 -7.166210e-01 1.347001e-01 4.878660e-01 2.350429e-01 6.514118e-02 -2.012914e-01 -1.833350e-01 -1.374338e-01 -9.952195e-02 2.418909e-01 2.605738e-01 7.249686e-02 -4.512888e-02 -4.000914e-01
<VARIANCE> 39
 2.402531e+01 2.225653e+01 2.878263e+01 4.298466e+01 4.646385e+01 4.412583e+01 8.084300e+01 6.042187e+01 4.852589e+01 3.849454e+01 4.673710e+01 3.685440e+01 2.545334e+01 5.634474e-01 1.538551e+00 1.248619e+00 1.790449e+00 2.327972e+00 2.122765e+00 2.423473e+00 2.278110e+00 2.200132e+00 2.147224e+00 1.935731e+00 1.997601e+00 8.352008e-01 9.940512e-02 1.872219e-01 2.008490e-01 3.585540e-01 3.317755e-01 3.414634e-01 4.641616e-01 5.248087e-01 4.006900e-01 3.840863e-01 3.597432e-01 3.353504e-01 1.083829e-01
<GCONST> 1.096997e+02
<STATE> 4
<MEAN> 39
 -4.348160e+00 -1.044065e+01 -3.478079e-01 -7.389393e+00 -9.189665e+00 -7.494216e+00 -5.671233e+00 -2.620745e-01 -7.448855e+00 -5.703972e+00 -4.619181e+00 -2.706975e-01 6.551483e+01 2.795908e-01 1.816565e+00 1.142041e+00 8.825415e-01 -3.110631e-01 -1.328661e-02 -7.123315e-01 -1.246306e+00 5.890402e-01 5.615449e-01 4.045855e-01 -1.986619e-01 -2.135117e+00 -1.384594e-01 -1.287386e-01 -1.325467e-01 1.026487e-01 2.742780e-01 3.050784e-01 6.556090e-02 -6.134309e-02 2.885034e-02 -1.192327e-01 -1.991648e-02 4.825285e-02 8.503981e-02
<VARIANCE> 39
 2.322565e+01 3.889576e+01 4.290395e+01 5.744936e+01 5.651630e+01 5.438026e+01 6.673447e+01 6.430796e+01 6.387545e+01 4.804348e+01 5.002143e+01 4.992286e+01 6.139491e+01 1.067834e+00 1.954814e+00 2.469153e+00 2.711343e+00 2.968833e+00 3.283823e+00 4.406861e+00 4.121189e+00 3.602293e+00 3.419770e+00 2.895715e+00 2.673855e+00 1.760316e+00 1.453286e-01 2.508434e-01 3.755800e-01 4.340611e-01 4.651071e-01 5.380507e-01 6.552797e-01 7.794940e-01 6.310400e-01 6.081245e-01 5.057936e-01 4.716432e-01 2.326279e-01
<GCONST> 1.245627e+02
<TRANSP> 5
 0.000000e+00 1.000000e+00 0.000000e+00 0.000000e+00 0.000000e+00
 0.000000e+00 6.608883e-01 3.391117e-01 0.000000e+00 0.000000e+00
 0.000000e+00 0.000000e+00 8.231677e-01 1.768323e-01 0.000000e+00
 0.000000e+00 0.000000e+00 0.000000e+00 7.088535e-01 2.911465e-01
