~o
<STREAMINFO> 1 39
<VECSIZE> 39<NULLD><MFCC_D_A_0><DIAGC>
~s "silst"
<MEAN> 39
 -1.759372e+001 -5.145990e+000 -7.686162e+000 -4.343153e+000 -2.580981e+000 -3.058689e+000 -1.108821e+000 3.952615e-001 -1.507618e+000 -9.629226e-001 -1.592010e+000 3.305758e-001 3.835965e+001 -1.076742e-001 2.183142e-001 4.444614e-002 1.208676e-001 5.482855e-002 1.408275e-001 1.488958e-002 -4.487081e-002 3.503583e-002 1.030294e-001 6.824777e-002 -2.818918e-003 -3.328883e-001 -3.902713e-003 1.302024e-002 2.782274e-002 4.387882e-003 6.607070e-003 3.849909e-003 2.465055e-003 1.060741e-003 5.143381e-003 1.059808e-002 2.871160e-003 -7.024140e-003 2.766943e-002
<VARIANCE> 39
 1.797785e+001 2.897150e+001 1.937993e+001 2.330640e+001 2.061506e+001 2.647712e+001 2.417975e+001 2.546812e+001 2.386330e+001 2.824975e+001 2.266212e+001 1.755163e+001 3.553344e+001 3.131277e-001 5.544024e-001 6.854657e-001 8.462358e-001 1.031075e+000 1.277168e+000 1.408871e+000 1.503148e+000 1.561542e+000 1.616775e+000 1.454925e+000 1.310783e+000 3.048306e-001 4.714224e-002 8.326257e-002 1.203920e-001 1.552968e-001 1.954491e-001 2.395095e-001 2.717254e-001 2.909437e-001 3.040266e-001 3.139498e-001 2.848811e-001 2.617159e-001 2.710849e-002
<GCONST> 8.828206e+001
~h "b"
<BEGINHMM>
<NUMSTATES> 5
<STATE> 2
<MEAN> 39
 -6.328325e+000 2.861413e+000 -2.850307e+000 -1.626900e+000 -2.678371e+000 -2.561158e+000 -7.058862e+000 -7.882870e+000 -8.228384e+000 -4.205963e+000 -3.087294e+000 -4.194808e+000 4.023974e+001 -1.047204e+000 1.411036e+000 8.047520e-001 1.364747e+000 9.706507e-001 6.073264e-001 6.373406e-001 -2.506131e-001 -3.267313e-001 -5.480716e-001 -3.763955e-001 -4.538450e-002 -1.919544e+000 -1.821873e-001 -9.274902e-001 -1.873130e-001 -6.848595e-001 -4.421487e-001 -2.800561e-001 -3.016040e-002 5.455424e-001 4.958826e-001 3.033294e-001 9.513883e-002 1.884671e-001 1.310375e+000
<VARIANCE> 39
 3.729763e+001 2.702982e+001 2.241145e+001 3.094901e+001 2.378512e+001 3.481100e+001 3.851089e+001 3.642260e+001 3.605354e+001 3.214081e+001 3.217339e+001 2.765874e+001 2.957884e+001 2.539590e+000 4.646437e+000 3.120298e+000 4.463593e+000 3.202359e+000 3.488182e+000 3.861363e+000 4.402940e+000 4.176939e+000 3.479431e+000 2.938166e+000 2.507644e+000 6.291222e+000 3.657984e-001 7.496628e-001 6.496878e-001 7.548962e-001 6.468253e-001 6.338844e-001 8.509180e-001 8.394747e-001 7.874836e-001 7.145709e-001 6.139622e-001 5.293334e-001 9.508978e-001
<GCONST> 1.282111e+002
<STATE> 3
<MEAN> 39
 -1.182226e+001 1.779132e+000 -2.059331e+000 -2.178422e-001 -9.962026e-001 -1.083666e+000 -4.280286e+000 -4.939986e+000 -5.590638e+000 -3.376513e+000 -3.000275e+000 -2.828285e+000 3.820042e+001 -2.904634e-001 -2.261878e+000 -8.500589e-001 -1.865178e+000 -1.083012e+000 -8.314625e-001 9.801424e-002 1.097063e+000 1.371082e+000 8.024870e-001 5.409225e-001 6.027211e-001 3.713158e+000 8.454583e-001 -8.325016e-001 -4.060903e-001 -1.171964e+000 -8.520593e-001 -4.391652e-001 -4.524128e-001 6.413523e-002 8.691052e-002 2.746126e-001 2.128902e-001 2.060990e-002 1.759741e+000
<VARIANCE> 39
 4.369715e+001 2.534030e+001 1.813216e+001 2.332039e+001 1.709947e+001 2.288150e+001 2.866634e+001 3.425397e+001 3.456964e+001 2.878719e+001 2.341035e+001 2.019152e+001 4.150376e+001 4.156770e+000 3.138943e+000 3.172504e+000 4.383176e+000 3.157719e+000 3.551010e+000 4.105695e+000 4.227247e+000 4.165201e+000 3.436088e+000 3.016554e+000 2.371468e+000 7.500575e+000 5.516564e-001 7.216035e-001 8.781855e-001 8.058717e-001 6.936604e-001 8.299271e-001 7.770609e-001 9.130359e-001 9.324305e-001 7.990953e-001 7.026905e-001 5.091772e-001 8.242376e-001
<GCONST> 1.278180e+002
<STATE> 4
<MEAN> 39
 -8.453241e+000 -6.627419e+000 -6.368123e+000 -9.422154e+000 -7.051721e+000 -5.981768e+000 -6.008831e+000 -2.875600e+000 -2.011667e+000 -5.924971e-001 -1.037620e+000 -1.457648e+000 5.600830e+001 2.295252e+000 -2.680398e+000 -9.951029e-001 -3.594107e+000 -2.445872e+000 -9.117657e-001 -1.080559e+000 6.454430e-001 4.546544e-001 7.468445e-001 4.499583e-001 1.065378e-001 5.087551e+000 3.214160e-001 3.951796e-001 2.438278e-001 1.505381e-001 6.189780e-002 3.665472e-001 -1.458012e-001 -1.602928e-001 -4.552402e-001 -1.990697e-001 -1.965024e-001 -2.356393e-001 -8.897693e-001
<VARIANCE> 39
 4.466515e+001 2.750627e+001 3.865502e+001 5.527654e+001 3.562018e+001 4.772259e+001 4.100382e+001 3.765622e+001 3.478344e+001 3.138113e+001 3.020216e+001 2.298562e+001 4.535548e+001 5.678272e+000 5.273160e+000 7.832953e+000 7.438995e+000 6.316023e+000 7.482198e+000 7.468749e+000 7.298387e+000 7.182288e+000 5.465150e+000 5.258117e+000 3.928748e+000 6.788544e+000 8.432519e-001 6.524820e-001 5.820777e-001 9.641963e-001 8.214715e-001 8.185664e-001 9.211388e-001 8.890678e-001 8.554347e-001 7.292381e-001 6.953388e-001 5.260985e-001 8.733255e-001
<GCONST> 1.391380e+002
<TRANSP> 5
 0.000000e+000 1.000000e+000 0.000000e+000 0.000000e+000 0.000000e+000
 0.000000e+000 6.629509e-001 3.370491e-001 0.000000e+000 0.000000e+000
 0.000000e+000 0.000000e+000 5.202177e-001 4.797823e-001 0.000000e+000
 0.000000e+000 0.000000e+000 0.000000e+000 4.810663e-001 5.189337e-001
 0.000000e+000 0.000000e+000 0.000000e+000 0.000000e+000 0.000000e+000
<ENDHMM>
~h "d"
<BEGINHMM>
<NUMSTATES> 5
<STATE> 2
<MEAN> 39
 -7.724264e+000 -1.094372e-001 1.080353e+000 -1.270770e+000 -8.328858e+000 -8.081308e+000 -7.578763e+000 -4.929943e+000 -5.786253e+000 -4.934953e+000 -6.200566e+000 -3.507324e+000 4.450028e+001 -1.194312e+000 1.731033e+000 2.045497e-001 1.366100e+000 1.858741e+000 1.161693e+000 5.039875e-001 -7.122850e-001 -1.860944e-001 -2.713563e-001 -3.748202e-001 -5.031852e-001 -2.543682e+000 -2.102465e-001 -9.340995e-001 -3.021020e-001 -9.111603e-001 -1.778807e-001 1.058357e-001 -7.632374e-004 4.803453e-001 2.163315e-001 2.771984e-001 4.227604e-001 2.496170e-001 1.285281e+000
<VARIANCE> 39
 3.200826e+001 4.750776e+001 3.856458e+001 6.275634e+001 5.466730e+001 4.497061e+001 4.144132e+001 4.865477e+001 4.768632e+001 3.909645e+001 3.709101e+001 3.123412e+001 6.612067e+001 2.864434e+000 6.637600e+000 3.699221e+000 6.674581e+000 5.460289e+000 5.132311e+000 5.503561e+000 5.628959e+000 4.764912e+000 4.144280e+000 3.977897e+000 3.323866e+000 9.038792e+000 4.083205e-001 1.039226e+000 5.532874e-001 9.905902e-001 9.779733e-001 7.893448e-001 9.865517e-001 8.989065e-001 8.227318e-001 8.051469e-001 7.393861e-001 6.056225e-001 1.451435e+000
<GCONST> 1.389931e+002
<STATE> 3
<MEAN> 39
 -1.274223e+001 -2.445681e-001 -3.900325e-001 -9.418557e-001 -3.488586e+000 -3.341138e+000 -5.309876e+000 -4.336474e+000 -5.053671e+000 -3.568806e+000 -4.582760e+000 -3.228348e+000 4.101801e+001 -1.338908e+000 -2.013919e+000 -6.796820e-001 -1.914901e+000 7.014633e-002 5.453861e-001 4.642426e-001 8.705193e-001 7.193374e-001 6.335058e-001 1.001307e+000 7.235359e-001 2.647959e+000 3.790437e-001 -6.837478e-001 -9.138188e-002 -8.611543e-001 -9.062533e-001 -6.362860e-001 -2.864511e-001 3.277477e-001 1.376280e-001 1.690928e-001 1.850691e-001 2.118857e-001 1.665982e+000
<VARIANCE> 39
 4.271759e+001 4.299360e+001 3.478961e+001 4.324683e+001 3.921030e+001 3.665852e+001 3.665113e+001 3.851993e+001 3.677790e+001 2.974590e+001 2.811326e+001 2.287390e+001 7.731483e+001 3.812349e+000 5.228127e+000 3.782942e+000 5.498317e+000 4.676985e+000 5.059593e+000 4.841571e+000 4.995036e+000 4.702674e+000 3.781882e+000 3.399394e+000 2.744370e+000 1.089109e+001 6.120240e-001 9.736975e-001 6.649868e-001 9.236940e-001 9.089727e-001 8.951106e-001 9.240677e-001 9.133326e-001 8.512542e-001 7.086077e-001 7.101167e-001 5.744088e-001 1.375247e+000
<GCONST> 1.362559e+002
<STATE> 4
<MEAN> 39
 -1.448292e+001 -7.484529e+000 -2.384640e+000 -9.684238e+000 -7.842601e+000 -5.983375e+000 -4.984816e+000 -1.473050e+000 -2.661044e+000 -1.768309e+000 -1.913717e+000 -4.070080e-001 5.603568e+001 9.309990e-001 -1.143930e+000 -1.115669e-001 -1.588414e+000 -1.625429e+000 -1.356027e+000 -8.403407e-001 7.486756e-001 3.272697e-001 3.100246e-001 1.892100e-001 2.347200e-001 3.365052e+000 7.497333e-001 2.978903e-001 3.804412e-002 4.499463e-001 -1.598563e-001 -1.251263e-001 -2.801789e-001 -4.258950e-002 -2.016927e-001 -7.182622e-002 -2.526274e-001 -2.925324e-001 -7.303939e-001
<VARIANCE> 39
 5.347084e+001 4.293690e+001 4.580542e+001 4.674018e+001 5.202802e+001 5.239889e+001 4.989624e+001 4.124275e+001 3.918186e+001 2.933329e+001 2.760624e+001 2.307725e+001 6.498360e+001 7.147622e+000 4.726256e+000 4.313905e+000 6.135021e+000 6.187695e+000 6.194405e+000 6.649411e+000 5.541975e+000 5.269732e+000 4.092165e+000 4.431314e+000 3.300614e+000 1.165159e+001 8.589825e-001 9.452608e-001 8.558852e-001 1.018225e+000 1.228153e+000 1.393100e+000 1.089406e+000 9.963372e-001 9.349355e-001 7.859060e-001 8.053708e-001 6.455969e-001 1.404769e+000
<GCONST> 1.422121e+002
<TRANSP> 5
 0.000000e+000 1.000000e+000 0.000000e+000 0.000000e+000 0.000000e+000
 0.000000e+000 5.044078e-001 4.955923e-001 0.000000e+000 0.000000e+000
 0.000000e+000 0.000000e+000 4.076917e-001 5.923083e-001 0.000000e+000
 0.000000e+000 0.000000e+000 0.000000e+000 5.248111e-001 4.751889e-001
 0.000000e+000 0.000000e+000 0.000000e+000 0.000000e+000 0.000000e+000
<ENDHMM>
~h "f"
<BEGINHMM>
<NUMSTATES> 5
<STATE> 2
<MEAN> 39
 -1.637514e+001 -5.257349e+000 -6.657693e+000 -5.644915e+000 -3.486955e+000 -3.286719e+000 -2.324389e+000 -8.354182e-001 -2.068768e+000 -1.439579e+000 -2.839931e+000 -1.335497e+000 5.280833e+001 -4.036173e+000 -2.546604e-001 -2.956265e-001 9.151036e-001 5.678706e-001 4.527614e-001 7.496318e-001 5.885063e-001 7.289338e-001 3.361361e-001 4.217852e-001 6.121273e-001 -9.389289e-001 3.432279e-001 -4.729629e-001 -1.907961e-001 -4.969592e-001 -4.513897e-001 -2.254524e-001 -3.642456e-001 -3.840977e-002 -7.902212e-002 7.915279e-002 4.298151e-002 -4.356750e-002 3.351292e-001
<VARIANCE> 39
 5.333704e+001 1.807438e+001 2.039424e+001 2.328562e+001 1.968556e+001 2.750585e+001 2.369139e+001 2.368339e+001 2.327572e+001 2.259178e+001 1.946383e+001 1.633941e+001 3.735263e+001 5.090527e+000 3.661741e+000 4.496519e+000 5.169959e+000 3.981287e+000 4.690284e+000 4.577781e+000 4.058444e+000 4.059723e+000 3.599245e+000 3.613177e+000 2.702318e+000 3.101733e+000 1.030047e+000 5.729008e-001 5.578355e-001 6.736334e-001 5.970460e-001 5.972798e-001 6.763605e-001 6.581823e-001 6.182343e-001 5.781282e-001 5.132488e-001 4.498648e-001 4.830926e-001
<GCONST> 1.244274e+002
<STATE> 3
<MEAN> 39
 -2.377815e+001 -8.542159e+000 -9.407792e+000 -6.468060e+000 -4.928145e+000 -3.946295e+000 -3.026987e+000 -2.754826e-001 -1.034027e+000 -1.789452e-001 -1.750367e+000 -9.689641e-002 5.267667e+001 6.735071e-002 -1.823654e-001 -1.608742e-001 -1.165782e-001 -6.793842e-002 -5.368846e-002 -7.261001e-002 -4.828723e-002 4.005950e-002 8.028658e-002 3.486615e-002 3.634872e-003 1.112718e-001 8.349240e-001 1.511010e-001 1.427094e-001 -9.818466e-002 -1.596904e-002 -5.662918e-002 -1.121207e-001 -9.517000e-002 -9.938899e-002 -7.890938e-002 -6.631327e-002 -1.101215e-001 1.073866e-001
<VARIANCE> 39
 1.115740e+001 1.319285e+001 1.098508e+001 1.228289e+001 1.278558e+001 1.399317e+001 1.483382e+001 1.424770e+001 1.415315e+001 1.406756e+001 1.337189e+001 1.187242e+001 2.871522e+001 2.255390e+000 9.965723e-001 1.156734e+000 1.234071e+000 1.351458e+000 1.429389e+000 1.541554e+000 1.592987e+000 1.581993e+000 1.526838e+000 1.461132e+000 1.323654e+000 1.532079e+000 5.093362e-001 2.437274e-001 2.908115e-001 3.476765e-001 3.434000e-001 3.840349e-001 4.185793e-001 3.963290e-001 3.868836e-001 3.567671e-001 3.582759e-001 3.117326e-001 3.033978e-001
<GCONST> 9.695822e+001
<STATE> 4
<MEAN> 39
 -1.682759e+001 -7.204864e+000 -7.952960e+000 -7.145131e+000 -4.712294e+000 -4.078497e+000 -3.097268e+000 -1.033965e+000 -1.338133e+000 -4.920126e-001 -2.071854e+000 -9.707735e-001 5.334042e+001 4.840893e+000 1.508756e-001 1.528794e-001 -1.458929e+000 -1.112922e+000 -5.888321e-001 -1.258560e+000 -5.353590e-001 -5.921913e-001 -4.382382e-001 -1.582199e-001 -5.468751e-001 1.070462e+000 5.494654e-001 -2.827325e-001 -1.223836e-001 -4.664686e-001 -4.367584e-001 -9.764807e-002 -4.221176e-001 3.744952e-002 -1.251719e-001 -6.446353e-002 6.380979e-002 -4.714998e-002 3.457846e-001
<VARIANCE> 39
 5.127343e+001 1.968201e+001 2.180934e+001 2.315483e+001 2.086180e+001 2.401691e+001 2.340171e+001 2.160706e+001 2.005624e+001 1.814857e+001 1.699100e+001 1.499942e+001 3.780999e+001 5.833087e+000 3.575623e+000 4.877266e+000 5.304159e+000 4.607588e+000 5.523248e+000 5.559986e+000 4.177989e+000 4.222963e+000 3.310287e+000 3.539623e+000 2.677282e+000 4.668633e+000 1.035452e+000 5.205215e-001 5.451882e-001 6.565894e-001 6.390887e-001 7.277496e-001 7.817645e-001 6.846023e-001 6.665131e-001 5.975180e-001 5.207388e-001 4.345498e-001 5.982327e-001
<GCONST> 1.254752e+002
<TRANSP> 5
 0.000000e+000 1.000000e+000 0.000000e+000 0.000000e+000 0.000000e+000
 0.000000e+000 5.764808e-001 4.235192e-001 0.000000e+000 0.000000e+000
 0.000000e+000 0.000000e+000 8.315602e-001 1.684398e-001 0.000000e+000
 0.000000e+000 0.000000e+000 0.000000e+000 5.788620e-001 4.211380e-001
 0.000000e+000 0.000000e+000 0.000000e+000 0.000000e+000 0.000000e+000
<ENDHMM>
~h "g"
<BEGINHMM>
<NUMSTATES> 5
<STATE> 2
<MEAN> 39
 -7.112027e+000 -6.127486e-001 1.629902e+000 -1.735975e+000 -1.152037e+001 -1.150252e+001 -5.560755e+000 -3.336452e+000 -1.185849e+001 -4.512869e+000 -1.636849e+000 -3.967786e+000 4.599151e+001 -1.068094e+000 1.772993e+000 -5.245137e-001 1.686650e+000 2.288765e+000 9.158044e-001 -1.588582e-001 -8.812755e-001 7.368338e-001 -5.877638e-001 -7.283677e-001 -5.671189e-002 -3.126010e+000 -1.687062e-001 -1.013185e+000 -6.988557e-001 -6.931064e-001 3.255963e-001 3.341568e-001 -6.595772e-002 2.601919e-001 7.265157e-001 4.571690e-001 -8.453861e-002 1.725010e-001 1.112274e+000
<VARIANCE> 39
 2.156457e+001 4.129900e+001 4.175453e+001 4.573458e+001 5.724501e+001 5.298983e+001 5.267719e+001 8.147681e+001 5.306890e+001 5.777841e+001 6.286112e+001 3.734848e+001 5.283495e+001 2.489200e+000 7.100062e+000 4.643505e+000 5.674814e+000 6.353770e+000 5.775075e+000 6.616413e+000 7.988870e+000 6.397779e+000 5.995874e+000 4.938860e+000 3.446311e+000 6.829084e+000 3.353551e-001 1.146717e+000 7.057455e-001 9.226367e-001 9.588699e-001 9.974108e-001 1.088653e+000 1.177785e+000 1.017360e+000 1.112761e+000 8.915772e-001 6.790999e-001 1.377696e+000
<GCONST> 1.430407e+002
<STATE> 3
<MEAN> 39
 -1.254964e+001 -9.327239e-001 -2.642648e+000 5.218723e-001 -2.489810e+000 -6.073379e+000 -5.862854e+000 -3.841727e+000 -6.002934e+000 -3.305543e+000 -3.642575e+000 -2.663135e+000 4.084659e+001 -6.965079e-001 -2.935120e+000 -2.537253e+000 -1.526626e+000 1.503480e+000 8.099420e-001 -1.793212e-001 6.114287e-001 1.650198e+000 1.335287e+000 -2.368389e-002 6.352884e-001 2.418239e+000 6.120402e-001 -6.528124e-001 -6.269837e-002 -9.832284e-001 -8.852609e-001 -4.962014e-001 -1.586981e-001 1.307963e-001 -2.338724e-001 3.573765e-001 2.869782e-001 4.668710e-002 1.667883e+000
<VARIANCE> 39
 3.499708e+001 5.294358e+001 4.511871e+001 3.150345e+001 4.275668e+001 4.958712e+001 4.014963e+001 4.314571e+001 3.982875e+001 3.134024e+001 2.693461e+001 2.061285e+001 5.389133e+001 3.514739e+000 7.529942e+000 6.249027e+000 5.876543e+000 7.267729e+000 7.227459e+000 6.662126e+000 7.876720e+000 5.984859e+000 5.095065e+000 4.169596e+000 3.334256e+000 8.377544e+000 6.307059e-001 1.502226e+000 1.072649e+000 1.062970e+000 9.871157e-001 1.088399e+000 1.053224e+000 1.170167e+000 8.782023e-001 9.289434e-001 8.811116e-001 5.344396e-001 1.245262e+000
<GCONST> 1.416100e+002
<STATE> 4
<MEAN> 39
 -1.083530e+001 -9.833539e+000 -8.874713e+000 -7.536193e+000 -3.322213e+000 -7.692229e+000 -7.200420e+000 -2.696804e+000 -3.721043e+000 1.232576e+000 -2.724377e+000 -1.054385e+000 5.428868e+001 1.549091e+000 -1.143982e-001 2.181575e-001 -1.546359e+000 -1.104974e+000 -8.290828e-001 -1.176451e+000 -1.497100e-001 -7.219937e-002 3.051890e-001 4.337604e-001 7.951736e-002 2.515470e+000 5.581852e-001 7.583526e-001 6.807248e-001 2.445964e-001 -5.698866e-001 -1.773769e-001 -1.718562e-001 -1.934159e-002 -4.266568e-001 -4.984046e-001 1.165793e-001 -1.928491e-001 -5.481212e-001
<VARIANCE> 39
 3.124960e+001 5.583139e+001 8.429723e+001 4.929672e+001 7.184149e+001 6.609743e+001 6.096196e+001 5.659035e+001 4.943737e+001 4.071951e+001 3.534707e+001 2.511402e+001 3.399649e+001 4.523175e+000 7.112213e+000 6.372112e+000 7.375856e+000 6.447513e+000 6.519613e+000 6.014783e+000 5.597349e+000 5.868857e+000 5.629572e+000 4.314190e+000 3.117265e+000 6.142941e+000 6.216151e-001 1.606796e+000 1.456815e+000 1.055708e+000 1.277623e+000 1.230708e+000 1.250622e+000 1.296761e+000 1.240223e+000 1.090265e+000 8.448093e-001 6.835054e-001 8.046539e-001
<GCONST> 1.453964e+002
<TRANSP> 5
 0.000000e+000 1.000000e+000 0.000000e+000 0.000000e+000 0.000000e+000
 0.000000e+000 5.865839e-001 4.134161e-001 0.000000e+000 0.000000e+000
 0.000000e+000 0.000000e+000 5.120464e-001 4.879536e-001 0.000000e+000
 0.000000e+000 0.000000e+000 0.000000e+000 6.376412e-001 3.623588e-001
 0.000000e+000 0.000000e+000 0.000000e+000 0.000000e+000 0.000000e+000
<ENDHMM>
~h "k"
<BEGINHMM>
<NUMSTATES> 5
<STATE> 2
<MEAN> 39
 -1.230850e+001 -3.915539e+000 -2.077738e+000 -2.852228e+000 -6.622164e+000 -9.268716e+000 -4.588677e+000 -4.313276e-001 -7.202448e+000 -1.470074e+000 -1.701989e+000 -1.742215e+000 4.548427e+001 -2.671745e+000 1.164891e+000 -4.316544e-001 1.855302e+000 2.133847e+000 2.379403e+000 1.023489e+000 -6.456660e-001 1.143787e+000 4.396907e-001 1.384406e-001 3.993287e-001 -4.896482e+000 -7.111420e-003 -7.652814e-001 -5.553360e-001 -6.570003e-001 -1.206262e-002 3.347222e-001 1.114820e-002 2.566049e-001 5.173753e-001 1.482021e-001 -1.017065e-002 1.347245e-002 8.734470e-001
<VARIANCE> 39
 4.329493e+001 3.627329e+001 5.599266e+001 5.202168e+001 8.603104e+001 7.009227e+001 6.298761e+001 7.743747e+001 6.584202e+001 4.647351e+001 4.769511e+001 3.085074e+001 7.616284e+001 5.459297e+000 5.546319e+000 6.964560e+000 5.689945e+000 8.194255e+000 7.334275e+000 7.164234e+000 7.845042e+000 7.954344e+000 5.435337e+000 5.795900e+000 3.458929e+000 6.637791e+000 8.131289e-001 1.033914e+000 8.244667e-001 1.094077e+000 1.494142e+000 1.369778e+000 1.080392e+000 1.398935e+000 1.343773e+000 9.971924e-001 9.455376e-001 6.993239e-001 2.272676e+000
<GCONST> 1.492882e+002
<STATE> 3
<MEAN> 39
 -1.953604e+001 -4.284914e+000 -5.525352e+000 -8.813746e-001 -1.000672e+000 -8.699656e-001 -1.676640e+000 5.969713e-001 -8.380832e-001 1.001086e+000 -4.722036e-001 -1.754155e-001 3.508829e+001 -4.755250e-002 -1.685297e+000 -1.258164e+000 -1.281716e+000 -8.457690e-002 3.261375e-001 1.749656e-001 1.291084e-001 3.520994e-001 5.430677e-001 -6.685199e-002 2.166731e-001 1.842430e+000 6.935430e-001 -3.691967e-001 2.218759e-002 -7.856057e-001 -6.375038e-001 -9.221645e-001 -3.834955e-001 -2.499105e-002 -4.944848e-001 -9.835493e-002 -1.687143e-001 -1.114509e-001 2.236370e+000
<VARIANCE> 39
 1.244586e+001 2.263665e+001 2.071907e+001 1.938177e+001 2.204700e+001 2.261036e+001 2.428281e+001 2.401558e+001 2.290397e+001 1.948324e+001 1.636564e+001 1.434819e+001 3.371251e+001 4.270092e+000 5.017879e+000 5.062063e+000 4.928062e+000 5.201672e+000 5.723925e+000 4.694639e+000 4.805515e+000 5.499900e+000 3.564445e+000 3.200644e+000 2.559155e+000 1.549437e+001 6.792600e-001 8.685811e-001 8.751267e-001 7.639737e-001 9.182903e-001 8.648008e-001 8.721323e-001 8.473278e-001 7.706760e-001 6.261285e-001 6.314421e-001 4.328335e-001 1.622899e+000
<GCONST> 1.285767e+002
<STATE> 4
<MEAN> 39
 -1.566558e+001 -1.036410e+001 -7.481059e+000 -9.699093e+000 -4.800123e+000 -5.221305e+000 -2.923443e+000 -3.666738e-001 -2.984418e+000 1.679602e+000 -2.437200e+000 -4.385674e-001 5.524151e+001 1.106900e+000 1.521770e-001 3.229438e-001 -8.464652e-001 -8.968284e-001 -7.675387e-001 -2.086612e-001 -8.595803e-002 -3.781585e-001 -4.613014e-001 -1.120946e-001 -2.317598e-001 2.192000e+000 2.164678e-001 4.139784e-001 3.015229e-001 2.863326e-001 -1.077316e-001 6.100392e-003 -9.747723e-002 1.685729e-002 -7.479776e-002 -2.537754e-001 8.937455e-002 -9.169979e-002 -5.815361e-001
<VARIANCE> 39
 3.281669e+001 3.919154e+001 7.357156e+001 4.434537e+001 5.888090e+001 5.000564e+001 5.084864e+001 4.628311e+001 4.123189e+001 3.528178e+001 3.041003e+001 2.317075e+001 4.509830e+001 5.501901e+000 4.756746e+000 4.123548e+000 5.153125e+000 4.470739e+000 4.824507e+000 4.731440e+000 4.542265e+000 4.685617e+000 3.916084e+000 3.407545e+000 2.644092e+000 9.836254e+000 7.792510e-001 1.252839e+000 1.003023e+000 9.576287e-001 9.131586e-001 9.236062e-001 9.574934e-001 8.855413e-001 9.155519e-001 7.704955e-001 6.715856e-001 5.457993e-001 1.621526e+000
<GCONST> 1.389123e+002
<TRANSP> 5
 0.000000e+000 1.000000e+000 0.000000e+000 0.000000e+000 0.000000e+000
 0.000000e+000 5.888931e-001 4.111069e-001 0.000000e+000 0.000000e+000
 0.000000e+000 0.000000e+000 6.264174e-001 3.735826e-001 0.000000e+000
 0.000000e+000 0.000000e+000 0.000000e+000 7.652052e-001 2.347948e-001
 0.000000e+000 0.000000e+000 0.000000e+000 0.000000e+000 0.000000e+000
<ENDHMM>
~h "l"
<BEGINHMM>
<NUMSTATES> 5
<STATE> 2
<MEAN> 39
 -1.209795e+000 -3.930433e+000 -1.080777e+001 -2.384410e+001 -8.431560e+000 1.386273e+000 -7.574835e+000 -7.497146e+000 -3.988600e+000 -7.040963e-001 -7.177901e-002 -2.479647e+000 5.929856e+001 5.915638e-001 4.936351e-001 -2.250648e-001 -1.177740e+000 9.042178e-003 6.507844e-001 -1.723239e-001 -4.814020e-001 -5.107538e-001 -3.927668e-002 4.391720e-001 2.333452e-001 -8.262403e-002 -2.899557e-001 -3.644857e-001 7.727887e-002 5.405203e-001 7.976696e-002 -3.200972e-001 -5.311075e-002 3.577063e-001 2.424107e-001 6.083899e-002 -1.512882e-001 -9.626476e-002 7.198048e-002
<VARIANCE> 39
 1.253436e+001 4.943570e+001 4.763500e+001 7.198579e+001 6.123320e+001 6.988636e+001 7.563313e+001 6.420987e+001 6.543195e+001 6.157351e+001 5.857139e+001 4.180411e+001 2.980932e+001 1.814147e+000 2.836345e+000 2.071438e+000 4.662004e+000 3.323862e+000 4.225899e+000 4.309225e+000 4.241719e+000 3.893982e+000 3.944201e+000 3.371769e+000 2.977190e+000 1.937762e+000 3.010279e-001 4.427134e-001 3.460087e-001 6.348845e-001 6.379408e-001 6.643986e-001 7.086576e-001 8.084691e-001 8.420845e-001 7.839745e-001 6.287850e-001 5.945624e-001 2.337101e-001
<GCONST> 1.299496e+002
<STATE> 3
<MEAN> 39
 -1.272443e+000 -5.946531e+000 -1.099942e+001 -2.363216e+001 -6.427269e+000 1.290365e+000 -1.030968e+001 -7.836090e+000 -3.370571e+000 2.136354e+000 1.050423e+000 -4.100593e+000 6.050624e+001 -3.739586e-001 -1.327304e+000 1.450737e-001 1.374658e+000 3.868830e-001 -1.100337e+000 -1.024263e+000 8.309209e-001 1.497625e+000 7.561029e-001 -9.176458e-001 -1.095354e+000 6.748746e-001 -3.366053e-001 -1.556229e-001 3.796526e-001 7.258305e-001 -2.519869e-001 -5.626448e-001 2.491443e-001 6.067935e-001 1.783622e-001 -4.266441e-001 -4.829850e-001 1.253536e-001 -1.072153e-001
<VARIANCE> 39
 1.022306e+001 3.486639e+001 4.936603e+001 6.369189e+001 5.220398e+001 6.821754e+001 7.643253e+001 5.878797e+001 6.135949e+001 6.000550e+001 5.986371e+001 4.243363e+001 2.591844e+001 7.917141e-001 3.406868e+000 2.120369e+000 4.199444e+000 3.138963e+000 4.679631e+000 4.497472e+000 4.599625e+000 5.017271e+000 4.079477e+000 3.578784e+000 3.301086e+000 2.160484e+000 2.759570e-001 3.753449e-001 3.825354e-001 6.158452e-001 7.050127e-001 6.626904e-001 7.110742e-001 8.244271e-001 8.081329e-001 7.888521e-001 6.005853e-001 6.391976e-001 2.594506e-001
<GCONST> 1.288900e+002
<STATE> 4
<MEAN> 39
 -3.153228e+000 -9.223216e+000 -8.166808e+000 -1.714986e+001 -7.749537e+000 -6.122449e+000 -1.209542e+001 -2.084943e+000 6.212756e-001 3.990325e-001 -4.471638e+000 -4.527394e+000 6.143178e+001 -8.372849e-001 -6.376024e-001 1.768433e+000 2.028630e+000 -1.298002e+000 -1.953626e+000 5.639831e-001 1.841699e+000 -3.262566e-001 -1.308367e+000 -7.181916e-001 7.338790e-001 1.301479e-002 -1.597638e-001 3.069980e-001 3.530416e-001 -5.645480e-002 -2.703802e-001 3.262879e-001 5.310765e-001 -2.549783e-001 -7.741719e-001 -2.337712e-001 4.405214e-001 3.035182e-001 -3.004475e-001
<VARIANCE> 39
 1.273742e+001 3.835238e+001 6.052475e+001 7.171807e+001 5.332043e+001 9.188792e+001 7.842358e+001 6.695154e+001 6.485522e+001 6.433136e+001 6.454326e+001 4.549955e+001 3.454287e+001 1.178890e+000 2.996259e+000 4.104518e+000 4.265925e+000 5.194786e+000 5.156041e+000 4.715714e+000 5.517273e+000 6.110966e+000 4.311437e+000 4.006350e+000 3.543992e+000 2.260531e+000 2.543317e-001 3.387699e-001 3.763068e-001 7.598537e-001 6.816337e-001 9.129044e-001 8.139436e-001 9.291795e-001 9.679753e-001 8.996099e-001 6.485668e-001 6.951066e-001 2.201081e-001
<GCONST> 1.336763e+002
<TRANSP> 5
 0.000000e+000 1.000000e+000 0.000000e+000 0.000000e+000 0.000000e+000
 0.000000e+000 7.067404e-001 2.932597e-001 0.000000e+000 0.000000e+000
 0.000000e+000 0.000000e+000 4.754542e-001 5.245458e-001 0.000000e+000
 0.000000e+000 0.000000e+000 0.000000e+000 4.758007e-001 5.241993e-001
 0.000000e+000 0.000000e+000 0.000000e+000 0.000000e+000 0.000000e+000
<ENDHMM>
~h "m"
<BEGINHMM>
<NUMSTATES> 5
<STATE> 2
<MEAN> 39
 -4.614080e+000 -3.652960e+000 -5.199659e+000 -4.938828e+000 -6.689381e+000 -7.121747e+000 -6.328156e+000 -7.792584e+000 -1.050942e+001 -2.056624e+000 -2.149593e+000 -5.778731e+000 5.096281e+001 3.754188e-001 1.356575e+000 9.613988e-001 1.650371e+000 9.648447e-002 -1.068866e+000 7.809762e-002 -2.161875e+000 -2.338397e+000 2.921625e-001 1.775968e-001 -7.956755e-001 -8.004665e-001 -2.269455e-001 -4.257613e-001 5.757517e-002 -3.674903e-001 -2.077535e-001 1.404043e-001 -9.725692e-002 5.037452e-001 4.597646e-001 -6.869086e-002 -7.744487e-002 1.808402e-001 4.831614e-001
<VARIANCE> 39
 2.296875e+001 3.146612e+001 3.477634e+001 5.133405e+001 4.628378e+001 5.800098e+001 6.252632e+001 6.331633e+001 6.896780e+001 5.314784e+001 6.745174e+001 4.445642e+001 3.885505e+001 4.671314e+000 2.805315e+000 3.693437e+000 4.052423e+000 4.911530e+000 4.313804e+000 5.977693e+000 5.321360e+000 5.848877e+000 4.864869e+000 5.021381e+000 3.822299e+000 4.805811e+000 3.590367e-001 4.043705e-001 5.966456e-001 6.013837e-001 6.211708e-001 6.284152e-001 7.584272e-001 7.968234e-001 9.642577e-001 6.777447e-001 7.043085e-001 5.412237e-001 3.463635e-001
<GCONST> 1.346145e+002
<STATE> 3
<MEAN> 39
 -4.069966e+000 -3.136684e+000 -3.045174e+000 -3.091885e+000 -7.740840e+000 -8.751881e+000 -7.124401e+000 -1.072322e+001 -1.360330e+001 -1.073550e+000 -2.310404e+000 -7.092642e+000 5.150838e+001 -1.885894e-002 -1.303809e-001 9.478433e-002 -1.541528e-001 -1.355142e-001 8.393569e-002 -1.083439e-001 1.231872e-001 2.543986e-001 -1.770708e-001 -1.201298e-001 1.110700e-001 3.122960e-001 -1.290567e-001 -4.436858e-001 -2.660916e-001 -6.775239e-001 -1.123056e-001 3.751651e-001 -1.677858e-002 7.970556e-001 8.300375e-001 -1.764222e-001 -7.657953e-002 3.180063e-001 3.753866e-001
<VARIANCE> 39
 8.473874e+000 2.311282e+001 3.106110e+001 4.899627e+001 5.070195e+001 6.965729e+001 6.572736e+001 6.665812e+001 6.184302e+001 6.221103e+001 8.554105e+001 5.463098e+001 1.998290e+001 1.205534e+000 1.918944e+000 1.557432e+000 2.199415e+000 2.194393e+000 2.142365e+000 2.575426e+000 2.841340e+000 3.471563e+000 2.515093e+000 2.486209e+000 2.089919e+000 2.324826e+000 3.380580e-001 2.955095e-001 5.070151e-001 5.143227e-001 5.985282e-001 5.736488e-001 6.824324e-001 7.424352e-001 8.718553e-001 6.948668e-001 7.353977e-001 6.064684e-001 2.392270e-001
<GCONST> 1.226674e+002
<STATE> 4
<MEAN> 39
 -4.430735e+000 -5.641253e+000 -4.950661e+000 -6.406608e+000 -8.205974e+000 -7.026667e+000 -7.520478e+000 -6.749388e+000 -8.337271e+000 -3.078919e+000 -2.981782e+000 -5.210641e+000 5.408887e+001 -2.787878e-001 -1.636010e+000 -3.259850e-001 -2.261780e+000 -9.469576e-001 1.009240e+000 -8.640626e-002 2.521453e+000 2.315521e+000 -6.552918e-001 -3.953018e-001 9.533280e-001 1.745861e+000 -2.663004e-001 -1.493591e-001 1.357321e-001 -3.120961e-001 -1.105850e-001 1.893412e-001 1.683149e-001 3.643821e-001 4.934200e-002 1.131382e-001 3.887688e-002 9.752075e-002 9.783902e-002
<VARIANCE> 39
 1.758275e+001 3.537119e+001 3.667713e+001 5.315284e+001 4.785012e+001 6.129860e+001 5.622170e+001 6.356913e+001 7.297881e+001 4.922074e+001 6.255808e+001 4.043316e+001 4.467387e+001 2.643277e+000 3.364432e+000 5.738249e+000 5.229845e+000 5.942682e+000 4.990315e+000 5.611363e+000 5.464201e+000 6.639175e+000 5.149029e+000 5.444299e+000 4.087409e+000 3.988092e+000 3.630469e-001 4.940298e-001 5.793954e-001 6.837509e-001 6.659219e-001 6.714085e-001 7.359989e-001 9.048584e-001 1.172088e+000 6.751162e-001 6.776291e-001 5.278376e-001 4.251688e-001
<GCONST> 1.361160e+002
<TRANSP> 5
 0.000000e+000 1.000000e+000 0.000000e+000 0.000000e+000 0.000000e+000
 0.000000e+000 4.427544e-001 5.572456e-001 0.000000e+000 0.000000e+000
 0.000000e+000 0.000000e+000 6.681510e-001 3.318490e-001 0.000000e+000
 0.000000e+000 0.000000e+000 0.000000e+000 4.203755e-001 5.796245e-001
 0.000000e+000 0.000000e+000 0.000000e+000 0.000000e+000 0.000000e+000
<ENDHMM>
~h "n"
<BEGINHMM>
<NUMSTATES> 5
<STATE> 2
<MEAN> 39
 -4.385148e+000 -7.003876e+000 -3.078103e+000 -8.670190e+000 -1.152108e+001 -7.792049e+000 -6.509720e+000 -3.029920e+000 -7.699683e+000 -2.976317e+000 -5.251313e+000 -4.525210e+000 5.551623e+001 1.714911e-001 1.743637e+000 9.779015e-002 1.650447e+000 9.876506e-002 -6.563677e-001 1.144592e+000 -2.782491e+000 -1.335443e+000 1.149573e+000 -7.277464e-001 -2.418177e-001 -1.918404e+000 -1.656399e-001 7.242475e-003 2.888142e-002 -1.013063e-001 -3.315249e-002 1.235209e-001 7.672726e-002 -3.816661e-002 8.612628e-002 2.693265e-002 2.244467e-002 1.101893e-001 7.023583e-002
<VARIANCE> 39
 1.111379e+001 3.539367e+001 4.550035e+001 6.154493e+001 5.483412e+001 5.484186e+001 5.724153e+001 8.152321e+001 8.035581e+001 6.140078e+001 6.145195e+001 4.759825e+001 3.090134e+001 1.367018e+000 2.576259e+000 4.170430e+000 3.635726e+000 4.601348e+000 4.942713e+000 4.978317e+000 6.780192e+000 6.055443e+000 4.591142e+000 4.093543e+000 3.508137e+000 2.165637e+000 2.076004e-001 3.110345e-001 4.064778e-001 4.795100e-001 5.659791e-001 5.441989e-001 6.138769e-001 9.716921e-001 7.384477e-001 6.316229e-001 5.500343e-001 4.634829e-001 2.728865e-001
<GCONST> 1.298479e+002
<STATE> 3
<MEAN> 39
 -4.123959e+000 -2.357323e+000 -2.675810e+000 -5.025649e+000 -1.224788e+001 -9.001053e+000 -2.466390e+000 -1.114288e+001 -1.115917e+001 7.023668e-001 -7.295397e+000 -4.377536e+000 5.118747e+001 -1.919609e-001 8.939643e-001 1.357692e-001 5.590470e-001 1.721166e-001 8.470699e-003 2.573406e-001 -8.980137e-001 -3.438880e-001 1.043652e-001 -2.006457e-001 4.116063e-002 -8.736417e-001 -3.225220e-001 -5.258723e-001 -1.865283e-002 -5.196968e-001 2.299402e-001 2.847853e-001 -5.107653e-001 1.123580e+000 5.951115e-001 -5.125475e-001 3.119384e-001 1.214272e-001 4.903918e-001
<VARIANCE> 39
 8.635831e+000 2.901565e+001 2.991900e+001 5.193078e+001 4.694236e+001 5.064832e+001 5.626777e+001 7.322237e+001 6.591904e+001 6.114771e+001 6.733341e+001 5.483277e+001 2.273379e+001 9.261637e-001 2.376699e+000 2.004151e+000 2.408868e+000 2.616251e+000 2.706440e+000 3.371266e+000 5.394244e+000 3.828365e+000 3.232216e+000 2.616830e+000 2.228948e+000 2.018829e+000 3.028975e-001 4.645148e-001 5.651165e-001 6.175270e-001 7.525312e-001 7.498969e-001 7.995453e-001 1.047818e+000 1.043567e+000 7.871415e-001 7.340500e-001 6.351885e-001 3.574109e-001
<GCONST> 1.267377e+002
<STATE> 4
<MEAN> 39
 -6.728220e+000 -3.536981e+000 -3.331499e+000 -6.029100e+000 -9.909020e+000 -7.261114e+000 -4.790457e+000 -6.671899e+000 -8.007476e+000 -1.966294e+000 -6.257144e+000 -3.795685e+000 5.026027e+001 -9.958767e-001 -6.434395e-001 -2.869930e-001 -8.319486e-001 8.203326e-001 7.413443e-001 -6.615334e-001 1.640422e+000 1.087637e+000 -6.333366e-001 5.727282e-001 2.381206e-001 4.649603e-001 -2.414055e-001 -4.018921e-001 -1.788774e-001 -4.133986e-001 4.342097e-002 2.146376e-001 -5.632844e-003 5.435135e-001 3.057677e-001 -1.316916e-002 2.165259e-001 1.208514e-001 4.583178e-001
<VARIANCE> 39
 2.636682e+001 5.097057e+001 3.908271e+001 5.656882e+001 5.230819e+001 4.955898e+001 5.594056e+001 7.772266e+001 6.872328e+001 5.607537e+001 5.361043e+001 4.522447e+001 5.810974e+001 3.760394e+000 4.314579e+000 3.991848e+000 4.951132e+000 5.176187e+000 4.673978e+000 5.531732e+000 7.385779e+000 6.211191e+000 5.000278e+000 4.472564e+000 3.722319e+000 5.267843e+000 6.050049e-001 8.213671e-001 5.988440e-001 7.739890e-001 8.450024e-001 7.986924e-001 9.245694e-001 1.388203e+000 1.174426e+000 8.780584e-001 7.617718e-001 6.294058e-001 7.599829e-001
<GCONST> 1.409176e+002
<TRANSP> 5
 0.000000e+000 1.000000e+000 0.000000e+000 0.000000e+000 0.000000e+000
 0.000000e+000 4.169968e-001 5.830032e-001 0.000000e+000 0.000000e+000
 0.000000e+000 0.000000e+000 5.667620e-001 4.332379e-001 0.000000e+000
 0.000000e+000 0.000000e+000 0.000000e+000 4.834711e-001 5.165288e-001
 0.000000e+000 0.000000e+000 0.000000e+000 0.000000e+000 0.000000e+000
<ENDHMM>
~h "p"
<BEGINHMM>
<NUMSTATES> 5
<STATE> 2
<MEAN> 39
 -1.105290e+001 6.382059e-001 -3.914220e+000 -3.017206e+000 -3.047439e+000 -2.708774e+000 -5.003304e+000 -5.067069e+000 -5.811820e+000 -2.638607e+000 -2.827559e+000 -2.992421e+000 3.989661e+001 -3.310874e+000 9.304140e-001 3.398547e-001 2.133181e+000 1.479782e+000 1.384587e+000 1.558858e+000 7.139154e-001 8.761354e-001 2.633134e-001 9.687084e-002 5.429782e-001 -4.552901e+000 -1.528014e-001 -1.003966e+000 -2.685253e-001 -6.480705e-001 -3.946589e-001 -1.645093e-001 -7.099093e-003 5.245097e-001 4.690366e-001 3.787018e-001 2.351043e-001 1.620702e-001 1.254288e+000
<VARIANCE> 39
 4.474570e+001 2.436492e+001 2.710435e+001 4.100396e+001 2.719982e+001 2.878516e+001 3.247143e+001 3.309903e+001 3.668859e+001 3.073668e+001 2.990053e+001 2.346963e+001 5.003577e+001 5.235030e+000 6.038507e+000 5.422051e+000 6.910878e+000 4.655345e+000 5.343379e+000 5.011313e+000 5.366798e+000 5.784018e+000 4.861797e+000 4.525125e+000 3.305992e+000 9.027843e+000 9.890472e-001 7.587042e-001 7.497724e-001 1.061762e+000 8.390918e-001 7.844270e-001 8.188032e-001 8.570078e-001 8.636582e-001 7.683377e-001 7.074949e-001 5.619537e-001 1.530482e+000
<GCONST> 1.364524e+002
<STATE> 3
<MEAN> 39
 -1.949097e+001 -2.306091e+000 -5.226073e+000 -1.295891e+000 -1.498081e+000 1.470952e-001 -1.063910e+000 7.980645e-002 -2.798405e-001 1.004635e+000 2.168620e-002 2.163029e-002 3.301431e+001 -2.190557e-001 -1.076703e+000 -4.699041e-001 -5.193778e-001 -1.682958e-001 -1.995530e-001 2.202842e-001 5.173284e-001 6.728805e-001 4.053344e-001 3.087887e-001 2.960177e-001 1.801196e+000 8.173317e-001 -3.018123e-001 -5.697180e-002 -5.639536e-001 -2.805121e-001 -4.520745e-001 -3.643658e-001 -2.229632e-001 -2.402178e-001 -1.940434e-001 -1.679249e-001 -1.780761e-001 1.872457e+000
<VARIANCE> 39
 4.750306e+000 6.598795e+000 6.725506e+000 9.438011e+000 9.734404e+000 1.173867e+001 1.196920e+001 1.420959e+001 1.386543e+001 1.388407e+001 1.204592e+001 1.161173e+001 1.760193e+001 2.732638e+000 2.085175e+000 1.637577e+000 2.467262e+000 1.796463e+000 2.487719e+000 2.388097e+000 2.840039e+000 2.939758e+000 2.405955e+000 2.098794e+000 1.861529e+000 1.346595e+001 6.016194e-001 3.667016e-001 4.109866e-001 5.345154e-001 4.446723e-001 5.383384e-001 5.197775e-001 4.991456e-001 5.187059e-001 4.658630e-001 4.324475e-001 3.609515e-001 1.176730e+000
<GCONST> 1.057631e+002
<STATE> 4
<MEAN> 39
 -1.445544e+001 -8.927953e+000 -7.834526e+000 -7.444745e+000 -3.224122e+000 -3.239531e+000 -1.909712e+000 -3.226409e-001 -3.151100e-001 2.106354e-001 -1.277572e+000 -8.111356e-001 5.367369e+001 2.034338e+000 -7.859138e-001 -5.867321e-001 -1.370609e+000 -6.744382e-001 -6.083452e-001 -7.423626e-001 -2.926521e-001 -4.960669e-001 -4.624522e-001 -4.869389e-001 -3.611878e-001 2.778012e+000 4.102069e-001 3.222618e-001 2.251977e-002 -2.700946e-002 -2.037595e-001 7.980804e-003 -3.275680e-001 -1.271227e-001 -2.906069e-001 -1.521316e-001 -6.758995e-002 -9.299399e-002 -6.904474e-001
<VARIANCE> 39
 2.393758e+001 2.534863e+001 2.903981e+001 3.505502e+001 2.992099e+001 3.344173e+001 3.422882e+001 3.134084e+001 2.984113e+001 2.539428e+001 2.378358e+001 1.883004e+001 4.366923e+001 4.734536e+000 3.766346e+000 3.471271e+000 4.258362e+000 4.065209e+000 4.588452e+000 4.848776e+000 4.141459e+000 4.203136e+000 3.208338e+000 3.105572e+000 2.346416e+000 1.030991e+001 6.030113e-001 6.060039e-001 5.178103e-001 6.612970e-001 6.898433e-001 7.304126e-001 7.743122e-001 8.031906e-001 8.130775e-001 6.608713e-001 6.136549e-001 4.734679e-001 1.445978e+000
<GCONST> 1.291027e+002
<TRANSP> 5
 0.000000e+000 1.000000e+000 0.000000e+000 0.000000e+000 0.000000e+000
 0.000000e+000 5.451331e-001 4.548669e-001 0.000000e+000 0.000000e+000
 0.000000e+000 0.000000e+000 7.253702e-001 2.746298e-001 0.000000e+000
 0.000000e+000 0.000000e+000 0.000000e+000 7.521812e-001 2.478188e-001
 0.000000e+000 0.000000e+000 0.000000e+000 0.000000e+000 0.000000e+000
<ENDHMM>
~h "r"
<BEGINHMM>
<NUMSTATES> 5
<STATE> 2
<MEAN> 39
 2.174051e+000 -9.859345e+000 -1.440466e+001 -6.753753e+000 -4.213115e+000 -1.079163e+001 -1.628800e+001 -2.158304e-001 -1.891601e+000 -3.187977e+000 -1.099386e+000 3.020494e-001 5.658000e+001 1.156162e+000 -1.721283e-001 -9.570330e-001 1.121661e-001 3.306527e-001 -3.917965e-001 -1.275084e+000 1.967113e-001 5.474939e-001 -9.842367e-002 -1.790041e-001 9.989515e-002 2.250548e-001 -4.871289e-001 -2.094201e-001 4.988281e-001 5.645312e-002 -3.796312e-001 1.392931e-002 4.460678e-001 2.604353e-001 -5.297761e-002 -2.398854e-003 2.606169e-003 -7.786844e-002 5.088172e-002
<VARIANCE> 39
 1.840254e+001 3.475270e+001 6.785850e+001 4.318661e+001 5.602787e+001 7.276849e+001 8.555090e+001 9.348775e+001 7.802123e+001 4.433250e+001 3.978893e+001 3.511998e+001 2.873108e+001 3.773910e+000 2.623435e+000 3.702810e+000 2.759372e+000 3.967776e+000 5.016969e+000 6.233921e+000 5.073249e+000 4.373438e+000 3.661268e+000 2.871418e+000 2.390874e+000 2.162974e+000 4.304432e-001 4.345015e-001 4.430891e-001 4.200593e-001 4.968835e-001 6.653851e-001 8.958214e-001 8.309466e-001 6.298450e-001 5.488199e-001 4.647345e-001 4.164191e-001 2.994731e-001
<GCONST> 1.300329e+002
<STATE> 3
<MEAN> 39
 2.637820e+000 -1.429370e+001 -1.389213e+001 -5.337974e+000 -5.825033e+000 -1.416738e+001 -1.922806e+001 5.694637e+000 1.025308e+000 -4.133984e+000 -2.048264e+000 -3.568590e-002 5.974911e+001 -4.497414e-001 -5.147614e-001 1.445617e+000 5.371765e-001 -1.276094e+000 -6.845636e-001 8.387673e-001 9.572031e-001 -3.803183e-001 -6.018685e-001 -1.139734e-001 -4.706342e-002 1.511777e-001 -6.148019e-001 2.738897e-001 6.625552e-001 -1.622205e-001 -2.828133e-001 4.613473e-001 9.605965e-001 -3.494089e-001 -5.445852e-001 5.568932e-002 1.516414e-001 -1.123777e-001 -2.580102e-001
<VARIANCE> 39
 1.171207e+001 2.555573e+001 7.081541e+001 4.706370e+001 6.800878e+001 7.891972e+001 1.147035e+002 8.525848e+001 9.093205e+001 5.275653e+001 4.375285e+001 3.531021e+001 2.104865e+001 1.447888e+000 3.173855e+000 3.087049e+000 2.793623e+000 4.011285e+000 4.208357e+000 5.129982e+000 6.080304e+000 4.106660e+000 3.415023e+000 3.248799e+000 2.396605e+000 3.038947e+000 3.952607e-001 2.774367e-001 3.771241e-001 4.293632e-001 5.613124e-001 6.406071e-001 8.827788e-001 6.923770e-001 6.392046e-001 5.618184e-001 4.463599e-001 4.017906e-001 2.413207e-001
<GCONST> 1.281720e+002
<STATE> 4
<MEAN> 39
 -6.192608e-001 -1.398050e+001 -8.854805e+000 -4.465292e+000 -9.238768e+000 -1.463190e+001 -1.175157e+001 6.146969e+000 -2.969311e+000 -5.293700e+000 -2.268476e+000 -4.181774e-001 5.816473e+001 -1.491478e+000 5.928707e-001 2.240190e+000 -1.261206e-001 -1.074211e+000 9.256019e-001 2.141526e+000 -8.691190e-001 -1.288002e+000 1.126978e-001 1.167143e-001 -4.478202e-001 -7.990842e-001 -3.779550e-001 3.894888e-001 5.644068e-002 -3.385049e-001 2.620525e-001 5.823109e-001 1.237328e-001 -5.552960e-001 2.731856e-004 3.121708e-001 -1.513736e-002 -1.578182e-001 -2.599281e-001
<VARIANCE> 39
 1.751792e+001 3.591346e+001 7.063332e+001 5.908627e+001 8.270830e+001 9.564430e+001 1.068828e+002 8.067895e+001 1.004489e+002 6.024527e+001 5.281046e+001 3.809731e+001 4.682476e+001 1.983296e+000 4.068702e+000 3.629420e+000 4.577657e+000 5.343961e+000 4.206068e+000 5.780322e+000 5.680337e+000 4.717669e+000 3.837102e+000 3.711539e+000 2.924039e+000 5.090462e+000 4.191927e-001 4.214864e-001 4.130820e-001 5.423653e-001 6.991137e-001 9.449548e-001 9.727461e-001 8.758635e-001 7.343585e-001 6.486168e-001 5.966552e-001 4.979132e-001 3.300582e-001
<GCONST> 1.361997e+002
<TRANSP> 5
 0.000000e+000 1.000000e+000 0.000000e+000 0.000000e+000 0.000000e+000
 0.000000e+000 5.904882e-001 4.095118e-001 0.000000e+000 0.000000e+000
 0.000000e+000 0.000000e+000 4.843713e-001 5.156287e-001 0.000000e+000
 0.000000e+000 0.000000e+000 0.000000e+000 3.875958e-001 6.124042e-001
 0.000000e+000 0.000000e+000 0.000000e+000 0.000000e+000 0.000000e+000
<ENDHMM>
~h "s"
<BEGINHMM>
<NUMSTATES> 5
<STATE> 2
<MEAN> 39
 -2.211057e+001 8.427854e-003 -5.376426e+000 -8.116460e+000 -2.372461e+000 -7.334237e+000 -1.985618e+000 5.486135e-002 -2.290693e+000 -1.753862e+000 -2.878934e+000 -5.369837e-001 5.808135e+001 -4.612332e+000 1.442047e+000 -9.388781e-001 2.853276e-001 1.859222e+000 1.002579e+000 1.450346e+000 8.641304e-001 4.831378e-001 2.908059e-001 8.376766e-001 7.007086e-001 6.078692e-002 5.383773e-001 -5.133337e-001 -7.476113e-002 -1.592405e-001 -3.781003e-001 5.760715e-002 -3.587314e-001 1.021912e-002 -8.315612e-002 8.759522e-002 7.592276e-005 -8.785081e-002 -1.017459e-002
<VARIANCE> 39
 6.904330e+001 2.867144e+001 4.451911e+001 3.347425e+001 4.387151e+001 4.100786e+001 4.025562e+001 3.903820e+001 3.191617e+001 2.976090e+001 2.558090e+001 2.034401e+001 2.280083e+001 4.328525e+000 4.045586e+000 4.558711e+000 4.954120e+000 4.350749e+000 4.857746e+000 4.828439e+000 4.288128e+000 4.209391e+000 3.968670e+000 3.845262e+000 2.818960e+000 2.052273e+000 1.208472e+000 5.902531e-001 6.409601e-001 6.780208e-001 7.289876e-001 7.900118e-001 7.883085e-001 7.590182e-001 6.239972e-001 6.534021e-001 5.959315e-001 4.842733e-001 4.123951e-001
<GCONST> 1.303841e+002
<STATE> 3
<MEAN> 39
 -3.018473e+001 1.472328e+000 -9.343976e+000 -7.827068e+000 -3.844402e-002 -5.154209e+000 -1.767724e-001 1.571533e+000 -1.560839e+000 -2.871909e-001 -1.169564e+000 7.654961e-001 5.819835e+001 -8.229161e-002 -9.658406e-002 -7.467055e-003 -1.174912e-001 2.146165e-002 8.316512e-003 -7.222496e-002 4.683344e-002 5.438568e-002 5.705219e-002 -3.858202e-003 -9.282240e-003 -3.223361e-002 6.745476e-001 -2.322233e-001 2.719876e-001 -2.664710e-002 -2.128689e-001 -1.502198e-001 -2.157233e-001 -1.331369e-001 -3.819747e-002 -6.720369e-002 -1.134474e-001 -1.111489e-001 -1.647853e-001
<VARIANCE> 39
 8.437708e+000 2.077252e+001 3.041711e+001 3.807699e+001 3.472783e+001 3.164948e+001 2.846244e+001 2.515440e+001 1.957042e+001 1.704190e+001 1.616339e+001 1.332074e+001 1.666746e+001 1.279531e+000 1.343009e+000 1.323694e+000 1.366622e+000 1.535386e+000 1.733613e+000 1.620133e+000 1.635807e+000 1.555707e+000 1.510846e+000 1.355234e+000 1.239103e+000 7.627512e-001 4.097366e-001 2.459830e-001 2.846566e-001 3.293867e-001 3.562728e-001 4.030904e-001 3.970356e-001 3.751562e-001 3.609229e-001 3.433654e-001 3.192025e-001 2.775242e-001 2.072332e-001
<GCONST> 1.010670e+002
<STATE> 4
<MEAN> 39
 -2.499030e+001 -2.009868e+000 -5.836422e+000 -8.963491e+000 -1.100899e+000 -5.800870e+000 -2.551221e+000 1.299397e+000 -1.054364e+000 -6.086168e-001 -1.933550e+000 -2.842064e-001 5.532417e+001 3.380333e+000 -1.195395e+000 9.966556e-001 1.558364e-001 -1.193281e+000 -1.981661e-001 -1.281248e+000 -7.620404e-001 -1.801919e-001 -9.117981e-002 -3.329754e-001 -5.637638e-001 -1.361891e+000 6.211919e-001 -1.763646e-001 -4.885957e-002 7.005808e-002 -3.437928e-001 5.890860e-002 -1.957979e-001 -1.582580e-001 -1.522153e-001 2.716209e-002 9.348983e-003 -8.252655e-002 -1.514871e-001
<VARIANCE> 39
 4.293488e+001 2.956252e+001 3.840678e+001 3.329887e+001 4.087368e+001 4.193170e+001 4.019962e+001 3.362245e+001 2.890613e+001 2.415912e+001 2.225929e+001 1.916639e+001 4.885756e+001 5.701689e+000 2.897573e+000 3.832129e+000 4.761003e+000 4.741424e+000 5.577871e+000 5.084047e+000 3.948099e+000 3.774987e+000 2.986842e+000 3.209276e+000 2.448267e+000 6.720280e+000 7.685036e-001 5.599338e-001 5.995429e-001 6.895112e-001 7.176352e-001 8.162352e-001 9.395895e-001 7.042640e-001 6.508109e-001 5.761165e-001 5.771086e-001 4.475989e-001 1.056002e+000
<GCONST> 1.305440e+002
<TRANSP> 5
 0.000000e+000 1.000000e+000 0.000000e+000 0.000000e+000 0.000000e+000
 0.000000e+000 6.331701e-001 3.668299e-001 0.000000e+000 0.000000e+000
 0.000000e+000 0.000000e+000 8.331020e-001 1.668980e-001 0.000000e+000
 0.000000e+000 0.000000e+000 0.000000e+000 6.511115e-001 3.488885e-001
 0.000000e+000 0.000000e+000 0.000000e+000 0.000000e+000 0.000000e+000
<ENDHMM>
~h "t"
<BEGINHMM>
<NUMSTATES> 5
<STATE> 2
<MEAN> 39
 -1.139270e+001 -3.538501e+000 -2.710031e+000 -5.189059e+000 -8.408712e+000 -7.224939e+000 -6.642579e+000 -3.495440e+000 -3.622611e+000 -1.868098e+000 -3.866825e+000 -2.691986e+000 4.653101e+001 -1.736895e+000 8.160649e-001 -7.429719e-002 1.427415e+000 1.496201e+000 1.052655e+000 8.557529e-001 1.621204e-002 3.596838e-001 6.730105e-002 3.379903e-001 3.238596e-001 -2.976709e+000 -3.998791e-002 -5.742963e-001 -2.204961e-001 -5.628123e-001 -7.409734e-002 1.820130e-001 1.314828e-001 3.762675e-001 4.989889e-002 1.231800e-001 2.086268e-001 1.104490e-001 8.672692e-001
<VARIANCE> 39
 6.246533e+001 5.307725e+001 5.845284e+001 6.167176e+001 6.669933e+001 5.265773e+001 5.322277e+001 5.704667e+001 6.427677e+001 4.868508e+001 4.400838e+001 3.701464e+001 9.296594e+001 5.646169e+000 6.075126e+000 5.507856e+000 7.070431e+000 6.952147e+000 6.894029e+000 6.253549e+000 7.120721e+000 6.431552e+000 5.061224e+000 5.205226e+000 3.852034e+000 1.059619e+001 6.073860e-001 9.009550e-001 7.233789e-001 1.178306e+000 1.203244e+000 1.007107e+000 9.861173e-001 1.095194e+000 1.049867e+000 9.581093e-001 8.699265e-001 6.678982e-001 1.835508e+000
<GCONST> 1.474138e+002
<STATE> 3
<MEAN> 39
 -1.780518e+001 -4.657421e+000 -4.336473e+000 -3.856804e+000 -3.577992e+000 -1.908820e+000 -2.727060e+000 -7.091844e-001 -1.362618e+000 -5.417429e-002 -1.009925e+000 -6.853384e-001 4.066133e+001 -5.323330e-001 -1.061105e+000 -3.686015e-001 -1.028886e+000 -1.153433e-001 5.861440e-002 3.799273e-001 5.500332e-001 2.687305e-001 2.342652e-001 4.683222e-001 4.881364e-001 1.803777e+000 4.188602e-001 -9.210052e-002 7.243931e-002 -5.884480e-001 -5.502176e-001 -5.711385e-001 -2.576906e-001 -3.362057e-002 -2.417038e-001 -1.351070e-001 -1.697346e-001 -6.902231e-002 1.491366e+000
<VARIANCE> 39
 4.682026e+001 3.847466e+001 2.945029e+001 3.976444e+001 3.974033e+001 3.521074e+001 3.272873e+001 2.911037e+001 2.933399e+001 2.569397e+001 2.280664e+001 1.925717e+001 1.187043e+002 3.895475e+000 3.944449e+000 3.461492e+000 5.671520e+000 4.064818e+000 4.311325e+000 3.916818e+000 4.312606e+000 4.010027e+000 3.397578e+000 3.071266e+000 2.526683e+000 1.457946e+001 6.753672e-001 8.433702e-001 7.284582e-001 1.016966e+000 9.329819e-001 8.601719e-001 7.689973e-001 8.635449e-001 7.643963e-001 6.700346e-001 6.532295e-001 4.960556e-001 2.292494e+000
<GCONST> 1.341105e+002
<STATE> 4
<MEAN> 39
 -1.765013e+001 -7.439939e+000 -4.605893e+000 -9.247242e+000 -6.796231e+000 -6.258165e+000 -2.247676e+000 2.187791e-001 -2.027740e+000 -1.060008e+000 -1.664376e+000 1.093686e-001 5.507787e+001 1.383793e+000 -2.649460e-001 2.501657e-001 -3.358198e-001 -8.736236e-001 -9.322329e-001 -5.329339e-001 8.731285e-002 -3.782338e-001 -3.842016e-001 -4.437919e-001 -2.050582e-001 1.517168e+000 5.921991e-001 4.016778e-002 6.707712e-002 2.138010e-001 -9.665731e-002 5.284998e-002 -3.266265e-001 -9.608431e-002 -1.191734e-001 -2.516668e-002 -7.326882e-002 -1.932277e-001 -5.402043e-001
<VARIANCE> 39
 6.235722e+001 3.768857e+001 4.080639e+001 4.320998e+001 4.389838e+001 3.868779e+001 4.645456e+001 3.849603e+001 3.533754e+001 3.058155e+001 2.861826e+001 2.322325e+001 7.845715e+001 6.564777e+000 3.059134e+000 3.686499e+000 4.823507e+000 4.511722e+000 4.709610e+000 5.042171e+000 4.219488e+000 3.877942e+000 3.373672e+000 3.353013e+000 2.655535e+000 9.913716e+000 7.897317e-001 6.714994e-001 6.826149e-001 9.941526e-001 7.871037e-001 8.008128e-001 8.654316e-001 8.048543e-001 7.091674e-001 6.494867e-001 6.590638e-001 5.229907e-001 1.718882e+000
<GCONST> 1.355876e+002
<TRANSP> 5
 0.000000e+000 1.000000e+000 0.000000e+000 0.000000e+000 0.000000e+000
 0.000000e+000 4.435932e-001 5.564069e-001 0.000000e+000 0.000000e+000
 0.000000e+000 0.000000e+000 5.237608e-001 4.762392e-001 0.000000e+000
 0.000000e+000 0.000000e+000 0.000000e+000 6.194382e-001 3.805618e-001
 0.000000e+000 0.000000e+000 0.000000e+000 0.000000e+000 0.000000e+000
<ENDHMM>
~h "v"
<BEGINHMM>
<NUMSTATES> 5
<STATE> 2
<MEAN> 39
 -2.878415e+000 -6.641360e+000 -7.999400e+000 -8.867566e+000 -7.412020e+000 -7.448148e+000 -1.143521e+001 -5.287091e+000 -3.239647e+000 -3.573213e-001 -1.019187e+000 -3.360357e+000 5.543874e+001 -1.647331e+000 2.321749e+000 -1.146446e-001 1.399826e+000 1.555894e+000 7.389541e-001 7.829786e-001 -1.286736e+000 -7.528549e-001 -4.786099e-001 -5.285111e-002 2.554742e-001 -2.244991e+000 -6.238900e-001 -9.101785e-002 3.492555e-001 -4.941528e-003 -1.205231e-001 1.283669e-001 3.831828e-001 4.131948e-001 3.098725e-002 -1.618643e-001 -2.622719e-001 2.575652e-002 1.393068e-001
<VARIANCE> 39
 2.675423e+001 2.370122e+001 3.712634e+001 4.004704e+001 2.707613e+001 4.690565e+001 4.356472e+001 3.813295e+001 3.805573e+001 3.748752e+001 4.300145e+001 3.115326e+001 2.686646e+001 2.910417e+000 2.704446e+000 3.417504e+000 4.012628e+000 3.524252e+000 4.154782e+000 5.069441e+000 5.187276e+000 4.205101e+000 3.748171e+000 3.522446e+000 2.821112e+000 2.360461e+000 3.962551e-001 3.491766e-001 3.500549e-001 4.225040e-001 4.676968e-001 4.510562e-001 5.399383e-001 5.293310e-001 5.125051e-001 4.878576e-001 4.660246e-001 4.326363e-001 2.765007e-001
<GCONST> 1.233269e+002
<STATE> 3
<MEAN> 39
 -8.131091e+000 -1.730742e+000 -6.347479e+000 -5.966835e+000 -4.940343e+000 -5.648980e+000 -8.769236e+000 -7.030332e+000 -5.915176e+000 -2.488537e+000 -2.682844e+000 -2.972901e+000 5.083941e+001 -2.383015e+000 1.097205e+000 5.917611e-001 1.184391e+000 9.547812e-001 6.904462e-001 1.152560e+000 1.321374e-001 -2.112041e-001 -5.892901e-001 -4.917301e-001 1.218136e-001 -1.236439e+000 2.454015e-001 -8.677501e-001 -5.835036e-003 -4.936624e-001 -4.833945e-001 -2.165742e-001 -9.006965e-002 6.103097e-001 3.697296e-001 2.222459e-001 3.649113e-002 1.197335e-002 8.156399e-001
<VARIANCE> 39
 3.101735e+001 1.902933e+001 2.699211e+001 2.861718e+001 2.064509e+001 3.227992e+001 2.859624e+001 2.670903e+001 2.684782e+001 2.750906e+001 2.931953e+001 2.249160e+001 3.295998e+001 3.973879e+000 2.269066e+000 2.529532e+000 3.190458e+000 2.492550e+000 3.505470e+000 3.487652e+000 3.213245e+000 2.777940e+000 2.825597e+000 2.693821e+000 2.050872e+000 2.285617e+000 4.934746e-001 4.120601e-001 5.342402e-001 5.372875e-001 5.440946e-001 5.742949e-001 7.583545e-001 6.926460e-001 6.251122e-001 5.877730e-001 5.118818e-001 4.327737e-001 4.438479e-001
<GCONST> 1.199378e+002
<STATE> 4
<MEAN> 39
 -1.353542e+001 -3.595848e+000 -6.311174e+000 -5.409735e+000 -4.491364e+000 -4.736678e+000 -5.458998e+000 -3.457321e+000 -3.742638e+000 -2.243003e+000 -3.050946e+000 -2.159431e+000 5.094875e+001 5.311747e-001 -9.389350e-001 -3.574922e-001 -8.248607e-001 -5.868125e-001 -4.449282e-001 -7.344475e-002 6.376904e-001 4.526191e-001 3.074265e-001 1.839550e-001 1.120624e-001 1.104306e+000 9.193882e-001 -4.191062e-001 -1.066459e-001 -5.122588e-001 -4.077484e-001 -2.569098e-001 -3.855566e-001 9.270321e-002 8.149025e-003 1.205813e-001 1.052500e-001 -4.319179e-002 4.773971e-001
<VARIANCE> 39
 5.700487e+001 2.515222e+001 2.910649e+001 2.982015e+001 2.281388e+001 2.991582e+001 3.314955e+001 2.912287e+001 2.715057e+001 2.448780e+001 2.267813e+001 1.848380e+001 4.695722e+001 8.005966e+000 2.972165e+000 2.961700e+000 3.951512e+000 3.360304e+000 3.814621e+000 4.374467e+000 3.491715e+000 3.167376e+000 2.607692e+000 2.498083e+000 2.040700e+000 4.563393e+000 9.253594e-001 6.731614e-001 6.308957e-001 7.674577e-001 6.469855e-001 7.848477e-001 8.353105e-001 7.758291e-001 7.101921e-001 6.070516e-001 5.692190e-001 4.302318e-001 7.209322e-001
<GCONST> 1.267759e+002
<TRANSP> 5
 0.000000e+000 1.000000e+000 0.000000e+000 0.000000e+000 0.000000e+000
 0.000000e+000 3.499149e-001 6.500852e-001 0.000000e+000 0.000000e+000
 0.000000e+000 0.000000e+000 4.156127e-001 5.843872e-001 0.000000e+000
 0.000000e+000 0.000000e+000 0.000000e+000 6.274553e-001 3.725448e-001
 0.000000e+000 0.000000e+000 0.000000e+000 0.000000e+000 0.000000e+000
<ENDHMM>
~h "w"
<BEGINHMM>
<NUMSTATES> 5
<STATE> 2
<MEAN> 39
 -7.170927e+000 -5.421546e+000 -9.613897e+000 -9.729152e+000 -5.106337e+000 -2.243711e+000 -7.162768e+000 -4.762176e+000 -6.844567e+000 -6.865214e-001 -5.939794e-001 -1.910328e+000 4.914021e+001 2.563448e+000 1.886599e+000 -5.540646e-001 -1.982674e+000 -1.156775e+000 1.025134e+000 6.973450e-001 -6.564173e-001 -1.492232e+000 -8.040453e-001 1.198444e-001 2.438320e-001 -6.381381e-001 3.354165e-002 4.108904e-002 4.141174e-001 -4.139118e-001 -7.599943e-001 -2.363262e-001 1.339501e-001 4.242232e-001 4.372327e-002 -1.987548e-001 -1.357946e-001 -2.062786e-003 5.437810e-001
<VARIANCE> 39
 5.895818e+001 4.726121e+001 2.952953e+001 4.839762e+001 3.984991e+001 3.779798e+001 5.411820e+001 4.113607e+001 6.065342e+001 3.666522e+001 3.875348e+001 2.624392e+001 4.952285e+001 5.100325e+000 3.405984e+000 4.532987e+000 4.779316e+000 5.612563e+000 5.053759e+000 5.896320e+000 4.855043e+000 4.490877e+000 4.043149e+000 3.364916e+000 2.784698e+000 4.967228e+000 4.940104e-001 8.588290e-001 6.415162e-001 7.916534e-001 8.780619e-001 7.697451e-001 1.108419e+000 8.552879e-001 8.699932e-001 8.740315e-001 6.232635e-001 5.307746e-001 5.602132e-001
<GCONST> 1.358640e+002
<STATE> 3
<MEAN> 39
 2.255721e+000 1.381956e+000 -8.921560e+000 -1.987080e+001 -1.598611e+001 -2.045286e+000 -4.664936e+000 -2.930730e+000 -9.539310e+000 -4.804759e+000 -1.872211e+000 -2.163085e+000 5.139271e+001 8.044239e-001 -3.245108e-001 -2.230737e-001 -1.639979e+000 -1.089480e+000 5.254936e-001 8.442692e-002 2.141461e-001 1.530779e-001 1.236012e-001 3.098215e-001 1.085732e-001 1.102940e+000 -4.389977e-001 -7.159739e-001 -6.884818e-002 3.416509e-001 5.426819e-001 5.390812e-002 -2.897936e-001 -3.785637e-002 2.780403e-001 4.142074e-001 2.041519e-001 -1.550181e-002 3.134333e-001
<VARIANCE> 39
 7.095393e+000 2.325029e+001 2.706036e+001 4.412105e+001 4.498542e+001 4.238558e+001 3.660961e+001 4.245405e+001 5.180795e+001 3.770479e+001 3.804734e+001 2.668460e+001 1.798198e+001 2.071098e+000 3.056698e+000 2.070621e+000 3.756868e+000 4.470621e+000 3.706018e+000 4.160599e+000 3.640341e+000 4.144300e+000 3.933429e+000 3.569635e+000 2.505397e+000 2.806545e+000 3.876691e-001 3.152444e-001 3.429661e-001 5.676626e-001 5.890858e-001 6.864982e-001 6.583441e-001 6.397125e-001 8.095497e-001 6.015245e-001 5.281159e-001 4.852088e-001 1.925044e-001
<GCONST> 1.223584e+002
<STATE> 4
<MEAN> 39
 1.539838e+000 -7.349885e+000 -1.090525e+001 -2.049062e+001 -1.154354e+001 7.943866e-001 -9.640027e+000 -4.807257e+000 -8.097010e+000 1.313270e+000 1.859735e+000 -2.342880e+000 5.873932e+001 -4.549832e-001 -2.095250e+000 1.482185e-001 8.261868e-001 8.213658e-001 -8.892860e-001 -1.404449e+000 5.793630e-001 1.561069e+000 1.162515e+000 -2.116460e-001 -7.635033e-001 1.681093e+000 -4.087432e-001 1.500609e-001 3.421480e-001 5.669801e-001 -2.917518e-002 -5.568216e-001 3.124232e-001 4.646556e-001 3.287351e-001 -4.206790e-001 -5.403275e-001 -9.207863e-002 -3.199622e-001
<VARIANCE> 39
 8.771749e+000 3.330010e+001 4.301870e+001 7.400239e+001 6.647850e+001 7.716054e+001 8.290231e+001 6.312192e+001 7.008918e+001 8.582954e+001 8.282092e+001 4.334012e+001 2.037377e+001 7.464864e-001 1.692651e+000 2.758597e+000 4.338784e+000 4.070916e+000 6.426691e+000 5.306989e+000 5.076593e+000 4.218354e+000 4.851851e+000 4.761086e+000 3.331093e+000 1.089384e+000 2.994404e-001 3.386503e-001 3.918475e-001 6.294801e-001 8.828467e-001 8.122555e-001 1.003154e+000 8.333573e-001 9.969283e-001 1.078962e+000 8.083333e-001 7.549133e-001 1.818011e-001
<GCONST> 1.312442e+002
<TRANSP> 5
 0.000000e+000 1.000000e+000 0.000000e+000 0.000000e+000 0.000000e+000
 0.000000e+000 6.112847e-001 3.887153e-001 0.000000e+000 0.000000e+000
 0.000000e+000 0.000000e+000 7.385805e-001 2.614195e-001 0.000000e+000
 0.000000e+000 0.000000e+000 0.000000e+000 5.648277e-001 4.351723e-001
 0.000000e+000 0.000000e+000 0.000000e+000 0.000000e+000 0.000000e+000
<ENDHMM>
~h "y"
<BEGINHMM>
<NUMSTATES> 5
<STATE> 2
<MEAN> 39
 -1.114201e+001 -1.775353e+000 1.243333e+001 -1.305299e+001 -1.500353e+001 -6.817334e+000 -1.043446e+001 -6.114140e+000 -1.185142e+001 -3.623911e+000 -4.030792e+000 -2.525455e+000 5.518519e+001 4.241849e-001 -3.654349e-002 1.202832e+000 -1.825621e-001 -1.081638e+000 -1.135728e-001 -2.626998e-001 -2.377041e-001 -8.062209e-001 -1.690474e-001 2.393146e-001 -7.248048e-002 4.094040e-001 1.997328e-001 -3.183509e-001 -6.254052e-001 1.047796e-001 1.688595e-001 -1.825010e-001 1.500481e-002 2.591623e-001 2.709054e-001 1.536792e-001 9.452941e-002 2.948085e-002 7.004800e-002
<VARIANCE> 39
 1.932397e+001 3.795373e+001 3.460120e+001 7.983105e+001 4.317760e+001 4.719411e+001 4.368099e+001 5.933253e+001 4.114462e+001 4.975354e+001 5.263257e+001 3.034852e+001 2.679812e+001 3.833435e+000 2.892200e+000 3.688721e+000 2.795581e+000 4.762389e+000 5.447990e+000 3.606812e+000 3.404820e+000 4.029001e+000 3.486762e+000 2.349128e+000 1.911761e+000 2.420367e+000 3.444945e-001 2.769694e-001 4.661061e-001 5.623266e-001 8.040332e-001 6.953598e-001 6.277999e-001 6.834903e-001 6.166185e-001 5.447762e-001 4.104024e-001 3.545207e-001 2.554406e-001
<GCONST> 1.259993e+002
<STATE> 3
<MEAN> 39
 -7.952976e+000 -7.423443e+000 1.284309e+001 -9.976813e+000 -2.093056e+001 -9.278054e+000 -8.943987e+000 -3.688849e+000 -1.319824e+001 -3.395895e+000 3.936599e-001 -2.518220e+000 5.889248e+001 8.536149e-001 -1.000541e+000 -8.948048e-001 7.017688e-001 -4.367597e-001 -1.442242e+000 1.650858e-001 1.040205e+000 -1.906460e-001 -7.686014e-002 7.142367e-001 2.249752e-001 4.775848e-001 2.319650e-002 -8.587308e-003 -4.129502e-001 6.793214e-002 4.158483e-001 -9.313241e-002 -1.440310e-001 2.564008e-001 2.909572e-001 -1.113801e-001 -6.175174e-002 1.049438e-001 -1.206299e-001
<VARIANCE> 39
 1.101683e+001 2.556769e+001 4.180786e+001 6.994715e+001 3.020606e+001 5.190982e+001 4.891259e+001 5.346855e+001 4.565983e+001 7.171857e+001 4.803873e+001 2.872266e+001 1.671522e+001 1.513011e+000 1.026177e+000 1.482119e+000 1.361256e+000 1.553979e+000 2.709610e+000 2.796824e+000 2.763844e+000 1.881769e+000 2.006212e+000 1.467548e+000 1.297316e+000 5.235341e-001 1.521801e-001 1.325888e-001 2.661630e-001 2.140786e-001 3.856710e-001 3.435100e-001 3.865657e-001 3.003744e-001 4.029758e-001 3.328042e-001 2.596337e-001 2.122459e-001 8.196139e-002
<GCONST> 1.062634e+002
<STATE> 4
<MEAN> 39
 -3.001623e+000 -1.273187e+001 2.158944e+000 -4.789359e+000 -1.662325e+001 -1.816204e+001 -1.081359e+001 6.093608e+000 -8.597339e+000 -6.439863e+000 2.325891e+000 9.997331e-001 5.952617e+001 9.481148e-001 -5.122389e-001 -2.154802e+000 4.901581e-001 1.398521e+000 -8.391237e-001 -1.233024e+000 1.250228e+000 1.505164e+000 -4.199748e-001 -4.758006e-001 4.251855e-001 -7.239626e-002 -1.555380e-001 2.390206e-001 -6.968427e-002 -1.882042e-001 2.981501e-001 4.989424e-001 -8.525985e-002 -3.903895e-001 2.583680e-001 1.924963e-001 -2.751572e-001 -1.660477e-001 -1.749300e-001
<VARIANCE> 39
 1.521328e+001 2.682688e+001 7.049213e+001 5.016523e+001 4.947012e+001 6.197346e+001 8.195663e+001 6.250642e+001 7.479115e+001 5.742948e+001 3.903469e+001 3.296176e+001 1.902595e+001 1.098145e+000 1.206138e+000 1.878942e+000 1.395592e+000 1.867092e+000 2.555727e+000 2.950027e+000 2.997985e+000 2.736639e+000 2.368095e+000 1.814481e+000 1.569997e+000 5.167556e-001 1.642438e-001 1.424858e-001 2.843809e-001 2.480008e-001 3.985751e-001 4.375101e-001 4.229651e-001 3.776515e-001 4.652987e-001 3.942676e-001 2.997037e-001 2.483791e-001 7.877761e-002
<GCONST> 1.113209e+002
<TRANSP> 5
 0.000000e+000 1.000000e+000 0.000000e+000 0.000000e+000 0.000000e+000
 0.000000e+000 7.421150e-001 2.578849e-001 0.000000e+000 0.000000e+000
 0.000000e+000 0.000000e+000 7.477012e-001 2.522989e-001 0.000000e+000
 0.000000e+000 0.000000e+000 0.000000e+000 6.715239e-001 3.284761e-001
 0.000000e+000 0.000000e+000 0.000000e+000 0.000000e+000 0.000000e+000
<ENDHMM>
~h "z"
<BEGINHMM>
<NUMSTATES> 5
<STATE> 2
<MEAN> 39
 -1.663875e+001 3.044654e+000 -2.808546e+000 -8.502041e+000 -4.060646e+000 -1.126731e+001 -7.908489e+000 -4.114548e+000 -3.732994e+000 -2.680662e+000 -4.424599e+000 -1.194569e+000 5.677431e+001 -4.510191e+000 1.894621e+000 -7.253833e-001 3.936715e-001 2.418219e+000 1.194069e+000 1.610103e+000 8.680962e-001 5.267922e-001 5.846215e-002 5.133629e-001 3.272420e-001 -2.741933e-001 5.806850e-002 -7.273181e-001 -1.327364e-001 -9.373057e-002 -2.539014e-001 4.021568e-001 1.923544e-001 4.013235e-001 3.983664e-002 1.893502e-001 1.618062e-001 4.314061e-003 5.732284e-002
<VARIANCE> 39
 5.347786e+001 3.538466e+001 4.489694e+001 4.145106e+001 5.359988e+001 5.183038e+001 4.698807e+001 3.805629e+001 3.435019e+001 3.655952e+001 2.576530e+001 2.402614e+001 2.474852e+001 3.214301e+000 4.723938e+000 3.689405e+000 5.457535e+000 3.809941e+000 5.710386e+000 4.660843e+000 4.787129e+000 3.961382e+000 3.762617e+000 3.473134e+000 3.191770e+000 1.543947e+000 1.064757e+000 7.070480e-001 5.228360e-001 6.535270e-001 7.892807e-001 8.205900e-001 7.494661e-001 7.113621e-001 5.803543e-001 6.415229e-001 5.137730e-001 4.962932e-001 1.945086e-001
<GCONST> 1.299791e+002
<STATE> 3
<MEAN> 39
 -2.880856e+001 2.046567e+000 -7.429818e+000 -8.593912e+000 6.732539e-001 -5.572578e+000 -1.350776e+000 1.148323e+000 -1.548523e+000 -7.528656e-001 -1.756366e+000 1.373327e-001 5.592121e+001 -3.128703e-001 -6.590765e-001 -3.235689e-001 -2.405664e-001 -5.878496e-002 1.693493e-001 1.983090e-001 3.650576e-001 2.603382e-001 2.072728e-001 1.614394e-001 5.186614e-002 1.190563e-001 1.110523e+000 -2.921554e-001 2.550745e-001 -5.483416e-002 -4.608623e-001 -3.472055e-001 -4.746221e-001 -3.206241e-001 -1.139689e-001 -7.143630e-002 -1.564824e-001 -1.223997e-001 -1.012055e-001
<VARIANCE> 39
 1.446379e+001 2.626238e+001 4.425754e+001 4.226562e+001 3.796978e+001 3.505680e+001 3.809348e+001 2.963173e+001 2.125386e+001 1.979081e+001 1.830532e+001 1.473443e+001 1.627000e+001 4.105054e+000 1.613361e+000 1.931191e+000 1.721079e+000 2.162995e+000 2.970771e+000 2.715691e+000 2.317528e+000 2.078135e+000 1.921297e+000 1.702346e+000 1.492741e+000 8.777012e-001 6.936284e-001 3.977050e-001 3.818438e-001 4.828435e-001 5.282453e-001 6.181284e-001 5.776610e-001 5.200117e-001 4.526301e-001 4.207497e-001 3.975442e-001 3.486197e-001 2.480506e-001
<GCONST> 1.124509e+002
<STATE> 4
<MEAN> 39
 -2.066308e+001 -2.886028e+000 -5.871765e+000 -8.676682e+000 -2.306737e+000 -6.128585e+000 -4.434712e+000 -2.803268e-002 -9.771009e-001 -7.395864e-001 -2.282113e+000 -7.431419e-001 5.091261e+001 2.580470e+000 -1.084955e+000 1.168517e-001 2.666119e-001 -8.786372e-001 -3.750036e-003 -6.046752e-001 -5.466829e-001 -1.266407e-001 5.326877e-002 -1.947825e-001 -2.945918e-001 -1.236997e+000 2.402941e-001 5.235131e-003 -5.407487e-002 5.519835e-002 -1.069986e-001 8.587779e-002 1.394706e-002 -5.128359e-002 -1.307231e-001 -1.202878e-002 -5.954490e-003 -2.745011e-002 -3.911142e-002
<VARIANCE> 39
 4.622062e+001 3.704248e+001 4.020198e+001 3.755252e+001 4.287349e+001 5.230311e+001 4.875797e+001 3.677279e+001 3.211772e+001 3.141615e+001 2.584057e+001 2.156544e+001 8.540054e+001 5.978015e+000 3.489705e+000 3.365098e+000 4.368888e+000 4.680675e+000 5.251088e+000 5.173357e+000 4.054348e+000 3.566013e+000 3.220731e+000 3.004683e+000 2.446342e+000 6.346033e+000 8.812342e-001 5.692036e-001 5.140628e-001 6.457492e-001 6.991725e-001 8.590002e-001 8.079529e-001 7.313920e-001 6.619334e-001 5.976130e-001 5.309855e-001 4.516715e-001 9.633794e-001
<GCONST> 1.323700e+002
<TRANSP> 5
 0.000000e+000 1.000000e+000 0.000000e+000 0.000000e+000 0.000000e+000
 0.000000e+000 6.658928e-001 3.341072e-001 0.000000e+000 0.000000e+000
 0.000000e+000 0.000000e+000 7.821499e-001 2.178501e-001 0.000000e+000
 0.000000e+000 0.000000e+000 0.000000e+000 6.987941e-001 3.012059e-001
 0.000000e+000 0.000000e+000 0.000000e+000 0.000000e+000 0.000000e+000
<ENDHMM>
~h "aa"
<BEGINHMM>
<NUMSTATES> 5
<STATE> 2
<MEAN> 39
 -1.663150e+000 -1.493470e+001 -1.192800e+001 -1.533010e+001 -8.788977e+000 -3.081278e+000 -8.044637e+000 1.119506e+000 -1.047006e+000 -6.123998e-001 -2.819328e+000 -5.728237e+000 6.430437e+001 1.468478e+000 -1.643971e+000 -1.781620e+000 -1.129189e+000 5.599441e-001 1.266365e+000 9.687035e-002 2.645640e-001 1.944475e-001 -7.224491e-002 6.245123e-002 -8.157908e-001 1.171604e+000 -6.268422e-001 3.353843e-001 2.076534e-001 4.344978e-001 4.156190e-001 1.342889e-001 3.436984e-001 -2.626577e-001 -1.696627e-001 -1.091562e-001 7.989743e-002 2.785918e-001 -5.599835e-001
<VARIANCE> 39
 1.612641e+001 3.379105e+001 4.784126e+001 5.555647e+001 5.798526e+001 9.014857e+001 8.195390e+001 7.730328e+001 6.794821e+001 5.557036e+001 7.349285e+001 4.169849e+001 2.840895e+001 3.306322e+000 2.371246e+000 3.126314e+000 3.771988e+000 4.835001e+000 4.811920e+000 5.810710e+000 5.639122e+000 4.689010e+000 3.968459e+000 4.207001e+000 3.680581e+000 1.839608e+000 4.422913e-001 4.011697e-001 4.318709e-001 5.974219e-001 7.366720e-001 9.277763e-001 1.012854e+000 9.548947e-001 7.759017e-001 7.068849e-001 7.369338e-001 5.766153e-001 4.517025e-001
<GCONST> 1.344765e+002
<STATE> 3
<MEAN> 39
 -8.249848e-002 -1.709462e+001 -1.690247e+001 -1.674341e+001 -4.196787e+000 1.052408e+000 -5.801632e+000 -7.891001e-001 -1.254802e+000 -2.339187e+000 -2.014180e+000 -5.890815e+000 6.512840e+001 9.055726e-002 -8.328728e-002 -3.090975e-001 2.638272e-001 3.550980e-001 -3.015963e-001 -2.159350e-001 1.968769e-001 1.707902e-001 -1.806382e-001 -9.725843e-002 4.935076e-002 -6.357930e-002 -4.793243e-002 1.916710e-001 1.872619e-001 1.242795e-001 -1.578120e-001 -3.100618e-001 -1.550054e-001 1.086264e-001 1.584713e-002 3.633792e-002 -6.000289e-002 5.828378e-002 -1.495819e-001
<VARIANCE> 39
 1.351765e+001 3.302089e+001 3.673204e+001 5.717656e+001 5.715812e+001 8.994069e+001 8.673795e+001 9.338467e+001 7.819397e+001 5.440460e+001 6.690996e+001 4.425708e+001 2.093231e+001 2.813396e-001 6.877719e-001 9.574939e-001 1.352568e+000 1.476249e+000 2.177408e+000 2.298531e+000 2.114174e+000 1.657514e+000 1.532933e+000 1.481849e+000 1.341867e+000 2.443573e-001 6.022118e-002 1.188791e-001 1.444725e-001 1.981108e-001 2.256525e-001 2.593150e-001 3.348655e-001 3.082935e-001 2.922077e-001 2.734113e-001 2.517329e-001 2.405910e-001 6.053784e-002
<GCONST> 1.022006e+002
<STATE> 4
<MEAN> 39
 -7.123611e-001 -1.603202e+001 -1.514355e+001 -1.521919e+001 -5.529194e+000 -2.959337e+000 -7.526327e+000 1.049266e+000 1.289301e-002 -1.656179e+000 -3.782957e+000 -6.190538e+000 6.385902e+001 -3.049211e-001 1.642516e+000 1.085769e+000 1.323857e+000 -5.005439e-001 -1.732876e+000 -7.416270e-001 3.661687e-001 -2.018485e-001 1.843312e-001 -1.860430e-001 5.578389e-001 -1.904259e+000 -4.381015e-001 5.828928e-001 4.598172e-001 5.017303e-001 1.373149e-001 1.398348e-002 6.694882e-002 -3.480877e-001 -2.536733e-001 -3.119704e-002 7.971268e-002 1.949847e-001 -7.660049e-001
<VARIANCE> 39
 1.552250e+001 3.480444e+001 4.450404e+001 5.424426e+001 5.617501e+001 9.706326e+001 9.687168e+001 8.796822e+001 7.387705e+001 5.896202e+001 6.674866e+001 5.032090e+001 2.678561e+001 1.308065e+000 3.257803e+000 2.642672e+000 3.599382e+000 3.578708e+000 3.639014e+000 4.723288e+000 4.552565e+000 3.974476e+000 3.646053e+000 3.401630e+000 3.055283e+000 3.508061e+000 3.729192e-001 3.890950e-001 3.321510e-001 5.293319e-001 5.839015e-001 7.421199e-001 7.280326e-001 7.441779e-001 6.397347e-001 6.431057e-001 5.836139e-001 5.259641e-001 4.417714e-001
<GCONST> 1.308019e+002
<TRANSP> 5
 0.000000e+000 1.000000e+000 0.000000e+000 0.000000e+000 0.000000e+000
 0.000000e+000 6.631168e-001 3.368833e-001 0.000000e+000 0.000000e+000
 0.000000e+000 0.000000e+000 8.591257e-001 1.408744e-001 0.000000e+000
 0.000000e+000 0.000000e+000 0.000000e+000 5.597561e-001 4.402439e-001
 0.000000e+000 0.000000e+000 0.000000e+000 0.000000e+000 0.000000e+000
<ENDHMM>
~h "ae"
<BEGINHMM>
<NUMSTATES> 5
<STATE> 2
<MEAN> 39
 -4.938369e+000 -1.545174e+001 -2.633109e+000 -1.404045e+001 -1.620214e+001 -9.178880e+000 -4.092978e+000 5.358893e+000 -3.936298e+000 -2.307192e+000 -4.130353e+000 -3.723494e+000 6.507387e+001 1.841613e-001 -1.099073e+000 -2.748672e-001 -3.574729e-001 5.746779e-003 2.917096e-001 3.773672e-001 8.490813e-001 1.971347e-001 -4.478685e-001 -2.226525e-001 -1.306017e-001 7.930891e-001 -2.245602e-001 3.870058e-001 -1.389492e-001 3.065488e-001 4.176432e-001 1.255711e-001 7.617360e-004 -3.013452e-001 1.085179e-002 -1.146618e-002 2.709356e-003 1.080903e-001 -4.373870e-001
<VARIANCE> 39
 1.645775e+001 3.395705e+001 5.216574e+001 5.675291e+001 5.109878e+001 6.359050e+001 8.193492e+001 7.134161e+001 8.242554e+001 4.845687e+001 5.524359e+001 3.633329e+001 2.367136e+001 9.689340e-001 1.575751e+000 1.988929e+000 1.965860e+000 2.251333e+000 2.577118e+000 3.450077e+000 3.074537e+000 2.559739e+000 2.140636e+000 2.093363e+000 1.753357e+000 9.745159e-001 2.804515e-001 2.854994e-001 2.717955e-001 3.241088e-001 4.066668e-001 4.410048e-001 5.652969e-001 5.005613e-001 4.603227e-001 4.222353e-001 4.056285e-001 3.187343e-001 2.186798e-001
<GCONST> 1.175601e+002
<STATE> 3
<MEAN> 39
 -4.344472e+000 -1.714966e+001 -6.917256e+000 -1.248521e+001 -1.280571e+001 -7.743063e+000 -1.870072e+000 5.149256e+000 -1.883312e+000 -5.161519e+000 -5.780987e+000 -3.631933e+000 6.560176e+001 6.075798e-002 8.352607e-002 -2.492009e-001 1.068732e-001 2.719374e-001 -3.610942e-002 -1.289303e-001 -4.001101e-002 5.767116e-002 -6.805959e-002 -1.013411e-001 2.716238e-002 -1.499261e-001 4.862174e-003 2.206783e-001 5.269178e-002 6.516629e-002 -5.919418e-003 -1.023141e-001 -1.427802e-001 -1.228233e-001 -5.398693e-002 1.325146e-001 5.789547e-002 -3.223695e-003 -1.956057e-001
<VARIANCE> 39
 1.487077e+001 3.024359e+001 4.674409e+001 4.472595e+001 5.447007e+001 6.566116e+001 7.809737e+001 6.642094e+001 8.706705e+001 4.394465e+001 4.562826e+001 4.289162e+001 2.477299e+001 2.872954e-001 6.091110e-001 1.115286e+000 8.675616e-001 1.347299e+000 1.291233e+000 1.549809e+000 1.422907e+000 1.388596e+000 1.273017e+000 1.213029e+000 1.012169e+000 2.436505e-001 5.822264e-002 1.372487e-001 1.498935e-001 1.641589e-001 2.081101e-001 2.147916e-001 2.557995e-001 2.770826e-001 2.498240e-001 2.177920e-001 2.115633e-001 1.836377e-001 8.224807e-002
<GCONST> 9.719126e+001
<STATE> 4
<MEAN> 39
 -4.208554e+000 -1.456874e+001 -5.750276e+000 -1.242517e+001 -1.305124e+001 -9.860834e+000 -5.024585e+000 4.578860e+000 -2.387747e+000 -3.294881e+000 -5.263790e+000 -3.698832e+000 6.349341e+001 -3.119142e-001 2.153973e+000 4.746601e-001 1.165994e+000 5.650373e-001 -4.412093e-001 -7.330305e-001 -1.064173e+000 -5.660497e-001 4.375985e-001 3.395528e-001 1.357246e-001 -2.283899e+000 -4.873497e-001 6.528452e-001 1.606887e-001 4.883248e-001 3.759088e-001 2.685462e-001 2.136471e-001 -4.600504e-001 -2.089367e-001 -3.998074e-003 8.286236e-002 4.075541e-002 -7.849331e-001
<VARIANCE> 39
 1.387841e+001 3.121725e+001 6.273248e+001 4.752425e+001 6.070193e+001 6.596419e+001 8.370099e+001 6.845274e+001 7.998235e+001 5.558176e+001 6.150399e+001 4.466821e+001 3.168528e+001 1.796013e+000 3.143572e+000 3.064914e+000 3.074640e+000 3.793727e+000 3.676310e+000 4.292046e+000 4.472051e+000 4.715302e+000 3.741741e+000 3.488495e+000 2.907662e+000 3.275948e+000 4.351658e-001 3.695019e-001 4.406403e-001 4.895962e-001 6.329511e-001 6.957255e-001 7.604934e-001 7.863731e-001 7.767311e-001 7.528018e-001 7.182434e-001 5.311850e-001 4.080069e-001
<GCONST> 1.313165e+002
<TRANSP> 5
 0.000000e+000 1.000000e+000 0.000000e+000 0.000000e+000 0.000000e+000
 0.000000e+000 6.170095e-001 3.829905e-001 0.000000e+000 0.000000e+000
 0.000000e+000 0.000000e+000 8.292254e-001 1.707746e-001 0.000000e+000
 0.000000e+000 0.000000e+000 0.000000e+000 5.906472e-001 4.093528e-001
 0.000000e+000 0.000000e+000 0.000000e+000 0.000000e+000 0.000000e+000
<ENDHMM>
~h "ah"
<BEGINHMM>
<NUMSTATES> 5
<STATE> 2
<MEAN> 39
 -3.137325e+000 -1.238146e+001 -8.850326e+000 -1.524643e+001 -9.427921e+000 -4.820660e+000 -1.053122e+001 -2.069649e-001 -6.214905e-001 -2.636889e-001 -3.964352e+000 -5.044508e+000 6.331079e+001 1.673815e+000 -1.959866e+000 -6.790856e-001 -1.637413e+000 -3.718304e-001 8.141701e-001 -9.642829e-001 5.763515e-001 9.580204e-001 1.940956e-001 -5.441965e-001 -9.898904e-001 1.682774e+000 -7.821239e-001 3.975458e-001 1.168577e-001 4.985256e-001 4.158370e-001 1.143642e-001 4.995435e-001 -1.258016e-001 -1.767099e-001 -6.416395e-002 7.294778e-002 1.881404e-001 -6.092073e-001
<VARIANCE> 39
 1.690398e+001 3.240346e+001 5.205514e+001 5.164324e+001 5.758479e+001 8.806186e+001 6.739855e+001 6.452544e+001 6.136331e+001 6.416099e+001 7.568623e+001 4.330810e+001 2.904958e+001 4.552010e+000 2.924024e+000 3.193428e+000 4.181397e+000 5.229859e+000 5.621211e+000 5.836429e+000 5.711696e+000 5.517870e+000 4.667877e+000 4.834024e+000 3.717496e+000 2.417210e+000 6.090021e-001 4.951482e-001 5.181652e-001 6.872650e-001 7.347128e-001 1.002171e+000 9.343923e-001 8.890715e-001 7.950541e-001 7.464750e-001 8.102945e-001 6.101155e-001 5.338647e-001
<GCONST> 1.370420e+002
<STATE> 3
<MEAN> 39
 -2.526931e+000 -1.512873e+001 -1.082405e+001 -1.708431e+001 -7.057516e+000 -2.149770e+000 -9.923774e+000 6.591988e-001 1.094724e+000 -1.095476e+000 -5.220016e+000 -6.320112e+000 6.516728e+001 -1.188906e-002 2.068399e-001 6.935000e-002 5.558176e-002 1.171617e-001 -1.341053e-001 -3.969139e-002 -9.655225e-002 -9.296048e-003 -1.919141e-002 -7.226874e-002 -3.243171e-002 -2.215970e-001 -1.641733e-001 5.261577e-001 2.472458e-001 3.692040e-001 -6.835765e-002 -2.884808e-001 8.151051e-002 -2.249322e-001 -3.354382e-001 1.521194e-002 1.244551e-001 1.962816e-001 -4.933348e-001
<VARIANCE> 39
 1.148192e+001 2.724069e+001 3.705566e+001 5.205854e+001 5.649080e+001 8.606892e+001 7.007828e+001 6.029038e+001 6.568901e+001 6.983527e+001 6.926553e+001 5.127644e+001 2.384316e+001 4.623242e-001 1.130309e+000 1.475149e+000 1.646270e+000 1.888548e+000 2.773474e+000 2.161341e+000 2.488954e+000 2.135727e+000 2.029788e+000 2.164329e+000 1.957168e+000 6.699222e-001 1.859255e-001 2.692556e-001 2.271321e-001 3.511918e-001 3.976898e-001 4.378600e-001 5.333755e-001 5.217154e-001 4.783454e-001 4.252893e-001 4.125302e-001 4.030024e-001 2.117528e-001
<GCONST> 1.142005e+002
<STATE> 4
<MEAN> 39
 -2.275814e+000 -1.140817e+001 -8.739011e+000 -1.498265e+001 -8.504948e+000 -5.444600e+000 -1.106116e+001 -1.146722e+000 -9.975025e-001 7.498781e-002 -3.740534e+000 -5.124259e+000 6.137922e+001 -9.812726e-001 2.693676e+000 1.288617e+000 2.150665e+000 2.880564e-001 -6.791450e-001 6.010824e-001 -1.396853e+000 -1.602329e+000 -3.807490e-001 2.391276e-001 6.697248e-001 -2.982967e+000 -6.817409e-001 4.549868e-001 2.092234e-001 5.508294e-001 2.758847e-001 2.252506e-001 4.729228e-001 -2.067744e-001 -2.449742e-001 -1.652579e-001 -7.920466e-002 8.901362e-002 -6.048803e-001
<VARIANCE> 39
 1.363693e+001 3.239068e+001 4.453749e+001 5.456546e+001 4.966029e+001 8.543441e+001 6.736887e+001 6.970766e+001 6.630704e+001 7.280807e+001 7.710387e+001 4.862370e+001 3.355479e+001 2.562678e+000 2.779081e+000 2.797522e+000 4.145083e+000 4.550130e+000 4.952685e+000 5.419941e+000 5.409303e+000 5.261146e+000 5.138008e+000 4.598418e+000 3.950853e+000 3.969858e+000 4.977647e-001 5.383040e-001 4.567487e-001 6.992148e-001 6.273983e-001 9.112793e-001 7.599894e-001 1.057367e+000 7.847498e-001 8.501336e-001 8.233076e-001 6.257305e-001 6.365651e-001
<GCONST> 1.363223e+002
<TRANSP> 5
 0.000000e+000 1.000000e+000 0.000000e+000 0.000000e+000 0.000000e+000
 0.000000e+000 5.029441e-001 4.970559e-001 0.000000e+000 0.000000e+000
 0.000000e+000 0.000000e+000 7.707998e-001 2.292002e-001 0.000000e+000
 0.000000e+000 0.000000e+000 0.000000e+000 5.029016e-001 4.970984e-001
 0.000000e+000 0.000000e+000 0.000000e+000 0.000000e+000 0.000000e+000
<ENDHMM>
~h "ao"
<BEGINHMM>
<NUMSTATES> 5
<STATE> 2
<MEAN> 39
 3.272648e-002 -8.885496e+000 -1.347708e+001 -2.072428e+001 -1.092943e+001 1.032163e+000 -4.872885e+000 -2.018770e+000 -4.400939e+000 -1.059638e+000 -5.327573e-001 -3.566570e+000 5.932744e+001 1.148841e+000 -7.657357e-001 -7.902333e-001 -1.738769e+000 -1.124706e-001 1.402290e+000 3.157963e-001 -1.769900e-001 -1.704233e-001 -1.291469e-001 2.823830e-001 -3.563227e-002 1.134250e+000 -5.360810e-001 7.145112e-002 1.198012e-001 5.083674e-001 3.858273e-001 -1.352603e-001 3.726303e-002 3.304665e-002 8.748363e-002 -6.215021e-002 -2.832293e-002 1.744674e-001 -2.691132e-001
<VARIANCE> 39
 1.813532e+001 5.063991e+001 4.213228e+001 7.044025e+001 8.275513e+001 7.665826e+001 8.569533e+001 6.425111e+001 7.015038e+001 6.555883e+001 6.714283e+001 4.334859e+001 3.436127e+001 3.563649e+000 2.744535e+000 2.701494e+000 4.379466e+000 5.066080e+000 4.523758e+000 5.011686e+000 4.505587e+000 4.260710e+000 3.919724e+000 3.687935e+000 3.205143e+000 2.466611e+000 5.581540e-001 4.311163e-001 3.978738e-001 6.367025e-001 6.680633e-001 6.931762e-001 8.681231e-001 7.237958e-001 8.012971e-001 6.637509e-001 6.657971e-001 5.227391e-001 3.589457e-001
<GCONST> 1.342556e+002
<STATE> 3
<MEAN> 39
 8.793716e-001 -1.050331e+001 -1.508010e+001 -2.481699e+001 -9.287241e+000 6.078825e+000 -2.048087e+000 -3.394184e+000 -3.757998e+000 -2.480739e+000 -9.940791e-002 -2.805491e+000 6.165577e+001 -3.838787e-002 -3.499379e-001 -2.111620e-001 2.400710e-001 5.293178e-001 6.131749e-005 -1.652133e-001 -1.104245e-001 1.372587e-001 8.807851e-002 6.954389e-002 -1.013364e-001 2.424952e-001 -3.643188e-002 5.603875e-002 6.189302e-002 2.653746e-001 -2.742045e-003 -2.866384e-001 -1.803252e-001 4.372568e-002 3.133014e-002 6.866721e-002 -4.083677e-002 -6.498919e-002 -9.394767e-002
<VARIANCE> 39
 1.092990e+001 4.470140e+001 3.785261e+001 6.664819e+001 9.045682e+001 6.997041e+001 7.739268e+001 5.947589e+001 6.121556e+001 5.976661e+001 5.892750e+001 4.351990e+001 2.305930e+001 2.548797e-001 1.121055e+000 8.535179e-001 1.693109e+000 1.669948e+000 1.722063e+000 1.757905e+000 1.493942e+000 1.476972e+000 1.587603e+000 1.521549e+000 1.512283e+000 3.898511e-001 5.691686e-002 1.095038e-001 1.241999e-001 1.907454e-001 2.397803e-001 2.447600e-001 2.754159e-001 2.600392e-001 2.611653e-001 2.543314e-001 2.465499e-001 2.301371e-001 4.786357e-002
<GCONST> 1.010497e+002
<STATE> 4
<MEAN> 39
 2.231279e-001 -1.391519e+001 -1.589108e+001 -1.724047e+001 -6.535145e+000 -2.693540e-001 -6.253016e+000 -1.496925e+000 -2.749175e+000 -4.414821e-001 -8.624799e-001 -5.475542e+000 6.268590e+001 -2.929721e-001 2.543440e-001 5.491422e-001 1.983957e+000 9.562182e-002 -1.875620e+000 -9.596592e-001 6.063533e-001 5.778179e-001 4.385497e-002 -6.879624e-001 5.271916e-002 -6.135375e-001 -2.793112e-001 3.919711e-001 4.207745e-001 2.616134e-001 -1.205130e-001 -1.546970e-001 8.542613e-002 -1.820551e-002 -1.510455e-002 -1.318218e-001 -1.426550e-001 2.721590e-001 -3.915435e-001
<VARIANCE> 39
 1.332943e+001 3.877005e+001 3.820326e+001 6.387695e+001 5.847808e+001 8.162981e+001 8.445301e+001 7.150613e+001 7.354578e+001 6.507092e+001 8.663546e+001 5.569716e+001 2.238832e+001 7.811365e-001 2.441512e+000 2.546867e+000 3.153209e+000 4.133370e+000 3.117151e+000 4.407143e+000 3.824676e+000 3.980793e+000 3.837787e+000 3.292070e+000 3.460665e+000 1.338449e+000 3.486765e-001 2.648628e-001 3.095215e-001 4.539429e-001 5.355737e-001 6.236976e-001 7.708642e-001 6.817258e-001 6.567777e-001 6.321318e-001 6.877462e-001 6.140822e-001 1.743736e-001
<GCONST> 1.269534e+002
<TRANSP> 5
 0.000000e+000 1.000000e+000 0.000000e+000 0.000000e+000 0.000000e+000
 0.000000e+000 6.353365e-001 3.646635e-001 0.000000e+000 0.000000e+000
 0.000000e+000 0.000000e+000 8.558978e-001 1.441022e-001 0.000000e+000
 0.000000e+000 0.000000e+000 0.000000e+000 6.517450e-001 3.482550e-001
 0.000000e+000 0.000000e+000 0.000000e+000 0.000000e+000 0.000000e+000
<ENDHMM>
~h "aw"
<BEGINHMM>
<NUMSTATES> 5
<STATE> 2
<MEAN> 39
 -4.165683e+000 -1.683807e+001 -9.119692e+000 -1.333892e+001 -9.675507e+000 -5.267074e+000 -3.681513e+000 2.418762e+000 -2.294928e+000 -3.360038e+000 -6.451669e+000 -4.538020e+000 6.538816e+001 6.038215e-001 -1.519479e+000 -8.996741e-001 -4.825768e-001 5.721810e-001 7.457564e-001 -3.738828e-002 2.826050e-001 4.977523e-001 -5.020395e-001 -5.091072e-001 -3.274850e-001 1.178588e+000 -3.363433e-001 4.096088e-001 2.306511e-002 2.267243e-001 3.472456e-001 1.883217e-001 2.581084e-002 -3.400478e-001 -7.959588e-002 8.389056e-002 1.640994e-001 1.009918e-001 -5.093709e-001
<VARIANCE> 39
 1.653006e+001 3.420316e+001 5.606963e+001 4.843629e+001 6.716624e+001 6.571303e+001 7.810828e+001 6.972398e+001 7.785803e+001 5.218838e+001 5.028978e+001 4.328357e+001 2.544713e+001 1.857774e+000 2.295077e+000 2.230268e+000 2.588342e+000 3.327108e+000 3.143388e+000 4.150393e+000 4.267316e+000 3.181150e+000 2.692210e+000 2.565129e+000 2.509732e+000 1.940751e+000 3.948248e-001 3.803917e-001 3.476156e-001 4.475320e-001 5.361337e-001 5.434804e-001 7.108931e-001 7.297224e-001 6.327518e-001 5.181448e-001 4.646415e-001 4.499788e-001 3.115902e-001
<GCONST> 1.257540e+002
<STATE> 3
<MEAN> 39
 -2.352377e+000 -1.829049e+001 -1.321534e+001 -1.458049e+001 -4.850261e+000 -8.694411e-001 -4.844598e+000 -1.262184e+000 4.871451e-001 -4.145043e+000 -6.161702e+000 -5.439878e+000 6.585774e+001 2.501497e-001 2.758399e-001 -4.542664e-001 -4.151404e-001 4.012157e-001 6.010855e-001 -2.613561e-001 -5.011063e-001 6.928813e-002 2.290424e-001 3.171195e-001 -1.071843e-001 -2.671218e-001 2.190621e-002 1.980355e-001 5.821675e-002 -4.496872e-002 -1.664376e-001 -7.824600e-002 -2.293622e-002 6.842882e-003 -7.932978e-002 8.890333e-002 1.055686e-001 5.600233e-002 -1.350472e-001
<VARIANCE> 39
 1.348496e+001 2.774039e+001 4.108971e+001 5.102114e+001 5.629456e+001 7.715215e+001 8.182633e+001 7.130853e+001 7.022498e+001 5.288543e+001 4.928163e+001 4.625505e+001 2.043765e+001 2.309773e-001 6.627254e-001 7.358240e-001 1.184223e+000 1.404471e+000 1.472418e+000 1.665805e+000 1.670616e+000 1.518125e+000 1.404262e+000 1.453493e+000 1.242238e+000 2.197671e-001 3.849471e-002 9.638689e-002 1.145005e-001 1.560774e-001 1.981910e-001 2.187812e-001 2.629845e-001 2.501350e-001 2.427805e-001 2.055340e-001 2.223369e-001 2.080358e-001 3.828796e-002
<GCONST> 9.602005e+001
<STATE> 4
<MEAN> 39
 -2.366735e-001 -1.249360e+001 -1.510469e+001 -1.952444e+001 -6.513783e+000 2.463988e+000 -5.412678e+000 -3.401552e+000 -1.541475e+000 -5.592569e-001 -1.993138e+000 -5.016664e+000 6.148769e+001 -2.956183e-002 1.237655e+000 4.926064e-001 4.652856e-001 -8.039820e-001 -8.601825e-001 -2.515772e-001 -3.884894e-002 -4.370047e-001 4.250119e-001 2.950073e-001 3.391048e-001 -1.231424e+000 -2.654979e-001 1.408464e-001 3.413069e-001 5.721426e-001 1.473429e-002 -3.963364e-001 -1.380322e-002 -2.813343e-002 -5.085530e-002 -6.902528e-002 -1.850793e-001 5.145206e-002 -2.627723e-001
<VARIANCE> 39
 1.287712e+001 4.021721e+001 3.455507e+001 6.546362e+001 6.455460e+001 7.827497e+001 8.810415e+001 6.163809e+001 6.376212e+001 6.218322e+001 6.841410e+001 4.749002e+001 3.448148e+001 8.254978e-001 1.991640e+000 1.999164e+000 4.255139e+000 3.376106e+000 3.673029e+000 3.691945e+000 3.525688e+000 3.351479e+000 3.034288e+000 3.076681e+000 2.863676e+000 1.343291e+000 1.929821e-001 3.264017e-001 3.096357e-001 4.969019e-001 5.909569e-001 4.908909e-001 6.335754e-001 5.984496e-001 5.983222e-001 5.768042e-001 5.518239e-001 4.863013e-001 2.923574e-001
<GCONST> 1.247498e+002
<TRANSP> 5
 0.000000e+000 1.000000e+000 0.000000e+000 0.000000e+000 0.000000e+000
 0.000000e+000 7.080881e-001 2.919119e-001 0.000000e+000 0.000000e+000
 0.000000e+000 0.000000e+000 8.693638e-001 1.306361e-001 0.000000e+000
 0.000000e+000 0.000000e+000 0.000000e+000 7.700634e-001 2.299366e-001
 0.000000e+000 0.000000e+000 0.000000e+000 0.000000e+000 0.000000e+000
<ENDHMM>
~h "ax"
<BEGINHMM>
<NUMSTATES> 5
<STATE> 2
<MEAN> 39
 -5.256738e+000 -9.021322e+000 -5.368764e+000 -1.211635e+001 -1.058377e+001 -9.081472e+000 -9.829790e+000 -1.055580e+000 -1.474279e+000 -6.042887e-001 -4.188183e+000 -3.206361e+000 5.917142e+001 1.610468e+000 -9.120310e-001 4.131196e-001 -1.029939e+000 -8.886268e-001 -3.778797e-001 -1.056780e+000 1.660506e-001 2.327264e-002 1.626789e-001 -3.334562e-001 -3.119525e-001 1.225922e+000 -5.609540e-001 5.061790e-001 1.061688e-002 4.258271e-001 4.087932e-001 3.629536e-001 4.559740e-001 -2.175563e-001 -3.193372e-001 -4.410667e-002 1.765638e-001 7.867370e-002 -8.228106e-001
<VARIANCE> 39
 2.774930e+001 3.585591e+001 5.805243e+001 6.017891e+001 6.257331e+001 7.382903e+001 7.396118e+001 6.189843e+001 6.106749e+001 5.783469e+001 5.588550e+001 3.835693e+001 4.438630e+001 5.140180e+000 3.541806e+000 4.039071e+000 5.152992e+000 4.965044e+000 5.303805e+000 5.742093e+000 5.530478e+000 5.219981e+000 4.265862e+000 4.645676e+000 3.392832e+000 4.966131e+000 6.696042e-001 5.631253e-001 5.218791e-001 7.705740e-001 7.312731e-001 8.899524e-001 9.513437e-001 8.864060e-001 8.887103e-001 7.640845e-001 7.062238e-001 6.008431e-001 9.489142e-001
<GCONST> 1.395851e+002
<STATE> 3
<MEAN> 39
 -3.553268e+000 -1.104352e+001 -4.172952e+000 -1.380150e+001 -1.150508e+001 -9.054506e+000 -1.173947e+001 -1.516561e-001 -2.017066e+000 -1.634382e-001 -4.301453e+000 -3.372867e+000 6.146172e+001 1.681226e-001 6.666963e-001 2.626426e-001 3.063852e-001 2.331850e-001 1.943328e-001 1.395022e-001 -5.232520e-001 -5.840492e-001 -4.592321e-002 1.467916e-001 -1.034352e-002 -8.451034e-001 -7.939065e-001 9.416992e-001 -6.751973e-002 7.663881e-001 6.015964e-001 3.264249e-001 6.676605e-001 -4.515192e-001 -3.305417e-001 -1.779728e-001 1.437232e-001 8.078799e-002 -1.112604e+000
<VARIANCE> 39
 1.579362e+001 3.149045e+001 6.387291e+001 6.167482e+001 6.105274e+001 8.164876e+001 7.496429e+001 6.582983e+001 6.807991e+001 6.281193e+001 6.802323e+001 4.374726e+001 2.241593e+001 2.295616e+000 2.745774e+000 2.842636e+000 3.951913e+000 3.691838e+000 3.667056e+000 3.951374e+000 4.195484e+000 3.867477e+000 3.428998e+000 3.221486e+000 2.806150e+000 2.989693e+000 6.935247e-001 5.244600e-001 6.221673e-001 8.163406e-001 8.207772e-001 1.089230e+000 1.167212e+000 1.053237e+000 1.036586e+000 8.862568e-001 8.707556e-001 7.097856e-001 6.545610e-001
<GCONST> 1.356235e+002
<STATE> 4
<MEAN> 39
 -4.479011e+000 -7.172568e+000 -3.446327e+000 -1.139699e+001 -1.086415e+001 -8.565634e+000 -1.014195e+001 -2.949879e+000 -3.880995e+000 -9.044463e-001 -3.183710e+000 -2.882485e+000 5.777854e+001 -1.148642e+000 2.152537e+000 2.155311e-001 1.536527e+000 1.276443e+000 7.086662e-001 1.141391e+000 -1.075598e+000 -9.367200e-001 -4.297700e-001 1.307044e-001 5.185737e-002 -2.467593e+000 -7.151170e-001 2.836553e-001 -1.060735e-001 3.319106e-001 3.628607e-001 2.866975e-001 4.361914e-001 2.435123e-002 -1.595838e-002 -5.679771e-002 1.190870e-002 5.378625e-002 -4.803310e-001
<VARIANCE> 39
 2.191379e+001 3.111710e+001 7.720936e+001 6.463136e+001 7.098740e+001 7.365551e+001 6.054014e+001 6.451750e+001 6.686031e+001 6.029234e+001 6.256630e+001 3.961415e+001 3.220300e+001 3.876790e+000 3.741212e+000 3.492783e+000 5.872356e+000 4.681640e+000 5.163875e+000 5.460721e+000 5.507409e+000 5.232787e+000 4.359808e+000 4.010353e+000 3.570580e+000 5.991105e+000 6.653889e-001 4.899752e-001 6.085871e-001 6.610214e-001 7.309774e-001 8.932828e-001 8.245280e-001 9.495166e-001 8.747072e-001 8.035294e-001 7.419454e-001 5.762335e-001 5.426294e-001
<GCONST> 1.384864e+002
<TRANSP> 5
 0.000000e+000 1.000000e+000 0.000000e+000 0.000000e+000 0.000000e+000
 0.000000e+000 2.740884e-001 7.259116e-001 0.000000e+000 0.000000e+000
 0.000000e+000 0.000000e+000 3.781163e-001 6.218837e-001 0.000000e+000
 0.000000e+000 0.000000e+000 0.000000e+000 2.599392e-001 7.400609e-001
 0.000000e+000 0.000000e+000 0.000000e+000 0.000000e+000 0.000000e+000
<ENDHMM>
~h "ay"
<BEGINHMM>
<NUMSTATES> 5
<STATE> 2
<MEAN> 39
 -1.876671e+000 -1.496272e+001 -1.376357e+001 -1.706214e+001 -5.845880e+000 -1.405865e-001 -5.281783e+000 -2.163770e+000 -3.125415e-001 -9.907888e-001 -4.393243e+000 -6.415525e+000 6.387091e+001 7.276537e-001 -1.978547e+000 -5.911815e-001 -5.444813e-001 3.533186e-001 6.335924e-001 -2.528052e-002 3.362462e-001 7.838279e-001 -3.732562e-001 -6.992498e-001 -7.023637e-001 1.520075e+000 -6.099207e-001 4.079494e-001 4.417775e-001 5.963686e-001 9.405944e-002 -3.055300e-001 1.167736e-001 1.961488e-002 -1.732844e-001 -1.243116e-001 5.866624e-002 3.242881e-001 -5.177040e-001
<VARIANCE> 39
 1.447319e+001 3.381337e+001 3.793642e+001 5.318540e+001 5.742026e+001 8.252644e+001 6.681151e+001 6.442701e+001 6.193096e+001 6.158441e+001 6.922201e+001 4.250039e+001 2.612672e+001 3.115663e+000 2.261191e+000 3.098554e+000 4.479453e+000 3.934718e+000 4.662334e+000 4.002461e+000 4.441026e+000 3.836382e+000 3.343208e+000 3.402463e+000 3.328003e+000 2.233222e+000 5.048147e-001 3.983290e-001 3.919219e-001 6.362062e-001 6.853884e-001 7.404999e-001 7.193711e-001 7.414749e-001 6.789556e-001 6.562777e-001 7.284344e-001 5.462420e-001 3.553951e-001
<GCONST> 1.308948e+002
<STATE> 3
<MEAN> 39
 -1.876185e+000 -1.811144e+001 -1.411859e+001 -1.503307e+001 -4.177551e+000 -2.127124e-002 -5.020215e+000 -1.582274e+000 1.761942e+000 -3.095522e+000 -5.715993e+000 -7.164362e+000 6.561541e+001 -2.103316e-001 -3.244124e-001 5.493247e-001 6.530538e-001 -3.422873e-001 -8.653233e-001 5.649494e-002 7.970351e-001 1.674725e-001 -4.981083e-001 -4.166426e-001 2.384312e-001 1.135064e-001 -3.288022e-002 2.491104e-001 2.039738e-001 1.566297e-002 -2.942988e-001 -2.455467e-001 4.148914e-002 1.391023e-001 -1.885000e-001 -1.296603e-002 1.634379e-001 1.925606e-001 -1.330868e-001
<VARIANCE> 39
 1.079347e+001 3.013359e+001 3.229157e+001 4.591398e+001 5.175037e+001 7.396757e+001 7.013411e+001 6.625636e+001 6.467072e+001 5.344679e+001 5.294205e+001 4.627649e+001 1.978153e+001 2.404557e-001 6.574399e-001 1.050587e+000 1.283602e+000 1.658404e+000 2.213096e+000 1.647703e+000 2.317867e+000 1.487481e+000 1.415322e+000 1.399331e+000 1.450101e+000 2.057983e-001 4.399880e-002 1.307437e-001 1.348458e-001 1.780091e-001 2.285200e-001 2.393228e-001 2.719959e-001 2.893058e-001 2.938179e-001 2.381386e-001 2.862733e-001 2.668505e-001 5.218780e-002
<GCONST> 9.883938e+001
<STATE> 4
<MEAN> 39
 -4.344772e+000 -1.651689e+001 -6.324173e+000 -1.318110e+001 -1.208594e+001 -8.628834e+000 -2.938149e+000 4.781273e+000 -1.882996e+000 -4.418234e+000 -6.002735e+000 -2.981632e+000 6.484943e+001 -2.885069e-001 1.119668e+000 1.462937e+000 2.371235e-001 -1.455293e+000 -1.153946e+000 1.007390e-001 6.208846e-002 -9.330267e-001 3.331357e-001 8.455353e-001 5.064178e-001 -6.972860e-001 -1.985978e-002 3.760800e-001 -7.255062e-002 9.052733e-002 2.792132e-001 2.460117e-001 -1.719944e-001 -5.470661e-001 -1.160446e-001 2.133032e-001 9.355792e-002 -1.219335e-001 -3.870174e-001
<VARIANCE> 39
 1.207934e+001 3.378449e+001 4.787871e+001 4.470055e+001 6.245916e+001 5.866846e+001 7.193722e+001 6.201688e+001 8.130419e+001 5.056416e+001 4.679198e+001 3.972156e+001 2.516006e+001 4.681052e-001 1.208507e+000 2.067910e+000 2.147718e+000 3.107721e+000 2.648206e+000 3.668509e+000 3.660293e+000 3.082592e+000 2.885239e+000 2.440058e+000 2.715564e+000 6.269243e-001 1.089751e-001 2.432161e-001 2.494122e-001 3.615496e-001 4.802558e-001 3.800502e-001 5.166821e-001 5.337708e-001 5.379184e-001 4.874870e-001 4.667476e-001 3.815433e-001 1.916003e-001
<GCONST> 1.165353e+002
<TRANSP> 5
 0.000000e+000 1.000000e+000 0.000000e+000 0.000000e+000 0.000000e+000
 0.000000e+000 5.845556e-001 4.154444e-001 0.000000e+000 0.000000e+000
 0.000000e+000 0.000000e+000 8.277370e-001 1.722630e-001 0.000000e+000
 0.000000e+000 0.000000e+000 0.000000e+000 7.829326e-001 2.170673e-001
 0.000000e+000 0.000000e+000 0.000000e+000 0.000000e+000 0.000000e+000
<ENDHMM>
~h "ch"
<BEGINHMM>
<NUMSTATES> 5
<STATE> 2
<MEAN> 39
 -1.849146e+001 -3.791890e+000 -3.529793e-001 -4.839419e+000 -4.193429e+000 -2.685040e+000 -5.242458e+000 -1.981028e+000 -3.055728e+000 -2.541328e+000 -2.488333e+000 -1.410900e+000 4.334985e+001 -2.977557e+000 -6.814685e-001 -3.773506e-001 -7.144576e-001 1.109067e+000 2.023918e+000 9.199570e-001 3.484421e-001 8.817467e-001 6.255626e-001 7.214986e-001 3.982228e-001 -1.961357e-001 -1.126042e-002 -4.531378e-001 7.282023e-002 -7.369207e-001 -4.847985e-001 -2.235904e-001 -1.463019e-001 2.188839e-001 9.823375e-002 7.426798e-002 1.279378e-001 4.489129e-002 1.700295e+000
<VARIANCE> 39
 4.465125e+001 5.155903e+001 3.291763e+001 5.181342e+001 3.977314e+001 4.454296e+001 3.228831e+001 3.375088e+001 3.494008e+001 2.918756e+001 2.444453e+001 1.937025e+001 8.021839e+001 5.626178e+000 6.726982e+000 5.376520e+000 8.220559e+000 6.618928e+000 5.138801e+000 4.745596e+000 4.863483e+000 4.595603e+000 3.853717e+000 3.372459e+000 2.706338e+000 2.017768e+001 8.022216e-001 1.525530e+000 9.257492e-001 1.285591e+000 1.019208e+000 1.048084e+000 8.648072e-001 9.280367e-001 7.895023e-001 7.650288e-001 6.950431e-001 4.906936e-001 2.082692e+000
<GCONST> 1.403599e+002
<STATE> 3
<MEAN> 39
 -3.026491e+001 -5.333148e+000 1.634710e+000 -1.192397e+001 -4.216941e+000 1.083488e+000 -3.054459e+000 2.794191e-001 -8.175899e-002 -9.889014e-001 3.052209e-001 1.956134e-001 5.739601e+001 -9.531158e-001 1.356293e-001 5.447612e-001 -2.256830e-001 -7.832422e-001 -1.476496e-001 5.274128e-001 2.296363e-002 1.144599e-001 6.601981e-002 6.482927e-002 8.440345e-002 1.958768e+000 8.074624e-001 5.777986e-002 -9.404700e-002 4.757985e-001 -1.808641e-001 -4.314055e-001 -3.502372e-002 -9.640574e-002 -2.443303e-001 -8.765649e-002 -2.063548e-001 -1.039174e-001 -6.046419e-001
<VARIANCE> 39
 2.217248e+001 3.197669e+001 3.334009e+001 2.389952e+001 3.443119e+001 2.136333e+001 2.240823e+001 2.163303e+001 1.908727e+001 1.616364e+001 1.313927e+001 1.110782e+001 3.549329e+001 4.071990e+000 2.674526e+000 2.711384e+000 2.824909e+000 2.325689e+000 2.211535e+000 1.936855e+000 2.012404e+000 1.753726e+000 1.677453e+000 1.447546e+000 1.278109e+000 5.880044e+000 6.364369e-001 6.309265e-001 5.967276e-001 5.659728e-001 4.769481e-001 4.782277e-001 4.323612e-001 4.136714e-001 3.768366e-001 3.697023e-001 3.007192e-001 2.691436e-001 8.480247e-001
<GCONST> 1.130311e+002
<STATE> 4
<MEAN> 39
 -2.431025e+001 -8.269982e+000 1.364526e+000 -8.019416e+000 -9.941109e+000 -4.282438e+000 -1.062218e+000 -3.639286e-001 -1.404294e+000 -1.522826e+000 -1.245966e+000 -5.864413e-001 5.942228e+001 3.584746e+000 -4.389075e-001 -5.714945e-001 5.906428e-001 -5.569756e-001 -1.712877e+000 -1.014314e+000 5.328706e-002 -6.574705e-001 -5.151399e-001 -5.154997e-001 -3.203594e-001 -6.122255e-001 7.088819e-001 -7.487072e-002 -1.760026e-001 -2.636352e-001 1.369273e-001 3.884240e-002 -5.797489e-001 3.592505e-002 -4.117323e-002 -6.049219e-002 1.636735e-002 -3.750090e-002 -1.881936e-001
<VARIANCE> 39
 4.632175e+001 1.995526e+001 2.512902e+001 3.115719e+001 3.254370e+001 3.247426e+001 3.026203e+001 2.723991e+001 2.442243e+001 2.107161e+001 2.054600e+001 1.604425e+001 2.268643e+001 5.569401e+000 2.039640e+000 3.016667e+000 2.952214e+000 4.178216e+000 4.006454e+000 5.113122e+000 3.515987e+000 3.113796e+000 2.821928e+000 2.727729e+000 2.004451e+000 2.743290e+000 8.378888e-001 3.780709e-001 5.102749e-001 5.162799e-001 6.323699e-001 7.265846e-001 7.334768e-001 6.451254e-001 5.852256e-001 5.586290e-001 4.885379e-001 3.991628e-001 7.187311e-001
<GCONST> 1.221227e+002
<TRANSP> 5
 0.000000e+000 1.000000e+000 0.000000e+000 0.000000e+000 0.000000e+000
 0.000000e+000 7.110606e-001 2.889394e-001 0.000000e+000 0.000000e+000
 0.000000e+000 0.000000e+000 7.986472e-001 2.013528e-001 0.000000e+000
 0.000000e+000 0.000000e+000 0.000000e+000 7.414331e-001 2.585669e-001
 0.000000e+000 0.000000e+000 0.000000e+000 0.000000e+000 0.000000e+000
<ENDHMM>
~h "dh"
<BEGINHMM>
<NUMSTATES> 5
<STATE> 2
<MEAN> 39
 -1.638240e+001 -1.206083e+000 -5.788731e+000 -2.895293e+000 -3.153753e+000 -3.204738e+000 -3.270954e+000 -2.106800e+000 -1.869680e+000 -7.265717e-001 -2.303231e+000 -1.529608e+000 4.156822e+001 -1.418904e-001 -5.458241e-002 -6.802734e-002 -1.353994e-001 -1.481672e-001 -5.269894e-002 9.113476e-002 1.779609e-001 1.602006e-001 -1.543639e-001 1.192765e-002 5.306997e-002 8.677473e-001 5.002382e-001 -4.126314e-001 -8.478237e-002 -4.446442e-001 -4.698885e-001 -4.245226e-001 -2.192033e-001 8.412004e-002 9.605403e-002 3.375908e-003 -3.139635e-002 1.007618e-002 1.040104e+000
<VARIANCE> 39
 4.574095e+001 2.464176e+001 2.239141e+001 2.543074e+001 2.375046e+001 3.122801e+001 3.521677e+001 3.677567e+001 2.947359e+001 2.412213e+001 2.574585e+001 2.508497e+001 7.639704e+001 3.811844e+000 2.674203e+000 3.022985e+000 3.235527e+000 2.733455e+000 3.424737e+000 3.180722e+000 3.173657e+000 2.896339e+000 2.431765e+000 2.351550e+000 2.179284e+000 8.984874e+000 6.499361e-001 5.541639e-001 5.626919e-001 6.728597e-001 6.011019e-001 6.613148e-001 6.725045e-001 6.610491e-001 6.190276e-001 5.485682e-001 5.000942e-001 4.672181e-001 1.222076e+000
<GCONST> 1.250711e+002
<STATE> 3
<MEAN> 39
 -1.520553e+001 -3.257154e+000 -7.706215e+000 -6.007118e+000 -5.688427e+000 -5.625236e+000 -3.292131e+000 -1.903630e+000 -1.090941e+000 -1.389181e+000 -2.351522e+000 -1.001774e+000 5.099605e+001 2.366143e+000 -9.099066e-001 5.706596e-002 -1.456134e+000 -1.944574e+000 -1.958300e+000 -1.299845e+000 1.312898e-001 4.095647e-001 -2.196350e-001 -4.250039e-001 -2.394280e-001 4.286843e+000 6.736236e-001 -3.244361e-001 4.156836e-001 -2.723099e-001 -4.277444e-001 -2.559924e-001 -4.601451e-001 6.220667e-002 -6.992327e-002 1.660759e-001 -1.044017e-001 -1.646674e-001 9.619426e-002
<VARIANCE> 39
 3.565645e+001 2.832661e+001 2.473889e+001 2.708094e+001 2.510400e+001 2.874944e+001 3.765864e+001 3.122878e+001 2.599721e+001 2.338400e+001 2.304341e+001 2.312420e+001 5.786496e+001 4.469964e+000 2.972606e+000 3.844506e+000 3.495871e+000 3.746110e+000 4.175284e+000 4.552417e+000 4.561352e+000 4.515941e+000 3.576486e+000 3.363760e+000 3.315531e+000 6.103799e+000 5.434240e-001 7.086047e-001 7.015020e-001 7.264060e-001 5.965418e-001 7.646802e-001 8.243788e-001 7.240746e-001 7.147900e-001 6.007168e-001 6.711662e-001 5.183479e-001 1.109361e+000
<GCONST> 1.287441e+002
<STATE> 4
<MEAN> 39
 -6.918280e+000 -5.548383e+000 -5.946871e+000 -9.020582e+000 -1.147994e+001 -1.140837e+001 -8.274888e+000 -1.994208e+000 -2.203891e-001 -1.173606e+000 -3.987721e+000 -3.029443e+000 5.915157e+001 2.175969e+000 -1.951577e+000 6.658441e-001 -1.684887e+000 -1.967609e+000 -1.348110e+000 -1.240858e+000 7.777789e-001 2.699804e-001 1.669112e-001 -3.200368e-001 -3.143182e-001 2.941312e+000 -4.934144e-001 -5.225341e-002 1.352656e-001 1.920222e-001 4.175404e-001 5.982376e-001 3.476105e-001 9.986582e-002 -2.519919e-001 1.681199e-002 9.144319e-002 9.530214e-002 -9.059336e-001
<VARIANCE> 39
 2.311505e+001 3.295017e+001 3.505855e+001 3.885966e+001 4.424003e+001 4.265926e+001 5.563758e+001 4.558794e+001 4.889072e+001 4.103402e+001 3.507248e+001 3.496288e+001 3.357056e+001 3.710696e+000 3.074311e+000 4.079180e+000 4.137906e+000 4.235950e+000 5.279410e+000 6.272069e+000 4.984625e+000 5.040926e+000 3.876593e+000 4.290347e+000 3.553361e+000 4.174852e+000 5.628908e-001 4.450247e-001 4.520021e-001 5.518243e-001 6.005625e-001 5.707901e-001 6.610554e-001 6.317528e-001 6.116497e-001 5.599411e-001 5.163825e-001 4.943646e-001 6.429946e-001
<GCONST> 1.304813e+002
<TRANSP> 5
 0.000000e+000 1.000000e+000 0.000000e+000 0.000000e+000 0.000000e+000
 0.000000e+000 6.249569e-001 3.750431e-001 0.000000e+000 0.000000e+000
 0.000000e+000 0.000000e+000 4.077368e-001 5.922632e-001 0.000000e+000
 0.000000e+000 0.000000e+000 0.000000e+000 4.015759e-001 5.984241e-001
 0.000000e+000 0.000000e+000 0.000000e+000 0.000000e+000 0.000000e+000
<ENDHMM>
~h "eh"
<BEGINHMM>
<NUMSTATES> 5
<STATE> 2
<MEAN> 39
