~o
<STREAMINFO> 1 39
<VECSIZE> 39<NULLD><MFCC_D_A_0><DIAGC>
~h "v"
<BEGINHMM>
<NUMSTATES> 5
<STATE> 2
<MEAN> 39
 -8.541326e+000 -8.000107e+000 -1.329455e-001 -7.826165e+000 -5.029051e+000 -1.689681e+000 -4.933756e+000 -4.046640e-001 -2.261182e+000 -4.847141e-001 -2.237921e+000 8.850516e-001 6.301070e+001 -1.352657e-003 1.870453e-003 -2.764012e-004 -6.977095e-004 -3.420604e-004 1.393111e-003 -6.324710e-005 -3.842477e-004 -1.645708e-003 1.862630e-003 -1.562330e-003 1.027771e-004 -2.614644e-004 -4.196931e-004 1.373615e-004 -1.041758e-005 -5.785960e-005 -3.536106e-005 2.214151e-004 -8.990771e-005 1.683185e-004 -3.659228e-004 1.688859e-004 -4.141765e-004 1.429504e-004 3.938801e-004
<VARIANCE> 39
 5.483531e+001 6.776460e+001 7.797676e+001 9.985939e+001 8.119206e+001 6.232211e+001 8.438721e+001 6.445840e+001 7.160141e+001 5.538553e+001 6.075541e+001 4.208913e+001 1.953081e+002 2.631704e+000 3.085724e+000 3.101610e+000 4.672971e+000 3.950679e+000 3.618676e+000 4.375963e+000 3.935581e+000 3.800568e+000 3.519428e+000 3.285435e+000 2.726912e+000 3.022286e+000 4.180703e-001 4.548345e-001 4.749576e-001 7.154720e-001 6.625417e-001 6.462556e-001 7.639512e-001 7.261666e-001 6.826123e-001 6.562241e-001 5.926716e-001 5.120469e-001 4.388199e-001
<GCONST> 1.365655e+002
<STATE> 3
<MEAN> 39
 -8.541326e+000 -8.000107e+000 -1.329455e-001 -7.826165e+000 -5.029051e+000 -1.689681e+000 -4.933756e+000 -4.046640e-001 -2.261182e+000 -4.847141e-001 -2.237921e+000 8.850516e-001 6.301070e+001 -1.352657e-003 1.870453e-003 -2.764012e-004 -6.977095e-004 -3.420604e-004 1.393111e-003 -6.324710e-005 -3.842477e-004 -1.645708e-003 1.862630e-003 -1.562330e-003 1.027771e-004 -2.614644e-004 -4.196931e-004 1.373615e-004 -1.041758e-005 -5.785960e-005 -3.536106e-005 2.214151e-004 -8.990771e-005 1.683185e-004 -3.659228e-004 1.688859e-004 -4.141765e-004 1.429504e-004 3.938801e-004
<VARIANCE> 39
 5.483531e+001 6.776460e+001 7.797676e+001 9.985939e+001 8.119206e+001 6.232211e+001 8.438721e+001 6.445840e+001 7.160141e+001 5.538553e+001 6.075541e+001 4.208913e+001 1.953081e+002 2.631704e+000 3.085724e+000 3.101610e+000 4.672971e+000 3.950679e+000 3.618676e+000 4.375963e+000 3.935581e+000 3.800568e+000 3.519428e+000 3.285435e+000 2.726912e+000 3.022286e+000 4.180703e-001 4.548345e-001 4.749576e-001 7.154720e-001 6.625417e-001 6.462556e-001 7.639512e-001 7.261666e-001 6.826123e-001 6.562241e-001 5.926716e-001 5.120469e-001 4.388199e-001
<GCONST> 1.365655e+002
<STATE> 4
<MEAN> 39
 -8.541326e+000 -8.000107e+000 -1.329455e-001 -7.826165e+000 -5.029051e+000 -1.689681e+000 -4.933756e+000 -4.046640e-001 -2.261182e+000 -4.847141e-001 -2.237921e+000 8.850516e-001 6.301070e+001 -1.352657e-003 1.870453e-003 -2.764012e-004 -6.977095e-004 -3.420604e-004 1.393111e-003 -6.324710e-005 -3.842477e-004 -1.645708e-003 1.862630e-003 -1.562330e-003 1.027771e-004 -2.614644e-004 -4.196931e-004 1.373615e-004 -1.041758e-005 -5.785960e-005 -3.536106e-005 2.214151e-004 -8.990771e-005 1.683185e-004 -3.659228e-004 1.688859e-004 -4.141765e-004 1.429504e-004 3.938801e-004
<VARIANCE> 39
 5.483531e+001 6.776460e+001 7.797676e+001 9.985939e+001 8.119206e+001 6.232211e+001 8.438721e+001 6.445840e+001 7.160141e+001 5.538553e+001 6.075541e+001 4.208913e+001 1.953081e+002 2.631704e+000 3.085724e+000 3.101610e+000 4.672971e+000 3.950679e+000 3.618676e+000 4.375963e+000 3.935581e+000 3.800568e+000 3.519428e+000 3.285435e+000 2.726912e+000 3.022286e+000 4.180703e-001 4.548345e-001 4.749576e-001 7.154720e-001 6.625417e-001 6.462556e-001 7.639512e-001 7.261666e-001 6.826123e-001 6.562241e-001 5.926716e-001 5.120469e-001 4.388199e-001
<GCONST> 1.365655e+002
<TRANSP> 5
 0.000000e+000 1.000000e+000 0.000000e+000 0.000000e+000 0.000000e+000
 0.000000e+000 6.000000e-001 4.000000e-001 0.000000e+000 0.000000e+000
 0.000000e+000 0.000000e+000 6.000000e-001 4.000000e-001 0.000000e+000
 0.000000e+000 0.000000e+000 0.000000e+000 7.000000e-001 3.000000e-001
 0.000000e+000 0.000000e+000 0.000000e+000 0.000000e+000 0.000000e+000
<ENDHMM>
~h "n"
<BEGINHMM>
<NUMSTATES> 5
<STATE> 2
<MEAN> 39
 -8.541326e+000 -8.000107e+000 -1.329455e-001 -7.826165e+000 -5.029051e+000 -1.689681e+000 -4.933756e+000 -4.046640e-001 -2.261182e+000 -4.847141e-001 -2.237921e+000 8.850516e-001 6.301070e+001 -1.352657e-003 1.870453e-003 -2.764012e-004 -6.977095e-004 -3.420604e-004 1.393111e-003 -6.324710e-005 -3.842477e-004 -1.645708e-003 1.862630e-003 -1.562330e-003 1.027771e-004 -2.614644e-004 -4.196931e-004 1.373615e-004 -1.041758e-005 -5.785960e-005 -3.536106e-005 2.214151e-004 -8.990771e-005 1.683185e-004 -3.659228e-004 1.688859e-004 -4.141765e-004 1.429504e-004 3.938801e-004
<VARIANCE> 39
 5.483531e+001 6.776460e+001 7.797676e+001 9.985939e+001 8.119206e+001 6.232211e+001 8.438721e+001 6.445840e+001 7.160141e+001 5.538553e+001 6.075541e+001 4.208913e+001 1.953081e+002 2.631704e+000 3.085724e+000 3.101610e+000 4.672971e+000 3.950679e+000 3.618676e+000 4.375963e+000 3.935581e+000 3.800568e+000 3.519428e+000 3.285435e+000 2.726912e+000 3.022286e+000 4.180703e-001 4.548345e-001 4.749576e-001 7.154720e-001 6.625417e-001 6.462556e-001 7.639512e-001 7.261666e-001 6.826123e-001 6.562241e-001 5.926716e-001 5.120469e-001 4.388199e-001
<GCONST> 1.365655e+002
<STATE> 3
<MEAN> 39
 -8.541326e+000 -8.000107e+000 -1.329455e-001 -7.826165e+000 -5.029051e+000 -1.689681e+000 -4.933756e+000 -4.046640e-001 -2.261182e+000 -4.847141e-001 -2.237921e+000 8.850516e-001 6.301070e+001 -1.352657e-003 1.870453e-003 -2.764012e-004 -6.977095e-004 -3.420604e-004 1.393111e-003 -6.324710e-005 -3.842477e-004 -1.645708e-003 1.862630e-003 -1.562330e-003 1.027771e-004 -2.614644e-004 -4.196931e-004 1.373615e-004 -1.041758e-005 -5.785960e-005 -3.536106e-005 2.214151e-004 -8.990771e-005 1.683185e-004 -3.659228e-004 1.688859e-004 -4.141765e-004 1.429504e-004 3.938801e-004
<VARIANCE> 39
 5.483531e+001 6.776460e+001 7.797676e+001 9.985939e+001 8.119206e+001 6.232211e+001 8.438721e+001 6.445840e+001 7.160141e+001 5.538553e+001 6.075541e+001 4.208913e+001 1.953081e+002 2.631704e+000 3.085724e+000 3.101610e+000 4.672971e+000 3.950679e+000 3.618676e+000 4.375963e+000 3.935581e+000 3.800568e+000 3.519428e+000 3.285435e+000 2.726912e+000 3.022286e+000 4.180703e-001 4.548345e-001 4.749576e-001 7.154720e-001 6.625417e-001 6.462556e-001 7.639512e-001 7.261666e-001 6.826123e-001 6.562241e-001 5.926716e-001 5.120469e-001 4.388199e-001
<GCONST> 1.365655e+002
<STATE> 4
<MEAN> 39
 -8.541326e+000 -8.000107e+000 -1.329455e-001 -7.826165e+000 -5.029051e+000 -1.689681e+000 -4.933756e+000 -4.046640e-001 -2.261182e+000 -4.847141e-001 -2.237921e+000 8.850516e-001 6.301070e+001 -1.352657e-003 1.870453e-003 -2.764012e-004 -6.977095e-004 -3.420604e-004 1.393111e-003 -6.324710e-005 -3.842477e-004 -1.645708e-003 1.862630e-003 -1.562330e-003 1.027771e-004 -2.614644e-004 -4.196931e-004 1.373615e-004 -1.041758e-005 -5.785960e-005 -3.536106e-005 2.214151e-004 -8.990771e-005 1.683185e-004 -3.659228e-004 1.688859e-004 -4.141765e-004 1.429504e-004 3.938801e-004
<VARIANCE> 39
 5.483531e+001 6.776460e+001 7.797676e+001 9.985939e+001 8.119206e+001 6.232211e+001 8.438721e+001 6.445840e+001 7.160141e+001 5.538553e+001 6.075541e+001 4.208913e+001 1.953081e+002 2.631704e+000 3.085724e+000 3.101610e+000 4.672971e+000 3.950679e+000 3.618676e+000 4.375963e+000 3.935581e+000 3.800568e+000 3.519428e+000 3.285435e+000 2.726912e+000 3.022286e+000 4.180703e-001 4.548345e-001 4.749576e-001 7.154720e-001 6.625417e-001 6.462556e-001 7.639512e-001 7.261666e-001 6.826123e-001 6.562241e-001 5.926716e-001 5.120469e-001 4.388199e-001
<GCONST> 1.365655e+002
<TRANSP> 5
 0.000000e+000 1.000000e+000 0.000000e+000 0.000000e+000 0.000000e+000
 0.000000e+000 6.000000e-001 4.000000e-001 0.000000e+000 0.000000e+000
 0.000000e+000 0.000000e+000 6.000000e-001 4.000000e-001 0.000000e+000
 0.000000e+000 0.000000e+000 0.000000e+000 7.000000e-001 3.000000e-001
 0.000000e+000 0.000000e+000 0.000000e+000 0.000000e+000 0.000000e+000
<ENDHMM>
~h "s"
<BEGINHMM>
<NUMSTATES> 5
<STATE> 2
<MEAN> 39
 -8.541326e+000 -8.000107e+000 -1.329455e-001 -7.826165e+000 -5.029051e+000 -1.689681e+000 -4.933756e+000 -4.046640e-001 -2.261182e+000 -4.847141e-001 -2.237921e+000 8.850516e-001 6.301070e+001 -1.352657e-003 1.870453e-003 -2.764012e-004 -6.977095e-004 -3.420604e-004 1.393111e-003 -6.324710e-005 -3.842477e-004 -1.645708e-003 1.862630e-003 -1.562330e-003 1.027771e-004 -2.614644e-004 -4.196931e-004 1.373615e-004 -1.041758e-005 -5.785960e-005 -3.536106e-005 2.214151e-004 -8.990771e-005 1.683185e-004 -3.659228e-004 1.688859e-004 -4.141765e-004 1.429504e-004 3.938801e-004
<VARIANCE> 39
 5.483531e+001 6.776460e+001 7.797676e+001 9.985939e+001 8.119206e+001 6.232211e+001 8.438721e+001 6.445840e+001 7.160141e+001 5.538553e+001 6.075541e+001 4.208913e+001 1.953081e+002 2.631704e+000 3.085724e+000 3.101610e+000 4.672971e+000 3.950679e+000 3.618676e+000 4.375963e+000 3.935581e+000 3.800568e+000 3.519428e+000 3.285435e+000 2.726912e+000 3.022286e+000 4.180703e-001 4.548345e-001 4.749576e-001 7.154720e-001 6.625417e-001 6.462556e-001 7.639512e-001 7.261666e-001 6.826123e-001 6.562241e-001 5.926716e-001 5.120469e-001 4.388199e-001
<GCONST> 1.365655e+002
<STATE> 3
<MEAN> 39
 -8.541326e+000 -8.000107e+000 -1.329455e-001 -7.826165e+000 -5.029051e+000 -1.689681e+000 -4.933756e+000 -4.046640e-001 -2.261182e+000 -4.847141e-001 -2.237921e+000 8.850516e-001 6.301070e+001 -1.352657e-003 1.870453e-003 -2.764012e-004 -6.977095e-004 -3.420604e-004 1.393111e-003 -6.324710e-005 -3.842477e-004 -1.645708e-003 1.862630e-003 -1.562330e-003 1.027771e-004 -2.614644e-004 -4.196931e-004 1.373615e-004 -1.041758e-005 -5.785960e-005 -3.536106e-005 2.214151e-004 -8.990771e-005 1.683185e-004 -3.659228e-004 1.688859e-004 -4.141765e-004 1.429504e-004 3.938801e-004
<VARIANCE> 39
 5.483531e+001 6.776460e+001 7.797676e+001 9.985939e+001 8.119206e+001 6.232211e+001 8.438721e+001 6.445840e+001 7.160141e+001 5.538553e+001 6.075541e+001 4.208913e+001 1.953081e+002 2.631704e+000 3.085724e+000 3.101610e+000 4.672971e+000 3.950679e+000 3.618676e+000 4.375963e+000 3.935581e+000 3.800568e+000 3.519428e+000 3.285435e+000 2.726912e+000 3.022286e+000 4.180703e-001 4.548345e-001 4.749576e-001 7.154720e-001 6.625417e-001 6.462556e-001 7.639512e-001 7.261666e-001 6.826123e-001 6.562241e-001 5.926716e-001 5.120469e-001 4.388199e-001
<GCONST> 1.365655e+002
<STATE> 4
<MEAN> 39
 -8.541326e+000 -8.000107e+000 -1.329455e-001 -7.826165e+000 -5.029051e+000 -1.689681e+000 -4.933756e+000 -4.046640e-001 -2.261182e+000 -4.847141e-001 -2.237921e+000 8.850516e-001 6.301070e+001 -1.352657e-003 1.870453e-003 -2.764012e-004 -6.977095e-004 -3.420604e-004 1.393111e-003 -6.324710e-005 -3.842477e-004 -1.645708e-003 1.862630e-003 -1.562330e-003 1.027771e-004 -2.614644e-004 -4.196931e-004 1.373615e-004 -1.041758e-005 -5.785960e-005 -3.536106e-005 2.214151e-004 -8.990771e-005 1.683185e-004 -3.659228e-004 1.688859e-004 -4.141765e-004 1.429504e-004 3.938801e-004
<VARIANCE> 39
 5.483531e+001 6.776460e+001 7.797676e+001 9.985939e+001 8.119206e+001 6.232211e+001 8.438721e+001 6.445840e+001 7.160141e+001 5.538553e+001 6.075541e+001 4.208913e+001 1.953081e+002 2.631704e+000 3.085724e+000 3.101610e+000 4.672971e+000 3.950679e+000 3.618676e+000 4.375963e+000 3.935581e+000 3.800568e+000 3.519428e+000 3.285435e+000 2.726912e+000 3.022286e+000 4.180703e-001 4.548345e-001 4.749576e-001 7.154720e-001 6.625417e-001 6.462556e-001 7.639512e-001 7.261666e-001 6.826123e-001 6.562241e-001 5.926716e-001 5.120469e-001 4.388199e-001
<GCONST> 1.365655e+002
<TRANSP> 5
 0.000000e+000 1.000000e+000 0.000000e+000 0.000000e+000 0.000000e+000
 0.000000e+000 6.000000e-001 4.000000e-001 0.000000e+000 0.000000e+000
 0.000000e+000 0.000000e+000 6.000000e-001 4.000000e-001 0.000000e+000
 0.000000e+000 0.000000e+000 0.000000e+000 7.000000e-001 3.000000e-001
 0.000000e+000 0.000000e+000 0.000000e+000 0.000000e+000 0.000000e+000
<ENDHMM>