~o
<STREAMINFO> 1 39
<VECSIZE> 39<NULLD><MFCC_D_A_0><DIAGC>
~h "b"
<BEGINHMM>
<NUMSTATES> 5
<STATE> 2
<MEAN> 39
 -6.449005e+000 2.703812e+000 -2.867352e+000 -1.665015e+000 -2.690258e+000 -2.581192e+000 -7.014732e+000 -7.728167e+000 -8.064447e+000 -4.090971e+000 -3.029190e+000 -4.134141e+000 4.030907e+001 -1.014550e+000 1.413400e+000 7.850529e-001 1.363749e+000 9.724424e-001 6.192496e-001 6.332831e-001 -2.724473e-001 -3.393674e-001 -5.444464e-001 -3.613057e-001 -5.205332e-002 -1.941079e+000 -1.785114e-001 -8.986033e-001 -1.799711e-001 -6.700718e-001 -4.330650e-001 -2.719500e-001 -2.639900e-002 5.284746e-001 4.748217e-001 2.882502e-001 8.770042e-002 1.796029e-001 1.285671e+000
<VARIANCE> 39
 3.897920e+001 2.805717e+001 2.272962e+001 3.181796e+001 2.425224e+001 3.528122e+001 3.884027e+001 3.692968e+001 3.669471e+001 3.232314e+001 3.234097e+001 2.754332e+001 3.206772e+001 2.585462e+000 4.751323e+000 3.201598e+000 4.543180e+000 3.268460e+000 3.584403e+000 3.920509e+000 4.478499e+000 4.205187e+000 3.524402e+000 2.949325e+000 2.511974e+000 6.606845e+000 3.760504e-001 7.669934e-001 6.496402e-001 7.608220e-001 6.527345e-001 6.375380e-001 8.452490e-001 8.370484e-001 7.930021e-001 7.128343e-001 6.130674e-001 5.235599e-001 9.786542e-001
<GCONST> 1.288166e+002
<STATE> 3
<MEAN> 39
 -1.165443e+001 1.674155e+000 -2.086625e+000 -3.705336e-001 -1.078788e+000 -1.242971e+000 -4.359321e+000 -5.031563e+000 -5.658830e+000 -3.469371e+000 -3.069283e+000 -2.876582e+000 3.870430e+001 -2.524905e-001 -2.351110e+000 -8.865676e-001 -1.959893e+000 -1.147569e+000 -8.675497e-001 7.471241e-002 1.128486e+000 1.414869e+000 8.348962e-001 5.718194e-001 6.252837e-001 3.870906e+000 8.594628e-001 -8.260149e-001 -4.029852e-001 -1.170336e+000 -8.567950e-001 -4.283557e-001 -4.620822e-001 6.765826e-002 8.237643e-002 2.779745e-001 2.168579e-001 1.895704e-002 1.727051e+000
<VARIANCE> 39
 4.267469e+001 2.624199e+001 1.839897e+001 2.424063e+001 1.748951e+001 2.358552e+001 2.878102e+001 3.378833e+001 3.427114e+001 2.864782e+001 2.350056e+001 2.022462e+001 4.477026e+001 4.332559e+000 3.100601e+000 3.301301e+000 4.470737e+000 3.266553e+000 3.643067e+000 4.286823e+000 4.289906e+000 4.193610e+000 3.484697e+000 3.078116e+000 2.423818e+000 7.365358e+000 5.599367e-001 7.436606e-001 8.894624e-001 8.182489e-001 7.014679e-001 8.550816e-001 7.970015e-001 9.302874e-001 9.515188e-001 8.143111e-001 7.124609e-001 5.213960e-001 8.705213e-001
<GCONST> 1.285336e+002
<STATE> 4
<MEAN> 39
 -7.879748e+000 -6.944293e+000 -6.590743e+000 -1.014955e+001 -7.398330e+000 -5.816227e+000 -6.139890e+000 -2.937619e+000 -1.966781e+000 -3.297481e-001 -9.203790e-001 -1.571120e+000 5.653751e+001 2.257077e+000 -2.634758e+000 -9.662756e-001 -3.540565e+000 -2.350023e+000 -7.964432e-001 -1.024999e+000 6.397793e-001 4.231761e-001 7.156346e-001 4.027225e-001 4.332761e-002 4.880155e+000 2.381379e-001 4.283095e-001 2.613597e-001 2.400628e-001 1.227297e-001 3.598939e-001 -1.114716e-001 -1.571831e-001 -4.483596e-001 -2.264689e-001 -2.134578e-001 -2.272934e-001 -9.490521e-001
<VARIANCE> 39
 4.596563e+001 2.963096e+001 4.104879e+001 6.242910e+001 3.799669e+001 5.213626e+001 4.328329e+001 4.092999e+001 3.692651e+001 3.321202e+001 3.343428e+001 2.439084e+001 4.653625e+001 5.593539e+000 5.219312e+000 7.644453e+000 7.457902e+000 6.437167e+000 7.558898e+000 7.483999e+000 7.199405e+000 7.076936e+000 5.490793e+000 5.324485e+000 3.991603e+000 7.075946e+000 8.676659e-001 6.382391e-001 5.668696e-001 1.007804e+000 8.185644e-001 8.096502e-001 9.075932e-001 8.851914e-001 8.460808e-001 7.249495e-001 6.959374e-001 5.258816e-001 8.483508e-001
<GCONST> 1.399920e+002
<TRANSP> 5
 0.000000e+000 1.000000e+000 0.000000e+000 0.000000e+000 0.000000e+000
 0.000000e+000 6.770847e-001 3.229153e-001 0.000000e+000 0.000000e+000
 0.000000e+000 0.000000e+000 5.207580e-001 4.792420e-001 0.000000e+000
 0.000000e+000 0.000000e+000 0.000000e+000 4.964531e-001 5.035470e-001
 0.000000e+000 0.000000e+000 0.000000e+000 0.000000e+000 0.000000e+000
<ENDHMM>
~h "d"
<BEGINHMM>
<NUMSTATES> 5
<STATE> 2
<MEAN> 39
 -7.759288e+000 -4.802599e-001 1.025118e+000 -1.556751e+000 -8.401379e+000 -7.990421e+000 -7.475261e+000 -4.662388e+000 -5.695009e+000 -4.807273e+000 -5.999599e+000 -3.377635e+000 4.481309e+001 -1.154967e+000 1.715093e+000 2.320103e-001 1.371571e+000 1.803475e+000 1.125916e+000 4.828283e-001 -7.308194e-001 -1.972568e-001 -2.795924e-001 -3.875991e-001 -4.833453e-001 -2.508407e+000 -2.045954e-001 -8.749298e-001 -3.013554e-001 -8.549142e-001 -1.509874e-001 1.028951e-001 6.279807e-004 4.510956e-001 2.097554e-001 2.536002e-001 3.869860e-001 2.221305e-001 1.210402e+000
<VARIANCE> 39
 3.262289e+001 5.102422e+001 3.920149e+001 6.634216e+001 5.611395e+001 4.640680e+001 4.239276e+001 4.928593e+001 4.760712e+001 3.914839e+001 3.733463e+001 3.116733e+001 7.238776e+001 2.788449e+000 6.831476e+000 3.698370e+000 6.926222e+000 5.514166e+000 5.147533e+000 5.566359e+000 5.701254e+000 4.754377e+000 4.141564e+000 3.993834e+000 3.338946e+000 9.847557e+000 4.055891e-001 1.087680e+000 5.450177e-001 1.035649e+000 9.932924e-001 7.921313e-001 9.659303e-001 8.921570e-001 8.063705e-001 7.955400e-001 7.402978e-001 6.036351e-001 1.540210e+000
<GCONST> 1.395941e+002
<STATE> 3
<MEAN> 39
 -1.265733e+001 -5.779854e-001 -3.747579e-001 -1.266196e+000 -3.624468e+000 -3.439873e+000 -5.397892e+000 -4.389726e+000 -5.087048e+000 -3.638579e+000 -4.605039e+000 -3.237005e+000 4.164778e+001 -1.327891e+000 -2.006990e+000 -6.653615e-001 -1.934517e+000 4.553454e-002 5.052083e-001 4.346712e-001 8.620030e-001 7.182434e-001 6.308154e-001 9.957514e-001 7.239155e-001 2.720822e+000 3.970737e-001 -6.614858e-001 -8.966642e-002 -8.407727e-001 -9.128628e-001 -6.326638e-001 -2.920741e-001 3.346363e-001 1.363782e-001 1.790850e-001 1.872420e-001 2.070329e-001 1.617790e+000
<VARIANCE> 39
 4.273735e+001 4.638844e+001 3.583239e+001 4.675613e+001 4.076594e+001 3.834591e+001 3.770718e+001 3.885305e+001 3.718692e+001 3.022986e+001 2.879142e+001 2.327887e+001 8.087643e+001 3.950478e+000 5.436904e+000 3.859837e+000 5.746696e+000 4.932425e+000 5.288217e+000 4.971950e+000 5.093417e+000 4.765498e+000 3.853227e+000 3.496602e+000 2.800082e+000 1.134043e+001 6.458521e-001 1.043440e+000 6.943800e-001 9.938496e-001 9.509062e-001 9.315169e-001 9.697481e-001 9.447402e-001 8.799166e-001 7.341595e-001 7.454480e-001 6.023542e-001 1.473084e+000
<GCONST> 1.377174e+002
<STATE> 4
<MEAN> 39
 -1.405289e+001 -7.563883e+000 -2.372383e+000 -9.835395e+000 -8.164346e+000 -6.261356e+000 -5.268278e+000 -1.367123e+000 -2.612108e+000 -1.766481e+000 -2.063383e+000 -4.484394e-001 5.630636e+001 1.008046e+000 -1.133983e+000 -1.587636e-001 -1.523620e+000 -1.586474e+000 -1.314309e+000 -8.407564e-001 7.700874e-001 3.175545e-001 3.214825e-001 1.414895e-001 1.770583e-001 3.196640e+000 6.944328e-001 2.870315e-001 1.094005e-002 4.541341e-001 -1.033866e-001 -7.053888e-002 -2.323093e-001 -5.449886e-002 -2.038246e-001 -6.867950e-002 -2.361285e-001 -2.910839e-001 -7.558325e-001
<VARIANCE> 39
 5.505359e+001 4.330952e+001 4.594312e+001 4.829761e+001 5.330935e+001 5.296521e+001 5.226968e+001 4.366005e+001 4.050451e+001 3.009609e+001 2.879796e+001 2.393495e+001 6.569205e+001 7.231048e+000 4.703961e+000 4.378708e+000 6.134998e+000 6.382059e+000 6.348617e+000 6.773252e+000 5.683338e+000 5.350016e+000 4.146003e+000 4.557194e+000 3.407684e+000 1.156455e+001 9.068460e-001 9.362614e-001 8.467761e-001 1.018807e+000 1.263489e+000 1.421008e+000 1.111109e+000 1.012604e+000 9.374334e-001 7.876406e-001 8.101169e-001 6.496921e-001 1.408561e+000
<GCONST> 1.429126e+002
<TRANSP> 5
 0.000000e+000 1.000000e+000 0.000000e+000 0.000000e+000 0.000000e+000
 0.000000e+000 5.199558e-001 4.800442e-001 0.000000e+000 0.000000e+000
 0.000000e+000 0.000000e+000 4.069483e-001 5.930517e-001 0.000000e+000
 0.000000e+000 0.000000e+000 0.000000e+000 5.259680e-001 4.740320e-001
 0.000000e+000 0.000000e+000 0.000000e+000 0.000000e+000 0.000000e+000
<ENDHMM>
~h "f"
<BEGINHMM>
<NUMSTATES> 5
<STATE> 2
<MEAN> 39
 -1.669643e+001 -5.347070e+000 -6.690859e+000 -5.592299e+000 -3.478055e+000 -3.279602e+000 -2.251033e+000 -7.475981e-001 -1.990917e+000 -1.369785e+000 -2.770465e+000 -1.280424e+000 5.282093e+001 -3.973742e+000 -2.728719e-001 -3.143559e-001 8.850669e-001 5.341736e-001 4.426024e-001 7.304175e-001 5.940279e-001 7.285100e-001 3.536451e-001 4.330346e-001 6.156387e-001 -9.223360e-001 3.767996e-001 -4.502630e-001 -1.791999e-001 -4.891153e-001 -4.443841e-001 -2.277304e-001 -3.694367e-001 -5.308706e-002 -9.184231e-002 6.804407e-002 3.167027e-002 -5.120031e-002 3.266589e-001
<VARIANCE> 39
 5.201946e+001 1.832060e+001 1.985388e+001 2.284672e+001 1.941832e+001 2.633961e+001 2.308517e+001 2.289101e+001 2.240282e+001 2.198563e+001 1.904708e+001 1.613899e+001 3.725208e+001 5.240083e+000 3.638588e+000 4.423278e+000 5.060330e+000 3.877012e+000 4.586393e+000 4.455984e+000 3.999712e+000 3.974047e+000 3.551412e+000 3.534232e+000 2.663211e+000 3.116271e+000 1.005733e+000 5.909773e-001 5.677475e-001 6.786923e-001 6.083478e-001 5.958766e-001 6.737325e-001 6.528887e-001 6.189687e-001 5.729566e-001 5.152577e-001 4.497105e-001 4.893884e-001
<GCONST> 1.240240e+002
<STATE> 3
<MEAN> 39
 -2.375231e+001 -8.530137e+000 -9.399490e+000 -6.436988e+000 -4.900958e+000 -3.934077e+000 -3.025306e+000 -2.795500e-001 -1.026616e+000 -1.687969e-001 -1.752228e+000 -1.067306e-001 5.267299e+001 1.178685e-001 -1.715552e-001 -1.540049e-001 -1.217768e-001 -7.027687e-002 -6.125071e-002 -8.144922e-002 -5.673873e-002 3.302197e-002 7.128380e-002 2.719183e-002 -5.666499e-003 1.175812e-001 8.461794e-001 1.433557e-001 1.357968e-001 -1.096869e-001 -2.544903e-002 -5.967493e-002 -1.197667e-001 -9.526034e-002 -9.952883e-002 -7.940474e-002 -6.505077e-002 -1.111197e-001 1.154072e-001
<VARIANCE> 39
 1.121742e+001 1.323043e+001 1.093191e+001 1.220217e+001 1.275084e+001 1.384315e+001 1.475112e+001 1.419644e+001 1.409136e+001 1.401897e+001 1.333146e+001 1.181333e+001 2.868546e+001 2.489633e+000 1.008017e+000 1.148479e+000 1.239743e+000 1.345462e+000 1.436679e+000 1.541702e+000 1.589715e+000 1.573340e+000 1.519695e+000 1.460470e+000 1.324308e+000 1.540754e+000 5.127726e-001 2.462410e-001 2.940868e-001 3.539885e-001 3.494548e-001 3.889130e-001 4.252613e-001 3.972053e-001 3.886858e-001 3.579452e-001 3.594708e-001 3.132268e-001 3.063920e-001
<GCONST> 9.713744e+001
<STATE> 4
<MEAN> 39
 -1.639627e+001 -7.200779e+000 -7.995038e+000 -7.317991e+000 -4.855036e+000 -4.139747e+000 -3.161014e+000 -1.102265e+000 -1.400178e+000 -5.404409e-001 -2.096464e+000 -1.031021e+000 5.345835e+001 4.883876e+000 1.071145e-001 1.384896e-001 -1.509650e+000 -1.161649e+000 -5.970891e-001 -1.292139e+000 -5.317924e-001 -6.099815e-001 -4.439341e-001 -1.580426e-001 -5.551693e-001 1.104777e+000 4.820248e-001 -2.869170e-001 -1.148378e-001 -4.431949e-001 -4.197740e-001 -8.705270e-002 -4.038412e-001 5.015798e-002 -1.161954e-001 -5.776186e-002 6.772717e-002 -3.823752e-002 3.296646e-001
<VARIANCE> 39
 5.557321e+001 2.033416e+001 2.281350e+001 2.411345e+001 2.182352e+001 2.457297e+001 2.457640e+001 2.191431e+001 2.076909e+001 1.858172e+001 1.734802e+001 1.550343e+001 3.762984e+001 5.884507e+000 3.725039e+000 5.045318e+000 5.335606e+000 4.711834e+000 5.628648e+000 5.671916e+000 4.287036e+000 4.311262e+000 3.383075e+000 3.633938e+000 2.716472e+000 4.510388e+000 1.090468e+000 5.268886e-001 5.457886e-001 6.604818e-001 6.462504e-001 7.246581e-001 7.886694e-001 6.828885e-001 6.725934e-001 5.996922e-001 5.174567e-001 4.338634e-001 5.615783e-001
<GCONST> 1.261635e+002
<TRANSP> 5
 0.000000e+000 1.000000e+000 0.000000e+000 0.000000e+000 0.000000e+000
 0.000000e+000 5.713218e-001 4.286782e-001 0.000000e+000 0.000000e+000
 0.000000e+000 0.000000e+000 8.330023e-001 1.669977e-001 0.000000e+000
 0.000000e+000 0.000000e+000 0.000000e+000 5.681708e-001 4.318291e-001
 0.000000e+000 0.000000e+000 0.000000e+000 0.000000e+000 0.000000e+000
<ENDHMM>
~h "g"
<BEGINHMM>
<NUMSTATES> 5
<STATE> 2
<MEAN> 39
 -7.079345e+000 -1.016778e+000 1.723386e+000 -2.096311e+000 -1.174600e+001 -1.159944e+001 -5.627943e+000 -3.213808e+000 -1.181488e+001 -4.327442e+000 -1.608690e+000 -3.925498e+000 4.654104e+001 -1.045374e+000 1.797331e+000 -4.776560e-001 1.763842e+000 2.239613e+000 8.676732e-001 -1.652624e-001 -8.864591e-001 6.434330e-001 -6.273867e-001 -6.889663e-001 -5.563733e-002 -3.170746e+000 -1.742412e-001 -9.507487e-001 -7.054124e-001 -6.488881e-001 3.545780e-001 3.445800e-001 -5.248747e-002 2.389124e-001 7.296277e-001 4.221677e-001 -1.057356e-001 1.582753e-001 1.029800e+000
<VARIANCE> 39
 2.160356e+001 4.535510e+001 4.268846e+001 4.997332e+001 5.972642e+001 5.472765e+001 5.429603e+001 8.335971e+001 5.443243e+001 5.979943e+001 6.492318e+001 3.758985e+001 5.960658e+001 2.482745e+000 7.188848e+000 4.678632e+000 5.723188e+000 6.397581e+000 5.789463e+000 6.680175e+000 7.919046e+000 6.640722e+000 5.979345e+000 5.002363e+000 3.455427e+000 6.972691e+000 3.357483e-001 1.250136e+000 6.998511e-001 9.815087e-001 9.926611e-001 1.017258e+000 1.100244e+000 1.200872e+000 1.027340e+000 1.172187e+000 9.251221e-001 6.870590e-001 1.529827e+000
<GCONST> 1.441411e+002
<STATE> 3
<MEAN> 39
 -1.257741e+001 -1.889576e+000 -3.147131e+000 1.633971e-001 -2.374271e+000 -6.195537e+000 -5.783355e+000 -3.572321e+000 -5.772179e+000 -3.123828e+000 -3.617838e+000 -2.516338e+000 4.175295e+001 -6.526157e-001 -2.967317e+000 -2.532372e+000 -1.603342e+000 1.452642e+000 7.381402e-001 -2.224752e-001 6.157967e-001 1.663112e+000 1.376882e+000 -1.867705e-002 6.451628e-001 2.564361e+000 6.398252e-001 -5.037041e-001 1.906251e-002 -9.343319e-001 -9.159618e-001 -4.876282e-001 -1.775808e-001 8.240481e-002 -2.703051e-001 3.258909e-001 2.801388e-001 1.870466e-002 1.542224e+000
<VARIANCE> 39
 3.449182e+001 6.346919e+001 5.024773e+001 3.429737e+001 4.470871e+001 5.157140e+001 4.141878e+001 4.493176e+001 4.099944e+001 3.198915e+001 2.730604e+001 2.115910e+001 6.129674e+001 3.527003e+000 7.543538e+000 6.304356e+000 5.846591e+000 7.383632e+000 7.412401e+000 6.727535e+000 7.909510e+000 5.960064e+000 5.084908e+000 4.220350e+000 3.334626e+000 8.533241e+000 6.327736e-001 1.733919e+000 1.144846e+000 1.111589e+000 1.011937e+000 1.121793e+000 1.074746e+000 1.230134e+000 9.196224e-001 9.529710e-001 9.070355e-001 5.604020e-001 1.389412e+000
<GCONST> 1.430710e+002
<STATE> 4
<MEAN> 39
 -1.039311e+001 -9.444545e+000 -8.594933e+000 -7.871697e+000 -3.834216e+000 -7.819385e+000 -7.464338e+000 -2.893653e+000 -3.953001e+000 1.279524e+000 -2.559157e+000 -1.139362e+000 5.454020e+001 1.672351e+000 2.653035e-002 3.285359e-001 -1.525721e+000 -1.219481e+000 -8.208944e-001 -1.188233e+000 -1.685985e-001 -1.518849e-001 2.245425e-001 4.602214e-001 2.174813e-002 2.359442e+000 4.918945e-001 6.663699e-001 6.034763e-001 2.717730e-001 -4.812006e-001 -1.392701e-001 -1.331419e-001 2.718094e-002 -3.710834e-001 -4.993652e-001 9.496100e-002 -1.773645e-001 -5.618277e-001
<VARIANCE> 39
 3.257205e+001 5.556279e+001 8.654720e+001 5.099162e+001 7.639074e+001 6.653152e+001 6.093567e+001 5.743212e+001 5.047830e+001 4.145758e+001 3.726346e+001 2.540189e+001 3.553670e+001 4.321835e+000 6.472446e+000 5.981393e+000 7.364361e+000 6.270356e+000 6.472187e+000 6.035067e+000 5.584122e+000 5.845996e+000 5.649469e+000 4.373243e+000 3.127120e+000 5.744143e+000 6.482731e-001 1.642621e+000 1.515501e+000 1.019398e+000 1.308982e+000 1.219142e+000 1.248805e+000 1.265904e+000 1.255641e+000 1.085826e+000 8.344511e-001 6.752389e-001 7.979051e-001
<GCONST> 1.454664e+002
<TRANSP> 5
 0.000000e+000 1.000000e+000 0.000000e+000 0.000000e+000 0.000000e+000
 0.000000e+000 6.076887e-001 3.923113e-001 0.000000e+000 0.000000e+000
 0.000000e+000 0.000000e+000 5.383788e-001 4.616213e-001 0.000000e+000
 0.000000e+000 0.000000e+000 0.000000e+000 6.331478e-001 3.668522e-001
 0.000000e+000 0.000000e+000 0.000000e+000 0.000000e+000 0.000000e+000
<ENDHMM>
~h "k"
<BEGINHMM>
<NUMSTATES> 5
<STATE> 2
<MEAN> 39
 -1.295628e+001 -3.895711e+000 -2.283208e+000 -2.608094e+000 -6.105249e+000 -8.665241e+000 -4.331948e+000 -2.843852e-001 -6.641339e+000 -1.415759e+000 -1.703511e+000 -1.638293e+000 4.464635e+001 -2.591003e+000 9.776173e-001 -4.756508e-001 1.712377e+000 2.011913e+000 2.359683e+000 1.016052e+000 -5.691652e-001 1.185451e+000 4.761797e-001 1.937211e-001 4.303197e-001 -4.615857e+000 9.352086e-002 -7.728952e-001 -5.333002e-001 -7.037509e-001 -8.688609e-002 2.255746e-001 -2.501891e-002 2.341074e-001 4.187198e-001 1.484230e-001 -1.805897e-002 1.304262e-003 1.027012e+000
<VARIANCE> 39
 4.511603e+001 3.547895e+001 5.177873e+001 4.988935e+001 8.270190e+001 7.029266e+001 5.955781e+001 7.357761e+001 6.432999e+001 4.432008e+001 4.481481e+001 2.954770e+001 8.447947e+001 5.368474e+000 5.823015e+000 7.029596e+000 5.741130e+000 8.272028e+000 7.357530e+000 7.052482e+000 7.857929e+000 8.026155e+000 5.371960e+000 5.672792e+000 3.432107e+000 7.521574e+000 8.855330e-001 1.042274e+000 8.316451e-001 1.085934e+000 1.512611e+000 1.481423e+000 1.093037e+000 1.394767e+000 1.369436e+000 9.774415e-001 9.322963e-001 6.859830e-001 2.535058e+000
<GCONST> 1.493813e+002
<STATE> 3
<MEAN> 39
 -1.932680e+001 -5.297504e+000 -6.000663e+000 -1.377610e+000 -1.048000e+000 -1.016710e+000 -1.755713e+000 7.364839e-001 -8.179904e-001 1.182705e+000 -4.826071e-001 -7.702614e-002 3.633177e+001 1.858878e-001 -1.812791e+000 -1.274150e+000 -1.515766e+000 -2.647380e-001 2.690560e-002 4.141074e-002 1.098818e-001 1.923455e-001 5.453889e-001 -1.312279e-001 1.802492e-001 2.491610e+000 6.139918e-001 -1.746423e-001 1.101761e-001 -6.863434e-001 -5.922745e-001 -8.749237e-001 -3.577222e-001 -5.299203e-002 -4.759895e-001 -1.270466e-001 -1.642512e-001 -1.226565e-001 2.007023e+000
<VARIANCE> 39
 1.456594e+001 3.182648e+001 2.542712e+001 2.326722e+001 2.489524e+001 2.557490e+001 2.659312e+001 2.505946e+001 2.391655e+001 2.001837e+001 1.693539e+001 1.451620e+001 4.940573e+001 3.922568e+000 4.976586e+000 5.037881e+000 4.853649e+000 4.911286e+000 5.372054e+000 4.542441e+000 4.604443e+000 5.200319e+000 3.507565e+000 3.101139e+000 2.523345e+000 1.531921e+001 7.045263e-001 1.018702e+000 8.988128e-001 7.973365e-001 9.210311e-001 8.841745e-001 8.677990e-001 8.254026e-001 7.884663e-001 6.212761e-001 6.184367e-001 4.334307e-001 1.925971e+000
<GCONST> 1.303260e+002
<STATE> 4
<MEAN> 39
 -1.555774e+001 -1.016085e+001 -7.326237e+000 -9.934033e+000 -5.037467e+000 -5.305282e+000 -2.883647e+000 -4.711319e-001 -3.064854e+000 1.649859e+000 -2.452137e+000 -4.902214e-001 5.556355e+001 1.134144e+000 2.666625e-001 4.164133e-001 -7.486351e-001 -9.033278e-001 -7.582164e-001 -2.025328e-001 -8.279364e-002 -3.995174e-001 -5.240427e-001 -9.554543e-002 -2.534975e-001 1.985934e+000 2.125526e-001 3.700186e-001 2.796374e-001 3.025143e-001 -9.010271e-002 3.160919e-002 -9.570748e-002 2.541353e-002 -6.573707e-002 -2.507712e-001 9.165628e-002 -8.725934e-002 -6.156352e-001
<VARIANCE> 39
 3.363089e+001 3.871914e+001 7.427326e+001 4.396442e+001 5.983786e+001 5.015523e+001 5.087175e+001 4.645967e+001 4.148766e+001 3.576699e+001 3.093420e+001 2.340715e+001 4.498156e+001 5.538719e+000 4.504945e+000 3.895590e+000 5.020441e+000 4.438371e+000 4.790573e+000 4.712094e+000 4.549845e+000 4.647467e+000 3.832677e+000 3.397032e+000 2.624730e+000 9.047703e+000 7.807345e-001 1.239708e+000 1.001484e+000 9.624694e-001 9.106300e-001 9.151807e-001 9.594071e-001 8.801253e-001 9.159086e-001 7.729928e-001 6.715021e-001 5.457587e-001 1.617530e+000
<GCONST> 1.387021e+002
<TRANSP> 5
 0.000000e+000 1.000000e+000 0.000000e+000 0.000000e+000 0.000000e+000
 0.000000e+000 6.227928e-001 3.772072e-001 0.000000e+000 0.000000e+000
 0.000000e+000 0.000000e+000 6.245727e-001 3.754273e-001 0.000000e+000
 0.000000e+000 0.000000e+000 0.000000e+000 7.557018e-001 2.442982e-001
 0.000000e+000 0.000000e+000 0.000000e+000 0.000000e+000 0.000000e+000
<ENDHMM>
~h "l"
<BEGINHMM>
<NUMSTATES> 5
<STATE> 2
<MEAN> 39
 -1.258778e+000 -4.337974e+000 -1.078969e+001 -2.350092e+001 -8.372550e+000 1.240342e+000 -7.896576e+000 -7.646984e+000 -3.807700e+000 -4.176671e-001 -9.515180e-002 -2.715077e+000 5.961592e+001 6.162574e-001 4.410256e-001 -2.797669e-001 -1.291526e+000 3.967853e-002 7.664016e-001 -2.023493e-001 -5.329719e-001 -4.638929e-001 2.279583e-002 4.810565e-001 2.081880e-001 -2.468876e-002 -3.020766e-001 -3.425319e-001 9.328115e-002 5.420328e-001 6.405708e-002 -3.418336e-001 -2.993146e-002 3.922325e-001 2.361253e-001 3.251117e-002 -1.642557e-001 -7.236299e-002 5.519320e-002
<VARIANCE> 39
 1.236260e+001 5.122041e+001 4.735276e+001 6.893307e+001 6.024757e+001 7.079304e+001 7.432884e+001 6.357522e+001 6.500844e+001 6.108914e+001 6.092827e+001 4.263531e+001 2.985133e+001 1.745856e+000 3.038303e+000 2.101344e+000 4.511058e+000 3.387374e+000 4.317020e+000 4.483017e+000 4.369700e+000 4.095866e+000 4.134582e+000 3.461170e+000 3.134172e+000 2.013133e+000 3.196734e-001 4.557602e-001 3.535955e-001 6.523845e-001 6.512251e-001 6.797873e-001 7.247451e-001 8.224065e-001 8.750018e-001 8.054816e-001 6.626184e-001 6.203507e-001 2.354936e-001
<GCONST> 1.306612e+002
<STATE> 3
<MEAN> 39
 -1.177500e+000 -5.836778e+000 -1.097827e+001 -2.428432e+001 -6.638632e+000 1.510550e+000 -1.019188e+001 -7.415244e+000 -3.233870e+000 1.779950e+000 8.528357e-001 -3.875043e+000 6.053041e+001 -3.541037e-001 -1.108871e+000 1.995074e-001 1.308836e+000 2.899530e-001 -1.127554e+000 -8.882166e-001 8.493398e-001 1.311858e+000 5.824844e-001 -8.941096e-001 -9.287991e-001 5.323520e-001 -3.002513e-001 -1.376420e-001 3.538627e-001 6.943738e-001 -2.376224e-001 -5.179530e-001 2.387832e-001 5.229415e-001 1.237681e-001 -3.910818e-001 -4.136020e-001 1.156925e-001 -1.040476e-001
<VARIANCE> 39
 9.940527e+000 3.572895e+001 4.994822e+001 6.893225e+001 5.550059e+001 6.955077e+001 7.903880e+001 6.095713e+001 6.373753e+001 6.284518e+001 5.912528e+001 4.306390e+001 2.522684e+001 6.877863e-001 3.413000e+000 2.002466e+000 3.914395e+000 2.942661e+000 4.426315e+000 4.269741e+000 4.491334e+000 5.014016e+000 3.924129e+000 3.397481e+000 3.230651e+000 1.974749e+000 2.375785e-001 3.659355e-001 3.715898e-001 5.746789e-001 6.820896e-001 6.288207e-001 7.031233e-001 8.178665e-001 7.980357e-001 8.025445e-001 5.899799e-001 6.255426e-001 2.439261e-001
<GCONST> 1.280471e+002
<STATE> 4
<MEAN> 39
 -3.177935e+000 -8.952083e+000 -8.348743e+000 -1.725289e+001 -7.778568e+000 -5.995266e+000 -1.150012e+001 -2.016722e+000 4.633396e-001 1.229904e-001 -4.560920e+000 -4.363903e+000 6.112093e+001 -8.273546e-001 -5.662680e-001 1.694730e+000 1.996260e+000 -1.212736e+000 -1.863618e+000 5.658631e-001 1.702804e+000 -3.806946e-001 -1.243145e+000 -6.560926e-001 7.111598e-001 -6.213320e-002 -1.589953e-001 2.914805e-001 3.246853e-001 -4.200705e-002 -2.256954e-001 3.199331e-001 4.757006e-001 -2.701476e-001 -7.264996e-001 -1.947870e-001 4.273743e-001 2.699579e-001 -2.965193e-001
<VARIANCE> 39
 1.324346e+001 4.112615e+001 5.895234e+001 7.238391e+001 5.475405e+001 9.280835e+001 8.353235e+001 6.668286e+001 6.556314e+001 6.422524e+001 6.395903e+001 4.572623e+001 3.858368e+001 1.172555e+000 2.921599e+000 4.032651e+000 4.134418e+000 5.172131e+000 4.990415e+000 4.508768e+000 5.538775e+000 5.722424e+000 4.295211e+000 3.866228e+000 3.514977e+000 2.171516e+000 2.501592e-001 3.504742e-001 3.750582e-001 7.736909e-001 6.765240e-001 8.758796e-001 8.174848e-001 8.798452e-001 9.718530e-001 8.586128e-001 6.427022e-001 6.752661e-001 2.292481e-001
<GCONST> 1.335612e+002
<TRANSP> 5
 0.000000e+000 1.000000e+000 0.000000e+000 0.000000e+000 0.000000e+000
 0.000000e+000 6.971910e-001 3.028090e-001 0.000000e+000 0.000000e+000
 0.000000e+000 0.000000e+000 5.191952e-001 4.808048e-001 0.000000e+000
 0.000000e+000 0.000000e+000 0.000000e+000 4.932342e-001 5.067657e-001
 0.000000e+000 0.000000e+000 0.000000e+000 0.000000e+000 0.000000e+000
<ENDHMM>
~h "m"
<BEGINHMM>
<NUMSTATES> 5
<STATE> 2
<MEAN> 39
 -4.431552e+000 -3.812991e+000 -5.203311e+000 -5.066511e+000 -6.790607e+000 -7.110351e+000 -6.512086e+000 -7.711919e+000 -1.037871e+001 -2.142377e+000 -2.142743e+000 -5.806067e+000 5.128344e+001 3.386684e-001 1.363791e+000 9.341322e-001 1.647198e+000 1.274062e-001 -1.036799e+000 1.120614e-001 -2.154121e+000 -2.323829e+000 3.295666e-001 2.018973e-001 -8.003227e-001 -8.442718e-001 -2.306326e-001 -4.033109e-001 6.890704e-002 -3.524708e-001 -2.084126e-001 1.292175e-001 -7.629176e-002 4.848055e-001 4.326572e-001 -5.826334e-002 -7.973767e-002 1.763564e-001 4.581322e-001
<VARIANCE> 39
 2.149126e+001 3.257331e+001 3.510838e+001 5.243448e+001 4.673186e+001 5.911262e+001 6.309553e+001 6.289711e+001 6.980444e+001 5.356530e+001 6.774424e+001 4.476309e+001 3.837212e+001 4.438584e+000 2.766108e+000 3.682997e+000 3.987876e+000 4.862529e+000 4.247924e+000 5.919189e+000 5.315054e+000 5.858556e+000 4.808207e+000 4.979702e+000 3.762586e+000 4.708070e+000 3.443112e-001 4.132254e-001 5.980484e-001 6.047508e-001 6.178983e-001 6.241173e-001 7.550145e-001 7.917899e-001 9.755105e-001 6.755353e-001 6.931685e-001 5.460853e-001 3.421807e-001
<GCONST> 1.344417e+002
<STATE> 3
<MEAN> 39
 -4.028664e+000 -3.105435e+000 -3.051366e+000 -2.971744e+000 -7.812886e+000 -8.858997e+000 -7.115577e+000 -1.086746e+001 -1.374452e+001 -9.924708e-001 -2.302534e+000 -7.197404e+000 5.149417e+001 -1.876774e-002 -1.713330e-001 9.402172e-002 -1.998456e-001 -1.550166e-001 9.217747e-002 -1.229890e-001 1.661462e-001 3.029129e-001 -2.003193e-001 -1.300811e-001 1.347898e-001 3.581784e-001 -1.478217e-001 -4.562735e-001 -2.617601e-001 -6.950256e-001 -1.086099e-001 3.908232e-001 -1.295690e-002 8.251541e-001 8.480946e-001 -1.858021e-001 -8.242863e-002 3.306951e-001 3.818877e-001
<VARIANCE> 39
 8.219978e+000 2.290131e+001 3.064323e+001 4.825301e+001 5.007593e+001 6.894612e+001 6.558165e+001 6.665857e+001 6.116912e+001 6.227583e+001 8.644161e+001 5.425365e+001 1.940597e+001 1.256893e+000 2.056059e+000 1.642213e+000 2.351225e+000 2.331213e+000 2.244565e+000 2.679985e+000 3.052192e+000 3.699579e+000 2.603119e+000 2.574830e+000 2.168339e+000 2.479092e+000 3.563071e-001 2.961477e-001 5.175471e-001 5.160635e-001 6.102046e-001 5.796245e-001 6.976327e-001 7.439760e-001 8.749303e-001 7.046646e-001 7.528536e-001 6.099513e-001 2.437860e-001
<GCONST> 1.234195e+002
<STATE> 4
<MEAN> 39
 -4.500272e+000 -5.846933e+000 -4.970715e+000 -6.751539e+000 -8.220131e+000 -6.824374e+000 -7.516201e+000 -6.389067e+000 -7.999257e+000 -3.207045e+000 -3.179328e+000 -5.033979e+000 5.425723e+001 -3.224775e-001 -1.603280e+000 -3.278395e-001 -2.237157e+000 -9.127930e-001 1.015025e+000 -3.546668e-002 2.518492e+000 2.263887e+000 -6.316867e-001 -3.796521e-001 9.494501e-001 1.685704e+000 -2.524063e-001 -1.134897e-001 1.305622e-001 -2.632253e-001 -9.449501e-002 1.549776e-001 1.643760e-001 2.988862e-001 2.945607e-003 1.358182e-001 5.813587e-002 7.411583e-002 7.026625e-002
<VARIANCE> 39
 1.785267e+001 3.703399e+001 3.788755e+001 5.521601e+001 4.981600e+001 6.195472e+001 5.669199e+001 6.352236e+001 7.282672e+001 4.877951e+001 6.117191e+001 4.003632e+001 4.718840e+001 2.673733e+000 3.341900e+000 5.708447e+000 5.253702e+000 5.939434e+000 4.928819e+000 5.527484e+000 5.506667e+000 6.627799e+000 5.130442e+000 5.395864e+000 4.051043e+000 3.943166e+000 3.434066e-001 5.056870e-001 5.724778e-001 6.954602e-001 6.612973e-001 6.723785e-001 7.306271e-001 9.100411e-001 1.161724e+000 6.673071e-001 6.677830e-001 5.213462e-001 4.312720e-001
<GCONST> 1.361992e+002
<TRANSP> 5
 0.000000e+000 1.000000e+000 0.000000e+000 0.000000e+000 0.000000e+000
 0.000000e+000 4.572088e-001 5.427912e-001 0.000000e+000 0.000000e+000
 0.000000e+000 0.000000e+000 6.680202e-001 3.319797e-001 0.000000e+000
 0.000000e+000 0.000000e+000 0.000000e+000 4.318380e-001 5.681620e-001
 0.000000e+000 0.000000e+000 0.000000e+000 0.000000e+000 0.000000e+000
<ENDHMM>
~h "n"
<BEGINHMM>
<NUMSTATES> 5
<STATE> 2
<MEAN> 39
 -4.521624e+000 -7.195674e+000 -2.769386e+000 -9.154085e+000 -1.189498e+001 -7.811459e+000 -6.353845e+000 -2.745838e+000 -7.993390e+000 -2.994364e+000 -5.312737e+000 -4.434240e+000 5.586810e+001 1.844117e-001 1.620928e+000 5.380178e-002 1.540400e+000 1.020886e-001 -6.060817e-001 1.057372e+000 -2.571637e+000 -1.260502e+000 1.051661e+000 -6.755711e-001 -2.262359e-001 -1.793756e+000 -1.463262e-001 3.403462e-002 1.065900e-002 -6.207017e-002 -1.669784e-002 9.860790e-002 6.697235e-002 -7.977119e-002 8.946441e-002 4.016295e-002 1.298290e-002 1.071415e-001 2.845358e-002
<VARIANCE> 39
 1.090971e+001 3.546770e+001 4.533997e+001 6.623129e+001 5.540811e+001 5.490175e+001 5.890241e+001 8.348640e+001 8.087317e+001 6.160363e+001 6.155273e+001 4.767087e+001 3.106926e+001 1.227789e+000 2.555697e+000 3.851273e+000 3.526234e+000 4.312355e+000 4.613692e+000 4.763434e+000 6.865531e+000 5.691917e+000 4.422048e+000 3.855738e+000 3.322417e+000 2.204062e+000 2.005630e-001 3.224444e-001 4.058148e-001 4.984395e-001 5.579494e-001 5.536005e-001 6.304949e-001 1.042550e+000 7.473661e-001 6.342548e-001 5.509825e-001 4.608831e-001 2.877490e-001
<GCONST> 1.296003e+002
<STATE> 3
<MEAN> 39
 -4.083426e+000 -2.583066e+000 -2.708625e+000 -5.102823e+000 -1.230629e+001 -9.134317e+000 -2.484712e+000 -1.119819e+001 -1.113513e+001 8.574358e-001 -7.403372e+000 -4.425874e+000 5.143304e+001 -1.753171e-001 8.707701e-001 1.113112e-001 5.492600e-001 1.557028e-001 4.668234e-003 2.375292e-001 -9.026603e-001 -3.094208e-001 1.073837e-001 -2.120560e-001 4.572531e-002 -8.458098e-001 -3.202908e-001 -5.311095e-001 -1.785333e-002 -5.382881e-001 2.261051e-001 3.053193e-001 -5.225208e-001 1.150825e+000 6.106206e-001 -5.387666e-001 3.255904e-001 1.277597e-001 5.016968e-001
<VARIANCE> 39
 8.425164e+000 2.901718e+001 3.007693e+001 5.257634e+001 4.675946e+001 5.078506e+001 5.682384e+001 7.491714e+001 6.707379e+001 6.176223e+001 6.814828e+001 5.612948e+001 2.187859e+001 9.050176e-001 2.594364e+000 2.100815e+000 2.542561e+000 2.673272e+000 2.823175e+000 3.542209e+000 5.823598e+000 4.108200e+000 3.351774e+000 2.712362e+000 2.315316e+000 2.219300e+000 3.009968e-001 4.739884e-001 5.721884e-001 6.273251e-001 7.603703e-001 7.670978e-001 8.174984e-001 1.083268e+000 1.079679e+000 8.013952e-001 7.475691e-001 6.563922e-001 3.646115e-001
<GCONST> 1.276711e+002
<STATE> 4
<MEAN> 39
 -6.645681e+000 -3.290607e+000 -3.263547e+000 -5.937867e+000 -9.920691e+000 -7.287323e+000 -4.684126e+000 -6.643800e+000 -8.091602e+000 -2.102194e+000 -6.292842e+000 -3.736662e+000 5.010393e+001 -9.984285e-001 -5.878632e-001 -2.610172e-001 -7.709830e-001 8.349053e-001 7.185925e-001 -6.265433e-001 1.621983e+000 1.052504e+000 -6.464638e-001 5.620345e-001 2.410512e-001 3.837647e-001 -2.523783e-001 -3.948697e-001 -1.741806e-001 -3.874545e-001 6.018147e-002 2.019729e-001 -4.845669e-003 5.130640e-001 2.988480e-001 6.175044e-003 2.107931e-001 1.095327e-001 4.321512e-001
<VARIANCE> 39
 2.505745e+001 5.121015e+001 3.732664e+001 5.695951e+001 5.211636e+001 4.847321e+001 5.573083e+001 7.803075e+001 6.818137e+001 5.534703e+001 5.237141e+001 4.409157e+001 5.796016e+001 3.534986e+000 4.266524e+000 3.830730e+000 4.818731e+000 4.969028e+000 4.434667e+000 5.359282e+000 7.222977e+000 6.038130e+000 4.858895e+000 4.306145e+000 3.613595e+000 5.141995e+000 5.865353e-001 7.811508e-001 5.764420e-001 7.505103e-001 8.228307e-001 7.654970e-001 8.819118e-001 1.331925e+000 1.107810e+000 8.376336e-001 7.320067e-001 6.011775e-001 7.266695e-001
<GCONST> 1.397530e+002
<TRANSP> 5
 0.000000e+000 1.000000e+000 0.000000e+000 0.000000e+000 0.000000e+000
 0.000000e+000 4.715419e-001 5.284581e-001 0.000000e+000 0.000000e+000
 0.000000e+000 0.000000e+000 5.533496e-001 4.466504e-001 0.000000e+000
 0.000000e+000 0.000000e+000 0.000000e+000 5.000260e-001 4.999740e-001
 0.000000e+000 0.000000e+000 0.000000e+000 0.000000e+000 0.000000e+000
<ENDHMM>
~h "p"
<BEGINHMM>
<NUMSTATES> 5
<STATE> 2
<MEAN> 39
 -1.104131e+001 4.534939e-001 -3.938500e+000 -3.103505e+000 -3.046392e+000 -2.734610e+000 -5.004144e+000 -4.918984e+000 -5.695045e+000 -2.614948e+000 -2.757029e+000 -2.944872e+000 4.011565e+001 -3.256569e+000 9.476902e-001 3.154987e-001 2.143360e+000 1.492964e+000 1.385742e+000 1.546124e+000 6.956782e-001 8.847653e-001 2.815551e-001 9.863256e-002 5.512285e-001 -4.550316e+000 -1.550418e-001 -9.793711e-001 -2.607468e-001 -6.399476e-001 -3.904890e-001 -1.570618e-001 -6.378687e-003 5.106865e-001 4.534997e-001 3.718873e-001 2.245814e-001 1.569224e-001 1.222543e+000
<VARIANCE> 39
 4.601255e+001 2.535387e+001 2.751151e+001 4.204120e+001 2.697932e+001 2.985814e+001 3.241388e+001 3.288307e+001 3.649012e+001 3.051098e+001 2.979961e+001 2.334883e+001 5.443781e+001 5.405736e+000 6.302563e+000 5.547615e+000 6.906480e+000 4.750979e+000 5.359323e+000 5.008399e+000 5.448980e+000 5.868779e+000 4.868403e+000 4.547407e+000 3.298142e+000 9.549874e+000 1.037433e+000 7.770509e-001 7.608747e-001 1.082172e+000 8.439164e-001 8.060848e-001 8.230863e-001 8.600396e-001 8.658069e-001 7.639740e-001 7.096295e-001 5.634987e-001 1.641788e+000
<GCONST> 1.370728e+002
<STATE> 3
<MEAN> 39
 -1.940070e+001 -2.513193e+000 -5.284310e+000 -1.467999e+000 -1.530997e+000 3.767758e-002 -1.089775e+000 1.124545e-001 -2.398733e-001 1.009858e+000 2.917674e-002 4.181024e-002 3.368839e+001 -1.376791e-001 -1.106631e+000 -4.754195e-001 -5.505949e-001 -1.763629e-001 -2.310094e-001 1.906669e-001 4.954816e-001 6.554559e-001 3.873814e-001 2.889038e-001 2.784346e-001 1.948228e+000 8.039190e-001 -2.746677e-001 -5.492128e-002 -5.411335e-001 -2.735578e-001 -4.364526e-001 -3.620777e-001 -2.304073e-001 -2.525929e-001 -2.034155e-001 -1.759092e-001 -1.819335e-001 1.776500e+000
<VARIANCE> 39
 5.434412e+000 7.873695e+000 7.268265e+000 1.027936e+001 1.014256e+001 1.243401e+001 1.227296e+001 1.435998e+001 1.396242e+001 1.421065e+001 1.212710e+001 1.176278e+001 2.655992e+001 2.713980e+000 2.131075e+000 1.650751e+000 2.473241e+000 1.795291e+000 2.482354e+000 2.361423e+000 2.810447e+000 2.894301e+000 2.395430e+000 2.080101e+000 1.847196e+000 1.387131e+001 6.172738e-001 3.798930e-001 4.153048e-001 5.384535e-001 4.515877e-001 5.487357e-001 5.273320e-001 5.053853e-001 5.243587e-001 4.671420e-001 4.353512e-001 3.626804e-001 1.337334e+000
<GCONST> 1.071199e+002
<STATE> 4
<MEAN> 39
 -1.426699e+001 -9.011241e+000 -7.922562e+000 -7.610768e+000 -3.301809e+000 -3.288650e+000 -1.967089e+000 -3.547757e-001 -3.299827e-001 2.178483e-001 -1.304407e+000 -8.504884e-001 5.399611e+001 2.087955e+000 -7.491663e-001 -5.963759e-001 -1.394768e+000 -7.147507e-001 -6.152456e-001 -7.886644e-001 -3.203079e-001 -5.375678e-001 -4.881149e-001 -5.023135e-001 -3.816844e-001 2.685472e+000 3.887294e-001 3.295574e-001 3.046270e-002 -1.475684e-002 -2.006267e-001 1.518174e-002 -3.243614e-001 -1.162922e-001 -2.820489e-001 -1.502165e-001 -6.083106e-002 -8.610927e-002 -7.238135e-001
<VARIANCE> 39
 2.531443e+001 2.537970e+001 2.944463e+001 3.609245e+001 3.068391e+001 3.415279e+001 3.492865e+001 3.167321e+001 3.013209e+001 2.552568e+001 2.388811e+001 1.896994e+001 4.205568e+001 4.835155e+000 3.794733e+000 3.530002e+000 4.346298e+000 4.135853e+000 4.680305e+000 4.947170e+000 4.159179e+000 4.197669e+000 3.226908e+000 3.134949e+000 2.350404e+000 1.013336e+001 6.106455e-001 6.167590e-001 5.186175e-001 6.651731e-001 6.929189e-001 7.364767e-001 7.711459e-001 8.047992e-001 8.169683e-001 6.622887e-001 6.141761e-001 4.733592e-001 1.442832e+000
<GCONST> 1.294479e+002
<TRANSP> 5
 0.000000e+000 1.000000e+000 0.000000e+000 0.000000e+000 0.000000e+000
 0.000000e+000 5.614861e-001 4.385139e-001 0.000000e+000 0.000000e+000
 0.000000e+000 0.000000e+000 7.350915e-001 2.649085e-001 0.000000e+000
 0.000000e+000 0.000000e+000 0.000000e+000 7.419629e-001 2.580371e-001
 0.000000e+000 0.000000e+000 0.000000e+000 0.000000e+000 0.000000e+000
<ENDHMM>
~h "r"
<BEGINHMM>
<NUMSTATES> 5
<STATE> 2
<MEAN> 39
 2.111429e+000 -1.017266e+001 -1.406645e+001 -6.695386e+000 -4.433023e+000 -1.100393e+001 -1.641966e+001 1.225917e-001 -1.969384e+000 -3.292410e+000 -9.953028e-001 3.279693e-001 5.686855e+001 1.202141e+000 -2.125175e-001 -1.009903e+000 1.193912e-001 3.594357e-001 -4.375976e-001 -1.379565e+000 2.671783e-001 5.974817e-001 -1.190659e-001 -1.916141e-001 1.149369e-001 2.452471e-001 -4.966330e-001 -1.877074e-001 4.923300e-001 4.570866e-002 -3.769115e-001 3.263484e-002 4.641439e-001 2.284814e-001 -5.705531e-002 8.546771e-003 -1.329932e-004 -8.355609e-002 4.061815e-002
<VARIANCE> 39
 1.905602e+001 3.526999e+001 6.952115e+001 4.290231e+001 5.740169e+001 7.370352e+001 8.699139e+001 9.596738e+001 7.665883e+001 4.449799e+001 3.965893e+001 3.461025e+001 2.879627e+001 3.780341e+000 2.635068e+000 3.777493e+000 2.779439e+000 4.055268e+000 5.028731e+000 6.159720e+000 5.149921e+000 4.355847e+000 3.652505e+000 2.861190e+000 2.377827e+000 2.132682e+000 4.428326e-001 4.417245e-001 4.559992e-001 4.241995e-001 5.072832e-001 6.736596e-001 9.241505e-001 8.591239e-001 6.363889e-001 5.507812e-001 4.659351e-001 4.131157e-001 2.985255e-001
<GCONST> 1.303677e+002
<STATE> 3
<MEAN> 39
 2.644696e+000 -1.420254e+001 -1.400996e+001 -5.322746e+000 -5.642766e+000 -1.425567e+001 -1.933711e+001 5.746370e+000 1.160517e+000 -4.121890e+000 -2.137776e+000 -1.682549e-002 5.966870e+001 -4.426309e-001 -4.741524e-001 1.388240e+000 5.320703e-001 -1.220374e+000 -6.504817e-001 8.425478e-001 8.996394e-001 -3.783956e-001 -5.801561e-001 -1.146268e-001 -4.183768e-002 1.126790e-001 -6.129148e-001 2.686114e-001 6.645154e-001 -1.506740e-001 -2.906935e-001 4.593169e-001 9.623344e-001 -3.478120e-001 -5.411807e-001 5.186586e-002 1.550191e-001 -1.086195e-001 -2.585575e-001
<VARIANCE> 39
 1.175340e+001 2.603752e+001 6.951691e+001 4.670494e+001 6.713551e+001 7.934770e+001 1.146629e+002 8.575864e+001 9.163931e+001 5.242097e+001 4.352643e+001 3.534845e+001 2.176348e+001 1.453929e+000 3.118540e+000 3.192009e+000 2.740809e+000 4.058834e+000 4.138216e+000 5.015803e+000 5.990750e+000 4.022869e+000 3.402986e+000 3.210921e+000 2.373123e+000 3.003027e+000 3.910542e-001 2.880626e-001 3.705234e-001 4.321263e-001 5.545733e-001 6.591739e-001 8.744723e-001 7.103093e-001 6.391851e-001 5.603929e-001 4.480875e-001 4.017494e-001 2.459894e-001
<GCONST> 1.281662e+002
<STATE> 4
<MEAN> 39
 -6.763694e-001 -1.404651e+001 -8.934126e+000 -4.454875e+000 -9.186642e+000 -1.436065e+001 -1.169411e+001 6.188906e+000 -2.689966e+000 -5.288763e+000 -2.253633e+000 -4.218487e-001 5.814484e+001 -1.458724e+000 5.255399e-001 2.186145e+000 -1.888485e-001 -1.093411e+000 9.072042e-001 2.107111e+000 -8.244725e-001 -1.273136e+000 1.164891e-001 1.394564e-001 -4.393609e-001 -7.189471e-001 -3.510264e-001 3.839668e-001 5.088609e-002 -3.237229e-001 2.535051e-001 5.437760e-001 1.076447e-001 -5.465267e-001 -5.749313e-003 3.023698e-001 -1.922196e-002 -1.497195e-001 -2.517006e-001
<VARIANCE> 39
 1.846648e+001 3.641824e+001 6.982803e+001 5.872230e+001 8.411539e+001 9.524985e+001 1.061363e+002 8.020370e+001 9.986699e+001 5.970441e+001 5.292576e+001 3.840752e+001 4.917133e+001 1.948812e+000 3.800075e+000 3.559503e+000 4.347587e+000 5.103564e+000 4.027118e+000 5.532472e+000 5.464242e+000 4.566627e+000 3.693860e+000 3.589731e+000 2.844885e+000 4.694141e+000 4.013725e-001 4.039568e-001 4.038983e-001 5.274396e-001 6.759011e-001 9.100685e-001 9.300414e-001 8.342128e-001 7.088291e-001 6.311071e-001 5.760608e-001 4.875533e-001 3.032105e-001
<GCONST> 1.352465e+002
<TRANSP> 5
 0.000000e+000 1.000000e+000 0.000000e+000 0.000000e+000 0.000000e+000
 0.000000e+000 5.879951e-001 4.120049e-001 0.000000e+000 0.000000e+000
 0.000000e+000 0.000000e+000 4.894023e-001 5.105977e-001 0.000000e+000
 0.000000e+000 0.000000e+000 0.000000e+000 4.236460e-001 5.763540e-001
 0.000000e+000 0.000000e+000 0.000000e+000 0.000000e+000 0.000000e+000
<ENDHMM>
~h "s"
<BEGINHMM>
<NUMSTATES> 5
<STATE> 2
<MEAN> 39
 -2.246315e+001 8.024660e-002 -5.428533e+000 -8.071737e+000 -2.245190e+000 -7.258232e+000 -1.839513e+000 1.464315e-001 -2.283847e+000 -1.755999e+000 -2.791214e+000 -4.863332e-001 5.803503e+001 -4.572266e+000 1.419013e+000 -9.587173e-001 2.578826e-001 1.838822e+000 1.002355e+000 1.433192e+000 8.704619e-001 4.932989e-001 3.085420e-001 8.409465e-001 7.059130e-001 8.600190e-002 5.793092e-001 -5.147354e-001 -6.590376e-002 -1.559668e-001 -3.919946e-001 4.697245e-002 -3.737443e-001 -4.837057e-003 -8.820303e-002 8.546357e-002 -1.288843e-002 -9.302025e-002 -1.559768e-002
<VARIANCE> 39
 6.573257e+001 2.866763e+001 4.425940e+001 3.331073e+001 4.304434e+001 4.064313e+001 3.918485e+001 3.835151e+001 3.129123e+001 2.895716e+001 2.500388e+001 1.999304e+001 2.315306e+001 4.485761e+000 3.997127e+000 4.514767e+000 4.888434e+000 4.298128e+000 4.801890e+000 4.757565e+000 4.264469e+000 4.173696e+000 3.933147e+000 3.809472e+000 2.788328e+000 2.080000e+000 1.146174e+000 6.003608e-001 6.460129e-001 6.835344e-001 7.253349e-001 7.920155e-001 7.782947e-001 7.521751e-001 6.220046e-001 6.495579e-001 5.916130e-001 4.836970e-001 4.181859e-001
<GCONST> 1.300636e+002
<STATE> 3
<MEAN> 39
 -3.016609e+001 1.445609e+000 -9.311899e+000 -7.867054e+000 -2.076618e-002 -5.169906e+000 -1.964020e-001 1.590458e+000 -1.558375e+000 -2.788011e-001 -1.183030e+000 7.639458e-001 5.818271e+001 -4.444933e-002 -1.192162e-001 1.908202e-002 -1.199914e-001 7.458698e-003 1.335336e-003 -8.895571e-002 4.028425e-002 5.284005e-002 5.152284e-002 -8.319314e-003 -1.764509e-002 -5.150649e-002 6.870310e-001 -2.350248e-001 2.720438e-001 -2.292852e-002 -2.191357e-001 -1.467741e-001 -2.211983e-001 -1.372624e-001 -3.829852e-002 -6.576953e-002 -1.125438e-001 -1.139640e-001 -1.708177e-001
<VARIANCE> 39
 8.541821e+000 2.081897e+001 3.047410e+001 3.802295e+001 3.469270e+001 3.160618e+001 2.853842e+001 2.515170e+001 1.957125e+001 1.704912e+001 1.618155e+001 1.333336e+001 1.674952e+001 1.429697e+000 1.355789e+000 1.366565e+000 1.383218e+000 1.557272e+000 1.766931e+000 1.639672e+000 1.648606e+000 1.562809e+000 1.518705e+000 1.361720e+000 1.243853e+000 8.337041e-001 4.174103e-001 2.478556e-001 2.875968e-001 3.346316e-001 3.614345e-001 4.080675e-001 4.046177e-001 3.785817e-001 3.637308e-001 3.452170e-001 3.219401e-001 2.796322e-001 2.200113e-001
<GCONST> 1.016101e+002
<STATE> 4
<MEAN> 39
 -2.454998e+001 -2.177927e+000 -5.818135e+000 -8.924112e+000 -1.190707e+000 -5.682355e+000 -2.664680e+000 1.171290e+000 -1.036309e+000 -5.918859e-001 -1.928309e+000 -3.736428e-001 5.478542e+001 3.414297e+000 -1.198853e+000 9.646758e-001 1.680477e-001 -1.226327e+000 -1.805332e-001 -1.280549e+000 -7.703314e-001 -1.920740e-001 -8.959112e-002 -3.309652e-001 -5.600813e-001 -1.381875e+000 5.636401e-001 -1.666654e-001 -6.357076e-002 6.013355e-002 -3.316977e-001 5.568862e-002 -1.760990e-001 -1.401653e-001 -1.500632e-001 2.189535e-002 1.352896e-002 -7.001429e-002 -1.026699e-001
<VARIANCE> 39
 4.517419e+001 3.008004e+001 3.829786e+001 3.313142e+001 4.073945e+001 4.218847e+001 4.012572e+001 3.349351e+001 2.866959e+001 2.421933e+001 2.239227e+001 1.917527e+001 5.518151e+001 5.821646e+000 2.997151e+000 3.933892e+000 4.844756e+000 4.764308e+000 5.619828e+000 5.234074e+000 3.979267e+000 3.785916e+000 3.012117e+000 3.253081e+000 2.490693e+000 6.887086e+000 7.880622e-001 5.717580e-001 5.959811e-001 6.889516e-001 7.186090e-001 8.090292e-001 9.319741e-001 7.028216e-001 6.428508e-001 5.746645e-001 5.746793e-001 4.458033e-001 1.083757e+000
<GCONST> 1.309624e+002
<TRANSP> 5
 0.000000e+000 1.000000e+000 0.000000e+000 0.000000e+000 0.000000e+000
 0.000000e+000 6.275628e-001 3.724373e-001 0.000000e+000 0.000000e+000
 0.000000e+000 0.000000e+000 8.370719e-001 1.629281e-001 0.000000e+000
 0.000000e+000 0.000000e+000 0.000000e+000 6.454594e-001 3.545407e-001
 0.000000e+000 0.000000e+000 0.000000e+000 0.000000e+000 0.000000e+000
<ENDHMM>
~h "t"
<BEGINHMM>
<NUMSTATES> 5
<STATE> 2
<MEAN> 39
 -1.147297e+001 -3.631439e+000 -2.863201e+000 -5.235888e+000 -8.254180e+000 -6.959465e+000 -6.439703e+000 -3.291952e+000 -3.507987e+000 -1.762801e+000 -3.838544e+000 -2.750192e+000 4.633353e+001 -1.746104e+000 7.646515e-001 -8.363395e-002 1.382529e+000 1.467315e+000 1.043782e+000 8.358172e-001 4.815092e-002 3.910624e-001 1.084315e-001 3.795125e-001 3.432623e-001 -2.914396e+000 -3.940951e-002 -5.605088e-001 -2.057947e-001 -5.637960e-001 -8.750445e-002 1.524375e-001 1.191042e-001 3.516893e-001 3.535920e-002 1.100907e-001 2.054201e-001 1.227079e-001 9.032971e-001
<VARIANCE> 39
 6.102084e+001 5.356642e+001 5.880954e+001 6.297356e+001 6.616912e+001 5.347832e+001 5.192070e+001 5.637574e+001 6.346573e+001 4.817340e+001 4.343365e+001 3.676479e+001 9.893567e+001 5.600339e+000 6.329404e+000 5.660552e+000 7.281259e+000 7.021286e+000 6.934923e+000 6.212228e+000 7.126101e+000 6.424319e+000 5.077371e+000 5.156959e+000 3.850596e+000 1.112929e+001 6.195677e-001 9.215822e-001 7.338409e-001 1.215105e+000 1.213520e+000 1.039053e+000 9.891369e-001 1.096957e+000 1.048184e+000 9.536003e-001 8.603649e-001 6.708928e-001 2.007615e+000
<GCONST> 1.477662e+002
<STATE> 3
<MEAN> 39
 -1.756270e+001 -5.202435e+000 -4.258009e+000 -4.474162e+000 -3.952722e+000 -2.204093e+000 -2.934656e+000 -7.346476e-001 -1.400684e+000 -6.758981e-002 -9.826416e-001 -6.682221e-001 4.206755e+001 -5.781679e-001 -1.041134e+000 -3.392053e-001 -1.119237e+000 -1.460477e-001 -1.966305e-002 3.971407e-001 5.795312e-001 2.538411e-001 2.186346e-001 4.818699e-001 5.313418e-001 2.050996e+000 4.479019e-001 -3.827606e-002 8.351914e-002 -5.312681e-001 -5.385665e-001 -5.688521e-001 -2.561686e-001 -4.338700e-002 -2.646155e-001 -1.460223e-001 -1.958389e-001 -9.249453e-002 1.395590e+000
<VARIANCE> 39
 4.910439e+001 4.196044e+001 3.133105e+001 4.582093e+001 4.317993e+001 3.842271e+001 3.507805e+001 3.102116e+001 3.136526e+001 2.743621e+001 2.440368e+001 2.050466e+001 1.322325e+002 3.997664e+000 4.110625e+000 3.512789e+000 5.997031e+000 4.210135e+000 4.548820e+000 4.068514e+000 4.415689e+000 4.135338e+000 3.512566e+000 3.169855e+000 2.620912e+000 1.523008e+001 7.175470e-001 9.177589e-001 7.802162e-001 1.176303e+000 1.004266e+000 9.188191e-001 8.187307e-001 9.170130e-001 8.120679e-001 7.171617e-001 6.981698e-001 5.328910e-001 2.651299e+000
<GCONST> 1.366203e+002
<STATE> 4
<MEAN> 39
 -1.764678e+001 -7.087592e+000 -4.768978e+000 -8.626555e+000 -6.513437e+000 -5.899905e+000 -2.145185e+000 1.703535e-001 -1.957786e+000 -9.901371e-001 -1.689414e+000 3.645503e-002 5.344016e+001 1.329435e+000 -2.645963e-001 2.082511e-001 -2.996466e-001 -8.025736e-001 -8.464239e-001 -4.964103e-001 5.862684e-002 -3.767739e-001 -3.758869e-001 -4.296327e-001 -2.042128e-001 1.362141e+000 5.494349e-001 1.187723e-002 5.700161e-002 1.639896e-001 -1.013129e-001 4.406617e-002 -3.136333e-001 -8.690774e-002 -1.061404e-001 -2.340973e-002 -6.264587e-002 -1.743308e-001 -4.424297e-001
<VARIANCE> 39
 5.977222e+001 3.626987e+001 3.879930e+001 4.487120e+001 4.320121e+001 3.926428e+001 4.477921e+001 3.781926e+001 3.413689e+001 3.001403e+001 2.790900e+001 2.264408e+001 1.045069e+002 6.319406e+000 2.989741e+000 3.580807e+000 4.635518e+000 4.407124e+000 4.622781e+000 4.881398e+000 4.129435e+000 3.766839e+000 3.280741e+000 3.280158e+000 2.572184e+000 9.282909e+000 7.876114e-001 6.164248e-001 6.418653e-001 9.422848e-001 7.571425e-001 7.743937e-001 8.383763e-001 7.837581e-001 6.822069e-001 6.220706e-001 6.283832e-001 5.024744e-001 1.709661e+000
<GCONST> 1.347100e+002
<TRANSP> 5
 0.000000e+000 1.000000e+000 0.000000e+000 0.000000e+000 0.000000e+000
 0.000000e+000 4.548273e-001 5.451727e-001 0.000000e+000 0.000000e+000
 0.000000e+000 0.000000e+000 4.853642e-001 5.146358e-001 0.000000e+000
 0.000000e+000 0.000000e+000 0.000000e+000 6.369886e-001 3.630114e-001
 0.000000e+000 0.000000e+000 0.000000e+000 0.000000e+000 0.000000e+000
<ENDHMM>
~h "v"
<BEGINHMM>
<NUMSTATES> 5
<STATE> 2
<MEAN> 39
 -2.871051e+000 -7.100015e+000 -7.935698e+000 -9.148912e+000 -7.692256e+000 -7.455532e+000 -1.133777e+001 -4.993066e+000 -2.968582e+000 -3.482741e-001 -1.203900e+000 -3.595900e+000 5.580366e+001 -1.460245e+000 2.156640e+000 -1.699411e-001 1.305301e+000 1.486557e+000 6.956192e-001 6.810079e-001 -1.292845e+000 -6.978182e-001 -4.014099e-001 1.990898e-002 2.271719e-001 -2.080176e+000 -5.839974e-001 -4.464242e-002 3.222921e-001 3.955369e-003 -9.778302e-002 1.182371e-001 3.617851e-001 3.605131e-001 -1.444074e-003 -1.511495e-001 -2.467591e-001 4.341936e-002 9.601084e-002
<VARIANCE> 39
 2.660655e+001 2.730615e+001 3.846239e+001 4.121236e+001 2.845007e+001 4.961487e+001 4.582962e+001 4.069340e+001 3.994134e+001 3.977514e+001 4.544007e+001 3.136493e+001 2.891981e+001 3.078309e+000 2.929812e+000 3.311583e+000 3.934915e+000 3.499007e+000 4.076785e+000 4.785734e+000 5.008485e+000 4.122684e+000 3.655827e+000 3.437462e+000 2.777133e+000 2.735664e+000 4.242951e-001 3.884248e-001 3.690967e-001 4.347383e-001 4.760174e-001 4.553446e-001 5.568174e-001 5.536291e-001 5.209745e-001 4.985702e-001 4.731235e-001 4.325165e-001 3.180323e-001
<GCONST> 1.245725e+002
<STATE> 3
<MEAN> 39
 -7.735130e+000 -2.189343e+000 -6.636815e+000 -6.242077e+000 -5.105514e+000 -5.757545e+000 -8.986960e+000 -6.990408e+000 -5.658337e+000 -2.272531e+000 -2.435420e+000 -3.004266e+000 5.131185e+001 -2.293025e+000 1.165323e+000 5.373809e-001 1.152842e+000 9.587004e-001 6.913326e-001 1.120749e+000 5.177082e-002 -2.553516e-001 -5.838192e-001 -4.854712e-001 1.390706e-001 -1.262757e+000 1.992438e-001 -8.223581e-001 4.160554e-002 -4.526317e-001 -4.668556e-001 -2.040502e-001 -6.153018e-002 6.280733e-001 3.521320e-001 1.870535e-001 -1.233697e-003 1.165091e-002 7.665862e-001
<VARIANCE> 39
 3.175269e+001 1.970133e+001 2.758144e+001 2.843377e+001 2.080154e+001 3.220554e+001 2.941722e+001 2.777978e+001 2.746647e+001 2.812950e+001 3.008019e+001 2.267322e+001 3.190021e+001 4.054076e+000 2.461823e+000 2.584003e+000 3.248854e+000 2.529297e+000 3.542784e+000 3.607714e+000 3.278908e+000 2.867807e+000 2.862446e+000 2.712456e+000 2.054137e+000 2.523292e+000 5.523251e-001 4.376781e-001 5.287066e-001 5.410919e-001 5.559574e-001 5.650527e-001 7.490347e-001 6.909783e-001 6.361923e-001 5.894266e-001 5.201399e-001 4.350234e-001 4.509747e-001
<GCONST> 1.207202e+002
<STATE> 4
<MEAN> 39
 -1.303322e+001 -3.568856e+000 -6.356055e+000 -5.585454e+000 -4.621563e+000 -4.819489e+000 -5.684419e+000 -3.605815e+000 -3.803355e+000 -2.227870e+000 -3.045281e+000 -2.231437e+000 5.105453e+001 4.907545e-001 -8.970764e-001 -2.989855e-001 -7.864256e-001 -5.592341e-001 -4.310521e-001 -4.778263e-002 6.601868e-001 4.238797e-001 2.692613e-001 1.334051e-001 1.027688e-001 1.049916e+000 8.568306e-001 -4.302127e-001 -1.015617e-001 -4.966705e-001 -3.940011e-001 -2.458365e-001 -3.618486e-001 1.103139e-001 1.809664e-002 1.212097e-001 1.020675e-001 -3.852289e-002 4.784200e-001
<VARIANCE> 39
 5.715923e+001 2.626654e+001 2.948663e+001 3.151402e+001 2.341015e+001 3.089063e+001 3.364472e+001 2.974638e+001 2.767846e+001 2.494484e+001 2.328609e+001 1.870496e+001 4.734213e+001 8.070458e+000 3.107717e+000 3.005846e+000 4.139865e+000 3.420824e+000 3.799268e+000 4.463722e+000 3.567810e+000 3.173480e+000 2.656798e+000 2.555706e+000 2.068135e+000 4.509023e+000 9.672838e-001 6.645931e-001 6.228880e-001 7.672379e-001 6.506624e-001 7.766153e-001 8.441372e-001 7.683966e-001 7.054815e-001 6.010298e-001 5.613036e-001 4.217155e-001 7.012162e-001
<GCONST> 1.272187e+002
<TRANSP> 5
 0.000000e+000 1.000000e+000 0.000000e+000 0.000000e+000 0.000000e+000
 0.000000e+000 3.656505e-001 6.343495e-001 0.000000e+000 0.000000e+000
 0.000000e+000 0.000000e+000 3.986005e-001 6.013995e-001 0.000000e+000
 0.000000e+000 0.000000e+000 0.000000e+000 6.382110e-001 3.617890e-001
 0.000000e+000 0.000000e+000 0.000000e+000 0.000000e+000 0.000000e+000
<ENDHMM>
~h "w"
<BEGINHMM>
<NUMSTATES> 5
<STATE> 2
<MEAN> 39
 -6.782797e+000 -4.885596e+000 -9.563505e+000 -9.967278e+000 -5.539267e+000 -2.351863e+000 -6.934217e+000 -4.686677e+000 -6.975245e+000 -9.513669e-001 -7.785804e-001 -1.961310e+000 4.888384e+001 2.507246e+000 1.860213e+000 -5.188717e-001 -1.970598e+000 -1.209952e+000 9.675877e-001 6.921996e-001 -5.896131e-001 -1.408136e+000 -8.106278e-001 9.726778e-002 2.286984e-001 -5.726917e-001 2.164587e-002 -9.439096e-003 3.904888e-001 -4.052559e-001 -7.179575e-001 -2.178410e-001 1.026798e-001 3.976134e-001 4.998263e-002 -1.627458e-001 -1.109048e-001 1.922384e-003 5.650781e-001
<VARIANCE> 39
 5.799523e+001 4.952938e+001 2.829790e+001 4.778278e+001 4.159144e+001 3.775234e+001 5.330413e+001 4.115960e+001 5.955196e+001 3.696257e+001 3.874220e+001 2.611640e+001 4.814647e+001 5.173498e+000 3.426862e+000 4.464055e+000 4.799618e+000 5.594792e+000 5.015957e+000 5.792027e+000 4.849480e+000 4.633770e+000 4.015011e+000 3.334841e+000 2.801293e+000 4.997459e+000 4.867652e-001 8.694158e-001 6.544219e-001 7.952585e-001 9.099250e-001 7.823531e-001 1.098394e+000 8.724767e-001 8.689024e-001 8.787683e-001 6.299903e-001 5.321255e-001 5.463820e-001
<GCONST> 1.359064e+002
<STATE> 3
<MEAN> 39
 2.279399e+000 1.216915e+000 -9.043451e+000 -1.967829e+001 -1.559737e+001 -1.908843e+000 -4.812073e+000 -3.250406e+000 -1.014935e+001 -4.768248e+000 -1.798325e+000 -1.962848e+000 5.142857e+001 8.704989e-001 -3.777893e-001 -2.190688e-001 -1.661183e+000 -1.093696e+000 4.910757e-001 -6.732079e-002 1.481088e-001 9.389452e-002 2.265694e-001 3.641842e-001 9.887928e-002 1.201283e+000 -4.962492e-001 -7.509253e-001 -4.280756e-002 3.946666e-001 5.535556e-001 -5.313255e-004 -3.241441e-001 -7.267321e-004 3.694137e-001 4.556594e-001 1.867907e-001 -4.898500e-002 3.097828e-001
<VARIANCE> 39
 6.998984e+000 2.408075e+001 2.646496e+001 4.169703e+001 4.352757e+001 4.282250e+001 3.650709e+001 4.270131e+001 4.991788e+001 3.846459e+001 3.974738e+001 2.674957e+001 1.808352e+001 2.144011e+000 3.267025e+000 2.108145e+000 3.981072e+000 4.692308e+000 3.826433e+000 4.645978e+000 3.872939e+000 4.289609e+000 4.318393e+000 3.869954e+000 2.599217e+000 3.049686e+000 4.183298e-001 3.136394e-001 3.614103e-001 5.960267e-001 6.025388e-001 7.481974e-001 6.829262e-001 6.915572e-001 8.460540e-001 6.115341e-001 5.708112e-001 5.128686e-001 2.077852e-001
<GCONST> 1.237397e+002
<STATE> 4
<MEAN> 39
 1.397244e+000 -7.298801e+000 -1.063626e+001 -2.008172e+001 -1.156814e+001 1.700487e-001 -9.923184e+000 -4.409544e+000 -7.606811e+000 1.272125e+000 1.478638e+000 -2.688299e+000 5.869402e+001 -4.553829e-001 -1.906125e+000 2.176527e-001 7.662520e-001 6.354744e-001 -9.464543e-001 -1.236104e+000 7.288327e-001 1.565136e+000 9.616470e-001 -3.141063e-001 -6.985638e-001 1.546098e+000 -3.822726e-001 1.606868e-001 3.091293e-001 4.938108e-001 -2.720671e-002 -4.547819e-001 3.548265e-001 4.027123e-001 2.416020e-001 -4.326529e-001 -4.805874e-001 -2.694973e-002 -3.077597e-001
<VARIANCE> 39
 8.915995e+000 3.677852e+001 4.342026e+001 7.268433e+001 6.856356e+001 7.948134e+001 8.254160e+001 6.521268e+001 7.072178e+001 8.659296e+001 8.483358e+001 4.340752e+001 2.195497e+001 7.134740e-001 1.811860e+000 2.742443e+000 4.382937e+000 4.148537e+000 6.273828e+000 5.200991e+000 4.896018e+000 4.152119e+000 4.909471e+000 4.469194e+000 3.343761e+000 1.088137e+000 2.803699e-001 3.557255e-001 3.889030e-001 6.283360e-001 8.810218e-001 8.474121e-001 9.797632e-001 8.372139e-001 9.837712e-001 1.057348e+000 8.421192e-001 7.373695e-001 1.953918e-001
<GCONST> 1.315103e+002
<TRANSP> 5
 0.000000e+000 1.000000e+000 0.000000e+000 0.000000e+000 0.000000e+000
 0.000000e+000 6.205866e-001 3.794133e-001 0.000000e+000 0.000000e+000
 0.000000e+000 0.000000e+000 7.062858e-001 2.937142e-001 0.000000e+000
 0.000000e+000 0.000000e+000 0.000000e+000 5.808911e-001 4.191089e-001
 0.000000e+000 0.000000e+000 0.000000e+000 0.000000e+000 0.000000e+000
<ENDHMM>
~h "y"
<BEGINHMM>
<NUMSTATES> 5
<STATE> 2
<MEAN> 39
 -1.095520e+001 -1.812295e+000 1.265950e+001 -1.323130e+001 -1.527518e+001 -6.832971e+000 -1.051787e+001 -6.232228e+000 -1.192908e+001 -3.425133e+000 -4.062391e+000 -2.487394e+000 5.528609e+001 3.558261e-001 -5.209254e-002 1.114592e+000 -1.520607e-001 -1.027005e+000 -7.759921e-002 -1.717284e-001 -2.533165e-001 -7.382737e-001 -1.247733e-001 2.179386e-001 -5.849594e-002 3.784808e-001 1.882815e-001 -2.989599e-001 -5.860925e-001 1.063097e-001 1.460225e-001 -1.821160e-001 3.188607e-002 2.355759e-001 2.376617e-001 1.514145e-001 9.582754e-002 1.898277e-002 6.937513e-002
<VARIANCE> 39
 1.801073e+001 3.627859e+001 3.488416e+001 7.894678e+001 4.210757e+001 4.654817e+001 4.298296e+001 5.953366e+001 4.091129e+001 5.109670e+001 5.256489e+001 3.036584e+001 2.566669e+001 3.414915e+000 2.677243e+000 3.568058e+000 2.562313e+000 4.375799e+000 4.934252e+000 3.423215e+000 3.113086e+000 3.809978e+000 3.244553e+000 2.163759e+000 1.804504e+000 2.222714e+000 2.980251e-001 2.595618e-001 4.395430e-001 5.250733e-001 7.319463e-001 6.613728e-001 5.685540e-001 6.346340e-001 5.742602e-001 4.975174e-001 3.805251e-001 3.346446e-001 2.332437e-001
<GCONST> 1.237740e+002
<STATE> 3
<MEAN> 39
 -7.745991e+000 -7.990075e+000 1.261577e+001 -9.377955e+000 -2.121097e+001 -9.630279e+000 -8.747941e+000 -3.186189e+000 -1.333185e+001 -3.635540e+000 9.512737e-001 -2.551323e+000 5.916235e+001 9.275299e-001 -1.061870e+000 -9.983172e-001 7.585466e-001 -3.912244e-001 -1.583037e+000 9.581131e-002 1.209449e+000 -1.985185e-001 -1.391603e-001 7.771184e-001 2.545417e-001 4.841616e-001 4.573012e-003 1.349806e-002 -4.378539e-001 5.670080e-002 4.744711e-001 -6.058921e-002 -1.740598e-001 2.584381e-001 3.474118e-001 -1.224108e-001 -9.291071e-002 1.220901e-001 -1.420570e-001
<VARIANCE> 39
 1.134322e+001 2.382262e+001 4.253397e+001 6.561558e+001 2.957477e+001 5.351942e+001 4.962941e+001 5.163765e+001 4.686755e+001 7.234749e+001 4.519454e+001 2.885708e+001 1.641427e+001 1.522913e+000 1.067531e+000 1.524370e+000 1.417367e+000 1.654845e+000 2.725955e+000 2.942621e+000 2.813779e+000 1.988611e+000 2.089308e+000 1.517228e+000 1.355031e+000 5.607675e-001 1.874652e-001 1.415473e-001 2.881571e-001 2.239814e-001 3.975151e-001 3.756130e-001 4.092336e-001 3.220584e-001 4.313615e-001 3.625129e-001 2.769518e-001 2.196456e-001 8.522147e-002
<GCONST> 1.075543e+002
<STATE> 4
<MEAN> 39
 -2.933397e+000 -1.278089e+001 1.759736e+000 -4.751727e+000 -1.643223e+001 -1.800942e+001 -1.103584e+001 6.211159e+000 -8.220553e+000 -6.492871e+000 2.168491e+000 9.526795e-001 5.949495e+001 8.790745e-001 -4.333968e-001 -2.090285e+000 4.651087e-001 1.388982e+000 -7.278991e-001 -1.152978e+000 1.112366e+000 1.492109e+000 -3.720637e-001 -5.155714e-001 3.685566e-001 -1.164595e-001 -1.554314e-001 2.461734e-001 -4.296676e-002 -1.752917e-001 2.690483e-001 4.797891e-001 -5.046181e-002 -4.019759e-001 2.185898e-001 1.915771e-001 -2.567704e-001 -1.670563e-001 -1.746986e-001
<VARIANCE> 39
 1.573150e+001 2.678091e+001 7.165638e+001 4.981803e+001 4.923083e+001 6.216411e+001 8.447041e+001 6.231098e+001 7.576501e+001 5.701548e+001 3.989164e+001 3.292645e+001 1.983497e+001 9.896498e-001 1.170272e+000 1.918713e+000 1.363189e+000 1.818565e+000 2.480498e+000 2.839728e+000 2.960762e+000 2.647745e+000 2.333522e+000 1.734410e+000 1.566082e+000 4.986690e-001 1.664843e-001 1.471568e-001 2.791779e-001 2.471339e-001 3.904536e-001 4.378417e-001 4.369582e-001 3.906525e-001 4.588808e-001 3.899965e-001 3.017417e-001 2.429448e-001 8.120864e-002
<GCONST> 1.111415e+002
<TRANSP> 5
 0.000000e+000 1.000000e+000 0.000000e+000 0.000000e+000 0.000000e+000
 0.000000e+000 7.620526e-001 2.379474e-001 0.000000e+000 0.000000e+000
 0.000000e+000 0.000000e+000 7.324993e-001 2.675007e-001 0.000000e+000
 0.000000e+000 0.000000e+000 0.000000e+000 6.824810e-001 3.175191e-001
 0.000000e+000 0.000000e+000 0.000000e+000 0.000000e+000 0.000000e+000
<ENDHMM>
~h "z"
<BEGINHMM>
<NUMSTATES> 5
<STATE> 2
<MEAN> 39
 -1.688297e+001 3.133945e+000 -2.815598e+000 -8.472578e+000 -3.916107e+000 -1.118025e+001 -7.799345e+000 -4.035682e+000 -3.700011e+000 -2.672454e+000 -4.395122e+000 -1.197250e+000 5.673092e+001 -4.520935e+000 1.853734e+000 -7.277212e-001 3.722021e-001 2.410721e+000 1.220073e+000 1.621673e+000 8.968004e-001 5.298047e-001 8.040287e-002 5.315459e-001 3.400626e-001 -2.630984e-001 8.715948e-002 -7.392809e-001 -1.341226e-001 -9.364513e-002 -2.704101e-001 3.906225e-001 1.836219e-001 3.922232e-001 3.983561e-002 1.875661e-001 1.559083e-001 4.776041e-003 5.887523e-002
<VARIANCE> 39
 5.335347e+001 3.541202e+001 4.493714e+001 4.154967e+001 5.311115e+001 5.203152e+001 4.685184e+001 3.796878e+001 3.382933e+001 3.597155e+001 2.535129e+001 2.371677e+001 2.461093e+001 3.236444e+000 4.761564e+000 3.717565e+000 5.421173e+000 3.796998e+000 5.691670e+000 4.653497e+000 4.780782e+000 3.966322e+000 3.730912e+000 3.434601e+000 3.160901e+000 1.570438e+000 1.067626e+000 7.060730e-001 5.262835e-001 6.599050e-001 7.913687e-001 8.290724e-001 7.533038e-001 7.152361e-001 5.812055e-001 6.393757e-001 5.130017e-001 4.969431e-001 1.951834e-001
<GCONST> 1.299415e+002
<STATE> 3
<MEAN> 39
 -2.881874e+001 2.316802e+000 -7.340541e+000 -8.561474e+000 8.437769e-001 -5.640896e+000 -1.347470e+000 1.136836e+000 -1.598938e+000 -7.468352e-001 -1.799219e+000 1.504902e-001 5.599728e+001 -3.022310e-001 -6.870446e-001 -3.378960e-001 -2.460261e-001 -8.678497e-002 1.762572e-001 1.928633e-001 3.684874e-001 2.720918e-001 2.278690e-001 1.643283e-001 4.907346e-002 1.487227e-001 1.144533e+000 -3.142616e-001 2.577431e-001 -6.043042e-002 -4.919505e-001 -3.561783e-001 -4.943234e-001 -3.314948e-001 -1.151195e-001 -6.819548e-002 -1.599821e-001 -1.294361e-001 -8.966012e-002
<VARIANCE> 39
 1.516286e+001 2.523743e+001 4.422588e+001 4.225764e+001 3.754123e+001 3.545094e+001 3.851963e+001 2.993059e+001 2.123045e+001 1.981463e+001 1.828888e+001 1.470813e+001 1.609231e+001 4.396145e+000 1.683850e+000 1.978590e+000 1.769107e+000 2.254056e+000 3.045434e+000 2.815805e+000 2.351929e+000 2.098602e+000 1.932155e+000 1.715449e+000 1.517267e+000 8.978279e-001 6.960182e-001 4.086162e-001 3.921636e-001 4.990352e-001 5.278242e-001 6.321364e-001 5.848562e-001 5.333341e-001 4.622024e-001 4.292766e-001 4.028654e-001 3.535013e-001 2.495772e-001
<GCONST> 1.130307e+002
<STATE> 4
<MEAN> 39
 -2.084187e+001 -3.185231e+000 -6.170602e+000 -8.678600e+000 -2.350119e+000 -5.830256e+000 -4.249417e+000 8.031318e-002 -9.101996e-001 -7.477561e-001 -2.157187e+000 -7.244456e-001 5.070693e+001 2.409183e+000 -1.006139e+000 1.129395e-001 2.588907e-001 -8.043373e-001 -5.139057e-003 -5.533710e-001 -5.073442e-001 -1.239725e-001 2.795700e-002 -1.851354e-001 -2.671961e-001 -1.212144e+000 2.206861e-001 3.407227e-002 -3.604808e-002 5.919444e-002 -7.943632e-002 7.379191e-002 1.571042e-002 -5.097986e-002 -1.269200e-001 -2.014327e-002 -1.043018e-002 -1.909842e-002 -5.865362e-002
<VARIANCE> 39
 4.642097e+001 3.522699e+001 4.002432e+001 3.785347e+001 4.118991e+001 5.014496e+001 4.731208e+001 3.550058e+001 3.074172e+001 3.015839e+001 2.513820e+001 2.104615e+001 8.515150e+001 5.849323e+000 3.376273e+000 3.206989e+000 4.138397e+000 4.404087e+000 4.927241e+000 4.828091e+000 3.907421e+000 3.392116e+000 3.082642e+000 2.851663e+000 2.335659e+000 5.837238e+000 8.075193e-001 5.338385e-001 4.969239e-001 6.135926e-001 6.509268e-001 8.042881e-001 7.549043e-001 6.930162e-001 6.320655e-001 5.721169e-001 5.073186e-001 4.312351e-001 9.046862e-001
<GCONST> 1.306368e+002
<TRANSP> 5
 0.000000e+000 1.000000e+000 0.000000e+000 0.000000e+000 0.000000e+000
 0.000000e+000 6.625122e-001 3.374878e-001 0.000000e+000 0.000000e+000
 0.000000e+000 0.000000e+000 7.752182e-001 2.247818e-001 0.000000e+000
 0.000000e+000 0.000000e+000 0.000000e+000 7.125728e-001 2.874273e-001
 0.000000e+000 0.000000e+000 0.000000e+000 0.000000e+000 0.000000e+000
<ENDHMM>
~h "aa"
<BEGINHMM>
<NUMSTATES> 5
<STATE> 2
<MEAN> 39
 -1.877113e+000 -1.470627e+001 -1.205998e+001 -1.515620e+001 -8.584005e+000 -3.069859e+000 -7.890766e+000 9.856227e-001 -9.774765e-001 -6.660797e-001 -2.919181e+000 -5.747416e+000 6.400167e+001 1.513167e+000 -1.669491e+000 -1.811661e+000 -1.165703e+000 5.589060e-001 1.326004e+000 9.905123e-002 2.120668e-001 1.861084e-001 -8.197667e-002 7.222819e-002 -8.570476e-001 1.211353e+000 -6.271871e-001 3.106067e-001 2.170687e-001 4.108322e-001 3.961852e-001 1.386184e-001 3.406848e-001 -2.592347e-001 -1.749570e-001 -1.000981e-001 9.933293e-002 2.920908e-001 -5.228644e-001
<VARIANCE> 39
 1.821547e+001 3.410510e+001 4.640293e+001 5.558052e+001 5.823320e+001 8.755603e+001 8.249265e+001 7.783970e+001 6.809334e+001 5.648550e+001 7.325780e+001 4.132707e+001 3.215705e+001 3.446007e+000 2.455905e+000 3.137354e+000 3.805458e+000 4.935347e+000 4.842659e+000 5.872840e+000 5.701227e+000 4.745511e+000 4.069773e+000 4.228983e+000 3.730733e+000 2.025556e+000 4.818552e-001 4.195857e-001 4.311662e-001 6.136941e-001 7.366846e-001 9.143776e-001 1.039416e+000 9.899951e-001 7.945556e-001 7.320934e-001 7.512806e-001 5.766010e-001 4.749624e-001
<GCONST> 1.353173e+002
<STATE> 3
<MEAN> 39
 -1.348244e-001 -1.711927e+001 -1.678470e+001 -1.688821e+001 -4.272310e+000 1.285297e+000 -5.738860e+000 -9.399293e-001 -1.267008e+000 -2.278567e+000 -1.973558e+000 -5.975908e+000 6.518385e+001 9.712210e-002 -1.090499e-001 -3.277804e-001 2.431573e-001 3.687904e-001 -2.486891e-001 -1.843452e-001 1.784519e-001 1.543559e-001 -1.818714e-001 -7.680021e-002 3.877538e-002 -4.632942e-002 -5.496577e-002 2.017873e-001 1.849108e-001 1.371465e-001 -1.491226e-001 -3.193086e-001 -1.519687e-001 1.118780e-001 1.865621e-002 3.083477e-002 -6.286305e-002 6.561700e-002 -1.585904e-001
<VARIANCE> 39
 1.337883e+001 3.285880e+001 3.614655e+001 5.609007e+001 5.709318e+001 8.812550e+001 8.539808e+001 9.173342e+001 7.741399e+001 5.465060e+001 6.710709e+001 4.438388e+001 2.084768e+001 2.955942e-001 7.152719e-001 9.691271e-001 1.387257e+000 1.484939e+000 2.195978e+000 2.287591e+000 2.118599e+000 1.673518e+000 1.542062e+000 1.485795e+000 1.352521e+000 2.634866e-001 6.731930e-002 1.258520e-001 1.471950e-001 2.038007e-001 2.330789e-001 2.613473e-001 3.391475e-001 3.109375e-001 2.951367e-001 2.786171e-001 2.550601e-001 2.469644e-001 6.787552e-002
<GCONST> 1.027900e+002
<STATE> 4
<MEAN> 39
 -5.832309e-001 -1.610126e+001 -1.549819e+001 -1.504357e+001 -5.311209e+000 -3.106905e+000 -7.441617e+000 1.267939e+000 -3.360054e-002 -1.772589e+000 -3.767215e+000 -6.151270e+000 6.387990e+001 -2.503915e-001 1.531085e+000 1.010344e+000 1.245273e+000 -5.039871e-001 -1.765512e+000 -7.722692e-001 4.568355e-001 -1.456021e-001 1.787468e-001 -2.225625e-001 5.676257e-001 -1.742611e+000 -4.110282e-001 5.632313e-001 4.614304e-001 4.716441e-001 1.085887e-001 -1.019729e-002 3.888584e-002 -3.364236e-001 -2.433725e-001 -2.057100e-002 7.764736e-002 1.933256e-001 -7.297181e-001
<VARIANCE> 39
 1.545864e+001 3.485818e+001 4.444258e+001 5.404321e+001 5.630251e+001 9.607901e+001 9.709646e+001 8.979584e+001 7.483756e+001 5.790263e+001 6.614675e+001 4.929425e+001 2.642561e+001 1.176409e+000 2.998087e+000 2.526357e+000 3.329633e+000 3.487496e+000 3.498997e+000 4.645985e+000 4.283945e+000 3.850529e+000 3.456124e+000 3.321156e+000 2.921214e+000 2.995936e+000 3.502555e-001 3.843541e-001 3.171833e-001 5.266963e-001 5.591758e-001 6.839959e-001 6.861209e-001 7.136173e-001 6.141540e-001 6.189911e-001 5.621011e-001 5.004391e-001 4.445500e-001
<GCONST> 1.294823e+002
<TRANSP> 5
 0.000000e+000 1.000000e+000 0.000000e+000 0.000000e+000 0.000000e+000
 0.000000e+000 6.417674e-001 3.582326e-001 0.000000e+000 0.000000e+000
 0.000000e+000 0.000000e+000 8.605757e-001 1.394243e-001 0.000000e+000
 0.000000e+000 0.000000e+000 0.000000e+000 5.652470e-001 4.347530e-001
 0.000000e+000 0.000000e+000 0.000000e+000 0.000000e+000 0.000000e+000
<ENDHMM>
~h "ae"
<BEGINHMM>
<NUMSTATES> 5
<STATE> 2
<MEAN> 39
 -5.109431e+000 -1.552263e+001 -2.438894e+000 -1.413340e+001 -1.639996e+001 -8.853538e+000 -3.463782e+000 5.375782e+000 -3.763419e+000 -2.349301e+000 -4.205241e+000 -3.912790e+000 6.520432e+001 9.494983e-002 -9.007046e-001 -2.186013e-001 -2.834770e-001 5.814604e-002 3.119674e-001 4.345405e-001 6.492299e-001 1.424106e-001 -4.319464e-001 -2.330303e-001 -1.068974e-001 6.390060e-001 -1.427172e-001 3.122682e-001 -1.399010e-001 2.702298e-001 3.499727e-001 6.435116e-002 -6.867499e-002 -2.404373e-001 1.413216e-002 -1.290837e-002 6.631300e-003 9.454320e-002 -3.598100e-001
<VARIANCE> 39
 1.634214e+001 3.401849e+001 5.100941e+001 5.609639e+001 5.071532e+001 6.221134e+001 7.791859e+001 6.874523e+001 8.234431e+001 4.682512e+001 5.360272e+001 3.501412e+001 2.384479e+001 7.743925e-001 1.335721e+000 1.649660e+000 1.621420e+000 1.879730e+000 2.181398e+000 2.813071e+000 2.621630e+000 2.161404e+000 1.816030e+000 1.807672e+000 1.511388e+000 8.080625e-001 2.273796e-001 2.506200e-001 2.260953e-001 2.732473e-001 3.449866e-001 3.719967e-001 4.728935e-001 4.275565e-001 3.824769e-001 3.524608e-001 3.425482e-001 2.701660e-001 1.876578e-001
<GCONST> 1.127943e+002
<STATE> 3
<MEAN> 39
 -4.262351e+000 -1.725282e+001 -7.403903e+000 -1.230205e+001 -1.237012e+001 -7.723459e+000 -1.807778e+000 5.055750e+000 -1.810855e+000 -5.437663e+000 -5.964708e+000 -3.556903e+000 6.556950e+001 8.359884e-002 1.459899e-001 -2.709260e-001 1.402322e-001 2.815391e-001 -8.999147e-002 -2.247580e-001 -5.629822e-002 6.711755e-002 -2.561692e-002 -8.144195e-002 2.978407e-002 -2.055499e-001 -6.647645e-003 2.493905e-001 7.570253e-002 6.392697e-002 -1.816928e-002 -1.043201e-001 -1.318374e-001 -1.355246e-001 -6.691546e-002 1.506629e-001 6.356075e-002 -8.499979e-003 -2.180686e-001
<VARIANCE> 39
 1.422273e+001 2.998102e+001 4.431040e+001 4.257343e+001 5.290595e+001 6.525546e+001 7.760581e+001 6.616711e+001 8.711757e+001 4.332311e+001 4.520209e+001 4.394612e+001 2.508262e+001 2.976707e-001 6.387767e-001 1.177752e+000 8.970267e-001 1.419387e+000 1.335490e+000 1.557065e+000 1.502743e+000 1.461420e+000 1.335701e+000 1.258385e+000 1.058962e+000 2.617323e-001 6.353289e-002 1.503519e-001 1.549235e-001 1.752993e-001 2.179964e-001 2.255145e-001 2.691507e-001 2.948736e-001 2.637055e-001 2.284586e-001 2.219266e-001 1.932628e-001 9.513804e-002
<GCONST> 9.840382e+001
<STATE> 4
<MEAN> 39
 -4.174315e+000 -1.446712e+001 -5.866722e+000 -1.234621e+001 -1.299661e+001 -9.884691e+000 -5.116551e+000 4.554389e+000 -2.266466e+000 -3.275611e+000 -5.310951e+000 -3.740664e+000 6.340265e+001 -3.447903e-001 2.183217e+000 4.899936e-001 1.167519e+000 5.790581e-001 -4.456868e-001 -7.229616e-001 -1.073969e+000 -5.756045e-001 4.772342e-001 3.733192e-001 1.525459e-001 -2.286296e+000 -5.141726e-001 6.523503e-001 1.723005e-001 4.927061e-001 3.832855e-001 2.778211e-001 2.242273e-001 -4.606012e-001 -2.206050e-001 -7.723520e-003 9.452360e-002 5.097512e-002 -7.844334e-001
<VARIANCE> 39
 1.398667e+001 3.136095e+001 6.133626e+001 4.745956e+001 6.047443e+001 6.536490e+001 8.305644e+001 6.855495e+001 7.949622e+001 5.563271e+001 6.140731e+001 4.474886e+001 3.213219e+001 1.914873e+000 3.113631e+000 3.105365e+000 2.986414e+000 3.811959e+000 3.697706e+000 4.362733e+000 4.547803e+000 4.779898e+000 3.766121e+000 3.510874e+000 2.961551e+000 3.049767e+000 4.494083e-001 3.815283e-001 4.326642e-001 4.978031e-001 6.295174e-001 6.920511e-001 7.669900e-001 7.958025e-001 7.796659e-001 7.579057e-001 7.241298e-001 5.381782e-001 4.287229e-001
<GCONST> 1.315041e+002
<TRANSP> 5
 0.000000e+000 1.000000e+000 0.000000e+000 0.000000e+000 0.000000e+000
 0.000000e+000 6.691754e-001 3.308245e-001 0.000000e+000 0.000000e+000
 0.000000e+000 0.000000e+000 8.143236e-001 1.856764e-001 0.000000e+000
 0.000000e+000 0.000000e+000 0.000000e+000 5.636441e-001 4.363559e-001
 0.000000e+000 0.000000e+000 0.000000e+000 0.000000e+000 0.000000e+000
<ENDHMM>
~h "ah"
<BEGINHMM>
<NUMSTATES> 5
<STATE> 2
<MEAN> 39
 -3.348992e+000 -1.218180e+001 -8.982202e+000 -1.492340e+001 -9.254154e+000 -4.978243e+000 -1.030554e+001 -1.906723e-001 -5.276106e-001 -3.791119e-001 -4.019885e+000 -4.949942e+000 6.296254e+001 1.745141e+000 -1.949038e+000 -6.900049e-001 -1.648172e+000 -3.606561e-001 8.105164e-001 -1.044469e+000 5.356714e-001 9.721473e-001 1.944491e-001 -5.868876e-001 -1.053432e+000 1.700999e+000 -7.540922e-001 3.627651e-001 1.166495e-001 4.614289e-001 3.935524e-001 1.308650e-001 4.783633e-001 -1.203779e-001 -1.819599e-001 -5.112414e-002 8.502946e-002 1.775475e-001 -5.680832e-001
<VARIANCE> 39
 1.881833e+001 3.262788e+001 5.063133e+001 5.137046e+001 5.823864e+001 8.631606e+001 6.793227e+001 6.440357e+001 6.059187e+001 6.310160e+001 7.432094e+001 4.252037e+001 3.327186e+001 4.701520e+000 3.087326e+000 3.226188e+000 4.223388e+000 5.314496e+000 5.699517e+000 5.843966e+000 5.738548e+000 5.607412e+000 4.710609e+000 4.904786e+000 3.697534e+000 2.666522e+000 6.489561e-001 4.991085e-001 5.198032e-001 6.948687e-001 7.530130e-001 9.875712e-001 9.590625e-001 8.896388e-001 8.043621e-001 7.429458e-001 8.021952e-001 5.999176e-001 5.841061e-001
<GCONST> 1.376577e+002
<STATE> 3
<MEAN> 39
 -2.545633e+000 -1.535943e+001 -1.070971e+001 -1.693874e+001 -7.048794e+000 -2.302782e+000 -1.015317e+001 8.326755e-001 1.174650e+000 -9.017571e-001 -5.393259e+000 -6.526711e+000 6.531062e+001 1.686155e-003 1.904291e-001 5.511032e-002 5.343054e-002 1.299579e-001 -1.283266e-001 -4.615105e-002 -1.074200e-001 -4.133774e-003 -1.549702e-002 -6.104745e-002 -3.684956e-002 -2.202812e-001 -1.958946e-001 5.596155e-001 2.531447e-001 3.990043e-001 -5.207071e-002 -2.931517e-001 1.165505e-001 -2.427658e-001 -3.513176e-001 -1.204278e-003 1.358497e-001 2.177759e-001 -5.255870e-001
<VARIANCE> 39
 1.117561e+001 2.592834e+001 3.698080e+001 4.761119e+001 5.497309e+001 8.345868e+001 6.971397e+001 5.941744e+001 6.529525e+001 7.047135e+001 6.948940e+001 5.153411e+001 2.294651e+001 5.019718e-001 1.266178e+000 1.515762e+000 1.713709e+000 1.939742e+000 2.884776e+000 2.193710e+000 2.607965e+000 2.216355e+000 2.093408e+000 2.242341e+000 1.997906e+000 7.768439e-001 2.152140e-001 2.823146e-001 2.350736e-001 3.736281e-001 4.195854e-001 4.609172e-001 5.660265e-001 5.407487e-001 4.940187e-001 4.490940e-001 4.350763e-001 4.197575e-001 2.279090e-001
<GCONST> 1.153350e+002
<STATE> 4
<MEAN> 39
 -2.358398e+000 -1.111837e+001 -8.843759e+000 -1.473634e+001 -8.315647e+000 -5.570635e+000 -1.088244e+001 -1.342436e+000 -9.422597e-001 -9.970364e-002 -3.721514e+000 -5.052854e+000 6.117025e+001 -1.050568e+000 2.681494e+000 1.323768e+000 2.149011e+000 2.815044e-001 -6.622815e-001 6.607828e-001 -1.360690e+000 -1.639124e+000 -3.888254e-001 2.393234e-001 7.066340e-001 -2.940908e+000 -6.822916e-001 4.118942e-001 2.124805e-001 5.151042e-001 2.583584e-001 2.336727e-001 4.557269e-001 -1.743174e-001 -2.394379e-001 -1.453693e-001 -7.972507e-002 8.144359e-002 -5.615546e-001
<VARIANCE> 39
 1.399447e+001 3.226181e+001 4.440290e+001 5.360726e+001 4.903181e+001 8.321777e+001 6.686469e+001 6.951755e+001 6.522172e+001 7.341071e+001 7.664415e+001 4.770592e+001 3.377390e+001 2.692055e+000 2.844563e+000 2.807203e+000 4.177788e+000 4.560982e+000 4.996469e+000 5.442918e+000 5.455464e+000 5.215009e+000 5.078077e+000 4.549639e+000 3.957993e+000 4.015049e+000 5.054678e-001 5.327025e-001 4.531770e-001 6.997492e-001 6.224584e-001 8.890166e-001 7.487574e-001 1.039691e+000 7.635532e-001 8.447570e-001 8.139818e-001 6.120096e-001 6.321812e-001
<GCONST> 1.361963e+002
<TRANSP> 5
 0.000000e+000 1.000000e+000 0.000000e+000 0.000000e+000 0.000000e+000
 0.000000e+000 4.744496e-001 5.255504e-001 0.000000e+000 0.000000e+000
 0.000000e+000 0.000000e+000 7.706787e-001 2.293213e-001 0.000000e+000
 0.000000e+000 0.000000e+000 0.000000e+000 4.971491e-001 5.028509e-001
 0.000000e+000 0.000000e+000 0.000000e+000 0.000000e+000 0.000000e+000
<ENDHMM>
~h "ao"
<BEGINHMM>
<NUMSTATES> 5
<STATE> 2
<MEAN> 39
 2.904771e-001 -8.027634e+000 -1.309748e+001 -2.127412e+001 -1.187986e+001 1.074082e+000 -4.651976e+000 -1.926244e+000 -4.467508e+000 -1.297985e+000 -4.928963e-001 -3.457201e+000 5.889096e+001 1.036140e+000 -8.183703e-001 -7.695437e-001 -1.711825e+000 -1.119415e-001 1.439431e+000 3.994392e-001 -1.348373e-001 -1.417868e-001 -1.248716e-001 3.158008e-001 -1.785584e-003 1.142334e+000 -5.068436e-001 2.715837e-002 8.864591e-002 5.132298e-001 4.235731e-001 -1.249330e-001 2.500360e-002 1.508545e-002 6.922000e-002 -5.785264e-002 -1.787449e-002 1.675141e-001 -2.300376e-001
<VARIANCE> 39
 1.760453e+001 5.438519e+001 4.304133e+001 6.968995e+001 8.715282e+001 7.268850e+001 8.152431e+001 6.234698e+001 6.900433e+001 6.496844e+001 6.453111e+001 4.207661e+001 3.431031e+001 3.217745e+000 2.659981e+000 2.561455e+000 4.050681e+000 4.877829e+000 4.309055e+000 4.674901e+000 4.295830e+000 4.135561e+000 3.744969e+000 3.537916e+000 3.079358e+000 2.165806e+000 5.367900e-001 4.137532e-001 3.863277e-001 6.042507e-001 6.448460e-001 6.604643e-001 8.173086e-001 6.851242e-001 7.779829e-001 6.442458e-001 6.462062e-001 5.060058e-001 3.143943e-001
<GCONST> 1.327595e+002
<STATE> 3
<MEAN> 39
 9.167494e-001 -1.040777e+001 -1.497099e+001 -2.495652e+001 -9.474818e+000 6.143291e+000 -1.955489e+000 -3.406058e+000 -3.860492e+000 -2.426056e+000 3.772076e-003 -2.816910e+000 6.160536e+001 -3.515681e-002 -3.753516e-001 -2.279854e-001 2.288215e-001 5.520249e-001 2.693712e-002 -1.592498e-001 -1.202385e-001 1.351062e-001 9.457286e-002 9.534227e-002 -1.023038e-001 2.599634e-001 -3.843274e-002 5.609955e-002 5.882886e-002 2.733418e-001 4.630736e-003 -2.926215e-001 -1.884307e-001 4.488910e-002 4.093032e-002 6.654045e-002 -4.578531e-002 -6.583963e-002 -9.511382e-002
<VARIANCE> 39
 1.086126e+001 4.492065e+001 3.716596e+001 6.462469e+001 8.950449e+001 6.892945e+001 7.560718e+001 5.863733e+001 6.105916e+001 5.976738e+001 5.876812e+001 4.335868e+001 2.327771e+001 2.684842e-001 1.151607e+000 8.568600e-001 1.752670e+000 1.692223e+000 1.752865e+000 1.791004e+000 1.512022e+000 1.482740e+000 1.615378e+000 1.544102e+000 1.547934e+000 4.014290e-001 5.920922e-002 1.119573e-001 1.249685e-001 1.925625e-001 2.407931e-001 2.500527e-001 2.763671e-001 2.640304e-001 2.672234e-001 2.588307e-001 2.525949e-001 2.355599e-001 4.915936e-002
<GCONST> 1.014403e+002
<STATE> 4
<MEAN> 39
 3.806636e-001 -1.381088e+001 -1.630639e+001 -1.679833e+001 -6.214298e+000 -5.944269e-001 -6.727183e+000 -1.354820e+000 -2.574078e+000 -6.933085e-001 -9.595352e-001 -5.167590e+000 6.246442e+001 -2.696143e-001 2.181002e-001 4.999846e-001 1.826894e+000 1.182809e-001 -1.767272e+000 -9.556056e-001 5.775407e-001 5.997791e-001 6.600495e-002 -6.963351e-001 2.255645e-002 -5.470203e-001 -2.689350e-001 3.597651e-001 4.140610e-001 2.339152e-001 -1.418712e-001 -1.460570e-001 9.692089e-002 -5.193031e-003 -2.684589e-002 -1.174281e-001 -1.311998e-001 2.458752e-001 -3.583570e-001
<VARIANCE> 39
 1.360802e+001 3.915744e+001 4.023110e+001 6.570177e+001 5.984028e+001 8.195762e+001 8.804167e+001 7.421403e+001 7.357752e+001 6.568735e+001 8.462473e+001 5.618474e+001 2.324822e+001 7.546740e-001 2.215242e+000 2.449945e+000 3.081186e+000 3.889611e+000 3.076140e+000 4.221113e+000 3.653835e+000 3.777111e+000 3.667711e+000 3.097105e+000 3.261733e+000 1.136467e+000 3.279235e-001 2.595804e-001 3.019003e-001 4.315116e-001 5.054669e-001 5.847101e-001 7.246091e-001 6.449262e-001 6.149135e-001 6.040353e-001 6.492619e-001 5.886526e-001 1.695592e-001
<GCONST> 1.258283e+002
<TRANSP> 5
 0.000000e+000 1.000000e+000 0.000000e+000 0.000000e+000 0.000000e+000
 0.000000e+000 6.347277e-001 3.652723e-001 0.000000e+000 0.000000e+000
 0.000000e+000 0.000000e+000 8.570699e-001 1.429301e-001 0.000000e+000
 0.000000e+000 0.000000e+000 0.000000e+000 6.734797e-001 3.265203e-001
 0.000000e+000 0.000000e+000 0.000000e+000 0.000000e+000 0.000000e+000
<ENDHMM>
~h "aw"
<BEGINHMM>
<NUMSTATES> 5
<STATE> 2
<MEAN> 39
 -4.417943e+000 -1.681278e+001 -9.142299e+000 -1.323550e+001 -9.649099e+000 -5.215275e+000 -3.442255e+000 2.420767e+000 -2.497520e+000 -3.614272e+000 -6.529365e+000 -4.455503e+000 6.533769e+001 6.040348e-001 -1.467856e+000 -9.113626e-001 -4.149815e-001 6.256569e-001 7.261565e-001 -5.976930e-002 2.143396e-001 4.790975e-001 -5.124122e-001 -5.078281e-001 -3.100070e-001 1.140152e+000 -3.161080e-001 3.968909e-001 2.968840e-002 2.043315e-001 3.313695e-001 1.729509e-001 -6.817916e-003 -3.288541e-001 -6.238757e-002 1.045241e-001 1.713847e-001 9.740925e-002 -4.833311e-001
<VARIANCE> 39
 1.800406e+001 3.431617e+001 5.472679e+001 4.807564e+001 6.703078e+001 6.390396e+001 7.789298e+001 6.909176e+001 7.942805e+001 5.183195e+001 4.902116e+001 4.309496e+001 2.677634e+001 1.794428e+000 2.257004e+000 2.158613e+000 2.558270e+000 3.202806e+000 3.132612e+000 4.105202e+000 4.011172e+000 3.069727e+000 2.625906e+000 2.486728e+000 2.491689e+000 1.954036e+000 3.962747e-001 3.819258e-001 3.332932e-001 4.288530e-001 5.148955e-001 5.216019e-001 6.914840e-001 7.161983e-001 6.254757e-001 4.997722e-001 4.533390e-001 4.485862e-001 3.025818e-001
<GCONST> 1.251916e+002
<STATE> 3
<MEAN> 39
 -2.366944e+000 -1.845582e+001 -1.320992e+001 -1.448445e+001 -4.736637e+000 -1.018085e+000 -4.838909e+000 -1.228572e+000 5.883783e-001 -4.100473e+000 -6.336710e+000 -5.513140e+000 6.595829e+001 2.495332e-001 2.683859e-001 -4.588441e-001 -4.304565e-001 4.143712e-001 6.200110e-001 -2.565642e-001 -5.229303e-001 9.072521e-002 2.490930e-001 3.123747e-001 -1.271651e-001 -2.564971e-001 2.074470e-002 2.066954e-001 5.738705e-002 -5.014640e-002 -1.702148e-001 -7.278150e-002 -1.643872e-002 5.290730e-003 -8.473238e-002 8.751311e-002 1.153903e-001 6.061874e-002 -1.405797e-001
<VARIANCE> 39
 1.266285e+001 2.673741e+001 4.039847e+001 5.017719e+001 5.584983e+001 7.669727e+001 8.165896e+001 7.159271e+001 6.923763e+001 5.279922e+001 4.776668e+001 4.636918e+001 1.990615e+001 2.381774e-001 6.702116e-001 7.323781e-001 1.182174e+000 1.381597e+000 1.467471e+000 1.643615e+000 1.667664e+000 1.494322e+000 1.399294e+000 1.444201e+000 1.229329e+000 2.317860e-001 4.021776e-002 9.823813e-002 1.153044e-001 1.564652e-001 1.983133e-001 2.198353e-001 2.612743e-001 2.519789e-001 2.422291e-001 2.058739e-001 2.196967e-001 2.075469e-001 4.112430e-002
<GCONST> 9.595651e+001
<STATE> 4
<MEAN> 39
 -3.439711e-002 -1.239917e+001 -1.529850e+001 -1.941986e+001 -6.472294e+000 2.475385e+000 -5.291166e+000 -3.438738e+000 -1.553665e+000 -6.643084e-001 -1.712766e+000 -4.841566e+000 6.138642e+001 -7.084012e-003 1.151722e+000 4.423009e-001 3.904178e-001 -7.764562e-001 -8.069437e-001 -2.749662e-001 2.564067e-002 -4.325793e-001 3.873921e-001 3.044616e-001 3.258728e-001 -1.122881e+000 -2.443924e-001 1.209152e-001 3.223963e-001 5.416315e-001 2.326683e-003 -3.932846e-001 -3.142407e-002 -1.274351e-002 -3.588881e-002 -5.680867e-002 -1.906616e-001 3.917794e-002 -2.347347e-001
<VARIANCE> 39
 1.299331e+001 3.961669e+001 3.479522e+001 6.627975e+001 6.585132e+001 7.978062e+001 8.851958e+001 6.141901e+001 6.381211e+001 6.176341e+001 6.742403e+001 4.776701e+001 3.379964e+001 7.498604e-001 1.874544e+000 1.883554e+000 3.905857e+000 3.230636e+000 3.482810e+000 3.579237e+000 3.311020e+000 3.215859e+000 2.896362e+000 2.956365e+000 2.752762e+000 1.172445e+000 1.730793e-001 3.033031e-001 3.005940e-001 4.676924e-001 5.576121e-001 4.676912e-001 5.945711e-001 5.622554e-001 5.614336e-001 5.515404e-001 5.327649e-001 4.696442e-001 2.628455e-001
<GCONST> 1.231825e+002
<TRANSP> 5
 0.000000e+000 1.000000e+000 0.000000e+000 0.000000e+000 0.000000e+000
 0.000000e+000 7.033297e-001 2.966703e-001 0.000000e+000 0.000000e+000
 0.000000e+000 0.000000e+000 8.673863e-001 1.326137e-001 0.000000e+000
 0.000000e+000 0.000000e+000 0.000000e+000 7.786072e-001 2.213928e-001
 0.000000e+000 0.000000e+000 0.000000e+000 0.000000e+000 0.000000e+000
<ENDHMM>
~h "ax"
<BEGINHMM>
<NUMSTATES> 5
<STATE> 2
<MEAN> 39
 -5.795641e+000 -8.824631e+000 -5.369260e+000 -1.177973e+001 -1.026124e+001 -9.045130e+000 -9.619181e+000 -8.151920e-001 -1.286742e+000 -5.548718e-001 -4.234890e+000 -3.003220e+000 5.859538e+001 1.611269e+000 -8.104343e-001 4.453187e-001 -9.851701e-001 -8.691520e-001 -4.154048e-001 -1.058777e+000 9.596550e-002 3.935931e-003 1.544728e-001 -3.720599e-001 -3.215261e-001 1.176696e+000 -5.219004e-001 5.001844e-001 1.200416e-002 4.056062e-001 3.885709e-001 3.699800e-001 4.322616e-001 -2.427811e-001 -3.308642e-001 -4.325108e-002 1.754913e-001 5.488182e-002 -7.943760e-001
<VARIANCE> 39
 3.272060e+001 3.713689e+001 5.499912e+001 5.968262e+001 6.215176e+001 7.356572e+001 7.453053e+001 6.136160e+001 5.940436e+001 5.627847e+001 5.448626e+001 3.813919e+001 5.440329e+001 5.497904e+000 3.779519e+000 4.094881e+000 5.338698e+000 5.125480e+000 5.413830e+000 5.971734e+000 5.585572e+000 5.249396e+000 4.283235e+000 4.684843e+000 3.409653e+000 5.749160e+000 7.217655e-001 6.035748e-001 5.261688e-001 8.248007e-001 7.647949e-001 9.247475e-001 9.785573e-001 9.134555e-001 8.860412e-001 7.608510e-001 7.127642e-001 6.096065e-001 1.111635e+000
<GCONST> 1.408178e+002
<STATE> 3
<MEAN> 39
 -3.620781e+000 -1.066976e+001 -4.195324e+000 -1.360530e+001 -1.138647e+001 -9.316372e+000 -1.183395e+001 -4.576304e-001 -1.931992e+000 -2.459558e-002 -4.446453e+000 -3.362933e+000 6.119270e+001 2.211654e-001 6.466687e-001 3.046181e-001 2.782850e-001 1.936132e-001 2.306910e-001 8.530915e-002 -5.379049e-001 -6.019855e-001 -3.754111e-002 1.490181e-001 -5.209743e-002 -8.312092e-001 -8.663009e-001 9.326383e-001 -7.529985e-002 7.733244e-001 6.284070e-001 3.896343e-001 7.217929e-001 -4.158866e-001 -3.346137e-001 -1.908413e-001 1.812339e-001 9.120153e-002 -1.134533e+000
<VARIANCE> 39
 1.612228e+001 3.187687e+001 6.120066e+001 6.106446e+001 5.913779e+001 8.109102e+001 7.439939e+001 6.463781e+001 6.712051e+001 6.208472e+001 6.705109e+001 4.387248e+001 2.350231e+001 2.870628e+000 3.182744e+000 3.020119e+000 4.444001e+000 4.039498e+000 3.917732e+000 4.292360e+000 4.457213e+000 4.035107e+000 3.615639e+000 3.432422e+000 2.932389e+000 3.512396e+000 7.099466e-001 5.593928e-001 6.409669e-001 8.539276e-001 8.333184e-001 1.122212e+000 1.183898e+000 1.079656e+000 1.066817e+000 9.146602e-001 9.039088e-001 7.375592e-001 6.915717e-001
<GCONST> 1.371992e+002
<STATE> 4
<MEAN> 39
 -4.674942e+000 -7.215839e+000 -3.291785e+000 -1.143026e+001 -1.096298e+001 -8.494463e+000 -1.004023e+001 -2.865250e+000 -3.895409e+000 -9.142849e-001 -3.193497e+000 -2.902968e+000 5.790406e+001 -1.134616e+000 1.988680e+000 1.712682e-001 1.429662e+000 1.222781e+000 7.427400e-001 1.109119e+000 -9.722022e-001 -8.900221e-001 -4.214610e-001 1.838752e-001 5.055819e-002 -2.306789e+000 -6.848242e-001 2.708840e-001 -1.277116e-001 3.205922e-001 3.585076e-001 2.687252e-001 4.256382e-001 2.276708e-002 -1.026534e-002 -5.093342e-002 2.252224e-002 6.015359e-002 -4.714796e-001
<VARIANCE> 39
 2.210168e+001 3.339359e+001 7.879970e+001 6.398129e+001 7.406595e+001 7.239592e+001 6.094313e+001 6.535751e+001 6.721206e+001 6.071141e+001 6.272795e+001 3.945190e+001 3.494774e+001 4.217706e+000 3.926320e+000 3.494743e+000 5.986908e+000 4.718811e+000 5.104377e+000 5.398111e+000 5.394527e+000 5.132047e+000 4.299850e+000 3.975978e+000 3.522758e+000 6.142297e+000 6.527841e-001 5.358198e-001 6.125810e-001 6.853865e-001 7.407022e-001 8.790088e-001 8.396859e-001 9.609762e-001 8.830726e-001 8.064321e-001 7.319617e-001 5.729533e-001 5.750545e-001
<GCONST> 1.389914e+002
<TRANSP> 5
 0.000000e+000 1.000000e+000 0.000000e+000 0.000000e+000 0.000000e+000
 0.000000e+000 2.665704e-001 7.334296e-001 0.000000e+000 0.000000e+000
 0.000000e+000 0.000000e+000 3.272578e-001 6.727423e-001 0.000000e+000
 0.000000e+000 0.000000e+000 0.000000e+000 2.980538e-001 7.019462e-001
 0.000000e+000 0.000000e+000 0.000000e+000 0.000000e+000 0.000000e+000
<ENDHMM>
~h "ay"
<BEGINHMM>
<NUMSTATES> 5
<STATE> 2
<MEAN> 39
 -1.882402e+000 -1.483223e+001 -1.395543e+001 -1.712961e+001 -5.725348e+000 3.098481e-002 -5.134191e+000 -2.298930e+000 -3.232150e-001 -9.298943e-001 -4.282850e+000 -6.482500e+000 6.370411e+001 7.094231e-001 -2.000876e+000 -5.859301e-001 -5.073134e-001 3.952713e-001 6.395330e-001 -5.140702e-002 3.029552e-001 7.943595e-001 -3.521046e-001 -7.346581e-001 -7.419115e-001 1.529689e+000 -6.048738e-001 3.983524e-001 4.528825e-001 5.911493e-001 7.945262e-002 -3.247573e-001 1.037609e-001 3.379217e-002 -1.664618e-001 -1.275404e-001 5.172137e-002 3.336039e-001 -4.989186e-001
<VARIANCE> 39
 1.520246e+001 3.316242e+001 3.764122e+001 5.404452e+001 5.746058e+001 8.188043e+001 6.728168e+001 6.443362e+001 6.201293e+001 6.169191e+001 6.899926e+001 4.254640e+001 2.765218e+001 3.023101e+000 2.229708e+000 3.034914e+000 4.396605e+000 3.976366e+000 4.583178e+000 3.969730e+000 4.429007e+000 3.787423e+000 3.276207e+000 3.363394e+000 3.294323e+000 2.248636e+000 5.204388e-001 3.971917e-001 3.896979e-001 6.333426e-001 6.840085e-001 7.350134e-001 7.288530e-001 7.443486e-001 6.822780e-001 6.583068e-001 7.290128e-001 5.429733e-001 3.492529e-001
<GCONST> 1.308516e+002
<STATE> 3
<MEAN> 39
 -1.665333e+000 -1.811720e+001 -1.420061e+001 -1.555363e+001 -4.091732e+000 7.713854e-001 -5.246265e+000 -1.900745e+000 1.921780e+000 -2.471313e+000 -5.498151e+000 -7.696585e+000 6.564242e+001 -2.375266e-001 -4.214996e-001 5.935864e-001 7.638243e-001 -3.245575e-001 -9.579927e-001 4.636035e-002 8.840042e-001 2.149983e-001 -5.639465e-001 -5.041158e-001 2.581533e-001 1.617662e-001 -4.540585e-002 2.842597e-001 2.361865e-001 3.846617e-002 -3.289903e-001 -2.882490e-001 5.655099e-002 1.588469e-001 -2.267294e-001 -3.351446e-002 1.892440e-001 2.390730e-001 -1.559026e-001
<VARIANCE> 39
 1.004706e+001 2.994571e+001 3.174074e+001 4.407568e+001 4.997264e+001 7.187980e+001 6.894447e+001 6.453215e+001 6.111263e+001 5.205944e+001 5.442752e+001 4.483983e+001 1.946898e+001 2.581576e-001 6.826702e-001 1.172284e+000 1.363167e+000 1.821694e+000 2.488193e+000 1.760392e+000 2.547540e+000 1.598582e+000 1.511178e+000 1.495930e+000 1.644272e+000 2.199815e-001 5.054061e-002 1.497576e-001 1.444801e-001 1.976358e-001 2.455014e-001 2.530192e-001 2.952055e-001 3.212239e-001 3.351594e-001 2.632890e-001 3.327235e-001 2.932537e-001 6.237038e-002
<GCONST> 1.009573e+002
<STATE> 4
<MEAN> 39
 -4.142276e+000 -1.688729e+001 -7.524043e+000 -1.293091e+001 -1.086698e+001 -8.049741e+000 -3.070836e+000 4.219992e+000 -1.446888e+000 -4.868010e+000 -6.291349e+000 -3.129234e+000 6.498186e+001 -2.454370e-001 9.349045e-001 1.244717e+000 1.675230e-001 -1.287217e+000 -1.008088e+000 1.255458e-001 1.472493e-001 -7.701293e-001 2.508466e-001 7.183592e-001 4.465853e-001 -5.626251e-001 -7.545788e-003 3.202348e-001 -4.657332e-002 4.532669e-002 1.984949e-001 1.937740e-001 -1.523914e-001 -4.531998e-001 -9.560031e-002 2.049762e-001 9.316553e-002 -1.055512e-001 -3.098036e-001
<VARIANCE> 39
 1.236348e+001 3.314701e+001 5.159235e+001 4.402111e+001 6.880368e+001 5.906969e+001 7.199773e+001 6.559267e+001 8.331454e+001 5.069378e+001 4.592453e+001 4.007992e+001 2.456405e+001 4.071131e-001 1.108198e+000 1.947148e+000 1.792008e+000 2.855709e+000 2.358641e+000 3.187853e+000 3.050706e+000 2.670158e+000 2.510343e+000 2.170875e+000 2.304708e+000 5.074634e-001 8.788726e-002 2.103111e-001 2.104838e-001 2.979263e-001 4.086261e-001 3.248706e-001 4.407018e-001 4.881537e-001 4.484759e-001 4.134730e-001 3.839968e-001 3.218805e-001 1.553663e-001
<GCONST> 1.127752e+002
<TRANSP> 5
 0.000000e+000 1.000000e+000 0.000000e+000 0.000000e+000 0.000000e+000
 0.000000e+000 5.640054e-001 4.359946e-001 0.000000e+000 0.000000e+000
 0.000000e+000 0.000000e+000 8.058629e-001 1.941371e-001 0.000000e+000
 0.000000e+000 0.000000e+000 0.000000e+000 8.082142e-001 1.917858e-001
 0.000000e+000 0.000000e+000 0.000000e+000 0.000000e+000 0.000000e+000
<ENDHMM>
~h "ch"
<BEGINHMM>
<NUMSTATES> 5
<STATE> 2
<MEAN> 39
 -1.836773e+001 -3.729723e+000 -3.520245e-001 -4.854648e+000 -4.270090e+000 -2.799404e+000 -5.302371e+000 -1.999159e+000 -3.126305e+000 -2.594644e+000 -2.518351e+000 -1.426286e+000 4.348613e+001 -3.005590e+000 -6.470766e-001 -3.840232e-001 -6.750564e-001 1.149519e+000 2.049471e+000 9.244382e-001 3.489736e-001 8.969756e-001 6.313983e-001 7.225154e-001 4.034316e-001 -2.766714e-001 -1.380353e-002 -4.691761e-001 6.839781e-002 -7.382135e-001 -4.800770e-001 -2.106616e-001 -1.400402e-001 2.198172e-001 1.038000e-001 8.028852e-002 1.286401e-001 4.471742e-002 1.683755e+000
<VARIANCE> 39
 4.528802e+001 5.140336e+001 3.301716e+001 5.215609e+001 4.028176e+001 4.490081e+001 3.220606e+001 3.396498e+001 3.518181e+001 2.959350e+001 2.439906e+001 1.949119e+001 8.196635e+001 5.588448e+000 6.895218e+000 5.394600e+000 8.356304e+000 6.695631e+000 5.113945e+000 4.783973e+000 4.965146e+000 4.627572e+000 3.889944e+000 3.408446e+000 2.750005e+000 2.025698e+001 8.049435e-001 1.516014e+000 9.238319e-001 1.291193e+000 1.032545e+000 1.059173e+000 8.716509e-001 9.344286e-001 7.928627e-001 7.716166e-001 6.963177e-001 4.942441e-001 2.117672e+000
<GCONST> 1.406479e+002
<STATE> 3
<MEAN> 39
 -3.023125e+001 -5.335008e+000 1.643469e+000 -1.187790e+001 -4.041953e+000 1.202390e+000 -3.114152e+000 3.444920e-001 -1.004420e-002 -9.739261e-001 3.635865e-001 1.892921e-001 5.698561e+001 -1.030624e+000 1.395851e-001 5.752826e-001 -2.545087e-001 -7.721161e-001 -1.176405e-001 5.408583e-001 3.290161e-002 1.296943e-001 7.346679e-002 8.581626e-002 8.527631e-002 2.033593e+000 7.959337e-001 7.152400e-002 -8.919385e-002 4.813438e-001 -1.898769e-001 -4.432665e-001 -3.032342e-002 -9.783026e-002 -2.522669e-001 -8.805614e-002 -2.103011e-001 -1.048442e-001 -5.793832e-001
<VARIANCE> 39
 2.316743e+001 3.287263e+001 3.382674e+001 2.425907e+001 3.417784e+001 2.130394e+001 2.235174e+001 2.147503e+001 1.893682e+001 1.582734e+001 1.303001e+001 1.095920e+001 3.878279e+001 4.037833e+000 2.759212e+000 2.762738e+000 2.968356e+000 2.334660e+000 2.236407e+000 1.966671e+000 2.006591e+000 1.739395e+000 1.677349e+000 1.423704e+000 1.270489e+000 6.148834e+000 6.676614e-001 6.496590e-001 6.168913e-001 5.828409e-001 4.847592e-001 4.853072e-001 4.361312e-001 4.154602e-001 3.759714e-001 3.706355e-001 2.963980e-001 2.692873e-001 9.533099e-001
<GCONST> 1.135692e+002
<STATE> 4
<MEAN> 39
 -2.455105e+001 -8.101273e+000 1.384458e+000 -8.226565e+000 -9.780134e+000 -4.125487e+000 -1.113023e+000 -4.028327e-001 -1.417352e+000 -1.504324e+000 -1.222811e+000 -5.179517e-001 5.940001e+001 3.417397e+000 -4.354886e-001 -5.634012e-001 5.580809e-001 -5.775674e-001 -1.650678e+000 -9.475410e-001 3.998899e-002 -6.225767e-001 -4.932642e-001 -5.083436e-001 -2.902159e-001 -5.551234e-001 6.941148e-001 -7.993557e-002 -1.694321e-001 -2.359279e-001 1.287429e-001 2.835371e-002 -5.505276e-001 3.257865e-002 -3.814536e-002 -6.173335e-002 1.110036e-002 -4.179851e-002 -1.911270e-001
<VARIANCE> 39
 4.823420e+001 2.061466e+001 2.507255e+001 3.118830e+001 3.323314e+001 3.285205e+001 3.009957e+001 2.713589e+001 2.419703e+001 2.117406e+001 2.043786e+001 1.591438e+001 2.470177e+001 5.725976e+000 1.995247e+000 2.922734e+000 2.822836e+000 4.054500e+000 3.877310e+000 4.934885e+000 3.416682e+000 3.012670e+000 2.781787e+000 2.654732e+000 1.968642e+000 2.685049e+000 8.348303e-001 3.657524e-001 4.913917e-001 4.992802e-001 6.126106e-001 7.037074e-001 7.214003e-001 6.304514e-001 5.668228e-001 5.445523e-001 4.784833e-001 3.874126e-001 6.847494e-001
<GCONST> 1.216055e+002
<TRANSP> 5
 0.000000e+000 1.000000e+000 0.000000e+000 0.000000e+000 0.000000e+000
 0.000000e+000 7.100880e-001 2.899120e-001 0.000000e+000 0.000000e+000
 0.000000e+000 0.000000e+000 7.929134e-001 2.070866e-001 0.000000e+000
 0.000000e+000 0.000000e+000 0.000000e+000 7.577251e-001 2.422748e-001
 0.000000e+000 0.000000e+000 0.000000e+000 0.000000e+000 0.000000e+000
<ENDHMM>
~h "dh"
<BEGINHMM>
<NUMSTATES> 5
<STATE> 2
<MEAN> 39
 -1.670304e+001 -1.543512e+000 -6.004153e+000 -3.035975e+000 -3.107162e+000 -3.082783e+000 -3.016536e+000 -1.790672e+000 -1.729790e+000 -6.438352e-001 -2.112118e+000 -1.340453e+000 4.133268e+001 -1.489136e-001 -5.315769e-002 -4.967570e-002 -1.165784e-001 -1.304479e-001 -2.256069e-002 9.408216e-002 1.697360e-001 1.598822e-001 -1.431063e-001 1.515318e-002 4.948596e-002 7.880067e-001 5.001112e-001 -3.643767e-001 -6.424442e-002 -4.058305e-001 -4.457870e-001 -4.225568e-001 -2.175831e-001 5.405103e-002 7.183911e-002 -1.230784e-002 -4.482456e-002 -5.751520e-003 1.012614e+000
<VARIANCE> 39
 4.426184e+001 2.560145e+001 2.233974e+001 2.565607e+001 2.291642e+001 3.004780e+001 3.321392e+001 3.531359e+001 2.879981e+001 2.284686e+001 2.543620e+001 2.400036e+001 7.478108e+001 3.588217e+000 2.620214e+000 2.974662e+000 3.121789e+000 2.610285e+000 3.239075e+000 2.978478e+000 3.102115e+000 2.855994e+000 2.377709e+000 2.306526e+000 2.121648e+000 8.635269e+000 6.252710e-001 5.427088e-001 5.521653e-001 6.468292e-001 5.785465e-001 6.356655e-001 6.344299e-001 6.365880e-001 6.060911e-001 5.263886e-001 4.888151e-001 4.494970e-001 1.209897e+000
<GCONST> 1.238834e+002
<STATE> 3
<MEAN> 39
 -1.515917e+001 -2.912682e+000 -7.422007e+000 -5.605141e+000 -5.340867e+000 -5.431457e+000 -3.421292e+000 -2.103397e+000 -1.285475e+000 -1.397816e+000 -2.484170e+000 -1.241071e+000 5.018877e+001 2.210462e+000 -9.119431e-001 -3.093706e-002 -1.444823e+000 -1.866389e+000 -1.900918e+000 -1.200435e+000 1.564987e-001 4.288371e-001 -2.219374e-001 -3.831566e-001 -1.886607e-001 4.270211e+000 6.911015e-001 -3.706901e-001 3.683291e-001 -3.341910e-001 -4.859998e-001 -3.094401e-001 -4.641082e-001 8.420089e-002 -3.691416e-002 1.681127e-001 -9.632622e-002 -1.367692e-001 2.364854e-001
<VARIANCE> 39
 3.698292e+001 2.956485e+001 2.559134e+001 2.857350e+001 2.533300e+001 2.928997e+001 3.884030e+001 3.285697e+001 2.685987e+001 2.414845e+001 2.382598e+001 2.417612e+001 6.241533e+001 4.679451e+000 2.893182e+000 3.703082e+000 3.352674e+000 3.583022e+000 4.057911e+000 4.546637e+000 4.488561e+000 4.363525e+000 3.494128e+000 3.286546e+000 3.282846e+000 6.112362e+000 5.776199e-001 7.284868e-001 7.370501e-001 7.567537e-001 6.123061e-001 7.783399e-001 8.502974e-001 7.496113e-001 7.440930e-001 6.149302e-001 6.824981e-001 5.499879e-001 1.181313e+000
<GCONST> 1.294893e+002
<STATE> 4
<MEAN> 39
 -7.200708e+000 -5.675876e+000 -6.126635e+000 -9.020862e+000 -1.136476e+001 -1.120429e+001 -8.053690e+000 -1.839870e+000 -1.663774e-001 -1.171997e+000 -3.919851e+000 -2.911727e+000 5.908357e+001 2.183775e+000 -1.905658e+000 6.506045e-001 -1.663409e+000 -1.977700e+000 -1.390114e+000 -1.230833e+000 7.628166e-001 2.694048e-001 1.405567e-001 -3.565330e-001 -3.089381e-001 2.999915e+000 -4.595931e-001 -3.770800e-002 1.560775e-001 1.979446e-001 4.050743e-001 5.767289e-001 3.193763e-001 9.158719e-002 -2.513824e-001 2.147863e-002 8.183733e-002 8.266703e-002 -9.061028e-001
<VARIANCE> 39
 2.530031e+001 3.347740e+001 3.390886e+001 3.828757e+001 4.352128e+001 4.327525e+001 5.678467e+001 4.507491e+001 4.756079e+001 4.035868e+001 3.473815e+001 3.503992e+001 3.391294e+001 3.718751e+000 3.108915e+000 3.982568e+000 4.095003e+000 4.240303e+000 5.297558e+000 6.232530e+000 4.911982e+000 4.968718e+000 3.823997e+000 4.238970e+000 3.515883e+000 4.381693e+000 5.856424e-001 4.656197e-001 4.696969e-001 5.650480e-001 6.091503e-001 5.827435e-001 6.936722e-001 6.388741e-001 6.051179e-001 5.672767e-001 5.319855e-001 4.978645e-001 6.513396e-001
<GCONST> 1.307583e+002
<TRANSP> 5
 0.000000e+000 1.000000e+000 0.000000e+000 0.000000e+000 0.000000e+000
 0.000000e+000 6.227008e-001 3.772992e-001 0.000000e+000 0.000000e+000
 0.000000e+000 0.000000e+000 4.089968e-001 5.910032e-001 0.000000e+000
 0.000000e+000 0.000000e+000 0.000000e+000 4.409143e-001 5.590857e-001
 0.000000e+000 0.000000e+000 0.000000e+000 0.000000e+000 0.000000e+000
<ENDHMM>
~h "eh"
<BEGINHMM>
<NUMSTATES> 5
<STATE> 2
<MEAN> 39
 -5.154427e+000 -1.166050e+001 -3.071540e+000 -1.270902e+001 -1.436034e+001 -1.083030e+001 -8.466817e+000 2.229043e+000 -1.823235e+000 -1.427131e+000 -4.071218e+000 -2.832368e+000 6.284851e+001 1.557344e+000 -2.151575e+000 1.858454e-001 -1.273421e+000 -1.524444e+000 -4.820225e-001 -4.928015e-001 1.595913e+000 4.530232e-001 -2.254750e-001 -3.532511e-001 -2.931519e-001 1.971517e+000 -6.637111e-001 3.052230e-001 -2.392340e-001 1.813970e-001 5.574925e-001 5.139539e-001 4.677671e-001 -1.297193e-001 -1.032408e-001 1.314951e-002 1.193253e-001 7.505488e-002 -4.760635e-001
<VARIANCE> 39
 1.985442e+001 3.781610e+001 6.091503e+001 5.226223e+001 5.370647e+001 5.606216e+001 7.723905e+001 5.931694e+001 7.397161e+001 5.262229e+001 5.235677e+001 3.842041e+001 3.246425e+001 4.872241e+000 3.006722e+000 3.388968e+000 3.901254e+000 4.519135e+000 4.944384e+000 6.622734e+000 5.191704e+000 5.283107e+000 4.165545e+000 3.910959e+000 3.316301e+000 2.862747e+000 6.725965e-001 4.870497e-001 4.300885e-001 5.750696e-001 6.852729e-001 7.094581e-001 8.371267e-001 7.879584e-001 8.220166e-001 6.492059e-001 6.208063e-001 5.118046e-001 5.594440e-001
<GCONST> 1.347680e+002
<STATE> 3
<MEAN> 39
