~o
<STREAMINFO> 1 39
<VECSIZE> 39<NULLD><MFCC_D_A_0><DIAGC>
~h "b"
<BEGINHMM>
<NUMSTATES> 5
<STATE> 2
<MEAN> 39
 -6.610218e+000 2.351660e+000 -2.799037e+000 -1.824172e+000 -2.738876e+000 -2.630178e+000 -7.019316e+000 -7.467470e+000 -7.699643e+000 -3.891514e+000 -3.035010e+000 -4.059344e+000 4.067493e+001 -9.296064e-001 1.393502e+000 6.768255e-001 1.357490e+000 9.811825e-001 6.310736e-001 6.252327e-001 -3.341942e-001 -3.419721e-001 -5.172572e-001 -3.015831e-001 -5.225176e-002 -1.974807e+000 -1.589392e-001 -8.319095e-001 -1.713431e-001 -6.497155e-001 -4.241083e-001 -2.660278e-001 -3.176809e-002 4.871427e-001 4.216797e-001 2.582588e-001 7.819489e-002 1.650560e-001 1.241065e+000
<VARIANCE> 39
 4.189296e+001 3.197182e+001 2.388344e+001 3.604504e+001 2.626797e+001 3.652489e+001 3.936718e+001 3.743133e+001 3.819593e+001 3.349649e+001 3.242897e+001 2.744744e+001 4.033424e+001 2.765886e+000 5.437894e+000 3.565998e+000 5.109351e+000 3.581249e+000 3.789799e+000 4.157334e+000 4.782485e+000 4.412202e+000 3.740215e+000 3.022835e+000 2.565241e+000 8.049439e+000 4.245489e-001 8.445353e-001 6.832354e-001 8.311250e-001 6.849910e-001 6.554342e-001 8.442536e-001 8.475711e-001 8.298430e-001 7.325351e-001 6.254175e-001 5.174759e-001 1.078979e+000
<GCONST> 1.313112e+002
<STATE> 3
<MEAN> 39
 -1.118805e+001 1.427606e+000 -2.238893e+000 -8.654979e-001 -1.398335e+000 -1.666689e+000 -4.645852e+000 -5.338453e+000 -5.813686e+000 -3.542392e+000 -3.138370e+000 -2.988214e+000 3.992006e+001 -1.591724e-001 -2.398129e+000 -8.989566e-001 -2.076783e+000 -1.216943e+000 -8.650573e-001 3.936129e-002 1.116112e+000 1.391512e+000 8.550703e-001 5.732297e-001 6.229124e-001 3.982899e+000 8.220943e-001 -8.140599e-001 -3.752784e-001 -1.132955e+000 -8.270787e-001 -3.801071e-001 -4.438489e-001 1.047735e-001 9.191339e-002 2.808580e-001 2.063299e-001 2.201490e-002 1.603050e+000
<VARIANCE> 39
 4.131930e+001 2.875610e+001 2.015409e+001 2.813785e+001 1.971502e+001 2.585643e+001 2.973368e+001 3.317449e+001 3.442924e+001 2.891516e+001 2.411514e+001 2.084712e+001 5.308484e+001 4.839915e+000 3.516463e+000 3.743158e+000 5.164720e+000 3.722888e+000 3.956856e+000 4.519419e+000 4.488778e+000 4.504650e+000 3.715678e+000 3.316216e+000 2.572531e+000 8.160495e+000 6.297438e-001 8.049482e-001 9.333875e-001 8.890566e-001 7.573153e-001 9.026508e-001 8.468342e-001 9.663286e-001 9.893231e-001 8.385541e-001 7.370404e-001 5.526571e-001 1.082466e+000
<GCONST> 1.314253e+002
<STATE> 4
<MEAN> 39
 -7.380862e+000 -7.136608e+000 -6.704206e+000 -1.086821e+001 -7.720392e+000 -5.360212e+000 -6.208889e+000 -3.095899e+000 -2.181573e+000 -1.450989e-001 -8.838825e-001 -1.761434e+000 5.659797e+001 2.096183e+000 -2.568940e+000 -9.261937e-001 -3.395469e+000 -2.204223e+000 -7.023482e-001 -9.470694e-001 6.744908e-001 4.246685e-001 7.020265e-001 3.537822e-001 9.606100e-003 4.576085e+000 1.614932e-001 4.416109e-001 2.616748e-001 3.224547e-001 1.730188e-001 3.116615e-001 -9.379207e-002 -1.426002e-001 -4.128076e-001 -2.420997e-001 -2.098537e-001 -2.062171e-001 -9.373628e-001
<VARIANCE> 39
 4.732034e+001 3.321612e+001 4.534712e+001 7.305945e+001 4.222851e+001 5.849327e+001 4.628825e+001 4.280909e+001 4.019974e+001 3.588042e+001 3.893940e+001 2.641830e+001 5.424210e+001 5.649712e+000 5.135171e+000 7.404508e+000 7.502011e+000 6.630639e+000 7.429064e+000 7.299655e+000 6.980370e+000 6.929955e+000 5.353165e+000 5.320336e+000 4.086246e+000 7.636299e+000 9.295783e-001 6.678320e-001 5.777218e-001 1.116073e+000 8.562843e-001 8.475366e-001 9.084882e-001 8.883706e-001 8.605205e-001 7.299348e-001 7.240452e-001 5.370820e-001 9.778504e-001
<GCONST> 1.418062e+002
<TRANSP> 5
 0.000000e+000 1.000000e+000 0.000000e+000 0.000000e+000 0.000000e+000
 0.000000e+000 7.040851e-001 2.959149e-001 0.000000e+000 0.000000e+000
 0.000000e+000 0.000000e+000 5.035483e-001 4.964517e-001 0.000000e+000
 0.000000e+000 0.000000e+000 0.000000e+000 5.061062e-001 4.938938e-001
 0.000000e+000 0.000000e+000 0.000000e+000 0.000000e+000 0.000000e+000
<ENDHMM>
~h "d"
<BEGINHMM>
<NUMSTATES> 5
<STATE> 2
<MEAN> 39
 -8.234675e+000 -1.430168e+000 5.386765e-001 -2.325095e+000 -8.296909e+000 -7.512451e+000 -7.125732e+000 -4.005483e+000 -5.395473e+000 -4.305429e+000 -5.396883e+000 -3.088216e+000 4.545045e+001 -1.009515e+000 1.462353e+000 2.418226e-001 1.243727e+000 1.562404e+000 9.522712e-001 4.170141e-001 -6.359655e-001 -1.610736e-001 -2.830856e-001 -3.034926e-001 -3.652824e-001 -2.195311e+000 -1.651015e-001 -7.156002e-001 -2.744066e-001 -7.182707e-001 -1.299852e-001 7.048944e-002 -2.669593e-003 3.698307e-001 1.934901e-001 1.864569e-001 2.874858e-001 1.627295e-001 1.036433e+000
<VARIANCE> 39
 3.756183e+001 5.954743e+001 4.269348e+001 7.236169e+001 6.052980e+001 4.985006e+001 4.664453e+001 5.185496e+001 4.773062e+001 3.944954e+001 3.801936e+001 3.120031e+001 9.325826e+001 2.757114e+000 7.439218e+000 3.750584e+000 7.406688e+000 5.556294e+000 5.062899e+000 5.597555e+000 5.816145e+000 4.689825e+000 4.112320e+000 3.991249e+000 3.270164e+000 1.196492e+001 4.313963e-001 1.161003e+000 5.472832e-001 1.134017e+000 1.036511e+000 8.220827e-001 9.393387e-001 9.027645e-001 7.853478e-001 7.647449e-001 7.446732e-001 6.109233e-001 1.736022e+000
<GCONST> 1.413195e+002
<STATE> 3
<MEAN> 39
 -1.199760e+001 -1.770801e+000 -5.398906e-001 -2.653448e+000 -4.575293e+000 -4.303281e+000 -5.770172e+000 -4.043420e+000 -4.973105e+000 -3.640769e+000 -4.455099e+000 -3.001534e+000 4.422548e+001 -1.120163e+000 -1.703494e+000 -5.328728e-001 -1.774522e+000 1.068154e-002 3.338543e-001 2.667952e-001 7.342886e-001 6.106820e-001 4.827566e-001 8.103750e-001 5.893452e-001 2.642182e+000 3.823332e-001 -5.839194e-001 -1.036033e-001 -7.472886e-001 -8.176762e-001 -5.196211e-001 -2.796968e-001 3.204613e-001 1.278307e-001 2.024605e-001 1.643916e-001 1.586321e-001 1.380664e+000
<VARIANCE> 39
 4.481461e+001 5.849189e+001 4.038768e+001 6.037175e+001 4.707998e+001 4.301824e+001 4.130633e+001 4.274485e+001 3.969934e+001 3.227560e+001 3.208121e+001 2.592432e+001 9.746278e+001 4.528146e+000 6.513209e+000 3.970304e+000 7.023370e+000 6.033476e+000 6.079535e+000 5.439231e+000 5.505294e+000 4.988134e+000 4.048665e+000 3.878284e+000 3.080445e+000 1.410363e+001 7.504849e-001 1.219673e+000 7.498019e-001 1.244479e+000 1.086853e+000 1.032216e+000 1.077267e+000 1.018086e+000 9.448628e-001 7.935561e-001 8.299437e-001 6.773673e-001 1.946760e+000
<GCONST> 1.425941e+002
<STATE> 4
<MEAN> 39
 -1.293986e+001 -7.449385e+000 -2.317930e+000 -9.721680e+000 -8.590854e+000 -6.639605e+000 -5.925156e+000 -1.275171e+000 -2.750067e+000 -1.864548e+000 -2.529917e+000 -8.809196e-001 5.636800e+001 9.406268e-001 -1.111441e+000 -2.819712e-001 -1.393869e+000 -1.375608e+000 -1.025787e+000 -7.381854e-001 7.237050e-001 3.154950e-001 3.632647e-001 1.370192e-001 8.743364e-002 2.768552e+000 5.613787e-001 2.329487e-001 -2.538438e-002 3.879856e-001 -4.183227e-002 -6.455394e-003 -1.360049e-001 -7.820167e-002 -1.940448e-001 -4.466859e-002 -1.645900e-001 -2.379926e-001 -6.816699e-001
<VARIANCE> 39
 5.830481e+001 4.678016e+001 4.771976e+001 5.403526e+001 5.615441e+001 5.409091e+001 5.738295e+001 4.885460e+001 4.424660e+001 3.250531e+001 3.198231e+001 2.678298e+001 7.417052e+001 7.594536e+000 4.815296e+000 4.557318e+000 6.075548e+000 7.006225e+000 6.793042e+000 6.987045e+000 5.856827e+000 5.562185e+000 4.290686e+000 4.792098e+000 3.734337e+000 1.094553e+001 9.923847e-001 9.334338e-001 8.227093e-001 1.072046e+000 1.357479e+000 1.482628e+000 1.162586e+000 1.048012e+000 9.519241e-001 8.091004e-001 8.226819e-001 6.696038e-001 1.603625e+000
<GCONST> 1.449855e+002
<TRANSP> 5
 0.000000e+000 1.000000e+000 0.000000e+000 0.000000e+000 0.000000e+000
 0.000000e+000 5.389174e-001 4.610826e-001 0.000000e+000 0.000000e+000
 0.000000e+000 0.000000e+000 3.804817e-001 6.195182e-001 0.000000e+000
 0.000000e+000 0.000000e+000 0.000000e+000 5.025570e-001 4.974430e-001
 0.000000e+000 0.000000e+000 0.000000e+000 0.000000e+000 0.000000e+000
<ENDHMM>
~h "f"
<BEGINHMM>
<NUMSTATES> 5
<STATE> 2
<MEAN> 39
 -1.756796e+001 -5.834608e+000 -7.008518e+000 -5.751842e+000 -3.710726e+000 -3.384011e+000 -2.323975e+000 -6.276915e-001 -1.783762e+000 -1.178752e+000 -2.603525e+000 -1.129579e+000 5.300108e+001 -3.643053e+000 -2.854554e-001 -3.287942e-001 7.834140e-001 4.164820e-001 4.167216e-001 6.657133e-001 5.603547e-001 6.640804e-001 3.590400e-001 4.192000e-001 5.870273e-001 -8.565150e-001 4.271831e-001 -3.493610e-001 -1.135634e-001 -4.201147e-001 -3.857092e-001 -2.191960e-001 -3.446434e-001 -7.051288e-002 -1.163650e-001 3.800844e-002 8.622698e-003 -6.452719e-002 2.735407e-001
<VARIANCE> 39
 5.269941e+001 1.832062e+001 1.897872e+001 2.160947e+001 1.837321e+001 2.395951e+001 2.169391e+001 2.118623e+001 2.038029e+001 2.026718e+001 1.822582e+001 1.584078e+001 3.411636e+001 5.851946e+000 3.406789e+000 4.014840e+000 4.641258e+000 3.434046e+000 4.034620e+000 3.990492e+000 3.689288e+000 3.580653e+000 3.257083e+000 3.255685e+000 2.503748e+000 2.992552e+000 9.716319e-001 6.271455e-001 5.669354e-001 6.757386e-001 6.004323e-001 5.544558e-001 6.446497e-001 6.192562e-001 5.929425e-001 5.394544e-001 5.047015e-001 4.402765e-001 4.681929e-001
<GCONST> 1.220131e+002
<STATE> 3
<MEAN> 39
 -2.360576e+001 -8.435585e+000 -9.324228e+000 -6.301041e+000 -4.798758e+000 -3.850739e+000 -2.969287e+000 -2.673841e-001 -1.006514e+000 -1.551353e-001 -1.763194e+000 -1.208679e-001 5.265631e+001 2.054018e-001 -1.636256e-001 -1.468008e-001 -1.428730e-001 -8.385921e-002 -8.346945e-002 -9.747802e-002 -6.570367e-002 2.182245e-002 5.573968e-002 2.653168e-002 -1.370300e-002 1.382987e-001 8.635693e-001 1.153785e-001 1.104347e-001 -1.437005e-001 -5.523812e-002 -7.248295e-002 -1.398302e-001 -9.476019e-002 -9.975214e-002 -8.098796e-002 -6.124166e-002 -1.135167e-001 1.444686e-001
<VARIANCE> 39
 1.284586e+001 1.366497e+001 1.107961e+001 1.222027e+001 1.290640e+001 1.384051e+001 1.480071e+001 1.414399e+001 1.400170e+001 1.388578e+001 1.326165e+001 1.181540e+001 2.946537e+001 3.391285e+000 1.086604e+000 1.188660e+000 1.325205e+000 1.392107e+000 1.521744e+000 1.609553e+000 1.619666e+000 1.598190e+000 1.542896e+000 1.485950e+000 1.361467e+000 1.597873e+000 5.234316e-001 2.655401e-001 3.112512e-001 3.777801e-001 3.716140e-001 4.015320e-001 4.412016e-001 3.994306e-001 3.983914e-001 3.638991e-001 3.649881e-001 3.184394e-001 3.152073e-001
<GCONST> 9.854322e+001
<STATE> 4
<MEAN> 39
 -1.624023e+001 -7.408755e+000 -8.269319e+000 -7.640304e+000 -5.128850e+000 -4.182017e+000 -3.153352e+000 -1.060826e+000 -1.378948e+000 -4.706700e-001 -2.041096e+000 -9.953543e-001 5.364146e+001 4.641016e+000 8.467021e-002 1.086901e-001 -1.464749e+000 -1.138664e+000 -5.361208e-001 -1.200514e+000 -5.099268e-001 -5.708067e-001 -4.366681e-001 -1.395272e-001 -5.362340e-001 1.072899e+000 4.461083e-001 -2.451536e-001 -7.921860e-002 -3.728823e-001 -3.618445e-001 -6.415055e-002 -3.821117e-001 4.278383e-002 -1.072888e-001 -5.986932e-002 5.682453e-002 -4.149647e-002 2.762542e-001
<VARIANCE> 39
 6.257051e+001 2.050830e+001 2.277151e+001 2.533212e+001 2.310553e+001 2.582857e+001 2.498297e+001 2.220158e+001 2.132969e+001 1.891652e+001 1.781649e+001 1.588206e+001 3.757443e+001 6.962264e+000 3.597454e+000 4.805378e+000 5.168915e+000 4.656803e+000 5.372290e+000 5.448511e+000 4.129960e+000 4.188738e+000 3.270832e+000 3.486758e+000 2.652554e+000 4.084505e+000 1.158901e+000 5.203542e-001 5.435694e-001 6.563405e-001 6.637639e-001 7.153136e-001 7.772477e-001 6.710565e-001 6.587260e-001 5.864078e-001 5.040987e-001 4.201201e-001 5.104423e-001
<GCONST> 1.260810e+002
<TRANSP> 5
 0.000000e+000 1.000000e+000 0.000000e+000 0.000000e+000 0.000000e+000
 0.000000e+000 5.713041e-001 4.286959e-001 0.000000e+000 0.000000e+000
 0.000000e+000 0.000000e+000 8.298920e-001 1.701079e-001 0.000000e+000
 0.000000e+000 0.000000e+000 0.000000e+000 5.504099e-001 4.495901e-001
 0.000000e+000 0.000000e+000 0.000000e+000 0.000000e+000 0.000000e+000
<ENDHMM>
~h "g"
<BEGINHMM>
<NUMSTATES> 5
<STATE> 2
<MEAN> 39
 -7.212503e+000 -1.831781e+000 1.694866e+000 -2.854011e+000 -1.194751e+001 -1.160558e+001 -5.683764e+000 -2.951487e+000 -1.151845e+001 -3.846328e+000 -1.700709e+000 -3.712039e+000 4.757854e+001 -9.682651e-001 1.677290e+000 -3.928009e-001 1.795175e+000 2.082631e+000 6.850778e-001 -1.898796e-001 -8.274288e-001 4.425242e-001 -6.217031e-001 -5.483560e-001 -2.400382e-002 -3.040330e+000 -1.684122e-001 -8.143154e-001 -6.875981e-001 -5.554543e-001 3.819367e-001 3.422973e-001 -4.078637e-002 1.859664e-001 7.004181e-001 3.367450e-001 -1.314687e-001 1.241693e-001 8.717726e-001
<VARIANCE> 39
 2.366428e+001 5.424033e+001 4.497663e+001 5.943659e+001 6.758262e+001 5.825610e+001 5.843114e+001 8.833273e+001 5.783417e+001 6.288908e+001 6.748382e+001 3.692555e+001 7.527248e+001 2.559669e+000 8.024511e+000 4.960975e+000 5.947930e+000 6.625208e+000 6.048563e+000 6.751517e+000 8.100308e+000 7.080240e+000 6.129099e+000 5.139635e+000 3.532874e+000 8.186273e+000 3.612615e-001 1.516168e+000 7.336879e-001 1.146754e+000 1.137264e+000 1.091026e+000 1.146428e+000 1.273758e+000 1.076475e+000 1.297903e+000 9.932368e-001 6.965943e-001 1.948780e+000
<GCONST> 1.472179e+002
<STATE> 3
<MEAN> 39
 -1.226311e+001 -3.330437e+000 -3.749608e+000 -7.681808e-001 -2.933967e+000 -7.015353e+000 -5.760839e+000 -3.296883e+000 -5.910609e+000 -2.749546e+000 -3.486654e+000 -2.327751e+000 4.398532e+001 -4.753879e-001 -2.677963e+000 -2.301292e+000 -1.622578e+000 1.252759e+000 5.694398e-001 -3.828458e-001 4.744025e-001 1.549139e+000 1.315672e+000 -4.708801e-002 5.823742e-001 2.604627e+000 6.488757e-001 -2.798807e-001 1.210055e-001 -8.164784e-001 -8.761716e-001 -3.890095e-001 -2.011505e-001 2.930724e-002 -2.485192e-001 2.519425e-001 2.594175e-001 -1.768586e-002 1.239877e+000
<VARIANCE> 39
 3.358998e+001 7.783884e+001 6.016577e+001 4.273300e+001 5.389258e+001 5.531043e+001 4.548399e+001 5.005718e+001 4.549894e+001 3.636322e+001 3.020048e+001 2.365862e+001 7.604485e+001 3.711307e+000 8.659200e+000 7.077452e+000 6.221136e+000 8.320176e+000 7.834005e+000 6.828166e+000 8.004581e+000 6.285182e+000 5.410093e+000 4.451413e+000 3.361123e+000 9.507085e+000 6.500928e-001 2.142209e+000 1.308992e+000 1.260302e+000 1.160200e+000 1.240799e+000 1.168502e+000 1.331059e+000 1.078373e+000 1.090293e+000 9.717996e-001 6.191410e-001 1.848670e+000
<GCONST> 1.472661e+002
<STATE> 4
<MEAN> 39
 -9.438383e+000 -8.650531e+000 -8.138817e+000 -8.118359e+000 -4.618847e+000 -7.947676e+000 -7.966316e+000 -3.115564e+000 -4.426777e+000 1.103806e+000 -2.301555e+000 -1.452538e+000 5.461915e+001 1.694225e+000 -7.172611e-002 1.533445e-001 -1.554512e+000 -1.145744e+000 -5.915923e-001 -1.125133e+000 -7.646520e-002 -4.884984e-003 2.175388e-001 4.625669e-001 -6.442561e-003 2.131932e+000 3.679625e-001 4.711102e-001 4.639023e-001 2.527879e-001 -3.638579e-001 -1.074729e-001 -4.368988e-002 9.175520e-002 -2.832555e-001 -4.495637e-001 5.967238e-002 -1.407596e-001 -4.643850e-001
<VARIANCE> 39
 3.409728e+001 5.505803e+001 8.908910e+001 5.623237e+001 8.550380e+001 6.711685e+001 6.165577e+001 5.965735e+001 5.195213e+001 4.393426e+001 4.138498e+001 2.608778e+001 4.324709e+001 4.288742e+000 6.166917e+000 6.098498e+000 7.118243e+000 6.456234e+000 6.682475e+000 6.243308e+000 5.813893e+000 6.206001e+000 5.831637e+000 4.544978e+000 3.318348e+000 4.942346e+000 7.115191e-001 1.604728e+000 1.544976e+000 9.979678e-001 1.393588e+000 1.206909e+000 1.224216e+000 1.215154e+000 1.256596e+000 1.087603e+000 8.371670e-001 6.609280e-001 8.270985e-001
<GCONST> 1.463992e+002
<TRANSP> 5
 0.000000e+000 1.000000e+000 0.000000e+000 0.000000e+000 0.000000e+000
 0.000000e+000 6.443415e-001 3.556585e-001 0.000000e+000 0.000000e+000
 0.000000e+000 0.000000e+000 5.468266e-001 4.531734e-001 0.000000e+000
 0.000000e+000 0.000000e+000 0.000000e+000 6.202999e-001 3.797001e-001
 0.000000e+000 0.000000e+000 0.000000e+000 0.000000e+000 0.000000e+000
<ENDHMM>
~h "k"
<BEGINHMM>
<NUMSTATES> 5
<STATE> 2
<MEAN> 39
 -1.406558e+001 -4.055986e+000 -2.713901e+000 -2.430151e+000 -5.288318e+000 -7.675654e+000 -3.921422e+000 1.190230e-001 -5.636328e+000 -1.154946e+000 -1.557764e+000 -1.405817e+000 4.363577e+001 -2.235466e+000 6.175492e-001 -5.452901e-001 1.421194e+000 1.727190e+000 2.176564e+000 9.460400e-001 -4.440276e-001 1.112828e+000 5.383115e-001 2.484922e-001 4.399587e-001 -4.021510e+000 2.098823e-001 -7.286093e-001 -4.749975e-001 -7.328390e-001 -1.765709e-001 6.810065e-002 -8.428904e-002 1.628796e-001 2.664114e-001 1.333729e-001 -5.097913e-002 -1.840471e-002 1.203789e+000
<VARIANCE> 39
 4.825319e+001 3.500978e+001 4.778167e+001 4.726911e+001 7.996774e+001 7.272492e+001 5.487352e+001 6.796973e+001 6.346317e+001 4.118064e+001 4.097425e+001 2.756919e+001 9.753773e+001 5.841504e+000 6.682711e+000 6.835266e+000 6.181082e+000 8.255149e+000 7.342653e+000 6.727651e+000 7.641881e+000 7.847303e+000 5.146756e+000 5.345825e+000 3.329978e+000 1.054369e+001 9.665444e-001 1.106295e+000 8.831067e-001 1.102145e+000 1.549549e+000 1.704903e+000 1.138661e+000 1.392640e+000 1.448354e+000 9.436535e-001 9.266522e-001 6.637565e-001 3.024048e+000
<GCONST> 1.499938e+002
<STATE> 3
<MEAN> 39
 -1.877711e+001 -6.903339e+000 -6.625400e+000 -2.475921e+000 -1.521708e+000 -1.756101e+000 -2.060591e+000 6.499479e-001 -1.267917e+000 1.408605e+000 -7.703299e-001 -1.448032e-002 3.926021e+001 3.198352e-001 -1.758308e+000 -1.162598e+000 -1.675751e+000 -3.824375e-001 -2.388009e-001 -7.079825e-002 3.560684e-002 5.489911e-002 5.403613e-001 -2.184004e-001 1.467385e-001 3.083549e+000 4.805881e-001 1.120424e-001 2.193009e-001 -5.012724e-001 -4.855768e-001 -7.168010e-001 -2.905959e-001 -6.189961e-002 -3.912612e-001 -1.844583e-001 -1.268730e-001 -1.369410e-001 1.523877e+000
<VARIANCE> 39
 1.845732e+001 4.522960e+001 3.435066e+001 3.313857e+001 3.269832e+001 3.390167e+001 3.200733e+001 2.984176e+001 2.956544e+001 2.320192e+001 1.965839e+001 1.626246e+001 8.902286e+001 4.043831e+000 5.348221e+000 5.243567e+000 5.205388e+000 5.082615e+000 5.491897e+000 4.502423e+000 4.592717e+000 5.104785e+000 3.602312e+000 3.128502e+000 2.520857e+000 1.627785e+001 7.393838e-001 1.291374e+000 9.619281e-001 9.271945e-001 9.916762e-001 1.003503e+000 9.056502e-001 8.624133e-001 8.854727e-001 6.678089e-001 6.384984e-001 4.658352e-001 2.759256e+000
<GCONST> 1.354714e+002
<STATE> 4
<MEAN> 39
 -1.575074e+001 -9.615201e+000 -7.156290e+000 -9.810597e+000 -4.886403e+000 -5.095372e+000 -2.706927e+000 -6.331502e-001 -2.969298e+000 1.661831e+000 -2.448320e+000 -5.035989e-001 5.512233e+001 1.155754e+000 3.568549e-001 4.695009e-001 -7.094663e-001 -9.269729e-001 -7.195126e-001 -2.122025e-001 -1.254082e-001 -4.220661e-001 -5.878147e-001 -9.816193e-002 -3.124827e-001 1.851746e+000 2.377395e-001 2.945015e-001 2.565768e-001 2.822829e-001 -1.152901e-001 1.470007e-002 -1.081150e-001 4.019505e-002 -7.467292e-002 -2.481269e-001 9.399880e-002 -9.131563e-002 -5.588570e-001
<VARIANCE> 39
 3.398189e+001 3.737156e+001 7.272806e+001 4.496515e+001 5.775655e+001 4.853140e+001 4.902699e+001 4.509152e+001 4.019537e+001 3.508609e+001 2.986743e+001 2.279065e+001 5.336481e+001 5.745441e+000 4.499606e+000 3.944049e+000 4.945230e+000 4.518555e+000 4.801262e+000 4.648397e+000 4.509573e+000 4.754596e+000 3.761337e+000 3.422276e+000 2.646562e+000 8.398972e+000 7.766168e-001 1.188377e+000 9.912841e-001 9.775916e-001 8.995752e-001 9.088563e-001 9.288547e-001 8.601512e-001 9.010519e-001 7.645431e-001 6.626508e-001 5.331692e-001 1.738555e+000
<GCONST> 1.384688e+002
<TRANSP> 5
 0.000000e+000 1.000000e+000 0.000000e+000 0.000000e+000 0.000000e+000
 0.000000e+000 6.723391e-001 3.276609e-001 0.000000e+000 0.000000e+000
 0.000000e+000 0.000000e+000 5.980965e-001 4.019034e-001 0.000000e+000
 0.000000e+000 0.000000e+000 0.000000e+000 7.275060e-001 2.724940e-001
 0.000000e+000 0.000000e+000 0.000000e+000 0.000000e+000 0.000000e+000
<ENDHMM>
~h "l"
<BEGINHMM>
<NUMSTATES> 5
<STATE> 2
<MEAN> 39
 -1.395049e+000 -5.148805e+000 -1.070440e+001 -2.327435e+001 -8.086625e+000 1.083432e+000 -8.396079e+000 -7.483237e+000 -3.509334e+000 2.116096e-002 -1.501139e-001 -3.046055e+000 6.020746e+001 5.822985e-001 2.862128e-001 -3.380058e-001 -1.336610e+000 1.288543e-001 8.555910e-001 -2.935343e-001 -5.515860e-001 -2.754961e-001 1.701846e-001 4.606932e-001 8.437803e-002 9.789195e-002 -3.071140e-001 -2.764764e-001 1.292567e-001 5.413313e-001 2.623893e-002 -3.676180e-001 2.173470e-002 4.141130e-001 2.026670e-001 -2.770104e-002 -1.790266e-001 -2.893904e-002 8.422956e-003
<VARIANCE> 39
 1.268444e+001 5.106839e+001 4.610472e+001 6.923029e+001 5.875892e+001 7.264532e+001 7.419757e+001 6.416780e+001 6.402731e+001 6.065574e+001 6.456838e+001 4.336974e+001 2.962241e+001 1.662572e+000 3.292329e+000 2.141765e+000 4.594790e+000 3.448952e+000 4.583423e+000 4.690588e+000 4.576514e+000 4.466084e+000 4.273364e+000 3.591560e+000 3.383756e+000 2.012271e+000 3.319912e-001 4.653920e-001 3.599474e-001 6.741958e-001 6.582568e-001 6.953554e-001 7.359087e-001 8.406022e-001 9.060339e-001 8.202627e-001 6.997424e-001 6.396691e-001 2.374677e-001
<GCONST> 1.315125e+002
<STATE> 3
<MEAN> 39
 -1.176770e+000 -5.902824e+000 -1.102127e+001 -2.447867e+001 -6.979678e+000 1.489641e+000 -9.933227e+000 -6.952861e+000 -2.866493e+000 1.248898e+000 1.961188e-001 -3.643559e+000 6.068195e+001 -2.924702e-001 -8.181878e-001 2.630508e-001 1.093020e+000 9.888843e-002 -1.053156e+000 -5.864840e-001 8.428535e-001 9.555494e-001 2.432147e-001 -7.703871e-001 -5.857373e-001 3.653273e-001 -2.519471e-001 -1.106174e-001 3.184062e-001 6.074861e-001 -2.171652e-001 -4.296209e-001 2.216767e-001 3.979757e-001 2.246677e-002 -3.249015e-001 -2.765925e-001 1.014627e-001 -9.278611e-002
<VARIANCE> 39
 1.028700e+001 3.981345e+001 5.011974e+001 7.217313e+001 5.901465e+001 7.504855e+001 8.204954e+001 6.324554e+001 6.684642e+001 6.607151e+001 6.254311e+001 4.499214e+001 2.521569e+001 6.926759e-001 3.441600e+000 2.098222e+000 4.039429e+000 2.982781e+000 4.579042e+000 4.150407e+000 4.661154e+000 5.040345e+000 3.968189e+000 3.427836e+000 3.361220e+000 1.761403e+000 2.068416e-001 3.785549e-001 3.659866e-001 5.706133e-001 6.671196e-001 6.325248e-001 7.418463e-001 8.145475e-001 8.702493e-001 8.488005e-001 6.279771e-001 6.355484e-001 2.306313e-001
<GCONST> 1.288195e+002
<STATE> 4
<MEAN> 39
 -2.965103e+000 -8.259411e+000 -8.980018e+000 -1.834412e+001 -7.846569e+000 -4.756142e+000 -1.013699e+001 -2.495012e+000 -1.610891e-001 -3.458667e-001 -4.222281e+000 -4.046152e+000 6.059834e+001 -7.263304e-001 -4.210615e-001 1.384967e+000 1.831486e+000 -8.980404e-001 -1.580403e+000 4.541996e-001 1.302430e+000 -3.429858e-001 -9.528885e-001 -5.524590e-001 5.061275e-001 -1.839678e-001 -1.533788e-001 2.312176e-001 2.587425e-001 3.047072e-002 -1.318740e-001 2.200510e-001 3.235398e-001 -2.137165e-001 -5.500222e-001 -1.249335e-001 3.248287e-001 2.011688e-001 -2.613843e-001
<VARIANCE> 39
 1.420578e+001 4.815788e+001 5.782667e+001 7.652840e+001 6.010638e+001 9.754335e+001 8.760952e+001 6.952809e+001 6.899006e+001 6.396050e+001 6.386932e+001 4.706250e+001 4.395058e+001 1.178236e+000 2.669618e+000 3.635063e+000 4.016140e+000 4.825407e+000 4.416136e+000 3.975829e+000 5.156671e+000 5.010552e+000 4.116547e+000 3.467016e+000 3.359779e+000 1.944705e+000 2.334786e-001 3.536728e-001 3.465357e-001 7.316403e-001 6.204085e-001 7.928585e-001 7.573357e-001 8.159525e-001 9.396223e-001 7.471617e-001 6.228705e-001 6.060780e-001 2.350945e-001
<GCONST> 1.323957e+002
<TRANSP> 5
 0.000000e+000 1.000000e+000 0.000000e+000 0.000000e+000 0.000000e+000
 0.000000e+000 6.930511e-001 3.069489e-001 0.000000e+000 0.000000e+000
 0.000000e+000 0.000000e+000 5.680286e-001 4.319713e-001 0.000000e+000
 0.000000e+000 0.000000e+000 0.000000e+000 5.536084e-001 4.463917e-001
 0.000000e+000 0.000000e+000 0.000000e+000 0.000000e+000 0.000000e+000
<ENDHMM>
~h "m"
<BEGINHMM>
<NUMSTATES> 5
<STATE> 2
<MEAN> 39
 -4.298848e+000 -4.139715e+000 -5.117120e+000 -5.100657e+000 -7.126172e+000 -7.178217e+000 -6.816590e+000 -7.689019e+000 -1.036841e+001 -2.105223e+000 -2.179345e+000 -6.006218e+000 5.169702e+001 3.409562e-001 1.224963e+000 7.978092e-001 1.481721e+000 1.033752e-001 -9.237565e-001 1.060001e-001 -2.003871e+000 -2.140897e+000 3.420242e-001 2.173611e-001 -7.713079e-001 -7.754924e-001 -2.263952e-001 -3.531221e-001 6.514319e-002 -3.439768e-001 -1.857713e-001 1.200045e-001 -4.532275e-002 4.512063e-001 4.041636e-001 -5.613721e-002 -8.746105e-002 1.916692e-001 4.038530e-001
<VARIANCE> 39
 2.001054e+001 3.349104e+001 3.619020e+001 5.380143e+001 4.745808e+001 6.126242e+001 6.366059e+001 6.428809e+001 7.203123e+001 5.527360e+001 7.043349e+001 4.660519e+001 3.889733e+001 3.844132e+000 2.769632e+000 3.469123e+000 3.894614e+000 4.543810e+000 3.959489e+000 5.449861e+000 5.363757e+000 5.918726e+000 4.510237e+000 4.697442e+000 3.566749e+000 4.505960e+000 3.539457e-001 4.236850e-001 5.936130e-001 6.303218e-001 6.122472e-001 6.274157e-001 7.520193e-001 8.262933e-001 1.033895e+000 6.825315e-001 6.950146e-001 5.636485e-001 3.579156e-001
<GCONST> 1.343137e+002
<STATE> 3
<MEAN> 39
 -3.968409e+000 -3.178743e+000 -3.138496e+000 -3.009052e+000 -7.887857e+000 -8.919980e+000 -7.144156e+000 -1.100018e+001 -1.387956e+001 -1.013330e+000 -2.228158e+000 -7.342589e+000 5.164670e+001 -2.743994e-002 -2.106853e-001 1.314514e-001 -2.399569e-001 -2.001891e-001 8.897264e-002 -1.272942e-001 1.977525e-001 3.209446e-001 -2.199119e-001 -1.507363e-001 1.674221e-001 4.059496e-001 -1.914875e-001 -4.654274e-001 -2.350096e-001 -7.017559e-001 -1.041634e-001 4.122947e-001 6.242937e-003 8.633239e-001 8.675406e-001 -1.877320e-001 -9.555274e-002 3.520279e-001 3.732562e-001
<VARIANCE> 39
 8.161102e+000 2.380249e+001 3.038681e+001 4.872614e+001 4.898798e+001 6.698705e+001 6.468811e+001 6.763311e+001 6.213559e+001 6.295314e+001 8.869151e+001 5.406023e+001 2.005659e+001 1.415470e+000 2.520649e+000 1.978780e+000 2.893710e+000 2.762201e+000 2.602172e+000 3.041134e+000 3.853419e+000 4.462463e+000 2.948410e+000 2.954490e+000 2.434600e+000 2.993807e+000 3.842833e-001 3.166292e-001 5.547407e-001 5.431871e-001 6.326898e-001 6.026188e-001 7.315432e-001 7.785440e-001 9.282700e-001 7.406409e-001 7.968879e-001 6.257241e-001 2.679693e-001
<GCONST> 1.263485e+002
<STATE> 4
<MEAN> 39
 -4.575147e+000 -5.690761e+000 -4.638534e+000 -6.971754e+000 -8.452224e+000 -6.708121e+000 -7.471111e+000 -6.417206e+000 -8.277276e+000 -3.121693e+000 -3.340191e+000 -5.051576e+000 5.429216e+001 -4.088566e-001 -1.400506e+000 -3.149975e-001 -2.041542e+000 -7.154424e-001 9.711877e-001 3.113649e-002 2.331108e+000 2.087123e+000 -5.647724e-001 -3.202260e-001 9.212313e-001 1.445469e+000 -2.203334e-001 -1.077303e-001 7.126392e-002 -2.276120e-001 -6.771690e-002 1.232142e-001 1.382673e-001 2.601373e-001 3.340312e-002 1.370482e-001 7.424097e-002 6.037168e-002 6.900460e-002
<VARIANCE> 39
 1.749689e+001 3.861167e+001 4.102364e+001 6.115652e+001 5.539539e+001 6.451822e+001 5.737269e+001 6.741988e+001 7.404777e+001 5.051176e+001 6.270839e+001 4.051968e+001 4.761791e+001 2.581857e+000 3.302650e+000 5.288791e+000 5.215682e+000 5.588445e+000 4.601808e+000 5.000941e+000 5.619268e+000 6.468107e+000 4.838899e+000 5.034467e+000 3.787015e+000 3.877090e+000 3.138013e-001 5.190369e-001 5.869325e-001 7.387370e-001 6.684142e-001 6.788416e-001 7.112879e-001 9.571601e-001 1.176770e+000 6.776956e-001 6.793973e-001 5.261270e-001 4.300674e-001
<GCONST> 1.362588e+002
<TRANSP> 5
 0.000000e+000 1.000000e+000 0.000000e+000 0.000000e+000 0.000000e+000
 0.000000e+000 5.112765e-001 4.887235e-001 0.000000e+000 0.000000e+000
 0.000000e+000 0.000000e+000 6.304280e-001 3.695719e-001 0.000000e+000
 0.000000e+000 0.000000e+000 0.000000e+000 4.921605e-001 5.078395e-001
 0.000000e+000 0.000000e+000 0.000000e+000 0.000000e+000 0.000000e+000
<ENDHMM>
~h "n"
<BEGINHMM>
<NUMSTATES> 5
<STATE> 2
<MEAN> 39
 -4.691025e+000 -7.382451e+000 -2.285661e+000 -9.583360e+000 -1.255324e+001 -7.898386e+000 -6.121196e+000 -2.787817e+000 -8.441665e+000 -2.659214e+000 -5.531889e+000 -4.348066e+000 5.632301e+001 1.882469e-001 1.376009e+000 5.601493e-002 1.307192e+000 7.018536e-002 -4.663793e-001 9.019148e-001 -2.232543e+000 -1.149427e+000 8.879092e-001 -6.129279e-001 -2.206041e-001 -1.514626e+000 -1.352267e-001 3.432680e-002 -1.753163e-002 -4.353512e-002 2.806422e-002 8.461567e-002 1.595191e-002 -5.393981e-002 1.252328e-001 5.997471e-003 3.829000e-002 1.029307e-001 4.687905e-003
<VARIANCE> 39
 1.105701e+001 3.673362e+001 4.693430e+001 7.392330e+001 5.676831e+001 5.567917e+001 6.277776e+001 9.531721e+001 8.216058e+001 6.391721e+001 6.479575e+001 4.880520e+001 3.385346e+001 1.096627e+000 2.635427e+000 3.398712e+000 3.441430e+000 3.888835e+000 4.178763e+000 4.564327e+000 7.104827e+000 5.378457e+000 4.315704e+000 3.554726e+000 3.074021e+000 2.411153e+000 2.026233e-001 3.954349e-001 4.202811e-001 5.814944e-001 5.728064e-001 6.015351e-001 7.273403e-001 1.308289e+000 8.360927e-001 7.171783e-001 5.891527e-001 4.914030e-001 3.623979e-001
<GCONST> 1.311280e+002
<STATE> 3
<MEAN> 39
 -4.236182e+000 -3.487983e+000 -2.614184e+000 -5.812029e+000 -1.234515e+001 -8.979958e+000 -3.239858e+000 -1.025283e+001 -1.071018e+001 4.646544e-001 -7.370313e+000 -4.426758e+000 5.226503e+001 -1.637708e-001 7.505143e-001 4.385808e-002 4.895138e-001 1.718781e-001 2.071909e-002 1.588355e-001 -7.699575e-001 -1.964002e-001 7.831912e-002 -1.909464e-001 5.551981e-002 -7.400679e-001 -2.878356e-001 -4.595006e-001 -5.282531e-002 -4.934012e-001 2.035555e-001 2.879224e-001 -4.341713e-001 1.056461e+000 5.672883e-001 -4.874709e-001 3.122981e-001 1.308698e-001 4.457083e-001
<VARIANCE> 39
 8.942472e+000 3.278617e+001 3.204861e+001 5.737532e+001 4.773027e+001 5.087151e+001 5.935970e+001 8.630210e+001 7.168570e+001 6.535755e+001 6.859767e+001 5.672376e+001 2.477805e+001 9.879312e-001 3.250531e+000 2.408437e+000 3.065988e+000 2.974687e+000 3.135456e+000 4.071578e+000 7.624497e+000 4.937421e+000 3.804789e+000 3.055482e+000 2.596678e+000 2.843643e+000 2.975214e-001 5.278581e-001 5.637021e-001 6.607074e-001 7.404515e-001 7.620100e-001 8.845370e-001 1.326084e+000 1.152549e+000 8.695328e-001 7.682291e-001 6.642224e-001 4.106412e-001
<GCONST> 1.312112e+002
<STATE> 4
<MEAN> 39
 -6.111593e+000 -3.207207e+000 -3.200864e+000 -6.168286e+000 -1.030508e+001 -7.459189e+000 -4.513547e+000 -6.799553e+000 -8.567482e+000 -2.212775e+000 -6.531509e+000 -3.692597e+000 5.063815e+001 -8.768214e-001 -3.470514e-001 -2.423524e-001 -5.629620e-001 7.791103e-001 5.973005e-001 -4.829780e-001 1.400867e+000 8.968585e-001 -6.107859e-001 5.214798e-001 2.297283e-001 1.794593e-001 -2.683817e-001 -3.456751e-001 -1.405064e-001 -3.183215e-001 9.986302e-002 1.721485e-001 -3.258274e-002 4.687018e-001 2.952614e-001 1.567905e-003 2.037360e-001 9.754717e-002 3.441841e-001
<VARIANCE> 39
 2.133006e+001 5.107477e+001 3.615966e+001 5.910660e+001 5.192732e+001 4.747315e+001 5.813289e+001 8.478181e+001 6.883277e+001 5.690372e+001 5.246368e+001 4.472729e+001 5.477386e+001 3.112484e+000 4.072733e+000 3.379071e+000 4.400435e+000 4.421449e+000 3.910539e+000 4.799743e+000 6.946229e+000 5.540879e+000 4.395674e+000 3.912295e+000 3.288806e+000 4.603075e+000 5.088375e-001 7.098699e-001 5.477609e-001 7.145097e-001 7.644038e-001 6.985607e-001 8.426870e-001 1.329405e+000 1.023150e+000 7.979025e-001 6.841515e-001 5.758381e-001 6.453342e-001
<GCONST> 1.375152e+002
<TRANSP> 5
 0.000000e+000 1.000000e+000 0.000000e+000 0.000000e+000 0.000000e+000
 0.000000e+000 5.333262e-001 4.666738e-001 0.000000e+000 0.000000e+000
 0.000000e+000 0.000000e+000 5.018533e-001 4.981467e-001 0.000000e+000
 0.000000e+000 0.000000e+000 0.000000e+000 5.496992e-001 4.503007e-001
 0.000000e+000 0.000000e+000 0.000000e+000 0.000000e+000 0.000000e+000
<ENDHMM>
~h "p"
<BEGINHMM>
<NUMSTATES> 5
<STATE> 2
<MEAN> 39
 -1.176155e+001 -3.027052e-002 -3.931282e+000 -3.208948e+000 -2.993045e+000 -2.606305e+000 -4.720292e+000 -4.283473e+000 -5.026257e+000 -2.299934e+000 -2.463611e+000 -2.640424e+000 4.046325e+001 -2.919263e+000 8.350618e-001 2.332816e-001 2.056713e+000 1.404431e+000 1.342452e+000 1.461521e+000 6.411225e-001 8.794695e-001 3.444421e-001 1.502429e-001 5.426357e-001 -4.422843e+000 -1.247192e-001 -8.817281e-001 -2.597726e-001 -6.025814e-001 -3.638867e-001 -1.659743e-001 -1.598449e-002 4.435182e-001 3.683551e-001 3.267316e-001 1.858192e-001 1.291513e-001 1.147022e+000
<VARIANCE> 39
 5.035072e+001 2.754442e+001 2.759091e+001 4.149143e+001 2.663188e+001 3.114428e+001 3.258234e+001 3.288031e+001 3.673112e+001 3.020310e+001 2.888960e+001 2.285689e+001 6.715398e+001 6.472016e+000 6.415187e+000 5.479239e+000 6.757530e+000 4.828233e+000 5.229367e+000 4.930772e+000 5.406295e+000 5.620886e+000 4.720483e+000 4.415087e+000 3.183598e+000 1.058428e+001 1.087109e+000 8.565091e-001 7.701436e-001 1.109837e+000 8.404703e-001 8.447134e-001 8.175915e-001 8.787834e-001 8.819538e-001 7.572988e-001 7.011616e-001 5.481975e-001 1.954165e+000
<GCONST> 1.379028e+002
<STATE> 3
<MEAN> 39
 -1.912352e+001 -2.959894e+000 -5.399812e+000 -1.828400e+000 -1.610508e+000 -2.303639e-001 -1.144795e+000 9.301277e-002 -2.403751e-001 9.785321e-001 -3.150861e-002 -2.946610e-002 3.543653e+001 -1.314928e-002 -1.156386e+000 -4.735062e-001 -6.233470e-001 -1.873711e-001 -2.667412e-001 1.633518e-001 4.633689e-001 6.202477e-001 3.516706e-001 2.434510e-001 2.430292e-001 2.227665e+000 7.765724e-001 -2.209466e-001 -5.290604e-002 -5.047976e-001 -2.670753e-001 -4.011371e-001 -3.557086e-001 -2.379995e-001 -2.701569e-001 -2.125532e-001 -1.811437e-001 -1.800723e-001 1.540156e+000
<VARIANCE> 39
 7.564708e+000 1.136542e+001 8.749650e+000 1.294569e+001 1.136430e+001 1.403557e+001 1.351282e+001 1.559800e+001 1.556364e+001 1.517413e+001 1.294398e+001 1.230688e+001 5.579044e+001 2.941519e+000 2.279505e+000 1.755883e+000 2.658263e+000 1.903379e+000 2.526302e+000 2.402272e+000 2.786101e+000 2.899750e+000 2.392948e+000 2.076463e+000 1.852935e+000 1.424824e+001 6.291887e-001 4.397067e-001 4.400840e-001 5.703076e-001 4.817194e-001 5.843471e-001 5.524590e-001 5.434532e-001 5.690500e-001 4.907909e-001 4.566448e-001 3.794582e-001 1.866271e+000
<GCONST> 1.111544e+002
<STATE> 4
<MEAN> 39
 -1.406594e+001 -8.814541e+000 -8.027548e+000 -7.837486e+000 -3.339606e+000 -3.193189e+000 -2.077339e+000 -5.162905e-001 -2.967545e-001 3.120239e-001 -1.190987e+000 -8.243753e-001 5.394453e+001 2.199667e+000 -7.135885e-001 -6.247401e-001 -1.505491e+000 -8.012435e-001 -6.540644e-001 -8.858275e-001 -3.492873e-001 -6.004174e-001 -5.283951e-001 -5.256134e-001 -3.998701e-001 2.618540e+000 3.667970e-001 3.140281e-001 4.056393e-002 2.206918e-003 -1.943431e-001 1.983796e-002 -3.291909e-001 -9.322518e-002 -2.690010e-001 -1.501267e-001 -6.205417e-002 -8.668729e-002 -7.267752e-001
<VARIANCE> 39
 2.857969e+001 2.584411e+001 2.867349e+001 3.779563e+001 3.014857e+001 3.318494e+001 3.440390e+001 3.026903e+001 2.907152e+001 2.461223e+001 2.321507e+001 1.832295e+001 4.490652e+001 5.038898e+000 3.850252e+000 3.627420e+000 4.419256e+000 4.235561e+000 4.855329e+000 5.054392e+000 4.210234e+000 4.147628e+000 3.254755e+000 3.183902e+000 2.359387e+000 9.825622e+000 6.334875e-001 6.413373e-001 5.074465e-001 6.722249e-001 6.907844e-001 7.322045e-001 7.648110e-001 7.789361e-001 8.070974e-001 6.544030e-001 6.052509e-001 4.666545e-001 1.531413e+000
<GCONST> 1.296303e+002
<TRANSP> 5
 0.000000e+000 1.000000e+000 0.000000e+000 0.000000e+000 0.000000e+000
 0.000000e+000 6.027352e-001 3.972649e-001 0.000000e+000 0.000000e+000
 0.000000e+000 0.000000e+000 7.489207e-001 2.510793e-001 0.000000e+000
 0.000000e+000 0.000000e+000 0.000000e+000 7.070550e-001 2.929450e-001
 0.000000e+000 0.000000e+000 0.000000e+000 0.000000e+000 0.000000e+000
<ENDHMM>
~h "r"
<BEGINHMM>
<NUMSTATES> 5
<STATE> 2
<MEAN> 39
 1.679154e+000 -1.122625e+001 -1.351429e+001 -6.541666e+000 -4.804319e+000 -1.160124e+001 -1.657977e+001 1.561968e+000 -1.608037e+000 -3.402994e+000 -9.616763e-001 2.468294e-001 5.772548e+001 1.258113e+000 -2.961248e-001 -9.894816e-001 1.862919e-001 3.577802e-001 -6.405328e-001 -1.551717e+000 4.883836e-001 6.501121e-001 -2.094277e-001 -2.408058e-001 1.230441e-001 2.865813e-001 -4.868090e-001 -1.040300e-001 4.717723e-001 1.860804e-002 -3.479248e-001 9.091282e-002 4.942320e-001 1.285191e-001 -1.053811e-001 1.084513e-002 9.425333e-003 -8.006277e-002 -1.494745e-002
<VARIANCE> 39
 2.398665e+001 3.585616e+001 7.264851e+001 4.223159e+001 6.024081e+001 7.593242e+001 9.435730e+001 9.960548e+001 7.611388e+001 4.424416e+001 4.017794e+001 3.352693e+001 3.008580e+001 3.954087e+000 2.641263e+000 4.071621e+000 2.726106e+000 4.169555e+000 5.002317e+000 6.162645e+000 5.270350e+000 4.271603e+000 3.621321e+000 2.831162e+000 2.329182e+000 2.025964e+000 4.825588e-001 4.465640e-001 4.983310e-001 4.187765e-001 5.422772e-001 6.850595e-001 9.987797e-001 8.757411e-001 6.559876e-001 5.521195e-001 4.609695e-001 4.003992e-001 3.013068e-001
<GCONST> 1.312427e+002
<STATE> 3
<MEAN> 39
 2.415688e+000 -1.393692e+001 -1.402928e+001 -5.395049e+000 -5.491763e+000 -1.420164e+001 -1.902130e+001 5.732156e+000 9.861939e-001 -4.102643e+000 -2.211112e+000 -8.660777e-002 5.946719e+001 -3.791830e-001 -3.836330e-001 1.216957e+000 4.427426e-001 -1.062023e+000 -5.344664e-001 7.790406e-001 7.175398e-001 -3.901460e-001 -4.658230e-001 -7.507491e-002 -6.234631e-002 6.259406e-002 -5.998639e-001 2.406534e-001 6.350091e-001 -1.339483e-001 -2.826495e-001 4.494952e-001 9.152662e-001 -3.464886e-001 -4.856012e-001 6.281737e-002 1.453406e-001 -1.017817e-001 -2.392402e-001
<VARIANCE> 39
 1.324148e+001 2.840003e+001 6.650719e+001 4.679170e+001 6.633057e+001 8.122309e+001 1.158983e+002 8.978778e+001 9.303835e+001 5.166497e+001 4.438949e+001 3.536492e+001 2.488844e+001 1.747601e+000 2.989885e+000 3.720722e+000 2.697463e+000 4.251204e+000 4.137178e+000 5.248552e+000 5.789489e+000 4.062877e+000 3.439564e+000 3.127310e+000 2.396211e+000 2.785120e+000 3.989633e-001 3.231202e-001 3.793584e-001 4.399880e-001 5.644636e-001 7.204337e-001 8.996532e-001 7.930423e-001 6.615015e-001 5.701780e-001 4.619209e-001 4.076540e-001 2.579614e-001
<GCONST> 1.293834e+002
<STATE> 4
<MEAN> 39
 -6.449164e-001 -1.404505e+001 -9.149460e+000 -4.729221e+000 -9.047830e+000 -1.393027e+001 -1.219226e+001 6.028891e+000 -2.188328e+000 -5.072435e+000 -2.184304e+000 -5.250410e-001 5.831808e+001 -1.360484e+000 4.498929e-001 2.049548e+000 -2.449567e-001 -1.083448e+000 8.273576e-001 1.999434e+000 -7.517498e-001 -1.222909e+000 1.127157e-001 1.649018e-001 -4.176498e-001 -5.904747e-001 -3.184044e-001 3.572296e-001 5.707895e-002 -2.767940e-001 2.227467e-001 4.830170e-001 1.169696e-001 -5.003110e-001 -2.756351e-002 2.639038e-001 -1.220117e-002 -1.204550e-001 -2.315857e-001
<VARIANCE> 39
 1.997203e+001 3.725607e+001 7.071698e+001 5.808485e+001 8.383612e+001 9.239108e+001 1.054639e+002 8.135208e+001 9.950912e+001 5.910683e+001 5.314862e+001 3.868042e+001 5.042630e+001 2.103840e+000 3.385256e+000 3.656017e+000 3.862400e+000 4.723427e+000 3.940077e+000 5.287505e+000 5.301649e+000 4.380656e+000 3.490064e+000 3.383249e+000 2.739048e+000 4.047099e+000 3.692539e-001 3.853256e-001 4.152232e-001 5.140535e-001 6.479961e-001 8.454012e-001 8.968555e-001 8.075199e-001 6.973171e-001 6.114174e-001 5.538953e-001 4.720819e-001 2.830325e-001
<GCONST> 1.341952e+002
<TRANSP> 5
 0.000000e+000 1.000000e+000 0.000000e+000 0.000000e+000 0.000000e+000
 0.000000e+000 5.994696e-001 4.005304e-001 0.000000e+000 0.000000e+000
 0.000000e+000 0.000000e+000 4.924110e-001 5.075890e-001 0.000000e+000
 0.000000e+000 0.000000e+000 0.000000e+000 4.931918e-001 5.068082e-001
 0.000000e+000 0.000000e+000 0.000000e+000 0.000000e+000 0.000000e+000
<ENDHMM>
~h "s"
<BEGINHMM>
<NUMSTATES> 5
<STATE> 2
<MEAN> 39
 -2.339509e+001 2.219002e-001 -5.777964e+000 -8.006345e+000 -1.863394e+000 -7.114110e+000 -1.514508e+000 3.872879e-001 -2.176124e+000 -1.592594e+000 -2.592177e+000 -3.183328e-001 5.796472e+001 -4.294387e+000 1.371128e+000 -9.582757e-001 1.826544e-001 1.745108e+000 9.456564e-001 1.346463e+000 8.343576e-001 4.746820e-001 3.237515e-001 7.857687e-001 6.959800e-001 1.396503e-001 6.472111e-001 -4.948177e-001 -2.151487e-002 -1.362879e-001 -4.001792e-001 2.294536e-002 -3.838748e-001 -3.463000e-002 -9.870604e-002 6.466017e-002 -3.405817e-002 -1.024053e-001 -3.143053e-002
<VARIANCE> 39
 6.074342e+001 2.863181e+001 4.291009e+001 3.275774e+001 4.081480e+001 3.896730e+001 3.746966e+001 3.627438e+001 2.912073e+001 2.678807e+001 2.365047e+001 1.930639e+001 2.345037e+001 5.178308e+000 3.751704e+000 4.177833e+000 4.444645e+000 4.057285e+000 4.473369e+000 4.406700e+000 4.024315e+000 3.895670e+000 3.663255e+000 3.557455e+000 2.631455e+000 2.084324e+000 1.029533e+000 6.002420e-001 6.316158e-001 6.581932e-001 6.947334e-001 7.599590e-001 7.398627e-001 7.039050e-001 5.936934e-001 6.147221e-001 5.646270e-001 4.668844e-001 4.107160e-001
<GCONST> 1.283215e+002
<STATE> 3
<MEAN> 39
 -3.012233e+001 1.446239e+000 -9.173552e+000 -7.970436e+000 1.049621e-001 -5.176978e+000 -2.227874e-001 1.663583e+000 -1.550576e+000 -2.510058e-001 -1.216208e+000 7.592372e-001 5.817389e+001 3.014131e-002 -1.815243e-001 7.316342e-002 -1.268353e-001 -3.258318e-002 2.728127e-004 -1.341785e-001 2.931223e-002 5.304003e-002 4.440850e-002 -1.146961e-002 -3.689132e-002 -8.617954e-002 7.168185e-001 -2.489871e-001 2.655210e-001 -2.098724e-002 -2.472603e-001 -1.449413e-001 -2.400039e-001 -1.484322e-001 -4.181504e-002 -6.363986e-002 -1.129966e-001 -1.222056e-001 -1.688697e-001
<VARIANCE> 39
 9.289041e+000 2.081113e+001 3.095673e+001 3.794044e+001 3.438585e+001 3.136465e+001 2.854758e+001 2.502500e+001 1.946536e+001 1.702965e+001 1.613385e+001 1.330360e+001 1.687213e+001 2.056692e+000 1.394934e+000 1.494407e+000 1.464034e+000 1.656785e+000 1.884844e+000 1.747146e+000 1.711684e+000 1.601283e+000 1.554860e+000 1.405707e+000 1.275882e+000 1.032633e+000 4.391226e-001 2.617020e-001 3.023537e-001 3.537795e-001 3.807614e-001 4.228569e-001 4.297122e-001 3.910183e-001 3.739025e-001 3.518604e-001 3.308984e-001 2.869183e-001 2.512912e-001
<GCONST> 1.033900e+002
<STATE> 4
<MEAN> 39
 -2.418266e+001 -2.253173e+000 -5.937716e+000 -8.862713e+000 -1.449059e+000 -5.563402e+000 -2.689517e+000 9.672928e-001 -1.073727e+000 -5.343860e-001 -1.913126e+000 -4.383416e-001 5.440417e+001 3.406862e+000 -1.232417e+000 9.251320e-001 7.226176e-002 -1.305638e+000 -2.525131e-001 -1.313826e+000 -7.574129e-001 -2.159936e-001 -1.218462e-001 -3.381929e-001 -5.611880e-001 -1.149865e+000 5.201941e-001 -1.640602e-001 -5.390513e-002 3.735458e-002 -3.088495e-001 3.820679e-002 -1.740718e-001 -1.086862e-001 -1.418819e-001 7.695374e-003 1.227518e-002 -5.817930e-002 -3.278861e-002
<VARIANCE> 39
 4.832885e+001 2.963015e+001 3.834121e+001 3.367346e+001 3.975014e+001 4.176800e+001 3.952563e+001 3.216166e+001 2.730966e+001 2.374990e+001 2.201822e+001 1.876175e+001 5.805024e+001 6.283636e+000 3.030219e+000 3.949746e+000 4.772164e+000 4.716130e+000 5.493820e+000 5.307909e+000 3.906942e+000 3.714939e+000 2.977312e+000 3.214314e+000 2.501942e+000 6.613785e+000 7.919727e-001 5.475009e-001 5.809333e-001 6.827461e-001 7.049341e-001 7.860048e-001 8.972383e-001 6.808442e-001 6.149153e-001 5.548319e-001 5.592926e-001 4.316471e-001 1.092931e+000
<GCONST> 1.305250e+002
<TRANSP> 5
 0.000000e+000 1.000000e+000 0.000000e+000 0.000000e+000 0.000000e+000
 0.000000e+000 6.287479e-001 3.712521e-001 0.000000e+000 0.000000e+000
 0.000000e+000 0.000000e+000 8.386795e-001 1.613205e-001 0.000000e+000
 0.000000e+000 0.000000e+000 0.000000e+000 6.166448e-001 3.833552e-001
 0.000000e+000 0.000000e+000 0.000000e+000 0.000000e+000 0.000000e+000
<ENDHMM>
~h "t"
<BEGINHMM>
<NUMSTATES> 5
<STATE> 2
<MEAN> 39
 -1.200486e+001 -4.059733e+000 -3.122139e+000 -5.487763e+000 -7.872831e+000 -6.320546e+000 -5.942431e+000 -2.613487e+000 -3.135074e+000 -1.438461e+000 -3.477620e+000 -2.580946e+000 4.612818e+001 -1.566683e+000 5.462310e-001 -1.282335e-001 1.204973e+000 1.257606e+000 9.287018e-001 7.289392e-001 1.127970e-001 4.812202e-001 1.972264e-001 4.310272e-001 3.678764e-001 -2.609052e+000 -3.173892e-002 -4.756431e-001 -1.657026e-001 -5.366288e-001 -1.054625e-001 6.859390e-002 8.700103e-002 2.609713e-001 -1.605588e-002 6.204862e-002 1.622168e-001 1.190762e-001 9.587169e-001
<VARIANCE> 39
 6.308387e+001 5.428095e+001 5.947064e+001 6.396680e+001 6.589076e+001 5.571279e+001 5.108789e+001 5.478525e+001 6.020469e+001 4.519367e+001 4.274031e+001 3.544164e+001 1.119546e+002 5.830462e+000 6.983919e+000 5.647025e+000 7.782939e+000 7.175602e+000 6.783362e+000 6.016912e+000 6.943789e+000 6.249318e+000 4.902801e+000 4.926286e+000 3.689945e+000 1.328261e+001 6.656113e-001 9.975567e-001 7.592703e-001 1.302404e+000 1.213142e+000 1.121512e+000 9.740358e-001 1.091204e+000 1.020751e+000 9.148868e-001 8.320405e-001 6.516647e-001 2.480633e+000
<GCONST> 1.483472e+002
<STATE> 3
<MEAN> 39
 -1.681026e+001 -5.763359e+000 -4.241473e+000 -5.672126e+000 -4.938871e+000 -3.299354e+000 -3.387441e+000 -8.025270e-001 -1.590715e+000 -2.879294e-001 -1.246989e+000 -7.404315e-001 4.486475e+001 -5.813464e-001 -7.672650e-001 -2.427750e-001 -9.696565e-001 -1.088806e-001 -1.415993e-001 3.816684e-001 4.801122e-001 1.363836e-001 1.024706e-001 3.743140e-001 4.961355e-001 1.998459e+000 4.576531e-001 -1.949526e-002 7.481988e-002 -3.806277e-001 -4.416180e-001 -4.263465e-001 -2.271021e-001 -2.752937e-002 -2.498499e-001 -1.275046e-001 -1.784858e-001 -1.144050e-001 1.043056e+000
<VARIANCE> 39
 5.499391e+001 4.427565e+001 3.550636e+001 5.340607e+001 4.814676e+001 4.417810e+001 4.040552e+001 3.562087e+001 3.547121e+001 3.046406e+001 2.811588e+001 2.362462e+001 1.470750e+002 4.672647e+000 4.449437e+000 3.659164e+000 6.665445e+000 4.781867e+000 5.275891e+000 4.556781e+000 4.786199e+000 4.376596e+000 3.718041e+000 3.467647e+000 2.862031e+000 1.657871e+001 7.946635e-001 9.720888e-001 8.251272e-001 1.378376e+000 1.109789e+000 1.039880e+000 9.061842e-001 9.980389e-001 8.808602e-001 7.792983e-001 7.674322e-001 5.765896e-001 3.214675e+000
<GCONST> 1.407528e+002
<STATE> 4
<MEAN> 39
 -1.736028e+001 -6.761652e+000 -4.805072e+000 -7.933198e+000 -6.180619e+000 -5.399614e+000 -2.252224e+000 -3.591359e-002 -1.922262e+000 -8.819192e-001 -1.664661e+000 -1.029484e-001 5.160749e+001 1.182439e+000 -3.111878e-001 1.397104e-001 -3.571749e-001 -7.051160e-001 -7.162120e-001 -4.113204e-001 6.286519e-002 -3.570060e-001 -3.381287e-001 -3.481899e-001 -1.577103e-001 1.330959e+000 5.088426e-001 -1.276532e-002 5.228201e-002 7.324083e-002 -1.405358e-001 -5.025290e-003 -2.937056e-001 -7.051591e-002 -1.047472e-001 -2.960354e-002 -6.156440e-002 -1.578064e-001 -2.523344e-001
<VARIANCE> 39
 5.850667e+001 3.614256e+001 3.795955e+001 4.674675e+001 4.390066e+001 4.162825e+001 4.487596e+001 3.762417e+001 3.453704e+001 3.040171e+001 2.803370e+001 2.268898e+001 1.282934e+002 6.226801e+000 3.008711e+000 3.550381e+000 4.728626e+000 4.381083e+000 4.648740e+000 4.791966e+000 4.149602e+000 3.802325e+000 3.318348e+000 3.301976e+000 2.595637e+000 9.372026e+000 8.063956e-001 6.048110e-001 6.340955e-001 9.422883e-001 7.761971e-001 8.049406e-001 8.314809e-001 7.940548e-001 6.984982e-001 6.292093e-001 6.285349e-001 5.030565e-001 1.853368e+000
<GCONST> 1.352245e+002
<TRANSP> 5
 0.000000e+000 1.000000e+000 0.000000e+000 0.000000e+000 0.000000e+000
 0.000000e+000 4.757153e-001 5.242847e-001 0.000000e+000 0.000000e+000
 0.000000e+000 0.000000e+000 4.264925e-001 5.735075e-001 0.000000e+000
 0.000000e+000 0.000000e+000 0.000000e+000 6.322387e-001 3.677613e-001
 0.000000e+000 0.000000e+000 0.000000e+000 0.000000e+000 0.000000e+000
<ENDHMM>
~h "v"
<BEGINHMM>
<NUMSTATES> 5
<STATE> 2
<MEAN> 39
 -3.725872e+000 -7.433626e+000 -7.010806e+000 -9.531950e+000 -8.162285e+000 -7.401302e+000 -1.084318e+001 -4.402099e+000 -3.098381e+000 -4.479351e-001 -1.771921e+000 -3.700133e+000 5.634871e+001 -1.099684e+000 1.581221e+000 -2.410322e-001 1.000660e+000 1.198269e+000 5.698332e-001 4.838624e-001 -1.013710e+000 -4.413306e-001 -2.324118e-001 7.989634e-002 1.088989e-001 -1.528039e+000 -4.004733e-001 -2.871188e-002 2.033336e-001 -6.937008e-003 -7.905350e-002 6.208957e-002 2.530402e-001 2.768791e-001 -5.345795e-003 -1.026373e-001 -1.670306e-001 6.390718e-002 6.640678e-002
<VARIANCE> 39
 3.019911e+001 3.378318e+001 4.075856e+001 4.432669e+001 3.323393e+001 5.203463e+001 4.843015e+001 4.630589e+001 4.331923e+001 4.205098e+001 4.703146e+001 3.029126e+001 3.531814e+001 3.741231e+000 3.609827e+000 2.964631e+000 3.844535e+000 3.386871e+000 3.771435e+000 4.240297e+000 4.555229e+000 3.940027e+000 3.342915e+000 3.108846e+000 2.531559e+000 3.553674e+000 5.751064e-001 5.474349e-001 4.060575e-001 5.127097e-001 5.351667e-001 4.941058e-001 6.348545e-001 6.558299e-001 5.488138e-001 5.382710e-001 5.107511e-001 4.254405e-001 4.885871e-001
<GCONST> 1.276690e+002
<STATE> 3
<MEAN> 39
 -7.304924e+000 -3.679106e+000 -6.892211e+000 -7.029758e+000 -5.805430e+000 -5.992145e+000 -9.040579e+000 -6.087113e+000 -4.772412e+000 -1.687447e+000 -2.116366e+000 -3.112210e+000 5.278484e+001 -1.691097e+000 9.566582e-001 2.187898e-001 8.197041e-001 8.002302e-001 5.108429e-001 8.301420e-001 -4.859221e-002 -1.713378e-001 -3.760306e-001 -3.077057e-001 1.540374e-001 -9.761902e-001 1.790894e-001 -6.095892e-001 8.382515e-002 -3.473952e-001 -3.770198e-001 -1.772468e-001 -2.921827e-002 5.304710e-001 2.313418e-001 8.293862e-002 -4.945515e-002 2.796111e-002 5.712079e-001
<VARIANCE> 39
 4.112994e+001 2.505868e+001 3.020873e+001 3.262344e+001 2.435450e+001 3.624320e+001 3.666174e+001 3.334613e+001 3.049207e+001 3.131619e+001 3.271678e+001 2.351755e+001 3.324360e+001 4.588164e+000 3.471668e+000 2.602466e+000 3.568473e+000 2.780479e+000 3.477406e+000 3.749962e+000 3.539035e+000 3.078895e+000 2.880935e+000 2.658059e+000 2.102288e+000 3.455065e+000 8.892536e-001 5.699506e-001 5.338614e-001 6.097020e-001 6.069763e-001 5.927639e-001 7.887002e-001 7.222971e-001 6.513367e-001 5.894510e-001 5.387736e-001 4.254163e-001 5.467938e-001
<GCONST> 1.249844e+002
<STATE> 4
<MEAN> 39
 -1.126658e+001 -3.835732e+000 -6.663759e+000 -6.281926e+000 -5.018911e+000 -5.206374e+000 -6.581239e+000 -4.096364e+000 -3.837305e+000 -1.959054e+000 -2.874150e+000 -2.473705e+000 5.194827e+001 3.087998e-001 -6.332253e-001 -1.869070e-001 -5.658581e-001 -3.809775e-001 -3.244157e-001 6.849055e-002 6.315928e-001 3.103286e-001 1.048991e-001 -1.443051e-002 1.218462e-001 7.569631e-001 6.700538e-001 -4.103541e-001 -5.807461e-002 -4.042189e-001 -3.476259e-001 -2.110109e-001 -2.806462e-001 1.598682e-001 3.485228e-002 8.921212e-002 7.786220e-002 -1.786178e-002 4.228166e-001
<VARIANCE> 39
 5.875182e+001 2.875985e+001 3.137514e+001 3.527188e+001 2.641516e+001 3.486577e+001 3.658355e+001 3.237167e+001 2.935525e+001 2.730929e+001 2.570081e+001 2.066712e+001 4.505019e+001 8.027176e+000 3.530850e+000 3.056682e+000 4.436407e+000 3.584298e+000 3.756426e+000 4.595296e+000 3.594482e+000 3.151399e+000 2.795171e+000 2.619393e+000 2.102289e+000 4.593102e+000 1.044350e+000 6.460482e-001 5.797204e-001 7.367091e-001 6.437628e-001 7.342291e-001 8.395277e-001 7.663894e-001 6.844035e-001 5.772623e-001 5.211747e-001 4.047256e-001 6.529345e-001
<GCONST> 1.282070e+002
<TRANSP> 5
 0.000000e+000 1.000000e+000 0.000000e+000 0.000000e+000 0.000000e+000
 0.000000e+000 3.622698e-001 6.377302e-001 0.000000e+000 0.000000e+000
 0.000000e+000 0.000000e+000 3.462083e-001 6.537917e-001 0.000000e+000
 0.000000e+000 0.000000e+000 0.000000e+000 6.113209e-001 3.886792e-001
 0.000000e+000 0.000000e+000 0.000000e+000 0.000000e+000 0.000000e+000
<ENDHMM>
~h "w"
<BEGINHMM>
<NUMSTATES> 5
<STATE> 2
<MEAN> 39
 -5.372178e+000 -3.581161e+000 -9.641493e+000 -1.123421e+001 -6.999363e+000 -2.406048e+000 -6.345865e+000 -4.338248e+000 -7.585075e+000 -1.671858e+000 -1.090551e+000 -1.945426e+000 4.883625e+001 2.279641e+000 1.676496e+000 -4.561058e-001 -1.958375e+000 -1.340297e+000 8.342296e-001 6.765951e-001 -4.167617e-001 -1.164271e+000 -7.542390e-001 3.183937e-002 1.956793e-001 -3.579993e-001 -5.265398e-002 -1.484507e-001 3.393137e-001 -2.811017e-001 -5.360467e-001 -1.861714e-001 -2.292518e-004 3.124139e-001 9.519305e-002 -5.424628e-002 -4.142484e-002 -4.495170e-003 5.457361e-001
<VARIANCE> 39
 5.842578e+001 5.241760e+001 2.771611e+001 5.098944e+001 4.975262e+001 3.855030e+001 4.974580e+001 4.114766e+001 5.838157e+001 3.851226e+001 3.805022e+001 2.555741e+001 4.345016e+001 5.080187e+000 3.559769e+000 4.121565e+000 4.721934e+000 5.481823e+000 4.852553e+000 5.614137e+000 4.873228e+000 5.009981e+000 4.065705e+000 3.381745e+000 2.762020e+000 4.915855e+000 4.958681e-001 8.656500e-001 6.605522e-001 8.427784e-001 1.031018e+000 8.136336e-001 1.071867e+000 8.923408e-001 8.961565e-001 9.066122e-001 6.499118e-001 5.324302e-001 5.047938e-001
<GCONST> 1.362005e+002
<STATE> 3
<MEAN> 39
 2.083274e+000 4.040456e-001 -9.351643e+000 -1.950704e+001 -1.475565e+001 -1.468180e+000 -5.328400e+000 -3.905160e+000 -1.072620e+001 -4.236753e+000 -1.433233e+000 -1.635131e+000 5.187446e+001 9.861709e-001 -5.092315e-001 -1.818358e-001 -1.643609e+000 -1.024382e+000 4.196572e-001 -3.834399e-001 3.329012e-002 -2.091806e-002 4.022463e-001 4.510611e-001 3.136848e-002 1.399173e+000 -5.885938e-001 -7.669610e-001 2.022866e-002 4.989105e-001 5.388473e-001 -1.422931e-001 -3.352012e-001 1.100907e-001 5.227808e-001 4.738940e-001 9.447150e-002 -1.151260e-001 2.777263e-001
<VARIANCE> 39
 8.933655e+000 2.772965e+001 2.700227e+001 4.452086e+001 4.699669e+001 4.508574e+001 3.961008e+001 4.506922e+001 4.990692e+001 4.375272e+001 4.507459e+001 2.784935e+001 1.980736e+001 2.420064e+000 3.816139e+000 2.285258e+000 4.743525e+000 5.335758e+000 4.268497e+000 5.660945e+000 4.317792e+000 4.708724e+000 5.143945e+000 4.296593e+000 2.920913e+000 3.464921e+000 4.654996e-001 3.585237e-001 4.243895e-001 6.742033e-001 7.033868e-001 8.600530e-001 7.529404e-001 8.207240e-001 8.972065e-001 7.037537e-001 6.813024e-001 5.731366e-001 2.611345e-001
<GCONST> 1.283566e+002
<STATE> 4
<MEAN> 39
 1.331641e+000 -6.527032e+000 -1.023317e+001 -1.990911e+001 -1.231431e+001 -4.739638e-001 -9.589347e+000 -3.533959e+000 -7.325362e+000 5.550743e-001 8.799921e-001 -3.104447e+000 5.824980e+001 -3.823796e-001 -1.629454e+000 2.217145e-001 5.715935e-001 4.006508e-001 -8.632558e-001 -9.467461e-001 7.695306e-001 1.403575e+000 6.780770e-001 -3.042839e-001 -5.299242e-001 1.368437e+000 -3.471419e-001 1.066971e-001 2.266463e-001 4.184671e-001 4.309580e-002 -3.053274e-001 3.184018e-001 2.632287e-001 1.460581e-001 -3.521789e-001 -3.284602e-001 3.466055e-002 -2.519014e-001
<VARIANCE> 39
 9.153994e+000 4.663408e+001 4.276879e+001 6.945756e+001 6.926994e+001 8.000552e+001 8.300242e+001 6.527003e+001 6.936962e+001 8.617252e+001 8.382863e+001 4.273349e+001 2.647557e+001 7.699559e-001 2.005058e+000 2.701567e+000 4.572254e+000 4.335952e+000 6.166865e+000 5.090864e+000 4.730006e+000 4.272331e+000 4.863234e+000 4.367314e+000 3.415002e+000 1.163133e+000 2.668956e-001 4.245308e-001 3.803899e-001 6.090044e-001 8.771796e-001 8.595952e-001 9.843623e-001 8.738076e-001 9.492347e-001 1.050716e+000 8.969734e-001 7.047302e-001 2.281476e-001
<GCONST> 1.323942e+002
<TRANSP> 5
 0.000000e+000 1.000000e+000 0.000000e+000 0.000000e+000 0.000000e+000
 0.000000e+000 6.605787e-001 3.394213e-001 0.000000e+000 0.000000e+000
 0.000000e+000 0.000000e+000 5.923114e-001 4.076887e-001 0.000000e+000
 0.000000e+000 0.000000e+000 0.000000e+000 6.409327e-001 3.590673e-001
 0.000000e+000 0.000000e+000 0.000000e+000 0.000000e+000 0.000000e+000
<ENDHMM>
~h "y"
<BEGINHMM>
<NUMSTATES> 5
<STATE> 2
<MEAN> 39
 -1.068973e+001 -2.309432e+000 1.278835e+001 -1.311143e+001 -1.576057e+001 -6.822179e+000 -1.047460e+001 -6.033504e+000 -1.203404e+001 -3.249839e+000 -3.733046e+000 -2.586399e+000 5.560131e+001 2.805121e-001 -7.049353e-002 1.082413e+000 -8.657706e-002 -1.001644e+000 -8.485206e-002 -5.986474e-002 -2.275613e-001 -7.502340e-001 -1.145435e-001 2.449389e-001 -5.329233e-002 3.458675e-001 1.713544e-001 -2.535661e-001 -5.334640e-001 8.737067e-002 1.440078e-001 -1.586148e-001 3.311497e-002 2.037962e-001 2.108512e-001 1.370493e-001 9.154960e-002 1.312961e-002 5.605635e-002
<VARIANCE> 39
 1.774553e+001 3.659336e+001 3.678671e+001 7.695599e+001 4.220052e+001 4.699501e+001 4.183898e+001 5.903546e+001 4.110826e+001 5.179582e+001 5.200675e+001 2.949757e+001 2.570609e+001 2.983732e+000 2.487352e+000 3.647726e+000 2.363993e+000 3.971271e+000 4.443943e+000 3.220023e+000 2.944511e+000 3.659223e+000 3.118362e+000 2.014210e+000 1.694738e+000 2.060921e+000 2.660829e-001 2.516833e-001 4.137318e-001 4.934725e-001 6.611276e-001 6.758546e-001 5.084826e-001 5.936547e-001 5.329531e-001 4.663233e-001 3.510239e-001 3.145683e-001 2.196104e-001
<GCONST> 1.220089e+002
<STATE> 3
<MEAN> 39
 -7.599192e+000 -8.444513e+000 1.228684e+001 -8.950310e+000 -2.117896e+001 -1.007153e+001 -8.668005e+000 -2.629672e+000 -1.341051e+001 -3.895832e+000 1.296019e+000 -2.403085e+000 5.932658e+001 9.726903e-001 -1.095144e+000 -1.034511e+000 7.785903e-001 -3.419527e-001 -1.651696e+000 1.171575e-002 1.318533e+000 -1.772135e-001 -2.141211e-001 7.942805e-001 2.980348e-001 4.895905e-001 -1.886229e-002 3.791697e-002 -4.552498e-001 5.593755e-002 5.107200e-001 -1.628819e-002 -1.874770e-001 2.328245e-001 3.999624e-001 -1.272836e-001 -1.223623e-001 1.210755e-001 -1.644707e-001
<VARIANCE> 39
 1.230933e+001 2.373405e+001 4.154638e+001 6.338773e+001 3.041925e+001 5.499331e+001 5.107703e+001 5.179366e+001 4.835160e+001 7.353865e+001 4.382772e+001 2.942232e+001 1.679879e+001 1.492526e+000 1.159093e+000 1.657555e+000 1.489536e+000 1.831105e+000 2.780991e+000 3.051014e+000 2.849654e+000 2.118575e+000 2.159788e+000 1.596346e+000 1.401214e+000 6.668942e-001 2.304164e-001 1.661139e-001 3.195742e-001 2.455470e-001 4.172452e-001 4.299555e-001 4.465123e-001 3.760313e-001 4.553850e-001 4.037596e-001 2.985866e-001 2.372739e-001 1.002475e-001
<GCONST> 1.099047e+002
<STATE> 4
<MEAN> 39
 -2.954726e+000 -1.286990e+001 1.797454e+000 -4.793927e+000 -1.657490e+001 -1.764055e+001 -1.115462e+001 6.039764e+000 -8.131289e+000 -6.627999e+000 2.090919e+000 7.224527e-001 5.960080e+001 7.560999e-001 -3.288202e-001 -1.904212e+000 4.712319e-001 1.286086e+000 -5.759638e-001 -9.669680e-001 8.881968e-001 1.399715e+000 -3.363810e-001 -5.335404e-001 3.113410e-001 -1.767059e-001 -1.679523e-001 2.804095e-001 -5.945420e-003 -1.223660e-001 2.369392e-001 4.597000e-001 2.571647e-002 -4.296226e-001 1.690707e-001 1.741451e-001 -2.540869e-001 -1.540911e-001 -2.086807e-001
<VARIANCE> 39
 1.600666e+001 2.673450e+001 7.079868e+001 4.965868e+001 4.710766e+001 6.534702e+001 8.590028e+001 6.205624e+001 7.523095e+001 5.887380e+001 4.034632e+001 3.334617e+001 2.066338e+001 8.741803e-001 1.158226e+000 2.147997e+000 1.377425e+000 1.919824e+000 2.530288e+000 2.820353e+000 3.062311e+000 2.607584e+000 2.307307e+000 1.746913e+000 1.568838e+000 5.674332e-001 1.658213e-001 1.784325e-001 2.869306e-001 2.754559e-001 3.955221e-001 4.566739e-001 5.084808e-001 4.479957e-001 4.688693e-001 3.993453e-001 3.182589e-001 2.510699e-001 1.131330e-001
<GCONST> 1.125828e+002
<TRANSP> 5
 0.000000e+000 1.000000e+000 0.000000e+000 0.000000e+000 0.000000e+000
 0.000000e+000 7.887086e-001 2.112914e-001 0.000000e+000 0.000000e+000
 0.000000e+000 0.000000e+000 7.118686e-001 2.881314e-001 0.000000e+000
 0.000000e+000 0.000000e+000 0.000000e+000 7.238725e-001 2.761275e-001
 0.000000e+000 0.000000e+000 0.000000e+000 0.000000e+000 0.000000e+000
<ENDHMM>
~h "z"
<BEGINHMM>
<NUMSTATES> 5
<STATE> 2
<MEAN> 39
 -1.779607e+001 3.169691e+000 -2.823217e+000 -8.504067e+000 -3.271569e+000 -1.079316e+001 -7.292720e+000 -3.506323e+000 -3.522867e+000 -2.463347e+000 -4.214750e+000 -1.071418e+000 5.658284e+001 -4.349674e+000 1.637535e+000 -7.424726e-001 2.610999e-001 2.284137e+000 1.214686e+000 1.581311e+000 9.352077e-001 5.405157e-001 1.431306e-001 5.232102e-001 3.653591e-001 -1.958887e-001 2.079542e-001 -7.218397e-001 -1.187847e-001 -8.443543e-002 -3.261122e-001 3.185611e-001 1.135714e-001 3.158031e-001 2.488847e-002 1.595326e-001 1.262331e-001 -1.202638e-002 5.972496e-002
<VARIANCE> 39
 5.914071e+001 3.593153e+001 4.470896e+001 4.128496e+001 5.363675e+001 5.265442e+001 4.890055e+001 3.854382e+001 3.210509e+001 3.415032e+001 2.445738e+001 2.290000e+001 2.437635e+001 3.700352e+000 4.895188e+000 3.631251e+000 5.062702e+000 3.792899e+000 5.394583e+000 4.554671e+000 4.582039e+000 3.802520e+000 3.502192e+000 3.214674e+000 2.962861e+000 1.545769e+000 1.154847e+000 7.153842e-001 5.325777e-001 6.595092e-001 7.986863e-001 8.497723e-001 7.749642e-001 7.417633e-001 5.697152e-001 6.187603e-001 5.057918e-001 4.878108e-001 1.962676e-001
<GCONST> 1.297630e+002
<STATE> 3
<MEAN> 39
 -2.851986e+001 2.727327e+000 -6.791122e+000 -8.762528e+000 1.179929e+000 -5.983759e+000 -1.645208e+000 1.032989e+000 -1.687838e+000 -7.704579e-001 -2.044580e+000 9.247500e-002 5.629451e+001 -2.565272e-001 -7.578802e-001 -3.715937e-001 -2.250298e-001 -1.421225e-001 2.300021e-001 1.783242e-001 3.665134e-001 3.047402e-001 2.697423e-001 1.780309e-001 3.546100e-002 1.566778e-001 1.210927e+000 -3.553540e-001 2.528593e-001 -6.186496e-002 -5.424314e-001 -3.581319e-001 -5.172604e-001 -3.438970e-001 -1.220447e-001 -5.630127e-002 -1.564068e-001 -1.362493e-001 -8.056153e-002
<VARIANCE> 39
 1.998256e+001 2.509739e+001 4.403012e+001 4.181520e+001 3.669510e+001 3.671414e+001 4.120013e+001 3.134593e+001 2.182701e+001 2.047040e+001 1.846854e+001 1.509662e+001 1.586501e+001 5.407480e+000 1.951489e+000 2.097712e+000 1.983904e+000 2.581659e+000 3.327949e+000 3.141980e+000 2.524420e+000 2.196952e+000 2.016072e+000 1.805570e+000 1.612861e+000 1.076316e+000 6.977710e-001 4.516726e-001 4.257308e-001 5.433065e-001 5.360670e-001 6.931497e-001 6.234403e-001 5.727140e-001 4.891925e-001 4.516606e-001 4.175984e-001 3.711990e-001 2.696584e-001
<GCONST> 1.155904e+002
<STATE> 4
<MEAN> 39
 -2.170274e+001 -2.888086e+000 -6.927688e+000 -8.604468e+000 -2.231681e+000 -5.546702e+000 -3.803517e+000 2.058571e-001 -9.564981e-001 -6.679140e-001 -1.959505e+000 -6.571005e-001 5.123951e+001 2.163953e+000 -9.444067e-001 1.140403e-001 1.450644e-001 -7.693286e-001 -7.313094e-002 -5.298915e-001 -4.278748e-001 -1.205555e-001 -2.402382e-002 -1.516902e-001 -2.331967e-001 -9.477317e-001 2.569593e-001 2.991685e-002 2.473757e-002 4.017357e-002 -8.251023e-002 2.397444e-002 -2.319424e-002 -6.429139e-002 -1.199243e-001 -4.660695e-002 -3.130848e-002 -2.216455e-002 -6.576761e-002
<VARIANCE> 39
 5.250303e+001 3.344206e+001 3.936852e+001 3.935518e+001 3.914093e+001 4.691371e+001 4.585313e+001 3.380963e+001 2.835475e+001 2.762757e+001 2.392045e+001 1.986306e+001 7.785106e+001 5.755863e+000 3.133175e+000 2.897502e+000 3.658597e+000 3.922941e+000 4.450920e+000 4.331265e+000 3.594894e+000 3.099166e+000 2.815855e+000 2.621880e+000 2.183578e+000 4.973046e+000 7.845116e-001 4.772652e-001 4.599716e-001 5.606870e-001 5.807677e-001 7.501074e-001 7.154373e-001 6.466292e-001 5.852568e-001 5.243627e-001 4.826079e-001 4.017476e-001 7.874936e-001
<GCONST> 1.279110e+002
<TRANSP> 5
 0.000000e+000 1.000000e+000 0.000000e+000 0.000000e+000 0.000000e+000
 0.000000e+000 6.738952e-001 3.261047e-001 0.000000e+000 0.000000e+000
 0.000000e+000 0.000000e+000 7.342395e-001 2.657605e-001 0.000000e+000
 0.000000e+000 0.000000e+000 0.000000e+000 7.320209e-001 2.679791e-001
 0.000000e+000 0.000000e+000 0.000000e+000 0.000000e+000 0.000000e+000
<ENDHMM>
~h "aa"
<BEGINHMM>
<NUMSTATES> 5
<STATE> 2
<MEAN> 39
 -2.381749e+000 -1.451539e+001 -1.275565e+001 -1.506675e+001 -7.484950e+000 -2.266381e+000 -7.199504e+000 3.574249e-001 -9.455768e-001 -7.266089e-001 -2.913224e+000 -5.884284e+000 6.343061e+001 1.514371e+000 -1.572994e+000 -1.684600e+000 -1.179029e+000 4.936278e-001 1.327303e+000 6.765453e-002 6.341931e-003 1.221593e-001 -1.389190e-001 9.305371e-002 -8.522564e-001 1.217849e+000 -5.444877e-001 2.684788e-001 2.379856e-001 3.594924e-001 2.725761e-001 4.325796e-002 2.593161e-001 -1.833330e-001 -1.650512e-001 -7.941493e-002 1.043433e-001 3.075352e-001 -4.260240e-001
<VARIANCE> 39
 2.413610e+001 3.356779e+001 4.205343e+001 5.332524e+001 5.795647e+001 8.299398e+001 8.169341e+001 7.626801e+001 6.733202e+001 5.688763e+001 7.231496e+001 4.129290e+001 3.758516e+001 3.538380e+000 2.626608e+000 3.067809e+000 3.835133e+000 4.808691e+000 4.974862e+000 5.645298e+000 5.462222e+000 4.492494e+000 3.935656e+000 4.038397e+000 3.659226e+000 2.300362e+000 5.620822e-001 4.215836e-001 4.090973e-001 6.116696e-001 6.938923e-001 8.223127e-001 1.035352e+000 9.661337e-001 7.751297e-001 7.190236e-001 7.244684e-001 5.668041e-001 4.871441e-001
<GCONST> 1.353014e+002
<STATE> 3
<MEAN> 39
 -3.380812e-001 -1.739938e+001 -1.652202e+001 -1.706272e+001 -4.387159e+000 1.950671e+000 -5.723263e+000 -1.393713e+000 -1.228233e+000 -2.149716e+000 -1.952757e+000 -6.347391e+000 6.543400e+001 1.300929e-001 -1.837960e-001 -3.698733e-001 1.864295e-001 3.788822e-001 -1.325983e-001 -1.414994e-001 1.430396e-001 1.216674e-001 -1.818496e-001 -3.173535e-002 1.538194e-002 -2.230866e-003 -8.709317e-002 2.390281e-001 1.878685e-001 1.790015e-001 -1.210014e-001 -3.358219e-001 -1.364016e-001 1.223180e-001 2.261912e-002 2.287773e-002 -6.758725e-002 9.164833e-002 -1.963855e-001
<VARIANCE> 39
 1.337533e+001 3.064741e+001 3.398870e+001 4.941291e+001 5.565717e+001 8.248053e+001 8.117160e+001 8.457481e+001 7.437570e+001 5.614325e+001 6.877235e+001 4.470999e+001 2.027190e+001 3.939189e-001 8.414842e-001 1.056246e+000 1.524590e+000 1.584886e+000 2.341017e+000 2.398015e+000 2.225636e+000 1.769708e+000 1.658228e+000 1.560826e+000 1.433377e+000 3.881189e-001 1.037651e-001 1.543626e-001 1.661621e-001 2.298550e-001 2.617811e-001 2.819645e-001 3.690373e-001 3.394231e-001 3.181763e-001 3.039021e-001 2.775893e-001 2.740742e-001 1.013916e-001
<GCONST> 1.057724e+002
<STATE> 4
<MEAN> 39
 -2.861439e-001 -1.596642e+001 -1.629156e+001 -1.452449e+001 -4.667681e+000 -3.181328e+000 -7.193443e+000 1.324717e+000 -3.944054e-001 -2.055966e+000 -3.733195e+000 -5.789019e+000 6.353165e+001 -2.287679e-001 1.245541e+000 7.990658e-001 1.079010e+000 -3.798345e-001 -1.616111e+000 -6.662133e-001 5.834931e-001 -3.011985e-002 7.655969e-002 -2.513824e-001 5.455287e-001 -1.373926e+000 -3.385054e-001 4.439832e-001 4.021240e-001 3.461848e-001 3.531360e-002 -5.658264e-002 -3.587480e-004 -2.351333e-001 -1.865634e-001 2.688112e-003 6.173371e-002 1.548430e-001 -5.619784e-001
<VARIANCE> 39
 1.532398e+001 3.657440e+001 4.433821e+001 5.286382e+001 5.699407e+001 9.204993e+001 9.411043e+001 9.002366e+001 7.624187e+001 5.418454e+001 6.320087e+001 4.661697e+001 2.681581e+001 1.120467e+000 2.701856e+000 2.315434e+000 2.878554e+000 2.976601e+000 3.115764e+000 4.023821e+000 3.622234e+000 3.288935e+000 2.921048e+000 2.803872e+000 2.469465e+000 2.688280e+000 3.167076e-001 3.499700e-001 2.806723e-001 4.885966e-001 4.778829e-001 5.626155e-001 5.748949e-001 6.031682e-001 5.219308e-001 5.196767e-001 4.728961e-001 4.218246e-001 4.191314e-001
<GCONST> 1.257310e+002
<TRANSP> 5
 0.000000e+000 1.000000e+000 0.000000e+000 0.000000e+000 0.000000e+000
 0.000000e+000 5.789195e-001 4.210805e-001 0.000000e+000 0.000000e+000
 0.000000e+000 0.000000e+000 8.418000e-001 1.582000e-001 0.000000e+000
 0.000000e+000 0.000000e+000 0.000000e+000 6.396843e-001 3.603157e-001
 0.000000e+000 0.000000e+000 0.000000e+000 0.000000e+000 0.000000e+000
<ENDHMM>
~h "ae"
<BEGINHMM>
<NUMSTATES> 5
<STATE> 2
<MEAN> 39
 -5.074244e+000 -1.591832e+001 -3.637613e+000 -1.357834e+001 -1.559767e+001 -8.474338e+000 -2.484520e+000 5.221961e+000 -2.963700e+000 -3.101657e+000 -4.763043e+000 -3.949222e+000 6.531796e+001 8.928731e-002 -7.008318e-001 -1.572405e-001 -2.365243e-001 4.380407e-002 2.533569e-001 3.972943e-001 4.507183e-001 7.235854e-002 -3.808268e-001 -2.354801e-001 -6.798974e-002 5.095363e-001 -9.405401e-002 2.369898e-001 -9.939785e-002 1.993010e-001 2.529608e-001 2.881403e-002 -1.041415e-001 -1.746315e-001 1.127397e-002 2.452753e-002 3.110451e-002 6.622773e-002 -2.784635e-001
<VARIANCE> 39
 1.677822e+001 3.336739e+001 5.053629e+001 5.096877e+001 5.073884e+001 6.012940e+001 7.489448e+001 6.460385e+001 8.373421e+001 4.568544e+001 5.026983e+001 3.614265e+001 2.520881e+001 7.339648e-001 1.284001e+000 1.351777e+000 1.373611e+000 1.668053e+000 1.862501e+000 2.306572e+000 2.227543e+000 1.813720e+000 1.583439e+000 1.549628e+000 1.318112e+000 9.010512e-001 1.861022e-001 2.069637e-001 1.917456e-001 2.368630e-001 3.065637e-001 3.159597e-001 3.785264e-001 3.583073e-001 3.206241e-001 2.972746e-001 2.878360e-001 2.339678e-001 1.650174e-001
<GCONST> 1.088115e+002
<STATE> 3
<MEAN> 39
 -4.329783e+000 -1.718363e+001 -7.302830e+000 -1.244170e+001 -1.214407e+001 -7.722444e+000 -1.968053e+000 4.929131e+000 -2.252936e+000 -5.440260e+000 -6.037766e+000 -3.449053e+000 6.535835e+001 1.282773e-001 2.181658e-001 -2.955500e-001 1.942483e-001 2.827976e-001 -1.885138e-001 -3.608253e-001 -5.758293e-002 8.346634e-002 3.042521e-002 -4.196315e-002 1.896666e-002 -2.757517e-001 -2.728771e-002 3.075394e-001 9.090048e-002 8.876450e-002 -9.001169e-003 -1.087524e-001 -1.206092e-001 -1.652922e-001 -8.120849e-002 1.573462e-001 6.762406e-002 -2.948836e-003 -2.706283e-001
<VARIANCE> 39
 1.363848e+001 3.060159e+001 4.625976e+001 4.242527e+001 5.368440e+001 6.484857e+001 7.469379e+001 6.655432e+001 8.686249e+001 4.529499e+001 4.635577e+001 4.487954e+001 2.626267e+001 3.695791e-001 8.208311e-001 1.338506e+000 1.036937e+000 1.593425e+000 1.505743e+000 1.689237e+000 1.792459e+000 1.675671e+000 1.519940e+000 1.423093e+000 1.191677e+000 3.921899e-001 8.499624e-002 1.834828e-001 1.780524e-001 2.090723e-001 2.553782e-001 2.601768e-001 3.101091e-001 3.458052e-001 3.042061e-001 2.641332e-001 2.518536e-001 2.202150e-001 1.259182e-001
<GCONST> 1.029097e+002
<STATE> 4
<MEAN> 39
 -4.258242e+000 -1.437827e+001 -6.198969e+000 -1.213668e+001 -1.271378e+001 -9.689823e+000 -4.716189e+000 4.396361e+000 -2.111198e+000 -3.507266e+000 -5.568239e+000 -3.833501e+000 6.325891e+001 -2.913861e-001 2.023219e+000 4.014675e-001 1.054970e+000 5.453486e-001 -4.722667e-001 -7.080076e-001 -9.823475e-001 -5.152368e-001 5.227148e-001 3.788978e-001 1.420689e-001 -2.034857e+000 -4.928040e-001 6.255042e-001 1.883988e-001 4.498522e-001 3.389415e-001 2.422971e-001 1.750968e-001 -4.355829e-001 -2.287328e-001 2.990504e-002 1.291484e-001 6.965577e-002 -7.280326e-001
<VARIANCE> 39
 1.444947e+001 3.234925e+001 5.809849e+001 4.666130e+001 5.841919e+001 6.439272e+001 8.006273e+001 6.740703e+001 8.029086e+001 5.532345e+001 5.929653e+001 4.507127e+001 3.435698e+001 1.905516e+000 3.040368e+000 3.036751e+000 2.710348e+000 3.690805e+000 3.543448e+000 4.173085e+000 4.576103e+000 4.552809e+000 3.619429e+000 3.428993e+000 2.879182e+000 2.566453e+000 4.534219e-001 3.980891e-001 3.982376e-001 4.900433e-001 5.881412e-001 6.417186e-001 7.431418e-001 7.801985e-001 7.485684e-001 7.212296e-001 6.781911e-001 5.145654e-001 4.549733e-001
<GCONST> 1.304795e+002
<TRANSP> 5
 0.000000e+000 1.000000e+000 0.000000e+000 0.000000e+000 0.000000e+000
 0.000000e+000 7.703161e-001 2.296839e-001 0.000000e+000 0.000000e+000
 0.000000e+000 0.000000e+000 7.610268e-001 2.389733e-001 0.000000e+000
 0.000000e+000 0.000000e+000 0.000000e+000 5.357791e-001 4.642209e-001
 0.000000e+000 0.000000e+000 0.000000e+000 0.000000e+000 0.000000e+000
<ENDHMM>
~h "ah"
<BEGINHMM>
<NUMSTATES> 5
<STATE> 2
<MEAN> 39
 -3.945630e+000 -1.226329e+001 -9.385027e+000 -1.445940e+001 -8.431906e+000 -4.713211e+000 -9.826922e+000 1.013578e-002 1.743927e-002 -3.970156e-001 -4.154105e+000 -5.041410e+000 6.249097e+001 1.596277e+000 -1.609164e+000 -6.199954e-001 -1.448797e+000 -2.074894e-001 7.006992e-001 -1.026922e+000 3.022037e-001 9.139637e-001 2.027611e-001 -6.317807e-001 -1.061658e+000 1.462740e+000 -6.067789e-001 3.477910e-001 1.545461e-001 4.113840e-001 2.770392e-001 5.553029e-002 3.846857e-001 -1.319882e-001 -2.479031e-001 -4.164646e-002 1.048577e-001 1.708445e-001 -5.113176e-001
<VARIANCE> 39
 2.509173e+001 3.466883e+001 4.297500e+001 4.900289e+001 5.629952e+001 8.101839e+001 6.722159e+001 6.081540e+001 5.797056e+001 6.173485e+001 6.832380e+001 4.325341e+001 4.576878e+001 5.045400e+000 3.475928e+000 3.147454e+000 4.314563e+000 4.845537e+000 5.667332e+000 5.493284e+000 5.385262e+000 5.202522e+000 4.348916e+000 4.617348e+000 3.528745e+000 3.313721e+000 6.777939e-001 4.832318e-001 4.695604e-001 6.712873e-001 7.264775e-001 9.301361e-001 9.285305e-001 8.187965e-001 7.690802e-001 7.025462e-001 7.211969e-001 5.844143e-001 6.237115e-001
<GCONST> 1.372294e+002
<STATE> 3
<MEAN> 39
 -2.573765e+000 -1.542477e+001 -1.048168e+001 -1.684412e+001 -7.166142e+000 -2.442459e+000 -1.065427e+001 8.571884e-001 1.441233e+000 -3.885675e-001 -5.502903e+000 -6.998327e+000 6.533701e+001 6.655753e-002 1.621423e-001 4.804961e-002 6.111623e-002 1.437408e-001 -1.029658e-001 -6.944456e-002 -1.626003e-001 -3.207487e-002 1.474429e-004 -4.397281e-002 -5.357153e-002 -2.420531e-001 -2.979970e-001 6.178074e-001 2.551854e-001 4.758020e-001 -6.942735e-003 -2.721472e-001 2.114381e-001 -2.470570e-001 -3.818125e-001 -5.291159e-002 1.655858e-001 2.741631e-001 -5.911053e-001
<VARIANCE> 39
 1.162687e+001 2.615653e+001 3.570543e+001 4.298700e+001 5.304752e+001 8.141557e+001 6.814082e+001 5.698709e+001 6.368441e+001 7.160874e+001 7.024716e+001 5.097829e+001 2.445010e+001 8.414326e-001 1.869250e+000 1.692443e+000 2.144246e+000 2.242666e+000 3.276060e+000 2.501396e+000 3.107998e+000 2.547353e+000 2.415433e+000 2.561865e+000 2.205645e+000 1.320962e+000 3.200327e-001 3.230167e-001 2.655680e-001 4.431507e-001 4.805388e-001 5.638128e-001 6.489773e-001 5.961100e-001 5.437273e-001 5.171391e-001 5.202072e-001 4.629840e-001 2.943313e-001
<GCONST> 1.202052e+002
<STATE> 4
<MEAN> 39
 -2.758177e+000 -1.119847e+001 -9.341064e+000 -1.453880e+001 -7.355255e+000 -5.324359e+000 -1.029729e+001 -1.310839e+000 -5.766300e-001 -5.813233e-001 -4.300959e+000 -5.083989e+000 6.127770e+001 -9.933527e-001 2.302336e+000 1.149541e+000 1.822891e+000 1.857705e-001 -6.087473e-001 6.612000e-001 -1.065306e+000 -1.445633e+000 -3.444673e-001 2.994274e-001 7.031920e-001 -2.457683e+000 -5.775570e-001 3.502323e-001 2.179291e-001 4.268915e-001 1.506522e-001 1.527290e-001 3.604906e-001 -1.312735e-001 -2.447821e-001 -7.585895e-002 -2.620484e-002 8.240040e-002 -4.814986e-001
<VARIANCE> 39
 1.565898e+001 3.517472e+001 4.294711e+001 5.072361e+001 4.916199e+001 7.901762e+001 6.665397e+001 6.572011e+001 6.290460e+001 7.298543e+001 7.104176e+001 4.543908e+001 3.730513e+001 3.022033e+000 3.223858e+000 2.667880e+000 4.303040e+000 4.076625e+000 4.590122e+000 4.778586e+000 5.071029e+000 4.650108e+000 4.416584e+000 4.097276e+000 3.500415e+000 4.312453e+000 4.953056e-001 5.181953e-001 4.135594e-001 6.731592e-001 5.893755e-001 8.036500e-001 7.044539e-001 9.394852e-001 7.108048e-001 7.692211e-001 7.276380e-001 5.489901e-001 5.809414e-001
<GCONST> 1.345730e+002
<TRANSP> 5
 0.000000e+000 1.000000e+000 0.000000e+000 0.000000e+000 0.000000e+000
 0.000000e+000 4.837037e-001 5.162963e-001 0.000000e+000 0.000000e+000
 0.000000e+000 0.000000e+000 7.125943e-001 2.874057e-001 0.000000e+000
 0.000000e+000 0.000000e+000 0.000000e+000 5.508128e-001 4.491872e-001
 0.000000e+000 0.000000e+000 0.000000e+000 0.000000e+000 0.000000e+000
<ENDHMM>
~h "ao"
<BEGINHMM>
<NUMSTATES> 5
<STATE> 2
<MEAN> 39
 6.367996e-001 -7.102672e+000 -1.271277e+001 -2.205543e+001 -1.289942e+001 1.469762e+000 -4.138439e+000 -2.077018e+000 -4.644937e+000 -1.635449e+000 -4.928479e-001 -3.158994e+000 5.821938e+001 8.192301e-001 -8.874150e-001 -7.010007e-001 -1.613415e+000 -7.061825e-002 1.467114e+000 5.039303e-001 -1.654763e-001 -8.022150e-002 -3.065387e-002 3.785684e-001 -1.066658e-002 1.125935e+000 -4.295032e-001 -1.752909e-002 5.821588e-002 4.977815e-001 4.301502e-001 -1.346156e-001 -1.445446e-002 2.062115e-003 4.660734e-002 -3.740235e-002 -1.282478e-002 1.268616e-001 -1.712018e-001
<VARIANCE> 39
 1.783607e+001 5.638386e+001 4.248708e+001 6.857836e+001 9.052125e+001 6.694188e+001 7.303949e+001 5.738080e+001 6.530987e+001 6.030370e+001 5.894183e+001 3.933589e+001 3.549011e+001 2.720283e+000 2.448581e+000 2.256190e+000 3.692912e+000 4.445433e+000 3.892121e+000 4.128709e+000 3.795474e+000 3.751114e+000 3.325799e+000 3.166746e+000 2.790847e+000 1.741001e+000 4.907115e-001 3.669362e-001 3.360944e-001 5.519668e-001 5.901439e-001 5.742102e-001 6.984684e-001 5.939472e-001 6.809365e-001 5.769178e-001 5.884041e-001 4.673788e-001 2.566713e-001
<GCONST> 1.291443e+002
<STATE> 3
<MEAN> 39
 9.585461e-001 -1.049390e+001 -1.490046e+001 -2.496231e+001 -9.660409e+000 6.137429e+000 -1.799018e+000 -3.390991e+000 -4.151989e+000 -2.150548e+000 2.478117e-001 -2.950835e+000 6.165718e+001 -1.391482e-002 -4.083975e-001 -2.657535e-001 2.177276e-001 5.783408e-001 5.519097e-002 -1.475254e-001 -1.091564e-001 1.403356e-001 6.620670e-002 1.102465e-001 -9.827047e-002 2.853815e-001 -4.791285e-002 6.397073e-002 5.858683e-002 2.889212e-001 1.239889e-002 -3.076865e-001 -1.958290e-001 5.708079e-002 6.589261e-002 5.063389e-002 -6.366950e-002 -5.031548e-002 -1.043216e-001
<VARIANCE> 39
 1.076635e+001 4.419032e+001 3.545078e+001 6.083503e+001 8.742343e+001 6.825934e+001 7.332677e+001 5.830645e+001 6.068036e+001 6.103609e+001 5.998190e+001 4.425653e+001 2.323824e+001 3.403634e-001 1.188052e+000 9.119529e-001 2.001895e+000 1.818599e+000 1.895645e+000 1.980161e+000 1.632722e+000 1.611273e+000 1.726563e+000 1.646470e+000 1.683015e+000 4.226046e-001 7.431660e-002 1.245026e-001 1.380564e-001 2.081116e-001 2.651610e-001 2.697842e-001 2.980923e-001 2.850565e-001 2.945055e-001 2.841380e-001 2.846898e-001 2.648714e-001 5.797042e-002
<GCONST> 1.038597e+002
<STATE> 4
<MEAN> 39
 5.736630e-001 -1.294037e+001 -1.664203e+001 -1.713625e+001 -6.058148e+000 -3.166204e-001 -6.804646e+000 -1.545094e+000 -2.160282e+000 -1.639900e+000 -1.109221e+000 -4.428606e+000 6.188544e+001 -2.575516e-001 2.255361e-001 4.612659e-001 1.438736e+000 1.366489e-001 -1.457624e+000 -8.204489e-001 4.815929e-001 4.989143e-001 9.176596e-002 -6.011692e-001 1.980804e-002 -4.415875e-001 -2.446153e-001 2.558456e-001 3.551933e-001 1.845639e-001 -1.291379e-001 -1.243103e-001 7.127549e-002 -1.445370e-003 -3.327882e-002 -4.780362e-002 -7.867530e-002 1.618974e-001 -2.560356e-001
<VARIANCE> 39
 1.340747e+001 4.264695e+001 4.379926e+001 7.911168e+001 6.374249e+001 8.782259e+001 9.492528e+001 7.712201e+001 7.363430e+001 6.543591e+001 7.896349e+001 5.479087e+001 2.438013e+001 7.967983e-001 1.845060e+000 2.265190e+000 2.952013e+000 3.213365e+000 2.947318e+000 3.836305e+000 3.201680e+000 3.198196e+000 3.189685e+000 2.723632e+000 2.814607e+000 9.075297e-001 2.961784e-001 2.400254e-001 2.864522e-001 3.760644e-001 4.297749e-001 5.113418e-001 6.251822e-001 5.480305e-001 5.155225e-001 5.296472e-001 5.413000e-001 5.087644e-001 1.513490e-001
<GCONST> 1.231216e+002
<TRANSP> 5
 0.000000e+000 1.000000e+000 0.000000e+000 0.000000e+000 0.000000e+000
 0.000000e+000 6.386568e-001 3.613432e-001 0.000000e+000 0.000000e+000
 0.000000e+000 0.000000e+000 8.480791e-001 1.519210e-001 0.000000e+000
 0.000000e+000 0.000000e+000 0.000000e+000 7.418763e-001 2.581237e-001
 0.000000e+000 0.000000e+000 0.000000e+000 0.000000e+000 0.000000e+000
<ENDHMM>
~h "aw"
<BEGINHMM>
<NUMSTATES> 5
<STATE> 2
<MEAN> 39
 -4.760341e+000 -1.692009e+001 -9.376519e+000 -1.296785e+001 -9.258010e+000 -5.043565e+000 -3.055974e+000 2.413321e+000 -2.165360e+000 -3.903539e+000 -6.655112e+000 -4.405175e+000 6.504101e+001 5.758107e-001 -1.265673e+000 -8.747648e-001 -3.018604e-001 7.007074e-001 6.946167e-001 -6.355473e-002 8.067641e-003 4.501390e-001 -4.689999e-001 -5.206600e-001 -3.485263e-001 1.051016e+000 -2.518102e-001 3.626015e-001 4.458627e-002 1.415739e-001 2.629361e-001 1.360631e-001 -6.777710e-002 -2.964190e-001 -4.418270e-002 1.165473e-001 1.826445e-001 9.711959e-002 -4.121878e-001
<VARIANCE> 39
 2.029530e+001 3.503185e+001 5.105484e+001 4.545258e+001 6.626075e+001 6.125472e+001 7.599518e+001 6.919317e+001 7.568314e+001 5.070194e+001 4.608083e+001 4.113219e+001 3.331993e+001 1.661106e+000 2.275978e+000 1.961124e+000 2.426964e+000 2.956080e+000 2.888905e+000 3.767118e+000 3.486219e+000 2.709079e+000 2.329865e+000 2.316602e+000 2.365077e+000 1.935261e+000 3.936264e-001 3.900644e-001 2.958967e-001 3.982643e-001 4.781400e-001 4.550180e-001 6.084344e-001 6.338181e-001 5.608458e-001 4.489677e-001 4.160758e-001 4.171148e-001 3.016754e-001
<GCONST> 1.231699e+002
<STATE> 3
<MEAN> 39
 -2.385011e+000 -1.855958e+001 -1.333216e+001 -1.441571e+001 -4.560986e+000 -1.134237e+000 -4.816967e+000 -1.285617e+000 6.057786e-001 -3.940447e+000 -6.634510e+000 -5.602626e+000 6.603347e+001 2.581987e-001 2.403870e-001 -4.642671e-001 -4.461619e-001 4.169627e-001 6.379061e-001 -2.643287e-001 -5.387261e-001 1.166649e-001 2.650327e-001 3.237071e-001 -1.533030e-001 -2.351915e-001 1.031819e-002 2.251215e-001 6.238142e-002 -4.844003e-002 -1.721340e-001 -7.022116e-002 -3.435547e-003 9.035013e-003 -9.146385e-002 8.605103e-002 1.272246e-001 6.951926e-002 -1.580051e-001
<VARIANCE> 39
 1.227245e+001 2.606737e+001 3.918336e+001 4.774660e+001 5.476879e+001 7.419403e+001 8.138478e+001 7.176490e+001 6.939957e+001 5.344805e+001 4.613441e+001 4.709330e+001 1.945551e+001 2.766642e-001 7.480918e-001 7.672446e-001 1.242640e+000 1.438257e+000 1.496906e+000 1.682604e+000 1.760601e+000 1.531500e+000 1.438945e+000 1.454775e+000 1.274107e+000 3.050328e-001 5.070913e-002 1.104482e-001 1.231878e-001 1.686957e-001 2.082492e-001 2.314601e-001 2.702432e-001 2.680959e-001 2.534596e-001 2.148972e-001 2.240740e-001 2.188707e-001 5.488851e-002
<GCONST> 9.773864e+001
<STATE> 4
<MEAN> 39
 6.030938e-002 -1.247930e+001 -1.551721e+001 -1.907157e+001 -6.299928e+000 2.297521e+000 -5.371017e+000 -3.553143e+000 -1.136667e+000 -9.712285e-001 -1.670314e+000 -4.700878e+000 6.143231e+001 8.147707e-004 1.012832e+000 3.903381e-001 3.049476e-001 -6.907078e-001 -7.182898e-001 -2.620855e-001 8.530759e-002 -3.945930e-001 3.405541e-001 2.854523e-001 3.123649e-001 -9.500520e-001 -2.090313e-001 1.053955e-001 2.931193e-001 4.708198e-001 -2.553379e-002 -3.584920e-001 -3.672116e-002 -1.426872e-003 -4.092185e-002 -3.956852e-002 -1.675674e-001 3.669111e-002 -1.973299e-001
<VARIANCE> 39
 1.333724e+001 3.924044e+001 3.607566e+001 7.207702e+001 6.372572e+001 8.192889e+001 8.911234e+001 6.178886e+001 6.436235e+001 6.165495e+001 6.677346e+001 4.881977e+001 3.226804e+001 6.681608e-001 1.730475e+000 1.713014e+000 3.393362e+000 2.950675e+000 3.234964e+000 3.293981e+000 3.073703e+000 2.972990e+000 2.666287e+000 2.767910e+000 2.565322e+000 1.065083e+000 1.539371e-001 2.679447e-001 2.737642e-001 4.360077e-001 4.924548e-001 4.357975e-001 5.273325e-001 5.062147e-001 5.128685e-001 4.897726e-001 4.958038e-001 4.400999e-001 2.220292e-001
<GCONST> 1.208120e+002
<TRANSP> 5
 0.000000e+000 1.000000e+000 0.000000e+000 0.000000e+000 0.000000e+000
 0.000000e+000 6.886874e-001 3.113126e-001 0.000000e+000 0.000000e+000
 0.000000e+000 0.000000e+000 8.643697e-001 1.356303e-001 0.000000e+000
 0.000000e+000 0.000000e+000 0.000000e+000 7.990465e-001 2.009536e-001
 0.000000e+000 0.000000e+000 0.000000e+000 0.000000e+000 0.000000e+000
<ENDHMM>
~h "ax"
<BEGINHMM>
<NUMSTATES> 5
<STATE> 2
<MEAN> 39
 -6.815998e+000 -8.325714e+000 -5.265846e+000 -1.088767e+001 -9.555483e+000 -8.874209e+000 -9.384704e+000 -9.665930e-001 -1.246992e+000 -4.725703e-001 -4.079413e+000 -2.735107e+000 5.741227e+001 1.536329e+000 -5.771204e-001 4.555771e-001 -8.500212e-001 -7.530485e-001 -4.524480e-001 -1.018249e+000 -7.101576e-002 -1.626926e-002 1.491791e-001 -4.118966e-001 -3.197736e-001 9.978535e-001 -4.510280e-001 4.708821e-001 8.815520e-003 3.481520e-001 3.473594e-001 3.721906e-001 4.127439e-001 -2.296604e-001 -3.376002e-001 -6.224871e-002 1.550462e-001 2.906055e-002 -7.220328e-001
<VARIANCE> 39
 4.331158e+001 3.810703e+001 5.047587e+001 5.851837e+001 6.160217e+001 7.113535e+001 7.462378e+001 5.821016e+001 5.588802e+001 5.284080e+001 5.191677e+001 3.770709e+001 7.092411e+001 6.135060e+000 4.319688e+000 4.190578e+000 5.748765e+000 5.511434e+000 5.602468e+000 6.292408e+000 5.567142e+000 5.185483e+000 4.324475e+000 4.661902e+000 3.425855e+000 6.724514e+000 8.689289e-001 7.156645e-001 5.611027e-001 9.474115e-001 8.528059e-001 9.756932e-001 1.073893e+000 9.519568e-001 9.250022e-001 7.627725e-001 7.382206e-001 6.311064e-001 1.348943e+000
<GCONST> 1.428204e+002
<STATE> 3
<MEAN> 39
 -4.164880e+000 -9.561634e+000 -4.333878e+000 -1.276788e+001 -1.090793e+001 -9.554086e+000 -1.136216e+001 -1.279035e+000 -1.976000e+000 -1.370369e-001 -4.523900e+000 -3.268536e+000 6.012715e+001 2.728876e-001 6.252322e-001 3.653482e-001 1.898159e-001 1.507315e-001 2.836632e-001 5.590227e-002 -5.375413e-001 -6.200687e-001 -6.916081e-002 8.330394e-002 -1.195111e-001 -7.091033e-001 -8.910901e-001 7.745900e-001 -8.306704e-002 6.775307e-001 5.790317e-001 4.522646e-001 7.262605e-001 -2.670580e-001 -3.221718e-001 -1.707676e-001 2.261307e-001 1.043715e-001 -1.032518e+000
<VARIANCE> 39
 1.945744e+001 3.409401e+001 5.848643e+001 6.104029e+001 5.909369e+001 7.678767e+001 7.352993e+001 6.311436e+001 6.372048e+001 6.022109e+001 6.300435e+001 4.270439e+001 3.103247e+001 4.420939e+000 4.184731e+000 3.408214e+000 5.555998e+000 4.851400e+000 4.547772e+000 5.152137e+000 5.064529e+000 4.482068e+000 3.991906e+000 3.880260e+000 3.215426e+000 5.323143e+000 7.911464e-001 7.014995e-001 6.564935e-001 9.541855e-001 8.689786e-001 1.114591e+000 1.211436e+000 1.095482e+000 1.065426e+000 9.254358e-001 8.998516e-001 7.494371e-001 8.626227e-001
<GCONST> 1.407361e+002
<STATE> 4
<MEAN> 39
 -5.184668e+000 -6.982193e+000 -3.505696e+000 -1.131658e+001 -1.040292e+001 -8.440972e+000 -9.826709e+000 -2.952144e+000 -3.720338e+000 -8.123450e-001 -3.556886e+000 -2.975580e+000 5.763911e+001 -1.092634e+000 1.676338e+000 1.431656e-001 1.232418e+000 1.044995e+000 7.890227e-001 1.048917e+000 -7.523085e-001 -8.482040e-001 -3.832794e-001 2.910611e-001 4.771597e-002 -1.983445e+000 -6.539671e-001 2.421096e-001 -1.431344e-001 3.062159e-001 3.257352e-001 2.566342e-001 4.108810e-001 2.691152e-002 -1.317211e-002 -3.760291e-002 6.168481e-002 7.354594e-002 -4.575843e-001
<VARIANCE> 39
 2.522711e+001 3.922626e+001 7.160371e+001 6.379391e+001 7.181805e+001 7.135608e+001 6.287837e+001 6.580188e+001 6.426230e+001 6.006018e+001 6.065701e+001 3.980115e+001 4.447906e+001 5.215678e+000 4.441516e+000 3.538422e+000 6.368764e+000 4.973981e+000 5.144648e+000 5.536370e+000 5.450863e+000 5.146664e+000 4.317474e+000 4.034770e+000 3.562885e+000 6.753512e+000 6.828409e-001 7.120181e-001 6.137732e-001 8.080049e-001 7.998819e-001 8.829849e-001 9.130939e-001 1.016999e+000 8.967037e-001 8.416650e-001 7.513911e-001 5.956143e-001 7.505761e-001
<GCONST> 1.410805e+002
<TRANSP> 5
 0.000000e+000 1.000000e+000 0.000000e+000 0.000000e+000 0.000000e+000
 0.000000e+000 2.683170e-001 7.316830e-001 0.000000e+000 0.000000e+000
 0.000000e+000 0.000000e+000 2.363539e-001 7.636461e-001 0.000000e+000
 0.000000e+000 0.000000e+000 0.000000e+000 3.280670e-001 6.719329e-001
 0.000000e+000 0.000000e+000 0.000000e+000 0.000000e+000 0.000000e+000
<ENDHMM>
~h "ay"
<BEGINHMM>
<NUMSTATES> 5
<STATE> 2
<MEAN> 39
 -2.055895e+000 -1.488137e+001 -1.421970e+001 -1.706975e+001 -5.168553e+000 6.286800e-001 -4.958669e+000 -2.458072e+000 4.941340e-002 -6.397783e-001 -4.157249e+000 -6.876903e+000 6.338631e+001 5.510110e-001 -1.818949e+000 -4.221755e-001 -2.310119e-001 4.235132e-001 3.866124e-001 -6.108918e-002 3.204308e-001 7.695230e-001 -4.001227e-001 -8.367892e-001 -7.120766e-001 1.380961e+000 -5.085537e-001 3.798299e-001 4.460666e-001 5.115954e-001 -2.006656e-002 -3.810094e-001 8.801262e-002 8.074844e-002 -1.904552e-001 -1.414993e-001 6.331047e-002 3.745649e-001 -4.204726e-001
<VARIANCE> 39
 1.858797e+001 3.238401e+001 3.649839e+001 5.434452e+001 5.756743e+001 7.913808e+001 6.646762e+001 6.347657e+001 6.103682e+001 6.054444e+001 6.681657e+001 4.381315e+001 3.557586e+001 2.601603e+000 2.149562e+000 2.863698e+000 4.219906e+000 3.674495e+000 4.693558e+000 3.664637e+000 4.307498e+000 3.420567e+000 3.011831e+000 3.130928e+000 3.101641e+000 2.217942e+000 5.157417e-001 3.760565e-001 3.699136e-001 6.099407e-001 6.643389e-001 6.758876e-001 6.658868e-001 7.098145e-001 6.480324e-001 6.110792e-001 6.857871e-001 5.497817e-001 3.298594e-001
<GCONST> 1.297422e+002
<STATE> 3
<MEAN> 39
 -1.662653e+000 -1.816693e+001 -1.403741e+001 -1.594803e+001 -4.121912e+000 1.130113e+000 -5.361723e+000 -1.695460e+000 1.650711e+000 -2.029117e+000 -5.632134e+000 -7.833328e+000 6.565587e+001 -2.552833e-001 -5.141678e-001 6.859130e-001 8.299641e-001 -3.870055e-001 -1.061894e+000 1.051816e-001 9.746588e-001 1.825193e-001 -6.455662e-001 -5.180142e-001 3.309093e-001 2.165651e-001 -6.789338e-002 3.499356e-001 2.771370e-001 5.226751e-002 -3.642588e-001 -3.076220e-001 7.904368e-002 1.399253e-001 -2.821364e-001 -1.584716e-002 2.443886e-001 2.709887e-001 -2.050697e-001
<VARIANCE> 39
 1.061695e+001 2.958768e+001 3.112936e+001 4.167611e+001 5.102829e+001 7.459555e+001 6.659522e+001 6.614859e+001 6.053037e+001 5.140221e+001 5.417739e+001 4.635787e+001 2.063029e+001 3.346742e-001 8.178234e-001 1.460567e+000 1.565818e+000 2.238788e+000 2.949572e+000 2.065784e+000 2.914893e+000 1.873794e+000 1.721768e+000 1.771201e+000 1.935647e+000 3.250907e-001 7.171296e-002 1.872077e-001 1.652445e-001 2.411664e-001 2.868118e-001 2.861899e-001 3.408956e-001 4.006151e-001 4.037620e-001 3.252807e-001 4.000780e-001 3.440160e-001 8.655487e-002
<GCONST> 1.061382e+002
<STATE> 4
<MEAN> 39
 -3.686686e+000 -1.719901e+001 -8.954464e+000 -1.295307e+001 -9.363825e+000 -6.659134e+000 -3.403482e+000 2.897612e+000 -5.665736e-001 -4.789831e+000 -6.246653e+000 -3.943536e+000 6.504214e+001 -2.185268e-001 7.160921e-001 1.013769e+000 2.151838e-001 -1.034096e+000 -8.873255e-001 9.979615e-002 2.408567e-001 -5.659405e-001 1.171602e-001 4.966102e-001 3.998031e-001 -4.468243e-001 -1.596206e-002 2.709323e-001 -1.397445e-002 2.641840e-002 1.124730e-001 1.215754e-001 -1.092495e-001 -3.191414e-001 -9.000520e-002 1.554625e-001 9.424040e-002 -5.931666e-002 -2.439615e-001
<VARIANCE> 39
 1.241818e+001 3.286877e+001 5.458980e+001 4.248199e+001 7.147940e+001 6.508148e+001 7.231026e+001 7.061664e+001 8.092985e+001 4.945956e+001 4.603888e+001 4.252114e+001 2.374016e+001 3.691236e-001 1.143873e+000 1.781219e+000 1.550003e+000 2.582403e+000 2.157289e+000 2.644253e+000 2.742081e+000 2.354774e+000 2.186147e+000 1.976893e+000 1.944662e+000 5.149659e-001 8.157001e-002 1.795635e-001 1.845775e-001 2.469511e-001 3.684416e-001 2.981319e-001 3.775268e-001 4.563422e-001 3.767161e-001 3.495665e-001 3.235290e-001 2.772004e-001 1.303287e-001
<GCONST> 1.098805e+002
<TRANSP> 5
 0.000000e+000 1.000000e+000 0.000000e+000 0.000000e+000 0.000000e+000
 0.000000e+000 5.755764e-001 4.244236e-001 0.000000e+000 0.000000e+000
 0.000000e+000 0.000000e+000 7.256431e-001 2.743569e-001 0.000000e+000
 0.000000e+000 0.000000e+000 0.000000e+000 8.514775e-001 1.485225e-001
 0.000000e+000 0.000000e+000 0.000000e+000 0.000000e+000 0.000000e+000
<ENDHMM>
~h "ch"
<BEGINHMM>
<NUMSTATES> 5
<STATE> 2
<MEAN> 39
 -1.881320e+001 -3.865175e+000 -2.275857e-001 -5.361993e+000 -4.246896e+000 -2.651210e+000 -5.356424e+000 -1.794208e+000 -3.047211e+000 -2.644242e+000 -2.291157e+000 -1.265224e+000 4.418591e+001 -3.028620e+000 -5.803642e-001 -3.149723e-001 -7.148229e-001 1.091856e+000 2.030123e+000 9.313681e-001 3.358183e-001 9.339188e-001 6.442013e-001 7.290072e-001 4.010337e-001 -1.294288e-001 3.246479e-002 -4.228839e-001 6.407494e-002 -6.360323e-001 -4.723653e-001 -2.298067e-001 -1.176221e-001 1.891309e-001 8.200490e-002 7.750338e-002 8.970223e-002 2.848879e-002 1.547837e+000
<VARIANCE> 39
 4.839377e+001 5.126975e+001 3.321778e+001 5.503992e+001 4.088244e+001 4.487267e+001 3.035544e+001 3.259512e+001 3.412383e+001 2.874057e+001 2.385654e+001 1.871906e+001 8.650317e+001 5.419610e+000 7.069822e+000 5.466968e+000 8.201472e+000 6.671433e+000 5.049466e+000 4.685172e+000 4.902699e+000 4.436444e+000 3.794970e+000 3.325223e+000 2.667233e+000 2.073465e+001 8.192749e-001 1.546489e+000 9.327279e-001 1.401942e+000 1.035651e+000 1.034625e+000 8.548743e-001 9.140624e-001 7.838818e-001 7.507512e-001 6.712542e-001 4.872272e-001 2.353918e+000
<GCONST> 1.405403e+002
<STATE> 3
<MEAN> 39
 -2.985091e+001 -5.500322e+000 1.641444e+000 -1.133335e+001 -4.178281e+000 1.261697e+000 -2.821311e+000 2.473801e-001 -1.449800e-002 -9.742047e-001 4.194323e-001 1.257469e-001 5.599612e+001 -1.023981e+000 9.608025e-002 5.462998e-001 -2.092624e-001 -7.567695e-001 -1.346688e-001 5.501075e-001 6.226914e-002 1.204138e-001 7.472145e-002 1.016209e-001 8.273570e-002 2.030532e+000 7.904422e-001 7.752407e-002 -8.794481e-002 4.510942e-001 -1.806878e-001 -4.597312e-001 -6.671774e-002 -8.290763e-002 -2.505619e-001 -1.012824e-001 -2.108003e-001 -1.053321e-001 -5.166937e-001
<VARIANCE> 39
 2.517966e+001 3.347010e+001 3.289550e+001 2.814673e+001 3.533953e+001 2.153858e+001 2.189000e+001 2.235358e+001 1.885936e+001 1.563202e+001 1.306160e+001 1.089192e+001 5.257368e+001 4.457557e+000 2.983320e+000 2.958955e+000 3.364152e+000 2.450232e+000 2.467191e+000 2.085584e+000 2.058931e+000 1.789211e+000 1.719121e+000 1.456947e+000 1.268236e+000 7.143822e+000 7.480599e-001 6.651332e-001 6.760717e-001 6.618782e-001 5.190441e-001 5.068151e-001 4.687629e-001 4.274527e-001 3.883865e-001 3.835016e-001 3.079040e-001 2.733548e-001 1.272421e+000
<GCONST> 1.159414e+002
<STATE> 4
<MEAN> 39
 -2.504378e+001 -7.550499e+000 1.240377e+000 -8.626775e+000 -9.021477e+000 -3.730121e+000 -1.424460e+000 -2.333561e-001 -1.275551e+000 -1.455323e+000 -1.122888e+000 -3.856785e-001 5.911019e+001 3.043468e+000 -4.274262e-001 -5.081480e-001 4.372180e-001 -6.119820e-001 -1.467149e+000 -8.267068e-001 1.181401e-002 -5.411266e-001 -4.205672e-001 -4.662133e-001 -2.551032e-001 -3.940507e-001 6.408922e-001 -9.458031e-002 -1.488290e-001 -1.868917e-001 8.993284e-002 5.241707e-003 -4.672068e-001 1.896341e-002 -4.440400e-002 -5.483129e-002 -3.814607e-003 -4.696150e-002 -1.873940e-001
<VARIANCE> 39
 5.607442e+001 2.301644e+001 2.700698e+001 3.131237e+001 3.731345e+001 3.392554e+001 3.041940e+001 2.587038e+001 2.377784e+001 2.101351e+001 1.935241e+001 1.552295e+001 3.228218e+001 6.252728e+000 1.971619e+000 2.801468e+000 2.640330e+000 3.742611e+000 3.810945e+000 4.693573e+000 3.179418e+000 2.831517e+000 2.646850e+000 2.476749e+000 1.864663e+000 2.918797e+000 8.457933e-001 3.494221e-001 4.595055e-001 4.858538e-001 5.713830e-001 6.632103e-001 7.026508e-001 5.851976e-001 5.285512e-001 5.103728e-001 4.434273e-001 3.605394e-001 6.565850e-001
<GCONST> 1.211326e+002
<TRANSP> 5
 0.000000e+000 1.000000e+000 0.000000e+000 0.000000e+000 0.000000e+000
 0.000000e+000 7.221305e-001 2.778695e-001 0.000000e+000 0.000000e+000
 0.000000e+000 0.000000e+000 7.715174e-001 2.284826e-001 0.000000e+000
 0.000000e+000 0.000000e+000 0.000000e+000 7.901281e-001 2.098719e-001
 0.000000e+000 0.000000e+000 0.000000e+000 0.000000e+000 0.000000e+000
<ENDHMM>
~h "dh"
<BEGINHMM>
<NUMSTATES> 5
<STATE> 2
<MEAN> 39
 -1.708323e+001 -2.098588e+000 -6.315609e+000 -3.197945e+000 -3.116789e+000 -2.914767e+000 -2.739612e+000 -1.371922e+000 -1.518494e+000 -6.038860e-001 -1.811342e+000 -1.066041e+000 4.103273e+001 -1.302999e-001 -7.599726e-002 -7.616070e-002 -1.438312e-001 -1.324516e-001 -4.333325e-003 7.929134e-002 1.477000e-001 1.610981e-001 -1.099037e-001 1.019754e-002 4.859601e-002 7.047967e-001 4.805610e-001 -2.889238e-001 -2.073872e-002 -3.442238e-001 -4.059108e-001 -4.067973e-001 -2.139253e-001 1.345058e-002 3.448565e-002 -2.560498e-002 -5.973170e-002 -2.305214e-002 9.283569e-001
<VARIANCE> 39
 4.059328e+001 2.750238e+001 2.317207e+001 2.565011e+001 2.294615e+001 2.892454e+001 3.131134e+001 3.262158e+001 2.766815e+001 2.235755e+001 2.409962e+001 2.237461e+001 7.384750e+001 3.287265e+000 2.532290e+000 2.863024e+000 2.987555e+000 2.560667e+000 3.113511e+000 2.799213e+000 2.913729e+000 2.734858e+000 2.354147e+000 2.225042e+000 2.014148e+000 8.216768e+000 5.898668e-001 5.398639e-001 5.491860e-001 6.414857e-001 5.694456e-001 6.182500e-001 6.034510e-001 5.981209e-001 5.843218e-001 5.155973e-001 4.725854e-001 4.229724e-001 1.231236e+000
<GCONST> 1.225854e+002
<STATE> 3
<MEAN> 39
 -1.498618e+001 -2.572368e+000 -7.053483e+000 -5.156919e+000 -5.116043e+000 -5.286006e+000 -3.668912e+000 -2.253446e+000 -1.450838e+000 -1.320997e+000 -2.618400e+000 -1.516126e+000 4.926419e+001 1.988276e+000 -9.137126e-001 -1.242226e-001 -1.374543e+000 -1.707292e+000 -1.779381e+000 -1.046328e+000 1.555637e-001 4.299270e-001 -2.040043e-001 -3.535890e-001 -1.441852e-001 4.126818e+000 6.760323e-001 -3.963414e-001 2.997685e-001 -3.768288e-001 -5.018691e-001 -3.458554e-001 -4.369512e-001 8.631678e-002 -6.661573e-003 1.503941e-001 -8.689445e-002 -1.072588e-001 3.782093e-001
<VARIANCE> 39
 4.008503e+001 3.038736e+001 2.662972e+001 2.980355e+001 2.656763e+001 3.030848e+001 3.946606e+001 3.356207e+001 2.745876e+001 2.444407e+001 2.465249e+001 2.500150e+001 6.950285e+001 4.932953e+000 2.890903e+000 3.419315e+000 3.354505e+000 3.577596e+000 4.054708e+000 4.481213e+000 4.268239e+000 4.040412e+000 3.341726e+000 3.108549e+000 3.203758e+000 6.566480e+000 6.514970e-001 7.277696e-001 7.501682e-001 7.747848e-001 6.528463e-001 7.785984e-001 8.498785e-001 7.411472e-001 7.328255e-001 6.080275e-001 6.676828e-001 5.602813e-001 1.282375e+000
<GCONST> 1.300486e+002
<STATE> 4
<MEAN> 39
 -7.911325e+000 -5.569336e+000 -6.242709e+000 -8.786500e+000 -1.091503e+001 -1.084913e+001 -7.703221e+000 -1.838945e+000 -2.271124e-001 -1.263538e+000 -3.806217e+000 -2.661571e+000 5.856652e+001 2.240754e+000 -1.785067e+000 6.307682e-001 -1.638368e+000 -1.987553e+000 -1.507857e+000 -1.283924e+000 6.580899e-001 2.735753e-001 1.066767e-001 -3.965847e-001 -3.022177e-001 3.116209e+000 -3.842474e-001 -3.081024e-002 1.917887e-001 1.881121e-001 3.549805e-001 5.283834e-001 2.609533e-001 9.239402e-002 -2.401342e-001 3.847774e-002 7.303924e-002 5.577721e-002 -8.802227e-001
<VARIANCE> 39
 3.051045e+001 3.287662e+001 3.304702e+001 3.741903e+001 4.278809e+001 4.360754e+001 5.799805e+001 4.248446e+001 4.444783e+001 3.896972e+001 3.398295e+001 3.441235e+001 3.763898e+001 3.789077e+000 3.299963e+000 3.882834e+000 4.117709e+000 4.317611e+000 5.215647e+000 6.125740e+000 4.766126e+000 4.843796e+000 3.816010e+000 4.162397e+000 3.517064e+000 4.907043e+000 6.623667e-001 5.141546e-001 5.030062e-001 6.065978e-001 6.500055e-001 6.348823e-001 7.711725e-001 6.498649e-001 6.128869e-001 5.825909e-001 5.548754e-001 5.139858e-001 7.441051e-001
<GCONST> 1.317561e+002
<TRANSP> 5
 0.000000e+000 1.000000e+000 0.000000e+000 0.000000e+000 0.000000e+000
 0.000000e+000 6.594334e-001 3.405665e-001 0.000000e+000 0.000000e+000
 0.000000e+000 0.000000e+000 4.001029e-001 5.998971e-001 0.000000e+000
 0.000000e+000 0.000000e+000 0.000000e+000 4.686496e-001 5.313504e-001
 0.000000e+000 0.000000e+000 0.000000e+000 0.000000e+000 0.000000e+000
<ENDHMM>
~h "eh"
<BEGINHMM>
<NUMSTATES> 5
<STATE> 2
<MEAN> 39
 -5.629158e+000 -1.157842e+001 -3.015537e+000 -1.243029e+001 -1.427426e+001 -1.064042e+001 -7.822661e+000 2.472210e+000 -1.680728e+000 -1.388763e+000 -4.021801e+000 -2.675128e+000 6.245752e+001 1.447434e+000 -1.885311e+000 2.106242e-001 -1.142523e+000 -1.398111e+000 -5.099069e-001 -4.452671e-001 1.429138e+000 3.907145e-001 -2.412392e-001 -4.534028e-001 -2.203175e-001 1.782439e+000 -5.433549e-001 2.841808e-001 -2.057816e-001 1.764080e-001 4.937879e-001 4.305179e-001 3.571730e-001 -1.477030e-001 -1.334978e-001 5.443277e-003 1.100248e-001 4.485438e-002 -4.331698e-001
<VARIANCE> 39
 2.386853e+001 3.852291e+001 5.550801e+001 5.067744e+001 5.392798e+001 5.569981e+001 7.863522e+001 5.624827e+001 7.053917e+001 5.004592e+001 4.963882e+001 3.730758e+001 4.164134e+001 4.914668e+000 3.443861e+000 3.182092e+000 3.886178e+000 4.643082e+000 4.661448e+000 6.236388e+000 5.003305e+000 5.051494e+000 3.965196e+000 3.755655e+000 3.231555e+000 3.460488e+000 6.952170e-001 4.855899e-001 4.062488e-001 5.648782e-001 6.766922e-001 7.308807e-001 8.738623e-001 7.485999e-001 7.787808e-001 6.094334e-001 5.986577e-001 4.941593e-001 6.151156e-001
<GCONST> 1.347258e+002
<STATE> 3
<MEAN> 39
