~o
<STREAMINFO> 1 39
<VECSIZE> 39<NULLD><MFCC_D_A_0><DIAGC>
~s "silst"
<MEAN> 39
 -1.930771e+001 -2.799516e+000 -6.368804e+000 -2.823049e+000 -2.164485e+000 -1.706477e+000 -6.324728e-001 -5.508016e-002 -1.176096e+000 5.681966e-001 -6.361132e-001 3.110409e-001 3.526332e+001 -6.594764e-002 6.727128e-002 7.273701e-002 5.971903e-002 2.921518e-002 4.295111e-002 -7.804456e-003 -1.879284e-002 5.302764e-003 4.367241e-002 3.369454e-002 -7.866626e-003 -1.098273e-001 2.660602e-002 -2.242396e-002 -1.257429e-002 -2.659786e-002 -8.616182e-003 -1.147534e-002 -1.695557e-003 3.068287e-003 -7.717133e-003 -2.189005e-002 -1.700609e-002 -6.164971e-003 4.246784e-002
<VARIANCE> 39
 9.057338e+000 1.504731e+001 1.153214e+001 1.680889e+001 1.355859e+001 2.013303e+001 1.614300e+001 1.756916e+001 1.782098e+001 1.804643e+001 1.616012e+001 1.294797e+001 2.658492e+001 1.605287e-001 3.038651e-001 4.668404e-001 6.697907e-001 8.434545e-001 1.050542e+000 1.188176e+000 1.301830e+000 1.366730e+000 1.389028e+000 1.294053e+000 1.178936e+000 1.089954e-001 3.198741e-002 6.041488e-002 9.333521e-002 1.357726e-001 1.697391e-001 2.110767e-001 2.409230e-001 2.631758e-001 2.752149e-001 2.825255e-001 2.616988e-001 2.392122e-001 1.810185e-002
<GCONST> 7.645100e+001
~h "b"
<BEGINHMM>
<NUMSTATES> 5
<STATE> 2
<MEAN> 39
 -6.041110e+000 3.097880e+000 -2.773838e+000 -1.591712e+000 -2.623590e+000 -2.579484e+000 -7.239545e+000 -8.185316e+000 -8.510011e+000 -4.404709e+000 -3.192982e+000 -4.294543e+000 4.029479e+001 -1.085950e+000 1.421394e+000 8.347736e-001 1.376079e+000 9.716874e-001 6.079769e-001 6.777527e-001 -2.293018e-001 -3.270788e-001 -5.673368e-001 -4.032441e-001 -4.548345e-002 -1.938816e+000 -1.950344e-001 -9.567038e-001 -2.034866e-001 -6.953442e-001 -4.529211e-001 -2.820387e-001 -2.756863e-002 5.691381e-001 5.225712e-001 3.248935e-001 1.095884e-001 1.966006e-001 1.325742e+000
<VARIANCE> 39
 3.359297e+001 2.546219e+001 2.258660e+001 3.054965e+001 2.321816e+001 3.404166e+001 3.789951e+001 3.472023e+001 3.471894e+001 3.235018e+001 3.239782e+001 2.775093e+001 2.532655e+001 2.516799e+000 4.629044e+000 3.114812e+000 4.425765e+000 3.179213e+000 3.493346e+000 3.824074e+000 4.386549e+000 4.205143e+000 3.490105e+000 2.964281e+000 2.509539e+000 6.217907e+000 3.599652e-001 7.273008e-001 6.516258e-001 7.434308e-001 6.358641e-001 6.207684e-001 8.636481e-001 8.374957e-001 7.899267e-001 7.164547e-001 6.206550e-001 5.369312e-001 9.072304e-001
<GCONST> 1.276201e+002
<STATE> 3
<MEAN> 39
 -1.205233e+001 1.975348e+000 -2.026155e+000 -1.963926e-002 -8.951802e-001 -8.564881e-001 -4.157200e+000 -4.831908e+000 -5.518035e+000 -3.272561e+000 -2.874873e+000 -2.775824e+000 3.746103e+001 -3.810181e-001 -2.095063e+000 -7.905727e-001 -1.667562e+000 -9.652542e-001 -7.525027e-001 1.609207e-001 1.050374e+000 1.309686e+000 7.611610e-001 4.988655e-001 5.786977e-001 3.366354e+000 8.048842e-001 -8.343833e-001 -4.116226e-001 -1.153733e+000 -8.272920e-001 -4.588461e-001 -4.326806e-001 5.937108e-002 1.034867e-001 2.654480e-001 2.021472e-001 2.796105e-002 1.801265e+000
<VARIANCE> 39
 4.427969e+001 2.400055e+001 1.800924e+001 2.213164e+001 1.684580e+001 2.246042e+001 2.819497e+001 3.421003e+001 3.475045e+001 2.914038e+001 2.324385e+001 2.008900e+001 3.631997e+001 3.850648e+000 3.222494e+000 3.006833e+000 4.292585e+000 3.070587e+000 3.448113e+000 3.842252e+000 4.078803e+000 4.030879e+000 3.317872e+000 2.932889e+000 2.296233e+000 8.025172e+000 5.493531e-001 6.938387e-001 8.655643e-001 7.855501e-001 6.882446e-001 7.928976e-001 7.499807e-001 8.823848e-001 8.908581e-001 7.795075e-001 6.897282e-001 4.907087e-001 7.743780e-001
<GCONST> 1.267985e+002
<STATE> 4
<MEAN> 39
 -9.299664e+000 -5.974891e+000 -6.176772e+000 -8.480059e+000 -6.388397e+000 -5.871155e+000 -5.664654e+000 -3.044818e+000 -2.078470e+000 -8.682203e-001 -1.179026e+000 -1.306476e+000 5.495147e+001 2.313130e+000 -2.721662e+000 -1.086358e+000 -3.634202e+000 -2.469711e+000 -1.042099e+000 -1.144554e+000 6.144709e-001 5.234118e-001 7.897503e-001 5.267532e-001 1.829733e-001 5.351279e+000 4.520820e-001 3.225624e-001 2.055194e-001 2.161248e-002 -3.427871e-002 3.379355e-001 -2.203759e-001 -1.550421e-001 -4.528081e-001 -1.692568e-001 -1.618313e-001 -2.430793e-001 -7.558048e-001
<VARIANCE> 39
 4.159466e+001 2.253683e+001 3.517234e+001 4.673770e+001 3.130444e+001 4.170585e+001 3.666149e+001 3.304832e+001 3.127916e+001 2.900356e+001 2.686414e+001 2.062483e+001 4.340067e+001 5.884467e+000 5.202936e+000 8.000082e+000 7.312767e+000 6.202103e+000 7.214536e+000 7.248760e+000 7.116990e+000 7.199387e+000 5.442232e+000 5.133106e+000 3.874869e+000 6.391922e+000 7.905711e-001 6.613375e-001 6.100952e-001 9.309282e-001 8.017902e-001 8.340049e-001 9.130318e-001 8.896411e-001 8.647066e-001 7.327362e-001 6.986727e-001 5.278437e-001 9.130729e-001
<GCONST> 1.374764e+002
<TRANSP> 5
 0.000000e+000 1.000000e+000 0.000000e+000 0.000000e+000 0.000000e+000
 0.000000e+000 6.476163e-001 3.523836e-001 0.000000e+000 0.000000e+000
 0.000000e+000 0.000000e+000 5.242584e-001 4.757416e-001 0.000000e+000
 0.000000e+000 0.000000e+000 0.000000e+000 4.610973e-001 5.389026e-001
 0.000000e+000 0.000000e+000 0.000000e+000 0.000000e+000 0.000000e+000
<ENDHMM>
~h "d"
<BEGINHMM>
<NUMSTATES> 5
<STATE> 2
<MEAN> 39
 -7.875795e+000 2.967874e-001 1.180636e+000 -8.839051e-001 -8.086725e+000 -7.974041e+000 -7.533152e+000 -5.125336e+000 -5.889843e+000 -5.061061e+000 -6.302779e+000 -3.606976e+000 4.395042e+001 -1.214267e+000 1.667234e+000 1.630591e-001 1.266369e+000 1.884495e+000 1.209701e+000 5.214316e-001 -6.615013e-001 -1.603396e-001 -2.428107e-001 -3.587147e-001 -5.055622e-001 -2.469893e+000 -2.048404e-001 -9.975210e-001 -3.016123e-001 -9.630356e-001 -2.246819e-001 8.726230e-002 -1.006865e-002 5.029600e-001 2.332107e-001 2.952206e-001 4.498664e-001 2.749996e-001 1.372186e+000
<VARIANCE> 39
 3.211217e+001 4.364193e+001 3.795816e+001 5.787251e+001 5.263934e+001 4.379007e+001 4.029321e+001 4.745782e+001 4.662134e+001 3.845197e+001 3.631237e+001 3.078623e+001 5.963708e+001 2.883498e+000 6.644896e+000 3.678218e+000 6.527033e+000 5.408659e+000 5.126172e+000 5.372277e+000 5.513497e+000 4.753404e+000 4.131498e+000 3.916997e+000 3.270281e+000 9.043980e+000 4.170204e-001 9.960964e-001 5.559345e-001 9.203401e-001 9.459162e-001 7.891319e-001 9.911004e-001 8.994824e-001 8.261822e-001 7.989309e-001 7.263854e-001 5.978310e-001 1.360225e+000
<GCONST> 1.381891e+002
<STATE> 3
<MEAN> 39
 -1.281464e+001 -8.386876e-002 -4.488837e-001 -7.890384e-001 -3.420327e+000 -3.270438e+000 -5.185911e+000 -4.294063e+000 -5.023743e+000 -3.514786e+000 -4.562467e+000 -3.228836e+000 4.065038e+001 -1.314804e+000 -2.016697e+000 -6.729224e-001 -1.902326e+000 6.891046e-002 5.454171e-001 4.450267e-001 8.646358e-001 7.198390e-001 6.185225e-001 9.906048e-001 7.068391e-001 2.628178e+000 3.685580e-001 -6.854645e-001 -9.042465e-002 -8.546345e-001 -8.939882e-001 -6.316372e-001 -2.876486e-001 3.197510e-001 1.382106e-001 1.622191e-001 1.809093e-001 2.094384e-001 1.672623e+000
<VARIANCE> 39
 4.236343e+001 4.108910e+001 3.496485e+001 4.136927e+001 3.819263e+001 3.596380e+001 3.622195e+001 3.777847e+001 3.613991e+001 2.960700e+001 2.737360e+001 2.274338e+001 7.473277e+001 3.778588e+000 5.241885e+000 3.729512e+000 5.395972e+000 4.521360e+000 4.962597e+000 4.815369e+000 4.970932e+000 4.658378e+000 3.766434e+000 3.368432e+000 2.741371e+000 1.077013e+001 5.926331e-001 9.204032e-001 6.449778e-001 8.822336e-001 8.879170e-001 8.733770e-001 8.956844e-001 8.838860e-001 8.294414e-001 6.908532e-001 6.779129e-001 5.537688e-001 1.344997e+000
<GCONST> 1.354265e+002
<STATE> 4
<MEAN> 39
 -1.478297e+001 -7.460207e+000 -2.444821e+000 -9.553491e+000 -7.511539e+000 -5.733892e+000 -4.835349e+000 -1.469243e+000 -2.619806e+000 -1.743630e+000 -1.816878e+000 -4.090507e-001 5.572803e+001 8.724515e-001 -1.172877e+000 -1.154529e-001 -1.649089e+000 -1.631846e+000 -1.363046e+000 -8.517917e-001 7.353073e-001 3.590464e-001 3.182167e-001 2.168785e-001 2.634037e-001 3.514226e+000 7.847583e-001 3.074159e-001 5.229101e-002 4.455553e-001 -2.059276e-001 -1.650706e-001 -3.056534e-001 -4.396982e-002 -1.990658e-001 -7.109506e-002 -2.647099e-001 -2.904187e-001 -7.101062e-001
<VARIANCE> 39
 5.153629e+001 4.250895e+001 4.478440e+001 4.574599e+001 5.091255e+001 5.188399e+001 4.840775e+001 3.985919e+001 3.795471e+001 2.882589e+001 2.687193e+001 2.266929e+001 6.551917e+001 7.236525e+000 4.799053e+000 4.309578e+000 6.148209e+000 6.069159e+000 6.099016e+000 6.690965e+000 5.504298e+000 5.235979e+000 4.053638e+000 4.368455e+000 3.289549e+000 1.176580e+001 8.246362e-001 9.571052e-001 8.664535e-001 1.021352e+000 1.226902e+000 1.402702e+000 1.093256e+000 9.891540e-001 9.451522e-001 7.916795e-001 8.082098e-001 6.516938e-001 1.435258e+000
<GCONST> 1.419506e+002
<TRANSP> 5
 0.000000e+000 1.000000e+000 0.000000e+000 0.000000e+000 0.000000e+000
 0.000000e+000 4.990404e-001 5.009596e-001 0.000000e+000 0.000000e+000
 0.000000e+000 0.000000e+000 3.948772e-001 6.051227e-001 0.000000e+000
 0.000000e+000 0.000000e+000 0.000000e+000 5.222683e-001 4.777317e-001
 0.000000e+000 0.000000e+000 0.000000e+000 0.000000e+000 0.000000e+000
<ENDHMM>
~h "f"
<BEGINHMM>
<NUMSTATES> 5
<STATE> 2
<MEAN> 39
 -1.614780e+001 -5.161475e+000 -6.666331e+000 -5.641491e+000 -3.484864e+000 -3.329370e+000 -2.401080e+000 -9.127095e-001 -2.119970e+000 -1.454429e+000 -2.912293e+000 -1.397481e+000 5.276024e+001 -4.065492e+000 -2.585194e-001 -2.803866e-001 9.190472e-001 5.939646e-001 4.631456e-001 7.542009e-001 5.785583e-001 7.225705e-001 3.327642e-001 4.138498e-001 6.123502e-001 -9.470738e-001 3.139780e-001 -4.762797e-001 -1.977040e-001 -4.944318e-001 -4.541593e-001 -2.185131e-001 -3.538958e-001 -2.848384e-002 -6.864937e-002 8.081359e-002 5.337872e-002 -3.865216e-002 3.289008e-001
<VARIANCE> 39
 5.377948e+001 1.791738e+001 2.081091e+001 2.282290e+001 1.931264e+001 2.761587e+001 2.435983e+001 2.377265e+001 2.399787e+001 2.285702e+001 1.977492e+001 1.648098e+001 3.638274e+001 5.036247e+000 3.649605e+000 4.488657e+000 5.192534e+000 4.047631e+000 4.701686e+000 4.627244e+000 4.062756e+000 4.144341e+000 3.644373e+000 3.678088e+000 2.747343e+000 3.067034e+000 1.035101e+000 5.619977e-001 5.474399e-001 6.712184e-001 5.833003e-001 5.944420e-001 6.798763e-001 6.605106e-001 6.172608e-001 5.785232e-001 5.129051e-001 4.494644e-001 4.724426e-001
<GCONST> 1.244786e+002
<STATE> 3
<MEAN> 39
 -2.380723e+001 -8.519411e+000 -9.434327e+000 -6.474389e+000 -4.926266e+000 -3.942777e+000 -3.041902e+000 -2.821565e-001 -1.043296e+000 -1.771630e-001 -1.742841e+000 -8.539066e-002 5.257333e+001 5.474793e-004 -1.944507e-001 -1.709748e-001 -1.079275e-001 -7.097773e-002 -4.620521e-002 -6.310564e-002 -3.873669e-002 4.394560e-002 8.785507e-002 4.136949e-002 1.173159e-002 9.625878e-002 8.098344e-001 1.529840e-001 1.465774e-001 -8.609032e-002 -5.951751e-003 -5.307607e-002 -9.955395e-002 -9.118395e-002 -9.609248e-002 -7.718063e-002 -6.680568e-002 -1.093508e-001 1.041327e-001
<VARIANCE> 39
 1.105252e+001 1.321431e+001 1.094800e+001 1.231828e+001 1.280610e+001 1.414958e+001 1.491955e+001 1.433736e+001 1.422038e+001 1.408492e+001 1.341932e+001 1.193444e+001 2.930393e+001 2.027723e+000 9.843491e-001 1.144329e+000 1.226788e+000 1.339291e+000 1.421790e+000 1.531209e+000 1.595805e+000 1.589322e+000 1.528101e+000 1.464132e+000 1.322434e+000 1.499735e+000 5.010024e-001 2.408242e-001 2.830385e-001 3.381965e-001 3.352832e-001 3.781980e-001 4.057229e-001 3.936043e-001 3.846388e-001 3.546721e-001 3.556179e-001 3.086881e-001 2.993692e-001
<GCONST> 9.663723e+001
<STATE> 4
<MEAN> 39
 -1.761057e+001 -7.263716e+000 -7.999961e+000 -6.964993e+000 -4.525067e+000 -3.945401e+000 -2.940437e+000 -9.049784e-001 -1.242724e+000 -3.871023e-001 -1.975073e+000 -8.561656e-001 5.313245e+001 4.703588e+000 2.215357e-001 1.866212e-001 -1.343400e+000 -1.019898e+000 -5.669082e-001 -1.182514e+000 -5.611665e-001 -5.596455e-001 -4.222676e-001 -1.488250e-001 -5.313361e-001 9.932187e-001 6.648766e-001 -2.568911e-001 -1.210985e-001 -4.777808e-001 -4.548641e-001 -1.161185e-001 -4.507841e-001 1.130793e-002 -1.336185e-001 -7.705304e-002 5.699079e-002 -6.665181e-002 3.514125e-001
<VARIANCE> 39
 4.440395e+001 1.895012e+001 2.021536e+001 2.195187e+001 1.941490e+001 2.274248e+001 2.147774e+001 2.062403e+001 1.918909e+001 1.739903e+001 1.642487e+001 1.420253e+001 3.761204e+001 5.995476e+000 3.335459e+000 4.632761e+000 5.110676e+000 4.423917e+000 5.304079e+000 5.293756e+000 3.963494e+000 4.053321e+000 3.110290e+000 3.371191e+000 2.550375e+000 4.737269e+000 9.410823e-001 5.233085e-001 5.484750e-001 6.557544e-001 6.250638e-001 7.217373e-001 7.753072e-001 6.820083e-001 6.709423e-001 5.923797e-001 5.238421e-001 4.350560e-001 6.313018e-001
<GCONST> 1.241566e+002
<TRANSP> 5
 0.000000e+000 1.000000e+000 0.000000e+000 0.000000e+000 0.000000e+000
 0.000000e+000 5.832160e-001 4.167840e-001 0.000000e+000 0.000000e+000
 0.000000e+000 0.000000e+000 8.305051e-001 1.694949e-001 0.000000e+000
 0.000000e+000 0.000000e+000 0.000000e+000 5.892766e-001 4.107234e-001
 0.000000e+000 0.000000e+000 0.000000e+000 0.000000e+000 0.000000e+000
<ENDHMM>
~h "g"
<BEGINHMM>
<NUMSTATES> 5
<STATE> 2
<MEAN> 39
 -7.126795e+000 -4.340779e-001 1.565241e+000 -1.599828e+000 -1.149856e+001 -1.160585e+001 -5.373155e+000 -3.401707e+000 -1.187753e+001 -4.506911e+000 -1.630882e+000 -3.913942e+000 4.578048e+001 -1.078788e+000 1.829211e+000 -5.353391e-001 1.686782e+000 2.333018e+000 9.328129e-001 -1.932353e-001 -9.062293e-001 7.851059e-001 -5.924038e-001 -7.578595e-001 -7.658713e-002 -3.186911e+000 -1.699704e-001 -1.049099e+000 -7.085057e-001 -7.090631e-001 3.241020e-001 3.533279e-001 -7.948694e-002 2.705450e-001 7.394261e-001 4.653404e-001 -7.657133e-002 1.752117e-001 1.144061e+000
<VARIANCE> 39
 2.196964e+001 3.831950e+001 4.147256e+001 4.416957e+001 5.631462e+001 5.274139e+001 5.249007e+001 8.111019e+001 5.272441e+001 5.697459e+001 6.193431e+001 3.730130e+001 4.736154e+001 2.526566e+000 6.965771e+000 4.613089e+000 5.728962e+000 6.346540e+000 5.828257e+000 6.708439e+000 8.000686e+000 6.178255e+000 6.045050e+000 4.947837e+000 3.419916e+000 6.613521e+000 3.342099e-001 1.066484e+000 7.029654e-001 8.873713e-001 9.369119e-001 1.005397e+000 1.094427e+000 1.146702e+000 1.011799e+000 1.092002e+000 8.725361e-001 6.784282e-001 1.237054e+000
<GCONST> 1.424150e+002
<STATE> 3
<MEAN> 39
 -1.236533e+001 5.108408e-001 -1.791266e+000 9.479608e-001 -2.998640e+000 -6.255937e+000 -5.900609e+000 -4.236158e+000 -6.466945e+000 -3.640564e+000 -3.615566e+000 -2.806612e+000 3.980850e+001 -7.901756e-001 -2.762461e+000 -2.455014e+000 -1.338191e+000 1.621436e+000 9.098106e-001 -1.267094e-001 5.894568e-001 1.630560e+000 1.214289e+000 -7.309044e-002 6.149921e-001 2.063689e+000 5.545407e-001 -8.798700e-001 -1.977505e-001 -1.043957e+000 -8.092390e-001 -4.636117e-001 -1.345700e-001 1.951195e-001 -1.578130e-001 4.117494e-001 2.856449e-001 8.045215e-002 1.818000e+000
<VARIANCE> 39
 3.527017e+001 3.812453e+001 3.657896e+001 2.863966e+001 4.012169e+001 4.698775e+001 3.894680e+001 4.237897e+001 3.846871e+001 3.045695e+001 2.704119e+001 2.057965e+001 4.497069e+001 3.391345e+000 7.669339e+000 6.232084e+000 5.909400e+000 7.327823e+000 7.036021e+000 6.660571e+000 7.960743e+000 6.033685e+000 5.157773e+000 4.214871e+000 3.339121e+000 8.295445e+000 6.191211e-001 1.210489e+000 9.695382e-001 1.017598e+000 9.584362e-001 1.062758e+000 1.038145e+000 1.118625e+000 8.596956e-001 8.948627e-001 8.473440e-001 5.141056e-001 1.110064e+000
<GCONST> 1.398331e+002
<STATE> 4
<MEAN> 39
 -1.120330e+001 -1.015009e+001 -9.338803e+000 -7.022189e+000 -2.628970e+000 -7.425548e+000 -6.957209e+000 -2.549956e+000 -3.455537e+000 1.109822e+000 -2.922639e+000 -1.073325e+000 5.368952e+001 1.376706e+000 -3.618125e-001 -4.244872e-002 -1.603166e+000 -8.837065e-001 -7.300244e-001 -1.134110e+000 -1.317452e-001 1.012428e-001 4.487246e-001 3.938425e-001 1.588110e-001 2.653662e+000 6.217621e-001 8.388210e-001 7.554791e-001 1.905554e-001 -6.669521e-001 -2.386213e-001 -2.002533e-001 -6.701399e-002 -4.836212e-001 -4.745080e-001 1.443347e-001 -1.890123e-001 -4.795203e-001
<VARIANCE> 39
 3.039657e+001 5.560246e+001 7.845468e+001 4.812789e+001 6.602788e+001 6.563821e+001 6.022229e+001 5.571492e+001 4.714243e+001 3.964855e+001 3.379725e+001 2.441266e+001 3.437685e+001 4.740205e+000 8.089950e+000 7.192123e+000 7.360023e+000 6.716762e+000 6.780504e+000 6.070344e+000 5.782417e+000 6.059484e+000 5.623171e+000 4.202730e+000 3.119720e+000 6.351441e+000 6.039963e-001 1.532893e+000 1.385620e+000 1.122028e+000 1.250906e+000 1.241019e+000 1.252127e+000 1.319258e+000 1.199056e+000 1.100873e+000 8.706157e-001 6.835178e-001 8.425117e-001
<GCONST> 1.454613e+002
<TRANSP> 5
 0.000000e+000 1.000000e+000 0.000000e+000 0.000000e+000 0.000000e+000
 0.000000e+000 5.566648e-001 4.433352e-001 0.000000e+000 0.000000e+000
 0.000000e+000 0.000000e+000 4.808002e-001 5.191998e-001 0.000000e+000
 0.000000e+000 0.000000e+000 0.000000e+000 6.489173e-001 3.510827e-001
 0.000000e+000 0.000000e+000 0.000000e+000 0.000000e+000 0.000000e+000
<ENDHMM>
~h "k"
<BEGINHMM>
<NUMSTATES> 5
<STATE> 2
<MEAN> 39
 -1.164471e+001 -4.002044e+000 -1.749917e+000 -3.238283e+000 -7.262893e+000 -9.946759e+000 -4.913618e+000 -4.956549e-001 -7.824318e+000 -1.484112e+000 -1.607399e+000 -1.763411e+000 4.655133e+001 -2.653473e+000 1.373012e+000 -4.199985e-001 2.015270e+000 2.269737e+000 2.379985e+000 1.000570e+000 -7.475019e-001 1.073502e+000 3.905177e-001 2.917047e-002 3.337058e-001 -5.209929e+000 -1.450014e-001 -7.272204e-001 -5.852951e-001 -5.740423e-001 8.550438e-002 4.609325e-001 6.540555e-002 2.691402e-001 6.345810e-001 1.417394e-001 -8.652746e-003 2.700885e-002 6.522657e-001
<VARIANCE> 39
 4.215220e+001 3.656534e+001 6.331255e+001 5.387631e+001 9.088245e+001 7.205222e+001 6.696920e+001 8.242576e+001 6.997776e+001 4.954053e+001 5.163192e+001 3.235265e+001 6.532385e+001 5.721660e+000 5.275343e+000 6.674629e+000 5.652077e+000 7.872537e+000 6.890599e+000 7.240522e+000 7.657835e+000 7.532941e+000 5.346793e+000 5.747864e+000 3.419519e+000 5.918208e+000 7.324796e-001 1.013028e+000 8.395701e-001 1.070820e+000 1.474171e+000 1.276556e+000 1.086713e+000 1.419232e+000 1.362839e+000 1.024638e+000 9.752895e-001 7.102268e-001 1.958478e+000
<GCONST> 1.491050e+002
<STATE> 3
<MEAN> 39
 -1.958548e+001 -3.371300e+000 -5.036783e+000 -4.609055e-001 -1.037922e+000 -1.010759e+000 -1.763442e+000 3.325166e-001 -1.073975e+000 7.451696e-001 -5.921197e-001 -3.427599e-001 3.420744e+001 -3.689524e-001 -1.522314e+000 -1.228066e+000 -9.738706e-001 1.631608e-001 6.947249e-001 3.389714e-001 1.433893e-001 5.664405e-001 5.586421e-001 -3.349426e-003 2.493647e-001 1.074847e+000 7.480896e-001 -5.578102e-001 -7.131723e-002 -8.809650e-001 -6.662871e-001 -9.299868e-001 -3.864278e-001 2.425996e-002 -4.757690e-001 -5.963906e-002 -1.562544e-001 -9.216531e-002 2.413521e+000
<VARIANCE> 39
 1.032928e+001 1.531160e+001 1.679219e+001 1.614832e+001 1.962638e+001 2.169677e+001 2.325302e+001 2.462083e+001 2.429012e+001 2.010512e+001 1.696653e+001 1.498216e+001 2.327821e+001 4.911503e+000 5.027026e+000 5.179415e+000 5.195092e+000 5.797673e+000 6.385292e+000 4.937990e+000 5.072129e+000 5.853040e+000 3.691738e+000 3.402245e+000 2.596068e+000 1.628040e+001 6.376182e-001 7.530161e-001 8.503217e-001 7.395692e-001 8.999157e-001 8.571771e-001 8.817397e-001 8.733664e-001 7.769935e-001 6.411794e-001 6.507728e-001 4.436564e-001 1.389697e+000
<GCONST> 1.276684e+002
<STATE> 4
<MEAN> 39
 -1.613484e+001 -1.038586e+001 -7.710359e+000 -9.254949e+000 -4.254142e+000 -4.900578e+000 -2.826002e+000 -2.988130e-001 -2.732778e+000 1.804936e+000 -2.359031e+000 -3.540513e-001 5.433946e+001 9.858520e-001 9.264281e-002 2.449086e-001 -9.305121e-001 -8.306853e-001 -7.119219e-001 -1.383409e-001 -1.373193e-001 -3.514698e-001 -3.786805e-001 -1.449187e-001 -2.125508e-001 2.317812e+000 2.521484e-001 4.561163e-001 3.352370e-001 2.625398e-001 -1.512034e-001 -4.615583e-002 -1.092347e-001 1.638322e-003 -1.115239e-001 -2.685424e-001 7.870193e-002 -1.035255e-001 -5.121187e-001
<VARIANCE> 39
 2.965306e+001 3.924261e+001 7.129056e+001 4.566729e+001 5.466473e+001 4.790403e+001 4.982771e+001 4.471156e+001 3.962360e+001 3.400279e+001 2.881735e+001 2.243560e+001 5.050351e+001 5.395514e+000 4.922052e+000 4.385300e+000 5.298541e+000 4.466646e+000 4.775921e+000 4.510035e+000 4.387616e+000 4.679836e+000 3.934042e+000 3.345279e+000 2.652910e+000 1.056661e+001 7.643117e-001 1.242630e+000 9.955986e-001 9.835677e-001 9.130513e-001 9.424472e-001 9.547830e-001 8.812836e-001 9.014840e-001 7.568771e-001 6.636726e-001 5.391945e-001 1.750904e+000
<GCONST> 1.386824e+002
<TRANSP> 5
 0.000000e+000 1.000000e+000 0.000000e+000 0.000000e+000 0.000000e+000
 0.000000e+000 5.495732e-001 4.504268e-001 0.000000e+000 0.000000e+000
 0.000000e+000 0.000000e+000 6.269924e-001 3.730076e-001 0.000000e+000
 0.000000e+000 0.000000e+000 0.000000e+000 7.713745e-001 2.286255e-001
 0.000000e+000 0.000000e+000 0.000000e+000 0.000000e+000 0.000000e+000
<ENDHMM>
~h "l"
<BEGINHMM>
<NUMSTATES> 5
<STATE> 2
<MEAN> 39
 -1.207039e+000 -3.538895e+000 -1.082764e+001 -2.393893e+001 -8.386125e+000 1.351733e+000 -7.354239e+000 -7.412257e+000 -4.156044e+000 -8.938696e-001 -1.065426e-001 -2.255455e+000 5.895831e+001 5.605583e-001 5.212094e-001 -1.799783e-001 -1.047983e+000 3.868124e-003 5.459279e-001 -1.690075e-001 -4.549472e-001 -5.249081e-001 -6.640782e-002 3.925947e-001 2.336231e-001 -1.176120e-001 -2.768860e-001 -3.825495e-001 6.592645e-002 5.401515e-001 8.693670e-002 -3.038228e-001 -7.627456e-002 3.280104e-001 2.519781e-001 7.734084e-002 -1.450909e-001 -1.208714e-001 8.618861e-002
<VARIANCE> 39
 1.278921e+001 4.760999e+001 4.754627e+001 7.355441e+001 6.125835e+001 6.924085e+001 7.633057e+001 6.455437e+001 6.463326e+001 6.132393e+001 5.676081e+001 4.037935e+001 2.985651e+001 1.892862e+000 2.635544e+000 2.040980e+000 4.917563e+000 3.280838e+000 4.161546e+000 4.184247e+000 4.128781e+000 3.729226e+000 3.783908e+000 3.302839e+000 2.862835e+000 1.843206e+000 2.772144e-001 4.274359e-001 3.430222e-001 6.204345e-001 6.211564e-001 6.503390e-001 6.914263e-001 7.976429e-001 8.067201e-001 7.592966e-001 6.041808e-001 5.692798e-001 2.372587e-001
<GCONST> 1.292263e+002
<STATE> 3
<MEAN> 39
 -1.331725e+000 -5.826225e+000 -1.099324e+001 -2.328355e+001 -6.511096e+000 1.204233e+000 -1.012388e+001 -8.195365e+000 -3.554401e+000 2.217511e+000 1.202569e+000 -4.085291e+000 6.039193e+001 -3.457786e-001 -1.480757e+000 7.777032e-002 1.311617e+000 4.382721e-001 -1.000053e+000 -1.119529e+000 8.022977e-001 1.596234e+000 8.642578e-001 -8.719379e-001 -1.203119e+000 7.983359e-001 -3.772770e-001 -1.896116e-001 3.897497e-001 7.462744e-001 -2.429625e-001 -5.858322e-001 2.562072e-001 6.819561e-001 2.325059e-001 -4.390217e-001 -5.222613e-001 1.161606e-001 -1.019176e-001
<VARIANCE> 39
 1.064922e+001 3.462099e+001 4.941150e+001 6.151482e+001 5.060069e+001 6.855399e+001 7.529594e+001 5.720024e+001 5.909106e+001 5.816684e+001 6.063982e+001 4.249193e+001 2.604631e+001 1.010727e+000 3.462562e+000 2.341948e+000 4.865357e+000 3.342859e+000 5.085222e+000 4.819912e+000 4.791992e+000 4.994522e+000 4.241801e+000 3.789490e+000 3.414426e+000 2.370074e+000 3.292744e-001 3.923061e-001 4.018582e-001 6.654334e-001 7.386599e-001 7.137168e-001 7.444651e-001 8.264362e-001 8.187881e-001 7.957984e-001 6.208977e-001 6.544278e-001 2.661833e-001
<GCONST> 1.303739e+002
<STATE> 4
<MEAN> 39
 -3.045090e+000 -9.287807e+000 -8.335133e+000 -1.722230e+001 -7.575417e+000 -5.956654e+000 -1.243553e+001 -2.370209e+000 9.068636e-001 7.048553e-001 -4.327845e+000 -4.802222e+000 6.157728e+001 -8.404357e-001 -7.317912e-001 1.759455e+000 2.076298e+000 -1.289128e+000 -2.050594e+000 4.991541e-001 1.979331e+000 -1.905469e-001 -1.337069e+000 -8.122413e-001 7.105465e-001 8.239061e-002 -1.603693e-001 3.073564e-001 3.874919e-001 -5.707217e-002 -3.228181e-001 2.939750e-001 5.762241e-001 -2.105069e-001 -8.151909e-001 -2.823914e-001 4.371741e-001 3.537703e-001 -2.992885e-001
<VARIANCE> 39
 1.179678e+001 3.701958e+001 5.950570e+001 6.931186e+001 5.231820e+001 9.036253e+001 7.627976e+001 6.676146e+001 6.292323e+001 6.426886e+001 6.425938e+001 4.522012e+001 3.219061e+001 1.214817e+000 2.957425e+000 4.037622e+000 4.407033e+000 5.161222e+000 5.148347e+000 4.829366e+000 5.212760e+000 6.199218e+000 4.280209e+000 4.007250e+000 3.580420e+000 2.302457e+000 2.497788e-001 3.271422e-001 3.610829e-001 7.090940e-001 6.609609e-001 9.226613e-001 7.943172e-001 9.581634e-001 9.320000e-001 9.081218e-001 6.476876e-001 6.842391e-001 2.041389e-001
<GCONST> 1.330644e+002
<TRANSP> 5
 0.000000e+000 1.000000e+000 0.000000e+000 0.000000e+000 0.000000e+000
 0.000000e+000 7.102233e-001 2.897767e-001 0.000000e+000 0.000000e+000
 0.000000e+000 0.000000e+000 4.479838e-001 5.520162e-001 0.000000e+000
 0.000000e+000 0.000000e+000 0.000000e+000 4.675781e-001 5.324218e-001
 0.000000e+000 0.000000e+000 0.000000e+000 0.000000e+000 0.000000e+000
<ENDHMM>
~h "m"
<BEGINHMM>
<NUMSTATES> 5
<STATE> 2
<MEAN> 39
 -4.982839e+000 -3.334308e+000 -5.111152e+000 -4.633544e+000 -6.611112e+000 -7.270324e+000 -6.039210e+000 -7.975549e+000 -1.065392e+001 -1.906641e+000 -2.231136e+000 -5.820922e+000 5.046181e+001 4.972778e-001 1.294277e+000 9.456621e-001 1.611299e+000 1.855702e-002 -1.085934e+000 9.163729e-003 -2.154155e+000 -2.322641e+000 2.385050e-001 1.417385e-001 -8.049727e-001 -6.632975e-001 -2.261735e-001 -4.537916e-001 4.939617e-002 -3.924325e-001 -2.039587e-001 1.514782e-001 -1.215500e-001 5.241552e-001 4.886883e-001 -7.839017e-002 -6.194185e-002 1.964423e-001 5.169594e-001
<VARIANCE> 39
 2.499937e+001 2.961260e+001 3.348002e+001 4.873722e+001 4.574299e+001 5.717799e+001 6.172403e+001 6.253991e+001 6.650114e+001 5.292225e+001 6.668472e+001 4.378405e+001 3.952370e+001 5.014211e+000 2.869975e+000 3.678803e+000 4.097728e+000 4.981213e+000 4.337162e+000 6.052767e+000 5.312087e+000 5.838185e+000 4.916883e+000 5.036001e+000 3.820652e+000 5.032524e+000 3.878193e-001 3.989418e-001 5.986359e-001 5.932632e-001 6.351071e-001 6.409093e-001 7.681602e-001 7.960016e-001 9.405468e-001 6.831514e-001 7.207146e-001 5.436739e-001 3.625585e-001
<GCONST> 1.347986e+002
<STATE> 3
<MEAN> 39
 -4.107665e+000 -3.084994e+000 -3.082838e+000 -3.199142e+000 -7.671736e+000 -8.670375e+000 -7.141436e+000 -1.072603e+001 -1.344266e+001 -1.139121e+000 -2.339476e+000 -6.960649e+000 5.144983e+001 -2.029903e-002 -5.671485e-002 1.434859e-001 -5.976251e-002 -1.056128e-001 4.499478e-002 -9.435448e-002 2.362536e-002 1.286791e-001 -1.429093e-001 -1.017880e-001 7.469993e-002 2.343756e-001 -1.228074e-001 -4.283961e-001 -2.603503e-001 -6.503385e-001 -1.097890e-001 3.595709e-001 -1.486664e-002 7.744713e-001 8.084098e-001 -1.676141e-001 -7.067705e-002 3.028938e-001 3.572560e-001
<VARIANCE> 39
 8.580256e+000 2.290692e+001 3.106572e+001 4.916775e+001 5.119841e+001 6.988203e+001 6.528130e+001 6.693603e+001 6.250599e+001 6.260568e+001 8.451287e+001 5.463402e+001 2.017951e+001 1.205327e+000 1.821328e+000 1.446528e+000 1.982050e+000 2.127185e+000 2.019626e+000 2.497553e+000 2.642491e+000 3.129146e+000 2.413368e+000 2.406255e+000 2.003494e+000 2.241044e+000 3.294008e-001 2.959314e-001 5.031783e-001 5.157303e-001 5.944203e-001 5.656787e-001 6.745821e-001 7.387666e-001 8.662758e-001 6.839827e-001 7.183551e-001 6.003825e-001 2.352571e-001
<GCONST> 1.218800e+002
<STATE> 4
<MEAN> 39
 -4.436632e+000 -4.963278e+000 -4.706465e+000 -5.691837e+000 -7.906139e+000 -7.274638e+000 -7.387256e+000 -7.542459e+000 -9.299776e+000 -2.761779e+000 -2.591285e+000 -5.491570e+000 5.338215e+001 -2.368878e-001 -1.595939e+000 -3.546417e-001 -2.235539e+000 -8.990990e-001 9.888331e-001 -1.698983e-001 2.434553e+000 2.361589e+000 -6.569350e-001 -3.698855e-001 9.247985e-001 1.717509e+000 -2.729901e-001 -2.359692e-001 9.466129e-002 -4.179669e-001 -1.441127e-001 2.476839e-001 1.518632e-001 4.857729e-001 1.931595e-001 7.109397e-002 1.502520e-004 1.447557e-001 1.722782e-001
<VARIANCE> 39
 1.709073e+001 3.115749e+001 3.473399e+001 5.120184e+001 4.642394e+001 6.109559e+001 5.603034e+001 6.168819e+001 7.201784e+001 5.064091e+001 6.439235e+001 4.158657e+001 3.998113e+001 2.651819e+000 3.386524e+000 5.653637e+000 5.153906e+000 5.845571e+000 4.919745e+000 5.530593e+000 5.396206e+000 6.525125e+000 5.064657e+000 5.308152e+000 3.999460e+000 4.013371e+000 3.931784e-001 4.484408e-001 6.089356e-001 6.644228e-001 6.807529e-001 6.725602e-001 7.393770e-001 8.572723e-001 1.163806e+000 6.888912e-001 6.897877e-001 5.389938e-001 4.043069e-001
<GCONST> 1.355909e+002
<TRANSP> 5
 0.000000e+000 1.000000e+000 0.000000e+000 0.000000e+000 0.000000e+000
 0.000000e+000 4.250721e-001 5.749279e-001 0.000000e+000 0.000000e+000
 0.000000e+000 0.000000e+000 6.567145e-001 3.432855e-001 0.000000e+000
 0.000000e+000 0.000000e+000 0.000000e+000 4.179216e-001 5.820784e-001
 0.000000e+000 0.000000e+000 0.000000e+000 0.000000e+000 0.000000e+000
<ENDHMM>
~h "n"
<BEGINHMM>
<NUMSTATES> 5
<STATE> 2
<MEAN> 39
 -4.257282e+000 -6.605163e+000 -3.274905e+000 -8.064501e+000 -1.127993e+001 -7.942024e+000 -6.310870e+000 -3.681803e+000 -7.723625e+000 -2.594340e+000 -5.286982e+000 -4.564077e+000 5.500636e+001 1.700264e-001 1.859762e+000 9.238659e-002 1.773448e+000 1.053190e-001 -6.853368e-001 1.294632e+000 -3.057493e+000 -1.457236e+000 1.273958e+000 -7.917061e-001 -2.597695e-001 -2.031490e+000 -1.892608e-001 -4.594574e-002 4.647708e-002 -1.712729e-001 -4.818671e-002 1.603567e-001 4.816476e-002 5.456322e-002 1.206336e-001 -2.153524e-002 5.445388e-002 1.161015e-001 1.398753e-001
<VARIANCE> 39
 1.126866e+001 3.560340e+001 4.468871e+001 5.845251e+001 5.290805e+001 5.440801e+001 5.651333e+001 7.941317e+001 7.834591e+001 6.083430e+001 6.142923e+001 4.814050e+001 3.021314e+001 1.524502e+000 2.639494e+000 4.523577e+000 3.727498e+000 4.891953e+000 5.262526e+000 5.260487e+000 6.702452e+000 6.409784e+000 4.786897e+000 4.267050e+000 3.721543e+000 2.142675e+000 2.127523e-001 3.112751e-001 4.057634e-001 4.596580e-001 5.777031e-001 5.436325e-001 6.179472e-001 9.401591e-001 7.437474e-001 6.424627e-001 5.545107e-001 4.767902e-001 2.644538e-001
<GCONST> 1.302683e+002
<STATE> 3
<MEAN> 39
 -4.225449e+000 -2.223959e+000 -2.627655e+000 -5.013509e+000 -1.213029e+001 -8.809926e+000 -2.517891e+000 -1.103040e+001 -1.105651e+001 4.274652e-001 -7.132283e+000 -4.311983e+000 5.102610e+001 -2.022974e-001 8.736583e-001 1.505251e-001 5.448017e-001 1.816815e-001 1.365777e-002 2.394619e-001 -8.371617e-001 -3.317572e-001 7.536024e-002 -1.848032e-001 4.342059e-002 -8.689544e-001 -3.124491e-001 -4.957011e-001 -2.202893e-002 -4.871446e-001 2.271575e-001 2.565520e-001 -4.818105e-001 1.072176e+000 5.618083e-001 -4.729637e-001 2.895419e-001 1.140845e-001 4.551110e-001
<VARIANCE> 39
 9.007747e+000 2.943575e+001 2.994147e+001 5.158155e+001 4.715722e+001 5.079439e+001 5.627889e+001 7.302245e+001 6.602789e+001 6.182475e+001 6.586118e+001 5.330830e+001 2.376258e+001 9.417388e-001 2.171530e+000 1.900978e+000 2.279608e+000 2.545722e+000 2.610147e+000 3.182597e+000 4.963891e+000 3.516796e+000 3.049133e+000 2.508691e+000 2.143617e+000 1.822467e+000 2.973751e-001 4.587902e-001 5.472304e-001 6.002823e-001 7.208068e-001 7.233379e-001 7.826329e-001 1.033847e+000 1.004422e+000 7.718444e-001 7.047764e-001 6.039865e-001 3.551140e-001
<GCONST> 1.257266e+002
<STATE> 4
<MEAN> 39
 -6.694338e+000 -3.784871e+000 -3.514132e+000 -6.165639e+000 -9.877153e+000 -7.208185e+000 -4.789762e+000 -6.717812e+000 -7.858798e+000 -1.792841e+000 -6.180350e+000 -3.853856e+000 5.044239e+001 -9.440489e-001 -6.285856e-001 -3.111974e-001 -8.649689e-001 7.911975e-001 7.590774e-001 -6.710767e-001 1.599335e+000 1.064134e+000 -6.133999e-001 5.710189e-001 2.171922e-001 4.810426e-001 -2.288177e-001 -3.887772e-001 -1.667235e-001 -4.255190e-001 3.579690e-002 2.224577e-001 -1.018590e-002 5.568759e-001 2.991616e-001 -4.250403e-002 2.126701e-001 1.283750e-001 4.566980e-001
<VARIANCE> 39
 2.729443e+001 5.151328e+001 4.058866e+001 5.672433e+001 5.215944e+001 5.155562e+001 5.706055e+001 7.878670e+001 7.058275e+001 5.743784e+001 5.456038e+001 4.591107e+001 5.758639e+001 3.840166e+000 4.318148e+000 4.086495e+000 5.012575e+000 5.171419e+000 4.831640e+000 5.565246e+000 7.422824e+000 6.317325e+000 5.035361e+000 4.530833e+000 3.756967e+000 5.311629e+000 6.136649e-001 8.656594e-001 6.250995e-001 8.031726e-001 8.696914e-001 8.288591e-001 9.784029e-001 1.460191e+000 1.249187e+000 9.185290e-001 7.902704e-001 6.522667e-001 7.934890e-001
<GCONST> 1.418450e+002
<TRANSP> 5
 0.000000e+000 1.000000e+000 0.000000e+000 0.000000e+000 0.000000e+000
 0.000000e+000 3.415193e-001 6.584807e-001 0.000000e+000 0.000000e+000
 0.000000e+000 0.000000e+000 5.772587e-001 4.227413e-001 0.000000e+000
 0.000000e+000 0.000000e+000 0.000000e+000 4.837086e-001 5.162914e-001
 0.000000e+000 0.000000e+000 0.000000e+000 0.000000e+000 0.000000e+000
<ENDHMM>
~h "p"
<BEGINHMM>
<NUMSTATES> 5
<STATE> 2
<MEAN> 39
 -1.113830e+001 8.768592e-001 -3.820298e+000 -2.787520e+000 -2.850221e+000 -2.706568e+000 -5.051170e+000 -5.150951e+000 -5.888425e+000 -2.688298e+000 -2.843414e+000 -3.002598e+000 3.954583e+001 -3.326253e+000 9.071449e-001 3.285001e-001 2.113114e+000 1.487835e+000 1.425272e+000 1.578165e+000 7.323719e-001 8.713220e-001 2.565455e-001 8.340977e-002 5.396857e-001 -4.602408e+000 -1.559301e-001 -1.019870e+000 -2.839879e-001 -6.662899e-001 -4.171598e-001 -1.722593e-001 2.798536e-004 5.360188e-001 4.778153e-001 3.881491e-001 2.391509e-001 1.633123e-001 1.276496e+000
<VARIANCE> 39
 4.247831e+001 2.275443e+001 2.549485e+001 3.769528e+001 2.527992e+001 2.791422e+001 3.124942e+001 3.355537e+001 3.679256e+001 3.062183e+001 2.967395e+001 2.309019e+001 4.294918e+001 5.234331e+000 5.813982e+000 5.313277e+000 6.806715e+000 4.595893e+000 5.293974e+000 4.884284e+000 5.308052e+000 5.703503e+000 4.798828e+000 4.439230e+000 3.268741e+000 8.484700e+000 9.386754e-001 7.405003e-001 7.445129e-001 1.017244e+000 8.027331e-001 7.692183e-001 8.149062e-001 8.603976e-001 8.587757e-001 7.687928e-001 6.971439e-001 5.569732e-001 1.409629e+000
<GCONST> 1.353266e+002
<STATE> 3
<MEAN> 39
 -1.954861e+001 -2.140161e+000 -5.169733e+000 -1.129341e+000 -1.446862e+000 2.490070e-001 -1.047882e+000 2.020080e-002 -3.419233e-001 9.643407e-001 -1.038035e-002 -2.198754e-002 3.254738e+001 -3.025746e-001 -1.066793e+000 -4.764657e-001 -4.972027e-001 -1.746851e-001 -1.682320e-001 2.612320e-001 5.471711e-001 6.919276e-001 4.328190e-001 3.339859e-001 3.233498e-001 1.656902e+000 8.272644e-001 -3.216756e-001 -5.892294e-002 -5.851684e-001 -2.881518e-001 -4.705984e-001 -3.673904e-001 -2.175730e-001 -2.304184e-001 -1.869795e-001 -1.600158e-001 -1.733718e-001 1.961359e+000
<VARIANCE> 39
 4.367095e+000 5.807712e+000 6.374003e+000 8.770075e+000 9.608879e+000 1.137417e+001 1.190799e+001 1.445652e+001 1.409194e+001 1.391385e+001 1.228645e+001 1.169057e+001 1.209691e+001 2.786867e+000 2.051612e+000 1.645975e+000 2.470505e+000 1.808146e+000 2.520442e+000 2.414560e+000 2.894103e+000 2.955561e+000 2.410986e+000 2.119624e+000 1.879742e+000 1.317021e+001 5.878374e-001 3.616567e-001 4.089863e-001 5.278634e-001 4.457431e-001 5.362611e-001 5.129005e-001 4.963133e-001 5.129734e-001 4.663143e-001 4.325921e-001 3.631664e-001 1.049106e+000
<GCONST> 1.049324e+002
<STATE> 4
<MEAN> 39
 -1.482768e+001 -8.748447e+000 -7.787521e+000 -7.262526e+000 -3.101875e+000 -3.095183e+000 -1.857368e+000 -3.538388e-001 -2.745742e-001 3.105455e-001 -1.183547e+000 -7.623625e-001 5.309423e+001 1.943662e+000 -8.108284e-001 -5.867566e-001 -1.332199e+000 -6.144910e-001 -5.872011e-001 -6.892176e-001 -2.618893e-001 -4.317802e-001 -4.392735e-001 -4.592380e-001 -3.377263e-001 2.860048e+000 4.451101e-001 3.196667e-001 1.311702e-002 -3.416054e-002 -2.035746e-001 -3.156982e-003 -3.324740e-001 -1.396263e-001 -3.006641e-001 -1.695197e-001 -8.242646e-002 -1.027359e-001 -6.485171e-001
<VARIANCE> 39
 2.180744e+001 2.526682e+001 2.831477e+001 3.400131e+001 2.851814e+001 3.200114e+001 3.260844e+001 3.021683e+001 2.867683e+001 2.466236e+001 2.304456e+001 1.851972e+001 4.792184e+001 4.691341e+000 3.752119e+000 3.393150e+000 4.180725e+000 3.943055e+000 4.490510e+000 4.678296e+000 4.084156e+000 4.181449e+000 3.164698e+000 3.068023e+000 2.345713e+000 1.052847e+001 5.919996e-001 5.999635e-001 5.217428e-001 6.555879e-001 6.835872e-001 7.226650e-001 7.690417e-001 7.935042e-001 7.970056e-001 6.488355e-001 6.077460e-001 4.719521e-001 1.476980e+000
<GCONST> 1.284845e+002
<TRANSP> 5
 0.000000e+000 1.000000e+000 0.000000e+000 0.000000e+000 0.000000e+000
 0.000000e+000 5.272355e-001 4.727645e-001 0.000000e+000 0.000000e+000
 0.000000e+000 0.000000e+000 7.121103e-001 2.878897e-001 0.000000e+000
 0.000000e+000 0.000000e+000 0.000000e+000 7.580385e-001 2.419615e-001
 0.000000e+000 0.000000e+000 0.000000e+000 0.000000e+000 0.000000e+000
<ENDHMM>
~h "r"
<BEGINHMM>
<NUMSTATES> 5
<STATE> 2
<MEAN> 39
 2.132670e+000 -9.697072e+000 -1.458148e+001 -6.707971e+000 -3.986773e+000 -1.077745e+001 -1.626473e+001 -2.333424e-001 -1.653535e+000 -3.129226e+000 -1.224783e+000 3.180335e-001 5.635886e+001 1.106157e+000 -1.357477e-001 -9.130077e-001 1.225256e-001 3.250892e-001 -3.619790e-001 -1.198805e+000 1.579150e-001 5.213731e-001 -9.114865e-002 -1.920509e-001 8.246683e-002 1.976080e-001 -4.617495e-001 -2.176556e-001 4.964995e-001 6.702723e-002 -3.819066e-001 -3.495080e-003 4.280473e-001 2.791626e-001 -6.021440e-002 -2.078695e-002 7.101318e-003 -6.874899e-002 5.265547e-002
<VARIANCE> 39
 1.872196e+001 3.436584e+001 6.594271e+001 4.326384e+001 5.496597e+001 7.300456e+001 8.467048e+001 9.167579e+001 7.935542e+001 4.390902e+001 3.974454e+001 3.533154e+001 2.901400e+001 3.760064e+000 2.552365e+000 3.612680e+000 2.688281e+000 3.813563e+000 4.977689e+000 6.202146e+000 4.922561e+000 4.293258e+000 3.626852e+000 2.836505e+000 2.377926e+000 2.095623e+000 4.086212e-001 4.231808e-001 4.326398e-001 4.093476e-001 4.805326e-001 6.452867e-001 8.570423e-001 7.946579e-001 6.182703e-001 5.387861e-001 4.592735e-001 4.107573e-001 2.936628e-001
<GCONST> 1.293831e+002
<STATE> 3
<MEAN> 39
 2.574710e+000 -1.438208e+001 -1.369616e+001 -5.263727e+000 -6.053779e+000 -1.423410e+001 -1.906431e+001 5.806279e+000 7.920095e-001 -4.251883e+000 -1.988812e+000 -7.128210e-002 5.978736e+001 -4.414047e-001 -5.569094e-001 1.505630e+000 5.264145e-001 -1.358087e+000 -7.058082e-001 8.506435e-001 1.010718e+000 -4.147201e-001 -6.304066e-001 -8.705409e-002 -5.415432e-002 1.956085e-001 -6.187241e-001 2.800882e-001 6.602228e-001 -1.787425e-001 -2.737547e-001 4.746850e-001 9.612365e-001 -3.687613e-001 -5.459103e-001 7.444025e-002 1.460779e-001 -1.184626e-001 -2.580240e-001
<VARIANCE> 39
 1.179958e+001 2.523219e+001 7.150115e+001 4.719546e+001 6.808853e+001 7.832331e+001 1.136654e+002 8.523782e+001 9.087130e+001 5.320944e+001 4.366207e+001 3.529946e+001 2.080510e+001 1.516785e+000 3.164882e+000 3.091813e+000 2.806877e+000 4.006418e+000 4.323003e+000 5.336623e+000 6.135675e+000 4.260144e+000 3.461465e+000 3.322979e+000 2.434774e+000 3.021516e+000 3.983905e-001 2.723854e-001 3.837940e-001 4.312276e-001 5.637882e-001 6.186813e-001 8.922101e-001 6.874824e-001 6.413571e-001 5.688096e-001 4.503664e-001 4.051973e-001 2.365844e-001
<GCONST> 1.283620e+002
<STATE> 4
<MEAN> 39
 -6.115898e-001 -1.380838e+001 -8.795979e+000 -4.347456e+000 -9.166402e+000 -1.480442e+001 -1.192809e+001 6.034932e+000 -3.075129e+000 -5.306719e+000 -2.378279e+000 -3.826296e-001 5.799610e+001 -1.528227e+000 6.997746e-001 2.262791e+000 -1.233842e-002 -1.008386e+000 9.379979e-001 2.167243e+000 -9.311089e-001 -1.287929e+000 9.651805e-002 7.176025e-002 -4.467886e-001 -9.474608e-001 -4.131002e-001 3.907350e-001 6.415849e-002 -3.426404e-001 2.653768e-001 6.195604e-001 1.581417e-001 -5.524919e-001 -3.641871e-003 3.176039e-001 3.266794e-003 -1.698940e-001 -2.728854e-001
<VARIANCE> 39
 1.737088e+001 3.572007e+001 7.101448e+001 5.959227e+001 8.267619e+001 9.537100e+001 1.072720e+002 8.111741e+001 9.996505e+001 6.100978e+001 5.265865e+001 3.779617e+001 4.587509e+001 2.109664e+000 4.439344e+000 3.754169e+000 4.846294e+000 5.658544e+000 4.457780e+000 6.065555e+000 5.924150e+000 4.904747e+000 4.025402e+000 3.877348e+000 2.996895e+000 5.656203e+000 4.402063e-001 4.503258e-001 4.325815e-001 5.674972e-001 7.317958e-001 9.848855e-001 1.025593e+000 9.177517e-001 7.691345e-001 6.745286e-001 6.232286e-001 5.125380e-001 3.706081e-001
<GCONST> 1.375549e+002
<TRANSP> 5
 0.000000e+000 1.000000e+000 0.000000e+000 0.000000e+000 0.000000e+000
 0.000000e+000 6.051984e-001 3.948016e-001 0.000000e+000 0.000000e+000
 0.000000e+000 0.000000e+000 4.802004e-001 5.197996e-001 0.000000e+000
 0.000000e+000 0.000000e+000 0.000000e+000 3.549451e-001 6.450549e-001
 0.000000e+000 0.000000e+000 0.000000e+000 0.000000e+000 0.000000e+000
<ENDHMM>
~h "s"
<BEGINHMM>
<NUMSTATES> 5
<STATE> 2
<MEAN> 39
 -2.176995e+001 -8.959485e-002 -5.318976e+000 -8.085831e+000 -2.516570e+000 -7.478887e+000 -2.086253e+000 -2.505532e-002 -2.323654e+000 -1.767421e+000 -2.981533e+000 -5.655588e-001 5.806266e+001 -4.610521e+000 1.477018e+000 -9.348158e-001 3.027476e-001 1.884505e+000 9.941289e-001 1.457751e+000 8.511473e-001 4.860752e-001 2.848881e-001 8.164367e-001 6.974875e-001 4.652621e-002 4.897447e-001 -5.056663e-001 -7.880331e-002 -1.600838e-001 -3.621942e-001 7.567893e-002 -3.422278e-001 2.387976e-002 -8.091198e-002 8.624576e-002 1.792154e-002 -8.265948e-002 -8.009173e-003
<VARIANCE> 39
 7.187975e+001 2.874205e+001 4.482434e+001 3.289087e+001 4.453380e+001 4.122041e+001 4.114380e+001 3.980951e+001 3.282658e+001 3.034792e+001 2.618994e+001 2.075597e+001 2.300631e+001 4.235623e+000 4.098433e+000 4.594632e+000 4.971904e+000 4.401378e+000 4.865308e+000 4.868897e+000 4.320713e+000 4.229488e+000 3.977363e+000 3.897738e+000 2.840774e+000 2.048414e+000 1.254947e+000 5.847403e-001 6.320921e-001 6.653466e-001 7.265687e-001 7.835918e-001 7.909110e-001 7.604391e-001 6.210386e-001 6.549358e-001 5.974929e-001 4.836915e-001 4.093948e-001
<GCONST> 1.306169e+002
<STATE> 3
<MEAN> 39
 -3.018631e+001 1.472370e+000 -9.363514e+000 -7.783834e+000 -6.458801e-002 -5.127272e+000 -1.846192e-001 1.566487e+000 -1.580010e+000 -2.867378e-001 -1.162039e+000 7.744935e-001 5.817258e+001 -1.182434e-001 -7.350630e-002 -3.480522e-002 -1.144553e-001 3.352392e-002 1.594226e-002 -5.909618e-002 5.111694e-002 5.511198e-002 6.091320e-002 2.973526e-003 -3.206283e-003 -1.549162e-002 6.569172e-001 -2.298990e-001 2.705368e-001 -3.099624e-002 -2.078562e-001 -1.554157e-001 -2.073445e-001 -1.275526e-001 -3.818969e-002 -6.867752e-002 -1.126063e-001 -1.081542e-001 -1.549328e-001
<VARIANCE> 39
 8.417486e+000 2.090626e+001 3.028681e+001 3.781386e+001 3.474858e+001 3.170460e+001 2.850575e+001 2.525918e+001 1.953055e+001 1.700042e+001 1.617060e+001 1.331466e+001 1.678368e+001 1.179163e+000 1.311981e+000 1.275855e+000 1.338714e+000 1.507248e+000 1.699670e+000 1.598204e+000 1.621786e+000 1.537659e+000 1.500006e+000 1.349939e+000 1.233754e+000 7.037582e-001 4.003929e-001 2.439401e-001 2.815461e-001 3.224338e-001 3.514991e-001 3.963779e-001 3.887072e-001 3.722414e-001 3.566002e-001 3.408557e-001 3.166662e-001 2.760536e-001 1.920145e-001
<GCONST> 1.005076e+002
<STATE> 4
<MEAN> 39
 -2.552841e+001 -1.833856e+000 -5.928345e+000 -9.055207e+000 -9.888425e-001 -5.927450e+000 -2.406400e+000 1.396959e+000 -1.083724e+000 -6.349801e-001 -1.894471e+000 -1.698140e-001 5.579201e+001 3.288553e+000 -1.177006e+000 1.043484e+000 1.168736e-001 -1.147417e+000 -2.170862e-001 -1.274670e+000 -7.405799e-001 -1.769502e-001 -1.026644e-001 -3.275621e-001 -5.564064e-001 -1.313540e+000 6.854976e-001 -1.811488e-001 -2.222271e-002 8.911973e-002 -3.572629e-001 6.396889e-002 -2.210445e-001 -1.761488e-001 -1.535059e-001 2.921968e-002 2.062218e-003 -9.545740e-002 -2.110745e-001
<VARIANCE> 39
 3.885717e+001 2.866623e+001 3.814079e+001 3.322139e+001 4.008813e+001 4.115165e+001 3.991528e+001 3.363030e+001 2.844418e+001 2.369530e+001 2.175416e+001 1.859331e+001 4.212414e+001 5.664111e+000 2.765335e+000 3.726733e+000 4.574481e+000 4.683045e+000 5.461804e+000 4.881122e+000 3.877796e+000 3.688895e+000 2.933295e+000 3.123396e+000 2.387205e+000 6.162516e+000 7.173409e-001 5.407111e-001 6.032444e-001 6.846816e-001 7.022237e-001 8.123273e-001 9.287617e-001 6.979428e-001 6.448343e-001 5.685598e-001 5.723751e-001 4.409842e-001 1.013857e+000
<GCONST> 1.294904e+002
<TRANSP> 5
 0.000000e+000 1.000000e+000 0.000000e+000 0.000000e+000 0.000000e+000
 0.000000e+000 6.428760e-001 3.571239e-001 0.000000e+000 0.000000e+000
 0.000000e+000 0.000000e+000 8.295796e-001 1.704204e-001 0.000000e+000
 0.000000e+000 0.000000e+000 0.000000e+000 6.565309e-001 3.434692e-001
 0.000000e+000 0.000000e+000 0.000000e+000 0.000000e+000 0.000000e+000
<ENDHMM>
~h "t"
<BEGINHMM>
<NUMSTATES> 5
<STATE> 2
<MEAN> 39
 -1.134562e+001 -3.501214e+000 -2.603102e+000 -5.239063e+000 -8.627715e+000 -7.490564e+000 -6.770621e+000 -3.627165e+000 -3.760645e+000 -1.927236e+000 -3.856862e+000 -2.652045e+000 4.680196e+001 -1.698642e+000 8.644781e-001 -7.191662e-002 1.473060e+000 1.514450e+000 1.045045e+000 8.552676e-001 -2.632704e-003 3.599910e-001 5.882765e-002 3.003305e-001 3.109393e-001 -3.068185e+000 -4.129842e-002 -5.717348e-001 -2.271667e-001 -5.438576e-001 -4.821685e-002 2.165550e-001 1.394588e-001 3.834414e-001 5.822702e-002 1.255602e-001 2.123878e-001 9.992254e-002 8.018198e-001
<VARIANCE> 39
 6.491020e+001 5.257971e+001 6.005503e+001 6.039154e+001 6.735231e+001 5.281320e+001 5.433660e+001 5.861285e+001 6.609125e+001 4.995847e+001 4.474326e+001 3.783408e+001 8.580034e+001 5.652053e+000 5.857605e+000 5.405522e+000 6.894404e+000 6.956872e+000 6.839772e+000 6.275472e+000 7.053601e+000 6.427114e+000 5.059207e+000 5.251107e+000 3.855993e+000 1.022838e+001 6.047315e-001 8.958251e-001 7.254398e-001 1.159097e+000 1.196346e+000 9.998762e-001 9.902613e-001 1.100892e+000 1.052384e+000 9.669594e-001 8.715730e-001 6.691183e-001 1.706953e+000
<GCONST> 1.473175e+002
<STATE> 3
<MEAN> 39
 -1.782074e+001 -3.975488e+000 -4.463496e+000 -3.243323e+000 -3.396329e+000 -1.902969e+000 -2.606249e+000 -7.471920e-001 -1.403042e+000 -1.364139e-001 -1.155526e+000 -7.459822e-001 3.926599e+001 -4.594601e-001 -1.011028e+000 -3.702247e-001 -8.305430e-001 -2.897595e-002 1.783379e-001 3.576811e-001 4.798253e-001 2.627200e-001 2.233595e-001 4.146014e-001 4.205560e-001 1.317913e+000 3.793244e-001 -1.876604e-001 4.688300e-002 -6.540071e-001 -5.429051e-001 -5.366091e-001 -2.443023e-001 -1.454458e-002 -2.048533e-001 -1.142967e-001 -1.257288e-001 -4.187726e-002 1.578852e+000
<VARIANCE> 39
 4.476770e+001 3.276278e+001 2.786643e+001 3.319934e+001 3.641442e+001 3.318828e+001 3.128445e+001 2.811739e+001 2.865686e+001 2.523966e+001 2.223951e+001 1.884008e+001 1.012937e+002 3.955825e+000 3.868981e+000 3.446785e+000 5.480913e+000 4.084158e+000 4.294750e+000 3.890062e+000 4.331940e+000 3.958342e+000 3.364850e+000 3.061280e+000 2.505033e+000 1.353949e+001 6.319387e-001 7.119538e-001 6.736943e-001 8.750194e-001 8.724969e-001 8.222600e-001 7.332942e-001 8.062950e-001 7.186234e-001 6.360859e-001 6.162806e-001 4.705670e-001 2.020141e+000
<GCONST> 1.319998e+002
<STATE> 4
<MEAN> 39
 -1.786391e+001 -7.689641e+000 -4.492176e+000 -9.521338e+000 -6.742742e+000 -6.108003e+000 -2.318140e+000 1.020012e-001 -2.020520e+000 -9.608809e-001 -1.539393e+000 1.494245e-001 5.560601e+001 1.290550e+000 -3.111037e-001 2.545236e-001 -4.581809e-001 -9.133182e-001 -9.987137e-001 -5.043426e-001 1.311910e-001 -3.528248e-001 -3.687712e-001 -3.992503e-001 -1.551813e-001 1.826341e+000 6.223986e-001 9.585815e-002 8.346333e-002 2.554468e-001 -1.164466e-001 1.872522e-002 -3.238770e-001 -9.837784e-002 -1.408891e-001 -4.029820e-002 -9.660713e-002 -2.057328e-001 -5.809372e-001
<VARIANCE> 39
 6.135627e+001 3.940856e+001 4.210152e+001 4.244587e+001 4.405545e+001 3.962913e+001 4.683128e+001 3.885074e+001 3.536295e+001 3.029103e+001 2.840516e+001 2.326455e+001 6.490861e+001 6.745989e+000 3.101259e+000 3.737001e+000 5.151467e+000 4.503494e+000 4.660879e+000 5.039917e+000 4.293755e+000 3.948214e+000 3.414039e+000 3.410265e+000 2.716223e+000 1.107686e+001 7.797495e-001 7.555242e-001 7.272832e-001 1.025036e+000 8.240482e-001 8.464034e-001 8.868781e-001 8.266566e-001 7.384951e-001 6.673950e-001 6.834893e-001 5.348955e-001 1.704764e+000
<GCONST> 1.362456e+002
<TRANSP> 5
 0.000000e+000 1.000000e+000 0.000000e+000 0.000000e+000 0.000000e+000
 0.000000e+000 4.345960e-001 5.654040e-001 0.000000e+000 0.000000e+000
 0.000000e+000 0.000000e+000 5.510460e-001 4.489540e-001 0.000000e+000
 0.000000e+000 0.000000e+000 0.000000e+000 6.194223e-001 3.805777e-001
 0.000000e+000 0.000000e+000 0.000000e+000 0.000000e+000 0.000000e+000
<ENDHMM>
~h "v"
<BEGINHMM>
<NUMSTATES> 5
<STATE> 2
<MEAN> 39
 -3.275636e+000 -5.859627e+000 -7.996047e+000 -8.440997e+000 -6.999266e+000 -7.290503e+000 -1.132299e+001 -5.701554e+000 -3.693345e+000 -5.002644e-001 -1.069114e+000 -3.146233e+000 5.475336e+001 -1.864196e+000 2.321504e+000 2.840459e-004 1.430088e+000 1.556445e+000 7.842773e-001 9.212298e-001 -1.169436e+000 -7.256989e-001 -5.591343e-001 -1.695273e-001 2.638380e-001 -2.258147e+000 -5.900362e-001 -1.931033e-001 3.569296e-001 -4.472032e-002 -1.725850e-001 9.766494e-002 3.583467e-001 4.734111e-001 8.314079e-002 -1.355336e-001 -2.522936e-001 -2.628214e-003 2.244357e-001
<VARIANCE> 39
 2.706234e+001 2.157620e+001 3.565860e+001 3.776966e+001 2.512369e+001 4.430252e+001 3.977696e+001 3.505434e+001 3.517189e+001 3.565880e+001 3.912019e+001 2.956487e+001 2.604077e+001 2.936085e+000 2.607703e+000 3.500405e+000 4.031577e+000 3.480146e+000 4.198987e+000 5.061340e+000 5.141984e+000 4.189447e+000 3.742790e+000 3.578191e+000 2.805839e+000 2.312415e+000 3.958612e-001 3.337918e-001 3.404502e-001 4.159790e-001 4.596991e-001 4.512291e-001 5.485396e-001 5.237224e-001 5.124185e-001 4.943579e-001 4.598634e-001 4.290302e-001 2.678695e-001
<GCONST> 1.223632e+002
<STATE> 3
<MEAN> 39
 -8.894370e+000 -1.283930e+000 -5.895504e+000 -5.517962e+000 -4.737989e+000 -5.470645e+000 -8.422208e+000 -6.888993e+000 -6.089453e+000 -2.853450e+000 -3.048431e+000 -2.980925e+000 5.027810e+001 -2.377291e+000 8.883689e-001 5.726855e-001 1.100758e+000 8.795559e-001 6.540269e-001 1.145548e+000 2.407486e-001 -1.027599e-001 -5.066486e-001 -4.473780e-001 9.778990e-002 -1.064186e+000 3.548384e-001 -9.093196e-001 -8.138198e-002 -5.559753e-001 -5.166875e-001 -2.506238e-001 -1.329695e-001 5.739614e-001 3.768692e-001 2.700173e-001 9.238030e-002 1.645610e-002 8.733181e-001
<VARIANCE> 39
 3.263877e+001 1.923277e+001 2.717895e+001 2.888500e+001 2.081326e+001 3.182382e+001 2.841594e+001 2.592228e+001 2.634986e+001 2.682969e+001 2.877493e+001 2.194383e+001 3.485094e+001 4.018805e+000 2.207337e+000 2.418425e+000 3.057705e+000 2.423888e+000 3.398408e+000 3.282689e+000 3.069009e+000 2.692024e+000 2.753155e+000 2.617470e+000 1.991944e+000 2.241076e+000 5.042650e-001 4.141019e-001 5.659826e-001 5.604933e-001 5.522075e-001 6.074474e-001 7.763608e-001 7.030221e-001 6.376144e-001 5.876021e-001 5.205322e-001 4.347079e-001 4.554393e-001
<GCONST> 1.198401e+002
<STATE> 4
<MEAN> 39
 -1.405246e+001 -3.672811e+000 -6.425606e+000 -5.290879e+000 -4.353304e+000 -4.597782e+000 -5.235599e+000 -3.269753e+000 -3.612671e+000 -2.158671e+000 -2.936435e+000 -1.989707e+000 5.067147e+001 6.029109e-001 -9.286515e-001 -3.953994e-001 -8.595775e-001 -6.001350e-001 -4.653064e-001 -1.044307e-001 5.776224e-001 4.362973e-001 3.415878e-001 2.285139e-001 1.229932e-001 1.114050e+000 9.618309e-001 -3.869348e-001 -9.227480e-002 -5.039955e-001 -4.117399e-001 -2.632137e-001 -4.068344e-001 6.835534e-002 -1.043623e-002 1.043582e-001 9.412904e-002 -5.277380e-002 4.606924e-001
<VARIANCE> 39
 5.546682e+001 2.385517e+001 2.873783e+001 2.829502e+001 2.199536e+001 2.865936e+001 3.199689e+001 2.849557e+001 2.643151e+001 2.360028e+001 2.234858e+001 1.857681e+001 4.674296e+001 7.691285e+000 2.822517e+000 2.917761e+000 3.799109e+000 3.323527e+000 3.850280e+000 4.185481e+000 3.411836e+000 3.197923e+000 2.560852e+000 2.522944e+000 2.007859e+000 4.659253e+000 8.767737e-001 6.661298e-001 6.259156e-001 7.620917e-001 6.390199e-001 7.702961e-001 8.111296e-001 7.758051e-001 7.139431e-001 6.056396e-001 5.780923e-001 4.364247e-001 7.150857e-001
<GCONST> 1.260914e+002
<TRANSP> 5
 0.000000e+000 1.000000e+000 0.000000e+000 0.000000e+000 0.000000e+000
 0.000000e+000 3.572873e-001 6.427127e-001 0.000000e+000 0.000000e+000
 0.000000e+000 0.000000e+000 4.126213e-001 5.873788e-001 0.000000e+000
 0.000000e+000 0.000000e+000 0.000000e+000 6.145848e-001 3.854152e-001
 0.000000e+000 0.000000e+000 0.000000e+000 0.000000e+000 0.000000e+000
<ENDHMM>
~h "w"
<BEGINHMM>
<NUMSTATES> 5
<STATE> 2
<MEAN> 39
 -7.171292e+000 -5.629195e+000 -9.690675e+000 -9.725338e+000 -4.955691e+000 -2.192958e+000 -7.296766e+000 -4.892775e+000 -6.957878e+000 -6.207815e-001 -4.472983e-001 -1.849548e+000 4.936806e+001 2.584929e+000 1.932966e+000 -5.921226e-001 -2.028441e+000 -1.178284e+000 1.073413e+000 7.899646e-001 -6.550193e-001 -1.529659e+000 -8.441349e-001 1.081302e-001 2.824410e-001 -7.261422e-001 1.502065e-002 6.055909e-002 4.436861e-001 -3.967247e-001 -7.865791e-001 -2.632667e-001 1.521259e-001 4.495261e-001 6.148083e-002 -2.151551e-001 -1.546895e-001 -1.275155e-002 5.283134e-001
<VARIANCE> 39
 6.026266e+001 4.624051e+001 2.979833e+001 4.891932e+001 3.893477e+001 3.843130e+001 5.387424e+001 4.091088e+001 6.253162e+001 3.676812e+001 3.875425e+001 2.602507e+001 4.761352e+001 5.080177e+000 3.395213e+000 4.574009e+000 4.807184e+000 5.676984e+000 5.025054e+000 5.927605e+000 4.869096e+000 4.475293e+000 4.038494e+000 3.391393e+000 2.749508e+000 4.837079e+000 4.918953e-001 8.644536e-001 6.287403e-001 7.962021e-001 8.621939e-001 7.740240e-001 1.115237e+000 8.458126e-001 8.787949e-001 8.668513e-001 6.150552e-001 5.275280e-001 5.750106e-001
<GCONST> 1.358170e+002
<STATE> 3
<MEAN> 39
 2.205416e+000 1.571371e+000 -8.813545e+000 -1.988452e+001 -1.626813e+001 -2.166373e+000 -4.524216e+000 -2.725806e+000 -9.124535e+000 -4.911056e+000 -1.957878e+000 -2.320594e+000 5.129549e+001 7.761646e-001 -2.719945e-001 -2.086135e-001 -1.657623e+000 -1.139789e+000 5.208302e-001 1.783445e-001 2.683478e-001 2.059624e-001 7.296623e-002 2.585287e-001 1.051091e-001 1.044991e+000 -4.004910e-001 -6.958438e-001 -9.079761e-002 2.975099e-001 5.357404e-001 1.025773e-001 -2.602431e-001 -6.885269e-002 2.105080e-001 3.849154e-001 2.260909e-001 1.765296e-002 3.168895e-001
<VARIANCE> 39
 7.468637e+000 2.255761e+001 2.688495e+001 4.563607e+001 4.638476e+001 4.104281e+001 3.632860e+001 4.209588e+001 5.132407e+001 3.669091e+001 3.691634e+001 2.665271e+001 1.814626e+001 2.026046e+000 2.818924e+000 2.027099e+000 3.595759e+000 4.249407e+000 3.591584e+000 3.778342e+000 3.459194e+000 4.023932e+000 3.570962e+000 3.313831e+000 2.427654e+000 2.583882e+000 3.702136e-001 3.199986e-001 3.275867e-001 5.347351e-001 5.768870e-001 6.277259e-001 6.401396e-001 6.025626e-001 7.596911e-001 5.881858e-001 4.991507e-001 4.586051e-001 1.811141e-001
<GCONST> 1.210229e+002
<STATE> 4
<MEAN> 39
 1.809662e+000 -6.811331e+000 -1.116105e+001 -2.117183e+001 -1.202129e+001 1.513541e+000 -8.700014e+000 -5.018812e+000 -8.692889e+000 7.725807e-001 2.207457e+000 -1.798025e+000 5.836530e+001 -3.788790e-001 -2.229029e+000 -1.570697e-002 7.177413e-001 1.006276e+000 -6.283963e-001 -1.493356e+000 3.123108e-001 1.411465e+000 1.377591e+000 4.722895e-002 -7.575557e-001 1.794772e+000 -4.417319e-001 8.601844e-002 3.384682e-001 6.586381e-001 4.993976e-002 -6.335205e-001 2.036110e-001 4.837748e-001 4.469570e-001 -3.254208e-001 -5.748498e-001 -1.868877e-001 -3.017400e-001
<VARIANCE> 39
 8.382354e+000 3.145570e+001 4.194975e+001 7.325193e+001 6.526399e+001 7.119936e+001 8.188605e+001 6.198558e+001 6.812971e+001 8.210738e+001 7.581760e+001 4.113992e+001 1.947122e+001 8.045167e-001 1.622939e+000 2.609535e+000 4.407262e+000 3.861073e+000 6.444511e+000 5.408306e+000 5.018176e+000 4.436170e+000 4.455847e+000 4.913159e+000 3.344312e+000 1.134681e+000 3.194222e-001 3.370012e-001 3.946168e-001 6.032425e-001 8.814467e-001 7.490905e-001 1.010150e+000 8.352121e-001 9.375220e-001 1.093165e+000 7.389498e-001 7.193854e-001 1.750571e-001
<GCONST> 1.304368e+002
<TRANSP> 5
 0.000000e+000 1.000000e+000 0.000000e+000 0.000000e+000 0.000000e+000
 0.000000e+000 6.147384e-001 3.852616e-001 0.000000e+000 0.000000e+000
 0.000000e+000 0.000000e+000 7.482316e-001 2.517684e-001 0.000000e+000
 0.000000e+000 0.000000e+000 0.000000e+000 5.568335e-001 4.431665e-001
 0.000000e+000 0.000000e+000 0.000000e+000 0.000000e+000 0.000000e+000
<ENDHMM>
~h "y"
<BEGINHMM>
<NUMSTATES> 5
<STATE> 2
<MEAN> 39
 -1.135416e+001 -2.679185e+000 1.161433e+001 -1.163838e+001 -1.482942e+001 -7.189337e+000 -9.707509e+000 -5.283140e+000 -1.154610e+001 -4.019816e+000 -3.495453e+000 -2.650239e+000 5.534273e+001 5.741907e-001 7.426062e-002 1.619417e+000 -1.552900e-001 -1.322416e+000 -2.688296e-001 -3.821842e-001 -2.196618e-001 -1.241523e+000 -3.628823e-001 3.381701e-001 -1.398984e-001 4.167623e-001 2.458707e-001 -3.202243e-001 -7.429530e-001 5.135080e-002 2.833110e-001 -1.274570e-001 -5.516768e-002 3.056142e-001 3.456118e-001 1.620230e-001 1.071740e-001 2.729541e-002 3.085559e-002
<VARIANCE> 39
 2.600790e+001 4.158009e+001 3.649166e+001 7.288011e+001 4.785106e+001 4.947467e+001 4.272309e+001 5.740500e+001 4.209227e+001 4.803742e+001 5.233698e+001 2.890841e+001 3.021954e+001 5.114448e+000 3.593515e+000 4.479880e+000 3.559351e+000 5.832001e+000 6.997902e+000 4.340788e+000 4.443483e+000 4.694517e+000 4.300354e+000 2.881221e+000 2.208995e+000 3.063682e+000 4.987803e-001 3.571098e-001 5.035406e-001 7.201360e-001 9.783384e-001 9.343755e-001 7.791291e-001 8.679888e-001 7.372035e-001 6.955267e-001 4.906377e-001 4.296906e-001 3.341605e-001
<GCONST> 1.322485e+002
<STATE> 3
<MEAN> 39
 -8.683895e+000 -5.605834e+000 1.324454e+001 -1.140511e+001 -1.968532e+001 -8.399957e+000 -9.702590e+000 -4.828916e+000 -1.288694e+001 -3.172361e+000 -9.879300e-001 -2.357650e+000 5.798306e+001 6.826135e-001 -8.339325e-001 -6.023852e-001 5.075713e-001 -5.223139e-001 -1.075278e+000 2.005955e-001 6.715551e-001 -1.410097e-001 4.222789e-002 5.565484e-001 1.781125e-001 4.594639e-001 5.885228e-002 -7.345778e-002 -3.676382e-001 1.011162e-001 2.706982e-001 -1.513088e-001 -6.624209e-002 2.334464e-001 2.030083e-001 -6.227528e-002 -4.747231e-003 7.532217e-002 -6.252664e-002
<VARIANCE> 39
 1.187386e+001 3.388497e+001 3.821435e+001 8.067847e+001 3.532495e+001 4.834866e+001 4.874102e+001 5.710784e+001 4.379423e+001 6.683678e+001 5.404475e+001 2.971475e+001 1.886930e+001 1.441149e+000 1.005871e+000 1.394075e+000 1.302318e+000 1.463703e+000 2.705438e+000 2.470270e+000 2.519490e+000 1.719839e+000 1.807569e+000 1.383360e+000 1.181426e+000 5.015948e-001 1.141791e-001 1.291828e-001 2.339707e-001 1.967909e-001 3.764483e-001 3.060791e-001 3.563949e-001 2.820783e-001 3.525651e-001 2.962796e-001 2.329741e-001 2.026687e-001 8.726949e-002
<GCONST> 1.049876e+002
<STATE> 4
<MEAN> 39
 -3.377213e+000 -1.252906e+001 3.269823e+000 -5.032785e+000 -1.742495e+001 -1.800950e+001 -1.008912e+001 5.510631e+000 -9.637728e+000 -6.165687e+000 2.742471e+000 7.132308e-001 5.966338e+001 1.057860e+000 -6.465424e-001 -2.239423e+000 5.915406e-001 1.352781e+000 -1.094032e+000 -1.255587e+000 1.514048e+000 1.436239e+000 -5.321561e-001 -3.439937e-001 5.452402e-001 -3.493589e-003 -1.431201e-001 2.305651e-001 -1.274418e-001 -2.043118e-001 3.647910e-001 5.093923e-001 -1.638716e-001 -3.609200e-001 3.436494e-001 1.697944e-001 -3.232380e-001 -1.444903e-001 -1.762264e-001
<VARIANCE> 39
 1.452756e+001 2.661570e+001 6.472411e+001 5.129408e+001 4.601183e+001 6.091279e+001 7.745923e+001 6.218420e+001 6.937686e+001 6.067584e+001 3.816616e+001 3.278337e+001 1.823240e+001 1.265457e+000 1.248233e+000 1.834684e+000 1.471605e+000 1.987698e+000 2.707808e+000 3.212362e+000 2.960629e+000 2.885830e+000 2.383070e+000 2.005238e+000 1.587573e+000 5.532590e-001 1.582971e-001 1.412390e-001 2.945809e-001 2.505465e-001 4.013210e-001 4.288669e-001 4.202112e-001 3.874252e-001 4.512996e-001 4.118468e-001 2.953177e-001 2.621951e-001 7.470507e-002
<GCONST> 1.116040e+002
<TRANSP> 5
 0.000000e+000 1.000000e+000 0.000000e+000 0.000000e+000 0.000000e+000
 0.000000e+000 6.788379e-001 3.211621e-001 0.000000e+000 0.000000e+000
 0.000000e+000 0.000000e+000 7.880481e-001 2.119519e-001 0.000000e+000
 0.000000e+000 0.000000e+000 0.000000e+000 6.659724e-001 3.340276e-001
 0.000000e+000 0.000000e+000 0.000000e+000 0.000000e+000 0.000000e+000
<ENDHMM>
~h "z"
<BEGINHMM>
<NUMSTATES> 5
<STATE> 2
<MEAN> 39
 -1.657955e+001 2.977341e+000 -2.718391e+000 -8.428122e+000 -4.097883e+000 -1.126229e+001 -7.913709e+000 -4.142745e+000 -3.775577e+000 -2.702868e+000 -4.435560e+000 -1.152542e+000 5.668161e+001 -4.491085e+000 1.877357e+000 -7.424542e-001 3.655365e-001 2.414307e+000 1.181782e+000 1.599730e+000 8.694217e-001 5.495674e-001 5.518475e-002 5.020398e-001 3.216802e-001 -2.533830e-001 4.710184e-002 -7.077184e-001 -1.346103e-001 -9.846417e-002 -2.488100e-001 3.981109e-001 1.903210e-001 3.985638e-001 3.816153e-002 1.929658e-001 1.633205e-001 1.487560e-003 5.854601e-002
<VARIANCE> 39
 5.409526e+001 3.529415e+001 4.472803e+001 4.090903e+001 5.423428e+001 5.185146e+001 4.747910e+001 3.807736e+001 3.477779e+001 3.627399e+001 2.591143e+001 2.422575e+001 2.493166e+001 3.156045e+000 4.724553e+000 3.667727e+000 5.419281e+000 3.784275e+000 5.689800e+000 4.613145e+000 4.780255e+000 3.949541e+000 3.760725e+000 3.481601e+000 3.157077e+000 1.526532e+000 1.074383e+000 7.072217e-001 5.186126e-001 6.447103e-001 7.861530e-001 8.201444e-001 7.490991e-001 7.099483e-001 5.812407e-001 6.333487e-001 5.115156e-001 4.923486e-001 1.932816e-001
<GCONST> 1.298940e+002
<STATE> 3
<MEAN> 39
 -2.874473e+001 1.754230e+000 -7.550812e+000 -8.638098e+000 5.038309e-001 -5.498432e+000 -1.386290e+000 1.164844e+000 -1.489109e+000 -7.296761e-001 -1.712792e+000 1.154413e-001 5.575411e+001 -3.021977e-001 -6.343539e-001 -3.099800e-001 -2.268490e-001 -4.105856e-002 1.604003e-001 1.919813e-001 3.513085e-001 2.510468e-001 1.906808e-001 1.546943e-001 5.056231e-002 8.409502e-002 1.060083e+000 -2.635936e-001 2.495691e-001 -4.269252e-002 -4.222739e-001 -3.328796e-001 -4.433750e-001 -3.078500e-001 -1.142716e-001 -7.434897e-002 -1.502893e-001 -1.134028e-001 -1.157926e-001
<VARIANCE> 39
 1.419162e+001 2.694590e+001 4.403596e+001 4.239810e+001 3.834270e+001 3.491086e+001 3.769403e+001 2.909496e+001 2.109447e+001 1.973841e+001 1.829647e+001 1.461007e+001 1.659436e+001 3.758848e+000 1.549240e+000 1.867914e+000 1.661723e+000 2.060571e+000 2.837418e+000 2.588835e+000 2.268654e+000 2.046336e+000 1.902515e+000 1.677589e+000 1.467015e+000 8.817150e-001 6.837818e-001 3.780768e-001 3.722563e-001 4.636486e-001 5.204633e-001 6.026579e-001 5.657245e-001 5.074039e-001 4.413771e-001 4.121484e-001 3.902397e-001 3.391814e-001 2.446343e-001
<GCONST> 1.116975e+002
<STATE> 4
<MEAN> 39
 -2.072785e+001 -2.582796e+000 -5.747933e+000 -8.682880e+000 -2.252082e+000 -6.363934e+000 -4.545990e+000 -1.019860e-001 -9.671524e-001 -7.342831e-001 -2.350678e+000 -7.421404e-001 5.119176e+001 2.724985e+000 -1.150035e+000 1.313255e-001 2.250263e-001 -9.437525e-001 -6.160913e-002 -6.723151e-001 -5.755296e-001 -1.301263e-001 6.175377e-002 -2.138370e-001 -3.124446e-001 -1.185215e+000 2.853273e-001 -2.333166e-002 -6.396054e-002 5.308519e-002 -1.366933e-001 9.842277e-002 3.282443e-003 -5.462228e-002 -1.354096e-001 -1.096670e-002 -6.454421e-003 -3.764787e-002 -4.458243e-002
<VARIANCE> 39
 4.589550e+001 3.806167e+001 4.037408e+001 3.727780e+001 4.341884e+001 5.321420e+001 4.966304e+001 3.776044e+001 3.281925e+001 3.202916e+001 2.620710e+001 2.172474e+001 8.257841e+001 6.114107e+000 3.548397e+000 3.496520e+000 4.553001e+000 4.888813e+000 5.508991e+000 5.363850e+000 4.200276e+000 3.662168e+000 3.323393e+000 3.116349e+000 2.518719e+000 6.601444e+000 9.411404e-001 6.029834e-001 5.252790e-001 6.712373e-001 7.330465e-001 8.955820e-001 8.492185e-001 7.778525e-001 6.864573e-001 6.153691e-001 5.525590e-001 4.661985e-001 9.678155e-001
<GCONST> 1.334613e+002
<TRANSP> 5
 0.000000e+000 1.000000e+000 0.000000e+000 0.000000e+000 0.000000e+000
 0.000000e+000 6.737590e-001 3.262410e-001 0.000000e+000 0.000000e+000
 0.000000e+000 0.000000e+000 7.884641e-001 2.115359e-001 0.000000e+000
 0.000000e+000 0.000000e+000 0.000000e+000 6.886351e-001 3.113649e-001
 0.000000e+000 0.000000e+000 0.000000e+000 0.000000e+000 0.000000e+000
<ENDHMM>
~h "aa"
<BEGINHMM>
<NUMSTATES> 5
<STATE> 2
<MEAN> 39
 -1.575988e+000 -1.504640e+001 -1.198226e+001 -1.539708e+001 -8.799354e+000 -3.047531e+000 -8.035930e+000 1.132871e+000 -1.112196e+000 -5.935930e-001 -2.649098e+000 -5.752277e+000 6.441420e+001 1.435199e+000 -1.589633e+000 -1.770458e+000 -1.103156e+000 5.596404e-001 1.226125e+000 1.230549e-001 2.672669e-001 1.759575e-001 -6.379794e-002 7.715261e-002 -8.051253e-001 1.136883e+000 -6.174095e-001 3.435642e-001 2.062311e-001 4.435543e-001 4.169321e-001 1.285406e-001 3.362900e-001 -2.594461e-001 -1.621595e-001 -1.129856e-001 6.539001e-002 2.776377e-001 -5.709952e-001
<VARIANCE> 39
 1.565429e+001 3.381178e+001 4.871129e+001 5.576573e+001 5.858776e+001 9.161788e+001 8.216589e+001 7.771974e+001 6.844083e+001 5.499477e+001 7.367264e+001 4.179172e+001 2.762732e+001 3.209773e+000 2.329558e+000 3.124001e+000 3.790080e+000 4.751362e+000 4.795117e+000 5.815338e+000 5.631667e+000 4.614023e+000 3.916121e+000 4.181858e+000 3.673354e+000 1.809164e+000 4.252959e-001 3.906978e-001 4.329775e-001 5.915947e-001 7.335739e-001 9.299718e-001 1.008562e+000 9.369460e-001 7.587905e-001 6.910990e-001 7.304961e-001 5.793372e-001 4.506136e-001
<GCONST> 1.342090e+002
<STATE> 3
<MEAN> 39
 -2.735518e-002 -1.708015e+001 -1.708612e+001 -1.658710e+001 -4.154536e+000 8.834061e-001 -5.836219e+000 -7.356479e-001 -1.230729e+000 -2.393560e+000 -1.973260e+000 -5.888191e+000 6.510637e+001 8.869961e-002 -6.414527e-002 -3.013212e-001 2.801200e-001 3.493280e-001 -3.426183e-001 -2.426342e-001 2.129839e-001 1.795196e-001 -1.766077e-001 -1.163498e-001 6.190838e-002 -7.637992e-002 -4.566540e-002 1.859085e-001 1.913273e-001 1.164352e-001 -1.613433e-001 -3.057783e-001 -1.592330e-001 1.091039e-001 1.647126e-002 3.895753e-002 -6.215721e-002 5.469602e-002 -1.450042e-001
<VARIANCE> 39
 1.352362e+001 3.279078e+001 3.649205e+001 5.735800e+001 5.682397e+001 8.966462e+001 8.738077e+001 9.462149e+001 7.938853e+001 5.484346e+001 6.650586e+001 4.397208e+001 2.091152e+001 2.749927e-001 6.753310e-001 9.538968e-001 1.328472e+000 1.466364e+000 2.153938e+000 2.317357e+000 2.107964e+000 1.666589e+000 1.533640e+000 1.479851e+000 1.341373e+000 2.355968e-001 5.647397e-002 1.148739e-001 1.427516e-001 1.953824e-001 2.220881e-001 2.556738e-001 3.341097e-001 3.069885e-001 2.924407e-001 2.718560e-001 2.505859e-001 2.394346e-001 5.690070e-002
<GCONST> 1.018673e+002
<STATE> 4
<MEAN> 39
 -8.057599e-001 -1.575705e+001 -1.504732e+001 -1.516668e+001 -5.616984e+000 -3.022303e+000 -7.431373e+000 8.812793e-001 2.984482e-002 -1.601672e+000 -3.822455e+000 -6.174476e+000 6.364552e+001 -3.667800e-001 1.703101e+000 1.154742e+000 1.370124e+000 -4.836817e-001 -1.698810e+000 -7.229795e-001 3.431343e-001 -2.352031e-001 1.897269e-001 -1.735253e-001 5.573487e-001 -2.007116e+000 -4.553334e-001 5.682165e-001 4.544894e-001 5.071412e-001 1.584321e-001 3.063039e-002 7.351867e-002 -3.469050e-001 -2.551201e-001 -4.116163e-002 7.887310e-002 1.929637e-001 -7.642515e-001
<VARIANCE> 39
 1.560330e+001 3.520106e+001 4.534806e+001 5.418915e+001 5.588567e+001 9.562344e+001 9.752281e+001 8.687514e+001 7.367277e+001 5.979607e+001 6.640231e+001 5.040670e+001 2.819283e+001 1.453173e+000 3.370047e+000 2.743966e+000 3.797246e+000 3.643847e+000 3.736297e+000 4.732530e+000 4.742228e+000 4.096080e+000 3.752627e+000 3.432399e+000 3.104806e+000 3.917081e+000 3.835721e-001 3.921087e-001 3.431325e-001 5.314622e-001 6.017259e-001 7.650478e-001 7.399706e-001 7.541637e-001 6.489636e-001 6.566918e-001 5.950133e-001 5.383896e-001 4.471527e-001
<GCONST> 1.316335e+002
<TRANSP> 5
 0.000000e+000 1.000000e+000 0.000000e+000 0.000000e+000 0.000000e+000
 0.000000e+000 6.795310e-001 3.204690e-001 0.000000e+000 0.000000e+000
 0.000000e+000 0.000000e+000 8.581516e-001 1.418484e-001 0.000000e+000
 0.000000e+000 0.000000e+000 0.000000e+000 5.584987e-001 4.415013e-001
 0.000000e+000 0.000000e+000 0.000000e+000 0.000000e+000 0.000000e+000
<ENDHMM>
~h "ae"
<BEGINHMM>
<NUMSTATES> 5
<STATE> 2
<MEAN> 39
 -4.723112e+000 -1.492047e+001 -3.245080e+000 -1.313801e+001 -1.570861e+001 -9.896751e+000 -4.513346e+000 4.770569e+000 -3.483693e+000 -2.641428e+000 -3.927980e+000 -3.583916e+000 6.452681e+001 5.714963e-001 -1.513861e+000 -2.813214e-001 -6.178694e-001 -3.614668e-001 6.141880e-002 1.385930e-001 1.140456e+000 2.307600e-001 -4.855603e-001 -1.991244e-001 -1.874568e-001 1.248940e+000 -4.059518e-001 4.121099e-001 -1.286899e-001 3.016529e-001 5.166319e-001 2.767722e-001 1.246127e-001 -3.067742e-001 3.094861e-002 2.950571e-002 1.419719e-002 1.254752e-001 -5.261725e-001
<VARIANCE> 39
 1.652877e+001 3.320815e+001 5.242979e+001 5.529620e+001 5.220900e+001 6.293497e+001 8.371351e+001 7.026610e+001 7.996798e+001 4.948197e+001 5.599245e+001 3.820046e+001 2.551683e+001 1.994948e+000 2.190875e+000 2.476449e+000 2.587064e+000 3.210386e+000 3.446603e+000 4.877115e+000 3.800401e+000 3.319058e+000 2.770839e+000 2.651191e+000 2.175721e+000 1.852283e+000 3.674735e-001 3.496796e-001 3.500581e-001 4.248271e-001 4.943979e-001 5.403693e-001 6.703410e-001 6.174506e-001 5.901822e-001 5.300804e-001 5.005392e-001 3.890721e-001 3.079521e-001
<GCONST> 1.250328e+002
<STATE> 3
<MEAN> 39
 -4.465716e+000 -1.701626e+001 -6.356734e+000 -1.280148e+001 -1.320759e+001 -7.797062e+000 -1.888097e+000 5.201974e+000 -2.208005e+000 -4.850343e+000 -5.639953e+000 -3.658321e+000 6.558164e+001 4.341649e-002 1.455846e-003 -2.444501e-001 8.353790e-002 2.721885e-001 2.029396e-002 -3.375491e-002 -8.858607e-005 6.071201e-002 -1.137662e-001 -1.196824e-001 1.883614e-002 -8.285020e-002 1.142034e-002 2.077207e-001 2.632228e-002 7.789030e-002 1.259392e-002 -1.007909e-001 -1.520381e-001 -1.194378e-001 -4.027214e-002 1.100289e-001 5.117669e-002 4.967460e-003 -1.850321e-001
<VARIANCE> 39
 1.512630e+001 3.085838e+001 4.923441e+001 4.691560e+001 5.524771e+001 6.584366e+001 7.753050e+001 6.706068e+001 8.794531e+001 4.505954e+001 4.676859e+001 4.186925e+001 2.432449e+001 2.937892e-001 6.329798e-001 1.105979e+000 8.959791e-001 1.309618e+000 1.317238e+000 1.604084e+000 1.446350e+000 1.381541e+000 1.265841e+000 1.216477e+000 1.011962e+000 2.542621e-001 5.578967e-002 1.307171e-001 1.514298e-001 1.632472e-001 2.069568e-001 2.127832e-001 2.544170e-001 2.718926e-001 2.445578e-001 2.180095e-001 2.090418e-001 1.826253e-001 7.252306e-002
<GCONST> 9.723650e+001
<STATE> 4
<MEAN> 39
 -4.278728e+000 -1.466408e+001 -5.680477e+000 -1.246226e+001 -1.311443e+001 -9.789294e+000 -4.816504e+000 4.586109e+000 -2.491421e+000 -3.481645e+000 -5.227781e+000 -3.695734e+000 6.359327e+001 -2.408733e-001 2.068126e+000 4.337220e-001 1.117996e+000 5.224305e-001 -4.444833e-001 -7.458563e-001 -1.047503e+000 -5.499260e-001 4.283435e-001 2.987494e-001 1.074708e-001 -2.207247e+000 -4.417011e-001 6.506535e-001 1.572522e-001 4.757815e-001 3.543938e-001 2.422454e-001 1.922654e-001 -4.599186e-001 -2.070365e-001 1.636875e-002 6.982832e-002 3.354069e-002 -7.804046e-001
<VARIANCE> 39
 1.367314e+001 3.094871e+001 6.266702e+001 4.728328e+001 6.037535e+001 6.588937e+001 8.247923e+001 6.740476e+001 8.095522e+001 5.526108e+001 6.103423e+001 4.444165e+001 3.134383e+001 1.565424e+000 3.084450e+000 3.005394e+000 3.067596e+000 3.702914e+000 3.611541e+000 4.106097e+000 4.399558e+000 4.600635e+000 3.685855e+000 3.440796e+000 2.803915e+000 3.334497e+000 4.141019e-001 3.526658e-001 4.354673e-001 4.762310e-001 6.277032e-001 6.836784e-001 7.473065e-001 7.655047e-001 7.587824e-001 7.410784e-001 7.036694e-001 5.149047e-001 3.858192e-001
<GCONST> 1.305274e+002
<TRANSP> 5
 0.000000e+000 1.000000e+000 0.000000e+000 0.000000e+000 0.000000e+000
 0.000000e+000 5.953252e-001 4.046749e-001 0.000000e+000 0.000000e+000
 0.000000e+000 0.000000e+000 8.445780e-001 1.554220e-001 0.000000e+000
 0.000000e+000 0.000000e+000 0.000000e+000 6.220070e-001 3.779930e-001
 0.000000e+000 0.000000e+000 0.000000e+000 0.000000e+000 0.000000e+000
<ENDHMM>
~h "ah"
<BEGINHMM>
<NUMSTATES> 5
<STATE> 2
<MEAN> 39
 -2.950254e+000 -1.242335e+001 -8.945776e+000 -1.542512e+001 -9.536714e+000 -4.580716e+000 -1.046655e+001 -4.402468e-001 -5.308571e-001 -2.174169e-001 -3.775656e+000 -5.153234e+000 6.342278e+001 1.582291e+000 -1.902110e+000 -6.862862e-001 -1.604287e+000 -3.506059e-001 8.421015e-001 -8.538381e-001 5.425131e-001 9.694155e-001 1.546539e-001 -5.234984e-001 -9.390081e-001 1.631304e+000 -7.836490e-001 4.146844e-001 1.297355e-001 5.161348e-001 4.266042e-001 8.082746e-002 4.857379e-001 -1.270417e-001 -1.859387e-001 -7.874712e-002 5.857962e-002 1.951779e-001 -6.154882e-001
<VARIANCE> 39
 1.591825e+001 3.299904e+001 5.132509e+001 5.172816e+001 5.679715e+001 8.884576e+001 6.657317e+001 6.635789e+001 6.112173e+001 6.414890e+001 7.577321e+001 4.361862e+001 2.767177e+001 4.378992e+000 2.848376e+000 3.124763e+000 4.202239e+000 5.171524e+000 5.477664e+000 5.778227e+000 5.705326e+000 5.352525e+000 4.539192e+000 4.694971e+000 3.700285e+000 2.264645e+000 5.729102e-001 4.875779e-001 5.150347e-001 6.689876e-001 7.156879e-001 9.874181e-001 9.077879e-001 8.860805e-001 7.836576e-001 7.400489e-001 7.979861e-001 6.213878e-001 5.071991e-001
<GCONST> 1.364125e+002
<STATE> 3
<MEAN> 39
 -2.473435e+000 -1.489957e+001 -1.095636e+001 -1.715288e+001 -7.006728e+000 -2.052440e+000 -9.699897e+000 4.870183e-001 1.078816e+000 -1.229225e+000 -5.162673e+000 -6.195024e+000 6.494232e+001 -2.064351e-002 2.154106e-001 7.349094e-002 5.705822e-002 1.224059e-001 -1.372616e-001 -3.668523e-002 -8.715527e-002 -1.742649e-002 -3.264601e-002 -8.320930e-002 -2.106858e-002 -2.185496e-001 -1.407502e-001 4.921575e-001 2.411130e-001 3.411568e-001 -8.085646e-002 -2.836026e-001 5.554314e-002 -2.007987e-001 -3.186172e-001 3.084434e-002 1.200511e-001 1.799296e-001 -4.605584e-001
<VARIANCE> 39
 1.157141e+001 2.794928e+001 3.704754e+001 5.601127e+001 5.647573e+001 8.736061e+001 6.976237e+001 6.012297e+001 6.514145e+001 6.907743e+001 6.854904e+001 4.973354e+001 2.472808e+001 4.380792e-001 1.029072e+000 1.397902e+000 1.594182e+000 1.821678e+000 2.670452e+000 2.117272e+000 2.394589e+000 2.043210e+000 1.944619e+000 2.077180e+000 1.895649e+000 5.921516e-001 1.659814e-001 2.578970e-001 2.189244e-001 3.326122e-001 3.757212e-001 4.160486e-001 5.065483e-001 4.964906e-001 4.558638e-001 4.006819e-001 3.896295e-001 3.857168e-001 1.963567e-001
<GCONST> 1.128991e+002
<STATE> 4
<MEAN> 39
 -2.214740e+000 -1.162529e+001 -8.856606e+000 -1.510588e+001 -8.538594e+000 -5.337841e+000 -1.101875e+001 -1.033777e+000 -9.106016e-001 -1.792007e-002 -3.791381e+000 -5.196486e+000 6.158073e+001 -8.709184e-001 2.609261e+000 1.276629e+000 2.067975e+000 2.359283e-001 -7.136009e-001 5.339455e-001 -1.372034e+000 -1.584813e+000 -3.257663e-001 2.227257e-001 6.351893e-001 -2.913022e+000 -6.547889e-001 4.911185e-001 2.249529e-001 5.744894e-001 2.677200e-001 2.028750e-001 4.686769e-001 -2.450678e-001 -2.707985e-001 -1.645023e-001 -7.997800e-002 9.368464e-002 -6.396310e-001
<VARIANCE> 39
 1.325937e+001 3.190953e+001 4.469425e+001 5.484752e+001 4.857365e+001 8.553173e+001 6.828790e+001 6.844843e+001 6.664652e+001 7.194466e+001 7.729923e+001 4.882161e+001 3.291021e+001 2.343040e+000 2.749567e+000 2.754273e+000 4.047891e+000 4.385068e+000 4.799418e+000 5.277797e+000 5.329467e+000 5.172128e+000 5.112645e+000 4.569529e+000 3.847189e+000 3.844079e+000 4.882410e-001 5.188677e-001 4.493182e-001 6.768228e-001 6.205297e-001 8.930666e-001 7.653493e-001 1.050742e+000 7.866505e-001 8.256083e-001 8.151451e-001 6.262821e-001 6.115821e-001
<GCONST> 1.356946e+002
<TRANSP> 5
 0.000000e+000 1.000000e+000 0.000000e+000 0.000000e+000 0.000000e+000
 0.000000e+000 5.376369e-001 4.623632e-001 0.000000e+000 0.000000e+000
 0.000000e+000 0.000000e+000 7.681368e-001 2.318632e-001 0.000000e+000
 0.000000e+000 0.000000e+000 0.000000e+000 5.231056e-001 4.768944e-001
 0.000000e+000 0.000000e+000 0.000000e+000 0.000000e+000 0.000000e+000
<ENDHMM>
~h "ao"
<BEGINHMM>
<NUMSTATES> 5
<STATE> 2
<MEAN> 39
 -1.653576e-001 -9.168542e+000 -1.372636e+001 -2.032446e+001 -1.037980e+001 1.017414e+000 -4.833544e+000 -2.150726e+000 -4.329354e+000 -9.696041e-001 -4.913181e-001 -3.589257e+000 5.927378e+001 1.203479e+000 -7.429180e-001 -7.765818e-001 -1.754935e+000 -1.390636e-001 1.399687e+000 2.929658e-001 -2.403021e-001 -1.957157e-001 -1.201831e-001 2.777919e-001 -9.327832e-002 1.148405e+000 -5.348895e-001 8.807771e-002 1.359102e-001 4.881001e-001 3.559289e-001 -1.418157e-001 2.989930e-002 4.701353e-002 1.004308e-001 -6.186116e-002 -4.147759e-002 1.697124e-001 -2.754374e-001
<VARIANCE> 39
 1.946458e+001 4.806429e+001 4.110648e+001 7.087375e+001 8.001870e+001 7.706822e+001 8.761404e+001 6.373567e+001 6.980686e+001 6.453374e+001 6.725237e+001 4.363084e+001 3.666365e+001 3.854758e+000 2.767151e+000 2.816739e+000 4.645318e+000 5.179074e+000 4.585333e+000 5.241389e+000 4.586476e+000 4.303440e+000 3.981897e+000 3.755703e+000 3.283508e+000 2.598712e+000 5.752146e-001 4.323566e-001 4.005745e-001 6.607620e-001 6.743507e-001 6.966013e-001 8.963062e-001 7.299360e-001 8.049179e-001 6.632406e-001 6.763962e-001 5.282083e-001 3.893468e-001
<GCONST> 1.349424e+002
<STATE> 3
<MEAN> 39
 8.429868e-001 -1.066352e+001 -1.519191e+001 -2.468149e+001 -9.123356e+000 6.120800e+000 -2.079358e+000 -3.482725e+000 -3.724224e+000 -2.444307e+000 -8.901516e-002 -2.918237e+000 6.172663e+001 -4.441716e-002 -3.348997e-001 -1.868515e-001 2.619234e-001 5.087466e-001 -4.068587e-002 -1.756728e-001 -9.374276e-002 1.515360e-001 8.331621e-002 4.085341e-002 -1.170863e-001 2.324621e-001 -3.426015e-002 5.948712e-002 6.511389e-002 2.606615e-001 -1.259261e-002 -2.876181e-001 -1.769030e-001 5.118179e-002 2.901432e-002 6.466790e-002 -4.287504e-002 -5.749008e-002 -9.605415e-002
<VARIANCE> 39
 1.089904e+001 4.384426e+001 3.755720e+001 6.741040e+001 8.963434e+001 6.955399e+001 7.800806e+001 5.927425e+001 6.115067e+001 5.978505e+001 5.902439e+001 4.359517e+001 2.230167e+001 2.481296e-001 1.088985e+000 8.441116e-001 1.704604e+000 1.642661e+000 1.733719e+000 1.738485e+000 1.500458e+000 1.492021e+000 1.583207e+000 1.507451e+000 1.500355e+000 3.762928e-001 5.576545e-002 1.093324e-001 1.248124e-001 1.907869e-001 2.416694e-001 2.421669e-001 2.739592e-001 2.615845e-001 2.604032e-001 2.541367e-001 2.452741e-001 2.297976e-001 4.764270e-002
<GCONST> 1.008337e+002
<STATE> 4
<MEAN> 39
 1.187990e-001 -1.391971e+001 -1.554746e+001 -1.725893e+001 -6.819619e+000 -2.088555e-001 -6.059795e+000 -1.448164e+000 -2.720578e+000 -3.848988e-001 -9.888093e-001 -5.652549e+000 6.269506e+001 -3.394367e-001 3.447445e-001 6.324224e-001 2.067451e+000 6.022592e-002 -1.925537e+000 -9.048395e-001 6.188862e-001 5.214198e-001 8.952362e-003 -6.739111e-001 1.215662e-001 -7.067567e-001 -3.076516e-001 4.013628e-001 4.231347e-001 2.695412e-001 -8.939083e-002 -1.363161e-001 8.670648e-002 -4.383631e-002 -1.512485e-002 -1.289546e-001 -1.258034e-001 2.899524e-001 -4.022346e-001
<VARIANCE> 39
 1.327939e+001 3.884401e+001 3.786612e+001 6.434708e+001 5.792949e+001 8.100144e+001 8.233962e+001 7.034650e+001 7.395393e+001 6.464899e+001 8.674355e+001 5.461122e+001 2.217588e+001 8.996667e-001 2.635240e+000 2.754419e+000 3.266003e+000 4.278930e+000 3.203472e+000 4.588763e+000 4.013309e+000 4.158999e+000 3.980574e+000 3.451345e+000 3.608087e+000 1.529281e+000 3.862329e-001 2.734263e-001 3.217387e-001 4.737538e-001 5.562191e-001 6.636840e-001 8.082929e-001 7.196554e-001 6.903727e-001 6.533592e-001 7.198421e-001 6.255948e-001 1.847821e-001
<GCONST> 1.282686e+002
<TRANSP> 5
 0.000000e+000 1.000000e+000 0.000000e+000 0.000000e+000 0.000000e+000
 0.000000e+000 6.380742e-001 3.619258e-001 0.000000e+000 0.000000e+000
 0.000000e+000 0.000000e+000 8.568229e-001 1.431771e-001 0.000000e+000
 0.000000e+000 0.000000e+000 0.000000e+000 6.389325e-001 3.610676e-001
 0.000000e+000 0.000000e+000 0.000000e+000 0.000000e+000 0.000000e+000
<ENDHMM>
~h "aw"
<BEGINHMM>
<NUMSTATES> 5
<STATE> 2
<MEAN> 39
 -4.099319e+000 -1.678015e+001 -9.371419e+000 -1.340767e+001 -9.436050e+000 -5.399463e+000 -3.607567e+000 2.138030e+000 -2.049346e+000 -3.291410e+000 -6.367309e+000 -4.501495e+000 6.539915e+001 6.657404e-001 -1.579798e+000 -9.079141e-001 -5.628907e-001 5.168692e-001 7.125153e-001 -6.890996e-003 2.892462e-001 4.987146e-001 -5.020815e-001 -5.162521e-001 -3.515098e-001 1.277930e+000 -3.634924e-001 4.061396e-001 2.972487e-002 2.431876e-001 3.660941e-001 2.173344e-001 4.161466e-002 -3.311522e-001 -8.900092e-002 7.225499e-002 1.695972e-001 1.074251e-001 -5.295038e-001
<VARIANCE> 39
 1.623038e+001 3.450970e+001 5.633797e+001 4.861612e+001 6.588506e+001 6.686540e+001 7.795828e+001 7.177491e+001 7.585803e+001 5.212614e+001 4.961909e+001 4.287919e+001 2.506756e+001 2.053407e+000 2.398988e+000 2.304626e+000 2.692932e+000 3.503045e+000 3.211388e+000 4.263402e+000 4.488398e+000 3.372915e+000 2.754329e+000 2.671617e+000 2.563939e+000 2.074335e+000 4.031015e-001 4.040869e-001 3.589420e-001 4.742751e-001 5.577126e-001 5.711520e-001 7.071151e-001 7.551678e-001 6.507183e-001 5.316370e-001 4.753197e-001 4.520172e-001 3.444624e-001
<GCONST> 1.267609e+002
<STATE> 3
<MEAN> 39
 -2.324143e+000 -1.802476e+001 -1.342415e+001 -1.477956e+001 -4.852042e+000 -6.926484e-001 -4.531325e+000 -1.601082e+000 3.030072e-001 -4.072803e+000 -6.053903e+000 -5.369112e+000 6.567152e+001 2.510464e-001 2.949273e-001 -4.284521e-001 -4.046274e-001 3.468199e-001 5.574408e-001 -2.490748e-001 -4.577497e-001 3.876646e-002 2.204540e-001 3.176806e-001 -8.272607e-002 -2.806877e-001 1.996793e-002 1.914971e-001 6.109837e-002 -3.202615e-002 -1.674649e-001 -8.897424e-002 -2.978195e-002 1.310201e-002 -7.045735e-002 8.588339e-002 8.991912e-002 4.934413e-002 -1.331132e-001
<VARIANCE> 39
 1.384010e+001 2.988402e+001 4.050632e+001 5.271284e+001 5.698163e+001 7.811137e+001 8.046648e+001 7.176377e+001 7.069267e+001 5.330908e+001 4.977243e+001 4.605782e+001 2.140748e+001 2.354885e-001 6.868676e-001 7.444639e-001 1.227949e+000 1.472834e+000 1.507070e+000 1.696003e+000 1.698032e+000 1.542482e+000 1.413730e+000 1.473198e+000 1.300562e+000 2.237285e-001 3.903750e-002 9.730434e-002 1.158901e-001 1.636770e-001 2.034840e-001 2.214701e-001 2.655360e-001 2.532832e-001 2.464743e-001 2.085810e-001 2.288317e-001 2.145127e-001 3.881580e-002
<GCONST> 9.677422e+001
<STATE> 4
<MEAN> 39
 -4.518429e-001 -1.240784e+001 -1.496472e+001 -1.954640e+001 -6.662094e+000 2.074123e+000 -5.495482e+000 -3.311116e+000 -1.660498e+000 -4.555877e-001 -2.291641e+000 -5.173515e+000 6.146056e+001 -9.067321e-002 1.297116e+000 5.919164e-001 6.365391e-001 -8.322340e-001 -9.534020e-001 -2.654043e-001 -5.176382e-002 -4.381007e-001 4.544467e-001 2.629487e-001 3.216318e-001 -1.349173e+000 -2.979064e-001 1.587510e-001 3.658962e-001 5.972660e-001 4.052498e-002 -3.832110e-001 7.800216e-003 -4.287608e-002 -7.899544e-002 -8.432772e-002 -1.728399e-001 6.654239e-002 -2.925037e-001
<VARIANCE> 39
 1.299546e+001 4.009909e+001 3.437162e+001 6.693624e+001 6.481171e+001 7.910049e+001 8.645947e+001 6.064426e+001 6.572278e+001 6.440546e+001 7.042885e+001 4.715042e+001 3.502084e+001 9.455403e-001 2.284974e+000 2.221346e+000 4.646576e+000 3.644266e+000 3.870566e+000 3.876567e+000 3.770331e+000 3.579660e+000 3.305917e+000 3.297625e+000 3.001654e+000 1.654668e+000 2.249450e-001 3.462373e-001 3.292440e-001 5.369576e-001 6.398419e-001 5.376928e-001 6.765011e-001 6.399125e-001 6.469808e-001 6.228727e-001 5.943801e-001 5.077885e-001 3.335589e-001
<GCONST> 1.271015e+002
<TRANSP> 5
 0.000000e+000 1.000000e+000 0.000000e+000 0.000000e+000 0.000000e+000
 0.000000e+000 7.134161e-001 2.865839e-001 0.000000e+000 0.000000e+000
 0.000000e+000 0.000000e+000 8.753311e-001 1.246689e-001 0.000000e+000
 0.000000e+000 0.000000e+000 0.000000e+000 7.573969e-001 2.426031e-001
 0.000000e+000 0.000000e+000 0.000000e+000 0.000000e+000 0.000000e+000
<ENDHMM>
~h "ax"
<BEGINHMM>
<NUMSTATES> 5
<STATE> 2
<MEAN> 39
 -4.820542e+000 -9.188916e+000 -5.302797e+000 -1.234763e+001 -1.066321e+001 -9.037257e+000 -1.040979e+001 -1.275899e+000 -1.543372e+000 -3.767055e-001 -4.145126e+000 -3.409786e+000 5.949573e+001 1.640866e+000 -1.016242e+000 3.890225e-001 -1.090180e+000 -9.505857e-001 -3.238431e-001 -1.086918e+000 2.137331e-001 4.793525e-002 1.620117e-001 -3.037370e-001 -3.272933e-001 1.279083e+000 -6.376380e-001 5.415378e-001 7.111793e-003 4.644870e-001 4.362271e-001 3.704832e-001 5.288777e-001 -1.949439e-001 -3.287078e-001 -6.531534e-002 1.837738e-001 1.105899e-001 -8.715077e-001
<VARIANCE> 39
 2.396371e+001 3.426210e+001 5.913806e+001 5.919725e+001 6.063811e+001 7.413720e+001 7.188728e+001 6.174536e+001 6.228465e+001 5.852842e+001 5.655537e+001 3.889086e+001 3.691741e+001 4.783515e+000 3.284420e+000 3.933448e+000 5.091466e+000 4.808247e+000 5.366840e+000 5.581753e+000 5.562587e+000 5.311080e+000 4.271368e+000 4.637038e+000 3.391638e+000 4.644633e+000 6.672928e-001 5.537019e-001 5.397995e-001 7.674463e-001 7.488747e-001 8.983332e-001 9.852187e-001 8.828983e-001 9.307151e-001 7.963952e-001 7.197590e-001 6.096271e-001 8.853569e-001
<GCONST> 1.390561e+002
<STATE> 3
<MEAN> 39
 -3.914264e+000 -1.093876e+001 -3.737028e+000 -1.374090e+001 -1.216326e+001 -8.708601e+000 -1.098888e+001 -1.475004e-001 -2.499609e+000 -6.013311e-001 -3.996896e+000 -3.427216e+000 6.158423e+001 7.902195e-002 6.707106e-001 2.213024e-001 3.242648e-001 2.520196e-001 1.233969e-001 2.068638e-001 -4.762188e-001 -5.377421e-001 -5.939175e-002 1.004505e-001 4.521014e-002 -7.972758e-001 -6.406617e-001 8.363518e-001 -6.651830e-002 6.761737e-001 5.415476e-001 2.355676e-001 5.393912e-001 -4.200879e-001 -2.953918e-001 -1.271553e-001 9.604722e-002 7.496441e-002 -9.882424e-001
<VARIANCE> 39
 1.691965e+001 3.103387e+001 7.463388e+001 6.388722e+001 6.752446e+001 7.984205e+001 7.789066e+001 6.698599e+001 7.316955e+001 6.293715e+001 6.827982e+001 4.230490e+001 2.263173e+001 1.693992e+000 2.171643e+000 2.635871e+000 3.316984e+000 3.292144e+000 3.302254e+000 3.574506e+000 3.847491e+000 3.589743e+000 3.102161e+000 2.917180e+000 2.529330e+000 2.363717e+000 6.574324e-001 5.212936e-001 5.818461e-001 7.526951e-001 7.731024e-001 9.732177e-001 1.095843e+000 9.930550e-001 9.602529e-001 8.045558e-001 7.681947e-001 6.331949e-001 6.283380e-001
<GCONST> 1.332930e+002
<STATE> 4
<MEAN> 39
 -4.133588e+000 -7.076898e+000 -4.298219e+000 -1.128145e+001 -1.004091e+001 -8.774247e+000 -1.026077e+001 -3.017178e+000 -3.489617e+000 -7.028763e-001 -3.427561e+000 -2.880739e+000 5.728493e+001 -1.232015e+000 2.412428e+000 2.826076e-001 1.738126e+000 1.385135e+000 7.469637e-001 1.210509e+000 -1.221473e+000 -1.055618e+000 -4.649371e-001 1.020518e-001 6.165454e-002 -2.773755e+000 -7.885925e-001 3.133470e-001 -5.767076e-002 3.456644e-001 3.550431e-001 3.342471e-001 4.729039e-001 9.967060e-003 -4.037253e-002 -8.311281e-002 1.665715e-002 4.196369e-002 -5.010549e-001
<VARIANCE> 39
 2.199548e+001 3.073484e+001 6.332848e+001 6.329569e+001 6.112155e+001 7.566492e+001 6.213609e+001 6.437384e+001 6.342319e+001 5.885570e+001 6.078833e+001 4.056770e+001 3.278812e+001 3.794041e+000 3.553767e+000 3.707668e+000 6.019174e+000 4.818922e+000 5.427338e+000 5.735567e+000 5.780639e+000 5.609015e+000 4.667359e+000 4.275568e+000 3.848987e+000 6.031401e+000 6.805016e-001 5.147253e-001 6.057268e-001 7.045561e-001 7.470355e-001 9.387983e-001 8.521506e-001 9.876827e-001 8.765087e-001 8.306386e-001 7.929294e-001 6.148864e-001 6.151949e-001
<GCONST> 1.391336e+002
<TRANSP> 5
 0.000000e+000 1.000000e+000 0.000000e+000 0.000000e+000 0.000000e+000
 0.000000e+000 2.812310e-001 7.187690e-001 0.000000e+000 0.000000e+000
 0.000000e+000 0.000000e+000 4.598005e-001 5.401995e-001 0.000000e+000
 0.000000e+000 0.000000e+000 0.000000e+000 1.998040e-001 8.001960e-001
 0.000000e+000 0.000000e+000 0.000000e+000 0.000000e+000 0.000000e+000
<ENDHMM>
~h "ay"
<BEGINHMM>
<NUMSTATES> 5
<STATE> 2
<MEAN> 39
 -1.873555e+000 -1.512835e+001 -1.381400e+001 -1.695262e+001 -5.751411e+000 1.091732e-003 -5.330804e+000 -2.188837e+000 -2.300944e-001 -1.064875e+000 -4.398875e+000 -6.546642e+000 6.394367e+001 6.823190e-001 -1.887084e+000 -5.365725e-001 -4.743542e-001 3.009953e-001 5.433348e-001 -5.606676e-003 3.503112e-001 7.743741e-001 -4.069620e-001 -6.942965e-001 -6.539471e-001 1.471746e+000 -5.794801e-001 4.179249e-001 4.380111e-001 5.766968e-001 6.769620e-002 -3.187620e-001 1.166916e-001 3.285527e-002 -1.788451e-001 -1.185659e-001 6.595977e-002 3.261090e-001 -5.137690e-001
<VARIANCE> 39
 1.435531e+001 3.398027e+001 3.763538e+001 5.207614e+001 5.745483e+001 8.099519e+001 6.615513e+001 6.394044e+001 6.182752e+001 6.054389e+001 6.888235e+001 4.266279e+001 2.607190e+001 3.025757e+000 2.230394e+000 3.109061e+000 4.485892e+000 3.770714e+000 4.736704e+000 3.941735e+000 4.347491e+000 3.767323e+000 3.285866e+000 3.334810e+000 3.262333e+000 2.245390e+000 4.820249e-001 3.850271e-001 3.807776e-001 6.237376e-001 6.843982e-001 7.173064e-001 6.994830e-001 7.258413e-001 6.655559e-001 6.371751e-001 7.131176e-001 5.431868e-001 3.543907e-001
<GCONST> 1.303429e+002
<STATE> 3
<MEAN> 39
 -2.196121e+000 -1.807949e+001 -1.350096e+001 -1.448950e+001 -4.765221e+000 -1.126361e+000 -4.696828e+000 -8.170170e-001 1.361253e+000 -3.717679e+000 -6.053080e+000 -6.542773e+000 6.549277e+001 -1.980249e-001 -1.604387e-001 5.989833e-001 5.286012e-001 -4.835213e-001 -8.616338e-001 1.234545e-001 7.685186e-001 4.693819e-002 -4.249999e-001 -2.468526e-001 2.645382e-001 3.759881e-002 -1.826538e-002 2.281689e-001 1.673785e-001 -1.856942e-002 -2.485285e-001 -1.825043e-001 1.829109e-002 7.754203e-002 -1.636743e-001 3.488138e-002 1.613532e-001 1.337563e-001 -1.221619e-001
<VARIANCE> 39
 1.136345e+001 3.037761e+001 3.539976e+001 4.543155e+001 5.430828e+001 7.510970e+001 6.971634e+001 6.847330e+001 6.887198e+001 5.299614e+001 5.096679e+001 4.777365e+001 2.036664e+001 2.349864e-001 6.870973e-001 1.038669e+000 1.236231e+000 1.692430e+000 2.035355e+000 1.739379e+000 2.175147e+000 1.502467e+000 1.397895e+000 1.424182e+000 1.354216e+000 2.138812e-001 3.995852e-002 1.185505e-001 1.303601e-001 1.660877e-001 2.282977e-001 2.317967e-001 2.627901e-001 2.852889e-001 2.760188e-001 2.352653e-001 2.648546e-001 2.568396e-001 4.429935e-002
<GCONST> 9.829960e+001
<STATE> 4
<MEAN> 39
 -4.524825e+000 -1.557887e+001 -4.935281e+000 -1.322634e+001 -1.352839e+001 -9.465729e+000 -3.111417e+000 4.931387e+000 -2.155206e+000 -3.667642e+000 -5.072342e+000 -3.012935e+000 6.434286e+001 -3.592489e-001 1.504619e+000 1.676871e+000 5.088264e-001 -1.414901e+000 -1.246051e+000 -2.606069e-002 -3.029513e-001 -1.190997e+000 4.334223e-001 9.454096e-001 5.778735e-001 -1.087294e+000 -9.160306e-002 4.518716e-001 -1.449153e-001 2.100792e-001 4.659427e-001 3.613325e-001 -1.498428e-001 -6.459369e-001 -1.158531e-001 1.644133e-001 3.140925e-002 -1.302103e-001 -5.319652e-001
<VARIANCE> 39
 1.210738e+001 3.462831e+001 4.993312e+001 4.648729e+001 5.912457e+001 6.056961e+001 7.398029e+001 6.256867e+001 7.826731e+001 5.063978e+001 4.928605e+001 3.850858e+001 2.582713e+001 5.992975e-001 1.674248e+000 2.292736e+000 2.946992e+000 3.856146e+000 3.178334e+000 4.211031e+000 4.777997e+000 3.895707e+000 3.520784e+000 2.983198e+000 3.337402e+000 1.301942e+000 1.830554e-001 2.902798e-001 3.386328e-001 4.791452e-001 6.174383e-001 5.171325e-001 6.519945e-001 6.463957e-001 6.829250e-001 6.144363e-001 5.958540e-001 4.773473e-001 2.794586e-001
<GCONST> 1.236164e+002
<TRANSP> 5
 0.000000e+000 1.000000e+000 0.000000e+000 0.000000e+000 0.000000e+000
 0.000000e+000 6.191540e-001 3.808460e-001 0.000000e+000 0.000000e+000
 0.000000e+000 0.000000e+000 8.480152e-001 1.519848e-001 0.000000e+000
 0.000000e+000 0.000000e+000 0.000000e+000 7.528862e-001 2.471138e-001
 0.000000e+000 0.000000e+000 0.000000e+000 0.000000e+000 0.000000e+000
<ENDHMM>
~h "ch"
<BEGINHMM>
<NUMSTATES> 5
<STATE> 2
<MEAN> 39
 -1.878811e+001 -4.125021e+000 -5.177768e-001 -5.137094e+000 -4.121262e+000 -2.464053e+000 -5.216872e+000 -1.828799e+000 -2.810314e+000 -2.411430e+000 -2.393345e+000 -1.363657e+000 4.350133e+001 -2.843048e+000 -6.805904e-001 -3.507618e-001 -7.607884e-001 9.838980e-001 1.906882e+000 8.737439e-001 3.353701e-001 8.559463e-001 5.858806e-001 7.029207e-001 3.947192e-001 1.079550e-002 -6.872863e-003 -3.732050e-001 8.719168e-002 -6.580812e-001 -4.638630e-001 -2.286847e-001 -1.399333e-001 1.924096e-001 7.536606e-002 5.984839e-002 1.141997e-001 3.767741e-002 1.610208e+000
<VARIANCE> 39
 4.467582e+001 5.227579e+001 3.471952e+001 5.316371e+001 3.932664e+001 4.435968e+001 3.177798e+001 3.359996e+001 3.549183e+001 2.862416e+001 2.422296e+001 1.886370e+001 8.143932e+001 5.697306e+000 6.458966e+000 5.344051e+000 8.046172e+000 6.464189e+000 5.059159e+000 4.656433e+000 4.664465e+000 4.484236e+000 3.756371e+000 3.236002e+000 2.618825e+000 2.025750e+001 7.946302e-001 1.550028e+000 9.173529e-001 1.326607e+000 9.955047e-001 1.028732e+000 8.396550e-001 9.070156e-001 7.778491e-001 7.387188e-001 6.747175e-001 4.763272e-001 2.109803e+000
<GCONST> 1.399549e+002
<STATE> 3
<MEAN> 39
 -3.055360e+001 -5.355954e+000 1.887763e+000 -1.179250e+001 -4.683837e+000 9.797782e-001 -2.735003e+000 1.015587e-001 -1.740345e-001 -9.995609e-001 2.411585e-001 2.082478e-001 5.806253e+001 -7.557980e-001 1.186737e-001 4.839788e-001 -1.177789e-001 -8.092576e-001 -2.508202e-001 5.298991e-001 7.012809e-003 5.448629e-002 5.311363e-002 1.640301e-002 5.534640e-002 1.786936e+000 8.381154e-001 2.310324e-002 -1.191023e-001 4.488445e-001 -1.430669e-001 -4.117976e-001 -5.974391e-002 -8.199197e-002 -2.318203e-001 -8.734424e-002 -1.961072e-001 -1.062018e-001 -6.506085e-001
<VARIANCE> 39
 1.881439e+001 3.024359e+001 3.110632e+001 2.377429e+001 3.560496e+001 2.136020e+001 2.220153e+001 2.203646e+001 1.904115e+001 1.613514e+001 1.340746e+001 1.115643e+001 2.864513e+001 4.175702e+000 2.567912e+000 2.625688e+000 2.571912e+000 2.313088e+000 2.207161e+000 1.874413e+000 1.997779e+000 1.732241e+000 1.659956e+000 1.448926e+000 1.245972e+000 5.503232e+000 5.981987e-001 5.751112e-001 5.744761e-001 5.451925e-001 4.683715e-001 4.599364e-001 4.306182e-001 4.094021e-001 3.722872e-001 3.628518e-001 3.005328e-001 2.615380e-001 7.398664e-001
<GCONST> 1.117845e+002
<STATE> 4
<MEAN> 39
 -2.378325e+001 -8.291537e+000 1.155914e+000 -7.782678e+000 -9.970445e+000 -4.658612e+000 -1.057598e+000 -2.100682e-001 -1.473395e+000 -1.527013e+000 -1.242998e+000 -6.872588e-001 5.919039e+001 3.792333e+000 -4.038886e-001 -5.854193e-001 6.202038e-001 -4.874941e-001 -1.722288e+000 -1.131227e+000 6.272049e-002 -6.745645e-001 -5.553554e-001 -5.328441e-001 -3.460108e-001 -7.428708e-001 6.792428e-001 -7.150012e-002 -1.679990e-001 -3.035215e-001 1.327920e-001 7.064061e-002 -6.082429e-001 3.089054e-002 -4.037668e-002 -5.714207e-002 1.649609e-002 -3.041374e-002 -1.432299e-001
<VARIANCE> 39
 4.461052e+001 1.977310e+001 2.521520e+001 3.075611e+001 3.389527e+001 3.132545e+001 3.022792e+001 2.744353e+001 2.462601e+001 2.148511e+001 2.094520e+001 1.640215e+001 2.435832e+001 5.365893e+000 2.100822e+000 3.153048e+000 3.082519e+000 4.454792e+000 4.244333e+000 5.290248e+000 3.682375e+000 3.251233e+000 2.878907e+000 2.825512e+000 2.090638e+000 2.958906e+000 8.320541e-001 4.008293e-001 5.218412e-001 5.272098e-001 6.817563e-001 7.434947e-001 7.641092e-001 6.645029e-001 6.144150e-001 5.861245e-001 5.063521e-001 4.166414e-001 7.909375e-001
<GCONST> 1.232502e+002
<TRANSP> 5
 0.000000e+000 1.000000e+000 0.000000e+000 0.000000e+000 0.000000e+000
 0.000000e+000 7.317796e-001 2.682204e-001 0.000000e+000 0.000000e+000
 0.000000e+000 0.000000e+000 8.058766e-001 1.941234e-001 0.000000e+000
 0.000000e+000 0.000000e+000 0.000000e+000 7.143956e-001 2.856044e-001
 0.000000e+000 0.000000e+000 0.000000e+000 0.000000e+000 0.000000e+000
<ENDHMM>
~h "dh"
<BEGINHMM>
<NUMSTATES> 5
<STATE> 2
<MEAN> 39
 -1.601453e+001 -1.017205e+000 -5.705893e+000 -2.897181e+000 -3.273051e+000 -3.477166e+000 -3.495990e+000 -2.383727e+000 -2.032719e+000 -9.402327e-001 -2.495941e+000 -1.705658e+000 4.205165e+001 -7.676132e-002 -9.103391e-002 -9.966028e-002 -2.017336e-001 -2.379001e-001 -1.592828e-001 5.713433e-002 1.901277e-001 1.816661e-001 -1.771697e-001 -1.284514e-002 5.504069e-002 1.066580e+000 5.093899e-001 -4.551560e-001 -8.522059e-002 -4.676099e-001 -4.889164e-001 -4.186564e-001 -2.256851e-001 1.121782e-001 1.214577e-001 3.285238e-002 -1.143126e-002 2.129640e-002 1.036951e+000
<VARIANCE> 39
 4.636832e+001 2.528325e+001 2.315783e+001 2.585025e+001 2.411866e+001 3.215166e+001 3.680477e+001 3.817927e+001 3.044551e+001 2.566198e+001 2.683892e+001 2.583353e+001 7.307710e+001 4.214628e+000 2.824499e+000 3.152736e+000 3.455936e+000 3.018610e+000 3.764505e+000 3.455690e+000 3.340611e+000 2.967637e+000 2.541087e+000 2.466433e+000 2.313863e+000 1.004228e+001 6.939858e-001 5.812006e-001 5.953408e-001 7.086958e-001 6.308258e-001 7.004095e-001 7.281589e-001 6.921960e-001 6.429853e-001 5.701892e-001 5.317211e-001 4.892320e-001 1.223297e+000
<GCONST> 1.269234e+002
<STATE> 3
<MEAN> 39
 -1.497387e+001 -3.688933e+000 -8.072900e+000 -6.477489e+000 -6.232733e+000 -6.043886e+000 -3.269621e+000 -1.713965e+000 -8.838968e-001 -1.438063e+000 -2.287882e+000 -7.537423e-001 5.219228e+001 2.517726e+000 -8.956150e-001 1.766674e-001 -1.424725e+000 -1.992177e+000 -1.977028e+000 -1.359112e+000 1.399428e-001 4.134085e-001 -1.784956e-001 -4.585344e-001 -2.980368e-001 4.228510e+000 6.195223e-001 -2.609925e-001 4.561625e-001 -1.903421e-001 -3.373674e-001 -1.730389e-001 -4.201729e-001 3.825784e-002 -1.016149e-001 1.785745e-001 -1.024790e-001 -1.941006e-001 -1.092148e-001
<VARIANCE> 39
 3.394032e+001 2.705134e+001 2.346235e+001 2.470537e+001 2.432943e+001 2.721957e+001 3.581472e+001 2.943132e+001 2.544770e+001 2.252683e+001 2.214577e+001 2.171379e+001 4.511712e+001 4.332804e+000 3.108220e+000 3.923075e+000 3.672028e+000 3.932854e+000 4.304036e+000 4.605204e+000 4.599281e+000 4.667811e+000 3.629737e+000 3.466674e+000 3.336599e+000 6.170861e+000 5.128945e-001 6.813883e-001 6.467988e-001 6.760655e-001 5.703615e-001 7.239895e-001 7.702508e-001 6.855942e-001 6.674082e-001 5.741810e-001 6.563017e-001 4.941735e-001 9.875032e-001
<GCONST> 1.274027e+002
<STATE> 4
<MEAN> 39
 -6.843748e+000 -4.891954e+000 -5.744333e+000 -8.622406e+000 -1.125272e+001 -1.149123e+001 -8.632711e+000 -2.473220e+000 -2.802845e-001 -1.104048e+000 -3.946620e+000 -3.084393e+000 5.872407e+001 2.322983e+000 -1.908456e+000 7.389807e-001 -1.721705e+000 -2.059048e+000 -1.444687e+000 -1.411579e+000 6.744483e-001 2.776540e-001 2.476854e-001 -3.001783e-001 -3.645063e-001 2.975879e+000 -5.171873e-001 -1.010104e-001 1.316800e-001 1.587049e-001 3.907673e-001 6.187935e-001 3.771850e-001 1.222067e-001 -2.597817e-001 2.573284e-002 1.020437e-001 9.475589e-002 -9.055260e-001
<VARIANCE> 39
 2.208678e+001 2.864377e+001 3.563777e+001 3.784216e+001 4.398788e+001 4.256522e+001 5.107520e+001 4.387382e+001 4.825070e+001 4.042087e+001 3.381374e+001 3.371071e+001 3.235111e+001 3.649535e+000 3.162942e+000 4.325205e+000 4.197588e+000 4.288119e+000 5.417522e+000 6.234687e+000 5.226395e+000 5.275866e+000 4.012594e+000 4.496397e+000 3.726186e+000 4.182822e+000 5.422728e-001 4.088476e-001 4.296015e-001 5.394641e-001 5.680271e-001 5.507423e-001 6.156587e-001 6.355010e-001 6.099399e-001 5.494380e-001 4.939135e-001 4.837871e-001 6.764638e-001
<GCONST> 1.299667e+002
<TRANSP> 5
 0.000000e+000 1.000000e+000 0.000000e+000 0.000000e+000 0.000000e+000
 0.000000e+000 6.273803e-001 3.726196e-001 0.000000e+000 0.000000e+000
 0.000000e+000 0.000000e+000 3.878922e-001 6.121078e-001 0.000000e+000
 0.000000e+000 0.000000e+000 0.000000e+000 3.052931e-001 6.947069e-001
 0.000000e+000 0.000000e+000 0.000000e+000 0.000000e+000 0.000000e+000
<ENDHMM>
~h "eh"
<BEGINHMM>
<NUMSTATES> 5
<STATE> 2
<MEAN> 39
