~o
<STREAMINFO> 1 39
<VECSIZE> 39<NULLD><MFCC_D_A_0><DIAGC>
~h "n"
<BEGINHMM>
<NUMSTATES> 5
<STATE> 2
<MEAN> 39
 -8.468965e+000 -8.091308e+000 -2.480317e-001 -7.846498e+000 -5.006330e+000 -1.784543e+000 -5.030978e+000 -4.211154e-001 -2.373380e+000 -6.645634e-001 -2.299641e+000 8.461180e-001 6.419822e+001 8.894292e-004 9.214212e-004 -6.970997e-004 -7.508517e-004 8.190445e-005 5.323610e-004 -3.925758e-004 -1.376460e-003 -1.399336e-003 -8.905860e-004 -9.219672e-004 -5.862684e-004 5.139227e-004 -8.131863e-005 1.593251e-004 7.213635e-005 3.577455e-005 9.511758e-006 1.225475e-004 8.086715e-005 5.252129e-005 5.498233e-005 1.721080e-004 4.113983e-005 7.864703e-005 -1.521861e-004
<VARIANCE> 39
 5.555905e+001 6.759319e+001 7.666602e+001 9.739330e+001 7.993846e+001 6.146657e+001 8.262599e+001 6.274699e+001 6.937737e+001 5.374107e+001 5.871041e+001 4.142989e+001 1.086512e+002 2.765128e+000 3.149068e+000 3.102753e+000 4.835855e+000 3.974743e+000 3.638914e+000 4.434913e+000 3.942924e+000 3.790099e+000 3.506665e+000 3.276208e+000 2.718295e+000 3.120840e+000 4.392127e-001 4.661782e-001 4.793933e-001 7.343190e-001 6.692705e-001 6.528851e-001 7.702160e-001 7.281530e-001 6.827335e-001 6.584027e-001 5.984979e-001 5.126665e-001 4.566830e-001
<GCONST> 1.361045e+002
<STATE> 3
<MEAN> 39
 -8.466412e+000 -8.086036e+000 -2.500162e-001 -7.849007e+000 -5.005854e+000 -1.781574e+000 -5.031544e+000 -4.257773e-001 -2.377733e+000 -6.661295e-001 -2.303074e+000 8.445629e-001 6.419845e+001 5.685936e-004 1.565905e-003 -4.582058e-004 -6.690005e-004 1.590231e-004 9.651827e-004 -1.426650e-004 -1.161991e-003 -1.175919e-003 -2.327830e-004 -8.538074e-004 -3.562805e-004 -1.266082e-005 -7.483519e-005 1.601073e-004 6.214124e-005 1.682398e-005 1.935041e-005 1.170538e-004 6.300332e-005 5.925016e-005 6.706439e-005 1.694125e-004 3.251598e-005 5.549722e-005 -1.413878e-004
<VARIANCE> 39
 5.555742e+001 6.761496e+001 7.667923e+001 9.737408e+001 7.995057e+001 6.151632e+001 8.263458e+001 6.272073e+001 6.931758e+001 5.375085e+001 5.868064e+001 4.142759e+001 1.086651e+002 2.765838e+000 3.149597e+000 3.102518e+000 4.837031e+000 3.975021e+000 3.639387e+000 4.435478e+000 3.943840e+000 3.790391e+000 3.507036e+000 3.277117e+000 2.718541e+000 3.121756e+000 4.392695e-001 4.661824e-001 4.793209e-001 7.344903e-001 6.692443e-001 6.528658e-001 7.703540e-001 7.281216e-001 6.827564e-001 6.584740e-001 5.985675e-001 5.128071e-001 4.567154e-001
<GCONST> 1.361071e+002
<STATE> 4
<MEAN> 39
 -8.468482e+000 -8.046718e+000 -2.784735e-001 -7.842574e+000 -5.013957e+000 -1.818068e+000 -5.012085e+000 -4.740240e-001 -2.344350e+000 -6.924535e-001 -2.288657e+000 8.428615e-001 6.413350e+001 3.198194e-004 2.303541e-003 -1.712199e-004 -6.509909e-004 1.725557e-004 1.403632e-003 -1.425289e-005 -1.054185e-003 -8.275751e-004 4.820439e-004 -9.017929e-004 -1.971109e-004 -5.764206e-004 -3.615038e-005 9.661644e-005 4.736527e-005 6.339841e-006 -2.732789e-006 7.941433e-005 2.031217e-005 1.954999e-005 6.151151e-005 1.203683e-004 2.160177e-005 2.088746e-005 -1.051686e-004
<VARIANCE> 39
 5.645280e+001 6.809453e+001 7.750210e+001 9.911075e+001 8.133045e+001 6.220740e+001 8.416250e+001 6.351408e+001 6.992419e+001 5.455505e+001 5.931753e+001 4.205234e+001 1.107818e+002 2.801396e+000 3.174123e+000 3.135932e+000 4.863066e+000 4.009972e+000 3.675547e+000 4.460095e+000 3.976590e+000 3.824031e+000 3.544814e+000 3.313760e+000 2.771253e+000 3.152189e+000 4.419324e-001 4.676425e-001 4.822896e-001 7.409635e-001 6.797544e-001 6.641749e-001 7.784324e-001 7.376691e-001 6.942294e-001 6.692165e-001 6.016232e-001 5.173337e-001 4.590853e-001
<GCONST> 1.365472e+002
<TRANSP> 5
