~o
<STREAMINFO> 1 39
<VECSIZE> 39<NULLD><MFCC_D_A_0><DIAGC>
~s "silst"
<MEAN> 39
 -1.185776e+01 -7.332158e+00 -3.300920e-02 4.056770e-02 4.513879e-01 3.361651e+00 2.713210e+00 4.449458e+00 4.060002e+00 3.556939e+00 3.840004e+00 4.311283e+00 5.185282e+01 -3.196164e-01 -3.145016e-01 -4.821154e-02 5.283851e-02 2.964625e-01 9.254280e-02 2.402885e-01 3.972552e-01 1.435022e-01 2.246852e-01 3.122395e-01 2.122843e-01 6.479581e-02 7.002159e-02 -1.506410e-02 1.470477e-02 -1.041463e-01 -8.198236e-02 -1.041881e-01 -1.329941e-01 -8.705135e-02 -1.121316e-01 -1.047583e-01 -9.645943e-02 -7.293115e-02 1.385852e-01
<VARIANCE> 39
 1.864656e+01 3.686734e+01 2.981311e+01 2.621165e+01 3.422200e+01 3.074077e+01 2.949344e+01 3.176841e+01 3.309028e+01 3.579314e+01 2.862342e+01 2.510122e+01 2.022318e+01 1.492500e+00 2.285295e+00 1.969473e+00 2.310987e+00 2.604646e+00 2.702886e+00 3.213123e+00 3.083635e+00 3.774671e+00 3.673144e+00 2.901386e+00 2.420854e+00 2.194779e+00 2.442618e-01 3.716778e-01 3.513091e-01 4.174216e-01 4.516123e-01 4.799932e-01 5.611826e-01 5.434440e-01 6.758670e-01 6.446409e-01 5.071961e-01 4.397616e-01 3.528565e-01
<GCONST> 1.172772e+02
~h "a"
<BEGINHMM>
<NUMSTATES> 5
<STATE> 2
<MEAN> 39
 -4.950284e+00 -2.058599e+01 -1.013973e+01 -8.607061e+00 -1.165827e+00 -4.566331e-01 -5.977433e+00 -2.575256e+00 -6.331190e+00 -7.553758e+00 -6.218945e+00 8.687140e-01 7.630161e+01 1.324289e-01 -2.767859e+00 -1.864047e+00 -2.411809e-01 1.019322e+00 4.971337e-01 -1.255571e+00 -1.349210e+00 -9.867803e-01 -1.051759e+00 -6.158744e-01 -3.668704e-01 1.717183e+00 -4.515767e-01 6.208293e-01 7.370411e-01 8.044239e-01 2.124247e-01 7.445987e-02 1.196173e-01 4.510870e-02 5.063508e-01 5.336806e-01 4.584758e-01 -6.179235e-02 -7.555765e-01
<VARIANCE> 39
 2.512134e+01 3.123377e+01 2.696220e+01 5.037527e+01 4.872510e+01 5.678969e+01 6.899435e+01 4.968777e+01 4.632344e+01 4.340881e+01 5.128225e+01 5.576130e+01 2.763895e+01 3.049682e+00 3.482822e+00 3.486355e+00 5.747537e+00 4.827854e+00 4.437826e+00 4.812053e+00 4.197236e+00 4.116094e+00 4.057248e+00 4.313215e+00 3.625827e+00 2.882086e+00 4.761406e-01 5.281650e-01 4.449596e-01 7.297345e-01 7.809092e-01 7.290344e-01 9.775852e-01 1.000959e+00 7.065986e-01 6.913880e-01 7.280580e-01 7.089495e-01 5.511655e-01
<GCONST> 1.334963e+02
<STATE> 3
<MEAN> 39
 -5.864457e+00 -2.406314e+01 -1.098238e+01 -4.360846e+00 2.683687e+00 1.403882e+00 -9.247169e+00 -5.519952e+00 -4.651310e+00 -7.123501e+00 -5.539773e+00 -9.630142e-01 7.659765e+01 2.661464e-02 1.441083e-02 5.052152e-02 4.183185e-02 -1.723594e-01 -3.079715e-02 1.382234e-01 9.353235e-02 4.813295e-02 -6.190222e-02 8.685099e-03 -1.244168e-02 -1.659500e-01 7.668754e-02 3.650357e-01 1.563873e-01 -2.454273e-01 -3.619044e-01 -1.391556e-01 2.740019e-01 2.776811e-01 -1.969108e-02 -1.357244e-03 -4.077354e-02 8.484838e-02 -2.028466e-01
<VARIANCE> 39
 2.388993e+01 2.371895e+01 2.142792e+01 5.094302e+01 3.766071e+01 6.095499e+01 5.906165e+01 3.545783e+01 3.928386e+01 3.978236e+01 3.810770e+01 4.432477e+01 3.169217e+01 4.507636e-01 8.118064e-01 8.305028e-01 1.974275e+00 1.821668e+00 1.459095e+00 2.133730e+00 1.849837e+00 1.829307e+00 1.655127e+00 1.534347e+00 1.532898e+00 4.708255e-01 1.054231e-01 1.904182e-01 2.011421e-01 3.029399e-01 3.067327e-01 3.027859e-01 3.337120e-01 3.309544e-01 3.565566e-01 3.321986e-01 2.975929e-01 2.871431e-01 1.037673e-01
<GCONST> 1.035451e+02
<STATE> 4
<MEAN> 39
 -5.155133e+00 -2.049441e+01 -9.278918e+00 -8.033470e+00 -3.628154e+00 -1.205422e+00 -4.665888e+00 -1.970328e+00 -6.149732e+00 -8.385201e+00 -6.185894e+00 3.213018e-01 7.435792e+01 3.819371e-01 2.312883e+00 1.302992e+00 -4.619656e-01 -1.705707e+00 -9.562520e-01 5.729790e-01 8.579403e-01 4.957810e-01 6.714969e-01 1.458938e-01 1.079403e-01 -1.785984e+00 -1.598444e-01 5.240811e-01 4.032367e-01 5.250651e-01 3.335766e-01 2.291933e-03 -2.719474e-01 -2.276629e-01 2.902712e-01 4.775036e-01 2.843021e-01 -2.058927e-02 -5.371400e-01
<VARIANCE> 39
 2.432926e+01 3.557407e+01 3.171693e+01 5.991978e+01 7.521803e+01 5.822837e+01 8.070014e+01 5.420805e+01 5.548213e+01 4.780028e+01 4.853933e+01 5.168408e+01 4.860365e+01 1.417036e+00 2.883609e+00 2.402930e+00 5.057514e+00 4.814604e+00 4.027829e+00 4.974653e+00 3.938819e+00 3.872327e+00 4.034557e+00 3.470434e+00 3.235684e+00 2.320455e+00 3.048776e-01 4.648661e-01 3.734116e-01 7.687299e-01 1.032141e+00 7.667589e-01 9.146666e-01 8.141291e-01 7.071506e-01 6.813125e-01 6.222357e-01 5.868752e-01 3.060848e-01
<GCONST> 1.315551e+02
<TRANSP> 5
 0.000000e+00 1.000000e+00 0.000000e+00 0.000000e+00 0.000000e+00
 0.000000e+00 6.569630e-01 3.430370e-01 0.000000e+00 0.000000e+00
 0.000000e+00 0.000000e+00 8.307300e-01 1.692700e-01 0.000000e+00
 0.000000e+00 0.000000e+00 0.000000e+00 6.248519e-01 3.751481e-01
 0.000000e+00 0.000000e+00 0.000000e+00 0.000000e+00 0.000000e+00
<ENDHMM>
~h "b"
<BEGINHMM>
<NUMSTATES> 5
<STATE> 2
<MEAN> 39
 -2.359540e+00 -4.466704e+00 9.514529e-01 -4.356770e+00 -4.650561e+00 -2.531942e+00 -7.731306e+00 -5.079524e+00 -4.114612e+00 -2.703486e+00 -4.763867e+00 -1.790838e+00 5.839138e+01 -6.402192e-01 1.009984e+00 5.928617e-01 2.071050e+00 8.915902e-01 7.472849e-01 1.305384e+00 1.592971e-01 8.152115e-01 2.411297e-01 6.295230e-01 3.156133e-02 -2.140446e+00 -2.932534e-01 -4.824456e-01 -1.611227e-01 -4.667726e-01 -1.170447e-01 2.407003e-02 2.416527e-01 5.043272e-01 1.870818e-01 2.392362e-01 1.861289e-01 2.375782e-01 8.376191e-01
<VARIANCE> 39
 2.762024e+01 4.266579e+01 4.328224e+01 6.267907e+01 4.479697e+01 4.946926e+01 6.019668e+01 5.760810e+01 5.226382e+01 4.843156e+01 4.879625e+01 4.768947e+01 6.287659e+01 2.554473e+00 3.583531e+00 3.644370e+00 5.408155e+00 3.903512e+00 3.764429e+00 4.590376e+00 5.877800e+00 4.629537e+00 4.535221e+00 4.072932e+00 3.717311e+00 5.473758e+00 4.720513e-01 7.189469e-01 7.663173e-01 1.185731e+00 7.976751e-01 7.308077e-01 8.881429e-01 1.053022e+00 8.848968e-01 9.581532e-01 7.789131e-01 7.445694e-01 1.478112e+00
<GCONST> 1.387771e+02
<STATE> 3
<MEAN> 39
 -8.527988e+00 -4.741839e+00 6.220286e-01 -1.107270e-01 -1.780407e+00 1.545343e+00 4.586461e-01 1.169811e+00 3.127618e+00 2.681666e+00 1.240744e+00 1.831969e+00 5.210851e+01 -3.168668e-01 -7.622644e-01 8.698932e-02 -1.309003e-01 -4.898537e-02 1.811850e-02 5.348118e-01 8.811698e-01 5.027164e-01 5.010201e-01 5.806442e-01 4.785001e-01 2.159142e+00 6.692166e-01 -2.694923e-01 4.365189e-02 -9.724174e-01 -4.816970e-01 -4.152062e-01 -7.611883e-01 -3.888479e-01 -7.497538e-01 -4.293219e-01 -5.938299e-01 -1.824652e-01 1.621508e+00
<VARIANCE> 39
 2.211734e+01 3.358114e+01 2.754276e+01 2.384406e+01 2.875595e+01 3.073902e+01 4.090353e+01 4.059507e+01 4.360667e+01 3.866858e+01 3.640309e+01 3.167962e+01 2.746322e+01 2.616181e+00 2.707761e+00 3.807213e+00 2.951032e+00 2.997446e+00 3.270704e+00 4.094934e+00 4.389218e+00 4.697011e+00 4.399149e+00 3.904298e+00 3.299893e+00 7.404022e+00 4.643701e-01 8.614916e-01 1.040464e+00 9.727719e-01 7.951573e-01 7.085376e-01 7.979389e-01 9.995854e-01 8.533921e-01 8.501660e-01 7.532449e-01 6.870882e-01 9.052858e-01
<GCONST> 1.311193e+02
<STATE> 4
<MEAN> 39
 -4.674221e+00 -5.985625e+00 3.664349e+00 -1.947137e+00 -4.054177e+00 -1.147310e+00 -2.215549e+00 2.885191e-02 -2.397026e-01 5.941693e-01 -7.559818e-01 7.782788e-01 6.653761e+01 1.346038e+00 -1.202587e+00 8.241157e-02 -3.712612e+00 -1.713434e+00 -8.918421e-01 -1.665399e+00 -4.502493e-01 -1.685294e+00 -5.061438e-01 -1.402866e+00 1.545379e-02 5.037113e+00 -1.464985e-01 -1.786198e-01 -5.023457e-01 -1.112467e+00 -2.674494e-01 -4.007880e-02 -5.605706e-01 -3.258370e-01 -5.026794e-01 -2.106288e-01 -4.909437e-01 -5.235993e-02 -4.449272e-01
<VARIANCE> 39
 3.800681e+01 2.777684e+01 5.604574e+01 4.479179e+01 3.798050e+01 3.358379e+01 3.860838e+01 3.444091e+01 3.338758e+01 2.640911e+01 2.634326e+01 2.451210e+01 6.336752e+01 4.029052e+00 6.876286e+00 1.194595e+01 6.278135e+00 6.633955e+00 5.630042e+00 6.857492e+00 8.159715e+00 6.697433e+00 5.795084e+00 4.948870e+00 4.660959e+00 5.902489e+00 7.568096e-01 8.966151e-01 9.071418e-01 1.147822e+00 8.715050e-01 7.820354e-01 1.083643e+00 1.022473e+00 9.346126e-01 8.883826e-01 8.071485e-01 7.029385e-01 1.423969e+00
<GCONST> 1.410414e+02
<TRANSP> 5
 0.000000e+00 1.000000e+00 0.000000e+00 0.000000e+00 0.000000e+00
 0.000000e+00 6.267933e-01 3.732066e-01 0.000000e+00 0.000000e+00
 0.000000e+00 0.000000e+00 5.509744e-01 4.490256e-01 0.000000e+00
 0.000000e+00 0.000000e+00 0.000000e+00 5.070465e-01 4.929536e-01
 0.000000e+00 0.000000e+00 0.000000e+00 0.000000e+00 0.000000e+00
<ENDHMM>
~h "c"
<BEGINHMM>
<NUMSTATES> 5
<STATE> 2
<MEAN> 39
 -8.171454e+00 -1.732583e+00 -1.206355e+00 -2.765335e+00 -6.484775e+00 -5.868070e+00 -7.456048e+00 -3.988752e+00 -3.234487e+00 -2.921111e+00 -3.078537e+00 2.392915e-01 6.238128e+01 -2.558746e+00 1.979553e+00 -4.146239e-01 2.695496e+00 1.302729e+00 1.583698e+00 1.982391e+00 1.010436e+00 9.699209e-01 9.450322e-01 1.062508e+00 7.699558e-02 -1.037875e+00 -5.490447e-01 -3.634714e-01 -2.288583e-01 -2.601740e-01 2.010219e-01 4.180404e-01 5.291678e-01 5.605294e-01 2.124582e-01 4.573348e-01 2.162816e-01 1.260131e-01 5.385389e-01
<VARIANCE> 39
 4.300093e+01 4.333280e+01 4.383199e+01 5.755039e+01 5.889599e+01 5.551748e+01 5.902526e+01 5.034625e+01 5.056879e+01 4.594641e+01 4.213741e+01 4.106384e+01 5.233567e+01 4.020644e+00 4.660902e+00 4.246408e+00 5.013882e+00 4.811714e+00 5.967545e+00 6.296930e+00 5.977916e+00 4.955973e+00 5.296237e+00 4.311557e+00 3.911617e+00 4.316623e+00 7.283775e-01 8.225459e-01 6.141894e-01 9.489262e-01 7.875430e-01 9.872701e-01 9.515791e-01 8.393367e-01 7.901302e-01 8.194673e-01 6.982964e-01 6.661143e-01 6.148810e-01
<GCONST> 1.396091e+02
<STATE> 3
<MEAN> 39
 -1.907753e+01 7.910008e-01 -3.949104e+00 2.244064e+00 -1.617015e+00 6.614829e-01 2.297420e+00 3.246883e+00 2.276229e+00 3.611019e+00 2.309635e+00 2.357280e+00 6.398145e+01 -2.975152e-01 -2.672865e-01 4.969879e-02 2.623369e-02 5.230327e-01 1.934322e-01 8.723361e-01 7.918279e-01 9.583855e-02 1.624374e-01 3.207648e-01 1.908063e-01 2.160831e+00 1.036236e+00 -4.615946e-01 3.634463e-01 -4.127751e-01 -5.703695e-02 -3.995489e-01 -5.679892e-01 -3.754668e-01 -4.335966e-01 -5.840160e-01 -3.646766e-01 -6.745783e-02 1.952456e-01
<VARIANCE> 39
 3.136629e+01 3.385126e+01 2.539372e+01 3.075199e+01 3.219922e+01 3.095764e+01 2.750403e+01 2.658996e+01 2.605859e+01 2.230745e+01 1.978531e+01 1.664983e+01 5.064743e+01 6.130619e+00 3.458443e+00 3.393764e+00 2.608890e+00 2.929880e+00 3.361586e+00 3.723715e+00 3.560814e+00 3.517352e+00 3.519881e+00 2.873274e+00 2.338648e+00 2.659234e+00 6.899549e-01 6.638596e-01 5.388440e-01 6.290641e-01 6.581417e-01 7.030662e-01 7.442846e-01 6.521548e-01 6.572977e-01 6.475084e-01 5.639941e-01 4.800070e-01 8.293318e-01
<GCONST> 1.246944e+02
<STATE> 4
<MEAN> 39
 -1.224620e+01 -5.651777e+00 -1.566177e-01 6.420472e-01 2.776114e+00 7.985573e-01 1.083449e+00 3.164054e+00 -9.042630e-01 -8.654318e-01 7.097089e-01 2.356555e+00 7.126641e+01 1.738568e+00 -1.860903e+00 -2.453100e-01 -1.206206e+00 3.763788e-01 -2.791330e-03 -1.370968e+00 -8.675644e-01 -9.384003e-01 -1.325637e+00 -7.701169e-01 -5.770056e-02 1.890291e-01 5.203294e-02 -1.335803e-03 -5.532500e-01 -5.278698e-01 -4.899584e-01 -1.361451e-01 -4.797140e-01 -3.759364e-01 -2.087404e-01 -1.010032e-01 -2.269074e-01 -1.330818e-01 -2.239937e-01
<VARIANCE> 39
 4.046777e+01 7.178558e+01 2.653641e+01 2.910963e+01 4.481836e+01 4.858629e+01 4.358159e+01 3.586779e+01 3.561189e+01 3.204239e+01 2.722212e+01 2.364897e+01 3.108633e+01 4.020857e+00 4.169545e+00 3.641120e+00 4.259046e+00 5.265107e+00 4.538815e+00 5.124085e+00 4.388364e+00 3.790439e+00 3.962270e+00 3.493101e+00 3.097591e+00 1.620440e+00 6.798869e-01 7.333592e-01 5.999258e-01 7.538091e-01 8.698934e-01 8.208192e-01 8.130219e-01 7.866166e-01 7.228201e-01 7.010229e-01 6.256886e-01 6.069360e-01 4.137059e-01
<GCONST> 1.309020e+02
<TRANSP> 5
 0.000000e+00 1.000000e+00 0.000000e+00 0.000000e+00 0.000000e+00
 0.000000e+00 6.775423e-01 3.224577e-01 0.000000e+00 0.000000e+00
 0.000000e+00 0.000000e+00 7.516042e-01 2.483958e-01 0.000000e+00
 0.000000e+00 0.000000e+00 0.000000e+00 7.402676e-01 2.597323e-01
 0.000000e+00 0.000000e+00 0.000000e+00 0.000000e+00 0.000000e+00
<ENDHMM>
~h "d"
<BEGINHMM>
<NUMSTATES> 5
<STATE> 2
<MEAN> 39
 -3.509529e+00 -5.123621e+00 1.691134e+00 -6.118368e+00 -8.008987e+00 -7.484447e+00 -9.319420e+00 -4.321542e+00 -2.798052e+00 -3.658650e+00 -5.499777e+00 -3.147970e-01 6.112439e+01 -2.036768e-01 1.215603e+00 5.749261e-01 2.154130e+00 9.197208e-01 6.554886e-01 9.177960e-01 5.897653e-02 4.949912e-01 5.335978e-02 4.310989e-01 -2.867931e-01 -2.355849e+00 -4.009378e-01 -5.012591e-01 -4.036756e-01 -4.998190e-01 1.990572e-01 2.714053e-01 4.013331e-01 4.837102e-01 5.307228e-02 2.446808e-01 2.090203e-01 1.118534e-01 8.562142e-01
<VARIANCE> 39
 2.338521e+01 3.689734e+01 4.541239e+01 5.453185e+01 5.998062e+01 5.301134e+01 6.731248e+01 5.509772e+01 5.398560e+01 4.773490e+01 4.764814e+01 4.659772e+01 6.535080e+01 1.778516e+00 2.635643e+00 3.789507e+00 4.293884e+00 4.887873e+00 5.103473e+00 5.543126e+00 4.918355e+00 4.305125e+00 3.952780e+00 3.589415e+00 3.458716e+00 5.386540e+00 2.707605e-01 5.925906e-01 6.745492e-01 1.137366e+00 8.800464e-01 9.983154e-01 9.528913e-01 9.588532e-01 8.353882e-01 8.164880e-01 6.930439e-01 7.957562e-01 1.699436e+00
<GCONST> 1.374062e+02
<STATE> 3
<MEAN> 39
 -7.926777e+00 -4.125288e+00 1.578265e+00 -8.382110e-01 -3.280551e+00 -1.788934e+00 -2.518932e+00 -8.214132e-01 1.037916e+00 3.233162e-01 -1.077608e+00 4.275845e-01 5.510467e+01 -1.074436e+00 -9.886079e-01 -6.478966e-01 -8.895329e-01 2.781517e-01 -4.487156e-03 8.621544e-01 1.230429e+00 5.370156e-01 5.095985e-01 8.235830e-01 6.524557e-01 2.678534e+00 2.842034e-01 -5.637754e-01 -2.287523e-01 -1.276589e+00 -5.613537e-01 -6.152987e-01 -6.629676e-01 5.598643e-02 -4.083522e-01 -3.515632e-01 -4.718733e-01 1.817755e-01 1.808943e+00
<VARIANCE> 39
 2.832307e+01 3.186811e+01 2.903834e+01 2.940207e+01 3.541082e+01 4.511844e+01 5.572402e+01 4.317033e+01 4.578504e+01 4.422022e+01 4.265027e+01 3.393391e+01 4.191615e+01 1.990675e+00 2.661822e+00 3.685444e+00 3.557196e+00 4.083639e+00 5.030562e+00 5.020066e+00 4.734207e+00 4.424101e+00 4.426687e+00 3.887133e+00 3.400708e+00 7.931329e+00 4.764086e-01 8.585839e-01 9.550709e-01 7.683756e-01 9.178317e-01 9.857867e-01 1.243714e+00 1.305684e+00 1.044962e+00 9.894526e-01 8.382599e-01 7.762746e-01 8.553520e-01
<GCONST> 1.357080e+02
<STATE> 4
<MEAN> 39
 -8.047833e+00 -6.935559e+00 3.774360e-01 -7.072781e+00 -5.466674e+00 -6.217922e+00 -4.004933e+00 1.239677e+00 1.580199e-02 -8.193256e-01 -7.197137e-01 2.278903e+00 7.024345e+01 6.303372e-01 -1.649481e+00 -1.122551e+00 -3.449101e+00 -1.039857e+00 -1.435926e+00 -1.443979e+00 8.266953e-01 -8.416359e-01 -8.673179e-01 -1.359573e+00 6.383713e-01 4.831972e+00 3.297479e-01 -2.464704e-01 -2.117546e-01 -3.924174e-01 -6.294262e-02 2.313255e-01 -5.378816e-01 -3.709927e-01 -4.272795e-01 -2.652152e-01 -6.715410e-01 -2.578169e-01 -6.532196e-01
<VARIANCE> 39
 3.238397e+01 2.913558e+01 3.981491e+01 3.671304e+01 4.293584e+01 6.548575e+01 5.814979e+01 4.305446e+01 3.588607e+01 3.371625e+01 3.651511e+01 3.036451e+01 3.533656e+01 2.969706e+00 5.694695e+00 8.076330e+00 3.610437e+00 5.740451e+00 5.766367e+00 9.971848e+00 9.178228e+00 6.849436e+00 6.205609e+00 5.339404e+00 4.666816e+00 4.956288e+00 4.811709e-01 6.679309e-01 8.225389e-01 7.240506e-01 9.033602e-01 1.124170e+00 1.175223e+00 1.045834e+00 8.682893e-01 8.716114e-01 8.286518e-01 7.443544e-01 9.845617e-01
<GCONST> 1.398292e+02
<TRANSP> 5
 0.000000e+00 1.000000e+00 0.000000e+00 0.000000e+00 0.000000e+00
 0.000000e+00 5.684996e-01 4.315005e-01 0.000000e+00 0.000000e+00
 0.000000e+00 0.000000e+00 5.151820e-01 4.848180e-01 0.000000e+00
 0.000000e+00 0.000000e+00 0.000000e+00 4.066660e-01 5.933340e-01
 0.000000e+00 0.000000e+00 0.000000e+00 0.000000e+00 0.000000e+00
<ENDHMM>
~h "e"
<BEGINHMM>
<NUMSTATES> 5
<STATE> 2
<MEAN> 39
 -3.878274e+00 -1.128827e+01 -5.009505e+00 -1.485689e+01 -5.790735e+00 -1.060698e+01 -1.287519e+01 1.648178e+00 -5.713270e-01 -2.156624e+00 -7.101987e+00 2.247469e+00 7.275764e+01 4.183846e-01 -1.628049e+00 -1.111108e+00 -2.950521e+00 -1.773620e-01 4.243401e-02 -5.055467e-01 1.025377e+00 1.042964e-01 -4.579113e-01 -1.657987e+00 -4.490471e-01 1.718275e+00 -3.944438e-01 1.679874e-01 1.563047e-01 7.495319e-01 3.782973e-01 5.818285e-01 6.020768e-01 -1.210429e-01 6.174643e-02 1.137916e-01 1.720567e-01 -3.180473e-01 -4.428670e-01
<VARIANCE> 39
 2.331454e+01 3.649878e+01 4.854447e+01 4.235397e+01 6.558968e+01 6.320037e+01 7.382433e+01 6.369636e+01 5.920988e+01 6.207016e+01 5.695609e+01 6.027973e+01 2.872062e+01 2.278169e+00 2.600650e+00 2.728301e+00 4.840880e+00 5.234712e+00 4.356398e+00 6.615083e+00 5.220539e+00 4.555510e+00 4.713679e+00 4.155109e+00 4.287405e+00 1.522072e+00 4.200558e-01 5.893887e-01 4.642348e-01 6.237715e-01 7.282156e-01 7.068564e-01 9.550816e-01 1.132112e+00 7.773603e-01 7.511595e-01 7.577396e-01 8.220504e-01 4.070079e-01
<GCONST> 1.348100e+02
<STATE> 3
<MEAN> 39
 -3.739520e+00 -1.410268e+01 -9.364603e+00 -1.725650e+01 -1.580591e+00 -4.731578e+00 -1.057837e+01 2.364176e+00 7.293388e-01 -3.318294e+00 -1.021198e+01 -2.610710e+00 7.409267e+01 1.975034e-02 -2.872003e-01 -1.661703e-01 8.706830e-03 1.061316e-01 4.624764e-01 4.261861e-01 -3.101904e-02 -5.673382e-03 -2.429130e-01 -1.413165e-01 -2.725308e-01 -1.637664e-02 2.200666e-02 3.615838e-01 3.247635e-01 4.650657e-01 -1.844763e-01 -1.091964e-01 -3.518081e-02 -2.777253e-01 -1.170930e-01 8.735945e-02 3.305003e-01 1.751562e-01 -4.223788e-01
<VARIANCE> 39
 2.340442e+01 2.822545e+01 4.392749e+01 4.202174e+01 5.775091e+01 7.380105e+01 6.755678e+01 6.038797e+01 5.711983e+01 6.576169e+01 4.456613e+01 4.688506e+01 3.122622e+01 4.756751e-01 1.014198e+00 1.334167e+00 1.575466e+00 2.569730e+00 2.483350e+00 2.203349e+00 2.209889e+00 2.136336e+00 2.312211e+00 2.135241e+00 2.356769e+00 7.730099e-01 1.147863e-01 2.414928e-01 2.197405e-01 4.019141e-01 3.651197e-01 3.935027e-01 4.447484e-01 5.413214e-01 4.326680e-01 4.608880e-01 4.556866e-01 3.955545e-01 2.169632e-01
<GCONST> 1.138550e+02
<STATE> 4
<MEAN> 39
 -3.495552e+00 -1.240401e+01 -5.330622e+00 -1.402590e+01 -5.473954e+00 -7.399258e+00 -9.567278e+00 1.293859e+00 -1.178215e+00 -4.333272e+00 -7.952316e+00 -2.843676e-01 7.127187e+01 -1.006330e-01 1.470637e+00 1.334374e+00 1.968057e+00 -4.571742e-01 4.439451e-01 5.447047e-01 -9.263580e-01 -4.534544e-01 2.778850e-01 1.183485e+00 2.644854e-01 -1.972718e+00 -2.566959e-01 4.195785e-01 2.705313e-01 5.539683e-01 1.944452e-01 2.791147e-01 2.070396e-01 -1.072229e-01 8.479121e-02 2.502336e-01 2.831742e-01 -1.436496e-02 -5.415480e-01
<VARIANCE> 39
 2.475216e+01 3.530663e+01 5.546039e+01 5.303147e+01 8.237070e+01 8.309354e+01 6.798673e+01 6.336718e+01 6.802653e+01 6.056324e+01 4.815225e+01 4.658807e+01 5.303182e+01 1.721063e+00 2.793720e+00 2.714657e+00 4.467354e+00 4.643850e+00 4.458716e+00 4.766082e+00 4.691295e+00 4.278352e+00 4.330167e+00 3.753578e+00 3.490705e+00 3.091102e+00 3.093314e-01 5.842087e-01 5.069109e-01 7.366951e-01 8.055866e-01 8.019088e-01 9.289078e-01 1.082438e+00 8.605827e-01 8.467068e-01 7.557704e-01 6.898190e-01 4.511851e-01
<GCONST> 1.355793e+02
<TRANSP> 5
 0.000000e+00 1.000000e+00 0.000000e+00 0.000000e+00 0.000000e+00
 0.000000e+00 5.037615e-01 4.962385e-01 0.000000e+00 0.000000e+00
 0.000000e+00 0.000000e+00 7.467153e-01 2.532847e-01 0.000000e+00
 0.000000e+00 0.000000e+00 0.000000e+00 4.670557e-01 5.329443e-01
 0.000000e+00 0.000000e+00 0.000000e+00 0.000000e+00 0.000000e+00
<ENDHMM>
~h "f"
<BEGINHMM>
<NUMSTATES> 5
<STATE> 2
<MEAN> 39
 -6.239587e+00 -4.593118e+00 -1.229033e+00 -3.763237e+00 -4.464818e+00 -1.509884e+00 -6.020482e+00 -2.709334e+00 -4.691304e+00 -3.908341e+00 -3.529665e+00 -8.587353e-01 6.397786e+01 -2.447325e+00 8.881823e-01 1.082996e+00 3.176896e+00 1.072605e+00 1.184268e+00 1.657823e+00 7.406493e-01 1.126059e+00 1.139412e+00 1.035079e+00 3.219886e-01 -1.036566e+00 -4.563040e-01 -4.988031e-01 -1.161992e-01 -3.547390e-01 -5.698918e-02 6.068175e-02 2.390575e-01 4.862278e-01 3.057552e-01 4.128426e-01 2.077706e-01 1.962790e-01 3.368179e-01
<VARIANCE> 39
 4.576296e+01 2.603949e+01 3.861279e+01 6.412196e+01 3.485613e+01 4.076974e+01 4.064932e+01 3.417297e+01 3.610938e+01 3.249440e+01 2.825937e+01 2.788299e+01 3.642423e+01 3.475903e+00 3.678322e+00 4.055580e+00 5.975485e+00 4.041091e+00 4.304061e+00 4.276370e+00 5.071233e+00 4.556873e+00 4.187285e+00 3.437033e+00 3.151156e+00 2.012379e+00 7.894066e-01 4.394739e-01 6.190863e-01 1.213075e+00 6.036527e-01 6.026906e-01 7.727697e-01 7.023408e-01 6.664886e-01 6.497985e-01 5.393623e-01 4.942226e-01 2.655340e-01
<GCONST> 1.296496e+02
<STATE> 3
<MEAN> 39
 -1.650256e+01 -6.101947e+00 -6.197727e-02 2.472770e+00 -2.374410e+00 2.251000e+00 9.390765e-02 3.246698e+00 1.701361e+00 2.772153e+00 1.633405e+00 2.160295e+00 6.294475e+01 -6.316896e-01 -3.524211e-01 -1.590551e-01 1.148026e-01 8.313805e-02 1.315477e-01 2.849075e-01 4.082515e-01 4.313586e-01 4.356246e-01 4.041794e-01 2.648093e-01 3.018840e-01 1.009639e+00 -6.140879e-02 -2.758178e-01 -7.956926e-01 -2.226656e-01 -3.819529e-01 -5.374227e-01 -4.614961e-01 -4.920036e-01 -5.410327e-01 -4.491677e-01 -1.791047e-01 3.639300e-01
<VARIANCE> 39
 2.573645e+01 1.716243e+01 1.691674e+01 1.579083e+01 1.762013e+01 1.748769e+01 1.932006e+01 1.917485e+01 2.003841e+01 1.894415e+01 1.675482e+01 1.518570e+01 3.342341e+01 2.839846e+00 1.209038e+00 1.272009e+00 1.538403e+00 1.556044e+00 1.848514e+00 2.119907e+00 2.493166e+00 2.557907e+00 2.553491e+00 2.077080e+00 1.742541e+00 1.420007e+00 4.785005e-01 4.052684e-01 4.509461e-01 7.004387e-01 4.502288e-01 5.178937e-01 5.119811e-01 5.087272e-01 5.040163e-01 5.315433e-01 4.955679e-01 4.361318e-01 3.694789e-01
<GCONST> 1.086896e+02
<STATE> 4
<MEAN> 39
 -1.189995e+01 -5.707728e+00 -3.778052e-01 3.621154e-01 -2.695525e+00 3.496410e-01 -1.585075e+00 1.464621e+00 -1.678042e-01 4.340836e-01 2.446648e-01 1.477234e+00 6.563067e+01 3.632136e+00 -1.085181e+00 -1.836257e+00 -3.792666e+00 -7.271116e-01 -1.136444e+00 -1.810645e+00 -1.124737e+00 -1.251974e+00 -1.526349e+00 -1.622251e+00 -4.187030e-01 2.105475e+00 4.606388e-01 -6.103749e-01 -5.729239e-01 -1.126672e+00 -9.365710e-02 -4.122907e-02 -4.452164e-01 -1.794831e-01 -4.041755e-01 -3.054442e-01 -4.882345e-01 -1.398340e-01 3.871133e-01
<VARIANCE> 39
 5.628015e+01 2.118784e+01 2.043482e+01 2.485230e+01 1.983904e+01 2.324913e+01 2.418644e+01 2.083721e+01 2.018133e+01 2.077834e+01 1.918898e+01 1.698540e+01 2.982523e+01 2.450658e+00 4.663177e+00 4.056304e+00 4.834463e+00 3.914078e+00 4.655429e+00 3.392662e+00 3.449143e+00 3.382102e+00 3.648461e+00 4.044419e+00 3.821316e+00 2.562220e+00 9.460737e-01 5.701051e-01 4.919183e-01 7.723143e-01 6.143972e-01 6.309066e-01 6.498885e-01 6.194525e-01 5.567852e-01 6.473033e-01 6.251510e-01 5.447752e-01 3.302126e-01
<GCONST> 1.228860e+02
<TRANSP> 5
 0.000000e+00 1.000000e+00 0.000000e+00 0.000000e+00 0.000000e+00
 0.000000e+00 6.345287e-01 3.654713e-01 0.000000e+00 0.000000e+00
 0.000000e+00 0.000000e+00 7.433074e-01 2.566927e-01 0.000000e+00
 0.000000e+00 0.000000e+00 0.000000e+00 5.607470e-01 4.392530e-01
 0.000000e+00 0.000000e+00 0.000000e+00 0.000000e+00 0.000000e+00
<ENDHMM>
~h "g"
<BEGINHMM>
<NUMSTATES> 5
<STATE> 2
<MEAN> 39
 -2.415086e+00 -4.500440e+00 -1.699649e+00 -9.246803e+00 -6.588460e+00 -4.161679e+00 -8.910533e+00 -5.115740e+00 -4.463249e+00 -1.522709e+00 -5.656026e+00 -1.649953e-01 6.017321e+01 -4.179496e-01 7.541610e-01 1.290092e-01 2.294096e+00 9.687634e-01 7.523307e-01 1.603627e+00 3.578749e-01 9.108653e-01 3.672339e-01 9.393172e-01 7.574692e-02 -2.487122e+00 -3.062398e-01 -5.399481e-01 -4.009676e-01 -2.560549e-01 1.484326e-01 1.222016e-01 4.298725e-01 6.036490e-01 1.990635e-01 2.507631e-01 1.816606e-01 1.843320e-01 5.526909e-01
<VARIANCE> 39
 2.711360e+01 4.046199e+01 5.246863e+01 7.019073e+01 5.382845e+01 5.426889e+01 6.521830e+01 5.168884e+01 5.826501e+01 5.694222e+01 5.449312e+01 4.796806e+01 5.900481e+01 2.131143e+00 3.368196e+00 4.561033e+00 5.516801e+00 5.169853e+00 5.110320e+00 6.312565e+00 6.387110e+00 5.646838e+00 5.169817e+00 4.667399e+00 4.222640e+00 4.196094e+00 3.069255e-01 5.288943e-01 8.761626e-01 1.481716e+00 1.007154e+00 1.023357e+00 1.216433e+00 1.018718e+00 1.089963e+00 1.057263e+00 8.869464e-01 9.195974e-01 1.117538e+00
<GCONST> 1.417382e+02
<STATE> 3
<MEAN> 39
 -8.084738e+00 -5.725613e+00 -1.641737e+00 -1.882021e+00 -2.676987e+00 2.207552e-01 2.993782e-01 1.298453e+00 2.765904e+00 3.222607e+00 6.835688e-01 2.462962e+00 5.320470e+01 -2.356337e-01 -1.199280e+00 -2.179902e+00 -8.108789e-01 7.002764e-01 -2.291144e-01 9.404242e-01 1.499706e+00 3.001356e-01 7.851809e-01 1.002746e-01 7.731618e-01 1.674944e+00 6.652987e-01 -3.576290e-02 -4.607722e-01 -1.392518e+00 -4.051411e-01 -5.764289e-01 -9.578396e-01 -4.668210e-01 -8.762209e-01 -4.104925e-01 -7.875466e-01 -3.158412e-02 1.486368e+00
<VARIANCE> 39
 2.379074e+01 3.788571e+01 3.305393e+01 3.683406e+01 3.667582e+01 3.739026e+01 4.099957e+01 3.844451e+01 4.522827e+01 3.772580e+01 3.906391e+01 2.847680e+01 3.061994e+01 2.755221e+00 3.368212e+00 4.747821e+00 6.173092e+00 5.172147e+00 5.271396e+00 5.933697e+00 4.938391e+00 5.865642e+00 4.835611e+00 4.801652e+00 3.642474e+00 6.239820e+00 3.957929e-01 6.583216e-01 8.010567e-01 1.002843e+00 8.605022e-01 9.423833e-01 9.094245e-01 1.000826e+00 9.817095e-01 9.081698e-01 8.444880e-01 7.597672e-01 6.485815e-01
<GCONST> 1.355175e+02
<STATE> 4
<MEAN> 39
 -3.893651e+00 -7.227690e+00 -1.043264e+01 -9.306978e+00 -2.138253e+00 -3.461981e+00 -1.897815e+00 2.023644e+00 -2.096835e+00 2.539495e+00 -3.728866e+00 3.146180e+00 6.413264e+01 1.597592e+00 2.024298e-01 -1.123197e+00 -3.635751e+00 -8.623734e-01 -1.188389e+00 -2.124287e+00 -8.476425e-01 -2.014626e+00 -7.137874e-01 -1.565660e+00 3.930449e-01 3.426145e+00 4.645437e-02 8.124168e-02 8.125229e-01 -4.646325e-01 -3.936885e-01 1.849203e-01 -7.024759e-01 -5.605145e-01 -1.976207e-01 -3.625960e-01 -1.661814e-01 -2.923473e-01 -1.617041e-01
<VARIANCE> 39
 3.875756e+01 4.731627e+01 4.069753e+01 7.331099e+01 5.562666e+01 5.803413e+01 6.117472e+01 4.730598e+01 4.991504e+01 3.938801e+01 3.606536e+01 3.190856e+01 3.759897e+01 1.966054e+00 3.814266e+00 5.863506e+00 5.444863e+00 5.284913e+00 5.053937e+00 6.309441e+00 5.859821e+00 5.542647e+00 5.146403e+00 4.915515e+00 4.785885e+00 3.830579e+00 4.793876e-01 8.337361e-01 8.520399e-01 1.270378e+00 1.066537e+00 1.074409e+00 1.391779e+00 1.191248e+00 1.155606e+00 9.853332e-01 9.041040e-01 8.914338e-01 6.230778e-01
<GCONST> 1.409714e+02
<TRANSP> 5
 0.000000e+00 1.000000e+00 0.000000e+00 0.000000e+00 0.000000e+00
 0.000000e+00 6.396841e-01 3.603159e-01 0.000000e+00 0.000000e+00
 0.000000e+00 0.000000e+00 5.595969e-01 4.404031e-01 0.000000e+00
 0.000000e+00 0.000000e+00 0.000000e+00 5.466028e-01 4.533972e-01
 0.000000e+00 0.000000e+00 0.000000e+00 0.000000e+00 0.000000e+00
<ENDHMM>
~h "h"
<BEGINHMM>
<NUMSTATES> 5
<STATE> 2
<MEAN> 39
 -2.920604e+00 -8.458839e+00 -9.305477e+00 -1.281185e+01 -2.427409e-01 -1.055554e+00 -1.059167e+01 -2.267223e+00 -7.205024e+00 -5.732750e+00 -4.748327e+00 -2.182832e+00 6.736063e+01 -5.131513e-01 1.145204e+00 -4.762204e-02 1.703400e+00 1.852155e+00 1.356841e+00 9.416341e-01 4.357127e-02 2.350148e-01 3.376938e-01 7.763034e-01 -2.619333e-01 -1.299786e+00 -4.992916e-01 -1.897228e-01 3.228519e-01 3.272623e-01 9.243530e-02 1.567325e-01 6.000274e-01 5.259512e-01 4.018910e-01 5.439355e-01 2.248690e-01 1.096218e-01 2.969954e-02
<VARIANCE> 39
 3.122466e+01 4.790031e+01 4.579996e+01 6.905974e+01 6.674825e+01 7.800185e+01 6.964683e+01 5.770184e+01 7.523355e+01 6.736724e+01 5.404720e+01 5.372917e+01 4.545859e+01 2.844252e+00 2.925164e+00 4.370334e+00 5.977947e+00 6.706675e+00 4.908967e+00 7.073199e+00 6.717921e+00 6.218068e+00 5.978845e+00 4.614481e+00 3.997135e+00 1.449698e+00 3.133099e-01 4.675609e-01 5.703276e-01 7.611588e-01 8.763832e-01 8.234355e-01 1.050270e+00 1.168594e+00 1.147003e+00 1.081465e+00 8.720862e-01 7.188141e-01 1.921505e-01
<GCONST> 1.390855e+02
<STATE> 3
<MEAN> 39
 -9.456036e+00 -7.489934e+00 -7.480773e+00 -4.235860e+00 7.107257e+00 4.358304e+00 -2.425833e+00 3.374412e+00 -1.501103e+00 3.078938e-01 -6.023853e-01 -1.923385e+00 6.384722e+01 -1.386050e+00 -3.668850e-01 -1.186364e-01 1.011704e+00 1.014992e+00 9.264807e-01 1.607519e+00 1.897478e+00 1.757246e+00 1.783080e+00 1.038178e+00 3.123207e-01 -3.690272e-01 5.462092e-01 -1.312277e-01 -1.886030e-01 -8.158759e-01 -6.798898e-01 -4.154605e-01 -6.273994e-01 -4.458612e-01 -3.479643e-01 -4.392419e-01 -2.426648e-01 3.922431e-02 3.148988e-01
<VARIANCE> 39
 3.375471e+01 4.804175e+01 3.398061e+01 5.060193e+01 6.497212e+01 4.640364e+01 4.910649e+01 5.350331e+01 5.027950e+01 5.154328e+01 3.507023e+01 3.343120e+01 4.074873e+01 1.901644e+00 1.844608e+00 2.546643e+00 3.630659e+00 3.986772e+00 3.296496e+00 4.160668e+00 4.641732e+00 3.735332e+00 4.406385e+00 3.318310e+00 2.890684e+00 9.014578e-01 3.135408e-01 3.854476e-01 4.991501e-01 5.794150e-01 7.233564e-01 6.593859e-01 8.621199e-01 1.050747e+00 8.414534e-01 8.917754e-01 6.557648e-01 5.764276e-01 1.693087e-01
<GCONST> 1.277824e+02
<STATE> 4
<MEAN> 39
 -1.027372e+01 -8.078347e+00 -7.682455e+00 -4.178787e+00 6.818789e+00 4.774676e+00 -1.322508e+00 4.817807e+00 1.355979e+00 1.989767e+00 8.034302e-01 -9.981633e-01 6.306190e+01 1.261031e+00 4.218714e-02 -2.066267e-01 -1.263067e+00 -1.066985e+00 -5.885109e-01 -1.218583e+00 -1.267212e+00 -9.023856e-01 -9.810057e-01 -4.827664e-01 -3.883857e-02 6.835146e-01 5.425245e-01 -9.632111e-02 -1.411970e-01 -7.065471e-01 -4.674560e-01 -2.951763e-01 -5.609338e-01 -5.562974e-01 -4.825653e-01 -4.189635e-01 -3.280355e-01 -3.525409e-02 4.053257e-01
<VARIANCE> 39
 3.852296e+01 6.396646e+01 3.756092e+01 5.295757e+01 6.748289e+01 4.572927e+01 4.807602e+01 5.471395e+01 4.657339e+01 4.768930e+01 3.452316e+01 3.094930e+01 4.077024e+01 2.639422e+00 2.241550e+00 2.672286e+00 4.475376e+00 4.245624e+00 3.192200e+00 4.246865e+00 4.572122e+00 3.467315e+00 3.460680e+00 2.947088e+00 2.599176e+00 1.676351e+00 3.572547e-01 4.851705e-01 5.223935e-01 7.290384e-01 6.694378e-01 6.114273e-01 7.831402e-01 8.524705e-01 6.672347e-01 7.254320e-01 5.865347e-01 5.119660e-01 3.075488e-01
<GCONST> 1.291259e+02
<TRANSP> 5
 0.000000e+00 1.000000e+00 0.000000e+00 0.000000e+00 0.000000e+00
 0.000000e+00 6.572471e-01 3.427529e-01 0.000000e+00 0.000000e+00
 0.000000e+00 0.000000e+00 5.937116e-01 4.062884e-01 0.000000e+00
 0.000000e+00 0.000000e+00 0.000000e+00 7.552412e-01 2.447588e-01
 0.000000e+00 0.000000e+00 0.000000e+00 0.000000e+00 0.000000e+00
<ENDHMM>
~h "i"
<BEGINHMM>
<NUMSTATES> 5
<STATE> 2
<MEAN> 39
 -1.263711e+01 8.908204e-01 1.285244e+01 -1.578230e+01 -1.190943e+01 -4.774181e+00 -1.482133e+01 -1.029009e+01 -7.850518e+00 -1.086103e+00 -6.478143e+00 9.760337e-01 6.891822e+01 4.944870e-01 -5.500432e-01 1.592423e+00 -2.457717e+00 -1.321740e+00 -4.144324e-01 -1.945858e+00 -9.192995e-01 -1.350695e+00 2.001072e-02 -1.580920e+00 -4.084197e-02 5.354874e-01 -1.792691e-01 -1.869042e-01 -6.068200e-01 6.026016e-01 4.483153e-01 2.686141e-01 7.102084e-01 6.090131e-01 4.709821e-01 1.723542e-01 1.919767e-01 -4.608808e-02 -2.541166e-01
<VARIANCE> 39
 2.455228e+01 3.637742e+01 3.559158e+01 5.079625e+01 3.636409e+01 3.641801e+01 4.686639e+01 4.225264e+01 5.241422e+01 4.393110e+01 4.712772e+01 5.718312e+01 2.555832e+01 3.415529e+00 3.469947e+00 2.930581e+00 3.977543e+00 4.314761e+00 4.159520e+00 5.226508e+00 4.767005e+00 4.976653e+00 4.030876e+00 3.628743e+00 3.384362e+00 1.066325e+00 3.621642e-01 3.690979e-01 4.164638e-01 5.815719e-01 5.695519e-01 6.023793e-01 7.642039e-01 6.566052e-01 6.221036e-01 7.072738e-01 6.062988e-01 5.870510e-01 2.580541e-01
<GCONST> 1.278373e+02
<STATE> 3
<MEAN> 39
 -1.236197e+01 1.264575e+00 1.458520e+01 -1.888048e+01 -1.179476e+01 -3.878467e+00 -1.721297e+01 -8.970509e+00 -8.236513e+00 -3.881816e-01 -8.806051e+00 -3.244498e-02 6.799980e+01 1.965706e-01 -3.013318e-01 2.830576e-02 1.738650e-01 -4.132670e-01 1.189416e-01 2.255332e-01 -1.259726e-01 1.858937e-01 1.544029e-01 9.029093e-03 9.444340e-02 -1.016742e-01 9.473782e-02 -5.357784e-02 -2.370870e-01 4.588897e-01 2.606964e-02 -2.240298e-02 3.552819e-01 5.419886e-02 1.309476e-01 -1.672342e-03 2.167764e-01 -2.764975e-03 -1.469074e-01
<VARIANCE> 39
 2.433928e+01 3.334409e+01 3.052904e+01 4.257573e+01 4.017147e+01 3.825539e+01 4.432471e+01 4.274724e+01 6.443513e+01 5.257208e+01 4.747954e+01 4.882976e+01 3.124599e+01 5.214308e-01 1.230568e+00 8.430921e-01 1.350577e+00 1.642374e+00 1.293042e+00 1.839829e+00 1.509660e+00 1.568062e+00 1.649278e+00 1.545925e+00 1.504553e+00 5.376863e-01 1.381185e-01 1.734279e-01 2.377610e-01 3.717744e-01 3.290260e-01 2.972319e-01 3.852150e-01 3.567769e-01 3.674551e-01 3.526669e-01 3.506508e-01 2.950301e-01 1.066614e-01
<GCONST> 1.053663e+02
<STATE> 4
<MEAN> 39
 -9.857880e+00 -3.162105e+00 1.216208e+01 -1.368503e+01 -1.536776e+01 -4.420377e+00 -1.182564e+01 -9.710459e+00 -7.228207e+00 6.807280e-01 -7.151076e+00 6.699144e-01 6.718342e+01 7.233193e-01 -4.176403e-01 -1.799767e+00 2.843629e+00 8.666006e-01 -1.222915e-01 1.927811e+00 1.072680e+00 7.857744e-01 -3.169864e-01 1.111669e+00 -2.661865e-01 -1.340092e+00 -1.956990e-01 2.675492e-01 -4.367060e-01 4.006786e-01 8.498228e-01 1.658519e-01 1.383855e-01 4.754629e-01 3.080100e-01 -1.404370e-01 2.505564e-01 -1.300454e-02 -3.684989e-01
<VARIANCE> 39
 2.744138e+01 4.424790e+01 3.841268e+01 6.136410e+01 4.500399e+01 4.267518e+01 5.308324e+01 5.285410e+01 6.598672e+01 4.970515e+01 5.100629e+01 4.638807e+01 5.386444e+01 2.198187e+00 2.964317e+00 2.826553e+00 3.832044e+00 5.158765e+00 3.781624e+00 4.517979e+00 4.236115e+00 4.302939e+00 4.125852e+00 3.412142e+00 3.070540e+00 2.544782e+00 3.527512e-01 4.834552e-01 4.416664e-01 7.911987e-01 7.408118e-01 6.543046e-01 8.167753e-01 7.716932e-01 7.156612e-01 7.557015e-01 6.264727e-01 5.264699e-01 3.931218e-01
<GCONST> 1.315708e+02
<TRANSP> 5
 0.000000e+00 1.000000e+00 0.000000e+00 0.000000e+00 0.000000e+00
 0.000000e+00 5.091052e-01 4.908948e-01 0.000000e+00 0.000000e+00
 0.000000e+00 0.000000e+00 7.952049e-01 2.047951e-01 0.000000e+00
 0.000000e+00 0.000000e+00 0.000000e+00 5.855582e-01 4.144418e-01
 0.000000e+00 0.000000e+00 0.000000e+00 0.000000e+00 0.000000e+00
<ENDHMM>
~h "j"
<BEGINHMM>
<NUMSTATES> 5
<STATE> 2
<MEAN> 39
 -6.790075e+00 -1.372947e+00 2.968361e+00 -3.381104e+00 -8.852874e+00 -5.670634e+00 -7.342165e+00 -6.014671e+00 -5.157585e+00 -3.843842e+00 -4.908516e+00 -1.466435e+00 6.054465e+01 -1.723010e+00 1.457211e+00 -4.731931e-01 2.073691e+00 1.705791e+00 1.468875e+00 1.621206e+00 7.214791e-01 1.040889e+00 5.381241e-01 9.463332e-01 -9.878922e-02 -1.548655e+00 -7.042373e-01 -2.674236e-01 -3.773110e-01 -3.678163e-01 2.794154e-01 3.239183e-01 2.510111e-01 4.757236e-01 3.762749e-01 4.863068e-01 2.473787e-01 2.431140e-01 6.277606e-01
<VARIANCE> 39
 3.356656e+01 4.035667e+01 3.581666e+01 4.553378e+01 5.074143e+01 4.584709e+01 5.166100e+01 5.041145e+01 4.695437e+01 3.981653e+01 3.982225e+01 4.077210e+01 5.351665e+01 4.189623e+00 4.048382e+00 4.049679e+00 4.165095e+00 4.710128e+00 4.590633e+00 5.309572e+00 5.874963e+00 5.048238e+00 4.859505e+00 3.950167e+00 3.846242e+00 5.091537e+00 5.300117e-01 6.258401e-01 6.355301e-01 8.809170e-01 1.043732e+00 8.957883e-01 9.144323e-01 8.473171e-01 8.178943e-01 7.791385e-01 6.708680e-01 7.202278e-01 8.811747e-01
<GCONST> 1.372164e+02
<STATE> 3
<MEAN> 39
 -1.885467e+01 6.043179e-01 -1.771866e+00 4.895545e-01 -1.438025e+00 1.824484e+00 5.402762e-01 1.549503e+00 3.007830e+00 2.998845e+00 1.683821e+00 1.945763e+00 5.979747e+01 -2.491524e+00 8.678356e-01 -2.370523e-01 -5.138511e-01 4.449935e-01 7.454443e-01 4.234493e-01 3.571888e-01 5.804951e-01 5.810301e-01 5.198165e-01 3.146796e-01 2.153482e+00 7.886782e-01 -7.721977e-02 7.684991e-01 -6.521293e-01 -7.350793e-01 -5.485013e-01 -6.776475e-01 -7.279767e-01 -6.421046e-01 -4.241596e-01 -4.186326e-01 -1.635717e-01 4.428720e-01
<VARIANCE> 39
 4.299462e+01 3.937505e+01 3.261107e+01 3.008296e+01 3.060785e+01 2.556468e+01 2.781294e+01 2.899150e+01 2.985980e+01 2.501336e+01 2.358850e+01 1.984270e+01 4.245624e+01 3.568309e+00 3.601341e+00 3.842250e+00 2.748730e+00 3.102253e+00 2.913389e+00 3.400926e+00 3.633677e+00 3.514847e+00 3.495746e+00 3.109583e+00 2.534273e+00 2.725293e+00 1.058475e+00 8.511924e-01 6.400076e-01 7.977543e-01 7.872151e-01 7.226627e-01 7.000688e-01 7.657409e-01 6.778490e-01 5.966406e-01 5.673474e-01 5.300467e-01 7.962223e-01
<GCONST> 1.267711e+02
<STATE> 4
<MEAN> 39
 -2.071749e+01 4.464628e+00 3.535992e+00 -3.657196e+00 -3.958649e+00 8.834336e-01 -2.228416e+00 -3.209774e+00 1.669361e-01 1.154536e+00 2.274231e-01 7.028122e-01 6.810433e+01 2.282609e+00 -7.590193e-01 2.810973e+00 -2.698504e+00 -3.091101e+00 -1.893657e+00 -2.317077e+00 -2.460696e+00 -2.040017e+00 -6.151455e-01 -8.986151e-01 -5.954953e-03 1.642287e+00 1.036654e+00 -9.887749e-01 1.768678e-01 -6.316633e-01 -6.926715e-01 -5.658199e-01 -5.081733e-01 -1.236472e-01 -5.538568e-01 -8.575282e-02 -5.123896e-01 1.117389e-02 -2.719482e-01
<VARIANCE> 39
 3.867950e+01 3.137957e+01 4.543964e+01 3.134841e+01 4.227079e+01 3.552654e+01 3.964384e+01 3.969339e+01 3.306002e+01 2.516911e+01 2.157414e+01 1.944641e+01 2.288837e+01 3.428194e+00 4.406788e+00 2.470683e+00 4.781757e+00 3.820754e+00 3.925236e+00 4.241575e+00 4.637490e+00 3.588859e+00 3.104566e+00 3.072160e+00 3.368591e+00 1.596830e+00 8.979242e-01 7.606986e-01 8.253208e-01 7.034072e-01 8.757273e-01 8.249484e-01 9.250233e-01 1.145642e+00 7.602739e-01 7.110068e-01 6.567405e-01 5.783173e-01 2.238774e-01
<GCONST> 1.284245e+02
<TRANSP> 5
 0.000000e+00 1.000000e+00 0.000000e+00 0.000000e+00 0.000000e+00
 0.000000e+00 7.094150e-01 2.905850e-01 0.000000e+00 0.000000e+00
 0.000000e+00 0.000000e+00 7.088136e-01 2.911864e-01 0.000000e+00
 0.000000e+00 0.000000e+00 0.000000e+00 6.158095e-01 3.841905e-01
 0.000000e+00 0.000000e+00 0.000000e+00 0.000000e+00 0.000000e+00
<ENDHMM>
~h "k"
<BEGINHMM>
<NUMSTATES> 5
<STATE> 2
<MEAN> 39
 -3.779783e+00 -5.082303e+00 -1.487977e+00 -7.787700e+00 -5.524572e+00 -3.252823e+00 -7.262356e+00 -4.165933e+00 -3.592061e+00 -1.147617e+00 -4.407992e+00 3.853124e-01 5.995210e+01 -8.239547e-01 1.109590e-01 -4.583813e-01 2.439210e+00 1.579380e+00 9.689360e-01 1.962712e+00 9.777827e-01 1.228354e+00 1.038462e+00 1.194358e+00 4.037803e-01 -1.875029e+00 -3.365753e-01 -6.693085e-01 -5.309125e-01 -1.480537e-01 3.572269e-01 1.218460e-01 4.108344e-01 6.710197e-01 2.776934e-01 3.136515e-01 1.423204e-01 1.112392e-01 7.456345e-01
<VARIANCE> 39
 2.922073e+01 3.630953e+01 5.164363e+01 7.370349e+01 5.621482e+01 5.405959e+01 6.752148e+01 5.128583e+01 5.885762e+01 5.455649e+01 5.242149e+01 4.579198e+01 5.689499e+01 2.334456e+00 4.108974e+00 5.415710e+00 6.215023e+00 5.352327e+00 4.979317e+00 6.566617e+00 6.577282e+00 5.933209e+00 5.198450e+00 5.004274e+00 4.319250e+00 6.486757e+00 3.622750e-01 5.284169e-01 8.117614e-01 1.255146e+00 9.491456e-01 1.032750e+00 1.277016e+00 9.540912e-01 1.015906e+00 9.678431e-01 9.657540e-01 8.090382e-01 1.191312e+00
<GCONST> 1.426089e+02
<STATE> 3
<MEAN> 39
 -8.244938e+00 -9.821667e+00 -8.071472e+00 -2.878414e+00 1.746124e+00 -1.008475e-01 8.291042e-01 4.216249e+00 2.544189e+00 4.642266e+00 -2.238126e-01 2.826489e+00 6.165663e+01 -1.375412e-01 -7.846794e-01 -7.586874e-01 5.112554e-01 1.348112e+00 9.157741e-02 2.960322e-01 8.315490e-01 2.175955e-01 3.781617e-02 -1.352175e-01 -3.112804e-02 2.433008e+00 2.606257e-01 3.414585e-01 6.872267e-01 -1.169961e-01 -2.437695e-01 -5.576574e-02 -5.379100e-01 -5.980393e-01 -3.864788e-01 -5.279854e-01 -2.425172e-01 -1.622635e-01 1.840484e-01
<VARIANCE> 39
 3.074110e+01 3.750678e+01 5.347685e+01 5.681561e+01 4.613736e+01 5.342991e+01 4.752711e+01 3.620914e+01 4.614552e+01 3.661415e+01 3.618204e+01 2.772807e+01 7.273747e+01 2.412807e+00 4.128983e+00 7.998822e+00 5.331849e+00 4.319352e+00 5.544463e+00 5.526728e+00 4.997180e+00 5.149880e+00 4.666327e+00 4.549314e+00 3.517930e+00 5.637635e+00 4.532304e-01 7.248577e-01 1.333821e+00 1.190788e+00 8.939555e-01 1.146266e+00 1.107572e+00 9.467282e-01 1.046712e+00 8.837491e-01 1.006602e+00 7.084926e-01 1.765123e+00
<GCONST> 1.404385e+02
<STATE> 4
<MEAN> 39
 -8.351097e+00 -1.009531e+01 -2.378230e+00 1.591115e+00 5.915840e+00 1.314521e+00 -1.021203e+00 1.650933e+00 7.809696e-01 1.142229e-01 -1.403627e+00 1.739742e+00 6.971175e+01 7.355011e-01 -2.738916e-02 1.996510e-01 -1.242695e+00 -5.595580e-01 3.026783e-02 -1.433217e+00 -1.568917e+00 -1.213691e+00 -1.356205e+00 -5.871858e-01 -1.198780e-01 5.737066e-01 3.082124e-01 -2.259901e-01 -6.968053e-01 -1.012454e+00 -7.164642e-01 -3.605377e-01 -3.684566e-01 -1.902622e-01 -3.558998e-01 -1.039774e-01 -2.714466e-01 -1.098380e-03 -6.192233e-02
<VARIANCE> 39
 4.048682e+01 4.176376e+01 4.056382e+01 4.449081e+01 4.119666e+01 5.998264e+01 4.738495e+01 3.708530e+01 4.300961e+01 3.945757e+01 3.064379e+01 2.503754e+01 3.101957e+01 2.337042e+00 3.530841e+00 5.230573e+00 6.323350e+00 5.312253e+00 4.855449e+00 4.579806e+00 4.141373e+00 3.919290e+00 4.009546e+00 3.644275e+00 3.241657e+00 1.154645e+00 4.186754e-01 6.608170e-01 6.481431e-01 7.016584e-01 7.547368e-01 8.152793e-01 7.702668e-01 7.866686e-01 6.771831e-01 7.001204e-01 6.167603e-01 5.662078e-01 3.576042e-01
<GCONST> 1.306898e+02
<TRANSP> 5
 0.000000e+00 1.000000e+00 0.000000e+00 0.000000e+00 0.000000e+00
 0.000000e+00 6.477874e-01 3.522126e-01 0.000000e+00 0.000000e+00
 0.000000e+00 0.000000e+00 7.703261e-01 2.296739e-01 0.000000e+00
 0.000000e+00 0.000000e+00 0.000000e+00 7.419862e-01 2.580138e-01
 0.000000e+00 0.000000e+00 0.000000e+00 0.000000e+00 0.000000e+00
<ENDHMM>
~h "l"
<BEGINHMM>
<NUMSTATES> 5
<STATE> 2
<MEAN> 39
 -4.041274e+00 -1.092659e+01 3.225741e-01 -7.588291e+00 -9.460795e+00 -6.992526e+00 -1.095671e+01 -2.951982e+00 -1.338005e+00 -3.601812e+00 -4.422720e+00 1.989833e+00 6.593595e+01 1.867507e-01 1.036163e+00 1.215653e+00 7.658681e-01 -4.496375e-02 -1.299716e+00 -1.426128e+00 -1.001707e+00 -1.379944e-01 -4.776353e-01 -3.453218e-01 3.273410e-01 -6.455849e-01 -1.648823e-01 -7.851776e-02 -5.836792e-02 -5.744766e-01 6.892888e-02 3.290398e-01 1.537641e-01 7.677782e-02 -2.789145e-01 1.184048e-01 -1.339253e-01 -1.867510e-01 4.286335e-01
<VARIANCE> 39
 3.421288e+01 5.082230e+01 6.518105e+01 8.367621e+01 6.939224e+01 9.358321e+01 9.411366e+01 8.019998e+01 7.822768e+01 6.879115e+01 6.394019e+01 5.218712e+01 7.195892e+01 1.417280e+00 2.843480e+00 3.669391e+00 5.465667e+00 5.436904e+00 6.842519e+00 6.809180e+00 5.828930e+00 6.456136e+00 5.774443e+00 4.523688e+00 3.910352e+00 3.137511e+00 2.107236e-01 5.880079e-01 5.552737e-01 1.059848e+00 9.894066e-01 1.454142e+00 1.309227e+00 1.239684e+00 1.124598e+00 1.177504e+00 8.664463e-01 7.201166e-01 4.411332e-01
<GCONST> 1.429745e+02
<STATE> 3
<MEAN> 39
 -4.085123e+00 -8.005205e+00 4.005671e+00 -8.621303e+00 -8.751766e+00 -9.464037e+00 -1.528962e+01 -5.220290e+00 -3.169337e+00 -4.948901e+00 -6.811174e+00 1.688443e+00 6.560712e+01 -2.825672e-01 -1.922330e-01 2.133067e-01 -1.190907e+00 -4.284837e-01 4.344012e-01 3.938988e-01 7.162616e-02 -4.496065e-01 7.648243e-01 -2.419059e-01 -4.791700e-01 9.606732e-01 -1.475036e-01 -6.094942e-01 -4.774017e-01 -6.791163e-01 -2.971772e-01 5.505816e-01 7.468356e-01 4.093967e-01 -1.205836e-01 3.291547e-01 4.125603e-03 -1.602719e-01 7.554091e-01
<VARIANCE> 39
 2.826344e+01 3.566011e+01 7.483219e+01 8.248193e+01 5.673568e+01 6.904765e+01 7.272982e+01 7.137869e+01 8.149374e+01 6.776396e+01 6.085349e+01 5.207523e+01 3.319456e+01 9.359493e-01 1.995504e+00 3.299071e+00 3.389774e+00 4.097597e+00 4.615841e+00 5.854747e+00 5.169998e+00 4.928292e+00 5.205139e+00 4.126603e+00 3.099967e+00 1.991035e+00 1.764852e-01 4.022755e-01 5.283993e-01 8.986388e-01 8.547909e-01 1.236958e+00 1.413323e+00 1.094910e+00 1.124335e+00 1.349112e+00 9.029184e-01 7.709703e-01 2.667486e-01
<GCONST> 1.360354e+02
<STATE> 4
<MEAN> 39
 -4.967920e+00 -1.014675e+01 3.075597e+00 -1.148856e+01 -1.092967e+01 -7.467657e+00 -1.055226e+01 -3.215447e+00 -3.958249e+00 -9.848201e-01 -4.930202e+00 3.857398e-01 6.887873e+01 -5.414228e-01 -1.032881e+00 -4.201367e-01 -2.263838e+00 -8.386941e-01 1.121299e+00 1.056381e+00 4.714229e-01 -5.809467e-01 7.921506e-01 -5.270820e-01 -3.751191e-01 2.162702e+00 -9.499739e-02 -1.080298e-01 -2.600051e-01 -8.874577e-02 2.167551e-01 3.098197e-01 1.378395e-02 4.986264e-04 -2.785866e-02 -3.035808e-01 -1.926434e-01 8.343698e-02 1.131710e-01
<VARIANCE> 39
 2.946617e+01 3.633532e+01 8.026235e+01 6.271332e+01 6.972031e+01 6.198857e+01 6.610881e+01 6.607755e+01 7.367951e+01 4.847136e+01 4.804066e+01 4.082957e+01 4.212191e+01 1.347124e+00 2.949004e+00 4.444007e+00 4.784731e+00 5.690572e+00 6.828238e+00 8.098181e+00 6.749728e+00 6.131655e+00 7.571202e+00 4.705374e+00 4.138308e+00 1.941479e+00 1.491915e-01 3.820193e-01 3.836674e-01 6.406924e-01 6.732058e-01 8.929304e-01 1.067659e+00 8.465309e-01 9.071438e-01 7.786608e-01 6.813434e-01 5.272271e-01 2.499784e-01
<GCONST> 1.353652e+02
<TRANSP> 5
 0.000000e+00 1.000000e+00 0.000000e+00 0.000000e+00 0.000000e+00
 0.000000e+00 4.864147e-01 5.135853e-01 0.000000e+00 0.000000e+00
 0.000000e+00 0.000000e+00 4.775758e-01 5.224242e-01 0.000000e+00
 0.000000e+00 0.000000e+00 0.000000e+00 2.137893e-01 7.862107e-01
 0.000000e+00 0.000000e+00 0.000000e+00 0.000000e+00 0.000000e+00
<ENDHMM>
~h "m"
<BEGINHMM>
<NUMSTATES> 5
<STATE> 2
<MEAN> 39
 -2.855988e+00 -7.494754e+00 8.708500e-01 -5.793649e+00 -5.288081e+00 -4.016302e+00 -1.059474e+01 -4.352193e+00 -4.628009e+00 -1.351222e+00 -4.358045e+00 -1.615532e+00 6.131481e+01 3.319623e-01 9.331338e-01 1.236551e+00 1.643565e+00 -8.788505e-02 -1.021485e+00 -1.605226e+00 -1.895327e+00 -7.998214e-01 9.966806e-02 -9.462676e-01 -9.310589e-01 -1.195581e+00 -1.506042e-01 -3.141628e-01 -1.970574e-01 -5.444680e-01 -1.932894e-01 -3.974085e-02 2.780848e-02 1.241888e-01 -1.868630e-01 -1.286162e-01 -1.492269e-01 -8.685201e-02 5.846150e-01
<VARIANCE> 39
 2.858691e+01 3.841406e+01 3.873805e+01 6.177405e+01 5.128870e+01 5.812226e+01 6.903311e+01 6.519620e+01 6.543103e+01 5.017208e+01 5.605625e+01 6.339581e+01 5.350266e+01 2.037818e+00 2.302492e+00 4.384630e+00 5.429586e+00 4.349501e+00 4.598508e+00 5.311618e+00 5.026844e+00 5.390895e+00 5.036841e+00 4.708125e+00 4.293859e+00 4.207505e+00 2.942910e-01 3.687479e-01 6.992604e-01 7.636986e-01 5.936827e-01 6.744565e-01 8.812714e-01 1.065822e+00 8.303856e-01 7.529117e-01 6.794050e-01 6.699966e-01 3.739417e-01
<GCONST> 1.357976e+02
<STATE> 3
<MEAN> 39
 -2.025649e+00 -6.641197e+00 3.088697e+00 -4.816743e+00 -6.757483e+00 -6.691741e+00 -1.478036e+01 -8.033904e+00 -8.025415e+00 -2.394769e+00 -8.377679e+00 -5.770251e+00 6.109586e+01 8.045686e-02 -2.784358e-01 -1.840963e-01 -4.384217e-01 -5.032937e-01 -2.952597e-01 -4.854955e-02 2.002575e-01 -4.530538e-02 -1.381730e-01 -1.365841e-01 -2.946174e-01 6.087406e-01 -6.796435e-02 -4.077230e-01 -3.936031e-01 -1.000889e+00 -2.389683e-01 3.400028e-01 5.233731e-01 7.165113e-01 2.479816e-01 -1.175117e-01 2.935531e-01 3.710952e-01 7.896123e-01
<VARIANCE> 39
 1.528315e+01 2.770760e+01 2.630772e+01 4.077001e+01 4.652192e+01 5.688456e+01 4.516743e+01 5.270061e+01 6.164745e+01 5.643052e+01 5.123711e+01 5.247547e+01 1.613133e+01 6.086046e-01 1.228327e+00 2.181089e+00 2.505352e+00 2.094920e+00 2.577444e+00 2.719546e+00 3.228271e+00 2.999638e+00 2.985047e+00 2.916847e+00 2.731184e+00 1.523292e+00 2.426212e-01 3.091978e-01 8.874494e-01 6.296310e-01 5.639145e-01 6.957111e-01 7.699611e-01 8.976495e-01 7.620245e-01 9.354668e-01 7.713161e-01 7.520618e-01 2.809857e-01
<GCONST> 1.225160e+02
<STATE> 4
<MEAN> 39
 -1.975260e+00 -8.838534e+00 1.888063e+00 -7.593819e+00 -9.746689e+00 -6.931936e+00 -1.270780e+01 -5.410163e+00 -6.235823e+00 -2.337459e+00 -6.279476e+00 -4.210366e+00 6.484919e+01 -6.281713e-01 -1.162059e+00 -3.290952e-01 -3.667741e+00 -1.199479e+00 1.060272e+00 1.030334e+00 1.590421e+00 2.188509e-01 -3.976166e-01 1.318865e-01 7.839175e-01 2.774532e+00 -3.827926e-01 1.346472e-01 1.546208e-02 -6.634265e-01 3.012680e-01 5.245993e-01 1.745559e-01 1.376868e-01 -1.387291e-01 2.640138e-02 -8.424355e-02 1.556707e-01 2.008123e-01
<VARIANCE> 39
 1.893189e+01 2.742087e+01 4.929096e+01 4.646906e+01 5.119906e+01 4.500721e+01 4.098307e+01 4.728595e+01 4.453959e+01 3.971288e+01 4.151534e+01 4.669488e+01 2.682354e+01 2.549450e+00 3.055624e+00 1.068023e+01 4.324554e+00 5.130731e+00 5.180323e+00 5.762273e+00 6.862906e+00 4.746511e+00 6.367661e+00 4.873234e+00 4.641819e+00 1.747599e+00 1.969989e-01 4.377425e-01 5.993165e-01 7.884453e-01 6.492681e-01 5.771427e-01 7.913969e-01 7.347911e-01 6.640189e-01 6.681231e-01 5.963749e-01 5.636884e-01 3.041914e-01
<GCONST> 1.314267e+02
<TRANSP> 5
 0.000000e+00 1.000000e+00 0.000000e+00 0.000000e+00 0.000000e+00
 0.000000e+00 4.589948e-01 5.410052e-01 0.000000e+00 0.000000e+00
 0.000000e+00 0.000000e+00 6.360609e-01 3.639391e-01 0.000000e+00
 0.000000e+00 0.000000e+00 0.000000e+00 4.330435e-01 5.669565e-01
 0.000000e+00 0.000000e+00 0.000000e+00 0.000000e+00 0.000000e+00
<ENDHMM>
~h "n"
<BEGINHMM>
<NUMSTATES> 5
<STATE> 2
<MEAN> 39
 -5.503899e+00 -6.559837e+00 1.533675e+00 -6.305901e+00 -7.233006e+00 -6.062537e+00 -7.134928e+00 -2.014160e+00 -2.991708e+00 -1.974525e+00 -3.409107e+00 1.051436e+00 6.109865e+01 8.196469e-01 1.097969e+00 1.218633e+00 1.085975e+00 -1.099984e+00 -4.835414e-01 -1.005128e+00 -1.426423e+00 2.722326e-02 -5.415403e-01 -5.562634e-01 -2.938024e-01 -1.254001e+00 -4.626995e-02 -1.483348e-01 -1.403597e-01 -4.398426e-01 -6.365499e-02 1.032984e-01 -2.075419e-01 -4.773392e-02 -1.427040e-01 -8.906735e-02 -1.873774e-01 -1.208732e-01 4.877719e-01
<VARIANCE> 39
 3.253818e+01 3.880753e+01 4.431143e+01 6.601923e+01 6.440804e+01 6.921825e+01 8.282002e+01 6.161525e+01 6.995732e+01 5.196882e+01 6.699897e+01 5.478667e+01 7.606474e+01 1.756595e+00 2.190053e+00 4.153467e+00 4.582269e+00 4.691129e+00 4.661145e+00 5.570267e+00 4.769413e+00 5.222621e+00 4.703583e+00 4.118712e+00 3.458332e+00 4.647464e+00 3.210376e-01 4.041099e-01 6.719840e-01 7.166717e-01 7.568586e-01 8.804036e-01 8.558332e-01 8.432355e-01 8.381175e-01 7.518076e-01 6.735692e-01 5.794618e-01 5.734020e-01
<GCONST> 1.370658e+02
<STATE> 3
<MEAN> 39
 -2.028638e+00 -4.694710e+00 4.446422e+00 -5.599307e+00 -1.202768e+01 -8.141264e+00 -1.207158e+01 -7.297475e+00 -3.799751e+00 -4.821996e+00 -7.492290e+00 -1.735774e+00 6.033692e+01 -2.099319e-01 1.696146e-01 3.534497e-02 -5.523070e-01 -1.855639e-01 -1.210527e-01 -3.859167e-01 -7.154201e-02 -4.224211e-02 -5.366392e-02 -4.559781e-01 -2.276037e-01 6.732059e-01 -5.095026e-01 -4.791412e-01 -5.037936e-01 -1.058116e+00 4.987293e-01 1.805639e-01 3.241070e-01 7.540204e-01 -2.915689e-01 2.542442e-01 1.051870e-01 1.085015e-01 1.103563e+00
<VARIANCE> 39
 1.758434e+01 2.925680e+01 2.468405e+01 3.480846e+01 3.709982e+01 3.741379e+01 4.641688e+01 4.641674e+01 5.908023e+01 4.935660e+01 5.601505e+01 5.094278e+01 1.709628e+01 1.450688e+00 1.798820e+00 3.346470e+00 4.396781e+00 3.591356e+00 3.657337e+00 4.210297e+00 4.097041e+00 3.516812e+00 3.579075e+00 3.287733e+00 2.704194e+00 3.295542e+00 2.737811e-01 4.146380e-01 1.221155e+00 7.423690e-01 8.568038e-01 8.178362e-01 1.013183e+00 8.427818e-01 7.840267e-01 8.167709e-01 6.974434e-01 6.179125e-01 3.483472e-01
<GCONST> 1.282122e+02
<STATE> 4
<MEAN> 39
 -5.201107e+00 -5.315568e+00 2.731183e+00 -1.051451e+01 -9.613553e+00 -8.299714e+00 -1.175876e+01 -4.009277e+00 -4.285122e+00 -3.604182e+00 -7.420980e+00 -1.215970e+00 6.561986e+01 -1.151788e+00 -1.305717e+00 -1.177762e+00 -3.117480e+00 1.039182e+00 6.022475e-01 2.946632e-01 1.710370e+00 -1.045900e+00 3.380468e-01 -2.049957e-01 6.244121e-02 3.203264e+00 -1.011721e-02 -4.318182e-01 -1.780423e-01 -1.546068e-01 1.353819e-01 4.803931e-01 2.195342e-01 1.020730e-01 -2.350158e-01 -2.281563e-03 1.083563e-01 1.526599e-02 1.768218e-01
<VARIANCE> 39
 2.428201e+01 3.836897e+01 4.496949e+01 6.328623e+01 4.299600e+01 4.885152e+01 4.916631e+01 5.738494e+01 4.918874e+01 4.375403e+01 4.628136e+01 4.766371e+01 2.824433e+01 1.767864e+00 4.007712e+00 1.009755e+01 4.755305e+00 6.162869e+00 5.082648e+00 7.262114e+00 5.636316e+00 4.835944e+00 5.214932e+00 4.131599e+00 3.923049e+00 1.928255e+00 2.606536e-01 4.188673e-01 6.264687e-01 7.705980e-01 7.731042e-01 7.151516e-01 7.672303e-01 8.043037e-01 6.665722e-01 6.410376e-01 5.689244e-01 5.279725e-01 4.083492e-01
<GCONST> 1.334654e+02
<TRANSP> 5
 0.000000e+00 1.000000e+00 0.000000e+00 0.000000e+00 0.000000e+00
 0.000000e+00 4.288441e-01 5.711559e-01 0.000000e+00 0.000000e+00
 0.000000e+00 0.000000e+00 5.969566e-01 4.030434e-01 0.000000e+00
 0.000000e+00 0.000000e+00 0.000000e+00 4.353460e-01 5.646540e-01
 0.000000e+00 0.000000e+00 0.000000e+00 0.000000e+00 0.000000e+00
<ENDHMM>
~h "o"
<BEGINHMM>
<NUMSTATES> 5
<STATE> 2
<MEAN> 39
 2.035095e+00 -2.026629e+00 -9.165479e+00 -2.368595e+01 -6.568861e+00 -5.858372e-01 -9.099665e+00 1.574877e+00 -9.637752e+00 -3.942963e+00 -4.225440e+00 8.646417e-01 6.698516e+01 5.846915e-01 -3.677735e-02 -2.035870e+00 -4.462428e+00 1.594280e-01 4.062669e-01 -1.284015e+00 4.997768e-01 -1.204618e+00 -3.888280e-01 -2.055061e-01 4.071678e-01 1.200825e+00 -6.655121e-01 -5.845110e-01 3.888227e-01 1.150553e+00 6.295772e-01 2.428844e-01 1.777984e-01 -2.534027e-01 4.731046e-01 2.518814e-01 1.484925e-01 -1.766949e-01 -4.146247e-02
<VARIANCE> 39
 1.956386e+01 2.579527e+01 3.449337e+01 5.959572e+01 4.795052e+01 4.430365e+01 4.098660e+01 5.459005e+01 4.436142e+01 3.742044e+01 3.939492e+01 5.056988e+01 2.524433e+01 2.390522e+00 3.086543e+00 2.778855e+00 7.675823e+00 5.216823e+00 3.922096e+00 5.750989e+00 4.930381e+00 4.227836e+00 3.830102e+00 3.828212e+00 3.769808e+00 1.392164e+00 2.278911e-01 3.215430e-01 3.905504e-01 1.094996e+00 5.726118e-01 5.952796e-01 8.024274e-01 8.734542e-01 8.907613e-01 7.782927e-01 6.420656e-01 7.002633e-01 2.950581e-01
<GCONST> 1.290699e+02
<STATE> 3
<MEAN> 39
 4.115057e-01 -5.918136e+00 -1.280103e+01 -2.783792e+01 -1.632111e+00 3.577527e+00 -9.755111e+00 1.022513e+00 -9.385325e+00 -3.757343e+00 -2.115173e+00 -7.965875e-01 6.983500e+01 -3.533502e-01 -9.661661e-01 -3.187957e-01 3.526088e-01 9.031898e-01 3.685148e-01 -2.634995e-01 -5.434089e-01 5.960739e-01 4.201446e-01 1.025307e-01 -5.354173e-01 5.004594e-01 -2.800844e-02 -1.787874e-04 2.387599e-01 5.280530e-01 -1.369493e-01 -2.178103e-01 -7.043432e-04 -7.160832e-02 2.722203e-01 3.642305e-02 -2.081615e-01 -1.042384e-01 -1.522796e-01
<VARIANCE> 39
 2.165706e+01 3.227489e+01 3.221103e+01 4.030976e+01 6.046848e+01 5.827917e+01 4.912058e+01 5.675204e+01 5.535301e+01 4.220792e+01 4.345948e+01 5.089946e+01 2.811590e+01 3.892612e-01 1.021371e+00 7.827659e-01 1.782170e+00 1.609430e+00 1.668952e+00 1.942451e+00 1.993967e+00 2.514462e+00 2.346571e+00 2.613684e+00 2.425599e+00 6.681601e-01 7.376406e-02 1.483588e-01 2.055572e-01 4.234168e-01 3.209115e-01 3.261560e-01 3.525522e-01 3.439207e-01 4.568922e-01 4.112276e-01 5.039948e-01 4.371707e-01 7.601508e-02
<GCONST> 1.081771e+02
<STATE> 4
<MEAN> 39
 -2.379089e+00 -1.222126e+01 -1.201581e+01 -2.009279e+01 3.104447e-01 -6.841564e-01 -1.332344e+01 -1.719614e+00 -2.715335e+00 -1.790159e+00 -6.952099e+00 -3.168747e+00 7.209705e+01 -4.547482e-01 -1.025239e-01 1.416653e+00 2.689962e+00 -1.070622e+00 -1.619364e+00 1.846256e-01 2.178726e-01 1.254251e+00 -4.682941e-01 -9.338796e-01 3.602516e-01 -7.856424e-01 -8.167022e-02 5.401608e-01 4.587889e-01 4.263121e-01 -3.054590e-01 -2.426282e-02 5.853015e-01 1.529918e-01 -3.762856e-01 -1.485856e-01 4.573274e-01 4.419055e-01 -5.527632e-01
<VARIANCE> 39
 2.197786e+01 3.224723e+01 3.082555e+01 5.763923e+01 5.966998e+01 8.562761e+01 5.739082e+01 5.865889e+01 7.411877e+01 5.450961e+01 5.469860e+01 5.294955e+01 4.564067e+01 1.116872e+00 3.021918e+00 2.224081e+00 3.520576e+00 4.250106e+00 4.406678e+00 4.406646e+00 4.284078e+00 5.734723e+00 5.170979e+00 5.562859e+00 5.007731e+00 2.766531e+00 2.650183e-01 3.962798e-01 3.599521e-01 6.503959e-01 9.177502e-01 1.098477e+00 7.704520e-01 9.304950e-01 1.068666e+00 1.124759e+00 1.024542e+00 9.019478e-01 2.215459e-01
<GCONST> 1.339241e+02
<TRANSP> 5
 0.000000e+00 1.000000e+00 0.000000e+00 0.000000e+00 0.000000e+00
 0.000000e+00 6.718027e-01 3.281972e-01 0.000000e+00 0.000000e+00
 0.000000e+00 0.000000e+00 8.330439e-01 1.669561e-01 0.000000e+00
 0.000000e+00 0.000000e+00 0.000000e+00 6.971538e-01 3.028462e-01
 0.000000e+00 0.000000e+00 0.000000e+00 0.000000e+00 0.000000e+00
<ENDHMM>
~h "p"
<BEGINHMM>
<NUMSTATES> 5
<STATE> 2
<MEAN> 39
 -2.552830e+00 -4.788970e+00 1.774823e+00 -4.393476e+00 -4.706483e+00 -2.780991e+00 -7.531209e+00 -4.903007e+00 -4.084287e+00 -2.177042e+00 -4.184043e+00 -1.338982e+00 6.020390e+01 -8.188422e-01 9.904640e-01 6.810349e-01 2.376808e+00 1.324059e+00 1.099323e+00 1.792504e+00 7.489400e-01 1.178830e+00 5.594398e-01 9.772206e-01 3.478914e-01 -1.782440e+00 -4.687814e-01 -4.559879e-01 -7.490415e-02 -2.962645e-01 7.568375e-02 2.856244e-01 4.600025e-01 5.755802e-01 3.022792e-01 2.278705e-01 2.674787e-01 1.856576e-01 7.726644e-01
<VARIANCE> 39
 3.031466e+01 4.119179e+01 5.048428e+01 6.535484e+01 5.227232e+01 5.110868e+01 5.732098e+01 5.248427e+01 5.148209e+01 4.438503e+01 4.276395e+01 4.369992e+01 6.953039e+01 3.358696e+00 4.093164e+00 4.560924e+00 6.100229e+00 4.475864e+00 4.565998e+00 5.578300e+00 6.461753e+00 5.104916e+00 4.622959e+00 4.351909e+00 3.944125e+00 7.603035e+00 5.418958e-01 7.429383e-01 7.851432e-01 1.130003e+00 8.702676e-01 7.600691e-01 9.436676e-01 1.066731e+00 8.840639e-01 8.690230e-01 7.866540e-01 7.188158e-01 1.519046e+00
<GCONST> 1.410467e+02
<STATE> 3
<MEAN> 39
 -8.264085e+00 -5.697017e+00 2.833868e+00 7.348721e-01 -1.095901e+00 1.978276e+00 1.728535e+00 2.500201e+00 3.027729e+00 2.791482e+00 1.779333e+00 1.904251e+00 6.025347e+01 -7.028329e-01 -7.443226e-01 6.791195e-01 3.519782e-02 6.049049e-01 9.433216e-01 9.703016e-01 7.073162e-01 3.059575e-01 7.016957e-05 4.168269e-01 3.197315e-01 3.037946e+00 1.323964e-01 -9.754997e-02 -6.923462e-02 -6.247920e-01 -7.164416e-02 -6.677285e-02 -6.160156e-01 -5.330582e-01 -5.437841e-01 -4.675080e-01 -4.138756e-01 -1.490055e-01 5.077662e-01
<VARIANCE> 39
 3.178959e+01 2.824994e+01 3.628775e+01 2.273362e+01 2.984506e+01 2.580856e+01 2.562658e+01 2.751251e+01 2.959900e+01 2.752323e+01 2.370240e+01 2.038162e+01 9.196976e+01 4.236074e+00 3.967877e+00 5.513868e+00 3.654512e+00 4.691383e+00 4.079303e+00 4.312622e+00 4.889866e+00 4.997647e+00 4.521808e+00 4.075979e+00 3.262449e+00 8.023964e+00 7.323041e-01 7.911507e-01 9.126580e-01 8.235459e-01 8.201794e-01 7.281919e-01 7.890953e-01 8.112941e-01 8.052871e-01 7.189345e-01 6.530266e-01 5.801178e-01 2.287952e+00
<GCONST> 1.329333e+02
<STATE> 4
<MEAN> 39
 -1.190801e+01 -6.910618e+00 3.808803e+00 -3.469862e+00 2.395061e+00 5.118664e+00 -3.703159e-01 3.811813e-01 3.823581e-01 -8.005178e-01 4.291953e-01 1.487559e+00 6.954011e+01 9.780455e-02 2.302708e-02 -6.487302e-01 -1.428274e+00 -4.588633e-01 -3.730085e-01 -1.383249e+00 -9.980237e-01 -1.033173e+00 -7.518125e-01 -6.210225e-01 -1.112145e-01 2.889746e-01 4.796805e-01 5.768448e-02 -2.025636e-01 -3.432781e-01 -6.670541e-01 -4.901772e-01 -4.484476e-01 -2.749069e-01 -3.117077e-01 -3.390888e-03 -2.703700e-01 -7.728165e-02 -3.471941e-01
<VARIANCE> 39
 5.854481e+01 7.922412e+01 6.695483e+01 4.203968e+01 6.140305e+01 3.571275e+01 3.799940e+01 3.392833e+01 3.419534e+01 3.332300e+01 2.409828e+01 2.190814e+01 3.195981e+01 4.603086e+00 4.663936e+00 4.110193e+00 4.305532e+00 6.648990e+00 4.471928e+00 4.261659e+00 4.421999e+00 3.931258e+00 3.362206e+00 3.171972e+00 2.702974e+00 2.700698e+00 7.016601e-01 7.706198e-01 8.857495e-01 8.369058e-01 9.795206e-01 7.902016e-01 8.439215e-01 8.636041e-01 7.467917e-01 6.792650e-01 6.277956e-01 5.635366e-01 7.678575e-01
<GCONST> 1.342122e+02
<TRANSP> 5
 0.000000e+00 1.000000e+00 0.000000e+00 0.000000e+00 0.000000e+00
 0.000000e+00 6.417247e-01 3.582753e-01 0.000000e+00 0.000000e+00
 0.000000e+00 0.000000e+00 7.033058e-01 2.966942e-01 0.000000e+00
 0.000000e+00 0.000000e+00 0.000000e+00 7.902058e-01 2.097942e-01
 0.000000e+00 0.000000e+00 0.000000e+00 0.000000e+00 0.000000e+00
<ENDHMM>
~h "q"
<BEGINHMM>
<NUMSTATES> 5
<STATE> 2
<MEAN> 39
 -8.289452e+00 -1.519906e+00 2.173968e+00 -4.388069e+00 -7.793256e+00 -6.038426e+00 -6.948388e+00 -5.153255e+00 -4.438785e+00 -3.061545e+00 -4.029805e+00 -3.543926e-01 6.243205e+01 -2.459087e+00 1.860706e+00 -3.772452e-01 2.076562e+00 1.928190e+00 1.596733e+00 1.983610e+00 9.407017e-01 1.166822e+00 7.947003e-01 1.204819e+00 8.375067e-02 -1.262766e+00 -7.284366e-01 -3.007977e-01 -3.718949e-01 -3.911535e-01 3.814717e-01 4.938759e-01 3.515983e-01 5.371498e-01 3.996063e-01 5.597160e-01 2.104347e-01 1.306978e-01 5.751900e-01
<VARIANCE> 39
 4.196601e+01 4.844846e+01 4.277066e+01 5.021334e+01 5.566532e+01 5.088526e+01 5.474396e+01 5.263359e+01 4.676722e+01 3.904341e+01 3.981129e+01 3.948344e+01 5.574894e+01 4.783665e+00 4.861566e+00 4.919610e+00 4.857409e+00 5.665233e+00 5.456858e+00 6.177132e+00 6.412093e+00 5.681870e+00 5.613668e+00 4.214750e+00 3.979205e+00 4.810341e+00 6.250473e-01 7.696734e-01 7.204928e-01 9.283710e-01 1.123845e+00 9.968827e-01 1.032187e+00 9.154872e-01 8.877766e-01 8.564109e-01 7.401605e-01 7.412654e-01 7.999488e-01
<GCONST> 1.408815e+02
<STATE> 3
<MEAN> 39
 -2.209508e+01 1.660952e+00 -1.835428e+00 -1.408545e+00 -3.036922e-01 1.863874e+00 1.178648e+00 1.839886e+00 3.194249e+00 3.870681e+00 1.669148e+00 2.069368e+00 6.358201e+01 -1.779230e+00 3.209668e-01 3.206072e-01 -7.108127e-01 4.578308e-01 8.934935e-01 4.889191e-01 3.953300e-01 4.956301e-01 5.724058e-01 3.393556e-01 7.797616e-02 1.949178e+00 8.162272e-01 -2.154425e-01 5.728662e-01 -3.052452e-01 -5.570692e-01 -2.961107e-01 -4.727955e-01 -4.926851e-01 -4.579420e-01 -4.185518e-01 -3.267407e-01 -1.746931e-01 2.040233e-01
<VARIANCE> 39
 3.808205e+01 3.502729e+01 3.310309e+01 3.616670e+01 2.977750e+01 2.509217e+01 2.626648e+01 2.490013e+01 2.604451e+01 2.162220e+01 2.050941e+01 1.738564e+01 4.324211e+01 4.285582e+00 3.155962e+00 3.557996e+00 2.453568e+00 2.883838e+00 2.844743e+00 3.123513e+00 3.230868e+00 3.205775e+00 3.115942e+00 2.681031e+00 2.180267e+00 2.241149e+00 6.581516e-01 5.911143e-01 4.835500e-01 6.422127e-01 6.438740e-01 5.696647e-01 6.370106e-01 6.160215e-01 5.963100e-01 5.396931e-01 5.050915e-01 4.321046e-01 6.757118e-01
<GCONST> 1.219992e+02
<STATE> 4
<MEAN> 39
 -2.025571e+01 1.111596e+00 6.656038e+00 -5.326735e+00 -3.603933e+00 3.880111e+00 1.069531e-01 -1.106273e+00 8.096138e-01 2.369300e+00 3.470564e-01 2.276338e-01 7.163650e+01 1.838982e+00 -6.884863e-01 1.401729e+00 -6.836603e-01 -1.690274e+00 -6.773834e-01 -9.292571e-01 -1.119758e+00 -1.017527e+00 -5.608647e-01 -4.650187e-01 -5.688788e-02 1.903187e-01 4.485022e-01 -1.923704e-01 -1.344972e-01 -2.302974e-01 -3.547494e-01 -4.980554e-01 -4.127102e-01 -2.052706e-01 -3.461932e-01 -1.035083e-01 -2.392688e-01 7.938197e-02 -2.714917e-01
<VARIANCE> 39
 4.473281e+01 4.413959e+01 3.382817e+01 2.664406e+01 3.526075e+01 2.293342e+01 2.748196e+01 2.593846e+01 2.651461e+01 2.329025e+01 1.939473e+01 1.626060e+01 2.567018e+01 2.590734e+00 1.997357e+00 2.135422e+00 3.192630e+00 3.173604e+00 3.814399e+00 4.032446e+00 3.429814e+00 3.207863e+00 2.490400e+00 2.491354e+00 2.265818e+00 1.536511e+00 4.601425e-01 4.098738e-01 4.650654e-01 5.566649e-01 5.459660e-01 5.539475e-01 6.735251e-01 6.466663e-01 6.348857e-01 5.344287e-01 5.336124e-01 4.418388e-01 2.584215e-01
<GCONST> 1.187552e+02
<TRANSP> 5
 0.000000e+00 1.000000e+00 0.000000e+00 0.000000e+00 0.000000e+00
 0.000000e+00 7.078895e-01 2.921106e-01 0.000000e+00 0.000000e+00
 0.000000e+00 0.000000e+00 7.719921e-01 2.280079e-01 0.000000e+00
 0.000000e+00 0.000000e+00 0.000000e+00 8.175299e-01 1.824702e-01
 0.000000e+00 0.000000e+00 0.000000e+00 0.000000e+00 0.000000e+00
<ENDHMM>
~h "r"
<BEGINHMM>
<NUMSTATES> 5
<STATE> 2
<MEAN> 39
 -3.369717e+00 -1.304342e+01 1.876743e+00 -3.687855e+00 -1.411004e+01 -7.944544e+00 -1.027909e+01 -1.771705e+00 -4.671048e+00 -2.936596e+00 -2.689965e+00 1.004195e+00 6.620494e+01 3.362322e-01 -2.915404e-01 6.634798e-01 6.831496e-01 -1.134743e+00 -1.408336e+00 -1.896553e-01 1.682274e-02 -7.357640e-01 -5.187235e-01 2.753318e-01 1.991407e-01 4.071445e-01 -6.409208e-02 -8.445787e-02 -1.721096e-01 -5.708157e-01 1.542723e-01 2.719422e-01 1.079611e-01 1.578568e-01 -5.003276e-02 1.356943e-01 -8.854774e-02 -8.142930e-02 2.756889e-01
<VARIANCE> 39
 4.522218e+01 4.861318e+01 7.514269e+01 7.430231e+01 7.698954e+01 7.730061e+01 9.060613e+01 6.741364e+01 7.150622e+01 6.486912e+01 5.613123e+01 4.644366e+01 6.268597e+01 1.824305e+00 2.498133e+00 3.132153e+00 6.733814e+00 5.562109e+00 5.823881e+00 6.138929e+00 5.942277e+00 5.453253e+00 5.188167e+00 4.128951e+00 3.887163e+00 3.539154e+00 3.343664e-01 4.257160e-01 4.495996e-01 8.624371e-01 1.065489e+00 1.175438e+00 9.408967e-01 9.832348e-01 9.662212e-01 9.988305e-01 7.372157e-01 7.060589e-01 3.160224e-01
<GCONST> 1.402876e+02
<STATE> 3
<MEAN> 39
 -2.575871e+00 -1.559995e+01 6.167269e+00 -8.262882e+00 -1.969033e+01 -1.061369e+01 -7.913109e+00 -3.763925e-01 -8.626751e+00 -2.591893e+00 -1.599145e+00 -2.318030e-01 6.974741e+01 -1.079256e-01 -4.279907e-01 -4.659841e-01 -1.049329e+00 1.641946e-01 2.765396e-01 4.548165e-01 9.778017e-01 8.572197e-02 1.828742e-01 -3.829712e-01 -3.107437e-01 7.811475e-01 -1.036710e-01 3.073080e-02 -3.175417e-01 -2.605617e-01 4.029291e-01 2.443601e-01 7.844753e-02 7.004484e-02 1.151359e-01 -6.068012e-02 -3.032862e-01 -6.443585e-02 1.187522e-01
<VARIANCE> 39
 2.819318e+01 2.930917e+01 4.209007e+01 7.285264e+01 4.821972e+01 5.562387e+01 5.694250e+01 6.687617e+01 5.717631e+01 5.465779e+01 4.459364e+01 4.585106e+01 2.921508e+01 8.178505e-01 1.307886e+00 2.251544e+00 3.055439e+00 2.506056e+00 2.524424e+00 2.936634e+00 3.428594e+00 2.706261e+00 2.937774e+00 2.785151e+00 2.331584e+00 1.027271e+00 1.181850e-01 2.091340e-01 2.243048e-01 5.136555e-01 4.428659e-01 4.865460e-01 4.766560e-01 6.108956e-01 5.083781e-01 5.588713e-01 4.585838e-01 4.199879e-01 1.537006e-01
<GCONST> 1.183194e+02
<STATE> 4
<MEAN> 39
 -4.237744e+00 -1.548046e+01 1.438533e+00 -1.043875e+01 -1.534800e+01 -7.891456e+00 -5.038434e+00 3.541889e+00 -6.334316e+00 -3.661597e+00 -4.628124e+00 -6.308265e-01 7.217570e+01 -2.333706e-01 1.033865e-01 -8.010474e-01 -6.092599e-01 9.193853e-01 4.348089e-01 2.410720e-01 1.026819e-01 -8.020965e-02 -2.612637e-01 -6.032635e-01 -6.254128e-02 3.775787e-01 5.061499e-02 1.782863e-01 5.417797e-02 1.045727e-01 6.661209e-02 -7.190888e-04 -2.528761e-01 -3.085874e-01 -7.681663e-02 2.278577e-03 9.708618e-02 1.019185e-01 -2.089799e-01
<VARIANCE> 39
 3.053107e+01 3.197623e+01 4.157976e+01 6.693159e+01 4.914643e+01 5.137836e+01 8.021606e+01 6.975870e+01 5.563088e+01 4.304519e+01 4.250181e+01 3.780686e+01 3.745089e+01 7.514862e-01 1.350197e+00 1.824278e+00 2.659825e+00 2.559729e+00 2.705280e+00 2.999457e+00 2.683729e+00 2.653101e+00 2.990161e+00 2.507897e+00 2.020086e+00 8.702620e-01 1.301183e-01 1.547508e-01 1.812260e-01 4.389257e-01 4.134100e-01 4.564081e-01 4.256742e-01 4.996437e-01 4.174766e-01 4.175738e-01 3.689736e-01 3.673151e-01 8.944988e-02
<GCONST> 1.150997e+02
<TRANSP> 5
 0.000000e+00 1.000000e+00 0.000000e+00 0.000000e+00 0.000000e+00
 0.000000e+00 6.589919e-01 3.410082e-01 0.000000e+00 0.000000e+00
 0.000000e+00 0.000000e+00 6.782671e-01 3.217328e-01 0.000000e+00
 0.000000e+00 0.000000e+00 0.000000e+00 5.468090e-01 4.531910e-01
 0.000000e+00 0.000000e+00 0.000000e+00 0.000000e+00 0.000000e+00
<ENDHMM>
~h "s"
<BEGINHMM>
<NUMSTATES> 5
<STATE> 2
<MEAN> 39
 -9.372485e+00 -8.550030e-01 -2.910629e+00 -3.607186e+00 -5.956543e+00 -7.442605e+00 -6.282710e+00 -3.597882e+00 -5.226971e+00 -4.195668e+00 -3.035189e+00 3.633705e-01 6.702118e+01 -2.847301e+00 2.325774e+00 -5.829466e-02 3.254777e+00 1.344593e+00 1.341880e+00 1.970780e+00 5.795576e-01 1.107264e+00 8.340768e-01 1.049717e+00 6.807348e-02 -5.232903e-01 -5.316308e-01 -4.192409e-01 -4.847632e-02 -1.377461e-01 1.642981e-01 5.794161e-01 3.759819e-01 5.532389e-01 3.208022e-01 5.416659e-01 1.414439e-01 8.258604e-02 8.628690e-02
<VARIANCE> 39
 4.764261e+01 4.714056e+01 4.394678e+01 6.866296e+01 6.375266e+01 5.989016e+01 6.227420e+01 4.872756e+01 4.980287e+01 4.397645e+01 3.798652e+01 3.644057e+01 3.804924e+01 3.846216e+00 4.631841e+00 3.981921e+00 5.016021e+00 5.116801e+00 6.968334e+00 6.003441e+00 6.428249e+00 4.843331e+00 5.526186e+00 3.895362e+00 3.563081e+00 1.528219e+00 6.729380e-01 8.691348e-01 4.975406e-01 1.072715e+00 7.463394e-01 8.927650e-01 9.522815e-01 7.918667e-01 7.141800e-01 7.836971e-01 6.346511e-01 6.187358e-01 1.512064e-01
<GCONST> 1.364214e+02
<STATE> 3
<MEAN> 39
 -2.163920e+01 1.160065e+00 -3.991563e+00 3.632097e+00 -1.065302e+00 1.970499e-01 1.997186e+00 3.030411e+00 1.170025e+00 2.748478e+00 1.740095e+00 2.385574e+00 6.507967e+01 -8.846244e-01 -4.463279e-01 -2.043848e-01 1.533906e-01 3.395916e-01 6.875121e-01 4.939755e-01 8.794379e-01 6.591693e-01 7.149687e-01 4.223704e-01 3.284788e-01 -1.903705e-01 8.801472e-01 -2.446742e-01 1.286909e-01 -6.015627e-01 -3.323382e-01 -5.841380e-01 -6.082810e-01 -3.886785e-01 -3.711060e-01 -4.342842e-01 -2.973344e-01 -8.541746e-02 1.896234e-01
<VARIANCE> 39
 2.370876e+01 2.888184e+01 2.474591e+01 3.182064e+01 3.700056e+01 3.614953e+01 3.341420e+01 2.748959e+01 2.690962e+01 2.430108e+01 2.129469e+01 1.762554e+01 2.622900e+01 2.359434e+00 1.259065e+00 1.551538e+00 1.740416e+00 1.876169e+00 2.640288e+00 2.657309e+00 2.691509e+00 2.555074e+00 2.682383e+00 2.124908e+00 1.858545e+00 7.237283e-01 3.297022e-01 3.886537e-01 3.296719e-01 5.016101e-01 4.412791e-01 5.703323e-01 6.005138e-01 5.398098e-01 4.939322e-01 5.222189e-01 4.540876e-01 4.176320e-01 1.682710e-01
<GCONST> 1.120386e+02
<STATE> 4
<MEAN> 39
 -1.790037e+01 1.038424e-01 -2.327243e+00 1.273025e+00 -1.250105e+00 -1.632512e+00 4.007817e-01 3.075729e+00 3.468932e-01 1.941742e+00 1.005851e+00 2.149808e+00 6.603941e+01 2.748196e+00 -1.064229e+00 -4.298295e-02 -2.234901e+00 -9.146479e-01 -1.823731e+00 -2.003479e+00 -7.247233e-01 -7.336205e-01 -1.011605e+00 -8.771899e-01 5.036315e-02 1.415676e+00 6.429760e-01 -5.730828e-01 -2.641503e-01 -8.475839e-01 -1.895640e-01 -2.757782e-01 -5.860040e-01 -2.064457e-01 -2.687619e-01 -3.088632e-01 -3.280062e-01 4.025509e-02 3.320286e-01
<VARIANCE> 39
 4.580862e+01 3.030398e+01 2.728795e+01 3.457292e+01 3.860020e+01 4.082845e+01 3.571975e+01 2.910079e+01 2.849513e+01 2.557578e+01 2.272581e+01 1.901624e+01 3.327735e+01 6.083189e+00 4.286056e+00 2.443702e+00 5.535458e+00 3.001638e+00 4.805781e+00 6.048226e+00 3.841094e+00 2.907548e+00 3.370690e+00 3.676647e+00 3.293925e+00 1.869091e+00 8.008614e-01 6.383737e-01 4.258713e-01 6.772338e-01 6.078606e-01 8.679826e-01 8.588099e-01 7.520796e-01 6.269642e-01 6.406260e-01 6.593189e-01 5.825302e-01 3.097032e-01
<GCONST> 1.272867e+02
<TRANSP> 5
 0.000000e+00 1.000000e+00 0.000000e+00 0.000000e+00 0.000000e+00
 0.000000e+00 6.921057e-01 3.078944e-01 0.000000e+00 0.000000e+00
 0.000000e+00 0.000000e+00 7.641225e-01 2.358775e-01 0.000000e+00
 0.000000e+00 0.000000e+00 0.000000e+00 6.452762e-01 3.547237e-01
 0.000000e+00 0.000000e+00 0.000000e+00 0.000000e+00 0.000000e+00
<ENDHMM>
~h "t"
<BEGINHMM>
<NUMSTATES> 5
<STATE> 2
<MEAN> 39
 -4.939962e+00 -4.547806e+00 1.962995e+00 -5.266894e+00 -6.983081e+00 -5.395721e+00 -7.074008e+00 -4.157367e+00 -2.688455e+00 -2.314588e+00 -3.810053e+00 3.809832e-01 6.020752e+01 -9.993967e-01 7.915604e-01 2.854846e-01 2.128535e+00 1.636817e+00 1.454467e+00 1.910613e+00 1.047537e+00 1.098322e+00 8.510268e-01 1.249524e+00 1.319738e-01 -1.671174e+00 -4.800057e-01 -4.259755e-01 -2.119686e-01 -2.533957e-01 3.936658e-01 4.840662e-01 5.411472e-01 5.988415e-01 2.679727e-01 3.531388e-01 3.160874e-01 1.049386e-01 8.674673e-01
<VARIANCE> 39
 2.636047e+01 3.529314e+01 4.208886e+01 5.499248e+01 5.879468e+01 5.026072e+01 6.289366e+01 5.503540e+01 5.306495e+01 4.657174e+01 4.665722e+01 4.338840e+01 7.043353e+01 2.836735e+00 3.795971e+00 4.254036e+00 4.772305e+00 5.230132e+00 5.426029e+00 6.654420e+00 6.215824e+00 5.130821e+00 5.041511e+00 4.580513e+00 3.804940e+00 8.480903e+00 3.982430e-01 5.895342e-01 6.134800e-01 8.771097e-01 8.654745e-01 9.186263e-01 1.036689e+00 9.080850e-01 8.684160e-01 8.178992e-01 7.413066e-01 7.280394e-01 1.567026e+00
<GCONST> 1.399166e+02
<STATE> 3
<MEAN> 39
 -1.139075e+01 -5.229410e+00 1.848905e+00 -7.071009e-01 2.433617e-01 1.959712e+00 2.809641e+00 3.724111e+00 3.481371e+00 3.532199e+00 2.950227e+00 2.437697e+00 6.310611e+01 -6.703503e-01 -3.747593e-01 1.723196e-01 2.957630e-01 1.396192e+00 7.960418e-01 6.782052e-01 8.427517e-01 1.163888e-01 -1.490428e-01 3.698807e-01 2.107959e-01 2.970535e+00 3.601876e-01 -1.369877e-01 -8.052915e-02 -3.070001e-01 -1.631248e-01 -3.249527e-01 -7.618158e-01 -5.183029e-01 -4.821877e-01 -5.439869e-01 -4.889070e-01 -8.023019e-02 1.086301e-01
<VARIANCE> 39
 3.168727e+01 3.532694e+01 2.921829e+01 3.066853e+01 3.446275e+01 3.387410e+01 3.443926e+01 3.364944e+01 3.529299e+01 3.021553e+01 2.520690e+01 2.308390e+01 1.005645e+02 3.978482e+00 4.943632e+00 4.155761e+00 3.751476e+00 4.447761e+00 4.895982e+00 5.316311e+00 4.969594e+00 5.149137e+00 4.972702e+00 4.237022e+00 3.311870e+00 8.353260e+00 7.173185e-01 8.250409e-01 9.040916e-01 8.358572e-01 8.876041e-01 9.911553e-01 1.074639e+00 1.037402e+00 9.700181e-01 9.048356e-01 8.154771e-01 6.787427e-01 2.706211e+00
<GCONST> 1.370995e+02
<STATE> 4
<MEAN> 39
 -1.241669e+01 -7.394189e+00 1.225369e+00 -1.353545e+00 4.629692e+00 3.358029e+00 -9.385145e-01 2.154097e+00 1.130700e+00 -6.508605e-01 7.845275e-01 1.764033e+00 6.912054e+01 9.358045e-01 -5.145252e-01 -8.351878e-01 -1.303817e+00 -6.592345e-01 -4.466813e-01 -1.817859e+00 -1.443244e+00 -1.156629e+00 -1.042851e+00 -9.460825e-01 -2.296550e-01 -1.157491e-01 4.756289e-01 1.682735e-02 -2.386349e-01 -6.518656e-01 -8.060777e-01 -3.541157e-01 -3.816933e-01 -3.782752e-01 -3.254265e-01 -4.212301e-02 -2.605142e-01 -8.275878e-02 -1.912896e-01
<VARIANCE> 39
 4.800013e+01 8.513845e+01 4.350499e+01 4.251851e+01 5.007221e+01 4.556881e+01 3.956457e+01 3.404622e+01 3.775146e+01 3.587899e+01 2.762657e+01 2.407002e+01 3.472536e+01 3.267685e+00 3.665156e+00 4.219993e+00 4.080024e+00 5.489743e+00 4.543712e+00 4.541743e+00 4.485114e+00 4.119189e+00 3.969767e+00 3.624954e+00 3.289788e+00 1.933305e+00 5.067221e-01 6.638416e-01 6.474826e-01 7.088455e-01 7.410139e-01 8.340527e-01 8.096845e-01 8.389488e-01 7.616772e-01 7.280662e-01 6.585963e-01 6.287513e-01 7.421185e-01
<GCONST> 1.326984e+02
<TRANSP> 5
 0.000000e+00 1.000000e+00 0.000000e+00 0.000000e+00 0.000000e+00
 0.000000e+00 6.332304e-01 3.667696e-01 0.000000e+00 0.000000e+00
 0.000000e+00 0.000000e+00 7.446709e-01 2.553291e-01 0.000000e+00
 0.000000e+00 0.000000e+00 0.000000e+00 7.371615e-01 2.628385e-01
 0.000000e+00 0.000000e+00 0.000000e+00 0.000000e+00 0.000000e+00
<ENDHMM>
~h "u"
<BEGINHMM>
<NUMSTATES> 5
<STATE> 2
<MEAN> 39
 -1.827049e-01 -3.685145e+00 -4.784564e+00 -1.254396e+01 -7.501172e+00 -2.573680e+00 -1.245739e+01 -5.292559e+00 -6.969931e+00 -1.911173e+00 -3.062393e+00 1.061012e+00 6.605820e+01 2.020965e+00 7.953798e-01 -1.337084e+00 -4.469543e+00 -1.001181e+00 4.548783e-01 -1.638296e+00 -6.231236e-01 -2.227659e+00 -7.466542e-01 -8.825407e-01 4.438928e-01 8.413003e-02 -6.938803e-01 -7.657581e-02 1.457643e-01 2.429599e-01 3.475379e-01 1.786611e-01 4.828776e-01 5.654995e-01 2.812350e-01 1.462249e-01 -1.832922e-02 1.978282e-02 -1.140667e-01
<VARIANCE> 39
 2.958033e+01 3.468037e+01 2.828646e+01 7.911218e+01 4.553577e+01 4.881947e+01 6.483318e+01 5.779328e+01 4.850737e+01 4.164394e+01 4.030494e+01 4.198209e+01 3.378157e+01 3.803377e+00 2.922800e+00 2.943851e+00 6.045476e+00 5.264161e+00 6.151178e+00 6.591671e+00 6.731722e+00 5.398818e+00 4.863676e+00 4.675282e+00 4.167242e+00 1.580690e+00 4.289715e-01 4.627173e-01 4.119390e-01 1.293379e+00 7.448032e-01 9.762310e-01 1.051216e+00 9.961315e-01 9.583190e-01 8.983189e-01 7.636399e-01 7.514191e-01 3.029157e-01
<GCONST> 1.356578e+02
<STATE> 3
<MEAN> 39
 1.924264e+00 5.622816e-01 -6.854135e+00 -2.260258e+01 -9.806998e+00 -2.698813e+00 -1.075855e+01 -5.890879e-01 -9.726213e+00 -3.688142e+00 -6.248857e+00 8.568605e-01 6.409331e+01 -6.832043e-02 -4.150081e-02 -1.672952e-01 -2.084443e-01 2.159355e-01 2.102749e-01 -4.862760e-02 -9.350157e-02 -3.517769e-02 1.463456e-01 7.344432e-02 1.388185e-01 -5.244561e-02 -2.242922e-01 -2.442193e-01 2.143342e-01 7.581092e-01 1.906108e-01 -5.155612e-02 5.080763e-03 -1.974189e-01 3.474397e-01 2.087758e-01 1.700155e-01 -8.237755e-02 -4.306195e-02
<VARIANCE> 39
 1.989106e+01 3.241608e+01 3.216382e+01 4.716082e+01 4.284624e+01 5.531561e+01 5.204018e+01 4.947655e+01 6.328120e+01 4.132306e+01 4.497800e+01 4.098170e+01 2.600404e+01 4.807465e-01 1.322747e+00 1.080898e+00 3.357911e+00 2.223291e+00 2.517385e+00 3.223370e+00 3.327726e+00 2.735259e+00 2.730610e+00 2.770160e+00 2.459831e+00 6.747513e-01 1.570342e-01 1.885411e-01 2.859371e-01 6.847098e-01 4.044199e-01 5.615299e-01 5.636714e-01 5.378168e-01 6.568382e-01 5.529301e-01 5.165192e-01 4.922055e-01 9.874731e-02
<GCONST> 1.156850e+02
<STATE> 4
<MEAN> 39
 -7.561419e-01 -5.126871e+00 -6.049879e+00 -1.558353e+01 -5.432978e+00 -1.971784e+00 -1.609465e+01 -6.095924e+00 -7.493392e+00 4.409878e-01 -4.542780e+00 1.457741e+00 6.623824e+01 -1.214209e+00 -8.016911e-01 1.669198e+00 3.043150e+00 2.349223e-01 -1.213609e+00 1.290621e-01 -7.917145e-02 1.665982e+00 3.433847e-01 -2.378169e-01 -6.148546e-01 -3.814834e-01 -3.805912e-01 2.902924e-01 4.904723e-01 4.980539e-01 -2.014301e-01 -1.202062e-01 9.116526e-01 5.154322e-01 1.444274e-01 -3.607402e-01 3.482757e-02 -2.444309e-02 -3.512818e-01
<VARIANCE> 39
 2.545154e+01 4.166471e+01 4.302151e+01 7.280155e+01 5.464829e+01 6.728522e+01 8.701933e+01 6.383202e+01 7.230331e+01 6.007306e+01 6.067388e+01 4.792430e+01 4.661931e+01 1.914636e+00 2.864520e+00 3.970535e+00 5.573737e+00 5.705625e+00 6.701102e+00 8.933092e+00 6.027552e+00 5.303067e+00 6.690043e+00 5.171278e+00 4.071312e+00 2.543642e+00 3.189978e-01 5.550410e-01 7.389442e-01 1.312910e+00 1.040174e+00 1.454174e+00 1.470719e+00 1.139532e+00 1.209952e+00 1.220487e+00 1.077986e+00 8.643570e-01 3.769068e-01
<GCONST> 1.422092e+02
<TRANSP> 5
 0.000000e+00 1.000000e+00 0.000000e+00 0.000000e+00 0.000000e+00
 0.000000e+00 5.759633e-01 4.240367e-01 0.000000e+00 0.000000e+00
 0.000000e+00 0.000000e+00 8.058824e-01 1.941176e-01 0.000000e+00
 0.000000e+00 0.000000e+00 0.000000e+00 5.650392e-01 4.349608e-01
 0.000000e+00 0.000000e+00 0.000000e+00 0.000000e+00 0.000000e+00
<ENDHMM>
~h "v"
<BEGINHMM>
<NUMSTATES> 5
<STATE> 2
<MEAN> 39
 -9.687012e+00 -5.083940e+00 1.580385e+01 -1.157190e+01 -1.829400e+01 -4.692969e+00 -1.110956e+01 -1.225930e+01 -1.164270e+01 1.238610e+00 -6.440228e+00 -6.310779e-01 6.854829e+01 1.333771e+00 -1.157336e+00 7.727694e-01 -1.065877e+00 -1.580115e+00 -1.533043e+00 -9.733530e-01 -7.949947e-01 -1.767741e+00 5.882890e-02 -1.113994e+00 -1.684861e-01 4.251055e-01 -4.132250e-01 -3.932290e-02 -5.253541e-01 1.311810e-01 7.184668e-01 2.894647e-01 4.888178e-01 7.821863e-01 5.417167e-01 1.410574e-01 1.517018e-01 1.811747e-02 -7.005138e-02
<VARIANCE> 39
 2.883514e+01 3.088518e+01 2.560835e+01 5.432076e+01 2.756210e+01 3.637652e+01 3.769867e+01 4.383693e+01 5.123989e+01 3.449066e+01 4.719471e+01 4.828757e+01 2.640885e+01 3.747116e+00 2.490044e+00 2.547982e+00 2.850993e+00 4.321685e+00 4.368693e+00 4.838429e+00 5.694580e+00 4.883636e+00 3.469477e+00 4.289546e+00 3.302433e+00 7.743100e-01 3.827816e-01 3.267995e-01 2.910900e-01 4.991324e-01 4.977676e-01 6.078244e-01 6.194959e-01 6.612048e-01 6.059511e-01 6.195814e-01 6.099970e-01 5.465239e-01 1.241210e-01
<GCONST> 1.239448e+02
<STATE> 3
<MEAN> 39
 -7.910297e+00 -7.446056e+00 1.621160e+01 -1.278141e+01 -1.982756e+01 -6.504745e+00 -9.861792e+00 -1.098561e+01 -1.294801e+01 3.671028e+00 -8.201921e+00 -1.678408e+00 6.842313e+01 1.482015e-01 -5.204041e-02 -4.272534e-01 9.906702e-02 1.297932e-01 -3.560838e-01 2.177569e-01 4.590759e-01 2.113521e-01 -3.521971e-02 3.165976e-01 1.682673e-01 -1.642672e-01 -2.752808e-02 2.012356e-01 -2.750599e-01 2.760192e-01 3.193725e-01 1.070868e-01 4.808122e-02 1.429242e-01 3.331239e-01 -2.235288e-01 1.987429e-01 7.153422e-02 -2.095044e-01
<VARIANCE> 39
 2.531683e+01 3.027864e+01 2.642384e+01 5.347198e+01 2.699780e+01 3.918699e+01 4.033062e+01 5.266742e+01 6.332554e+01 3.416141e+01 4.606561e+01 3.585667e+01 3.028538e+01 5.778814e-01 1.008616e+00 1.194644e+00 1.476499e+00 1.311698e+00 1.803777e+00 1.799267e+00 1.959807e+00 1.824061e+00 1.871881e+00 2.028327e+00 1.669900e+00 5.485581e-01 1.595239e-01 1.890953e-01 2.450878e-01 3.501071e-01 3.384277e-01 3.318033e-01 4.113003e-01 3.608384e-01 4.405652e-01 3.424983e-01 3.782237e-01 2.973451e-01 1.083399e-01
<GCONST> 1.063441e+02
<STATE> 4
<MEAN> 39
 -6.997761e+00 -6.151902e+00 1.149797e+01 -9.576389e+00 -1.629182e+01 -7.628101e+00 -9.170288e+00 -7.692425e+00 -9.639906e+00 9.862356e-01 -5.381883e+00 -6.256787e-02 6.562855e+01 7.144261e-03 5.870932e-01 -2.118345e+00 1.625993e+00 2.303814e+00 4.441586e-01 5.961891e-01 1.331165e+00 1.895063e+00 -8.076320e-01 7.467199e-01 2.847719e-01 -1.416022e+00 -2.190227e-01 1.388652e-01 -2.537726e-01 2.454933e-01 4.759982e-01 4.800600e-01 2.376803e-01 6.246312e-02 3.673464e-01 1.571941e-01 4.287322e-02 -5.288729e-02 -2.859606e-01
<VARIANCE> 39
 2.901184e+01 4.295666e+01 4.602294e+01 6.402785e+01 4.532114e+01 5.134823e+01 4.595808e+01 5.736876e+01 6.373579e+01 4.248608e+01 4.890275e+01 3.816307e+01 5.515592e+01 2.354441e+00 2.684963e+00 3.005954e+00 4.259497e+00 3.858287e+00 4.580765e+00 4.921513e+00 4.440660e+00 4.369958e+00 3.656953e+00 3.753620e+00 3.000067e+00 2.527931e+00 2.905290e-01 5.090058e-01 4.950583e-01 7.670249e-01 6.874893e-01 7.235778e-01 7.794086e-01 8.774302e-01 7.503510e-01 6.828412e-01 6.397957e-01 5.603203e-01 3.482364e-01
<GCONST> 1.316320e+02
<TRANSP> 5
 0.000000e+00 1.000000e+00 0.000000e+00 0.000000e+00 0.000000e+00
 0.000000e+00 4.718558e-01 5.281442e-01 0.000000e+00 0.000000e+00
 0.000000e+00 0.000000e+00 7.272357e-01 2.727643e-01 0.000000e+00
 0.000000e+00 0.000000e+00 0.000000e+00 5.718669e-01 4.281330e-01
 0.000000e+00 0.000000e+00 0.000000e+00 0.000000e+00 0.000000e+00
<ENDHMM>
~h "x"
<BEGINHMM>
<NUMSTATES> 5
<STATE> 2
<MEAN> 39
 -1.159974e+01 4.721242e-01 3.474579e+00 -6.142350e+00 -9.046371e+00 -5.277329e+00 -6.237686e+00 -5.824738e+00 -5.764059e+00 -2.498961e+00 -3.199640e+00 -2.028100e-01 6.751912e+01 -2.922917e+00 2.470459e+00 -8.124867e-02 2.456279e+00 1.717269e+00 1.508506e+00 2.078213e+00 5.023605e-01 1.136946e+00 6.899977e-01 1.256437e+00 -2.334539e-01 -2.797562e-01 -4.415821e-01 -3.804881e-01 -4.362236e-01 -1.672345e-01 4.573215e-01 4.720574e-01 2.772613e-01 5.359879e-01 4.470628e-01 4.563350e-01 6.488848e-02 7.022747e-02 1.492493e-01
<VARIANCE> 39
 4.939917e+01 5.427514e+01 5.133777e+01 6.042217e+01 5.614503e+01 5.302028e+01 6.482990e+01 5.645848e+01 5.053824e+01 3.983268e+01 3.810092e+01 3.539381e+01 3.593250e+01 3.535875e+00 4.747673e+00 5.198392e+00 5.101453e+00 6.362553e+00 5.824630e+00 6.834579e+00 6.575682e+00 5.700720e+00 5.698622e+00 4.291205e+00 3.714834e+00 1.795079e+00 6.513450e-01 8.863038e-01 6.156251e-01 9.810361e-01 9.963747e-01 9.175653e-01 1.171307e+00 8.954067e-01 8.167555e-01 8.557311e-01 7.507438e-01 6.899515e-01 1.728368e-01
<GCONST> 1.386947e+02
<STATE> 3
<MEAN> 39
 -2.399612e+01 4.158858e+00 1.149155e-01 -1.304400e+00 -1.425222e+00 2.791311e+00 8.772677e-01 4.924327e-02 1.923103e+00 2.807010e+00 8.803710e-01 7.333195e-01 6.771119e+01 -6.664782e-01 -2.614301e-01 -7.386167e-02 -2.042309e-01 2.378076e-01 5.985560e-01 1.862863e-01 3.828622e-01 5.363423e-01 3.141861e-01 1.879691e-01 1.678612e-01 1.926036e-01 8.283656e-01 -2.437804e-01 4.560474e-01 -4.429648e-01 -6.028160e-01 -4.871569e-01 -4.935901e-01 -4.625413e-01 -4.543322e-01 -3.063751e-01 -2.068286e-01 -2.143842e-02 4.923919e-02
<VARIANCE> 39
 2.532535e+01 3.309320e+01 4.078285e+01 3.448832e+01 3.076979e+01 2.389224e+01 2.649599e+01 2.695246e+01 2.637925e+01 2.329429e+01 2.077150e+01 1.694749e+01 2.545300e+01 2.196249e+00 1.132254e+00 2.170061e+00 1.631621e+00 2.133912e+00 2.154096e+00 2.402135e+00 2.684846e+00 2.507993e+00 2.389343e+00 1.933900e+00 1.708298e+00 5.801517e-01 3.375589e-01 3.499237e-01 3.074933e-01 4.948305e-01 5.317134e-01 5.076206e-01 5.742743e-01 5.583296e-01 5.060540e-01 4.936449e-01 4.474013e-01 4.065407e-01 1.163684e-01
<GCONST> 1.106469e+02
<STATE> 4
<MEAN> 39
 -2.010631e+01 2.778286e+00 4.224740e+00 -3.698109e+00 -4.537918e+00 1.749705e+00 -1.196190e+00 -2.537614e+00 2.886392e-01 1.811653e+00 5.727249e-01 5.250576e-01 6.860396e+01 3.435190e+00 -1.283975e+00 2.077394e+00 -2.416276e+00 -3.209406e+00 -2.351157e+00 -2.173080e+00 -1.976824e+00 -1.938599e+00 -6.796452e-01 -7.642332e-01 1.960232e-01 6.914597e-01 5.858750e-01 -7.337213e-01 -6.770356e-02 -7.460192e-01 -6.029607e-01 -5.421456e-01 -3.856497e-01 -3.536251e-02 -5.314298e-01 -9.342052e-02 -4.960293e-01 2.073906e-02 2.571896e-01
<VARIANCE> 39
 4.312877e+01 3.455805e+01 4.820906e+01 3.018259e+01 3.776553e+01 3.259098e+01 3.624662e+01 3.454758e+01 2.967035e+01 2.452752e+01 2.181783e+01 1.897008e+01 2.492364e+01 2.396928e+00 4.050769e+00 2.391411e+00 4.887166e+00 3.400776e+00 3.441322e+00 4.102046e+00 4.606476e+00 3.264435e+00 2.937385e+00 3.247086e+00 3.518332e+00 1.115912e+00 6.526040e-01 5.650021e-01 6.511292e-01 4.961739e-01 7.542726e-01 7.497246e-01 8.285882e-01 9.390662e-01 7.283005e-01 6.858760e-01 6.008232e-01 5.602037e-01 1.371396e-01
<GCONST> 1.245644e+02
<TRANSP> 5
 0.000000e+00 1.000000e+00 0.000000e+00 0.000000e+00 0.000000e+00
 0.000000e+00 7.245779e-01 2.754221e-01 0.000000e+00 0.000000e+00
 0.000000e+00 0.000000e+00 8.162061e-01 1.837939e-01 0.000000e+00
 0.000000e+00 0.000000e+00 0.000000e+00 6.051563e-01 3.948437e-01
 0.000000e+00 0.000000e+00 0.000000e+00 0.000000e+00 0.000000e+00
<ENDHMM>
~h "z"
<BEGINHMM>
<NUMSTATES> 5
<STATE> 2
<MEAN> 39
 -6.304698e+00 -1.761153e+00 2.976928e-01 -2.462500e+00 -7.041699e+00 -6.273528e+00 -8.166796e+00 -4.741783e+00 -4.123428e+00 -4.374527e+00 -4.260045e+00 -6.432546e-01 6.033571e+01 -1.913095e+00 1.513177e+00 -2.265118e-01 2.394191e+00 1.291965e+00 1.536606e+00 1.727584e+00 8.021134e-01 8.725458e-01 8.471582e-01 8.009134e-01 2.353073e-02 -1.622221e+00 -6.178340e-01 -3.979841e-01 -3.665082e-01 -3.373969e-01 1.361039e-01 3.654334e-01 4.611569e-01 5.643173e-01 2.570830e-01 5.122309e-01 2.908452e-01 2.168152e-01 5.626326e-01
<VARIANCE> 39
 3.094693e+01 3.636895e+01 3.964285e+01 4.957110e+01 5.501416e+01 5.106656e+01 5.875811e+01 4.665364e+01 4.794559e+01 4.515110e+01 4.100570e+01 4.007139e+01 4.967019e+01 3.519774e+00 3.924479e+00 3.882970e+00 4.585229e+00 4.485794e+00 5.175625e+00 5.830965e+00 5.302747e+00 4.733632e+00 5.116004e+00 3.903074e+00 3.680460e+00 4.415705e+00 4.821800e-01 6.203152e-01 5.573854e-01 9.248039e-01 7.973388e-01 9.504306e-01 9.389745e-01 7.496740e-01 7.668010e-01 7.702555e-01 6.477264e-01 6.914911e-01 7.443304e-01
<GCONST> 1.364286e+02
<STATE> 3
<MEAN> 39
 -1.676663e+01 -1.363677e+00 -2.530205e+00 1.927192e+00 -2.048180e+00 1.456162e+00 9.918573e-01 3.029565e+00 2.703303e+00 3.729553e+00 2.206307e+00 2.681723e+00 5.731390e+01 -2.108824e+00 2.891263e-01 -9.296530e-01 3.137143e-01 2.991268e-01 4.939737e-01 7.966872e-01 1.000029e+00 4.425693e-01 7.062490e-01 7.202805e-01 4.664286e-01 1.712051e+00 8.583382e-01 -1.409687e-01 1.821965e-01 -5.563048e-01 -3.948953e-01 -7.687987e-01 -7.205793e-01 -4.458044e-01 -4.924665e-01 -6.217109e-01 -4.382031e-01 -1.259241e-01 7.389943e-01
<VARIANCE> 39
 3.170156e+01 3.348242e+01 3.043958e+01 3.041265e+01 3.340902e+01 3.091472e+01 3.320588e+01 3.014369e+01 3.128353e+01 2.777747e+01 2.580684e+01 2.059382e+01 3.328542e+01 2.857859e+00 3.315548e+00 2.558056e+00 2.590542e+00 2.816018e+00 3.230285e+00 3.633671e+00 3.564101e+00 3.789890e+00 3.710054e+00 3.068895e+00 2.655967e+00 3.083343e+00 9.530081e-01 8.106576e-01 5.513599e-01 8.279772e-01 6.049398e-01 7.603586e-01 8.294662e-01 6.814516e-01 6.592792e-01 6.488318e-01 5.934374e-01 5.303680e-01 6.057281e-01
<GCONST> 1.257526e+02
<STATE> 4
<MEAN> 39
 -1.651760e+01 7.013769e-01 -3.123273e+00 8.174655e-01 -3.258837e+00 -2.457165e+00 -7.053168e-01 2.277056e+00 1.407003e-01 9.537194e-01 7.812628e-01 2.200677e+00 6.696199e+01 2.851338e+00 -1.483876e+00 3.269890e-02 -2.669092e+00 -1.049564e+00 -2.350745e+00 -2.037838e+00 -3.495067e-01 -7.468598e-01 -1.246106e+00 -1.174426e+00 1.745268e-01 2.723138e+00 1.023027e+00 -9.770008e-01 -5.009393e-02 -1.086121e+00 -1.590989e-01 -2.308457e-01 -6.862515e-01 -2.772497e-01 -2.886348e-01 -3.279218e-01 -5.066221e-01 -7.531907e-02 -1.465379e-01
<VARIANCE> 39
 5.068010e+01 3.022895e+01 2.863495e+01 3.733555e+01 4.371196e+01 4.877215e+01 4.183986e+01 3.051615e+01 2.844719e+01 2.721856e+01 2.374889e+01 1.968519e+01 2.629024e+01 4.805801e+00 6.444613e+00 2.987253e+00 6.359575e+00 3.927113e+00 4.729170e+00 7.274379e+00 4.822121e+00 3.824333e+00 4.184114e+00 4.198584e+00 3.483956e+00 2.112624e+00 1.285634e+00 9.394215e-01 6.137319e-01 8.504855e-01 8.255564e-01 1.328006e+00 1.258319e+00 9.195163e-01 7.618521e-01 8.820551e-01 7.702189e-01 6.760647e-01 3.392558e-01
<GCONST> 1.335771e+02
<TRANSP> 5
 0.000000e+00 1.000000e+00 0.000000e+00 0.000000e+00 0.000000e+00
 0.000000e+00 6.748456e-01 3.251544e-01 0.000000e+00 0.000000e+00
 0.000000e+00 0.000000e+00 6.620011e-01 3.379989e-01 0.000000e+00
 0.000000e+00 0.000000e+00 0.000000e+00 5.851896e-01 4.148104e-01
 0.000000e+00 0.000000e+00 0.000000e+00 0.000000e+00 0.000000e+00
<ENDHMM>
~h "aa"
<BEGINHMM>
<NUMSTATES> 5
<STATE> 2
<MEAN> 39
 -7.937952e+00 -1.685221e+01 -8.249141e+00 -8.090301e+00 2.264039e+00 1.272443e+00 -3.734314e+00 2.042335e-01 -8.114539e-01 -2.961240e+00 -1.360167e+00 1.172122e+00 6.677071e+01 1.463884e-02 -1.716494e+00 -5.971639e-01 2.864197e-01 8.007810e-01 -8.056074e-02 -9.101963e-01 -7.706932e-01 -7.534751e-01 -9.984307e-01 -4.298970e-01 -4.879741e-02 1.929285e+00 1.594960e-02 3.920156e-02 1.063599e-01 -8.465584e-02 -2.365319e-01 -1.072137e-01 -1.384194e-01 -1.082020e-01 -1.946344e-01 -4.804070e-02 -6.763457e-02 -2.923666e-02 2.047832e-01
<VARIANCE> 39
 2.589245e+01 6.550436e+01 5.247916e+01 9.423921e+01 8.194588e+01 6.192327e+01 8.745493e+01 6.510528e+01 6.846947e+01 6.345729e+01 5.486035e+01 5.119880e+01 1.312975e+02 1.713745e+00 4.715658e+00 3.346403e+00 5.608305e+00 5.245387e+00 4.229178e+00 6.091489e+00 4.891397e+00 5.481863e+00 5.184865e+00 4.324206e+00 4.097575e+00 9.703382e+00 2.685215e-01 1.030351e+00 5.383549e-01 7.120581e-01 7.912356e-01 6.971828e-01 1.124166e+00 9.224135e-01 8.880441e-01 9.394450e-01 7.582660e-01 7.483447e-01 1.736686e+00
<GCONST> 1.430049e+02
<STATE> 3
<MEAN> 39
 -6.299028e+00 -2.218474e+01 -1.033880e+01 -7.431454e+00 2.583046e+00 2.566836e-01 -1.116893e+01 -1.212022e+00 -5.662139e+00 -8.277333e+00 -5.537107e+00 -6.440504e-01 7.565404e+01 -1.074714e-01 -1.756794e-01 1.216340e-01 3.807325e-01 -2.360689e-01 -1.828262e-01 -3.605752e-02 -2.771442e-02 -3.261306e-01 -2.927827e-01 -5.265117e-03 1.902628e-01 2.458209e-01 1.818446e-02 1.682736e-01 5.795756e-02 -1.325984e-01 -1.694382e-01 -7.442774e-03 1.884560e-01 6.983624e-02 -5.011820e-02 5.989417e-02 2.323515e-02 -6.408044e-03 -1.354931e-01
<VARIANCE> 39
 2.453553e+01 2.447958e+01 3.428059e+01 5.272245e+01 5.729800e+01 6.349321e+01 7.344961e+01 5.867635e+01 4.600695e+01 4.664132e+01 4.157187e+01 4.209531e+01 3.509313e+01 4.741174e-01 9.884205e-01 8.731471e-01 1.369993e+00 1.662471e+00 1.361504e+00 1.843052e+00 1.664651e+00 1.709087e+00 1.526722e+00 1.494348e+00 1.594164e+00 8.567151e-01 7.170758e-02 1.498137e-01 1.331436e-01 1.978509e-01 2.164197e-01 2.024466e-01 2.707219e-01 2.543945e-01 2.699575e-01 2.575824e-01 2.487590e-01 2.505936e-01 1.577965e-01
<GCONST> 1.026099e+02
<STATE> 4
<MEAN> 39
 -8.134838e+00 -1.996930e+01 -7.898842e+00 -5.626081e+00 2.271425e+00 5.918178e-01 -6.182749e+00 -8.095238e-01 -4.023996e+00 -5.365904e+00 -1.862743e+00 2.240182e+00 7.117352e+01 -7.945668e-03 1.132841e-01 1.454042e-01 -2.785573e-01 -7.288479e-01 -6.911349e-02 3.412693e-01 -2.045475e-01 -7.459835e-01 -2.291332e-01 -1.315233e-01 -7.244607e-02 2.046761e-01 8.019931e-02 8.169290e-02 -2.651131e-02 -3.158337e-01 -1.749601e-01 -3.755366e-02 6.148652e-02 3.829970e-02 -1.171005e-01 -4.770116e-02 -1.147626e-01 -1.568508e-01 -1.939861e-02
<VARIANCE> 39
 2.520468e+01 5.238896e+01 3.997750e+01 6.029632e+01 6.181164e+01 5.304692e+01 7.394353e+01 6.203172e+01 6.760966e+01 6.547382e+01 5.860711e+01 4.517442e+01 1.371240e+02 6.990423e-01 2.182913e+00 1.498060e+00 1.922698e+00 2.613139e+00 2.018373e+00 3.128623e+00 2.518651e+00 2.753637e+00 2.536610e+00 2.108664e+00 2.061653e+00 2.027757e+00 1.423630e-01 4.455440e-01 3.032118e-01 3.404157e-01 3.953822e-01 3.479017e-01 4.897824e-01 4.228578e-01 4.785094e-01 4.778049e-01 4.241271e-01 4.006355e-01 4.986794e-01
<GCONST> 1.211715e+02
<TRANSP> 5
 0.000000e+00 1.000000e+00 0.000000e+00 0.000000e+00 0.000000e+00
 0.000000e+00 7.447962e-01 2.552038e-01 0.000000e+00 0.000000e+00
 0.000000e+00 0.000000e+00 7.703698e-01 2.296301e-01 0.000000e+00
 0.000000e+00 0.000000e+00 0.000000e+00 2.992358e-01 7.007642e-01
 0.000000e+00 0.000000e+00 0.000000e+00 0.000000e+00 0.000000e+00
<ENDHMM>
~h "ai"
<BEGINHMM>
<NUMSTATES> 5
<STATE> 2
<MEAN> 39
 -6.054256e+00 -1.947033e+01 -6.634868e+00 -8.830077e+00 -7.053317e+00 -2.924713e+00 -1.613236e+00 -2.323810e-01 -7.469699e+00 -7.984073e+00 -7.079760e+00 1.722236e+00 7.671029e+01 1.288712e-01 -2.311379e+00 -9.670721e-01 -1.248987e+00 -5.550321e-01 3.164192e-01 7.306230e-01 -3.579262e-01 -1.889250e+00 -1.291765e+00 -8.687389e-01 -2.443083e-01 1.606261e+00 -4.259318e-01 5.812005e-01 4.915735e-01 5.427926e-01 2.544256e-01 3.007827e-01 1.962150e-01 1.736730e-02 3.199551e-01 4.842853e-01 4.776906e-01 -1.006697e-01 -5.972345e-01
<VARIANCE> 39
 2.269520e+01 3.325750e+01 2.820687e+01 5.119740e+01 5.190474e+01 4.891799e+01 6.871448e+01 6.900749e+01 5.020467e+01 4.135969e+01 4.682852e+01 4.129957e+01 2.744111e+01 2.621994e+00 4.123561e+00 2.698581e+00 5.004509e+00 5.135133e+00 4.704838e+00 5.093089e+00 4.959043e+00 3.552284e+00 3.625771e+00 4.089988e+00 3.127470e+00 1.963979e+00 3.959862e-01 5.285671e-01 4.684478e-01 7.336132e-01 6.904450e-01 7.816718e-01 8.538433e-01 1.004178e+00 7.943953e-01 6.583267e-01 6.469982e-01 6.048787e-01 4.018115e-01
<GCONST> 1.316765e+02
<STATE> 3
<MEAN> 39
 -7.061790e+00 -2.188646e+01 -5.475307e+00 -9.356475e+00 -8.621449e+00 -1.885110e-01 1.545609e+00 -7.041544e-01 -1.056006e+01 -8.517401e+00 -6.348073e+00 3.938520e-01 7.756277e+01 -7.599860e-02 4.881811e-01 7.379955e-01 -7.369503e-01 -1.024738e+00 -8.892670e-02 5.621874e-01 2.462160e-01 1.941080e-01 4.506658e-01 -6.305373e-02 -5.219408e-01 -2.353322e-01 7.839064e-02 4.016663e-01 1.797985e-01 -8.233815e-02 -1.459816e-01 -2.607659e-01 -2.552636e-01 4.825014e-02 3.787794e-01 2.646476e-01 -4.287868e-03 -1.872720e-02 -2.516073e-01
<VARIANCE> 39
 2.201582e+01 2.273901e+01 2.581633e+01 4.556565e+01 4.068016e+01 3.517834e+01 6.699981e+01 6.978533e+01 3.697379e+01 2.975107e+01 3.386873e+01 2.970952e+01 2.800038e+01 4.108654e-01 1.103355e+00 9.119318e-01 1.926197e+00 1.859394e+00 1.604693e+00 1.994523e+00 1.789353e+00 2.094444e+00 1.867395e+00 1.755251e+00 1.655679e+00 4.032502e-01 9.216630e-02 1.746466e-01 1.627158e-01 2.802599e-01 2.721758e-01 2.772796e-01 4.237380e-01 3.557379e-01 3.478152e-01 3.427928e-01 3.088407e-01 3.061579e-01 7.347676e-02
<GCONST> 1.027996e+02
<STATE> 4
<MEAN> 39
 -6.755738e+00 -1.523415e+01 7.533095e-01 -1.506577e+01 -1.596341e+01 -4.263012e+00 1.172226e+00 -1.571083e-01 -6.098270e+00 -3.201789e+00 -6.861815e+00 -2.293111e+00 7.423768e+01 3.126148e-01 2.046676e+00 1.310960e+00 2.654015e-01 -4.432582e-01 -1.064893e+00 -1.582407e+00 -6.564107e-01 1.001055e+00 1.113870e+00 5.608261e-01 3.772346e-01 -1.659906e+00 -9.370711e-03 2.029660e-01 -9.509631e-02 7.608004e-01 7.008330e-01 2.296901e-01 -2.333155e-01 -2.633989e-01 -1.543960e-01 -2.130991e-01 2.340916e-01 3.068304e-01 -4.205085e-01
<VARIANCE> 39
 2.077535e+01 3.490877e+01 3.461769e+01 4.629251e+01 4.183558e+01 4.716271e+01 6.467416e+01 6.630633e+01 4.465690e+01 4.179467e+01 3.033412e+01 3.031051e+01 3.941090e+01 9.476818e-01 1.581449e+00 1.877558e+00 4.081522e+00 3.632764e+00 2.822840e+00 3.634252e+00 3.184686e+00 3.240263e+00 3.285478e+00 2.427865e+00 2.518412e+00 1.504533e+00 1.925532e-01 2.971097e-01 2.983330e-01 4.396227e-01 4.668722e-01 6.013704e-01 8.642296e-01 6.511897e-01 6.086579e-01 6.404902e-01 4.788607e-01 5.031643e-01 1.946065e-01
<GCONST> 1.206860e+02
<TRANSP> 5
 0.000000e+00 1.000000e+00 0.000000e+00 0.000000e+00 0.000000e+00
 0.000000e+00 6.754037e-01 3.245963e-01 0.000000e+00 0.000000e+00
 0.000000e+00 0.000000e+00 8.155226e-01 1.844774e-01 0.000000e+00
 0.000000e+00 0.000000e+00 0.000000e+00 6.459748e-01 3.540252e-01
 0.000000e+00 0.000000e+00 0.000000e+00 0.000000e+00 0.000000e+00
<ENDHMM>
~h "an"
<BEGINHMM>
<NUMSTATES> 5
<STATE> 2
<MEAN> 39
 -5.647783e+00 -1.912042e+01 -6.841274e+00 -1.066501e+01 -5.749003e+00 -4.451718e+00 -3.464786e+00 1.192651e+00 -6.670641e+00 -8.316474e+00 -6.534771e+00 1.904219e+00 7.662095e+01 2.153611e-01 -2.491122e+00 -1.325592e+00 -1.176030e+00 1.443107e-01 1.808061e-01 -1.281548e-03 -1.617142e-01 -1.617669e+00 -1.573981e+00 -1.059830e+00 -7.191441e-02 1.498087e+00 -5.456943e-01 6.506261e-01 5.514900e-01 7.671930e-01 3.536087e-01 3.165957e-01 1.448216e-01 -3.176079e-02 2.233421e-01 4.561587e-01 5.116051e-01 -4.911855e-02 -6.567415e-01
<VARIANCE> 39
 2.332251e+01 3.206718e+01 3.235975e+01 4.737313e+01 5.404529e+01 4.966021e+01 7.360410e+01 5.780128e+01 5.241121e+01 4.491071e+01 5.842057e+01 5.535061e+01 2.593717e+01 2.946144e+00 4.210604e+00 2.897003e+00 4.841427e+00 4.895672e+00 4.602645e+00 4.887238e+00 4.389913e+00 3.773794e+00 3.762902e+00 4.406778e+00 3.522696e+00 2.095570e+00 5.053536e-01 5.751553e-01 4.678230e-01 6.374126e-01 7.433068e-01 7.700878e-01 8.472025e-01 9.271581e-01 7.199351e-01 6.659885e-01 7.342908e-01 7.430229e-01 3.880914e-01
<GCONST> 1.329240e+02
<STATE> 3
<MEAN> 39
 -6.936248e+00 -2.115524e+01 -6.365127e+00 -9.765938e+00 -4.841629e+00 -3.366907e+00 -3.486353e+00 1.747270e+00 -1.016477e+01 -9.853406e+00 -6.139593e+00 1.217126e+00 7.700386e+01 8.124942e-02 7.562528e-01 5.270559e-01 -1.603008e-01 -5.427313e-01 -4.891384e-01 -6.724752e-02 2.724342e-01 -1.096748e-01 3.651074e-01 1.613635e-01 -2.437437e-01 -6.402149e-01 1.389376e-01 4.988045e-01 2.351605e-01 3.736008e-02 -2.177364e-01 -2.069561e-01 -1.344578e-01 -6.928012e-02 2.473437e-01 2.765086e-01 6.476808e-02 -5.173310e-02 -3.963650e-01
<VARIANCE> 39
 2.402729e+01 2.157046e+01 2.801709e+01 4.256932e+01 4.528456e+01 4.251737e+01 7.968802e+01 5.994740e+01 4.873401e+01 3.835226e+01 4.732954e+01 3.661180e+01 2.500364e+01 5.345432e-01 1.434534e+00 1.193653e+00 1.771448e+00 2.304849e+00 2.066662e+00 2.363497e+00 2.218770e+00 2.147381e+00 2.075643e+00 1.908549e+00 1.992024e+00 6.981228e-01 9.925111e-02 1.882826e-01 1.962077e-01 3.414285e-01 3.175293e-01 3.234733e-01 4.472989e-01 4.981729e-01 3.941717e-01 3.780708e-01 3.564146e-01 3.296757e-01 1.074269e-01
<GCONST> 1.086917e+02
<STATE> 4
<MEAN> 39
 -4.122714e+00 -1.096455e+01 -4.950050e-01 -8.259350e+00 -9.752279e+00 -8.188447e+00 -5.966807e+00 -2.685353e-01 -8.231924e+00 -6.112781e+00 -5.193446e+00 -6.847335e-01 6.686034e+01 4.200068e-01 2.027551e+00 1.288769e+00 9.404183e-01 -4.581106e-01 -1.513899e-01 -9.082243e-01 -1.411638e+00 5.584200e-01 5.943814e-01 3.777648e-01 -2.782935e-01 -2.301062e+00 -1.424053e-01 -1.091669e-01 -1.168389e-01 1.594506e-01 3.103734e-01 3.499438e-01 4.500044e-02 -1.270023e-01 3.096946e-02 -1.362653e-01 -4.574537e-03 6.611313e-02 5.477387e-02
<VARIANCE> 39
 2.288195e+01 3.907577e+01 4.378378e+01 5.556363e+01 5.562331e+01 5.289562e+01 6.997630e+01 6.763230e+01 6.200746e+01 4.770326e+01 4.894837e+01 5.048301e+01 5.281871e+01 1.002735e+00 1.678527e+00 2.386733e+00 2.786240e+00 3.029432e+00 3.433769e+00 4.328147e+00 3.946715e+00 3.581029e+00 3.484220e+00 2.966331e+00 2.744026e+00 1.562063e+00 1.510918e-01 2.661082e-01 4.060110e-01 4.663530e-01 4.785006e-01 5.433819e-01 7.149695e-01 8.455724e-01 6.369224e-01 6.113103e-01 5.190097e-01 4.890247e-01 2.764846e-01
<GCONST> 1.248243e+02
<TRANSP> 5
 0.000000e+00 1.000000e+00 0.000000e+00 0.000000e+00 0.000000e+00
 0.000000e+00 6.482900e-01 3.517101e-01 0.000000e+00 0.000000e+00
 0.000000e+00 0.000000e+00 8.220154e-01 1.779846e-01 0.000000e+00
