~o
<STREAMINFO> 1 39
<VECSIZE> 39<NULLD><MFCC_D_A_0><DIAGC>
~s "silst"
<MEAN> 39
 -1.162368e+01 -7.951373e+00 1.056081e-02 -1.460122e+00 -9.976367e-01 2.093276e+00 1.707748e+00 3.716988e+00 2.993289e+00 2.719824e+00 2.342866e+00 3.117621e+00 5.262175e+01 -1.193623e-01 -1.013706e-01 -2.770876e-02 4.184911e-03 1.040424e-01 6.653135e-02 1.131966e-01 1.341657e-01 -1.464664e-02 6.579287e-02 4.034120e-02 6.989654e-02 1.100563e-01 2.610929e-02 7.020538e-03 -1.694991e-03 1.425735e-02 -1.461142e-02 -1.366298e-02 -4.110297e-03 -2.865163e-02 3.395566e-02 9.755827e-04 1.166606e-02 -1.741990e-03 -3.849404e-02
<VARIANCE> 39
 3.781114e+01 4.410209e+01 3.821569e+01 4.209800e+01 4.244709e+01 3.780863e+01 3.925873e+01 3.724851e+01 3.876925e+01 4.135993e+01 3.424477e+01 2.652933e+01 4.505149e+01 1.953149e+00 2.318536e+00 2.113890e+00 2.392270e+00 2.514385e+00 2.539984e+00 2.846632e+00 2.876440e+00 3.040886e+00 2.967386e+00 2.629064e+00 2.229814e+00 2.642107e+00 3.464116e-01 3.868386e-01 3.685456e-01 4.219028e-01 4.530623e-01 4.742081e-01 5.345148e-01 5.488370e-01 5.650724e-01 5.430849e-01 4.918256e-01 4.244920e-01 4.542150e-01
<GCONST> 1.210035e+02
~h "a"
<BEGINHMM>
<NUMSTATES> 5
<STATE> 2
<MEAN> 39
 -5.282493e+00 -2.045510e+01 -9.864353e+00 -8.156607e+00 -9.501165e-01 -4.584705e-01 -6.073726e+00 -2.692803e+00 -6.245340e+00 -7.397219e+00 -5.914855e+00 9.933694e-01 7.595354e+01 1.593446e-01 -2.657904e+00 -1.823367e+00 -2.540540e-01 9.132280e-01 3.786101e-01 -1.327719e+00 -1.358322e+00 -9.650683e-01 -1.044074e+00 -6.208853e-01 -3.932769e-01 1.670423e+00 -4.129917e-01 6.165006e-01 7.000800e-01 7.397043e-01 1.756637e-01 6.693600e-02 1.479141e-01 7.964621e-02 4.995043e-01 5.196990e-01 4.300522e-01 -6.237209e-02 -7.058417e-01
<VARIANCE> 39
 2.634120e+01 3.374742e+01 2.948970e+01 5.277393e+01 4.888449e+01 5.702773e+01 6.937966e+01 4.914667e+01 4.721250e+01 4.426989e+01 5.341532e+01 5.565580e+01 3.403419e+01 3.083331e+00 3.509733e+00 3.513043e+00 5.692619e+00 4.991186e+00 4.648813e+00 4.974918e+00 4.258671e+00 4.129902e+00 4.039603e+00 4.335885e+00 3.676731e+00 2.881359e+00 4.875852e-01 5.525884e-01 4.904668e-01 7.781766e-01 7.880099e-01 7.359977e-01 9.800162e-01 9.750010e-01 7.050853e-01 6.959453e-01 7.474818e-01 7.084990e-01 5.907839e-01
<GCONST> 1.345320e+02
<STATE> 3
<MEAN> 39
 -5.882785e+00 -2.401164e+01 -1.096671e+01 -4.550892e+00 2.517260e+00 1.263114e+00 -9.134647e+00 -5.429962e+00 -4.819793e+00 -7.242278e+00 -5.541616e+00 -9.635896e-01 7.672289e+01 4.767093e-02 9.212531e-02 7.487267e-02 -5.769164e-02 -2.839240e-01 -6.874749e-02 2.204992e-01 1.614966e-01 1.678345e-02 -7.525192e-02 -1.792144e-02 7.148653e-03 -1.845066e-01 8.484679e-02 3.847197e-01 1.661253e-01 -2.379881e-01 -3.671718e-01 -1.502158e-01 2.543164e-01 2.638382e-01 -7.477561e-03 1.858869e-02 -3.557066e-02 7.876800e-02 -2.179026e-01
<VARIANCE> 39
 2.418810e+01 2.390940e+01 2.177098e+01 5.158106e+01 3.860150e+01 6.099076e+01 5.952554e+01 3.591169e+01 3.980876e+01 3.972543e+01 3.839230e+01 4.505194e+01 3.151076e+01 4.617285e-01 8.569071e-01 8.524891e-01 2.096158e+00 2.003179e+00 1.544457e+00 2.252028e+00 1.952639e+00 1.887460e+00 1.702437e+00 1.592897e+00 1.581598e+00 4.680625e-01 1.064915e-01 1.992192e-01 2.031715e-01 3.155924e-01 3.123546e-01 3.124890e-01 3.429307e-01 3.362364e-01 3.630580e-01 3.429857e-01 3.032365e-01 2.985475e-01 1.107061e-01
<GCONST> 1.045872e+02
<STATE> 4
<MEAN> 39
 -6.945019e+00 -1.772027e+01 -7.469775e+00 -5.516557e+00 -1.677961e+00 -3.640247e-01 -2.960782e+00 3.041835e-01 -3.038896e+00 -5.614095e+00 -3.248964e+00 1.995413e+00 6.785203e+01 2.287400e-01 1.732605e+00 9.862562e-01 -3.543791e-01 -1.312563e+00 -7.421480e-01 4.778356e-01 6.824101e-01 4.276522e-01 5.971466e-01 1.691206e-01 8.586083e-02 -1.366369e+00 -7.517368e-02 3.894139e-01 2.862337e-01 4.025900e-01 2.525097e-01 1.924087e-02 -2.564886e-01 -2.374555e-01 1.753430e-01 3.112970e-01 1.848765e-01 -5.739537e-02 -3.740938e-01
<VARIANCE> 39
 2.814627e+01 4.590790e+01 3.772215e+01 6.798657e+01 7.446812e+01 5.393423e+01 6.983501e+01 5.967698e+01 6.962992e+01 6.149881e+01 6.452096e+01 4.978380e+01 1.340243e+02 1.340373e+00 3.231812e+00 2.138481e+00 3.710255e+00 4.368116e+00 3.607663e+00 3.936179e+00 3.523683e+00 3.439278e+00 3.714516e+00 3.141099e+00 2.922734e+00 2.392208e+00 2.326370e-01 4.555072e-01 3.721123e-01 7.150112e-01 7.904484e-01 6.229935e-01 7.834460e-01 7.198490e-01 6.900315e-01 7.358416e-01 6.156737e-01 5.260512e-01 4.409629e-01
<GCONST> 1.317464e+02
<TRANSP> 5
 0.000000e+00 1.000000e+00 0.000000e+00 0.000000e+00 0.000000e+00
 0.000000e+00 6.758116e-01 3.241884e-01 0.000000e+00 0.000000e+00
 0.000000e+00 0.000000e+00 8.403118e-01 1.596883e-01 0.000000e+00
 0.000000e+00 0.000000e+00 0.000000e+00 7.447868e-01 2.552132e-01
 0.000000e+00 0.000000e+00 0.000000e+00 0.000000e+00 0.000000e+00
<ENDHMM>
~h "b"
<BEGINHMM>
<NUMSTATES> 5
<STATE> 2
<MEAN> 39
 -1.477686e+00 -4.217705e+00 1.525389e+00 -4.105205e+00 -5.027597e+00 -3.209431e+00 -8.706618e+00 -5.843127e+00 -4.722649e+00 -3.354582e+00 -5.519613e+00 -2.509523e+00 5.854118e+01 -8.223555e-01 1.146910e+00 6.567532e-01 2.408157e+00 1.066479e+00 8.858784e-01 1.405353e+00 -1.984070e-02 7.688759e-01 1.618495e-01 5.690116e-01 -6.468643e-02 -2.601213e+00 -4.272007e-01 -5.573992e-01 -2.684314e-01 -5.796877e-01 -1.347289e-01 7.156599e-02 3.356569e-01 5.984967e-01 2.276081e-01 2.700904e-01 2.272674e-01 3.038048e-01 7.568251e-01
<VARIANCE> 39
 2.054839e+01 3.784499e+01 3.814435e+01 4.829490e+01 4.203411e+01 4.921200e+01 5.274736e+01 4.918638e+01 4.650117e+01 4.500050e+01 4.357881e+01 4.391807e+01 4.338316e+01 2.168182e+00 3.555986e+00 3.948376e+00 5.268395e+00 4.205112e+00 4.129690e+00 4.919195e+00 6.218608e+00 5.006273e+00 4.776031e+00 4.219235e+00 3.849366e+00 4.734108e+00 3.695830e-01 5.609657e-01 6.655493e-01 8.992756e-01 7.608637e-01 7.159215e-01 8.439123e-01 9.601786e-01 8.645161e-01 9.618604e-01 7.550448e-01 7.004796e-01 1.058789e+00
<GCONST> 1.355216e+02
<STATE> 3
<MEAN> 39
 -1.037228e+01 -6.630577e+00 5.985878e-02 -1.320310e-01 -3.084790e-01 2.159707e+00 1.450892e+00 3.275969e+00 3.719066e+00 3.066618e+00 3.007393e+00 3.297034e+00 5.209064e+01 -2.907216e-01 -3.442760e-01 1.783807e-02 2.594595e-02 3.757949e-02 7.074185e-02 3.683519e-01 5.071545e-01 3.863760e-01 3.862485e-01 3.874449e-01 3.041334e-01 7.164310e-01 3.242143e-01 -1.030945e-01 3.048714e-02 -4.414715e-01 -2.337839e-01 -2.106844e-01 -3.765142e-01 -1.996834e-01 -3.568437e-01 -2.143904e-01 -2.800953e-01 -1.020937e-01 7.706736e-01
<VARIANCE> 39
 2.219809e+01 3.876994e+01 2.605172e+01 2.334858e+01 3.195747e+01 2.800860e+01 3.576960e+01 3.858817e+01 3.626803e+01 3.560663e+01 3.432581e+01 2.896927e+01 2.851873e+01 1.625519e+00 2.060640e+00 2.194778e+00 2.005577e+00 2.210879e+00 2.375500e+00 3.043756e+00 3.316527e+00 3.466272e+00 3.337824e+00 2.924180e+00 2.498621e+00 4.985355e+00 3.550329e-01 5.107036e-01 5.621975e-01 7.650198e-01 5.564517e-01 5.250358e-01 6.650426e-01 6.692659e-01 7.274497e-01 6.547986e-01 6.035119e-01 4.962097e-01 1.061861e+00
<GCONST> 1.225152e+02
<STATE> 4
<MEAN> 39
 -4.553951e+00 -6.104731e+00 3.574420e+00 -2.433558e+00 -4.220924e+00 -1.196717e+00 -2.450068e+00 -4.045412e-03 -3.436777e-01 6.184796e-01 -9.137607e-01 7.649648e-01 6.685101e+01 1.258477e+00 -1.268526e+00 3.118834e-02 -3.701894e+00 -1.670612e+00 -8.625466e-01 -1.635126e+00 -4.242161e-01 -1.637527e+00 -4.947053e-01 -1.393406e+00 3.013927e-02 4.959800e+00 -1.690311e-01 -1.741472e-01 -4.858583e-01 -1.033030e+00 -2.382713e-01 -3.688469e-02 -5.372840e-01 -3.213380e-01 -4.941376e-01 -2.173743e-01 -4.692534e-01 -4.743593e-02 -4.680915e-01
<VARIANCE> 39
 3.893154e+01 2.942533e+01 5.994209e+01 4.985233e+01 3.974883e+01 3.517267e+01 4.040567e+01 3.627901e+01 3.469168e+01 2.757327e+01 2.785283e+01 2.611573e+01 6.293370e+01 4.120703e+00 6.972148e+00 1.195856e+01 6.417653e+00 6.714416e+00 5.708830e+00 6.996619e+00 8.271016e+00 6.752423e+00 5.851260e+00 5.028965e+00 4.713386e+00 6.100056e+00 7.632455e-01 8.929023e-01 9.433309e-01 1.267038e+00 8.905116e-01 7.941358e-01 1.119061e+00 1.051302e+00 9.635330e-01 9.015546e-01 8.271098e-01 7.159611e-01 1.424877e+00
<GCONST> 1.422050e+02
<TRANSP> 5
 0.000000e+00 1.000000e+00 0.000000e+00 0.000000e+00 0.000000e+00
 0.000000e+00 7.000201e-01 2.999799e-01 0.000000e+00 0.000000e+00
 0.000000e+00 0.000000e+00 8.251875e-01 1.748125e-01 0.000000e+00
 0.000000e+00 0.000000e+00 0.000000e+00 5.285132e-01 4.714867e-01
 0.000000e+00 0.000000e+00 0.000000e+00 0.000000e+00 0.000000e+00
<ENDHMM>
~h "c"
<BEGINHMM>
<NUMSTATES> 5
<STATE> 2
<MEAN> 39
 -9.044799e+00 -6.316994e-01 -1.161987e+00 -1.066888e+00 -5.890222e+00 -4.705611e+00 -6.262664e+00 -3.630096e+00 -3.033449e+00 -2.809468e+00 -2.642915e+00 1.713760e-01 6.103016e+01 -2.887812e+00 1.558467e+00 -5.423416e-01 2.561661e+00 1.540851e+00 2.048557e+00 2.455138e+00 1.502599e+00 1.344597e+00 1.414104e+00 1.315198e+00 2.039411e-01 -1.115190e+00 -3.550718e-01 -5.832809e-01 -2.115287e-01 -5.464827e-01 6.503914e-02 2.351039e-01 3.154446e-01 4.942053e-01 1.695213e-01 4.171095e-01 1.479737e-01 1.674003e-01 7.136509e-01
<VARIANCE> 39
 4.436421e+01 3.717053e+01 4.023467e+01 4.404891e+01 5.401468e+01 5.378145e+01 5.456163e+01 4.683557e+01 4.698440e+01 4.271083e+01 3.752192e+01 3.685933e+01 4.282285e+01 3.218222e+00 5.032975e+00 4.189331e+00 4.887192e+00 4.646045e+00 5.104510e+00 5.407906e+00 5.519127e+00 4.809489e+00 5.003071e+00 4.326659e+00 4.086591e+00 4.292911e+00 8.577930e-01 6.520930e-01 6.194166e-01 7.922036e-01 7.975332e-01 9.902142e-01 1.011623e+00 8.707032e-01 8.158539e-01 8.455690e-01 7.066910e-01 6.330152e-01 4.994343e-01
<GCONST> 1.373293e+02
<STATE> 3
<MEAN> 39
 -1.804490e+01 6.557263e-01 -3.850337e+00 2.226768e+00 -1.810674e+00 6.648214e-01 2.377447e+00 3.117797e+00 2.063901e+00 3.300525e+00 2.223778e+00 2.275729e+00 6.499754e+01 1.281298e-01 -5.301343e-01 2.637409e-01 -1.129216e-01 5.923527e-01 8.497840e-02 6.961885e-01 6.995217e-01 -1.196077e-02 2.252564e-03 2.865962e-01 2.613030e-01 1.954974e+00 9.575208e-01 -4.675030e-01 2.992512e-01 -4.259072e-01 -4.696293e-02 -3.919260e-01 -6.513491e-01 -4.267181e-01 -4.821518e-01 -6.378486e-01 -4.047537e-01 -7.309790e-02 1.142655e-01
<VARIANCE> 39
 3.893805e+01 3.611761e+01 2.647692e+01 3.107943e+01 3.176607e+01 3.194039e+01 2.724571e+01 2.707866e+01 2.688812e+01 2.288771e+01 1.988438e+01 1.692312e+01 5.957407e+01 5.945802e+00 3.526599e+00 3.396245e+00 2.641953e+00 3.001233e+00 3.135665e+00 3.591448e+00 3.355850e+00 3.441155e+00 3.492847e+00 2.770789e+00 2.278725e+00 2.497277e+00 8.446991e-01 6.936103e-01 6.001849e-01 6.653776e-01 6.857951e-01 7.674246e-01 7.706108e-01 6.923417e-01 6.919290e-01 6.736913e-01 5.944766e-01 5.058480e-01 8.693975e-01
<GCONST> 1.258782e+02
<STATE> 4
<MEAN> 39
 -1.328191e+01 -6.763540e+00 -2.532848e-01 5.053059e-01 2.141014e+00 1.234442e+00 1.775815e+00 4.412089e+00 1.555271e+00 1.402120e+00 2.706586e+00 3.488305e+00 6.250104e+01 6.956073e-01 -8.326527e-01 -1.390086e-01 -4.952410e-01 2.175651e-01 -2.636852e-02 -6.508425e-01 -3.936034e-01 -4.413036e-01 -6.297892e-01 -3.978633e-01 -5.816149e-02 3.274423e-01 8.371003e-02 2.726056e-02 -2.705772e-01 -2.743409e-01 -2.609004e-01 -9.139603e-02 -2.579133e-01 -2.218248e-01 -1.287831e-01 -8.236510e-02 -1.439754e-01 -8.512282e-02 -6.144351e-02
<VARIANCE> 39
 3.110366e+01 5.756657e+01 2.415446e+01 2.578160e+01 3.804892e+01 3.857790e+01 3.703355e+01 3.302080e+01 3.696639e+01 3.399037e+01 3.032902e+01 2.363850e+01 1.106617e+02 3.573551e+00 4.059530e+00 2.298899e+00 3.005493e+00 3.432296e+00 3.240155e+00 3.866755e+00 3.254962e+00 3.101808e+00 3.386769e+00 2.744865e+00 2.291378e+00 2.247054e+00 4.592443e-01 4.877809e-01 5.219349e-01 5.624062e-01 6.511635e-01 5.729321e-01 6.196706e-01 6.031597e-01 5.765353e-01 5.363951e-01 5.014490e-01 4.609256e-01 3.452737e-01
<GCONST> 1.245753e+02
<TRANSP> 5
 0.000000e+00 1.000000e+00 0.000000e+00 0.000000e+00 0.000000e+00
 0.000000e+00 6.909534e-01 3.090466e-01 0.000000e+00 0.000000e+00
 0.000000e+00 0.000000e+00 7.370798e-01 2.629202e-01 0.000000e+00
 0.000000e+00 0.000000e+00 0.000000e+00 8.386797e-01 1.613203e-01
 0.000000e+00 0.000000e+00 0.000000e+00 0.000000e+00 0.000000e+00
<ENDHMM>
~h "d"
<BEGINHMM>
<NUMSTATES> 5
<STATE> 2
<MEAN> 39
 -2.905039e+00 -4.535522e+00 2.497250e+00 -5.218512e+00 -8.343362e+00 -7.528246e+00 -9.593762e+00 -4.855545e+00 -3.322300e+00 -4.327024e+00 -5.782320e+00 -5.923543e-01 6.013446e+01 -2.541386e-01 1.231238e+00 5.413659e-01 2.218547e+00 1.049052e+00 9.319074e-01 1.000395e+00 -8.811988e-03 5.844470e-01 5.746313e-02 4.484296e-01 -3.649715e-01 -2.510614e+00 -4.642597e-01 -6.172114e-01 -5.109046e-01 -6.374339e-01 2.062188e-01 2.529566e-01 4.349016e-01 5.741910e-01 7.532090e-02 3.111432e-01 2.219385e-01 1.557446e-01 9.735838e-01
<VARIANCE> 39
 1.927233e+01 3.122722e+01 3.803003e+01 4.172170e+01 5.442205e+01 4.852013e+01 5.776881e+01 4.983981e+01 5.024033e+01 4.326296e+01 4.395491e+01 4.495715e+01 4.498340e+01 1.779549e+00 2.540115e+00 3.963830e+00 4.117645e+00 5.038358e+00 4.753138e+00 5.856679e+00 5.383333e+00 4.451145e+00 4.141964e+00 3.574787e+00 3.407408e+00 4.983531e+00 2.211308e-01 4.325826e-01 5.738676e-01 8.531669e-01 8.100354e-01 9.128252e-01 8.581764e-01 8.741179e-01 8.003746e-01 7.743433e-01 6.610358e-01 7.509401e-01 1.155331e+00
<GCONST> 1.336331e+02
<STATE> 3
<MEAN> 39
 -9.364552e+00 -5.414929e+00 9.161922e-01 -5.287790e-01 -1.874462e+00 -3.451323e-01 -7.081594e-01 1.161652e+00 2.067253e+00 1.405792e+00 8.239955e-01 1.893994e+00 5.407487e+01 -7.737185e-01 -6.474479e-01 -4.291554e-01 -5.019727e-01 2.269538e-01 4.196103e-02 6.584154e-01 8.949754e-01 4.795568e-01 4.567878e-01 6.373548e-01 4.844174e-01 1.570875e+00 2.030321e-01 -3.566762e-01 -1.314923e-01 -8.588466e-01 -3.975044e-01 -4.277623e-01 -4.743418e-01 -6.242914e-03 -3.064316e-01 -2.590537e-01 -3.325481e-01 9.438298e-02 1.230270e+00
<VARIANCE> 39
 2.789987e+01 3.700650e+01 2.763256e+01 2.650076e+01 3.705411e+01 4.257199e+01 5.205643e+01 4.595874e+01 4.314053e+01 4.270656e+01 4.338900e+01 3.380654e+01 4.047203e+01 1.742842e+00 2.439080e+00 2.926978e+00 3.082482e+00 3.297621e+00 3.997742e+00 4.162616e+00 4.153143e+00 3.884945e+00 3.830005e+00 3.393898e+00 2.951039e+00 7.660966e+00 3.707844e-01 7.149538e-01 7.163469e-01 9.148811e-01 7.694163e-01 8.300284e-01 1.011394e+00 9.928691e-01 8.794857e-01 8.321362e-01 7.242854e-01 6.449696e-01 1.248534e+00
<GCONST> 1.319373e+02
<STATE> 4
<MEAN> 39
 -7.809235e+00 -7.167966e+00 1.053364e-01 -7.401935e+00 -5.615354e+00 -6.576637e+00 -4.127563e+00 1.474310e+00 -3.899777e-02 -1.026868e+00 -9.024875e-01 2.431194e+00 7.054449e+01 6.285120e-01 -1.742685e+00 -1.208749e+00 -3.448415e+00 -1.011122e+00 -1.411247e+00 -1.397157e+00 8.837273e-01 -8.279344e-01 -9.018286e-01 -1.399663e+00 6.202384e-01 4.755403e+00 3.049063e-01 -2.345010e-01 -1.938912e-01 -3.408213e-01 -4.032856e-02 2.757831e-01 -5.141652e-01 -3.974943e-01 -4.222115e-01 -2.469547e-01 -6.484875e-01 -2.795200e-01 -6.868374e-01
<VARIANCE> 39
 3.212159e+01 2.960671e+01 4.059200e+01 3.713250e+01 4.315343e+01 6.590279e+01 5.898992e+01 4.388258e+01 3.663097e+01 3.444484e+01 3.733100e+01 3.118686e+01 3.552169e+01 2.966256e+00 5.611282e+00 7.811635e+00 3.622105e+00 5.752572e+00 5.740261e+00 1.001995e+01 9.116877e+00 6.846626e+00 6.173894e+00 5.316282e+00 4.660234e+00 5.040741e+00 4.816486e-01 6.455021e-01 8.085343e-01 7.421962e-01 9.003403e-01 1.110629e+00 1.166178e+00 1.031907e+00 8.521016e-01 8.637438e-01 8.296049e-01 7.444667e-01 9.762200e-01
<GCONST> 1.398666e+02
<TRANSP> 5
 0.000000e+00 1.000000e+00 0.000000e+00 0.000000e+00 0.000000e+00
 0.000000e+00 5.930110e-01 4.069891e-01 0.000000e+00 0.000000e+00
 0.000000e+00 0.000000e+00 7.014705e-01 2.985295e-01 0.000000e+00
 0.000000e+00 0.000000e+00 0.000000e+00 4.156881e-01 5.843119e-01
 0.000000e+00 0.000000e+00 0.000000e+00 0.000000e+00 0.000000e+00
<ENDHMM>
~h "e"
<BEGINHMM>
<NUMSTATES> 5
<STATE> 2
<MEAN> 39
 -3.953135e+00 -1.072087e+01 -5.322983e+00 -1.472882e+01 -5.052967e+00 -9.886416e+00 -1.291914e+01 1.144871e+00 -6.157948e-01 -1.716312e+00 -6.811118e+00 1.955401e+00 7.219194e+01 3.789627e-01 -1.461043e+00 -9.710589e-01 -2.869375e+00 -3.092752e-01 1.114288e-02 -5.715622e-01 8.482724e-01 8.156380e-03 -4.576995e-01 -1.556076e+00 -4.679483e-01 1.686957e+00 -3.737050e-01 1.238037e-01 1.593143e-01 7.253100e-01 3.227413e-01 5.188143e-01 5.825195e-01 -8.565884e-02 6.117711e-02 1.166625e-01 1.803316e-01 -2.665901e-01 -4.076944e-01
<VARIANCE> 39
 2.501252e+01 3.800053e+01 4.916377e+01 4.953391e+01 6.513824e+01 6.826508e+01 7.564537e+01 6.576359e+01 5.936669e+01 6.290508e+01 5.851208e+01 6.018164e+01 3.673440e+01 2.203363e+00 2.495574e+00 2.785560e+00 5.140915e+00 5.229732e+00 4.286742e+00 6.651149e+00 5.177258e+00 4.489718e+00 4.587951e+00 4.099747e+00 4.158518e+00 1.583169e+00 4.122258e-01 6.004863e-01 4.881908e-01 7.296181e-01 7.114198e-01 7.195240e-01 9.865933e-01 1.137193e+00 7.756612e-01 7.557341e-01 7.469652e-01 8.030347e-01 4.543571e-01
<GCONST> 1.357584e+02
<STATE> 3
<MEAN> 39
 -3.962838e+00 -1.414091e+01 -8.850985e+00 -1.720481e+01 -2.378578e+00 -5.157478e+00 -1.028770e+01 2.726995e+00 5.161267e-01 -3.348061e+00 -1.016932e+01 -2.402027e+00 7.444254e+01 3.464933e-02 -1.671816e-01 2.815741e-02 1.053270e-01 -1.329749e-01 2.873464e-01 3.726198e-01 -1.010046e-01 -7.311243e-02 -1.749047e-01 7.337101e-03 -1.499515e-01 -9.019855e-02 3.900520e-02 4.246314e-01 3.565754e-01 4.841071e-01 -1.773052e-01 -1.102717e-01 -7.891840e-02 -3.334545e-01 -1.369814e-01 1.048823e-01 3.723933e-01 1.899928e-01 -4.675421e-01
<VARIANCE> 39
 2.384025e+01 2.785122e+01 4.540579e+01 4.156844e+01 5.993034e+01 7.391510e+01 6.939891e+01 6.016677e+01 5.796143e+01 6.495499e+01 4.545834e+01 4.597960e+01 3.155463e+01 4.883169e-01 1.033737e+00 1.515361e+00 1.519472e+00 2.864155e+00 2.698380e+00 2.296770e+00 2.299022e+00 2.223726e+00 2.435321e+00 2.276011e+00 2.492624e+00 6.856994e-01 1.190417e-01 2.594007e-01 2.299200e-01 4.177223e-01 3.854301e-01 4.073220e-01 4.722205e-01 5.644416e-01 4.649037e-01 4.892072e-01 4.731713e-01 4.104337e-01 2.333429e-01
<GCONST> 1.151194e+02
<STATE> 4
<MEAN> 39
 -3.895131e+00 -1.225154e+01 -4.416934e+00 -1.383116e+01 -7.232940e+00 -8.546020e+00 -9.164702e+00 1.539646e+00 -1.307376e+00 -3.690802e+00 -6.688783e+00 6.694573e-01 7.118650e+01 8.750072e-02 1.896779e+00 1.599770e+00 2.172172e+00 -5.318418e-01 2.921171e-01 1.555104e-01 -1.402532e+00 -6.802732e-01 2.947368e-01 1.360262e+00 3.439707e-01 -2.313714e+00 -3.176085e-01 5.081273e-01 2.111044e-01 6.459365e-01 4.784992e-01 5.219035e-01 2.747186e-01 -1.033562e-01 1.354968e-01 1.499231e-01 1.255753e-01 -1.762524e-01 -6.532699e-01
<VARIANCE> 39
 2.464205e+01 3.038909e+01 5.628899e+01 5.126779e+01 8.865431e+01 8.802911e+01 7.266430e+01 5.972233e+01 6.898248e+01 5.965763e+01 5.000743e+01 4.616043e+01 5.504850e+01 1.535194e+00 2.466585e+00 2.681646e+00 4.079227e+00 4.504263e+00 4.161690e+00 4.548715e+00 4.397964e+00 4.436021e+00 4.384944e+00 3.576609e+00 3.479912e+00 2.845590e+00 3.262394e-01 4.891361e-01 5.106356e-01 6.821385e-01 8.631223e-01 8.472123e-01 9.626736e-01 9.234189e-01 8.387135e-01 8.431880e-01 7.688375e-01 7.008208e-01 4.626964e-01
<GCONST> 1.348061e+02
<TRANSP> 5
 0.000000e+00 1.000000e+00 0.000000e+00 0.000000e+00 0.000000e+00
 0.000000e+00 5.433890e-01 4.566110e-01 0.000000e+00 0.000000e+00
 0.000000e+00 0.000000e+00 7.737287e-01 2.262713e-01 0.000000e+00
 0.000000e+00 0.000000e+00 0.000000e+00 5.261425e-01 4.738575e-01
 0.000000e+00 0.000000e+00 0.000000e+00 0.000000e+00 0.000000e+00
<ENDHMM>
~h "f"
<BEGINHMM>
<NUMSTATES> 5
<STATE> 2
<MEAN> 39
 -5.368707e+00 -4.358817e+00 -8.459494e-01 -3.521013e+00 -4.503863e+00 -1.932369e+00 -6.311686e+00 -3.206118e+00 -5.124366e+00 -4.447668e+00 -3.862668e+00 -8.671924e-01 6.405819e+01 -2.685766e+00 1.060890e+00 1.148765e+00 3.532973e+00 1.304777e+00 1.354678e+00 1.928581e+00 8.927957e-01 1.345181e+00 1.252728e+00 1.204998e+00 3.471803e-01 -1.263575e+00 -5.611768e-01 -5.760018e-01 -1.590983e-01 -4.753456e-01 -1.156022e-01 8.963565e-02 2.543478e-01 5.477328e-01 3.358886e-01 4.974573e-01 2.162718e-01 2.008877e-01 3.480313e-01
<VARIANCE> 39
 3.947881e+01 2.456240e+01 3.695543e+01 4.937793e+01 3.618166e+01 4.174509e+01 3.902544e+01 3.225957e+01 3.345816e+01 3.076983e+01 2.703010e+01 2.755043e+01 3.623715e+01 2.799973e+00 3.925974e+00 4.694050e+00 5.716521e+00 4.479918e+00 4.579241e+00 4.164647e+00 5.267933e+00 4.654988e+00 4.310715e+00 3.642597e+00 3.397560e+00 1.971345e+00 6.358359e-01 3.971585e-01 5.787511e-01 1.014483e+00 6.145965e-01 6.055976e-01 7.649927e-01 6.760806e-01 6.621352e-01 6.316966e-01 5.525622e-01 4.995211e-01 2.351707e-01
<GCONST> 1.284884e+02
<STATE> 3
<MEAN> 39
 -1.558897e+01 -6.498553e+00 -9.998311e-02 2.003658e+00 -1.741858e+00 2.185574e+00 5.324888e-01 3.620857e+00 2.070221e+00 2.760129e+00 2.131423e+00 2.590175e+00 6.119725e+01 -7.219496e-01 -2.875172e-01 -1.232962e-01 1.986155e-01 9.846586e-02 1.918554e-01 3.350373e-01 4.553533e-01 4.809265e-01 5.023439e-01 4.292642e-01 2.619776e-01 1.060367e-01 7.838267e-01 -6.281526e-02 -2.072487e-01 -6.350837e-01 -1.899323e-01 -3.122235e-01 -4.452300e-01 -3.786397e-01 -4.056256e-01 -4.329262e-01 -3.588145e-01 -1.430339e-01 3.049241e-01
<VARIANCE> 39
 2.484945e+01 2.125589e+01 1.752645e+01 1.737892e+01 2.160950e+01 1.913802e+01 2.256094e+01 2.191016e+01 2.335952e+01 2.131519e+01 2.076154e+01 1.793655e+01 4.953698e+01 2.398047e+00 1.182076e+00 1.250365e+00 1.530550e+00 1.579003e+00 1.849138e+00 2.115511e+00 2.427058e+00 2.509426e+00 2.508810e+00 2.046445e+00 1.732822e+00 1.211788e+00 5.098838e-01 3.506560e-01 4.215133e-01 7.018853e-01 4.275513e-01 4.891871e-01 5.198412e-01 5.076471e-01 5.217530e-01 5.448113e-01 4.878903e-01 4.138031e-01 3.197169e-01
<GCONST> 1.097885e+02
<STATE> 4
<MEAN> 39
 -1.195261e+01 -5.577843e+00 -3.903051e-01 5.459875e-01 -2.497257e+00 5.253929e-01 -1.406554e+00 1.700175e+00 5.603963e-02 5.907733e-01 4.501684e-01 1.627888e+00 6.494357e+01 3.052707e+00 -9.059366e-01 -1.510884e+00 -3.154398e+00 -6.500210e-01 -1.009283e+00 -1.575200e+00 -1.004869e+00 -1.130132e+00 -1.356418e+00 -1.401152e+00 -3.862388e-01 1.931971e+00 4.697717e-01 -5.150622e-01 -4.942029e-01 -1.004955e+00 -9.211227e-02 -5.072694e-02 -3.985955e-01 -1.636496e-01 -3.612657e-01 -2.794099e-01 -4.266735e-01 -1.156361e-01 3.561249e-01
<VARIANCE> 39
 5.503416e+01 2.428579e+01 2.121133e+01 2.497630e+01 2.162869e+01 2.346733e+01 2.495266e+01 2.143171e+01 2.146014e+01 2.174300e+01 1.980364e+01 1.760307e+01 3.695067e+01 4.187229e+00 4.439971e+00 4.147987e+00 6.108162e+00 3.546917e+00 4.272809e+00 3.440949e+00 3.323882e+00 3.222913e+00 3.540348e+00 3.953543e+00 3.496076e+00 2.776459e+00 9.388258e-01 6.147807e-01 5.141661e-01 8.318900e-01 5.916026e-01 6.071101e-01 6.383906e-01 5.973772e-01 5.623909e-01 6.217856e-01 6.312011e-01 5.351877e-01 3.811883e-01
<GCONST> 1.241728e+02
<TRANSP> 5
 0.000000e+00 1.000000e+00 0.000000e+00 0.000000e+00 0.000000e+00
 0.000000e+00 6.513830e-01 3.486170e-01 0.000000e+00 0.000000e+00
 0.000000e+00 0.000000e+00 8.127750e-01 1.872251e-01 0.000000e+00
 0.000000e+00 0.000000e+00 0.000000e+00 6.308540e-01 3.691461e-01
 0.000000e+00 0.000000e+00 0.000000e+00 0.000000e+00 0.000000e+00
<ENDHMM>
~h "g"
<BEGINHMM>
<NUMSTATES> 5
<STATE> 2
<MEAN> 39
 -2.078305e+00 -4.144856e+00 -1.330945e+00 -8.512959e+00 -6.558485e+00 -4.109446e+00 -9.138668e+00 -5.753718e+00 -4.710026e+00 -2.103736e+00 -5.756746e+00 -5.626591e-01 5.950416e+01 -5.758460e-01 6.760406e-01 1.875145e-01 2.433075e+00 1.016983e+00 9.360893e-01 1.815385e+00 5.070452e-01 1.045113e+00 3.824092e-01 1.099354e+00 3.869353e-02 -2.594707e+00 -3.693506e-01 -6.033936e-01 -4.023824e-01 -3.715801e-01 1.187637e-01 1.252080e-01 4.445106e-01 6.892688e-01 2.223518e-01 3.056991e-01 1.854696e-01 2.379500e-01 6.213897e-01
<VARIANCE> 39
 2.242027e+01 3.647565e+01 4.822268e+01 5.921853e+01 5.032418e+01 5.196516e+01 5.983013e+01 4.560498e+01 5.219216e+01 5.378407e+01 5.022776e+01 4.538145e+01 4.257186e+01 2.135775e+00 3.395190e+00 4.902250e+00 5.378988e+00 5.606658e+00 5.129045e+00 5.965019e+00 6.445088e+00 5.683383e+00 5.446362e+00 4.569363e+00 4.278091e+00 3.966897e+00 2.728058e-01 4.530825e-01 8.318632e-01 1.275844e+00 1.008400e+00 9.817551e-01 1.180785e+00 9.350418e-01 1.052635e+00 1.032635e+00 8.472601e-01 8.623025e-01 8.593628e-01
<GCONST> 1.392649e+02
<STATE> 3
<MEAN> 39
 -9.781185e+00 -7.055342e+00 -1.622738e+00 -1.270177e+00 -9.384468e-01 1.098991e+00 1.144851e+00 3.009015e+00 3.451821e+00 3.408170e+00 2.279305e+00 3.512895e+00 5.301873e+01 -2.074342e-01 -6.717264e-01 -1.209503e+00 -4.364608e-01 4.058716e-01 -1.166746e-01 5.869100e-01 9.237602e-01 2.592216e-01 5.396954e-01 1.205830e-01 4.898705e-01 8.960524e-01 4.276731e-01 1.960800e-03 -2.455251e-01 -8.372048e-01 -2.741922e-01 -3.648285e-01 -6.101702e-01 -3.259356e-01 -5.586114e-01 -2.836211e-01 -4.959266e-01 -4.806222e-02 8.975041e-01
<VARIANCE> 39
 2.435490e+01 4.007177e+01 3.112987e+01 3.253099e+01 3.940449e+01 3.541797e+01 3.831114e+01 3.852034e+01 3.981160e+01 3.593648e+01 3.690845e+01 2.768423e+01 3.228589e+01 1.952661e+00 2.864114e+00 4.441265e+00 4.391666e+00 3.811111e+00 3.951140e+00 4.540706e+00 4.318197e+00 4.499715e+00 3.936905e+00 3.699593e+00 2.999683e+00 5.107137e+00 3.664042e-01 4.869518e-01 6.373073e-01 1.115182e+00 6.841443e-01 7.620718e-01 8.984239e-01 8.058708e-01 9.153443e-01 7.516751e-01 7.759809e-01 5.920117e-01 9.118457e-01
<GCONST> 1.306972e+02
<STATE> 4
<MEAN> 39
 -3.456014e+00 -6.834904e+00 -1.025930e+01 -1.023359e+01 -2.555257e+00 -3.702485e+00 -2.655724e+00 1.578940e+00 -2.776859e+00 2.402958e+00 -3.981097e+00 3.366589e+00 6.469962e+01 1.559104e+00 1.624534e-01 -9.777348e-01 -3.722756e+00 -9.060467e-01 -1.110741e+00 -2.235127e+00 -9.270858e-01 -2.024434e+00 -7.145985e-01 -1.545331e+00 3.639067e-01 3.355300e+00 -3.393181e-02 -8.126684e-03 7.675353e-01 -3.314412e-01 -3.184178e-01 2.348839e-01 -5.951022e-01 -4.797725e-01 -9.979081e-02 -3.329712e-01 -1.208495e-01 -3.274216e-01 -2.178319e-01
<VARIANCE> 39
 3.965563e+01 4.639536e+01 4.289759e+01 7.804046e+01 5.609512e+01 5.895759e+01 6.449756e+01 4.980008e+01 5.224701e+01 3.939652e+01 3.748674e+01 3.517494e+01 3.767747e+01 2.038400e+00 3.867028e+00 5.742395e+00 5.366620e+00 5.260266e+00 5.038300e+00 6.446632e+00 6.010991e+00 5.540432e+00 5.184825e+00 5.026876e+00 4.928645e+00 3.870169e+00 4.978600e-01 8.509368e-01 8.735238e-01 1.338002e+00 1.095359e+00 1.077926e+00 1.456854e+00 1.235555e+00 1.213340e+00 9.853957e-01 9.015241e-01 9.213917e-01 6.201780e-01
<GCONST> 1.418467e+02
<TRANSP> 5
 0.000000e+00 1.000000e+00 0.000000e+00 0.000000e+00 0.000000e+00
 0.000000e+00 6.650116e-01 3.349884e-01 0.000000e+00 0.000000e+00
 0.000000e+00 0.000000e+00 7.591360e-01 2.408640e-01 0.000000e+00
 0.000000e+00 0.000000e+00 0.000000e+00 5.573021e-01 4.426979e-01
 0.000000e+00 0.000000e+00 0.000000e+00 0.000000e+00 0.000000e+00
<ENDHMM>
~h "h"
<BEGINHMM>
<NUMSTATES> 5
<STATE> 2
<MEAN> 39
 -2.299161e+00 -8.352674e+00 -8.871515e+00 -1.291168e+01 -1.140903e+00 -1.749238e+00 -1.122568e+01 -3.002669e+00 -7.461061e+00 -6.199356e+00 -5.347399e+00 -2.002241e+00 6.753309e+01 -5.599687e-01 1.203867e+00 -7.044186e-02 1.897781e+00 2.115322e+00 1.460247e+00 9.879698e-01 2.693510e-02 2.762858e-01 3.478701e-01 8.795985e-01 -2.391664e-01 -1.463784e+00 -5.703837e-01 -2.055611e-01 3.480819e-01 3.173946e-01 8.236022e-02 1.957207e-01 6.930882e-01 5.857023e-01 4.173772e-01 6.113858e-01 2.695590e-01 1.073577e-01 2.997013e-02
<VARIANCE> 39
 2.565493e+01 4.752798e+01 5.142498e+01 6.269696e+01 6.618820e+01 7.883128e+01 6.439194e+01 5.411488e+01 7.084096e+01 6.541683e+01 5.148422e+01 5.306049e+01 4.381312e+01 2.973851e+00 3.037574e+00 4.905717e+00 6.303516e+00 6.831937e+00 5.145691e+00 7.317374e+00 6.752346e+00 6.452173e+00 6.023015e+00 4.697638e+00 4.119884e+00 1.483239e+00 2.644889e-01 4.752266e-01 5.821537e-01 7.355015e-01 8.768090e-01 8.739144e-01 1.024867e+00 1.169840e+00 1.186191e+00 1.072935e+00 8.925431e-01 7.372686e-01 1.896875e-01
<GCONST> 1.389743e+02
<STATE> 3
<MEAN> 39
 -8.957003e+00 -7.207195e+00 -6.843557e+00 -4.123799e+00 6.482803e+00 4.211293e+00 -2.562074e+00 2.504806e+00 -2.020359e+00 -4.354912e-01 -8.910623e-01 -1.673069e+00 6.340815e+01 -1.648932e+00 -4.010709e-01 -1.342410e-01 1.260650e+00 1.202994e+00 9.960499e-01 1.852462e+00 2.137859e+00 1.949205e+00 1.992943e+00 1.224740e+00 4.017977e-01 -5.303311e-01 4.880630e-01 -1.679247e-01 -2.110438e-01 -8.508022e-01 -7.099473e-01 -4.314643e-01 -5.983113e-01 -3.340187e-01 -2.815756e-01 -3.367446e-01 -2.267502e-01 3.681450e-02 3.562354e-01
<VARIANCE> 39
 3.283377e+01 4.724796e+01 3.684793e+01 5.054790e+01 6.580557e+01 4.772591e+01 4.947964e+01 5.307920e+01 5.011563e+01 5.249616e+01 3.489632e+01 3.459835e+01 4.675453e+01 1.742286e+00 1.980785e+00 2.842203e+00 3.905896e+00 4.227542e+00 3.536363e+00 4.204104e+00 4.489577e+00 3.771828e+00 4.341177e+00 3.519449e+00 3.152527e+00 1.043662e+00 3.287331e-01 3.910756e-01 5.008914e-01 5.705216e-01 7.197917e-01 6.667958e-01 8.801023e-01 1.087540e+00 8.981202e-01 9.667253e-01 6.787717e-01 5.866135e-01 1.818564e-01
<GCONST> 1.289802e+02
<STATE> 4
<MEAN> 39
 -1.083494e+01 -8.485378e+00 -6.053550e+00 -3.196612e+00 5.501244e+00 3.957376e+00 -4.828879e-01 5.144605e+00 2.239886e+00 2.270911e+00 1.915409e+00 7.418956e-01 6.030735e+01 6.808035e-01 1.538521e-02 -1.378763e-01 -7.043667e-01 -5.515140e-01 -3.165904e-01 -6.869937e-01 -6.513763e-01 -4.536029e-01 -5.087447e-01 -2.604393e-01 -6.091814e-02 4.225581e-01 3.795786e-01 -4.383481e-02 -7.206099e-02 -4.490560e-01 -3.027737e-01 -1.793434e-01 -3.769800e-01 -3.965166e-01 -3.354702e-01 -3.040913e-01 -2.293383e-01 -3.303256e-02 2.561170e-01
<VARIANCE> 39
 3.321139e+01 5.583099e+01 3.956420e+01 4.784717e+01 6.222937e+01 4.343976e+01 4.536006e+01 4.881828e+01 4.381340e+01 4.283513e+01 3.608091e+01 3.571270e+01 5.815435e+01 2.226850e+00 1.886102e+00 2.137675e+00 3.499988e+00 3.661655e+00 2.759164e+00 3.645371e+00 4.077405e+00 3.163038e+00 3.256238e+00 2.577255e+00 2.242333e+00 1.540882e+00 3.220386e-01 3.841275e-01 4.305927e-01 6.565102e-01 6.000845e-01 5.363555e-01 6.974252e-01 7.470821e-01 6.266485e-01 6.551437e-01 5.307605e-01 4.539689e-01 2.861440e-01
<GCONST> 1.253895e+02
<TRANSP> 5
 0.000000e+00 1.000000e+00 0.000000e+00 0.000000e+00 0.000000e+00
 0.000000e+00 6.756899e-01 3.243101e-01 0.000000e+00 0.000000e+00
 0.000000e+00 0.000000e+00 6.274906e-01 3.725093e-01 0.000000e+00
 0.000000e+00 0.000000e+00 0.000000e+00 8.530995e-01 1.469005e-01
 0.000000e+00 0.000000e+00 0.000000e+00 0.000000e+00 0.000000e+00
<ENDHMM>
~h "i"
<BEGINHMM>
<NUMSTATES> 5
<STATE> 2
<MEAN> 39
 -1.261803e+01 9.093403e-01 1.269590e+01 -1.551662e+01 -1.169003e+01 -4.690924e+00 -1.474503e+01 -1.015303e+01 -7.703030e+00 -1.216183e+00 -6.274464e+00 1.110706e+00 6.870871e+01 5.244840e-01 -6.800762e-01 1.578131e+00 -2.396109e+00 -1.457254e+00 -4.367053e-01 -1.851566e+00 -9.630420e-01 -1.367432e+00 5.492505e-02 -1.561820e+00 -2.187486e-02 6.126879e-01 -1.811119e-01 -1.858580e-01 -5.960209e-01 5.873829e-01 4.249844e-01 2.670603e-01 7.103122e-01 6.002802e-01 4.537462e-01 1.935090e-01 1.793269e-01 -5.095282e-02 -2.384256e-01
<VARIANCE> 39
 2.481574e+01 3.666867e+01 3.638533e+01 5.375552e+01 3.660498e+01 3.651661e+01 4.857635e+01 4.305592e+01 5.262783e+01 4.381702e+01 4.784245e+01 5.854603e+01 2.781670e+01 3.434099e+00 3.396648e+00 2.959122e+00 4.192776e+00 4.173438e+00 4.231537e+00 5.572011e+00 4.732555e+00 5.083208e+00 4.163651e+00 3.733135e+00 3.498799e+00 1.198975e+00 3.704408e-01 3.733395e-01 4.377634e-01 6.375744e-01 5.783880e-01 6.134577e-01 7.830173e-01 6.683949e-01 6.421771e-01 7.093869e-01 6.254879e-01 6.012831e-01 2.586593e-01
<GCONST> 1.287867e+02
<STATE> 3
<MEAN> 39
 -1.234823e+01 5.720136e-01 1.466011e+01 -1.902216e+01 -1.244979e+01 -3.743931e+00 -1.712037e+01 -9.339957e+00 -8.258634e+00 -3.373846e-01 -9.005945e+00 2.413133e-01 6.851536e+01 2.701073e-01 -3.591948e-01 -5.158158e-02 3.261868e-01 -4.772513e-01 9.145806e-02 3.799683e-01 -1.249872e-01 2.050435e-01 1.931379e-01 6.253976e-02 7.505033e-02 -1.402888e-01 1.014083e-01 -2.185448e-03 -2.849464e-01 5.436482e-01 9.793007e-02 -3.460154e-02 3.836208e-01 9.776624e-02 1.426466e-01 -3.105826e-02 2.660177e-01 -2.365027e-02 -1.998873e-01
<VARIANCE> 39
 2.471597e+01 3.420220e+01 3.013412e+01 4.138269e+01 3.890636e+01 3.721824e+01 4.450187e+01 4.409228e+01 6.451974e+01 5.347004e+01 4.616087e+01 4.939259e+01 3.104477e+01 5.986350e-01 1.279125e+00 9.243439e-01 1.660671e+00 1.677922e+00 1.399944e+00 2.080192e+00 1.606246e+00 1.662315e+00 1.770738e+00 1.665861e+00 1.613395e+00 5.753401e-01 1.586554e-01 2.030773e-01 2.575547e-01 4.002824e-01 3.800097e-01 3.194963e-01 4.087681e-01 3.940890e-01 4.056533e-01 3.931679e-01 3.793797e-01 3.171652e-01 1.356420e-01
<GCONST> 1.078635e+02
<STATE> 4
<MEAN> 39
 -1.028572e+01 -4.321250e+00 1.015333e+01 -1.096042e+01 -1.319109e+01 -2.933121e+00 -8.678638e+00 -6.845004e+00 -5.005385e+00 1.511759e+00 -4.463595e+00 1.431272e+00 6.410249e+01 6.576207e-01 -3.644656e-01 -1.535334e+00 2.328397e+00 7.860136e-01 -1.925178e-01 1.576310e+00 9.778138e-01 6.033960e-01 -3.381693e-01 8.863862e-01 -2.006380e-01 -1.173122e+00 -1.394202e-01 2.753762e-01 -3.106114e-01 2.739208e-01 7.002636e-01 1.160218e-01 -6.541977e-03 3.142775e-01 2.220697e-01 -1.753102e-01 1.244132e-01 -3.446579e-02 -2.831419e-01
<VARIANCE> 39
 2.606842e+01 4.879612e+01 5.111230e+01 7.131704e+01 7.031595e+01 5.061248e+01 7.202429e+01 7.317832e+01 7.632017e+01 4.681667e+01 6.369959e+01 4.445045e+01 8.483177e+01 1.975459e+00 2.496811e+00 2.877088e+00 4.537912e+00 3.910351e+00 3.394422e+00 4.543094e+00 3.813609e+00 4.005475e+00 3.899166e+00 3.271950e+00 2.889014e+00 2.556369e+00 2.870673e-01 4.285123e-01 4.598437e-01 6.710587e-01 8.642840e-01 5.955715e-01 7.633284e-01 7.953815e-01 7.316762e-01 6.699787e-01 5.986949e-01 4.768812e-01 4.224828e-01
<GCONST> 1.326182e+02
<TRANSP> 5
 0.000000e+00 1.000000e+00 0.000000e+00 0.000000e+00 0.000000e+00
 0.000000e+00 5.311214e-01 4.688786e-01 0.000000e+00 0.000000e+00
 0.000000e+00 0.000000e+00 7.907192e-01 2.092809e-01 0.000000e+00
 0.000000e+00 0.000000e+00 0.000000e+00 6.313682e-01 3.686318e-01
 0.000000e+00 0.000000e+00 0.000000e+00 0.000000e+00 0.000000e+00
<ENDHMM>
~h "j"
<BEGINHMM>
<NUMSTATES> 5
<STATE> 2
<MEAN> 39
 -6.658187e+00 -9.028317e-01 3.107387e+00 -2.928842e+00 -8.598324e+00 -5.305400e+00 -7.199238e+00 -6.208039e+00 -5.295008e+00 -4.153391e+00 -4.945596e+00 -1.783490e+00 5.994823e+01 -1.769355e+00 1.310597e+00 -5.728370e-01 2.091056e+00 1.881895e+00 1.594746e+00 1.762941e+00 8.605176e-01 1.251134e+00 6.664113e-01 1.019832e+00 -5.060038e-02 -1.651570e+00 -6.692873e-01 -3.490472e-01 -3.716880e-01 -4.680722e-01 2.074714e-01 2.707253e-01 2.163683e-01 4.926776e-01 3.533681e-01 5.184279e-01 2.458415e-01 2.894017e-01 6.853796e-01
<VARIANCE> 39
 3.302250e+01 3.666269e+01 3.440345e+01 4.031149e+01 5.010185e+01 4.374657e+01 4.682933e+01 4.683971e+01 4.427676e+01 3.722623e+01 3.686281e+01 3.849943e+01 4.431184e+01 4.149725e+00 4.116878e+00 3.895729e+00 4.148335e+00 4.334843e+00 4.298592e+00 5.414010e+00 5.889058e+00 4.919895e+00 4.890219e+00 3.989430e+00 3.934554e+00 4.816385e+00 5.318795e-01 5.644072e-01 6.309966e-01 7.862996e-01 1.010667e+00 8.615503e-01 8.912803e-01 8.302913e-01 8.214193e-01 7.536851e-01 6.570281e-01 6.698979e-01 7.408702e-01
<GCONST> 1.354233e+02
<STATE> 3
<MEAN> 39
 -1.685003e+01 -2.567032e+00 -7.733927e-01 2.173667e-01 -7.154647e-01 2.196866e+00 1.688059e+00 2.882394e+00 3.339621e+00 3.423816e+00 2.986119e+00 3.086039e+00 5.734249e+01 -1.561634e+00 5.585469e-01 -9.927595e-02 -3.084040e-01 2.545855e-01 4.433317e-01 2.615763e-01 2.183906e-01 3.747521e-01 3.975343e-01 3.399734e-01 1.962460e-01 1.340500e+00 5.052565e-01 -2.794754e-02 4.762908e-01 -4.137129e-01 -4.769046e-01 -3.615637e-01 -4.598201e-01 -4.858232e-01 -4.374218e-01 -3.016764e-01 -2.912952e-01 -1.257505e-01 3.063014e-01
<VARIANCE> 39
 4.198413e+01 5.763485e+01 3.062349e+01 2.772314e+01 2.998178e+01 2.627828e+01 3.012317e+01 3.135873e+01 3.064962e+01 2.773616e+01 2.658649e+01 2.249627e+01 5.215319e+01 3.729748e+00 2.987688e+00 2.895729e+00 2.317512e+00 2.567299e+00 2.611034e+00 2.864303e+00 3.098022e+00 3.142641e+00 3.085077e+00 2.688447e+00 2.236498e+00 3.367823e+00 8.793787e-01 6.284519e-01 6.262408e-01 6.870393e-01 7.274477e-01 6.437905e-01 6.715604e-01 7.330903e-01 6.867550e-01 5.748867e-01 5.267766e-01 4.619398e-01 6.173635e-01
<GCONST> 1.247775e+02
<STATE> 4
<MEAN> 39
 -2.039498e+01 4.443091e+00 3.738101e+00 -3.803729e+00 -4.265239e+00 7.230483e-01 -2.415090e+00 -3.468720e+00 -5.485585e-02 1.079018e+00 1.467978e-01 6.743346e-01 6.823699e+01 2.366356e+00 -8.477073e-01 2.809336e+00 -2.743936e+00 -3.157235e+00 -1.940872e+00 -2.354757e+00 -2.467580e+00 -2.080288e+00 -6.118804e-01 -9.190750e-01 1.647083e-02 1.608109e+00 9.813094e-01 -9.950154e-01 1.417290e-01 -6.217878e-01 -6.512740e-01 -5.372574e-01 -4.781599e-01 -7.930934e-02 -5.291526e-01 -7.113867e-02 -5.092530e-01 1.863659e-02 -2.647663e-01
<VARIANCE> 39
 4.015269e+01 3.118479e+01 4.655383e+01 3.140168e+01 4.313101e+01 3.623300e+01 4.075990e+01 4.027536e+01 3.324564e+01 2.527983e+01 2.166470e+01 1.967492e+01 2.332680e+01 3.305066e+00 4.413392e+00 2.567273e+00 4.866610e+00 3.697814e+00 3.894477e+00 4.289155e+00 4.695306e+00 3.619530e+00 3.150509e+00 3.133771e+00 3.445487e+00 1.618424e+00 9.321168e-01 7.484742e-01 8.377649e-01 6.997821e-01 8.957624e-01 8.434491e-01 9.419107e-01 1.147318e+00 7.708142e-01 7.143157e-01 6.583211e-01 5.813797e-01 2.274565e-01
<GCONST> 1.288288e+02
<TRANSP> 5
 0.000000e+00 1.000000e+00 0.000000e+00 0.000000e+00 0.000000e+00
 0.000000e+00 7.273123e-01 2.726877e-01 0.000000e+00 0.000000e+00
 0.000000e+00 0.000000e+00 8.203853e-01 1.796147e-01 0.000000e+00
 0.000000e+00 0.000000e+00 0.000000e+00 6.119527e-01 3.880473e-01
 0.000000e+00 0.000000e+00 0.000000e+00 0.000000e+00 0.000000e+00
<ENDHMM>
~h "k"
<BEGINHMM>
<NUMSTATES> 5
<STATE> 2
<MEAN> 39
 -3.641287e+00 -4.810946e+00 -1.032085e+00 -6.400383e+00 -5.398452e+00 -3.091260e+00 -7.119213e+00 -4.632927e+00 -3.436911e+00 -1.600743e+00 -4.421504e+00 1.689149e-01 5.872952e+01 -1.099210e+00 -6.190532e-02 -4.875323e-01 2.535386e+00 1.705117e+00 1.209489e+00 2.262004e+00 1.322285e+00 1.494990e+00 1.217574e+00 1.518137e+00 4.387916e-01 -2.053957e+00 -3.512588e-01 -7.162198e-01 -5.401579e-01 -3.464289e-01 2.752599e-01 7.709683e-02 3.734625e-01 7.238944e-01 2.404940e-01 3.462413e-01 1.147787e-01 1.557667e-01 8.887053e-01
<VARIANCE> 39
 2.482102e+01 3.323943e+01 4.686614e+01 5.696450e+01 5.387001e+01 5.207643e+01 6.263611e+01 4.665204e+01 5.325828e+01 5.313895e+01 4.731294e+01 4.272190e+01 4.134737e+01 2.102635e+00 4.043340e+00 5.702796e+00 6.020769e+00 5.582842e+00 4.973287e+00 5.946192e+00 6.377697e+00 5.900643e+00 5.319257e+00 4.832582e+00 4.421767e+00 6.105455e+00 3.477298e-01 4.691681e-01 7.492557e-01 1.052659e+00 9.624773e-01 1.007851e+00 1.239475e+00 8.977054e-01 9.960885e-01 9.571939e-01 9.240384e-01 7.577485e-01 9.139345e-01
<GCONST> 1.399684e+02
<STATE> 3
<MEAN> 39
 -8.071089e+00 -9.759645e+00 -7.923375e+00 -2.912852e+00 1.584495e+00 -1.992455e-02 7.885162e-01 4.114849e+00 2.328249e+00 4.565057e+00 -1.895686e-01 2.868156e+00 6.148975e+01 -2.286176e-01 -6.938272e-01 -6.430150e-01 5.367720e-01 1.338043e+00 1.891884e-01 4.115095e-01 8.836508e-01 2.888555e-01 1.067812e-01 2.199763e-02 4.228041e-02 2.179851e+00 2.990566e-01 3.410923e-01 6.476046e-01 -1.940405e-01 -2.859629e-01 -9.777166e-02 -6.053634e-01 -6.542739e-01 -4.481764e-01 -5.765905e-01 -2.958994e-01 -1.854898e-01 2.305897e-01
<VARIANCE> 39
 3.218720e+01 3.761467e+01 5.352312e+01 5.704168e+01 4.847506e+01 5.407287e+01 4.753683e+01 3.697149e+01 4.685631e+01 3.738582e+01 3.655153e+01 2.806486e+01 7.598243e+01 2.420812e+00 4.070227e+00 7.754774e+00 5.204190e+00 4.326740e+00 5.381557e+00 5.464816e+00 5.166746e+00 5.156773e+00 4.829357e+00 4.487670e+00 3.560994e+00 5.749290e+00 4.630013e-01 7.062273e-01 1.299586e+00 1.222080e+00 9.200998e-01 1.149929e+00 1.087064e+00 9.475953e-01 1.074647e+00 9.038441e-01 9.960606e-01 7.126585e-01 1.748444e+00
<GCONST> 1.407024e+02
<STATE> 4
<MEAN> 39
 -1.034174e+01 -9.758341e+00 -1.895828e+00 1.200379e+00 4.029610e+00 1.295416e+00 5.103464e-01 3.652738e+00 2.526053e+00 1.750993e+00 1.263643e+00 3.089774e+00 6.248589e+01 3.582189e-01 -5.469301e-02 1.258141e-01 -5.452048e-01 -1.638163e-01 2.874519e-02 -7.380079e-01 -7.821401e-01 -6.030141e-01 -6.954961e-01 -3.315731e-01 -9.034037e-02 5.045659e-01 2.027258e-01 -1.027740e-01 -3.583449e-01 -5.476586e-01 -3.844990e-01 -1.955446e-01 -2.378188e-01 -1.497908e-01 -2.217974e-01 -9.130385e-02 -1.718559e-01 -1.373784e-02 -1.927678e-02
<VARIANCE> 39
 3.145685e+01 3.890071e+01 3.700359e+01 3.653989e+01 4.144403e+01 4.667618e+01 4.242807e+01 3.690810e+01 3.941306e+01 3.802048e+01 3.774601e+01 2.581647e+01 1.022759e+02 1.705552e+00 2.686843e+00 3.734779e+00 4.237709e+00 3.694243e+00 3.579031e+00 3.838126e+00 3.788863e+00 3.454883e+00 3.579375e+00 2.932200e+00 2.502475e+00 2.041744e+00 3.080082e-01 5.124339e-01 7.119960e-01 7.935057e-01 7.010710e-01 6.665868e-01 6.262366e-01 6.002556e-01 5.888857e-01 5.672417e-01 5.438387e-01 4.715119e-01 3.773775e-01
<GCONST> 1.269183e+02
<TRANSP> 5
 0.000000e+00 1.000000e+00 0.000000e+00 0.000000e+00 0.000000e+00
 0.000000e+00 6.676494e-01 3.323506e-01 0.000000e+00 0.000000e+00
 0.000000e+00 0.000000e+00 7.631826e-01 2.368174e-01 0.000000e+00
 0.000000e+00 0.000000e+00 0.000000e+00 8.462184e-01 1.537816e-01
 0.000000e+00 0.000000e+00 0.000000e+00 0.000000e+00 0.000000e+00
<ENDHMM>
~h "l"
<BEGINHMM>
<NUMSTATES> 5
<STATE> 2
<MEAN> 39
 -3.777372e+00 -1.155623e+01 5.631017e-02 -7.620703e+00 -9.947887e+00 -7.502632e+00 -1.089868e+01 -3.117779e+00 -1.788995e+00 -4.295467e+00 -4.916423e+00 1.710537e+00 6.706667e+01 -1.322584e-01 1.056538e+00 1.092190e+00 9.722489e-01 3.288740e-01 -9.147900e-01 -8.589393e-01 -6.497992e-01 1.482396e-01 -1.962455e-01 -7.719835e-03 4.760705e-01 -1.045041e+00 -2.001896e-01 -3.372351e-02 -1.022984e-01 -5.728049e-01 1.595783e-01 4.295080e-01 1.992863e-01 9.002133e-02 -2.390155e-01 1.683021e-01 -8.432440e-02 -1.756896e-01 3.529741e-01
<VARIANCE> 39
 3.240871e+01 4.759364e+01 6.625270e+01 7.861258e+01 7.301407e+01 8.699363e+01 8.879809e+01 7.971087e+01 7.925741e+01 6.827634e+01 6.052224e+01 5.250514e+01 5.839459e+01 1.633659e+00 3.074414e+00 4.115641e+00 5.665965e+00 5.501250e+00 7.370168e+00 7.354038e+00 6.382774e+00 6.364451e+00 6.106579e+00 4.653632e+00 3.900819e+00 2.843761e+00 2.228170e-01 5.593871e-01 5.399299e-01 1.059902e+00 9.816419e-01 1.283355e+00 1.229820e+00 1.270591e+00 1.141407e+00 1.162808e+00 8.951817e-01 7.428826e-01 4.369962e-01
<GCONST> 1.429277e+02
<STATE> 3
<MEAN> 39
 -4.344107e+00 -8.087027e+00 2.863987e+00 -9.889477e+00 -8.363078e+00 -8.012205e+00 -1.353555e+01 -4.517808e+00 -3.363487e+00 -4.098888e+00 -6.470737e+00 9.922034e-01 6.559284e+01 -3.525253e-01 -3.497418e-02 5.718150e-02 -6.499490e-01 -3.125757e-02 5.813792e-01 5.372730e-01 1.416053e-01 -1.298395e-01 6.306338e-01 -4.219004e-02 -2.786968e-01 3.576502e-01 -7.550680e-02 -4.502293e-01 -3.406680e-01 -4.371613e-01 -2.036709e-01 3.719127e-01 4.828556e-01 2.727909e-01 -6.904659e-02 1.648273e-01 -1.401968e-02 -9.690817e-02 5.372155e-01
<VARIANCE> 39
 2.877847e+01 3.930410e+01 8.765791e+01 8.445185e+01 6.931490e+01 7.593237e+01 8.041228e+01 6.968972e+01 7.627417e+01 6.620747e+01 5.672593e+01 5.094749e+01 4.423112e+01 8.277391e-01 1.860772e+00 2.755312e+00 3.619626e+00 3.631400e+00 3.961065e+00 5.242006e+00 4.623764e+00 4.500671e+00 4.868695e+00 3.711251e+00 2.965104e+00 1.933852e+00 1.479642e-01 3.979594e-01 4.958445e-01 8.538632e-01 7.439224e-01 1.044943e+00 1.250023e+00 9.301915e-01 9.392895e-01 1.146070e+00 7.553025e-01 6.523701e-01 3.697594e-01
<GCONST> 1.344121e+02
<STATE> 4
<MEAN> 39
 -1.068214e+01 -9.252777e+00 1.719505e-01 -2.408166e+00 -1.567823e+00 2.429823e-01 -3.312050e-01 3.517624e+00 2.290427e+00 1.711550e+00 2.608214e+00 3.806396e+00 5.549060e+01 -1.423098e-01 -1.053862e-01 2.380676e-02 -2.874156e-01 -1.432315e-01 1.635039e-01 2.023726e-01 1.088445e-01 -4.953631e-02 1.712436e-01 -2.837377e-02 -2.514797e-02 2.802654e-01 3.125152e-02 -1.600360e-02 -1.738407e-02 -7.443089e-02 -3.439364e-02 -1.197264e-02 -8.177093e-02 -6.457547e-02 -8.187439e-02 -9.529755e-02 -8.937492e-02 -2.447734e-02 1.065747e-01
<VARIANCE> 39
 2.691315e+01 3.668226e+01 3.657009e+01 4.999878e+01 5.543158e+01 4.579127e+01 6.307632e+01 4.795213e+01 4.840545e+01 4.200888e+01 4.805668e+01 3.086075e+01 7.313772e+01 6.748053e-01 1.608284e+00 1.706467e+00 2.403530e+00 2.305026e+00 2.853236e+00 3.336008e+00 2.974558e+00 3.006173e+00 3.300190e+00 2.471826e+00 2.148990e+00 1.593840e+00 1.005481e-01 2.048599e-01 2.354212e-01 3.169430e-01 3.648722e-01 4.406753e-01 5.063687e-01 4.612806e-01 5.210345e-01 4.933231e-01 4.243476e-01 3.666911e-01 1.608798e-01
<GCONST> 1.164453e+02
<TRANSP> 5
 0.000000e+00 1.000000e+00 0.000000e+00 0.000000e+00 0.000000e+00
 0.000000e+00 5.538093e-01 4.461907e-01 0.000000e+00 0.000000e+00
 0.000000e+00 0.000000e+00 6.187549e-01 3.812452e-01 0.000000e+00
 0.000000e+00 0.000000e+00 0.000000e+00 8.110516e-01 1.889484e-01
 0.000000e+00 0.000000e+00 0.000000e+00 0.000000e+00 0.000000e+00
<ENDHMM>
~h "m"
<BEGINHMM>
<NUMSTATES> 5
<STATE> 2
<MEAN> 39
 -1.965513e+00 -8.109774e+00 1.559325e-01 -6.877203e+00 -5.702067e+00 -4.179832e+00 -1.079784e+01 -3.610471e+00 -4.567832e+00 -1.644649e+00 -4.254878e+00 -1.517436e+00 6.266669e+01 1.733599e-01 1.216883e+00 1.431451e+00 2.345286e+00 2.473800e-01 -7.842642e-01 -1.347675e+00 -1.987429e+00 -5.083578e-01 3.443530e-01 -6.720046e-01 -8.343627e-01 -1.958599e+00 -2.882233e-01 -2.508869e-01 -1.129325e-01 -4.454913e-01 -1.283142e-01 -3.185530e-02 2.063681e-02 8.931288e-03 -2.818530e-01 -1.401390e-01 -2.340392e-01 -1.341128e-01 5.001768e-01
<VARIANCE> 39
 2.691225e+01 3.705976e+01 4.054019e+01 5.910315e+01 5.035194e+01 5.697042e+01 6.382149e+01 6.233777e+01 5.860640e+01 4.798695e+01 5.091459e+01 5.679232e+01 4.950156e+01 2.053641e+00 2.574333e+00 5.455838e+00 5.224432e+00 5.096957e+00 5.043926e+00 5.742780e+00 5.119068e+00 5.539474e+00 5.251192e+00 4.905342e+00 4.598594e+00 3.569665e+00 2.661032e-01 3.621320e-01 6.865492e-01 7.366376e-01 6.118315e-01 6.493112e-01 8.248025e-01 9.932323e-01 7.703238e-01 7.303765e-01 6.460449e-01 6.281587e-01 3.520073e-01
<GCONST> 1.351644e+02
<STATE> 3
<MEAN> 39
 -2.085289e+00 -6.669841e+00 3.033504e+00 -4.598978e+00 -6.828204e+00 -6.732851e+00 -1.452878e+01 -8.020385e+00 -7.775171e+00 -2.296370e+00 -8.179920e+00 -5.617876e+00 6.105059e+01 -2.982128e-02 -1.898617e-01 -5.074472e-02 -2.829592e-01 -3.822867e-01 -2.077639e-01 -7.118114e-03 1.116283e-01 -8.711745e-02 -1.591594e-01 -1.653102e-01 -2.913844e-01 4.091432e-01 -6.493416e-02 -4.081316e-01 -3.694005e-01 -9.805874e-01 -2.271145e-01 3.042631e-01 4.654818e-01 6.768535e-01 2.054436e-01 -1.237523e-01 2.439792e-01 3.433316e-01 7.946170e-01
<VARIANCE> 39
 1.536898e+01 2.737629e+01 2.627042e+01 3.935698e+01 4.646891e+01 5.721009e+01 4.602490e+01 5.199820e+01 6.144214e+01 5.634039e+01 5.115569e+01 5.184591e+01 1.653919e+01 5.852364e-01 1.319806e+00 2.343208e+00 2.794267e+00 2.109079e+00 2.588207e+00 2.718386e+00 3.447234e+00 3.004999e+00 3.096914e+00 2.927728e+00 2.827598e+00 1.692358e+00 2.300202e-01 2.936146e-01 8.466056e-01 6.134370e-01 5.492145e-01 6.701749e-01 7.432255e-01 8.595664e-01 7.427015e-01 8.952365e-01 7.353768e-01 7.311149e-01 2.650900e-01
<GCONST> 1.224366e+02
<STATE> 4
<MEAN> 39
 -5.063472e+00 -8.581930e+00 8.897609e-01 -5.525777e+00 -5.931470e+00 -3.533134e+00 -7.843126e+00 -1.750845e+00 -3.113752e+00 -1.155142e+00 -2.784242e+00 -1.289891e+00 6.029241e+01 -2.915779e-01 -6.249912e-01 -1.820487e-01 -2.119539e+00 -7.941564e-01 5.029142e-01 4.836609e-01 8.768734e-01 1.354582e-01 -2.066812e-01 3.072046e-02 4.347777e-01 1.636251e+00 -1.744322e-01 6.903902e-02 -2.242567e-03 -4.303893e-01 1.219901e-01 2.567903e-01 2.958507e-02 4.212664e-02 -1.241960e-01 2.937019e-05 -8.578420e-02 6.060910e-02 1.720856e-01
<VARIANCE> 39
 3.767467e+01 3.356124e+01 4.134601e+01 4.962560e+01 6.960260e+01 5.642671e+01 7.633494e+01 6.400735e+01 5.777812e+01 4.308122e+01 5.583421e+01 5.507636e+01 6.138925e+01 2.172395e+00 2.737987e+00 6.887808e+00 6.241573e+00 4.274746e+00 4.571651e+00 5.187816e+00 6.057150e+00 4.229215e+00 5.066879e+00 4.028132e+00 3.880230e+00 3.282403e+00 2.463120e-01 3.619511e-01 4.579217e-01 6.731349e-01 5.790959e-01 6.216552e-01 7.103952e-01 6.581496e-01 6.241661e-01 6.083480e-01 5.498382e-01 5.039750e-01 2.339553e-01
<GCONST> 1.330702e+02
<TRANSP> 5
 0.000000e+00 1.000000e+00 0.000000e+00 0.000000e+00 0.000000e+00
 0.000000e+00 5.190811e-01 4.809189e-01 0.000000e+00 0.000000e+00
 0.000000e+00 0.000000e+00 7.083555e-01 2.916445e-01 0.000000e+00
 0.000000e+00 0.000000e+00 0.000000e+00 6.234615e-01 3.765385e-01
 0.000000e+00 0.000000e+00 0.000000e+00 0.000000e+00 0.000000e+00
<ENDHMM>
~h "n"
<BEGINHMM>
<NUMSTATES> 5
<STATE> 2
<MEAN> 39
 -8.480437e+00 -7.641155e+00 7.435679e-01 -3.396958e+00 -3.545712e+00 -2.413504e+00 -2.680105e+00 1.569609e+00 -5.021322e-01 5.799615e-02 5.044530e-01 2.928688e+00 5.711312e+01 3.610458e-01 6.718022e-01 7.386239e-01 7.640655e-01 -4.594141e-01 -1.417453e-01 -3.991841e-01 -7.540780e-01 1.789286e-01 -1.911229e-01 -1.239954e-01 -9.475183e-02 -9.257095e-01 2.038023e-02 -8.009036e-02 -6.870357e-02 -2.494375e-01 -8.153203e-02 4.360589e-02 -1.583795e-01 -8.915488e-02 -9.982202e-02 -1.089415e-01 -1.537432e-01 -1.064178e-01 2.863592e-01
<VARIANCE> 39
 3.547512e+01 3.887128e+01 3.317022e+01 5.196946e+01 6.533567e+01 6.578716e+01 7.787393e+01 5.970144e+01 6.189344e+01 4.870768e+01 6.066063e+01 4.259629e+01 6.767028e+01 1.638955e+00 2.279704e+00 3.403462e+00 3.684077e+00 4.005817e+00 3.632042e+00 4.661469e+00 4.549304e+00 4.306193e+00 4.023855e+00 3.369510e+00 2.875571e+00 3.580275e+00 2.081454e-01 3.118044e-01 3.994162e-01 4.690454e-01 5.255423e-01 6.299024e-01 6.298312e-01 6.171994e-01 6.986676e-01 5.992369e-01 5.341139e-01 4.703157e-01 3.242414e-01
<GCONST> 1.293909e+02
<STATE> 3
<MEAN> 39
 -1.935858e+00 -4.796541e+00 4.594580e+00 -5.606374e+00 -1.192542e+01 -8.053702e+00 -1.187469e+01 -7.028205e+00 -3.815717e+00 -4.990605e+00 -7.399695e+00 -1.763748e+00 6.041669e+01 -9.181768e-02 2.360460e-01 8.076701e-02 -2.335524e-01 -2.191797e-01 -9.400708e-02 -3.663562e-01 -1.775851e-01 6.255192e-02 -1.341334e-01 -4.371934e-01 -2.381621e-01 3.203349e-01 -4.726346e-01 -4.590478e-01 -5.027242e-01 -9.873188e-01 4.466753e-01 1.244501e-01 2.745416e-01 7.092946e-01 -2.782944e-01 2.414363e-01 7.088912e-02 9.697266e-02 1.071510e+00
<VARIANCE> 39
 1.727520e+01 2.852427e+01 2.430991e+01 3.446047e+01 3.692001e+01 3.839017e+01 4.657329e+01 4.583188e+01 5.912199e+01 4.869840e+01 5.449240e+01 4.932994e+01 1.709659e+01 1.290597e+00 1.710325e+00 3.178370e+00 4.114994e+00 3.384111e+00 3.468501e+00 3.947200e+00 3.973324e+00 3.425319e+00 3.472782e+00 3.158932e+00 2.611090e+00 3.340581e+00 2.654036e-01 3.893387e-01 1.107497e+00 7.274392e-01 8.105559e-01 7.897565e-01 9.559359e-01 8.068841e-01 7.390310e-01 7.879588e-01 6.754077e-01 5.919184e-01 3.351679e-01
<GCONST> 1.268594e+02
<STATE> 4
<MEAN> 39
 -5.083311e+00 -5.321232e+00 2.402525e+00 -1.034915e+01 -9.461324e+00 -8.334787e+00 -1.159681e+01 -3.831862e+00 -4.383581e+00 -3.623415e+00 -7.396163e+00 -1.259004e+00 6.555449e+01 -1.154364e+00 -1.251863e+00 -1.158714e+00 -3.097752e+00 1.032479e+00 6.006408e-01 2.345428e-01 1.668777e+00 -1.020701e+00 3.361278e-01 -2.053215e-01 5.389527e-02 3.177449e+00 -2.793855e-02 -4.169209e-01 -1.275513e-01 -1.925042e-01 1.136778e-01 4.915158e-01 1.847929e-01 8.201449e-02 -2.282576e-01 3.325571e-03 1.069374e-01 2.281213e-02 1.847202e-01
<VARIANCE> 39
 2.491846e+01 3.953794e+01 4.481365e+01 6.165910e+01 4.352923e+01 4.848959e+01 4.948548e+01 5.804389e+01 4.901048e+01 4.323092e+01 4.653616e+01 4.769955e+01 2.980571e+01 1.839457e+00 4.180135e+00 9.988109e+00 4.841582e+00 6.116317e+00 5.084287e+00 7.207301e+00 5.715201e+00 4.855226e+00 5.226179e+00 4.143727e+00 3.893948e+00 2.051893e+00 2.732030e-01 4.235952e-01 6.346216e-01 7.638295e-01 7.773370e-01 7.022655e-01 7.647477e-01 8.029048e-01 6.671571e-01 6.386456e-01 5.745861e-01 5.247598e-01 4.243949e-01
<GCONST> 1.337948e+02
<TRANSP> 5
 0.000000e+00 1.000000e+00 0.000000e+00 0.000000e+00 0.000000e+00
 0.000000e+00 7.135575e-01 2.864425e-01 0.000000e+00 0.000000e+00
 0.000000e+00 0.000000e+00 6.738684e-01 3.261317e-01 0.000000e+00
 0.000000e+00 0.000000e+00 0.000000e+00 4.493275e-01 5.506725e-01
 0.000000e+00 0.000000e+00 0.000000e+00 0.000000e+00 0.000000e+00
<ENDHMM>
~h "o"
<BEGINHMM>
<NUMSTATES> 5
<STATE> 2
<MEAN> 39
 1.964341e+00 -2.052958e+00 -8.812670e+00 -2.277114e+01 -6.571751e+00 -6.786067e-01 -8.884453e+00 1.415821e+00 -9.448977e+00 -3.863638e+00 -4.210198e+00 6.924525e-01 6.689840e+01 6.568182e-01 3.219128e-02 -2.074716e+00 -4.556269e+00 6.751493e-02 3.583038e-01 -1.301459e+00 5.208434e-01 -1.266258e+00 -4.144788e-01 -2.281691e-01 4.354872e-01 1.179667e+00 -6.602884e-01 -5.774908e-01 3.491815e-01 1.042363e+00 6.326453e-01 2.550181e-01 1.572920e-01 -2.269106e-01 4.364150e-01 2.389609e-01 1.443792e-01 -1.416801e-01 -2.659954e-02
<VARIANCE> 39
 2.073470e+01 2.600630e+01 3.528325e+01 6.874873e+01 4.884873e+01 4.460653e+01 4.054652e+01 5.409615e+01 4.369210e+01 3.684834e+01 3.893426e+01 4.899809e+01 2.550814e+01 2.387931e+00 3.054999e+00 2.842836e+00 7.557806e+00 5.276409e+00 4.010494e+00 5.947041e+00 5.116024e+00 4.291633e+00 3.900031e+00 3.854801e+00 3.829501e+00 1.506810e+00 2.317067e-01 3.344125e-01 4.009460e-01 1.234636e+00 5.879251e-01 6.087980e-01 8.086930e-01 8.825933e-01 9.150325e-01 7.842451e-01 6.354563e-01 6.921855e-01 3.177801e-01
<GCONST> 1.298344e+02
<STATE> 3
<MEAN> 39
 3.620383e-01 -5.966608e+00 -1.272660e+01 -2.773208e+01 -1.723277e+00 3.630219e+00 -9.803188e+00 1.033246e+00 -9.491203e+00 -3.726288e+00 -2.162959e+00 -7.429512e-01 6.993681e+01 -3.634622e-01 -9.766333e-01 -3.319296e-01 3.422883e-01 9.100440e-01 3.671688e-01 -2.874472e-01 -5.511505e-01 6.006765e-01 4.427182e-01 1.000234e-01 -5.349858e-01 5.194523e-01 -3.187522e-02 -5.207506e-03 2.458761e-01 5.502236e-01 -1.336032e-01 -2.248446e-01 1.528906e-05 -6.702996e-02 2.890501e-01 4.214596e-02 -2.140602e-01 -1.133777e-01 -1.535317e-01
<VARIANCE> 39
 2.202520e+01 3.250966e+01 3.388656e+01 4.127612e+01 6.054050e+01 5.950164e+01 4.910870e+01 5.806382e+01 5.606927e+01 4.262294e+01 4.409140e+01 5.151305e+01 2.846307e+01 4.037741e-01 1.057605e+00 7.976237e-01 1.834590e+00 1.649748e+00 1.710204e+00 1.987735e+00 2.029123e+00 2.567312e+00 2.385153e+00 2.654369e+00 2.485611e+00 6.730645e-01 7.759596e-02 1.563304e-01 2.142855e-01 4.545730e-01 3.281473e-01 3.388648e-01 3.662687e-01 3.622929e-01 4.724719e-01 4.233128e-01 5.232384e-01 4.521506e-01 7.875390e-02
<GCONST> 1.092101e+02
<STATE> 4
<MEAN> 39
 -2.905389e+00 -1.245630e+01 -1.136044e+01 -1.944860e+01 -2.351447e-01 -1.723843e+00 -1.309743e+01 -1.152421e+00 -2.179452e+00 -1.772362e+00 -7.501880e+00 -2.522097e+00 7.240144e+01 -3.837295e-01 1.152245e-01 1.513151e+00 2.579699e+00 -1.233470e+00 -1.730707e+00 2.290444e-01 2.291781e-01 9.812521e-01 -5.990219e-01 -7.446589e-01 5.185787e-01 -8.461624e-01 -6.968938e-02 6.046936e-01 4.361861e-01 4.361179e-01 -2.202347e-01 1.097414e-01 5.622030e-01 3.688321e-02 -4.285979e-01 -1.281931e-01 5.378231e-01 3.360324e-01 -5.929976e-01
<VARIANCE> 39
 2.329546e+01 3.180562e+01 3.454965e+01 5.643885e+01 6.075324e+01 9.138588e+01 6.312576e+01 5.769247e+01 7.258244e+01 5.493443e+01 5.652249e+01 5.344350e+01 5.018439e+01 1.107912e+00 3.190107e+00 2.252365e+00 3.522032e+00 4.289674e+00 4.260419e+00 4.197215e+00 4.099142e+00 5.928784e+00 5.013374e+00 5.752326e+00 4.799206e+00 2.627802e+00 2.753032e-01 4.099957e-01 3.830580e-01 6.434348e-01 9.525016e-01 1.165690e+00 8.325027e-01 9.438659e-01 1.034407e+00 1.124614e+00 1.008794e+00 9.577009e-01 2.804409e-01
<GCONST> 1.347901e+02
<TRANSP> 5
 0.000000e+00 1.000000e+00 0.000000e+00 0.000000e+00 0.000000e+00
 0.000000e+00 6.696205e-01 3.303795e-01 0.000000e+00 0.000000e+00
 0.000000e+00 0.000000e+00 8.361381e-01 1.638618e-01 0.000000e+00
 0.000000e+00 0.000000e+00 0.000000e+00 7.507501e-01 2.492500e-01
 0.000000e+00 0.000000e+00 0.000000e+00 0.000000e+00 0.000000e+00
<ENDHMM>
~h "p"
<BEGINHMM>
<NUMSTATES> 5
<STATE> 2
<MEAN> 39
 -2.007350e+00 -4.249771e+00 2.215397e+00 -3.550717e+00 -4.710306e+00 -3.006479e+00 -8.077004e+00 -5.557879e+00 -4.495575e+00 -2.734761e+00 -4.621792e+00 -1.903503e+00 5.927062e+01 -1.073843e+00 1.094063e+00 6.353059e-01 2.590364e+00 1.448658e+00 1.182744e+00 1.914683e+00 6.832585e-01 1.287773e+00 5.811864e-01 9.646086e-01 3.039068e-01 -2.241482e+00 -5.620064e-01 -5.855706e-01 -1.887242e-01 -4.912115e-01 -4.060275e-03 2.692994e-01 4.828665e-01 6.550165e-01 3.131233e-01 2.968527e-01 2.956761e-01 2.510820e-01 8.474049e-01
<VARIANCE> 39
 2.487790e+01 3.483775e+01 4.365821e+01 4.817270e+01 4.780048e+01 4.996375e+01 5.072442e+01 4.718150e+01 4.589982e+01 4.079620e+01 4.006696e+01 4.169018e+01 4.697149e+01 2.780692e+00 4.072148e+00 4.862700e+00 5.783896e+00 4.616409e+00 4.847160e+00 5.758605e+00 6.783051e+00 5.224654e+00 4.819900e+00 4.495597e+00 4.093781e+00 6.601009e+00 4.619968e-01 5.676892e-01 7.024828e-01 8.477539e-01 8.308434e-01 7.477549e-01 9.144639e-01 1.002709e+00 8.513632e-01 8.482724e-01 7.691855e-01 7.006681e-01 1.064230e+00
<GCONST> 1.377191e+02
<STATE> 3
<MEAN> 39
 -8.795310e+00 -5.829544e+00 1.887084e+00 5.468560e-01 -1.035261e+00 2.090284e+00 1.905272e+00 2.803022e+00 3.507101e+00 3.103318e+00 2.318789e+00 2.388979e+00 5.725389e+01 -7.216778e-01 -6.090432e-01 4.773746e-01 1.427399e-01 5.099943e-01 7.396460e-01 8.976336e-01 7.306705e-01 4.396949e-01 2.005522e-01 5.177290e-01 3.749323e-01 2.060316e+00 1.303345e-01 -1.161123e-01 -1.311598e-02 -4.901644e-01 -6.623477e-02 -8.257172e-02 -5.126615e-01 -4.174444e-01 -4.614226e-01 -3.876373e-01 -3.477480e-01 -1.328613e-01 5.555014e-01
<VARIANCE> 39
 3.023841e+01 2.906011e+01 3.530017e+01 2.206682e+01 2.957209e+01 2.594657e+01 2.643131e+01 2.902086e+01 3.027853e+01 2.861449e+01 2.580323e+01 2.228326e+01 8.934956e+01 3.258593e+00 3.268052e+00 4.465341e+00 3.009632e+00 3.903235e+00 3.616406e+00 3.844425e+00 4.197155e+00 4.332306e+00 4.013338e+00 3.559822e+00 2.917242e+00 8.313384e+00 5.929186e-01 6.603335e-01 7.790214e-01 7.606512e-01 7.047258e-01 6.566249e-01 7.439700e-01 7.563113e-01 7.624269e-01 6.869084e-01 6.126269e-01 5.274691e-01 1.826717e+00
<GCONST> 1.297357e+02
<STATE> 4
<MEAN> 39
 -1.191455e+01 -7.422791e+00 3.177775e+00 -2.959362e+00 2.393477e+00 4.755141e+00 -5.562720e-02 1.180464e+00 8.651758e-01 -1.929868e-01 9.236609e-01 1.947858e+00 6.790018e+01 6.242394e-02 3.244945e-02 -4.979630e-01 -1.158650e+00 -3.000211e-01 -2.541739e-01 -1.120858e+00 -8.336794e-01 -8.634649e-01 -6.510566e-01 -5.360920e-01 -1.112387e-01 3.903621e-01 4.276915e-01 8.413299e-02 -1.734914e-01 -3.077832e-01 -5.698133e-01 -4.089639e-01 -3.966092e-01 -2.662019e-01 -2.868035e-01 -3.015438e-02 -2.404053e-01 -7.297660e-02 -3.204862e-01
<VARIANCE> 39
 5.191220e+01 7.364942e+01 6.249173e+01 4.065771e+01 5.670458e+01 3.516681e+01 3.638483e+01 3.562291e+01 3.325764e+01 3.349796e+01 2.500091e+01 2.319081e+01 5.379942e+01 4.112976e+00 4.297103e+00 3.848879e+00 4.072429e+00 5.880272e+00 4.109459e+00 4.127485e+00 4.146581e+00 3.750271e+00 3.251091e+00 2.920791e+00 2.499357e+00 3.289272e+00 6.560837e-01 7.091026e-01 8.114640e-01 7.885821e-01 9.561551e-01 7.691052e-01 8.087412e-01 8.050994e-01 7.149305e-01 6.480576e-01 5.955607e-01 5.368651e-01 7.605174e-01
<GCONST> 1.330920e+02
<TRANSP> 5
 0.000000e+00 1.000000e+00 0.000000e+00 0.000000e+00 0.000000e+00
 0.000000e+00 6.670098e-01 3.329902e-01 0.000000e+00 0.000000e+00
 0.000000e+00 0.000000e+00 7.811105e-01 2.188895e-01 0.000000e+00
 0.000000e+00 0.000000e+00 0.000000e+00 8.203669e-01 1.796332e-01
 0.000000e+00 0.000000e+00 0.000000e+00 0.000000e+00 0.000000e+00
<ENDHMM>
~h "q"
<BEGINHMM>
<NUMSTATES> 5
<STATE> 2
<MEAN> 39
 -8.683616e+00 -6.850078e-01 2.242819e+00 -3.405621e+00 -7.182411e+00 -5.301689e+00 -6.340573e+00 -5.071032e+00 -4.339492e+00 -3.116931e+00 -3.756591e+00 -6.010660e-01 6.148084e+01 -2.681041e+00 1.658156e+00 -5.924637e-01 2.055982e+00 2.197049e+00 1.891259e+00 2.244190e+00 1.219861e+00 1.503041e+00 1.089250e+00 1.337454e+00 1.357919e-01 -1.285778e+00 -6.436345e-01 -4.357679e-01 -3.490447e-01 -5.445661e-01 2.442355e-01 3.838803e-01 2.447931e-01 5.142696e-01 3.522189e-01 5.571399e-01 1.641925e-01 1.798888e-01 7.034497e-01
<VARIANCE> 39
 4.463466e+01 4.207184e+01 4.104193e+01 4.387067e+01 5.538309e+01 4.903077e+01 5.080630e+01 5.002302e+01 4.548283e+01 3.711826e+01 3.717704e+01 3.650650e+01 4.606143e+01 4.455353e+00 5.008868e+00 4.593482e+00 4.836041e+00 4.915797e+00 4.772338e+00 5.740422e+00 6.148835e+00 5.404793e+00 5.414139e+00 4.152089e+00 4.062647e+00 4.789594e+00 7.050840e-01 6.727303e-01 7.390563e-01 8.111457e-01 1.135949e+00 9.791277e-01 1.033661e+00 9.309533e-01 9.054350e-01 8.510546e-01 7.305527e-01 6.898991e-01 6.703883e-01
<GCONST> 1.390908e+02
<STATE> 3
<MEAN> 39
 -1.979073e+01 -7.502592e-01 -1.323020e+00 -9.692827e-01 -4.732281e-03 2.157623e+00 1.763252e+00 2.779238e+00 3.517402e+00 4.024594e+00 2.671710e+00 2.942278e+00 6.083709e+01 -1.284938e+00 2.716668e-01 2.820443e-01 -5.352471e-01 2.881844e-01 5.852705e-01 3.063156e-01 2.396012e-01 3.153319e-01 3.924195e-01 2.185744e-01 3.842819e-02 1.470227e+00 5.904099e-01 -1.256441e-01 4.168046e-01 -2.208692e-01 -3.984862e-01 -2.251599e-01 -3.611493e-01 -3.770679e-01 -3.551078e-01 -3.353510e-01 -2.571956e-01 -1.470715e-01 1.640342e-01
<VARIANCE> 39
 4.786625e+01 5.155259e+01 3.201696e+01 3.304223e+01 2.904487e+01 2.532730e+01 2.746640e+01 2.774058e+01 2.757565e+01 2.400713e+01 2.460134e+01 2.017886e+01 6.412038e+01 3.598056e+00 2.725435e+00 2.885768e+00 2.250213e+00 2.459546e+00 2.634614e+00 2.690908e+00 2.793683e+00 2.895636e+00 2.795879e+00 2.408901e+00 1.998392e+00 2.735278e+00 6.606818e-01 5.059310e-01 4.795732e-01 5.347226e-01 6.068040e-01 5.200661e-01 5.940446e-01 5.937254e-01 5.951959e-01 5.382141e-01 4.823651e-01 4.067972e-01 5.457634e-01
<GCONST> 1.212366e+02
<STATE> 4
<MEAN> 39
 -2.016835e+01 1.165919e+00 6.565283e+00 -5.351301e+00 -3.633520e+00 3.877069e+00 6.925671e-02 -1.123011e+00 7.684644e-01 2.351036e+00 2.926166e-01 2.056078e-01 7.168221e+01 1.824040e+00 -6.850335e-01 1.413351e+00 -6.897439e-01 -1.692824e+00 -6.615960e-01 -9.221907e-01 -1.117337e+00 -9.994665e-01 -5.496690e-01 -4.474302e-01 -5.218120e-02 1.958400e-01 4.523394e-01 -1.969272e-01 -1.226190e-01 -2.258354e-01 -3.639689e-01 -5.012993e-01 -4.125134e-01 -2.081480e-01 -3.503036e-01 -1.025879e-01 -2.350553e-01 8.511232e-02 -2.754650e-01
<VARIANCE> 39
 4.561066e+01 4.388427e+01 3.482852e+01 2.661081e+01 3.550319e+01 2.299217e+01 2.744818e+01 2.581294e+01 2.632446e+01 2.317705e+01 1.932985e+01 1.609002e+01 2.603660e+01 2.584824e+00 1.983918e+00 2.135362e+00 3.192689e+00 3.178918e+00 3.826148e+00 4.011423e+00 3.430962e+00 3.202336e+00 2.485126e+00 2.483339e+00 2.254010e+00 1.553938e+00 4.711971e-01 4.102972e-01 4.623645e-01 5.579375e-01 5.506216e-01 5.581496e-01 6.735529e-01 6.533920e-01 6.381708e-01 5.354033e-01 5.347133e-01 4.426020e-01 2.602206e-01
<GCONST> 1.188435e+02
<TRANSP> 5
 0.000000e+00 1.000000e+00 0.000000e+00 0.000000e+00 0.000000e+00
 0.000000e+00 7.172173e-01 2.827827e-01 0.000000e+00 0.000000e+00
 0.000000e+00 0.000000e+00 8.288518e-01 1.711482e-01 0.000000e+00
 0.000000e+00 0.000000e+00 0.000000e+00 8.152382e-01 1.847618e-01
 0.000000e+00 0.000000e+00 0.000000e+00 0.000000e+00 0.000000e+00
<ENDHMM>
~h "r"
<BEGINHMM>
<NUMSTATES> 5
<STATE> 2
<MEAN> 39
 -2.444593e+00 -1.381408e+01 6.872134e-01 -5.016614e+00 -1.427369e+01 -7.697825e+00 -1.079229e+01 -1.533377e+00 -4.986421e+00 -3.229808e+00 -3.685126e+00 8.585846e-01 6.726586e+01 9.496756e-02 -4.957470e-03 6.688197e-01 1.170188e+00 -6.782880e-01 -1.118303e+00 2.545989e-01 6.985838e-02 -4.617852e-01 -4.164177e-01 5.753984e-01 3.208708e-01 -2.938103e-01 -1.177305e-01 1.804086e-02 -1.230864e-01 -5.164393e-01 2.408808e-01 2.511650e-01 1.098775e-01 7.252489e-02 -5.951025e-02 1.091620e-01 -4.308243e-02 -1.088691e-01 2.265725e-01
<VARIANCE> 39
 3.801201e+01 4.869857e+01 7.651910e+01 7.640751e+01 8.047343e+01 8.002236e+01 8.412141e+01 6.764583e+01 7.211178e+01 6.408138e+01 5.542984e+01 4.751688e+01 5.693513e+01 1.535972e+00 2.327401e+00 3.239018e+00 6.137648e+00 5.888577e+00 6.300209e+00 5.542080e+00 5.863746e+00 5.452972e+00 5.506685e+00 4.202340e+00 3.875942e+00 2.504445e+00 2.341042e-01 3.632280e-01 4.081533e-01 8.440471e-01 1.002842e+00 1.079444e+00 8.762196e-01 9.597706e-01 9.148437e-01 1.004811e+00 7.453883e-01 7.072543e-01 2.658826e-01
<GCONST> 1.384432e+02
<STATE> 3
<MEAN> 39
 -2.862207e+00 -1.521976e+01 5.878541e+00 -8.870481e+00 -1.898316e+01 -9.920280e+00 -7.336004e+00 -1.550226e-01 -8.533660e+00 -2.623679e+00 -2.001559e+00 -5.627331e-01 6.952649e+01 -1.969540e-01 -2.019596e-01 -4.093795e-01 -7.439154e-01 3.267323e-01 2.296071e-01 5.093807e-01 7.474862e-01 1.173779e-01 7.914981e-02 -2.660215e-01 -2.560581e-01 5.388972e-01 -7.226080e-02 4.196811e-03 -2.570786e-01 -2.080139e-01 2.863669e-01 1.512926e-01 2.212180e-02 5.621781e-02 8.017533e-02 -5.018019e-02 -2.329357e-01 -1.730646e-02 1.307808e-01
<VARIANCE> 39
 2.823094e+01 3.223574e+01 4.337762e+01 7.332733e+01 5.385149e+01 5.674184e+01 5.807462e+01 6.864507e+01 5.650247e+01 5.214760e+01 4.475580e+01 4.431273e+01 3.790046e+01 7.243828e-01 1.202827e+00 2.012718e+00 3.002851e+00 2.460317e+00 2.334173e+00 2.756610e+00 3.237582e+00 2.518432e+00 2.753307e+00 2.597047e+00 2.197084e+00 1.005375e+00 1.033562e-01 2.037332e-01 2.341218e-01 5.089639e-01 4.337571e-01 4.440804e-01 4.577109e-01 6.024817e-01 4.755736e-01 5.197099e-01 4.492046e-01 3.949717e-01 1.590527e-01
<GCONST> 1.174797e+02
<STATE> 4
<MEAN> 39
 -8.033660e+00 -1.225506e+01 2.897454e-01 -4.780667e+00 -6.633487e+00 -2.894410e+00 -1.560022e+00 4.091222e+00 -9.053808e-01 -1.040383e+00 1.835807e-01 2.195134e+00 6.063277e+01 -1.426319e-01 8.240159e-02 -1.565150e-01 -8.437914e-02 2.637571e-01 8.552560e-02 7.834060e-02 2.758620e-02 -2.129422e-02 -4.427722e-02 -1.319826e-01 9.239987e-03 7.398298e-02 5.778798e-02 4.751841e-02 3.041059e-02 -3.449787e-03 -4.136103e-02 -3.108706e-02 -1.421944e-01 -1.226234e-01 -6.939150e-02 -7.580993e-03 -6.531622e-03 6.538413e-03 -2.682416e-02
<VARIANCE> 39
 3.755003e+01 3.923179e+01 3.459956e+01 6.203897e+01 9.279877e+01 5.656749e+01 6.242959e+01 5.033710e+01 6.242252e+01 4.672733e+01 4.982629e+01 3.647725e+01 1.183759e+02 5.324114e-01 1.124478e+00 1.408869e+00 1.688779e+00 2.041470e+00 1.996637e+00 2.201089e+00 2.239472e+00 2.272796e+00 2.373265e+00 2.020113e+00 1.730223e+00 7.863176e-01 9.797709e-02 1.599517e-01 1.770376e-01 2.948114e-01 3.160490e-01 3.600619e-01 3.876788e-01 4.208276e-01 4.057026e-01 4.184626e-01 3.567469e-01 3.254188e-01 1.078446e-01
<GCONST> 1.123215e+02
<TRANSP> 5
 0.000000e+00 1.000000e+00 0.000000e+00 0.000000e+00 0.000000e+00
 0.000000e+00 6.978982e-01 3.021018e-01 0.000000e+00 0.000000e+00
 0.000000e+00 0.000000e+00 7.370700e-01 2.629301e-01 0.000000e+00
 0.000000e+00 0.000000e+00 0.000000e+00 7.699131e-01 2.300869e-01
 0.000000e+00 0.000000e+00 0.000000e+00 0.000000e+00 0.000000e+00
<ENDHMM>
~h "s"
<BEGINHMM>
<NUMSTATES> 5
<STATE> 2
<MEAN> 39
 -9.156049e+00 -1.215122e-01 -2.544475e+00 -2.722436e+00 -6.030196e+00 -7.237126e+00 -6.154578e+00 -4.044791e+00 -5.426524e+00 -4.624787e+00 -3.012558e+00 1.944562e-01 6.665521e+01 -3.100968e+00 2.284980e+00 -5.891280e-02 3.474856e+00 1.567769e+00 1.674389e+00 2.325696e+00 8.607047e-01 1.339618e+00 1.109126e+00 1.237704e+00 1.063273e-01 -6.570575e-01 -5.040933e-01 -5.668592e-01 -8.951305e-02 -3.102668e-01 1.390458e-01 5.797893e-01 3.229151e-01 6.059977e-01 3.341939e-01 5.986583e-01 1.192003e-01 1.177913e-01 1.049632e-01
<VARIANCE> 39
 4.408915e+01 3.930589e+01 4.339674e+01 5.546859e+01 6.279850e+01 5.838083e+01 5.697971e+01 4.562045e+01 4.641840e+01 4.049901e+01 3.493612e+01 3.504010e+01 3.998652e+01 3.164524e+00 5.122543e+00 4.401490e+00 4.656671e+00 5.162675e+00 6.556375e+00 5.663721e+00 6.415064e+00 4.888324e+00 5.427745e+00 3.994588e+00 3.824249e+00 1.477818e+00 6.436189e-01 7.113368e-01 4.991325e-01 9.333786e-01 7.472841e-01 8.672943e-01 9.674552e-01 7.687584e-01 7.287824e-01 7.613034e-01 6.418475e-01 6.184383e-01 1.456610e-01
<GCONST> 1.349299e+02
<STATE> 3
<MEAN> 39
 -2.077556e+01 1.270220e+00 -3.998925e+00 3.680892e+00 -1.315662e+00 3.538523e-01 1.896767e+00 2.751290e+00 1.047601e+00 2.497232e+00 1.567328e+00 2.232914e+00 6.502522e+01 -1.006116e+00 -4.800541e-01 -2.503501e-01 2.050039e-01 4.029405e-01 7.665176e-01 6.320429e-01 1.015732e+00 8.068687e-01 8.703050e-01 5.281299e-01 4.093304e-01 -3.084872e-01 9.012161e-01 -2.794857e-01 1.228108e-01 -6.714332e-01 -3.648962e-01 -6.263309e-01 -6.645073e-01 -4.080977e-01 -4.077438e-01 -4.674872e-01 -3.239644e-01 -8.167806e-02 2.169247e-01
<VARIANCE> 39
 2.871473e+01 3.007531e+01 2.587373e+01 3.177874e+01 3.729765e+01 3.695839e+01 3.304877e+01 2.760290e+01 2.782705e+01 2.440869e+01 2.147905e+01 1.801334e+01 3.301615e+01 2.411296e+00 1.260435e+00 1.657070e+00 1.852914e+00 1.981114e+00 2.769748e+00 2.747815e+00 2.788504e+00 2.655480e+00 2.767981e+00 2.241832e+00 1.944743e+00 6.923753e-01 3.343747e-01 4.110073e-01 3.587518e-01 5.145382e-01 4.643129e-01 5.764681e-01 6.096779e-01 5.531469e-01 5.137882e-01 5.401822e-01 4.694782e-01 4.357004e-01 1.773908e-01
<GCONST> 1.135654e+02
<STATE> 4
<MEAN> 39
 -1.639472e+01 -3.431425e+00 -1.729537e+00 8.043922e-01 2.081724e-01 -5.826277e-01 1.376905e+00 4.354821e+00 1.615232e+00 2.489883e+00 2.645177e+00 3.218058e+00 6.107016e+01 1.256798e+00 -4.691972e-01 -1.507816e-02 -1.100366e+00 -4.703771e-01 -9.870691e-01 -1.022194e+00 -3.425366e-01 -4.080173e-01 -5.241846e-01 -4.623451e-01 4.034651e-03 8.786779e-01 3.857571e-01 -2.788053e-01 -1.239626e-01 -4.477299e-01 -1.134434e-01 -1.645554e-01 -3.318953e-01 -1.393393e-01 -1.623520e-01 -1.887667e-01 -1.964239e-01 -1.309908e-03 2.027450e-01
<VARIANCE> 39
 4.244329e+01 5.323663e+01 2.487567e+01 2.854867e+01 3.619668e+01 3.625986e+01 3.566374e+01 3.121137e+01 3.183855e+01 2.824785e+01 2.741793e+01 2.140082e+01 6.583553e+01 5.976191e+00 3.248009e+00 1.754639e+00 4.595803e+00 2.499773e+00 4.086024e+00 4.916119e+00 3.021091e+00 2.603418e+00 2.943582e+00 2.884067e+00 2.471287e+00 2.078620e+00 6.023906e-01 5.361438e-01 3.373617e-01 6.289858e-01 4.593677e-01 6.191278e-01 6.877871e-01 5.841443e-01 5.479837e-01 5.514917e-01 5.354555e-01 4.657854e-01 3.040771e-01
<GCONST> 1.237055e+02
<TRANSP> 5
 0.000000e+00 1.000000e+00 0.000000e+00 0.000000e+00 0.000000e+00
 0.000000e+00 6.802473e-01 3.197527e-01 0.000000e+00 0.000000e+00
 0.000000e+00 0.000000e+00 7.479435e-01 2.520565e-01 0.000000e+00
 0.000000e+00 0.000000e+00 0.000000e+00 8.063869e-01 1.936131e-01
 0.000000e+00 0.000000e+00 0.000000e+00 0.000000e+00 0.000000e+00
<ENDHMM>
~h "t"
<BEGINHMM>
<NUMSTATES> 5
<STATE> 2
<MEAN> 39
 -4.611534e+00 -3.807616e+00 2.419875e+00 -3.942737e+00 -6.768007e+00 -4.839805e+00 -6.761126e+00 -4.425106e+00 -3.093868e+00 -3.000029e+00 -3.980613e+00 -8.404954e-02 5.854738e+01 -1.277496e+00 5.756811e-01 1.065608e-01 2.151635e+00 1.860416e+00 1.786443e+00 2.212525e+00 1.248541e+00 1.366309e+00 1.087223e+00 1.436604e+00 1.924000e-01 -1.806586e+00 -4.930683e-01 -5.342656e-01 -2.766545e-01 -4.557610e-01 3.019587e-01 3.862643e-01 4.684493e-01 6.256319e-01 2.785365e-01 4.172318e-01 3.164306e-01 1.793504e-01 1.039102e+00
<VARIANCE> 39
 2.253338e+01 3.015978e+01 3.698685e+01 4.134118e+01 5.444599e+01 4.566431e+01 5.468213e+01 4.869689e+01 4.813440e+01 4.340270e+01 4.120856e+01 4.051424e+01 4.837537e+01 2.533762e+00 3.659503e+00 4.252428e+00 4.574615e+00 5.045874e+00 4.851648e+00 6.229078e+00 6.213566e+00 5.137204e+00 5.051783e+00 4.565263e+00 3.924601e+00 7.872098e+00 3.733019e-01 4.909756e-01 5.656016e-01 6.924677e-01 8.389180e-01 8.445858e-01 9.800100e-01 8.475690e-01 8.352045e-01 7.882459e-01 6.956573e-01 6.808985e-01 1.112076e+00
<GCONST> 1.362115e+02
<STATE> 3
<MEAN> 39
 -1.112676e+01 -5.368428e+00 1.718361e+00 -7.622702e-01 3.098081e-01 2.082734e+00 2.610114e+00 3.598238e+00 3.282245e+00 3.218148e+00 2.764093e+00 2.388561e+00 6.321028e+01 -7.429477e-01 -3.720686e-01 7.497481e-02 3.114342e-01 1.408762e+00 8.674843e-01 7.203113e-01 8.932041e-01 2.320407e-01 -2.449302e-02 5.161246e-01 3.286501e-01 2.514039e+00 4.375536e-01 -1.196762e-01 -9.201217e-02 -4.155509e-01 -2.805158e-01 -4.262354e-01 -8.627043e-01 -5.976830e-01 -5.695857e-01 -5.966594e-01 -5.583199e-01 -1.206135e-01 1.530648e-01
<VARIANCE> 39
 3.240143e+01 3.793665e+01 3.211502e+01 3.133575e+01 3.947019e+01 3.661790e+01 3.534196e+01 3.419776e+01 3.699187e+01 3.153058e+01 2.571165e+01 2.380342e+01 1.014978e+02 3.861579e+00 4.970674e+00 4.377125e+00 3.779504e+00 4.490481e+00 4.898774e+00 5.590999e+00 5.138845e+00 5.333411e+00 5.258039e+00 4.333185e+00 3.338473e+00 8.445535e+00 6.904890e-01 8.581148e-01 9.592820e-01 8.704517e-01 9.669524e-01 1.021502e+00 1.062075e+00 1.045158e+00 9.957894e-01 9.267845e-01 8.199394e-01 6.989243e-01 2.619547e+00
<GCONST> 1.382403e+02
<STATE> 4
<MEAN> 39
 -1.283567e+01 -7.688828e+00 8.544587e-01 -5.926583e-01 2.911149e+00 2.739267e+00 1.138588e+00 4.027313e+00 2.817343e+00 1.646497e+00 2.962201e+00 3.323390e+00 6.162930e+01 3.756720e-01 -2.607573e-01 -2.898481e-01 -5.503350e-01 -1.947198e-01 -2.153076e-01 -8.370914e-01 -6.410736e-01 -5.366536e-01 -5.076550e-01 -4.542138e-01 -1.303239e-01 2.687413e-01 2.547335e-01 7.531904e-04 -1.100244e-01 -2.999711e-01 -3.709941e-01 -1.636898e-01 -2.211454e-01 -2.268690e-01 -1.876752e-01 -6.470060e-02 -1.607046e-01 -5.205762e-02 -7.865869e-02
<VARIANCE> 39
 3.210361e+01 6.353946e+01 3.129295e+01 3.378499e+01 4.068481e+01 3.586369e+01 3.722746e+01 3.310935e+01 3.497229e+01 3.658077e+01 2.989544e+01 2.519523e+01 1.005050e+02 2.276809e+00 2.759076e+00 2.827483e+00 2.944970e+00 3.606656e+00 3.201053e+00 3.911220e+00 3.680499e+00 3.402076e+00 3.305583e+00 2.889257e+00 2.456262e+00 3.421565e+00 3.981490e-01 4.716904e-01 4.573976e-01 5.813125e-01 6.833677e-01 6.029758e-01 6.039948e-01 6.302813e-01 6.195354e-01 5.699726e-01 5.250974e-01 4.904081e-01 6.872312e-01
<GCONST> 1.261103e+02
<TRANSP> 5
 0.000000e+00 1.000000e+00 0.000000e+00 0.000000e+00 0.000000e+00
 0.000000e+00 6.398405e-01 3.601595e-01 0.000000e+00 0.000000e+00
 0.000000e+00 0.000000e+00 7.309460e-01 2.690540e-01 0.000000e+00
 0.000000e+00 0.000000e+00 0.000000e+00 8.511655e-01 1.488344e-01
 0.000000e+00 0.000000e+00 0.000000e+00 0.000000e+00 0.000000e+00
<ENDHMM>
~h "u"
<BEGINHMM>
<NUMSTATES> 5
<STATE> 2
<MEAN> 39
 -6.100327e-01 -3.841013e+00 -4.180582e+00 -1.088910e+01 -7.315697e+00 -2.765985e+00 -1.158760e+01 -5.011730e+00 -6.199376e+00 -1.748988e+00 -2.897926e+00 7.856402e-01 6.563591e+01 2.077754e+00 7.059931e-01 -1.304770e+00 -4.267126e+00 -1.078987e+00 4.006963e-01 -1.759149e+00 -8.076371e-01 -2.173312e+00 -7.055403e-01 -8.240635e-01 4.046184e-01 1.682575e-01 -6.369300e-01 -5.596888e-02 9.499771e-02 7.596178e-02 3.163319e-01 2.223662e-01 4.007148e-01 5.335675e-01 1.963831e-01 1.317121e-01 -1.853802e-02 6.596560e-02 -9.452970e-02
<VARIANCE> 39
 3.352229e+01 3.654219e+01 2.996663e+01 8.221545e+01 4.782661e+01 4.728125e+01 6.846954e+01 5.862275e+01 4.704924e+01 4.027324e+01 3.945752e+01 3.853896e+01 4.032436e+01 3.737967e+00 3.099955e+00 3.082160e+00 6.864643e+00 5.291588e+00 6.343678e+00 6.449487e+00 6.580162e+00 5.526749e+00 4.981854e+00 4.681874e+00 4.185776e+00 1.866192e+00 4.870201e-01 4.860614e-01 4.343186e-01 1.339231e+00 7.827214e-01 9.404668e-01 1.107154e+00 1.015365e+00 9.714900e-01 8.831633e-01 7.585413e-01 7.124248e-01 3.315446e-01
<GCONST> 1.368228e+02
<STATE> 3
<MEAN> 39
 1.652301e+00 -2.538818e-01 -7.413101e+00 -2.287680e+01 -8.938964e+00 -1.799453e+00 -1.167847e+01 -1.249262e+00 -1.067137e+01 -3.472004e+00 -5.992390e+00 1.522684e+00 6.493040e+01 -9.323999e-02 -1.387982e-01 -1.611873e-01 -1.405930e-01 3.098757e-01 1.759331e-01 -2.317983e-01 -2.246100e-01 2.203616e-02 2.651199e-01 5.313013e-02 6.887189e-02 9.462424e-03 -2.448767e-01 -2.332089e-01 2.954162e-01 8.827646e-01 1.441596e-01 -1.588669e-01 4.649403e-02 -1.555280e-01 4.421138e-01 1.906830e-01 1.226151e-01 -1.490859e-01 -6.241665e-02
<VARIANCE> 39
 2.074509e+01 3.404293e+01 3.252673e+01 4.672262e+01 4.555881e+01 5.592957e+01 5.458346e+01 5.493089e+01 6.194803e+01 4.513032e+01 4.805518e+01 4.370955e+01 2.605515e+01 5.154878e-01 1.634296e+00 1.208157e+00 4.171568e+00 2.446794e+00 2.816610e+00 3.902245e+00 3.922616e+00 3.323860e+00 3.292104e+00 3.142257e+00 2.763860e+00 7.697002e-01 1.749185e-01 2.147959e-01 3.464141e-01 7.372300e-01 4.829949e-01 7.063546e-01 6.446118e-01 6.401200e-01 7.256746e-01 6.257991e-01 6.076375e-01 5.733337e-01 1.211592e-01
<GCONST> 1.200938e+02
<STATE> 4
<MEAN> 39
 -2.059429e+00 -6.023195e+00 -5.286719e+00 -1.330230e+01 -4.743934e+00 -2.440922e+00 -1.421806e+01 -4.631333e+00 -4.770804e+00 1.019832e+00 -3.799674e+00 1.262078e+00 6.439937e+01 -1.043049e+00 -5.836356e-01 1.638950e+00 2.801699e+00 1.640037e-02 -1.257773e+00 3.141844e-01 1.773587e-01 1.422358e+00 -2.388920e-02 -3.810382e-01 -5.084072e-01 -5.161582e-01 -3.009323e-01 3.794259e-01 4.026826e-01 3.206301e-01 -2.023187e-01 3.384827e-02 8.944088e-01 3.944560e-01 -9.585449e-02 -4.190962e-01 8.346273e-02 3.759949e-02 -3.548117e-01
<VARIANCE> 39
 3.183274e+01 4.567845e+01 3.846603e+01 7.029665e+01 5.545774e+01 6.526424e+01 1.155889e+02 7.110205e+01 6.959208e+01 5.706882e+01 6.422990e+01 4.435806e+01 7.492233e+01 1.620463e+00 2.620110e+00 3.932547e+00 5.598608e+00 5.280434e+00 6.249887e+00 6.544880e+00 4.753994e+00 5.187208e+00 5.771843e+00 4.576937e+00 3.842090e+00 2.450055e+00 3.659045e-01 5.160975e-01 6.313635e-01 1.007370e+00 9.371685e-01 1.175599e+00 1.490576e+00 1.092960e+00 1.009275e+00 1.109910e+00 9.818240e-01 7.109175e-01 4.479784e-01
<GCONST> 1.406790e+02
<TRANSP> 5
 0.000000e+00 1.000000e+00 0.000000e+00 0.000000e+00 0.000000e+00
 0.000000e+00 5.901552e-01 4.098448e-01 0.000000e+00 0.000000e+00
 0.000000e+00 0.000000e+00 8.156174e-01 1.843825e-01 0.000000e+00
 0.000000e+00 0.000000e+00 0.000000e+00 6.156940e-01 3.843060e-01
 0.000000e+00 0.000000e+00 0.000000e+00 0.000000e+00 0.000000e+00
<ENDHMM>
~h "v"
<BEGINHMM>
<NUMSTATES> 5
<STATE> 2
<MEAN> 39
 -9.567027e+00 -4.985691e+00 1.544226e+01 -1.128572e+01 -1.796740e+01 -4.593119e+00 -1.097749e+01 -1.196772e+01 -1.128278e+01 1.132086e+00 -6.137340e+00 -5.077704e-01 6.832434e+01 1.315289e+00 -1.166285e+00 8.110648e-01 -1.098406e+00 -1.621259e+00 -1.514964e+00 -1.038422e+00 -8.192579e-01 -1.781840e+00 2.777575e-02 -1.093568e+00 -1.504848e-01 4.717209e-01 -4.089413e-01 -4.650240e-02 -5.174507e-01 1.247328e-01 7.022654e-01 2.728657e-01 4.847609e-01 7.699022e-01 5.147378e-01 1.433228e-01 1.322161e-01 1.010689e-02 -6.807017e-02
<VARIANCE> 39
 2.981767e+01 3.149271e+01 2.828617e+01 5.728562e+01 3.112695e+01 3.686700e+01 3.873722e+01 4.526739e+01 5.208008e+01 3.501491e+01 4.764449e+01 4.802566e+01 2.961007e+01 3.817352e+00 2.548709e+00 2.669614e+00 3.037522e+00 4.389701e+00 4.532880e+00 4.876734e+00 5.777430e+00 5.011033e+00 3.608341e+00 4.388244e+00 3.377603e+00 9.732137e-01 3.821334e-01 3.322901e-01 3.125447e-01 5.229759e-01 5.237644e-01 6.288205e-01 6.443264e-01 6.818870e-01 6.306084e-01 6.310750e-01 6.205401e-01 5.557623e-01 1.334458e-01
<GCONST> 1.255124e+02
<STATE> 3
<MEAN> 39
 -8.007034e+00 -7.725180e+00 1.597944e+01 -1.302659e+01 -1.973372e+01 -6.563312e+00 -9.912457e+00 -1.078043e+01 -1.303500e+01 3.572700e+00 -8.253327e+00 -1.581872e+00 6.875591e+01 1.466795e-01 -7.029328e-02 -4.563238e-01 1.107011e-01 1.506561e-01 -3.733530e-01 2.281726e-01 4.965507e-01 2.219281e-01 -8.289465e-02 3.279534e-01 1.728095e-01 -1.523968e-01 -2.701229e-02 2.422750e-01 -2.970799e-01 3.257446e-01 3.482410e-01 1.191360e-01 6.517576e-02 1.419469e-01 3.644596e-01 -2.401543e-01 2.157595e-01 6.756806e-02 -2.427272e-01
<VARIANCE> 39
 2.538058e+01 3.042772e+01 2.780456e+01 5.317008e+01 2.716970e+01 3.907608e+01 4.021973e+01 5.334145e+01 6.276871e+01 3.410142e+01 4.597824e+01 3.654973e+01 3.051475e+01 6.076798e-01 1.047899e+00 1.308479e+00 1.581378e+00 1.381170e+00 1.887982e+00 1.869318e+00 2.080149e+00 1.915333e+00 2.017401e+00 2.137821e+00 1.741779e+00 5.730109e-01 1.780611e-01 2.119214e-01 2.613723e-01 3.966401e-01 3.581632e-01 3.487640e-01 4.457798e-01 3.843745e-01 4.636340e-01 3.646477e-01 4.042071e-01 3.136347e-01 1.325309e-01
<GCONST> 1.082279e+02
<STATE> 4
<MEAN> 39
 -7.127752e+00 -6.744929e+00 1.114649e+01 -9.754500e+00 -1.622502e+01 -7.717160e+00 -8.819027e+00 -6.908621e+00 -9.254045e+00 8.303397e-01 -4.924994e+00 4.737204e-01 6.559532e+01 1.917500e-01 7.014936e-01 -2.089898e+00 1.690213e+00 2.225152e+00 3.451520e-01 4.208105e-01 1.179163e+00 1.872079e+00 -9.491639e-01 5.811069e-01 2.192373e-01 -1.537285e+00 -1.917981e-01 2.077205e-01 -2.725093e-01 3.131594e-01 5.198368e-01 4.980083e-01 2.170690e-01 -3.495242e-03 3.646436e-01 1.657317e-01 1.763586e-02 -1.116230e-01 -3.402186e-01
<VARIANCE> 39
 2.749412e+01 4.229826e+01 4.750998e+01 6.215823e+01 4.415443e+01 5.634093e+01 4.756050e+01 6.153369e+01 6.592307e+01 4.212452e+01 5.097496e+01 3.859327e+01 5.959781e+01 2.049851e+00 2.582494e+00 3.099720e+00 4.266018e+00 3.673148e+00 3.995278e+00 4.964166e+00 4.275638e+00 4.273232e+00 3.700032e+00 3.796701e+00 3.015811e+00 2.659600e+00 2.940684e-01 4.580189e-01 4.940320e-01 7.482779e-01 6.597886e-01 7.703556e-01 7.601395e-01 9.125103e-01 7.488438e-01 6.521891e-01 6.371127e-01 5.599985e-01 3.855287e-01
<GCONST> 1.315523e+02
<TRANSP> 5
 0.000000e+00 1.000000e+00 0.000000e+00 0.000000e+00 0.000000e+00
 0.000000e+00 4.829563e-01 5.170438e-01 0.000000e+00 0.000000e+00
 0.000000e+00 0.000000e+00 7.313343e-01 2.686657e-01 0.000000e+00
 0.000000e+00 0.000000e+00 0.000000e+00 5.965541e-01 4.034459e-01
 0.000000e+00 0.000000e+00 0.000000e+00 0.000000e+00 0.000000e+00
<ENDHMM>
~h "x"
<BEGINHMM>
<NUMSTATES> 5
<STATE> 2
<MEAN> 39
 -1.136085e+01 7.985293e-01 3.656853e+00 -5.839587e+00 -9.274699e+00 -5.376688e+00 -6.148553e+00 -6.128480e+00 -6.125998e+00 -2.882189e+00 -3.126490e+00 -2.790958e-01 6.743011e+01 -3.079829e+00 2.559160e+00 -1.668128e-01 2.637376e+00 1.949302e+00 1.719567e+00 2.325392e+00 6.096508e-01 1.321971e+00 8.730586e-01 1.388401e+00 -2.662920e-01 -3.971214e-01 -4.444689e-01 -4.608564e-01 -4.935581e-01 -2.301400e-01 4.796359e-01 4.801929e-01 2.380465e-01 5.834136e-01 4.805408e-01 5.075222e-01 2.736437e-02 8.575535e-02 1.698428e-01
<VARIANCE> 39
 4.771603e+01 4.811265e+01 4.906928e+01 5.590810e+01 5.417764e+01 5.169879e+01 6.151523e+01 5.433160e+01 4.790862e+01 3.825437e+01 3.665905e+01 3.546349e+01 3.488268e+01 3.195623e+00 4.969879e+00 5.266922e+00 4.920419e+00 6.040423e+00 5.577562e+00 6.654287e+00 6.590786e+00 5.638041e+00 5.728989e+00 4.288176e+00 3.841951e+00 1.592444e+00 6.271912e-01 7.959574e-01 5.804009e-01 9.456381e-01 9.891545e-01 9.201155e-01 1.162600e+00 8.725787e-01 8.077274e-01 8.458468e-01 7.493666e-01 6.989416e-01 1.579385e-01
<GCONST> 1.374335e+02
<STATE> 3
<MEAN> 39
 -2.332577e+01 3.839063e+00 -1.827499e-01 -1.047947e+00 -1.410301e+00 2.687481e+00 1.019841e+00 1.496631e-01 1.913744e+00 2.920523e+00 9.667886e-01 8.218769e-01 6.700943e+01 -8.087708e-01 -2.192716e-01 -1.778727e-01 -1.398281e-01 3.547387e-01 6.676484e-01 2.695226e-01 4.926462e-01 6.410226e-01 4.109420e-01 2.308049e-01 1.949637e-01 1.282506e-01 7.860642e-01 -2.511406e-01 4.353833e-01 -4.592854e-01 -5.830872e-01 -4.699171e-01 -4.992089e-01 -4.482163e-01 -4.453665e-01 -3.234898e-01 -2.113899e-01 -1.840934e-02 7.029758e-02
<VARIANCE> 39
 3.102723e+01 3.534200e+01 3.999648e+01 3.388007e+01 3.113493e+01 2.405972e+01 2.752770e+01 2.747471e+01 2.746542e+01 2.389862e+01 2.207139e+01 1.775267e+01 3.474211e+01 2.077622e+00 1.176177e+00 2.091743e+00 1.653151e+00 2.104653e+00 2.174051e+00 2.425312e+00 2.662393e+00 2.508580e+00 2.446146e+00 1.981992e+00 1.745746e+00 5.470895e-01 3.530290e-01 3.585503e-01 3.170908e-01 4.959229e-01 5.388690e-01 5.111165e-01 5.802194e-01 5.589949e-01 5.132263e-01 5.005112e-01 4.531829e-01 4.070467e-01 1.182627e-01
<GCONST> 1.115976e+02
<STATE> 4
<MEAN> 39
 -1.972953e+01 1.519408e+00 3.439973e+00 -3.055738e+00 -3.298604e+00 2.304061e+00 -1.964997e-01 -9.920095e-01 1.000202e+00 2.155619e+00 1.158236e+00 1.080119e+00 6.678452e+01 2.439280e+00 -8.318959e-01 1.620281e+00 -1.745924e+00 -2.369147e+00 -1.676879e+00 -1.603751e+00 -1.540179e+00 -1.423720e+00 -5.585011e-01 -5.639045e-01 1.019446e-01 6.746581e-01 5.602686e-01 -5.445899e-01 3.118443e-02 -5.839419e-01 -5.516521e-01 -4.906188e-01 -3.525016e-01 -1.117681e-01 -4.608214e-01 -9.496233e-02 -3.723509e-01 2.029951e-02 1.923352e-01
<VARIANCE> 39
 4.496435e+01 5.462321e+01 4.640584e+01 3.130555e+01 3.704915e+01 2.982945e+01 3.356458e+01 3.808998e+01 2.946678e+01 2.520341e+01 2.435238e+01 2.093725e+01 5.053676e+01 4.596622e+00 3.744528e+00 2.777055e+00 4.807288e+00 4.511736e+00 3.979231e+00 4.164125e+00 4.317989e+00 3.415718e+00 2.700365e+00 2.827400e+00 2.970501e+00 1.447911e+00 6.144110e-01 6.013324e-01 5.675252e-01 5.599179e-01 6.733022e-01 6.802238e-01 7.246577e-01 8.073921e-01 7.012979e-01 6.163157e-01 5.893729e-01 5.205728e-01 2.106968e-01
<GCONST> 1.265905e+02
<TRANSP> 5
 0.000000e+00 1.000000e+00 0.000000e+00 0.000000e+00 0.000000e+00
 0.000000e+00 7.118571e-01 2.881429e-01 0.000000e+00 0.000000e+00
 0.000000e+00 0.000000e+00 8.137635e-01 1.862365e-01 0.000000e+00
 0.000000e+00 0.000000e+00 0.000000e+00 7.023518e-01 2.976482e-01
 0.000000e+00 0.000000e+00 0.000000e+00 0.000000e+00 0.000000e+00
<ENDHMM>
~h "z"
<BEGINHMM>
<NUMSTATES> 5
<STATE> 2
<MEAN> 39
 -5.987914e+00 -1.309933e+00 7.528942e-01 -1.866933e+00 -7.160673e+00 -6.102582e+00 -8.061835e+00 -5.136891e+00 -4.574628e+00 -4.930592e+00 -4.464622e+00 -8.760497e-01 5.969397e+01 -1.947640e+00 1.335177e+00 -2.401353e-01 2.379155e+00 1.460819e+00 1.764867e+00 1.920946e+00 9.156021e-01 1.069382e+00 9.500294e-01 9.156623e-01 2.545279e-02 -1.805946e+00 -5.903929e-01 -5.022315e-01 -3.945646e-01 -4.790340e-01 1.026832e-01 3.226302e-01 4.151988e-01 6.014042e-01 2.750512e-01 5.684478e-01 2.870300e-01 2.527775e-01 6.344023e-01
<VARIANCE> 39
 2.852643e+01 3.201780e+01 3.835365e+01 4.014619e+01 5.387323e+01 4.832850e+01 5.200384e+01 4.268907e+01 4.480948e+01 4.110321e+01 3.802218e+01 3.880900e+01 3.772146e+01 3.327377e+00 3.998094e+00 4.052671e+00 4.426841e+00 4.504892e+00 4.661043e+00 5.705771e+00 5.480536e+00 4.830224e+00 5.163570e+00 3.971807e+00 3.825111e+00 4.032575e+00 4.721803e-01 5.120593e-01 5.421045e-01 7.846010e-01 7.747838e-01 8.878115e-01 9.007661e-01 7.249324e-01 7.652456e-01 7.413926e-01 6.414313e-01 6.670119e-01 5.811676e-01
<GCONST> 1.341096e+02
<STATE> 3
<MEAN> 39
 -1.483562e+01 -4.566876e+00 -1.407639e+00 1.167325e+00 -4.432412e-01 1.734336e+00 2.117771e+00 4.233382e+00 3.228862e+00 3.661106e+00 3.672175e+00 3.887934e+00 5.515638e+01 -1.147923e+00 1.734073e-01 -4.536048e-01 2.113924e-01 1.670076e-01 2.430576e-01 4.473437e-01 5.726833e-01 2.801012e-01 4.347048e-01 4.140454e-01 2.606063e-01 8.748219e-01 4.611594e-01 -5.202120e-02 9.074279e-02 -3.124721e-01 -2.358853e-01 -4.230053e-01 -4.220915e-01 -2.638081e-01 -2.953769e-01 -3.540353e-01 -2.668716e-01 -8.728027e-02 4.408625e-01
<VARIANCE> 39
 2.795835e+01 4.746961e+01 2.702166e+01 2.705909e+01 3.329874e+01 3.010198e+01 3.293964e+01 3.155266e+01 3.264371e+01 2.979315e+01 2.802307e+01 2.287597e+01 3.723328e+01 2.739718e+00 2.495088e+00 2.079719e+00 1.993358e+00 2.283989e+00 2.625767e+00 2.960268e+00 3.087148e+00 3.173091e+00 3.132511e+00 2.630050e+00 2.271119e+00 3.048142e+00 7.616123e-01 5.524069e-01 4.029873e-01 6.377680e-01 4.986262e-01 6.946169e-01 7.281464e-01 5.857458e-01 6.241663e-01 6.315649e-01 5.285366e-01 4.437672e-01 5.200977e-01
<GCONST> 1.216542e+02
<STATE> 4
<MEAN> 39
 -1.567637e+01 3.758424e-01 -3.046791e+00 2.125697e-01 -3.656994e+00 -3.101874e+00 -1.216314e+00 2.127470e+00 -4.337505e-03 6.918998e-01 4.862221e-01 2.273269e+00 6.737363e+01 2.943701e+00 -1.704053e+00 -2.970600e-02 -2.864641e+00 -1.101719e+00 -2.352596e+00 -2.088665e+00 -3.197010e-01 -7.675619e-01 -1.251297e+00 -1.243755e+00 1.878772e-01 2.711703e+00 8.854779e-01 -9.528983e-01 -7.753856e-02 -1.010481e+00 -1.089575e-01 -1.110507e-01 -6.020035e-01 -2.639117e-01 -2.987379e-01 -2.948263e-01 -4.682457e-01 -9.347436e-02 -1.800015e-01
<VARIANCE> 39
 5.587173e+01 3.228875e+01 2.962598e+01 4.086010e+01 4.588720e+01 5.230651e+01 4.482679e+01 3.124316e+01 2.933989e+01 2.828299e+01 2.510543e+01 2.113564e+01 2.862122e+01 4.800498e+00 6.825843e+00 3.124786e+00 6.423155e+00 4.034623e+00 4.844099e+00 7.696284e+00 5.040439e+00 4.000514e+00 4.391194e+00 4.409383e+00 3.619352e+00 2.157747e+00 1.430795e+00 9.446370e-01 6.052394e-01 9.245778e-01 8.573275e-01 1.387067e+00 1.309255e+00 9.217239e-01 7.626631e-01 8.828642e-01 7.832798e-01 6.908054e-01 3.417656e-01
<GCONST> 1.351745e+02
<TRANSP> 5
 0.000000e+00 1.000000e+00 0.000000e+00 0.000000e+00 0.000000e+00
 0.000000e+00 6.963040e-01 3.036960e-01 0.000000e+00 0.000000e+00
 0.000000e+00 0.000000e+00 8.286636e-01 1.713364e-01 0.000000e+00
 0.000000e+00 0.000000e+00 0.000000e+00 5.858909e-01 4.141091e-01
 0.000000e+00 0.000000e+00 0.000000e+00 0.000000e+00 0.000000e+00
<ENDHMM>
~h "aa"
<BEGINHMM>
<NUMSTATES> 5
<STATE> 2
<MEAN> 39
 -7.104250e+00 -1.647584e+01 -8.764218e+00 -9.881071e+00 1.175779e+00 8.593726e-01 -3.549480e+00 1.597617e-01 -1.737852e+00 -3.992203e+00 -2.726356e+00 2.861948e-01 6.792397e+01 -4.086074e-01 -1.246422e+00 -3.761334e-01 1.096360e+00 1.076555e+00 1.890552e-01 -2.633940e-01 -3.160026e-01 -1.389780e-01 -4.986712e-01 1.037277e-01 3.497180e-01 6.237133e-01 3.484615e-02 6.414969e-02 1.655513e-01 -9.681615e-02 -2.430795e-01 -1.483011e-01 -2.429803e-01 -1.382786e-01 -1.753568e-01 7.355586e-04 -4.215434e-02 1.603006e-02 1.895408e-01
<VARIANCE> 39
 2.577629e+01 5.575303e+01 5.533846e+01 9.444542e+01 9.342210e+01 6.743350e+01 8.854025e+01 6.673970e+01 7.017510e+01 6.374649e+01 5.752702e+01 5.449342e+01 1.111622e+02 1.321313e+00 3.115114e+00 3.015290e+00 4.325499e+00 4.960642e+00 4.239120e+00 5.934437e+00 4.991143e+00 5.379292e+00 5.645251e+00 4.488518e+00 4.200717e+00 6.855606e+00 2.000469e-01 5.693740e-01 4.285346e-01 6.175553e-01 7.151412e-01 6.675191e-01 1.008750e+00 8.989241e-01 8.903772e-01 9.239640e-01 7.545567e-01 7.927338e-01 1.080440e+00
<GCONST> 1.398307e+02
<STATE> 3
<MEAN> 39
 -5.724106e+00 -2.045620e+01 -9.858530e+00 -7.266192e+00 2.044124e+00 5.959455e-01 -1.017562e+01 -8.531346e-01 -5.253090e+00 -7.838073e+00 -5.254516e+00 -6.810874e-01 7.353985e+01 -1.243464e-01 -1.932836e-02 1.665901e-01 4.200036e-01 -1.383272e-01 -1.281601e-01 3.533182e-02 3.060489e-02 -1.282194e-01 -1.252014e-01 1.194843e-01 1.871141e-01 -8.544058e-02 1.081917e-02 1.171798e-01 5.153510e-02 -1.132146e-01 -1.296987e-01 -1.397424e-02 1.424769e-01 4.763066e-02 -3.601696e-02 4.121612e-02 2.688732e-03 -1.405859e-02 -7.029450e-02
<VARIANCE> 39
 2.561190e+01 3.838405e+01 3.876211e+01 5.524849e+01 5.746006e+01 6.551878e+01 7.762304e+01 5.754766e+01 5.094363e+01 5.098855e+01 4.311269e+01 4.247417e+01 5.881818e+01 4.773249e-01 1.080385e+00 8.998916e-01 1.337087e+00 1.589230e+00 1.425222e+00 1.865840e+00 1.679214e+00 1.770421e+00 1.644455e+00 1.531478e+00 1.511036e+00 1.093337e+00 7.475889e-02 1.361526e-01 1.334039e-01 2.021150e-01 2.141983e-01 2.094873e-01 2.665316e-01 2.583713e-01 2.721983e-01 2.546529e-01 2.469811e-01 2.427013e-01 1.223677e-01
<GCONST> 1.042393e+02
<STATE> 4
<MEAN> 39
 -1.154978e+01 -1.052984e+01 -1.830950e+00 -2.137801e-01 1.706537e+00 1.934806e+00 1.248975e+00 4.741809e+00 2.825464e+00 1.577493e+00 3.704746e+00 4.317932e+00 5.451196e+01 -1.018577e-01 6.418154e-02 6.229221e-02 4.077807e-02 -4.369167e-02 2.096664e-02 1.132946e-01 1.828771e-02 5.945854e-02 1.423299e-01 1.019306e-01 6.053198e-02 -1.161696e-01 5.119556e-02 -5.754881e-02 -4.871191e-02 -8.536077e-02 -1.477580e-02 -2.288815e-02 -6.477672e-02 -4.710149e-02 -7.452524e-02 -7.164403e-02 -6.471530e-02 -4.589374e-02 1.106877e-01
<VARIANCE> 39
 1.757844e+01 4.831264e+01 2.833804e+01 3.049406e+01 3.623019e+01 3.160737e+01 4.512248e+01 3.945564e+01 4.397078e+01 4.662700e+01 3.927689e+01 2.732039e+01 8.029221e+01 4.935979e-01 1.355930e+00 1.089921e+00 1.183989e+00 1.669731e+00 1.637894e+00 1.992895e+00 2.066217e+00 2.275386e+00 2.316691e+00 1.878643e+00 1.711574e+00 9.845492e-01 8.892727e-02 2.925993e-01 2.145048e-01 2.437378e-01 2.971841e-01 3.115089e-01 3.827156e-01 3.928993e-01 4.301075e-01 4.553652e-01 3.681246e-01 3.364022e-01 2.473021e-01
<GCONST> 1.077997e+02
<TRANSP> 5
 0.000000e+00 1.000000e+00 0.000000e+00 0.000000e+00 0.000000e+00
 0.000000e+00 7.483758e-01 2.516242e-01 0.000000e+00 0.000000e+00
 0.000000e+00 0.000000e+00 8.014101e-01 1.985899e-01 0.000000e+00
 0.000000e+00 0.000000e+00 0.000000e+00 8.711541e-01 1.288459e-01
 0.000000e+00 0.000000e+00 0.000000e+00 0.000000e+00 0.000000e+00
<ENDHMM>
~h "ai"
<BEGINHMM>
<NUMSTATES> 5
<STATE> 2
<MEAN> 39
 -6.379577e+00 -1.931824e+01 -6.498126e+00 -8.295669e+00 -6.417450e+00 -2.520051e+00 -1.751056e+00 -5.286779e-01 -7.411819e+00 -7.758788e+00 -6.587801e+00 1.802682e+00 7.611377e+01 1.589235e-01 -2.215886e+00 -9.740435e-01 -1.203666e+00 -5.979306e-01 2.378089e-01 5.736440e-01 -4.735794e-01 -1.890630e+00 -1.283931e+00 -8.467833e-01 -2.726753e-01 1.619650e+00 -3.811605e-01 5.643324e-01 4.567833e-01 4.767863e-01 1.934666e-01 2.579531e-01 1.969523e-01 4.575149e-02 3.159347e-01 4.679200e-01 4.374616e-01 -9.904708e-02 -5.426393e-01
<VARIANCE> 39
 2.399302e+01 3.704318e+01 2.949305e+01 5.623193e+01 5.428276e+01 5.114692e+01 7.022307e+01 6.738255e+01 5.085742e+01 4.322800e+01 4.988599e+01 4.155315e+01 3.790631e+01 2.638484e+00 4.160041e+00 2.788080e+00 4.768129e+00 5.192099e+00 4.734263e+00 5.387462e+00 5.036489e+00 3.713036e+00 3.650630e+00 4.033153e+00 3.159154e+00 2.351102e+00 4.086930e-01 5.830868e-01 5.023571e-01 7.785526e-01 7.132017e-01 7.912048e-01 8.741326e-01 9.949527e-01 7.955995e-01 6.701086e-01 6.735845e-01 6.051223e-01 4.878287e-01
<GCONST> 1.334023e+02
<STATE> 3
<MEAN> 39
 -7.119287e+00 -2.168264e+01 -5.293570e+00 -9.871454e+00 -9.022438e+00 -4.087746e-01 1.577222e+00 -6.266589e-01 -1.057359e+01 -8.341590e+00 -6.496641e+00 9.200716e-02 7.766882e+01 -4.664870e-02 5.706975e-01 7.621385e-01 -7.803599e-01 -1.063727e+00 -1.810709e-01 4.562246e-01 2.466455e-01 3.017073e-01 5.265289e-01 -8.558444e-02 -5.212443e-01 -2.689523e-01 8.753143e-02 4.053468e-01 1.748942e-01 -3.791970e-02 -1.122387e-01 -2.657938e-01 -3.006956e-01 1.028450e-02 3.701603e-01 2.635551e-01 2.231644e-02 1.894288e-02 -2.645497e-01
<VARIANCE> 39
 2.199289e+01 2.333980e+01 2.628097e+01 4.697240e+01 4.184265e+01 3.616139e+01 6.705215e+01 6.974122e+01 3.677449e+01 3.030576e+01 3.390167e+01 3.023524e+01 2.804399e+01 4.267181e-01 1.158376e+00 9.569899e-01 1.924653e+00 1.897375e+00 1.724788e+00 2.125983e+00 1.822351e+00 2.260759e+00 2.017872e+00 1.808576e+00 1.682288e+00 4.135188e-01 9.461101e-02 1.753739e-01 1.664045e-01 3.041279e-01 2.838462e-01 2.827578e-01 4.504811e-01 3.794501e-01 3.560563e-01 3.509781e-01 3.252130e-01 3.304221e-01 7.682189e-02
<GCONST> 1.040365e+02
<STATE> 4
<MEAN> 39
 -7.146202e+00 -1.404290e+01 1.083329e+00 -1.310303e+01 -1.442045e+01 -3.839044e+00 9.593368e-01 3.684735e-01 -4.599754e+00 -2.054132e+00 -5.368595e+00 -1.166161e+00 7.091357e+01 2.899392e-01 1.789094e+00 1.057980e+00 5.007200e-01 -2.083054e-01 -9.313999e-01 -1.489552e+00 -6.743590e-01 8.284888e-01 8.992910e-01 6.185785e-01 5.293773e-01 -1.572686e+00 -1.634408e-02 1.895727e-01 -9.437047e-02 6.919691e-01 6.490325e-01 2.874718e-01 -1.187521e-01 -2.065838e-01 -1.854111e-01 -2.626569e-01 1.753523e-01 1.947900e-01 -3.824494e-01
<VARIANCE> 39
 2.288335e+01 3.424578e+01 3.437963e+01 6.275525e+01 6.118676e+01 5.478049e+01 6.176932e+01 6.478734e+01 4.779163e+01 4.249409e+01 4.108056e+01 3.548228e+01 8.996393e+01 1.023363e+00 2.071915e+00 2.129128e+00 3.406447e+00 3.193334e+00 2.887716e+00 3.858546e+00 3.346645e+00 3.360456e+00 3.278873e+00 2.440865e+00 2.431710e+00 1.672013e+00 1.892048e-01 2.977521e-01 3.004325e-01 5.861916e-01 5.762378e-01 5.852687e-01 7.745866e-01 6.475099e-01 5.969987e-01 6.261986e-01 4.977713e-01 5.176564e-01 3.048729e-01
<GCONST> 1.241193e+02
<TRANSP> 5
 0.000000e+00 1.000000e+00 0.000000e+00 0.000000e+00 0.000000e+00
 0.000000e+00 6.957962e-01 3.042038e-01 0.000000e+00 0.000000e+00
 0.000000e+00 0.000000e+00 8.262207e-01 1.737793e-01 0.000000e+00
 0.000000e+00 0.000000e+00 0.000000e+00 7.223801e-01 2.776199e-01
 0.000000e+00 0.000000e+00 0.000000e+00 0.000000e+00 0.000000e+00
<ENDHMM>
~h "an"
<BEGINHMM>
<NUMSTATES> 5
<STATE> 2
<MEAN> 39
 -5.963232e+00 -1.911065e+01 -6.800551e+00 -1.008187e+01 -5.247578e+00 -4.084092e+00 -3.459646e+00 9.278316e-01 -6.623238e+00 -8.210548e+00 -6.202473e+00 1.962459e+00 7.617590e+01 2.026376e-01 -2.339968e+00 -1.247303e+00 -1.097343e+00 1.080552e-01 1.212305e-01 -9.718148e-02 -2.191234e-01 -1.576470e+00 -1.515102e+00 -9.949007e-01 -1.046515e-01 1.466512e+00 -4.796377e-01 6.448068e-01 5.266045e-01 6.861207e-01 2.840671e-01 2.637305e-01 1.341625e-01 -3.458408e-03 2.281857e-01 4.494004e-01 4.774015e-01 -4.733686e-02 -6.139635e-01
<VARIANCE> 39
 2.451887e+01 3.515485e+01 3.338688e+01 5.103605e+01 5.646011e+01 5.087247e+01 7.419188e+01 5.768263e+01 5.357386e+01 4.670848e+01 6.006006e+01 5.405076e+01 3.554903e+01 2.835825e+00 4.306260e+00 3.000907e+00 4.719833e+00 4.927338e+00 4.600421e+00 5.041092e+00 4.449152e+00 3.848068e+00 3.829815e+00 4.338703e+00 3.534408e+00 2.422570e+00 5.222701e-01 6.059692e-01 4.863480e-01 6.888508e-01 7.601510e-01 7.719337e-01 8.606018e-01 9.227452e-01 7.199897e-01 6.726897e-01 7.445962e-01 7.287336e-01 4.368883e-01
<GCONST> 1.342004e+02
<STATE> 3
<MEAN> 39
 -6.834050e+00 -2.078093e+01 -6.202204e+00 -1.003419e+01 -5.145170e+00 -3.737142e+00 -3.637697e+00 1.879332e+00 -1.022571e+01 -9.651959e+00 -6.150584e+00 9.656515e-01 7.673891e+01 1.415533e-01 8.971356e-01 5.987141e-01 -1.319510e-01 -6.155867e-01 -5.540026e-01 -1.290932e-01 1.997031e-01 -5.149378e-02 4.477695e-01 1.776544e-01 -2.545917e-01 -7.700476e-01 1.344144e-01 4.725986e-01 2.277552e-01 7.248618e-02 -1.858150e-01 -1.614944e-01 -1.455861e-01 -1.274661e-01 2.302971e-01 2.436640e-01 6.616318e-02 -3.831331e-02 -3.949648e-01
<VARIANCE> 39
 2.429136e+01 2.311008e+01 2.948814e+01 4.303259e+01 4.816245e+01 4.552953e+01 8.095922e+01 6.086899e+01 4.929131e+01 3.903498e+01 4.706303e+01 3.747829e+01 2.666376e+01 5.699930e-01 1.529048e+00 1.270891e+00 1.807433e+00 2.308610e+00 2.127321e+00 2.461906e+00 2.330106e+00 2.231873e+00 2.163744e+00 1.974993e+00 2.012468e+00 8.981151e-01 9.911060e-02 1.839853e-01 2.024432e-01 3.668327e-01 3.322591e-01 3.535236e-01 4.715885e-01 5.371366e-01 4.053777e-01 3.913534e-01 3.618766e-01 3.413875e-01 1.106435e-01
<GCONST> 1.102965e+02
<STATE> 4
<MEAN> 39
 -6.786616e+00 -9.833788e+00 -1.324699e-01 -4.912746e+00 -6.239029e+00 -4.463128e+00 -2.778467e+00 1.665773e+00 -3.851768e+00 -3.019178e+00 -1.489669e+00 1.336158e+00 6.068646e+01 1.368850e-01 1.180448e+00 7.072862e-01 5.209014e-01 -1.897208e-01 3.066906e-02 -4.278477e-01 -7.835757e-01 4.476015e-01 4.434108e-01 3.031934e-01 -1.032782e-01 -1.381055e+00 -8.173309e-02 -5.916287e-02 -7.519391e-02 7.447047e-02 1.714104e-01 1.748623e-01 5.276032e-03 -7.362577e-02 -2.833054e-02 -1.013481e-01 -3.580295e-02 1.438145e-02 8.084045e-02
<VARIANCE> 39
 3.317825e+01 3.545095e+01 3.472339e+01 5.590331e+01 6.695693e+01 6.087561e+01 6.673996e+01 5.768330e+01 7.409563e+01 5.423115e+01 5.915296e+01 4.593240e+01 8.750439e+01 9.761273e-01 2.343584e+00 2.194149e+00 2.287898e+00 2.399015e+00 2.659498e+00 3.612317e+00 3.779159e+00 3.234155e+00 3.064389e+00 2.595850e+00 2.337048e+00 2.397606e+00 1.402218e-01 2.220360e-01 3.028399e-01 3.600819e-01 4.262973e-01 4.940096e-01 5.454246e-01 6.236024e-01 5.803633e-01 5.391144e-01 4.639364e-01 4.281095e-01 1.954995e-01
<GCONST> 1.227113e+02
<TRANSP> 5
 0.000000e+00 1.000000e+00 0.000000e+00 0.000000e+00 0.000000e+00
 0.000000e+00 6.754457e-01 3.245543e-01 0.000000e+00 0.000000e+00
 0.000000e+00 0.000000e+00 8.334843e-01 1.665157e-01 0.000000e+00
 0.000000e+00 0.000000e+00 0.000000e+00 7.955554e-01 2.044446e-01
