~o
<STREAMINFO> 1 39
<VECSIZE> 39<NULLD><MFCC_D_A_0><DIAGC>
~s "silst"
<MEAN> 39
 -1.893141e+001 -3.615353e+000 -6.728649e+000 -3.296999e+000 -2.286098e+000 -2.212044e+000 -8.674064e-001 1.084994e-001 -1.228657e+000 1.228029e-001 -8.428893e-001 3.353544e-001 3.621297e+001 -5.409901e-002 8.510165e-002 6.284666e-002 6.215094e-002 2.518684e-002 5.105096e-002 -8.383430e-003 -2.305113e-002 7.112523e-003 4.187570e-002 2.804098e-002 -6.038286e-003 -1.332883e-001 2.094247e-002 -1.610980e-002 -7.751376e-003 -2.001279e-002 -5.405044e-003 -3.888711e-003 2.864649e-003 5.422165e-003 -4.412997e-003 -1.600898e-002 -1.227549e-002 -4.515871e-003 3.380139e-002
<VARIANCE> 39
 1.154550e+001 2.177624e+001 1.344610e+001 1.913912e+001 1.510890e+001 2.284875e+001 1.823508e+001 1.985946e+001 1.914708e+001 2.110924e+001 1.771776e+001 1.390998e+001 3.345556e+001 1.592225e-001 3.126520e-001 4.637170e-001 6.613809e-001 8.349695e-001 1.049413e+000 1.190939e+000 1.305941e+000 1.364140e+000 1.386646e+000 1.297261e+000 1.183390e+000 1.221900e-001 3.039381e-002 5.876780e-002 9.127691e-002 1.328222e-001 1.675241e-001 2.098135e-001 2.405457e-001 2.635322e-001 2.746170e-001 2.821839e-001 2.621671e-001 2.402652e-001 1.712404e-002
<GCONST> 7.836509e+001
~h "b"
<BEGINHMM>
<NUMSTATES> 5
<STATE> 2
<MEAN> 39
 -6.112967e+000 3.042181e+000 -2.791139e+000 -1.597822e+000 -2.628994e+000 -2.560778e+000 -7.190198e+000 -8.119874e+000 -8.438159e+000 -4.363662e+000 -3.166201e+000 -4.269400e+000 4.027579e+001 -1.078164e+000 1.418231e+000 8.289317e-001 1.370402e+000 9.693394e-001 6.079097e-001 6.680600e-001 -2.326233e-001 -3.265219e-001 -5.619831e-001 -3.996444e-001 -4.461186e-002 -1.931920e+000 -1.911844e-001 -9.495010e-001 -2.019300e-001 -6.940881e-001 -4.503422e-001 -2.814868e-001 -2.839375e-002 5.633403e-001 5.165032e-001 3.201628e-001 1.062911e-001 1.939884e-001 1.323571e+000
<VARIANCE> 39
 3.445535e+001 2.576863e+001 2.254551e+001 3.058900e+001 2.336034e+001 3.436731e+001 3.809431e+001 3.497976e+001 3.502579e+001 3.239589e+001 3.233170e+001 2.770087e+001 2.611879e+001 2.519907e+000 4.629960e+000 3.104270e+000 4.422894e+000 3.184771e+000 3.491014e+000 3.835463e+000 4.390488e+000 4.207949e+000 3.485170e+000 2.961467e+000 2.510843e+000 6.225932e+000 3.613551e-001 7.320633e-001 6.496379e-001 7.423063e-001 6.382415e-001 6.236669e-001 8.611451e-001 8.366266e-001 7.887153e-001 7.163303e-001 6.203704e-001 5.358272e-001 9.131857e-001
<GCONST> 1.277373e+002
<STATE> 3
<MEAN> 39
 -1.198872e+001 1.949070e+000 -2.026436e+000 -5.978594e-002 -9.157374e-001 -9.117249e-001 -4.187718e+000 -4.858555e+000 -5.534825e+000 -3.307609e+000 -2.907690e+000 -2.789365e+000 3.762233e+001 -3.591374e-001 -2.142109e+000 -8.114717e-001 -1.723046e+000 -9.982074e-001 -7.785540e-001 1.488292e-001 1.065411e+000 1.325920e+000 7.743712e-001 5.083616e-001 5.846372e-001 3.467635e+000 8.184306e-001 -8.358642e-001 -4.140828e-001 -1.159545e+000 -8.346741e-001 -4.557962e-001 -4.377329e-001 5.830215e-002 9.949027e-002 2.679668e-001 2.066320e-001 2.699196e-002 1.796085e+000
<VARIANCE> 39
 4.409546e+001 2.420970e+001 1.801079e+001 2.239081e+001 1.688843e+001 2.245020e+001 2.829708e+001 3.421540e+001 3.469965e+001 2.910265e+001 2.330612e+001 2.007225e+001 3.735313e+001 3.936086e+000 3.193581e+000 3.059869e+000 4.301819e+000 3.093199e+000 3.470943e+000 3.909336e+000 4.112805e+000 4.058920e+000 3.345695e+000 2.961822e+000 2.311117e+000 7.854892e+000 5.499754e-001 6.957531e-001 8.708088e-001 7.877299e-001 6.865160e-001 8.015993e-001 7.577591e-001 8.909618e-001 9.016344e-001 7.845545e-001 6.944256e-001 4.937064e-001 7.784293e-001
<GCONST> 1.270076e+002
<STATE> 4
<MEAN> 39
 -9.109210e+000 -6.115898e+000 -6.221219e+000 -8.652914e+000 -6.543690e+000 -5.941519e+000 -5.734189e+000 -2.998383e+000 -2.050903e+000 -8.073553e-001 -1.167441e+000 -1.342575e+000 5.518972e+001 2.315045e+000 -2.718004e+000 -1.071122e+000 -3.622151e+000 -2.467971e+000 -1.018795e+000 -1.130267e+000 6.231317e-001 5.099465e-001 7.778835e-001 5.090692e-001 1.636906e-001 5.296612e+000 4.210237e-001 3.390257e-001 2.139093e-001 4.882994e-002 -9.800715e-003 3.492959e-001 -2.045528e-001 -1.566353e-001 -4.539787e-001 -1.777993e-001 -1.685510e-001 -2.413321e-001 -7.899200e-001
<VARIANCE> 39
 4.226055e+001 2.355981e+001 3.613425e+001 4.820538e+001 3.230024e+001 4.292136e+001 3.754339e+001 3.396904e+001 3.197927e+001 2.954960e+001 2.739014e+001 2.119935e+001 4.355970e+001 5.840207e+000 5.207040e+000 7.982378e+000 7.333882e+000 6.220416e+000 7.248970e+000 7.317157e+000 7.163295e+000 7.207309e+000 5.442119e+000 5.164406e+000 3.895687e+000 6.459941e+000 8.052202e-001 6.563638e-001 6.036784e-001 9.326379e-001 8.072266e-001 8.302814e-001 9.136011e-001 8.850853e-001 8.600187e-001 7.311555e-001 6.943062e-001 5.284876e-001 9.041109e-001
<GCONST> 1.378151e+002
<TRANSP> 5
 0.000000e+000 1.000000e+000 0.000000e+000 0.000000e+000 0.000000e+000
 0.000000e+000 6.519111e-001 3.480888e-001 0.000000e+000 0.000000e+000
 0.000000e+000 0.000000e+000 5.210494e-001 4.789506e-001 0.000000e+000
 0.000000e+000 0.000000e+000 0.000000e+000 4.655980e-001 5.344020e-001
 0.000000e+000 0.000000e+000 0.000000e+000 0.000000e+000 0.000000e+000
<ENDHMM>
~h "d"
<BEGINHMM>
<NUMSTATES> 5
<STATE> 2
<MEAN> 39
 -7.844748e+000 2.131322e-001 1.148743e+000 -9.712307e-001 -8.150220e+000 -8.008437e+000 -7.530770e+000 -5.095497e+000 -5.873505e+000 -5.035324e+000 -6.275976e+000 -3.576828e+000 4.406087e+001 -1.211534e+000 1.691003e+000 1.714999e-001 1.292737e+000 1.885403e+000 1.201364e+000 5.177557e-001 -6.748288e-001 -1.673473e-001 -2.504957e-001 -3.662620e-001 -5.087450e-001 -2.495972e+000 -2.067218e-001 -9.855738e-001 -3.006867e-001 -9.516089e-001 -2.131169e-001 9.280753e-002 -9.077299e-003 4.995323e-001 2.310853e-001 2.919011e-001 4.440650e-001 2.696760e-001 1.354138e+000
<VARIANCE> 39
 3.205126e+001 4.428572e+001 3.828014e+001 5.900199e+001 5.296492e+001 4.405276e+001 4.053576e+001 4.784584e+001 4.697533e+001 3.866368e+001 3.660031e+001 3.093041e+001 6.075318e+001 2.873226e+000 6.635934e+000 3.683874e+000 6.551338e+000 5.417289e+000 5.131675e+000 5.399883e+000 5.536379e+000 4.762014e+000 4.140444e+000 3.922315e+000 3.280325e+000 9.003325e+000 4.153902e-001 1.003455e+000 5.570343e-001 9.341398e-001 9.526497e-001 7.897578e-001 9.911297e-001 9.006433e-001 8.270509e-001 8.005127e-001 7.329198e-001 5.994201e-001 1.376836e+000
<GCONST> 1.383725e+002
<STATE> 3
<MEAN> 39
 -1.280517e+001 -7.810329e-002 -4.332992e-001 -7.889973e-001 -3.422781e+000 -3.279348e+000 -5.197880e+000 -4.300822e+000 -5.033130e+000 -3.529154e+000 -4.571024e+000 -3.233070e+000 4.065108e+001 -1.319733e+000 -2.011216e+000 -6.694659e-001 -1.896280e+000 7.761638e-002 5.537018e-001 4.477161e-001 8.621658e-001 7.172164e-001 6.199203e-001 9.882990e-001 7.046291e-001 2.618448e+000 3.673808e-001 -6.901705e-001 -9.163466e-002 -8.581107e-001 -8.948649e-001 -6.305567e-001 -2.850239e-001 3.223939e-001 1.384601e-001 1.640889e-001 1.834719e-001 2.107731e-001 1.674767e+000
<VARIANCE> 39
 4.228344e+001 4.122634e+001 3.492692e+001 4.146358e+001 3.814779e+001 3.601543e+001 3.629298e+001 3.791525e+001 3.625283e+001 2.957094e+001 2.745043e+001 2.276514e+001 7.464210e+001 3.770594e+000 5.233203e+000 3.730152e+000 5.412982e+000 4.538635e+000 4.969734e+000 4.810723e+000 4.968306e+000 4.666096e+000 3.760584e+000 3.367794e+000 2.743200e+000 1.079475e+001 5.952083e-001 9.294544e-001 6.473048e-001 8.875828e-001 8.889962e-001 8.767124e-001 8.997697e-001 8.878394e-001 8.328877e-001 6.920993e-001 6.810225e-001 5.566962e-001 1.349564e+000
<GCONST> 1.355025e+002
<STATE> 4
<MEAN> 39
 -1.476128e+001 -7.462277e+000 -2.436517e+000 -9.582739e+000 -7.562335e+000 -5.746653e+000 -4.808664e+000 -1.460331e+000 -2.626040e+000 -1.765536e+000 -1.846141e+000 -4.037540e-001 5.575076e+001 8.788771e-001 -1.163829e+000 -1.131578e-001 -1.627620e+000 -1.627201e+000 -1.361058e+000 -8.433110e-001 7.319897e-001 3.498763e-001 3.097985e-001 2.095787e-001 2.589767e-001 3.474087e+000 7.789497e-001 3.050444e-001 4.912454e-002 4.444643e-001 -1.992431e-001 -1.616294e-001 -3.030722e-001 -4.301533e-002 -1.998109e-001 -7.082808e-002 -2.604142e-001 -2.896706e-001 -7.096185e-001
<VARIANCE> 39
 5.187882e+001 4.251254e+001 4.516338e+001 4.599246e+001 5.102640e+001 5.187339e+001 4.888206e+001 4.014229e+001 3.807016e+001 2.890078e+001 2.696724e+001 2.271705e+001 6.570019e+001 7.204414e+000 4.786268e+000 4.301373e+000 6.168761e+000 6.079700e+000 6.115317e+000 6.673578e+000 5.516149e+000 5.239345e+000 4.051367e+000 4.356480e+000 3.278058e+000 1.185898e+001 8.314919e-001 9.538158e-001 8.623307e-001 1.021233e+000 1.223088e+000 1.398590e+000 1.090320e+000 9.917988e-001 9.422849e-001 7.901251e-001 8.057199e-001 6.497822e-001 1.433141e+000
<GCONST> 1.419854e+002
<TRANSP> 5
 0.000000e+000 1.000000e+000 0.000000e+000 0.000000e+000 0.000000e+000
 0.000000e+000 4.990420e-001 5.009580e-001 0.000000e+000 0.000000e+000
 0.000000e+000 0.000000e+000 4.003154e-001 5.996846e-001 0.000000e+000
 0.000000e+000 0.000000e+000 0.000000e+000 5.266827e-001 4.733173e-001
 0.000000e+000 0.000000e+000 0.000000e+000 0.000000e+000 0.000000e+000
<ENDHMM>
~h "f"
<BEGINHMM>
<NUMSTATES> 5
<STATE> 2
<MEAN> 39
 -1.615119e+001 -5.177506e+000 -6.674883e+000 -5.658904e+000 -3.480154e+000 -3.323164e+000 -2.376861e+000 -9.028757e-001 -2.114049e+000 -1.454069e+000 -2.905113e+000 -1.388012e+000 5.275869e+001 -4.061662e+000 -2.538766e-001 -2.791280e-001 9.252043e-001 5.916334e-001 4.589681e-001 7.499908e-001 5.803164e-001 7.227740e-001 3.334894e-001 4.142514e-001 6.135839e-001 -9.488685e-001 3.134645e-001 -4.757646e-001 -1.970876e-001 -4.941722e-001 -4.530534e-001 -2.185537e-001 -3.553417e-001 -2.932840e-002 -6.894166e-002 8.083028e-002 5.267975e-002 -3.966781e-002 3.303973e-001
<VARIANCE> 39
 5.389984e+001 1.795801e+001 2.075802e+001 2.310388e+001 1.943646e+001 2.780192e+001 2.432474e+001 2.377038e+001 2.392860e+001 2.286547e+001 1.979751e+001 1.645697e+001 3.665483e+001 5.043226e+000 3.668015e+000 4.487494e+000 5.213908e+000 4.032557e+000 4.707022e+000 4.629283e+000 4.063675e+000 4.136778e+000 3.642514e+000 3.676865e+000 2.743690e+000 3.075966e+000 1.036287e+000 5.631450e-001 5.476582e-001 6.725544e-001 5.860103e-001 5.966683e-001 6.784712e-001 6.603926e-001 6.173331e-001 5.791582e-001 5.136248e-001 4.491681e-001 4.755930e-001
<GCONST> 1.245366e+002
<STATE> 3
<MEAN> 39
 -2.379567e+001 -8.523664e+000 -9.432240e+000 -6.474771e+000 -4.922283e+000 -3.941865e+000 -3.037746e+000 -2.818982e-001 -1.042727e+000 -1.765275e-001 -1.743400e+000 -8.947714e-002 5.257957e+001 1.347806e-002 -1.918737e-001 -1.680389e-001 -1.091731e-001 -7.073195e-002 -4.772149e-002 -6.460208e-002 -4.074604e-002 4.338491e-002 8.661325e-002 4.069984e-002 1.042891e-002 9.731498e-002 8.135681e-001 1.529848e-001 1.455264e-001 -8.766962e-002 -8.136374e-003 -5.369012e-002 -1.023241e-001 -9.165636e-002 -9.662239e-002 -7.757968e-002 -6.639429e-002 -1.091776e-001 1.038170e-001
<VARIANCE> 39
 1.109854e+001 1.321632e+001 1.095292e+001 1.233910e+001 1.281454e+001 1.414492e+001 1.491739e+001 1.433111e+001 1.421335e+001 1.409099e+001 1.341268e+001 1.194078e+001 2.929662e+001 2.075481e+000 9.897922e-001 1.149127e+000 1.230266e+000 1.342394e+000 1.425135e+000 1.534546e+000 1.597412e+000 1.590351e+000 1.528956e+000 1.465527e+000 1.324367e+000 1.512140e+000 5.031753e-001 2.416516e-001 2.847798e-001 3.403456e-001 3.370346e-001 3.796281e-001 4.085582e-001 3.945135e-001 3.854966e-001 3.553080e-001 3.564568e-001 3.095827e-001 3.003829e-001
<GCONST> 9.674979e+001
<STATE> 4
<MEAN> 39
 -1.742722e+001 -7.241926e+000 -7.986802e+000 -7.007019e+000 -4.562900e+000 -3.974828e+000 -2.978060e+000 -9.407218e-001 -1.258444e+000 -4.108436e-001 -1.996605e+000 -8.800099e-001 5.317102e+001 4.743236e+000 2.107115e-001 1.822206e-001 -1.366777e+000 -1.042708e+000 -5.746890e-001 -1.201165e+000 -5.578098e-001 -5.679790e-001 -4.286352e-001 -1.495782e-001 -5.345158e-001 1.007838e+000 6.393680e-001 -2.643037e-001 -1.236331e-001 -4.751248e-001 -4.520370e-001 -1.121316e-001 -4.454627e-001 1.786494e-002 -1.313915e-001 -7.526770e-002 5.899553e-002 -6.333061e-002 3.514307e-001
<VARIANCE> 39
 4.591525e+001 1.911306e+001 2.051958e+001 2.224448e+001 1.969728e+001 2.309879e+001 2.185019e+001 2.087313e+001 1.944011e+001 1.748706e+001 1.652856e+001 1.426344e+001 3.742992e+001 5.934908e+000 3.391766e+000 4.696064e+000 5.158958e+000 4.468210e+000 5.364636e+000 5.356170e+000 4.008521e+000 4.108388e+000 3.153394e+000 3.413977e+000 2.575089e+000 4.738235e+000 9.612287e-001 5.209223e-001 5.466727e-001 6.541042e-001 6.271319e-001 7.245094e-001 7.777137e-001 6.839687e-001 6.718356e-001 5.927600e-001 5.225196e-001 4.341167e-001 6.243468e-001
<GCONST> 1.244434e+002
<TRANSP> 5
 0.000000e+000 1.000000e+000 0.000000e+000 0.000000e+000 0.000000e+000
 0.000000e+000 5.825555e-001 4.174445e-001 0.000000e+000 0.000000e+000
 0.000000e+000 0.000000e+000 8.315539e-001 1.684460e-001 0.000000e+000
 0.000000e+000 0.000000e+000 0.000000e+000 5.871405e-001 4.128595e-001
 0.000000e+000 0.000000e+000 0.000000e+000 0.000000e+000 0.000000e+000
<ENDHMM>
~h "g"
<BEGINHMM>
<NUMSTATES> 5
<STATE> 2
<MEAN> 39
 -7.145099e+000 -3.994688e-001 1.556726e+000 -1.573212e+000 -1.145134e+001 -1.156294e+001 -5.414303e+000 -3.422039e+000 -1.184635e+001 -4.532663e+000 -1.649241e+000 -3.925470e+000 4.573170e+001 -1.082100e+000 1.796685e+000 -5.442954e-001 1.668250e+000 2.331612e+000 9.409723e-001 -1.892144e-001 -8.932584e-001 7.896721e-001 -5.758312e-001 -7.535541e-001 -6.927993e-002 -3.154969e+000 -1.674039e-001 -1.051221e+000 -7.062398e-001 -7.116992e-001 3.185393e-001 3.474737e-001 -7.483443e-002 2.707610e-001 7.315950e-001 4.683518e-001 -7.451168e-002 1.767349e-001 1.148362e+000
<VARIANCE> 39
 2.186837e+001 3.868599e+001 4.138160e+001 4.407231e+001 5.610155e+001 5.249379e+001 5.222773e+001 8.064458e+001 5.234766e+001 5.659647e+001 6.169781e+001 3.707964e+001 4.824948e+001 2.520656e+000 7.036435e+000 4.650246e+000 5.723341e+000 6.345159e+000 5.817943e+000 6.673865e+000 8.007139e+000 6.197126e+000 6.036529e+000 4.944636e+000 3.427475e+000 6.670523e+000 3.358462e-001 1.081104e+000 7.084819e-001 8.953369e-001 9.391708e-001 1.003016e+000 1.092567e+000 1.151600e+000 1.012213e+000 1.089834e+000 8.726628e-001 6.751485e-001 1.266397e+000
<GCONST> 1.424664e+002
<STATE> 3
<MEAN> 39
 -1.244415e+001 2.022455e-001 -2.028120e+000 8.772023e-001 -2.841123e+000 -6.164342e+000 -5.880808e+000 -4.158572e+000 -6.325888e+000 -3.551189e+000 -3.643598e+000 -2.767115e+000 3.998587e+001 -7.598646e-001 -2.806913e+000 -2.474714e+000 -1.392779e+000 1.586243e+000 8.892184e-001 -1.331418e-001 5.940890e-001 1.626953e+000 1.245378e+000 -5.744705e-002 6.179748e-001 2.153443e+000 5.696154e-001 -8.264420e-001 -1.647555e-001 -1.030805e+000 -8.268089e-001 -4.746001e-001 -1.407399e-001 1.788953e-001 -1.769089e-001 3.962898e-001 2.858180e-001 7.292993e-002 1.782244e+000
<VARIANCE> 39
 3.542532e+001 4.057230e+001 3.841734e+001 2.933041e+001 4.068215e+001 4.737786e+001 3.908310e+001 4.226249e+001 3.869904e+001 3.058607e+001 2.700516e+001 2.047477e+001 4.668017e+001 3.441872e+000 7.620934e+000 6.260369e+000 5.907507e+000 7.311576e+000 7.057930e+000 6.678072e+000 7.956347e+000 6.037062e+000 5.153331e+000 4.190946e+000 3.344221e+000 8.308662e+000 6.252820e-001 1.256193e+000 9.941473e-001 1.030709e+000 9.692273e-001 1.066632e+000 1.037471e+000 1.125780e+000 8.629091e-001 9.061826e-001 8.544769e-001 5.164837e-001 1.138723e+000
<GCONST> 1.402095e+002
<STATE> 4
<MEAN> 39
 -1.114373e+001 -1.011924e+001 -9.261891e+000 -7.131088e+000 -2.750281e+000 -7.471636e+000 -6.998844e+000 -2.566566e+000 -3.497377e+000 1.136725e+000 -2.881800e+000 -1.064083e+000 5.382038e+001 1.411769e+000 -3.082282e-001 1.098264e-002 -1.583251e+000 -9.237268e-001 -7.520224e-001 -1.148312e+000 -1.386807e-001 6.497937e-002 4.154318e-001 4.030440e-001 1.420986e-001 2.621385e+000 6.106585e-001 8.283875e-001 7.419564e-001 2.056433e-001 -6.485247e-001 -2.264235e-001 -1.959663e-001 -5.950773e-002 -4.736453e-001 -4.810129e-001 1.399176e-001 -1.908288e-001 -4.975393e-001
<VARIANCE> 39
 3.042494e+001 5.580836e+001 7.969912e+001 4.793182e+001 6.706387e+001 6.574631e+001 6.035484e+001 5.597979e+001 4.747894e+001 3.980473e+001 3.397658e+001 2.448938e+001 3.395499e+001 4.708268e+000 7.915082e+000 7.058286e+000 7.370563e+000 6.673473e+000 6.740464e+000 6.049541e+000 5.737000e+000 6.024938e+000 5.626922e+000 4.227221e+000 3.118442e+000 6.304287e+000 6.058152e-001 1.550733e+000 1.402739e+000 1.101546e+000 1.252774e+000 1.237786e+000 1.252353e+000 1.317055e+000 1.204885e+000 1.093477e+000 8.632587e-001 6.838723e-001 8.288692e-001
<GCONST> 1.454117e+002
<TRANSP> 5
 0.000000e+000 1.000000e+000 0.000000e+000 0.000000e+000 0.000000e+000
 0.000000e+000 5.640603e-001 4.359397e-001 0.000000e+000 0.000000e+000
 0.000000e+000 0.000000e+000 4.855318e-001 5.144681e-001 0.000000e+000
 0.000000e+000 0.000000e+000 0.000000e+000 6.472598e-001 3.527402e-001
 0.000000e+000 0.000000e+000 0.000000e+000 0.000000e+000 0.000000e+000
<ENDHMM>
~h "k"
<BEGINHMM>
<NUMSTATES> 5
<STATE> 2
<MEAN> 39
 -1.175344e+001 -3.986148e+000 -1.822278e+000 -3.155255e+000 -7.147387e+000 -9.843649e+000 -4.859979e+000 -4.896405e-001 -7.699870e+000 -1.493449e+000 -1.629307e+000 -1.764391e+000 4.635269e+001 -2.659883e+000 1.341886e+000 -4.118748e-001 1.987066e+000 2.239140e+000 2.379255e+000 1.005094e+000 -7.325458e-001 1.077291e+000 3.979837e-001 5.421895e-002 3.467354e-001 -5.154555e+000 -1.197597e-001 -7.343439e-001 -5.819142e-001 -5.900011e-001 7.005743e-002 4.412210e-001 5.566974e-002 2.674640e-001 6.148791e-001 1.435371e-001 -8.520060e-003 2.361066e-002 6.918867e-001
<VARIANCE> 39
 4.230106e+001 3.667699e+001 6.183625e+001 5.358908e+001 9.004856e+001 7.176552e+001 6.632992e+001 8.154178e+001 6.905979e+001 4.890934e+001 5.090533e+001 3.211564e+001 6.720524e+001 5.687844e+000 5.314412e+000 6.747603e+000 5.657782e+000 7.961037e+000 6.997603e+000 7.252978e+000 7.695139e+000 7.650522e+000 5.367941e+000 5.779076e+000 3.434720e+000 6.030560e+000 7.455359e-001 1.021940e+000 8.352081e-001 1.077381e+000 1.478913e+000 1.292079e+000 1.087175e+000 1.415749e+000 1.353895e+000 1.019600e+000 9.710350e-001 7.099510e-001 2.014530e+000
<GCONST> 1.491770e+002
<STATE> 3
<MEAN> 39
 -1.960196e+001 -3.499410e+000 -5.117231e+000 -5.259095e-001 -1.025182e+000 -9.643801e-001 -1.724709e+000 3.845593e-001 -1.018765e+000 7.931911e-001 -5.563374e-001 -3.060878e-001 3.430631e+001 -3.092040e-001 -1.546968e+000 -1.231905e+000 -1.024319e+000 1.182707e-001 6.329389e-001 3.114824e-001 1.413958e-001 5.312821e-001 5.561528e-001 -1.347397e-002 2.413512e-001 1.201288e+000 7.412090e-001 -5.277174e-001 -5.531679e-002 -8.649374e-001 -6.629215e-001 -9.325746e-001 -3.874978e-001 1.430563e-002 -4.811120e-001 -6.732181e-002 -1.597975e-001 -9.568515e-002 2.388007e+000
<VARIANCE> 39
 1.062081e+001 1.611412e+001 1.731805e+001 1.664807e+001 1.985389e+001 2.161596e+001 2.323871e+001 2.438988e+001 2.387981e+001 1.987311e+001 1.675010e+001 1.481105e+001 2.446063e+001 4.790531e+000 5.015119e+000 5.149966e+000 5.144252e+000 5.679909e+000 6.252698e+000 4.880105e+000 5.017311e+000 5.790060e+000 3.660954e+000 3.354652e+000 2.581544e+000 1.609775e+001 6.437033e-001 7.620525e-001 8.543061e-001 7.425638e-001 9.001842e-001 8.573148e-001 8.775333e-001 8.674494e-001 7.718756e-001 6.364706e-001 6.466736e-001 4.405822e-001 1.418149e+000
<GCONST> 1.276578e+002
<STATE> 4
<MEAN> 39
 -1.602352e+001 -1.037467e+001 -7.642434e+000 -9.330151e+000 -4.374065e+000 -4.982111e+000 -2.829046e+000 -3.151555e-001 -2.784326e+000 1.767305e+000 -2.376820e+000 -3.743293e-001 5.451637e+001 1.020177e+000 9.522793e-002 2.561136e-001 -9.151587e-001 -8.490354e-001 -7.316279e-001 -1.591992e-001 -1.237500e-001 -3.599710e-001 -3.966697e-001 -1.380963e-001 -2.169608e-001 2.303012e+000 2.420847e-001 4.461848e-001 3.264423e-001 2.656903e-001 -1.423749e-001 -3.504156e-002 -1.088155e-001 6.501560e-003 -1.026895e-001 -2.635786e-001 8.130585e-002 -1.003114e-001 -5.237545e-001
<VARIANCE> 39
 3.034276e+001 3.921938e+001 7.184287e+001 4.536780e+001 5.553020e+001 4.840516e+001 4.991410e+001 4.503199e+001 3.989670e+001 3.429340e+001 2.911370e+001 2.260693e+001 4.923299e+001 5.437893e+000 4.906006e+000 4.341420e+000 5.276314e+000 4.482545e+000 4.801124e+000 4.572906e+000 4.430534e+000 4.689189e+000 3.936153e+000 3.366960e+000 2.657776e+000 1.045756e+001 7.660207e-001 1.248628e+000 9.976633e-001 9.754900e-001 9.111909e-001 9.366484e-001 9.534379e-001 8.821583e-001 9.032917e-001 7.594459e-001 6.638947e-001 5.408257e-001 1.719980e+000
<GCONST> 1.387550e+002
<TRANSP> 5
 0.000000e+000 1.000000e+000 0.000000e+000 0.000000e+000 0.000000e+000
 0.000000e+000 5.570233e-001 4.429768e-001 0.000000e+000 0.000000e+000
 0.000000e+000 0.000000e+000 6.272929e-001 3.727072e-001 0.000000e+000
 0.000000e+000 0.000000e+000 0.000000e+000 7.711792e-001 2.288208e-001
 0.000000e+000 0.000000e+000 0.000000e+000 0.000000e+000 0.000000e+000
<ENDHMM>
~h "l"
<BEGINHMM>
<NUMSTATES> 5
<STATE> 2
<MEAN> 39
 -1.203006e+000 -3.587670e+000 -1.083866e+001 -2.391801e+001 -8.392172e+000 1.373287e+000 -7.361218e+000 -7.408578e+000 -4.127255e+000 -8.803614e-001 -1.008836e-001 -2.288741e+000 5.898764e+001 5.598549e-001 5.137474e-001 -1.856926e-001 -1.059748e+000 6.617926e-003 5.582847e-001 -1.686357e-001 -4.547752e-001 -5.198105e-001 -6.220618e-002 3.979030e-001 2.316794e-001 -1.139528e-001 -2.790194e-001 -3.798064e-001 6.743279e-002 5.400823e-001 8.653963e-002 -3.057944e-001 -7.269085e-002 3.306712e-001 2.497828e-001 7.524571e-002 -1.457136e-001 -1.172470e-001 8.378425e-002
<VARIANCE> 39
 1.274747e+001 4.783590e+001 4.758294e+001 7.348454e+001 6.140791e+001 6.930012e+001 7.656477e+001 6.460982e+001 6.469167e+001 6.133686e+001 5.698153e+001 4.058110e+001 3.000001e+001 1.870746e+000 2.663995e+000 2.045402e+000 4.882694e+000 3.281094e+000 4.163485e+000 4.191995e+000 4.141447e+000 3.742352e+000 3.793950e+000 3.309046e+000 2.876836e+000 1.853893e+000 2.805417e-001 4.289991e-001 3.424463e-001 6.226432e-001 6.227241e-001 6.509092e-001 6.936541e-001 7.986382e-001 8.098561e-001 7.607585e-001 6.061906e-001 5.725383e-001 2.354721e-001
<GCONST> 1.293004e+002
<STATE> 3
<MEAN> 39
 -1.334327e+000 -5.869168e+000 -1.099949e+001 -2.328734e+001 -6.486588e+000 1.192994e+000 -1.017233e+001 -8.156900e+000 -3.486885e+000 2.246336e+000 1.182248e+000 -4.122366e+000 6.041864e+001 -3.579625e-001 -1.467543e+000 9.364270e-002 1.335279e+000 4.295182e-001 -1.028182e+000 -1.112106e+000 8.174248e-001 1.596402e+000 8.479670e-001 -8.902883e-001 -1.192770e+000 7.841466e-001 -3.691796e-001 -1.816894e-001 3.924878e-001 7.404402e-001 -2.501263e-001 -5.850809e-001 2.578863e-001 6.746931e-001 2.201732e-001 -4.443938e-001 -5.180828e-001 1.234547e-001 -1.034761e-001
<VARIANCE> 39
 1.058543e+001 3.464128e+001 4.928011e+001 6.163240e+001 5.061084e+001 6.844178e+001 7.523899e+001 5.737393e+001 5.936013e+001 5.829642e+001 6.052978e+001 4.250449e+001 2.617888e+001 9.617332e-001 3.441322e+000 2.304638e+000 4.733930e+000 3.312005e+000 5.028526e+000 4.774209e+000 4.761911e+000 4.984349e+000 4.221983e+000 3.753873e+000 3.398439e+000 2.326477e+000 3.193781e-001 3.883562e-001 3.983724e-001 6.575419e-001 7.323178e-001 7.051209e-001 7.385483e-001 8.243074e-001 8.191330e-001 7.926672e-001 6.179084e-001 6.535966e-001 2.655355e-001
<GCONST> 1.300993e+002
<STATE> 4
<MEAN> 39
 -3.079609e+000 -9.284240e+000 -8.255521e+000 -1.716900e+001 -7.630732e+000 -6.047969e+000 -1.238570e+001 -2.290814e+000 8.306514e-001 6.169760e-001 -4.355984e+000 -4.727472e+000 6.153890e+001 -8.426387e-001 -7.091029e-001 1.775940e+000 2.062991e+000 -1.302747e+000 -2.027745e+000 5.203303e-001 1.948194e+000 -2.377881e-001 -1.336141e+000 -7.837258e-001 7.225024e-001 6.674214e-002 -1.586716e-001 3.095688e-001 3.789237e-001 -6.121241e-002 -3.115845e-001 3.074827e-001 5.677559e-001 -2.248214e-001 -8.065987e-001 -2.687576e-001 4.381562e-001 3.405780e-001 -2.998501e-001
<VARIANCE> 39
 1.193641e+001 3.708390e+001 6.010571e+001 6.993236e+001 5.258762e+001 9.068021e+001 7.642145e+001 6.694060e+001 6.345380e+001 6.441413e+001 6.429421e+001 4.528170e+001 3.258430e+001 1.203788e+000 2.974399e+000 4.080501e+000 4.377828e+000 5.168407e+000 5.163063e+000 4.824733e+000 5.296838e+000 6.223719e+000 4.299440e+000 4.013376e+000 3.563708e+000 2.297948e+000 2.504477e-001 3.280869e-001 3.657949e-001 7.217230e-001 6.643557e-001 9.301612e-001 7.995810e-001 9.568219e-001 9.408379e-001 9.099871e-001 6.471732e-001 6.898097e-001 2.072491e-001
<GCONST> 1.332464e+002
<TRANSP> 5
 0.000000e+000 1.000000e+000 0.000000e+000 0.000000e+000 0.000000e+000
 0.000000e+000 7.112816e-001 2.887184e-001 0.000000e+000 0.000000e+000
 0.000000e+000 0.000000e+000 4.500470e-001 5.499530e-001 0.000000e+000
 0.000000e+000 0.000000e+000 0.000000e+000 4.698617e-001 5.301384e-001
 0.000000e+000 0.000000e+000 0.000000e+000 0.000000e+000 0.000000e+000
<ENDHMM>
~h "m"
<BEGINHMM>
<NUMSTATES> 5
<STATE> 2
<MEAN> 39
 -4.899868e+000 -3.395184e+000 -5.140481e+000 -4.698157e+000 -6.626276e+000 -7.235876e+000 -6.096312e+000 -7.955341e+000 -1.062576e+001 -1.947990e+000 -2.207108e+000 -5.815510e+000 5.056137e+001 4.684749e-001 1.306415e+000 9.519202e-001 1.619798e+000 3.612599e-002 -1.080554e+000 2.234247e-002 -2.153960e+000 -2.323518e+000 2.497621e-001 1.489396e-001 -7.989913e-001 -6.918179e-001 -2.279471e-001 -4.488003e-001 5.205329e-002 -3.873816e-001 -2.036530e-001 1.489653e-001 -1.159192e-001 5.213737e-001 4.834946e-001 -7.676392e-002 -6.561636e-002 1.942689e-001 5.086039e-001
<VARIANCE> 39
 2.451687e+001 2.986856e+001 3.379194e+001 4.925425e+001 4.571154e+001 5.741864e+001 6.181188e+001 6.275512e+001 6.708852e+001 5.306898e+001 6.687137e+001 4.391113e+001 3.932004e+001 4.939718e+000 2.857151e+000 3.682611e+000 4.083260e+000 4.969541e+000 4.334959e+000 6.044332e+000 5.308039e+000 5.839940e+000 4.902009e+000 5.029538e+000 3.826166e+000 4.986506e+000 3.826679e-001 3.983878e-001 5.982942e-001 5.950092e-001 6.318364e-001 6.362643e-001 7.658584e-001 7.957359e-001 9.452048e-001 6.822632e-001 7.183111e-001 5.431281e-001 3.573800e-001
<GCONST> 1.347461e+002
<STATE> 3
<MEAN> 39
 -4.109897e+000 -3.094476e+000 -3.075559e+000 -3.174533e+000 -7.664869e+000 -8.684562e+000 -7.133409e+000 -1.071703e+001 -1.346871e+001 -1.127678e+000 -2.327647e+000 -6.982854e+000 5.145595e+001 -1.890448e-002 -7.649736e-002 1.284166e-001 -8.627256e-002 -1.133757e-001 5.557552e-002 -9.704711e-002 4.971774e-002 1.625057e-001 -1.515522e-001 -1.053872e-001 8.460097e-002 2.542527e-001 -1.232884e-001 -4.304130e-001 -2.614803e-001 -6.550691e-001 -1.112613e-001 3.619984e-001 -1.506609e-002 7.767653e-001 8.111284e-001 -1.683838e-001 -7.167537e-002 3.059744e-001 3.597045e-001
<VARIANCE> 39
 8.603891e+000 2.292869e+001 3.105590e+001 4.913847e+001 5.111661e+001 6.981009e+001 6.536328e+001 6.695709e+001 6.247107e+001 6.252490e+001 8.445920e+001 5.457298e+001 2.021056e+001 1.201566e+000 1.834569e+000 1.470714e+000 2.030976e+000 2.137523e+000 2.043357e+000 2.513846e+000 2.681487e+000 3.207248e+000 2.427900e+000 2.418056e+000 2.019134e+000 2.251587e+000 3.306788e-001 2.954591e-001 5.036368e-001 5.153531e-001 5.944957e-001 5.664762e-001 6.749189e-001 7.391484e-001 8.669567e-001 6.853081e-001 7.202497e-001 6.016706e-001 2.353416e-001
<GCONST> 1.220233e+002
<STATE> 4
<MEAN> 39
 -4.444525e+000 -5.123328e+000 -4.792464e+000 -5.869037e+000 -7.977754e+000 -7.217580e+000 -7.428740e+000 -7.341875e+000 -9.029193e+000 -2.845440e+000 -2.672666e+000 -5.415833e+000 5.353849e+001 -2.456660e-001 -1.611494e+000 -3.398569e-001 -2.248851e+000 -9.174554e-001 9.930437e-001 -1.540115e-001 2.457954e+000 2.350612e+000 -6.612565e-001 -3.734331e-001 9.340827e-001 1.729290e+000 -2.741312e-001 -2.127459e-001 1.091321e-001 -3.896822e-001 -1.350139e-001 2.328149e-001 1.578423e-001 4.553752e-001 1.526699e-001 8.182318e-002 9.179120e-003 1.317236e-001 1.513979e-001
<VARIANCE> 39
 1.735311e+001 3.209946e+001 3.516575e+001 5.155092e+001 4.674557e+001 6.105198e+001 5.599646e+001 6.230571e+001 7.238336e+001 5.022637e+001 6.386322e+001 4.125258e+001 4.130119e+001 2.647703e+000 3.389185e+000 5.701431e+000 5.185465e+000 5.877990e+000 4.958854e+000 5.561226e+000 5.440983e+000 6.574040e+000 5.097388e+000 5.359097e+000 4.035216e+000 4.016428e+000 3.869090e-001 4.595663e-001 6.007666e-001 6.708760e-001 6.777394e-001 6.742115e-001 7.407292e-001 8.718770e-001 1.166817e+000 6.854191e-001 6.871806e-001 5.368240e-001 4.092101e-001
<GCONST> 1.357808e+002
<TRANSP> 5
 0.000000e+000 1.000000e+000 0.000000e+000 0.000000e+000 0.000000e+000
 0.000000e+000 4.304897e-001 5.695103e-001 0.000000e+000 0.000000e+000
 0.000000e+000 0.000000e+000 6.602623e-001 3.397377e-001 0.000000e+000
 0.000000e+000 0.000000e+000 0.000000e+000 4.189034e-001 5.810966e-001
 0.000000e+000 0.000000e+000 0.000000e+000 0.000000e+000 0.000000e+000
<ENDHMM>
~h "n"
<BEGINHMM>
<NUMSTATES> 5
<STATE> 2
<MEAN> 39
 -4.282439e+000 -6.697542e+000 -3.260958e+000 -8.191507e+000 -1.132926e+001 -7.885157e+000 -6.377219e+000 -3.529193e+000 -7.656603e+000 -2.701705e+000 -5.237823e+000 -4.546557e+000 5.512577e+001 1.688701e-001 1.837193e+000 9.834042e-002 1.751951e+000 1.052845e-001 -6.847863e-001 1.261298e+000 -3.002462e+000 -1.436138e+000 1.252193e+000 -7.809995e-001 -2.568216e-001 -2.014007e+000 -1.840899e-001 -3.255740e-002 4.425570e-002 -1.545325e-001 -4.581751e-002 1.519062e-001 5.876219e-002 3.004949e-002 1.083099e-001 -7.825636e-003 4.601020e-002 1.137839e-001 1.224008e-001
<VARIANCE> 39
 1.127292e+001 3.555379e+001 4.508557e+001 5.873638e+001 5.335511e+001 5.462712e+001 5.637158e+001 7.976460e+001 7.895110e+001 6.110531e+001 6.137751e+001 4.791124e+001 3.041847e+001 1.495411e+000 2.627116e+000 4.464333e+000 3.712153e+000 4.844425e+000 5.211387e+000 5.215481e+000 6.728297e+000 6.335897e+000 4.753786e+000 4.238540e+000 3.680727e+000 2.144186e+000 2.113587e-001 3.088443e-001 4.066000e-001 4.635732e-001 5.739511e-001 5.424736e-001 6.142299e-001 9.439640e-001 7.421945e-001 6.388010e-001 5.527823e-001 4.733235e-001 2.648877e-001
<GCONST> 1.301764e+002
<STATE> 3
<MEAN> 39
 -4.212888e+000 -2.232627e+000 -2.633589e+000 -5.003272e+000 -1.213932e+001 -8.856916e+000 -2.494599e+000 -1.105178e+001 -1.108356e+001 4.819773e-001 -7.153084e+000 -4.323266e+000 5.103112e+001 -2.019952e-001 8.802420e-001 1.477293e-001 5.516096e-001 1.835760e-001 1.341259e-002 2.462394e-001 -8.514775e-001 -3.378321e-001 8.229083e-002 -1.870510e-001 4.209721e-002 -8.755607e-001 -3.141361e-001 -5.006603e-001 -2.093613e-002 -4.918890e-001 2.271778e-001 2.615865e-001 -4.867215e-001 1.079775e+000 5.673664e-001 -4.794867e-001 2.926260e-001 1.155096e-001 4.604202e-001
<VARIANCE> 39
 8.949224e+000 2.932235e+001 2.989719e+001 5.165498e+001 4.702393e+001 5.066960e+001 5.619055e+001 7.272875e+001 6.575008e+001 6.141838e+001 6.590290e+001 5.335810e+001 2.353084e+001 9.399467e-001 2.202027e+000 1.919265e+000 2.303496e+000 2.557384e+000 2.630116e+000 3.223895e+000 5.048946e+000 3.576561e+000 3.086216e+000 2.528450e+000 2.154587e+000 1.850326e+000 2.979340e-001 4.590763e-001 5.494033e-001 6.023104e-001 7.254761e-001 7.271304e-001 7.851697e-001 1.034369e+000 1.008340e+000 7.737682e-001 7.087626e-001 6.070143e-001 3.555501e-001
<GCONST> 1.258609e+002
<STATE> 4
<MEAN> 39
 -6.716866e+000 -3.744532e+000 -3.473659e+000 -6.134434e+000 -9.869049e+000 -7.215715e+000 -4.778414e+000 -6.698818e+000 -7.879618e+000 -1.837109e+000 -6.186080e+000 -3.844275e+000 5.039276e+001 -9.533060e-001 -6.342816e-001 -3.091008e-001 -8.581244e-001 7.946056e-001 7.543847e-001 -6.700674e-001 1.607591e+000 1.069617e+000 -6.160013e-001 5.710925e-001 2.225761e-001 4.775481e-001 -2.293354e-001 -3.890726e-001 -1.696774e-001 -4.237054e-001 3.506177e-002 2.205179e-001 -8.744225e-003 5.516787e-001 2.994013e-001 -3.554863e-002 2.125594e-001 1.271447e-001 4.562655e-001
<VARIANCE> 39
 2.713004e+001 5.138565e+001 4.031762e+001 5.682936e+001 5.218781e+001 5.107008e+001 5.676854e+001 7.860719e+001 7.019952e+001 5.717723e+001 5.422665e+001 4.570097e+001 5.753912e+001 3.841669e+000 4.310265e+000 4.071769e+000 5.009137e+000 5.168614e+000 4.817753e+000 5.557312e+000 7.405629e+000 6.292845e+000 5.031692e+000 4.524641e+000 3.743728e+000 5.291795e+000 6.113260e-001 8.602822e-001 6.196377e-001 7.980135e-001 8.630756e-001 8.227279e-001 9.677939e-001 1.446588e+000 1.234831e+000 9.124692e-001 7.851017e-001 6.477973e-001 7.887536e-001
<GCONST> 1.416694e+002
<TRANSP> 5
 0.000000e+000 1.000000e+000 0.000000e+000 0.000000e+000 0.000000e+000
 0.000000e+000 3.567047e-001 6.432953e-001 0.000000e+000 0.000000e+000
 0.000000e+000 0.000000e+000 5.779427e-001 4.220573e-001 0.000000e+000
 0.000000e+000 0.000000e+000 0.000000e+000 4.846994e-001 5.153006e-001
 0.000000e+000 0.000000e+000 0.000000e+000 0.000000e+000 0.000000e+000
<ENDHMM>
~h "p"
<BEGINHMM>
<NUMSTATES> 5
<STATE> 2
<MEAN> 39
 -1.110133e+001 8.355317e-001 -3.862395e+000 -2.847727e+000 -2.892572e+000 -2.698064e+000 -5.044781e+000 -5.133995e+000 -5.865202e+000 -2.667864e+000 -2.830594e+000 -2.983582e+000 3.961691e+001 -3.318473e+000 9.146370e-001 3.339109e-001 2.118626e+000 1.485113e+000 1.416746e+000 1.571069e+000 7.276334e-001 8.655034e-001 2.531614e-001 8.218309e-002 5.374978e-001 -4.594982e+000 -1.595371e-001 -1.014525e+000 -2.789769e-001 -6.599575e-001 -4.100235e-001 -1.718344e-001 3.152132e-004 5.325068e-001 4.763995e-001 3.855697e-001 2.371556e-001 1.617318e-001 1.267510e+000
<VARIANCE> 39
 4.287118e+001 2.305936e+001 2.584078e+001 3.867003e+001 2.562589e+001 2.798149e+001 3.130323e+001 3.351594e+001 3.682822e+001 3.060922e+001 2.966734e+001 2.322239e+001 4.410926e+001 5.232548e+000 5.845686e+000 5.325427e+000 6.825215e+000 4.602640e+000 5.293097e+000 4.902651e+000 5.308075e+000 5.713268e+000 4.806616e+000 4.444988e+000 3.277466e+000 8.562216e+000 9.456486e-001 7.438025e-001 7.457864e-001 1.027320e+000 8.110712e-001 7.686619e-001 8.146887e-001 8.601949e-001 8.587480e-001 7.668380e-001 6.998688e-001 5.592319e-001 1.433778e+000
<GCONST> 1.355238e+002
<STATE> 3
<MEAN> 39
 -1.953786e+001 -2.158431e+000 -5.172275e+000 -1.154963e+000 -1.457475e+000 2.330881e-001 -1.051802e+000 2.470329e-002 -3.405069e-001 9.685756e-001 -1.035755e-002 -1.480703e-002 3.260492e+001 -2.909698e-001 -1.070247e+000 -4.757928e-001 -5.000001e-001 -1.742125e-001 -1.749774e-001 2.555627e-001 5.437774e-001 6.878345e-001 4.278514e-001 3.308933e-001 3.199071e-001 1.680502e+000 8.269569e-001 -3.197922e-001 -5.892720e-002 -5.828387e-001 -2.878939e-001 -4.689346e-001 -3.678025e-001 -2.182428e-001 -2.318406e-001 -1.880526e-001 -1.599599e-001 -1.746120e-001 1.953997e+000
<VARIANCE> 39
 4.413418e+000 5.878845e+000 6.376253e+000 8.841764e+000 9.604624e+000 1.140840e+001 1.189431e+001 1.439662e+001 1.398839e+001 1.388978e+001 1.226229e+001 1.164231e+001 1.268972e+001 2.787051e+000 2.055276e+000 1.643164e+000 2.473561e+000 1.805482e+000 2.516761e+000 2.416828e+000 2.890770e+000 2.950999e+000 2.410753e+000 2.118679e+000 1.879274e+000 1.326009e+001 5.892187e-001 3.612454e-001 4.088949e-001 5.281727e-001 4.452164e-001 5.358130e-001 5.136087e-001 4.963336e-001 5.133604e-001 4.659899e-001 4.323251e-001 3.624645e-001 1.053777e+000
<GCONST> 1.049991e+002
<STATE> 4
<MEAN> 39
 -1.475260e+001 -8.782566e+000 -7.790272e+000 -7.292308e+000 -3.135791e+000 -3.131785e+000 -1.866992e+000 -3.452581e-001 -2.877236e-001 2.830938e-001 -1.199841e+000 -7.771538e-001 5.318250e+001 1.959880e+000 -8.040268e-001 -5.872564e-001 -1.337371e+000 -6.274195e-001 -5.910683e-001 -6.971064e-001 -2.647896e-001 -4.419506e-001 -4.443713e-001 -4.619176e-001 -3.424355e-001 2.839721e+000 4.367418e-001 3.193987e-001 1.381199e-002 -3.291940e-002 -2.025347e-001 -3.982825e-004 -3.305036e-001 -1.370337e-001 -2.971755e-001 -1.658533e-001 -7.896962e-002 -1.001005e-001 -6.539853e-001
<VARIANCE> 39
 2.233100e+001 2.525119e+001 2.849807e+001 3.425774e+001 2.877238e+001 3.232759e+001 3.294490e+001 3.048261e+001 2.897538e+001 2.487502e+001 2.324607e+001 1.859011e+001 4.732758e+001 4.695522e+000 3.756539e+000 3.407527e+000 4.192533e+000 3.966130e+000 4.507044e+000 4.708433e+000 4.089229e+000 4.189871e+000 3.175764e+000 3.074810e+000 2.348813e+000 1.048047e+001 5.943463e-001 6.006970e-001 5.202925e-001 6.556157e-001 6.827433e-001 7.237178e-001 7.706802e-001 7.940812e-001 7.994090e-001 6.514280e-001 6.087710e-001 4.715799e-001 1.468749e+000
<GCONST> 1.286171e+002
<TRANSP> 5
 0.000000e+000 1.000000e+000 0.000000e+000 0.000000e+000 0.000000e+000
 0.000000e+000 5.301113e-001 4.698887e-001 0.000000e+000 0.000000e+000
 0.000000e+000 0.000000e+000 7.134868e-001 2.865132e-001 0.000000e+000
 0.000000e+000 0.000000e+000 0.000000e+000 7.582833e-001 2.417167e-001
 0.000000e+000 0.000000e+000 0.000000e+000 0.000000e+000 0.000000e+000
<ENDHMM>
~h "r"
<BEGINHMM>
<NUMSTATES> 5
<STATE> 2
<MEAN> 39
 2.133071e+000 -9.684054e+000 -1.456553e+001 -6.704837e+000 -4.005212e+000 -1.074295e+001 -1.622767e+001 -2.698062e-001 -1.702828e+000 -3.138102e+000 -1.215425e+000 3.107422e-001 5.635581e+001 1.111966e+000 -1.426580e-001 -9.173999e-001 1.214417e-001 3.255932e-001 -3.649860e-001 -1.205684e+000 1.639833e-001 5.222027e-001 -9.390668e-002 -1.876901e-001 8.758620e-002 2.018399e-001 -4.668227e-001 -2.191588e-001 4.970892e-001 6.545287e-002 -3.818227e-001 -2.064271e-003 4.300032e-001 2.788688e-001 -5.721155e-002 -1.737479e-002 6.218144e-003 -7.023691e-002 5.322560e-002
<VARIANCE> 39
 1.867151e+001 3.442265e+001 6.620616e+001 4.330781e+001 5.517572e+001 7.264143e+001 8.468348e+001 9.165439e+001 7.913248e+001 4.400981e+001 3.987445e+001 3.528660e+001 2.909042e+001 3.764474e+000 2.570548e+000 3.627713e+000 2.703569e+000 3.849029e+000 4.994554e+000 6.235859e+000 4.954936e+000 4.315651e+000 3.639596e+000 2.848605e+000 2.385407e+000 2.117997e+000 4.127789e-001 4.253467e-001 4.346209e-001 4.120747e-001 4.837565e-001 6.491217e-001 8.651717e-001 8.001235e-001 6.207250e-001 5.421483e-001 4.608752e-001 4.127849e-001 2.954389e-001
<GCONST> 1.295393e+002
<STATE> 3
<MEAN> 39
 2.585997e+000 -1.435954e+001 -1.374303e+001 -5.263516e+000 -5.997864e+000 -1.420279e+001 -1.910072e+001 5.764977e+000 8.450363e-001 -4.229915e+000 -2.001958e+000 -6.922542e-002 5.976963e+001 -4.450388e-001 -5.513824e-001 1.494885e+000 5.313837e-001 -1.340800e+000 -7.046079e-001 8.463604e-001 1.004454e+000 -4.028896e-001 -6.261061e-001 -9.541121e-002 -5.332452e-002 1.857660e-001 -6.175318e-001 2.781866e-001 6.607296e-001 -1.755007e-001 -2.767096e-001 4.702058e-001 9.610996e-001 -3.630654e-001 -5.462137e-001 6.963453e-002 1.473573e-001 -1.168178e-001 -2.575918e-001
<VARIANCE> 39
 1.180295e+001 2.526275e+001 7.139081e+001 4.717112e+001 6.817393e+001 7.839262e+001 1.139566e+002 8.511226e+001 9.091783e+001 5.312166e+001 4.368745e+001 3.528133e+001 2.094308e+001 1.495507e+000 3.165782e+000 3.077806e+000 2.805964e+000 4.001883e+000 4.297305e+000 5.301912e+000 6.124178e+000 4.234230e+000 3.453997e+000 3.310036e+000 2.427914e+000 3.032015e+000 3.966269e-001 2.731467e-001 3.824354e-001 4.302999e-001 5.635389e-001 6.235653e-001 8.921247e-001 6.869999e-001 6.411227e-001 5.675319e-001 4.492477e-001 4.043171e-001 2.373918e-001
<GCONST> 1.283199e+002
<STATE> 4
<MEAN> 39
 -7.335189e-001 -1.381698e+001 -8.830987e+000 -4.283227e+000 -9.038395e+000 -1.470702e+001 -1.175203e+001 6.079061e+000 -3.034331e+000 -5.334526e+000 -2.414054e+000 -3.786389e-001 5.785920e+001 -1.520651e+000 6.588986e-001 2.237793e+000 -4.647522e-002 -1.022432e+000 9.327363e-001 2.144568e+000 -9.196920e-001 -1.279754e+000 1.080421e-001 9.079949e-002 -4.381772e-001 -9.153658e-001 -3.964444e-001 3.902833e-001 5.958801e-002 -3.420609e-001 2.568554e-001 6.033772e-001 1.426640e-001 -5.501751e-001 -1.261919e-003 3.152405e-001 -3.928338e-004 -1.670294e-001 -2.658108e-001
<VARIANCE> 39
 1.818315e+001 3.553550e+001 7.042893e+001 5.943531e+001 8.363558e+001 9.563383e+001 1.075002e+002 8.056767e+001 1.000689e+002 6.075076e+001 5.278955e+001 3.781396e+001 4.763493e+001 2.051350e+000 4.335907e+000 3.748389e+000 4.760948e+000 5.561322e+000 4.385772e+000 5.989587e+000 5.835970e+000 4.871612e+000 3.983370e+000 3.831967e+000 2.974358e+000 5.472561e+000 4.367848e-001 4.415518e-001 4.274290e-001 5.603499e-001 7.260152e-001 9.802791e-001 1.012079e+000 9.078619e-001 7.597477e-001 6.677271e-001 6.164024e-001 5.095324e-001 3.599480e-001
<GCONST> 1.372724e+002
<TRANSP> 5
 0.000000e+000 1.000000e+000 0.000000e+000 0.000000e+000 0.000000e+000
 0.000000e+000 6.018757e-001 3.981243e-001 0.000000e+000 0.000000e+000
 0.000000e+000 0.000000e+000 4.812052e-001 5.187948e-001 0.000000e+000
 0.000000e+000 0.000000e+000 0.000000e+000 3.700770e-001 6.299230e-001
 0.000000e+000 0.000000e+000 0.000000e+000 0.000000e+000 0.000000e+000
<ENDHMM>
~h "s"
<BEGINHMM>
<NUMSTATES> 5
<STATE> 2
<MEAN> 39
 -2.181931e+001 -7.620817e-002 -5.325181e+000 -8.089055e+000 -2.491145e+000 -7.455570e+000 -2.067920e+000 -1.249400e-002 -2.318538e+000 -1.760739e+000 -2.965118e+000 -5.621679e-001 5.806061e+001 -4.609479e+000 1.471068e+000 -9.344878e-001 3.006800e-001 1.880673e+000 9.939266e-001 1.454022e+000 8.546378e-001 4.845964e-001 2.858716e-001 8.184835e-001 6.987871e-001 4.759751e-002 4.969140e-001 -5.070326e-001 -7.808881e-002 -1.599662e-001 -3.648483e-001 7.270293e-002 -3.443143e-001 2.137438e-002 -8.126297e-002 8.555425e-002 1.536731e-002 -8.357803e-002 -8.339288e-003
<VARIANCE> 39
 7.146557e+001 2.871851e+001 4.474270e+001 3.299681e+001 4.441653e+001 4.117030e+001 4.101653e+001 3.973146e+001 3.267960e+001 3.024790e+001 2.607944e+001 2.069502e+001 2.297856e+001 4.248481e+000 4.088057e+000 4.590879e+000 4.970578e+000 4.391545e+000 4.863419e+000 4.860123e+000 4.314901e+000 4.225359e+000 3.977917e+000 3.890719e+000 2.835741e+000 2.048878e+000 1.246803e+000 5.856124e-001 6.334560e-001 6.673351e-001 7.277099e-001 7.837269e-001 7.908980e-001 7.601756e-001 6.212690e-001 6.544163e-001 5.969954e-001 4.838197e-001 4.102198e-001
<GCONST> 1.305786e+002
<STATE> 3
<MEAN> 39
 -3.018541e+001 1.468931e+000 -9.354899e+000 -7.793811e+000 -6.023244e-002 -5.136948e+000 -1.851490e-001 1.570904e+000 -1.582406e+000 -2.851730e-001 -1.164890e+000 7.739680e-001 5.817687e+001 -1.114739e-001 -7.723656e-002 -2.960365e-002 -1.147682e-001 3.156082e-002 1.489344e-002 -6.202485e-002 5.051093e-002 5.507272e-002 6.002456e-002 2.062698e-003 -4.679167e-003 -1.924376e-002 6.596319e-001 -2.303552e-001 2.710460e-001 -2.983669e-002 -2.087494e-001 -1.541872e-001 -2.085736e-001 -1.284201e-001 -3.833322e-002 -6.855527e-002 -1.125705e-001 -1.086519e-001 -1.570577e-001
<VARIANCE> 39
 8.433075e+000 2.090549e+001 3.028851e+001 3.781659e+001 3.473752e+001 3.171677e+001 2.853582e+001 2.526394e+001 1.953017e+001 1.700102e+001 1.617589e+001 1.331456e+001 1.674484e+001 1.195159e+000 1.319117e+000 1.285525e+000 1.343709e+000 1.513502e+000 1.706799e+000 1.602593e+000 1.625592e+000 1.541370e+000 1.502144e+000 1.351458e+000 1.234622e+000 7.136787e-001 4.016176e-001 2.443035e-001 2.822488e-001 3.236639e-001 3.523125e-001 3.978082e-001 3.901982e-001 3.729655e-001 3.574706e-001 3.413077e-001 3.170500e-001 2.762565e-001 1.948773e-001
<GCONST> 1.006152e+002
<STATE> 4
<MEAN> 39
 -2.539025e+001 -1.892915e+000 -5.913391e+000 -9.041496e+000 -1.007387e+000 -5.914124e+000 -2.453617e+000 1.379036e+000 -1.079068e+000 -6.418332e-001 -1.907427e+000 -1.933113e-001 5.566976e+001 3.305164e+000 -1.178104e+000 1.031558e+000 1.279761e-001 -1.155278e+000 -2.098386e-001 -1.272500e+000 -7.453375e-001 -1.799204e-001 -1.015698e-001 -3.285230e-001 -5.579821e-001 -1.327939e+000 6.683168e-001 -1.775170e-001 -2.728057e-002 8.649014e-002 -3.542476e-001 6.389847e-002 -2.141762e-001 -1.725452e-001 -1.528069e-001 2.976999e-002 4.490274e-003 -9.278079e-002 -1.986540e-001
<VARIANCE> 39
 3.986192e+001 2.892592e+001 3.817691e+001 3.320030e+001 4.022543e+001 4.137243e+001 4.003199e+001 3.369565e+001 2.856506e+001 2.384595e+001 2.189118e+001 1.875380e+001 4.347360e+001 5.654094e+000 2.784124e+000 3.751428e+000 4.606409e+000 4.695348e+000 5.486910e+000 4.922542e+000 3.894013e+000 3.709201e+000 2.944889e+000 3.138484e+000 2.400165e+000 6.254655e+000 7.303516e-001 5.439847e-001 6.014872e-001 6.842490e-001 7.045181e-001 8.126341e-001 9.311052e-001 6.990977e-001 6.459156e-001 5.701036e-001 5.731593e-001 4.429055e-001 1.018652e+000
<GCONST> 1.297119e+002
<TRANSP> 5
 0.000000e+000 1.000000e+000 0.000000e+000 0.000000e+000 0.000000e+000
 0.000000e+000 6.412328e-001 3.587672e-001 0.000000e+000 0.000000e+000
 0.000000e+000 0.000000e+000 8.304725e-001 1.695275e-001 0.000000e+000
 0.000000e+000 0.000000e+000 0.000000e+000 6.567492e-001 3.432508e-001
 0.000000e+000 0.000000e+000 0.000000e+000 0.000000e+000 0.000000e+000
<ENDHMM>
~h "t"
<BEGINHMM>
<NUMSTATES> 5
<STATE> 2
<MEAN> 39
 -1.136023e+001 -3.495060e+000 -2.628366e+000 -5.198686e+000 -8.585514e+000 -7.443983e+000 -6.744805e+000 -3.610142e+000 -3.741756e+000 -1.920985e+000 -3.854464e+000 -2.660309e+000 4.670812e+001 -1.704968e+000 8.517763e-001 -7.355711e-002 1.461447e+000 1.510563e+000 1.047016e+000 8.554620e-001 2.937780e-003 3.580337e-001 6.102108e-002 3.064359e-001 3.141900e-001 -3.047012e+000 -3.891836e-002 -5.733771e-001 -2.260995e-001 -5.497528e-001 -5.464306e-002 2.098607e-001 1.376630e-001 3.815661e-001 5.723418e-002 1.252429e-001 2.113182e-001 1.013133e-001 8.163904e-001
<VARIANCE> 39
 6.429202e+001 5.246666e+001 5.965399e+001 6.033253e+001 6.721156e+001 5.268193e+001 5.410021e+001 5.829098e+001 6.562138e+001 4.971638e+001 4.457106e+001 3.762461e+001 8.689642e+001 5.646282e+000 5.880150e+000 5.414464e+000 6.906887e+000 6.952209e+000 6.856263e+000 6.270107e+000 7.058710e+000 6.433801e+000 5.056516e+000 5.245689e+000 3.857278e+000 1.026957e+001 6.030297e-001 8.948652e-001 7.254627e-001 1.159360e+000 1.200325e+000 1.000731e+000 9.892391e-001 1.099255e+000 1.050762e+000 9.647822e-001 8.718861e-001 6.687558e-001 1.724630e+000
<GCONST> 1.472910e+002
<STATE> 3
<MEAN> 39
 -1.784206e+001 -4.103593e+000 -4.447893e+000 -3.345928e+000 -3.410338e+000 -1.883712e+000 -2.605427e+000 -7.344806e-001 -1.382357e+000 -1.149866e-001 -1.121759e+000 -7.317213e-001 3.947273e+001 -4.659511e-001 -1.023448e+000 -3.722913e-001 -8.712130e-001 -4.921593e-002 1.523863e-001 3.569978e-001 4.906043e-001 2.631049e-001 2.254370e-001 4.214766e-001 4.309771e-001 1.415051e+000 3.845520e-001 -1.677339e-001 5.272929e-002 -6.413123e-001 -5.440601e-001 -5.432227e-001 -2.466133e-001 -1.906573e-002 -2.115069e-001 -1.186580e-001 -1.324174e-001 -4.645531e-002 1.562291e+000
<VARIANCE> 39
 4.492229e+001 3.373904e+001 2.809278e+001 3.414149e+001 3.684454e+001 3.345692e+001 3.138356e+001 2.813102e+001 2.861768e+001 2.518141e+001 2.221098e+001 1.879480e+001 1.036377e+002 3.918220e+000 3.870227e+000 3.447622e+000 5.503845e+000 4.068291e+000 4.276587e+000 3.886902e+000 4.318551e+000 3.948771e+000 3.365765e+000 3.057173e+000 2.500726e+000 1.374999e+001 6.386739e-001 7.362896e-001 6.819639e-001 8.935623e-001 8.813310e-001 8.271849e-001 7.360985e-001 8.126843e-001 7.234897e-001 6.386881e-001 6.206436e-001 4.726388e-001 2.049741e+000
<GCONST> 1.322429e+002
<STATE> 4
<MEAN> 39
 -1.777769e+001 -7.668796e+000 -4.519346e+000 -9.493690e+000 -6.779150e+000 -6.186343e+000 -2.314274e+000 1.343240e-001 -2.030527e+000 -1.005770e+000 -1.594845e+000 1.458588e-001 5.555906e+001 1.315712e+000 -3.016481e-001 2.582246e-001 -4.288347e-001 -9.078890e-001 -9.873258e-001 -5.106210e-001 1.229476e-001 -3.575258e-001 -3.738199e-001 -4.095672e-001 -1.652473e-001 1.754567e+000 6.122433e-001 8.621183e-002 7.931270e-002 2.502279e-001 -1.089188e-001 3.079084e-002 -3.216799e-001 -9.790076e-002 -1.359440e-001 -3.515408e-002 -8.982433e-002 -2.032068e-001 -5.805483e-001
<VARIANCE> 39
 6.154176e+001 3.907407e+001 4.193098e+001 4.253260e+001 4.411323e+001 3.945436e+001 4.701880e+001 3.895676e+001 3.553638e+001 3.053635e+001 2.865569e+001 2.340698e+001 6.630107e+001 6.698493e+000 3.088374e+000 3.725978e+000 5.079879e+000 4.515392e+000 4.677949e+000 5.047216e+000 4.285450e+000 3.940547e+000 3.411252e+000 3.398052e+000 2.709828e+000 1.083825e+001 7.837344e-001 7.387388e-001 7.189258e-001 1.019327e+000 8.159326e-001 8.375374e-001 8.855890e-001 8.224424e-001 7.340932e-001 6.665215e-001 6.804157e-001 5.341389e-001 1.697397e+000
<GCONST> 1.361589e+002
<TRANSP> 5
 0.000000e+000 1.000000e+000 0.000000e+000 0.000000e+000 0.000000e+000
 0.000000e+000 4.374347e-001 5.625653e-001 0.000000e+000 0.000000e+000
 0.000000e+000 0.000000e+000 5.488215e-001 4.511786e-001 0.000000e+000
 0.000000e+000 0.000000e+000 0.000000e+000 6.206918e-001 3.793081e-001
 0.000000e+000 0.000000e+000 0.000000e+000 0.000000e+000 0.000000e+000
<ENDHMM>
~h "v"
<BEGINHMM>
<NUMSTATES> 5
<STATE> 2
<MEAN> 39
 -3.156825e+000 -6.052928e+000 -8.014230e+000 -8.531715e+000 -7.087042e+000 -7.339868e+000 -1.138039e+001 -5.576741e+000 -3.600405e+000 -4.676613e-001 -1.060028e+000 -3.184131e+000 5.491090e+001 -1.815820e+000 2.335109e+000 -3.162193e-002 1.425481e+000 1.564695e+000 7.732503e-001 8.914496e-001 -1.207165e+000 -7.329475e-001 -5.411517e-001 -1.424941e-001 2.692579e-001 -2.268471e+000 -6.065547e-001 -1.665840e-001 3.587311e-001 -3.359387e-002 -1.601842e-001 1.063858e-001 3.703194e-001 4.574114e-001 7.084779e-002 -1.434560e-001 -2.564989e-001 1.948526e-003 2.032441e-001
<VARIANCE> 39
 2.720902e+001 2.204502e+001 3.623852e+001 3.856071e+001 2.558795e+001 4.484779e+001 4.061715e+001 3.571753e+001 3.573897e+001 3.614814e+001 3.991724e+001 2.999348e+001 2.624080e+001 2.919985e+000 2.625989e+000 3.488022e+000 4.038940e+000 3.496833e+000 4.200788e+000 5.071350e+000 5.166109e+000 4.214800e+000 3.753707e+000 3.574723e+000 2.833567e+000 2.313798e+000 3.949928e-001 3.355618e-001 3.410010e-001 4.187543e-001 4.622418e-001 4.495354e-001 5.437604e-001 5.240801e-001 5.106409e-001 4.935917e-001 4.618384e-001 4.308037e-001 2.681905e-001
<GCONST> 1.226087e+002
<STATE> 3
<MEAN> 39
 -8.683594e+000 -1.369149e+000 -6.012987e+000 -5.625307e+000 -4.802804e+000 -5.522679e+000 -8.514047e+000 -6.936679e+000 -6.060173e+000 -2.763940e+000 -2.951900e+000 -2.971303e+000 5.038818e+001 -2.388553e+000 9.466655e-001 5.840493e-001 1.129904e+000 9.047372e-001 6.629887e-001 1.152575e+000 2.083384e-001 -1.345673e-001 -5.300698e-001 -4.597752e-001 1.007248e-001 -1.115560e+000 3.222484e-001 -8.988109e-001 -6.042892e-002 -5.386749e-001 -5.061771e-001 -2.393680e-001 -1.222513e-001 5.825832e-001 3.751650e-001 2.580209e-001 7.770564e-002 1.263104e-002 8.601294e-001
<VARIANCE> 39
 3.212741e+001 1.912871e+001 2.714638e+001 2.885784e+001 2.074309e+001 3.198421e+001 2.840594e+001 2.594926e+001 2.644404e+001 2.702844e+001 2.882645e+001 2.207481e+001 3.449986e+001 3.987694e+000 2.205792e+000 2.453232e+000 3.089562e+000 2.443087e+000 3.441514e+000 3.327553e+000 3.104538e+000 2.713804e+000 2.779835e+000 2.644000e+000 2.010758e+000 2.224995e+000 4.946308e-001 4.108202e-001 5.559740e-001 5.531120e-001 5.485955e-001 5.956011e-001 7.691568e-001 6.979851e-001 6.332971e-001 5.873737e-001 5.176315e-001 4.337316e-001 4.510536e-001
<GCONST> 1.197936e+002
<STATE> 4
<MEAN> 39
 -1.396289e+001 -3.650208e+000 -6.404652e+000 -5.296780e+000 -4.376894e+000 -4.635781e+000 -5.278183e+000 -3.314389e+000 -3.651117e+000 -2.190821e+000 -2.965544e+000 -2.019926e+000 5.069515e+001 5.854663e-001 -9.298497e-001 -3.847866e-001 -8.501991e-001 -5.944474e-001 -4.597089e-001 -9.745568e-002 5.877862e-001 4.410814e-001 3.353002e-001 2.175543e-001 1.178917e-001 1.113788e+000 9.550204e-001 -3.948672e-001 -9.742136e-002 -5.069184e-001 -4.120297e-001 -2.613710e-001 -4.027507e-001 7.552013e-002 -4.309047e-003 1.080484e-001 9.782067e-002 -5.001638e-002 4.651067e-001
<VARIANCE> 39
 5.535728e+001 2.402841e+001 2.878001e+001 2.843591e+001 2.212969e+001 2.893391e+001 3.205674e+001 2.851290e+001 2.657464e+001 2.379613e+001 2.244961e+001 1.859621e+001 4.688643e+001 7.773225e+000 2.840280e+000 2.922497e+000 3.816333e+000 3.336684e+000 3.848137e+000 4.230082e+000 3.418425e+000 3.199686e+000 2.568135e+000 2.531465e+000 2.016422e+000 4.649658e+000 8.833086e-001 6.664847e-001 6.278734e-001 7.632233e-001 6.412457e-001 7.777644e-001 8.153098e-001 7.764907e-001 7.145450e-001 6.069502e-001 5.787401e-001 4.356678e-001 7.189487e-001
<GCONST> 1.262308e+002
<TRANSP> 5
 0.000000e+000 1.000000e+000 0.000000e+000 0.000000e+000 0.000000e+000
 0.000000e+000 3.517632e-001 6.482369e-001 0.000000e+000 0.000000e+000
 0.000000e+000 0.000000e+000 4.149618e-001 5.850382e-001 0.000000e+000
 0.000000e+000 0.000000e+000 0.000000e+000 6.210518e-001 3.789482e-001
 0.000000e+000 0.000000e+000 0.000000e+000 0.000000e+000 0.000000e+000
<ENDHMM>
~h "w"
<BEGINHMM>
<NUMSTATES> 5
<STATE> 2
<MEAN> 39
 -7.230755e+000 -5.633461e+000 -9.685752e+000 -9.685972e+000 -4.946527e+000 -2.208303e+000 -7.271290e+000 -4.857769e+000 -6.891336e+000 -6.155607e-001 -4.676558e-001 -1.863756e+000 4.933177e+001 2.587663e+000 1.922228e+000 -5.887874e-001 -2.020192e+000 -1.165950e+000 1.069112e+000 7.673064e-001 -6.632723e-001 -1.529250e+000 -8.300375e-001 1.125114e-001 2.743144e-001 -7.154088e-001 1.987875e-002 6.113281e-002 4.393184e-001 -4.016177e-001 -7.841687e-001 -2.563336e-001 1.520291e-001 4.444578e-001 5.449037e-002 -2.149839e-001 -1.507311e-001 -9.455665e-003 5.281776e-001
<VARIANCE> 39
 6.022826e+001 4.649876e+001 2.973289e+001 4.877063e+001 3.901618e+001 3.819394e+001 5.387922e+001 4.095481e+001 6.208764e+001 3.666035e+001 3.861776e+001 2.596461e+001 4.796031e+001 5.080153e+000 3.413877e+000 4.571913e+000 4.808700e+000 5.682364e+000 5.029710e+000 5.937909e+000 4.865207e+000 4.469941e+000 4.046632e+000 3.388741e+000 2.745431e+000 4.875006e+000 4.962768e-001 8.657289e-001 6.299512e-001 7.948380e-001 8.642489e-001 7.734857e-001 1.115200e+000 8.492413e-001 8.762627e-001 8.672522e-001 6.169350e-001 5.271117e-001 5.760263e-001
<GCONST> 1.358375e+002
<STATE> 3
<MEAN> 39
 2.219307e+000 1.530484e+000 -8.841588e+000 -1.991613e+001 -1.622875e+001 -2.119795e+000 -4.540923e+000 -2.748420e+000 -9.197065e+000 -4.896444e+000 -1.932727e+000 -2.289274e+000 5.133516e+001 7.729419e-001 -2.864855e-001 -2.145180e-001 -1.652139e+000 -1.122380e+000 5.303333e-001 1.684573e-001 2.597910e-001 1.994241e-001 8.246787e-002 2.688531e-001 1.084161e-001 1.052574e+000 -4.057409e-001 -6.959352e-001 -8.608202e-002 3.073327e-001 5.366471e-001 9.201450e-002 -2.644374e-001 -6.410610e-002 2.216961e-001 3.883621e-001 2.204194e-001 1.040039e-002 3.139220e-001
<VARIANCE> 39
 7.365482e+000 2.265926e+001 2.699542e+001 4.560091e+001 4.627346e+001 4.131200e+001 3.641383e+001 4.227619e+001 5.146477e+001 3.688904e+001 3.716029e+001 2.671302e+001 1.814390e+001 2.014838e+000 2.871051e+000 2.032906e+000 3.610028e+000 4.310951e+000 3.604063e+000 3.837579e+000 3.486386e+000 4.034733e+000 3.629135e+000 3.353287e+000 2.437875e+000 2.602803e+000 3.728019e-001 3.190610e-001 3.305931e-001 5.416311e-001 5.804354e-001 6.375827e-001 6.429067e-001 6.081576e-001 7.679656e-001 5.896928e-001 5.030979e-001 4.627778e-001 1.827268e-001
<GCONST> 1.212479e+002
<STATE> 4
<MEAN> 39
 1.752417e+000 -6.947138e+000 -1.113318e+001 -2.101253e+001 -1.190203e+001 1.372144e+000 -8.911504e+000 -5.028634e+000 -8.556462e+000 9.344993e-001 2.174922e+000 -1.910028e+000 5.846106e+001 -4.006014e-001 -2.210866e+000 2.505406e-002 7.579781e-001 9.699514e-001 -7.008250e-001 -1.484944e+000 3.723383e-001 1.460117e+000 1.339749e+000 -1.648846e-002 -7.721315e-001 1.774293e+000 -4.353912e-001 1.047959e-001 3.424434e-001 6.394656e-001 2.847066e-002 -6.209325e-001 2.322804e-001 4.861936e-001 4.225895e-001 -3.538255e-001 -5.737277e-001 -1.656816e-001 -3.097208e-001
<VARIANCE> 39
 8.454408e+000 3.165225e+001 4.219781e+001 7.371552e+001 6.544027e+001 7.246429e+001 8.235776e+001 6.196869e+001 6.860571e+001 8.261085e+001 7.702954e+001 4.166525e+001 1.959859e+001 7.916639e-001 1.631313e+000 2.643766e+000 4.386397e+000 3.901530e+000 6.452856e+000 5.381964e+000 5.061800e+000 4.370515e+000 4.532798e+000 4.910091e+000 3.326095e+000 1.123825e+000 3.149061e-001 3.358262e-001 3.933770e-001 6.109720e-001 8.798814e-001 7.614424e-001 1.013068e+000 8.327288e-001 9.562373e-001 1.089423e+000 7.493832e-001 7.320074e-001 1.753125e-001
<GCONST> 1.305926e+002
<TRANSP> 5
 0.000000e+000 1.000000e+000 0.000000e+000 0.000000e+000 0.000000e+000
 0.000000e+000 6.161415e-001 3.838585e-001 0.000000e+000 0.000000e+000
 0.000000e+000 0.000000e+000 7.497068e-001 2.502931e-001 0.000000e+000
 0.000000e+000 0.000000e+000 0.000000e+000 5.541953e-001 4.458047e-001
 0.000000e+000 0.000000e+000 0.000000e+000 0.000000e+000 0.000000e+000
<ENDHMM>
~h "y"
<BEGINHMM>
<NUMSTATES> 5
<STATE> 2
<MEAN> 39
 -1.134356e+001 -2.315294e+000 1.184777e+001 -1.199847e+001 -1.478614e+001 -7.071929e+000 -9.892459e+000 -5.530295e+000 -1.167420e+001 -3.980455e+000 -3.664308e+000 -2.626950e+000 5.523698e+001 5.382704e-001 4.211894e-002 1.497958e+000 -1.729800e-001 -1.243125e+000 -2.219339e-001 -3.679738e-001 -2.162916e-001 -1.114663e+000 -3.138723e-001 3.131039e-001 -1.242995e-001 4.166960e-001 2.352663e-001 -3.293645e-001 -7.150562e-001 6.634329e-002 2.488860e-001 -1.513058e-001 -3.900661e-002 2.987013e-001 3.337952e-001 1.624334e-001 1.054103e-001 3.158779e-002 4.964080e-002
<VARIANCE> 39
 2.381355e+001 4.146432e+001 3.560667e+001 7.515630e+001 4.677023e+001 4.818679e+001 4.310748e+001 5.775090e+001 4.177804e+001 4.826937e+001 5.275904e+001 2.935171e+001 2.943133e+001 4.791775e+000 3.419601e+000 4.263151e+000 3.350165e+000 5.568707e+000 6.627143e+000 4.126116e+000 4.183368e+000 4.518733e+000 4.084291e+000 2.749803e+000 2.124643e+000 2.893704e+000 4.524600e-001 3.313608e-001 4.973418e-001 6.769724e-001 9.457615e-001 8.588667e-001 7.423827e-001 8.166209e-001 7.052115e-001 6.563770e-001 4.708779e-001 4.088702e-001 3.143636e-001
<GCONST> 1.307266e+002
<STATE> 3
<MEAN> 39
 -8.474911e+000 -6.061700e+000 1.313589e+001 -1.111671e+001 -2.003245e+001 -8.634855e+000 -9.533145e+000 -4.579480e+000 -1.293585e+001 -3.138866e+000 -6.696173e-001 -2.391300e+000 5.820620e+001 7.198412e-001 -8.745579e-001 -6.783726e-001 5.565380e-001 -4.994337e-001 -1.159797e+000 2.075182e-001 7.528102e-001 -1.447390e-001 2.133542e-002 5.900802e-001 1.930693e-001 4.620431e-001 4.982363e-002 -5.457399e-002 -3.726655e-001 9.337251e-002 3.038382e-001 -1.354220e-001 -8.308611e-002 2.378711e-001 2.162196e-001 -7.713909e-002 -1.793726e-002 8.117849e-002 -7.844280e-002
<VARIANCE> 39
 1.143249e+001 3.167835e+001 3.929974e+001 7.885827e+001 3.356763e+001 4.928915e+001 4.893349e+001 5.656340e+001 4.395956e+001 6.785494e+001 5.290493e+001 2.940803e+001 1.805862e+001 1.442431e+000 9.945459e-001 1.400509e+000 1.298511e+000 1.454277e+000 2.682645e+000 2.533947e+000 2.568894e+000 1.744612e+000 1.843140e+000 1.397118e+000 1.204159e+000 4.929365e-001 1.187476e-001 1.264843e-001 2.365492e-001 1.977935e-001 3.718611e-001 3.087922e-001 3.591661e-001 2.810477e-001 3.592999e-001 3.004256e-001 2.360510e-001 2.032785e-001 8.336304e-002
<GCONST> 1.048980e+002
<STATE> 4
<MEAN> 39
 -3.234816e+000 -1.260402e+001 2.851101e+000 -4.906281e+000 -1.715917e+001 -1.810152e+001 -1.027224e+001 5.749926e+000 -9.278248e+000 -6.288929e+000 2.634515e+000 8.297579e-001 5.961148e+001 1.030573e+000 -6.069163e-001 -2.223669e+000 5.619376e-001 1.377131e+000 -1.016061e+000 -1.262928e+000 1.445481e+000 1.464961e+000 -5.037386e-001 -3.916974e-001 5.137693e-001 -2.607674e-002 -1.485025e-001 2.340315e-001 -1.094844e-001 -2.015924e-001 3.447025e-001 5.103123e-001 -1.422942e-001 -3.731405e-001 3.194157e-001 1.801204e-001 -3.103494e-001 -1.535972e-001 -1.759114e-001
<VARIANCE> 39
 1.464903e+001 2.663815e+001 6.667022e+001 5.095181e+001 4.698732e+001 6.123548e+001 7.880933e+001 6.185508e+001 7.141473e+001 5.955385e+001 3.816517e+001 3.273312e+001 1.845943e+001 1.229847e+000 1.247193e+000 1.850286e+000 1.451673e+000 1.945963e+000 2.690081e+000 3.143996e+000 2.989425e+000 2.842729e+000 2.381917e+000 1.956678e+000 1.583675e+000 5.454418e-001 1.606836e-001 1.416624e-001 2.933386e-001 2.489820e-001 4.020122e-001 4.315063e-001 4.222267e-001 3.814860e-001 4.579014e-001 4.064497e-001 2.963772e-001 2.576586e-001 7.622818e-002
<GCONST> 1.115768e+002
<TRANSP> 5
 0.000000e+000 1.000000e+000 0.000000e+000 0.000000e+000 0.000000e+000
 0.000000e+000 6.959777e-001 3.040223e-001 0.000000e+000 0.000000e+000
 0.000000e+000 0.000000e+000 7.809471e-001 2.190529e-001 0.000000e+000
 0.000000e+000 0.000000e+000 0.000000e+000 6.685945e-001 3.314054e-001
 0.000000e+000 0.000000e+000 0.000000e+000 0.000000e+000 0.000000e+000
<ENDHMM>
~h "z"
<BEGINHMM>
<NUMSTATES> 5
<STATE> 2
<MEAN> 39
 -1.654608e+001 2.978945e+000 -2.730672e+000 -8.449530e+000 -4.111129e+000 -1.128499e+001 -7.926874e+000 -4.154753e+000 -3.766624e+000 -2.696964e+000 -4.437880e+000 -1.153881e+000 5.669474e+001 -4.492227e+000 1.886958e+000 -7.393336e-001 3.736337e-001 2.415278e+000 1.180239e+000 1.596928e+000 8.667564e-001 5.452051e-001 5.235675e-002 5.029987e-001 3.216011e-001 -2.583528e-001 4.278724e-002 -7.088633e-001 -1.352082e-001 -9.620327e-002 -2.467112e-001 4.016580e-001 1.936149e-001 4.009220e-001 3.860312e-002 1.922160e-001 1.636688e-001 1.332710e-003 5.789293e-002
<VARIANCE> 39
 5.386727e+001 3.534635e+001 4.468161e+001 4.099652e+001 5.413189e+001 5.185372e+001 4.740269e+001 3.806330e+001 3.472153e+001 3.635819e+001 2.592639e+001 2.426202e+001 2.494573e+001 3.173245e+000 4.713181e+000 3.667313e+000 5.428334e+000 3.785678e+000 5.693968e+000 4.628825e+000 4.786394e+000 3.954111e+000 3.759243e+000 3.481682e+000 3.159727e+000 1.525141e+000 1.068521e+000 7.070308e-001 5.186456e-001 6.452968e-001 7.859193e-001 8.184583e-001 7.472152e-001 7.092461e-001 5.804933e-001 6.345270e-001 5.113100e-001 4.925146e-001 1.930942e-001
<GCONST> 1.298919e+002
<STATE> 3
<MEAN> 39
 -2.875473e+001 1.806098e+000 -7.531391e+000 -8.627821e+000 5.345169e-001 -5.507196e+000 -1.381617e+000 1.170050e+000 -1.493802e+000 -7.328784e-001 -1.715243e+000 1.189789e-001 5.578393e+001 -3.061952e-001 -6.397125e-001 -3.119748e-001 -2.296820e-001 -4.320692e-002 1.622370e-001 1.939533e-001 3.561142e-001 2.537600e-001 1.934582e-001 1.551575e-001 5.114724e-002 8.954339e-002 1.070045e+000 -2.691761e-001 2.505572e-001 -4.426362e-002 -4.291766e-001 -3.351507e-001 -4.491631e-001 -3.106398e-001 -1.147223e-001 -7.364096e-002 -1.516547e-001 -1.149184e-001 -1.140159e-001
<VARIANCE> 39
 1.425604e+001 2.695324e+001 4.418299e+001 4.236718e+001 3.837917e+001 3.501344e+001 3.782624e+001 2.919359e+001 2.113655e+001 1.978674e+001 1.829959e+001 1.461573e+001 1.653823e+001 3.845675e+000 1.561428e+000 1.884990e+000 1.674944e+000 2.084963e+000 2.870679e+000 2.617097e+000 2.283702e+000 2.057199e+000 1.908383e+000 1.684805e+000 1.474212e+000 8.817416e-001 6.846327e-001 3.826152e-001 3.742497e-001 4.678081e-001 5.230705e-001 6.058036e-001 5.677712e-001 5.103314e-001 4.442427e-001 4.137053e-001 3.921167e-001 3.411992e-001 2.456594e-001
<GCONST> 1.118956e+002
<STATE> 4
<MEAN> 39
 -2.061788e+001 -2.715674e+000 -5.813631e+000 -8.711284e+000 -2.241782e+000 -6.317310e+000 -4.548743e+000 -7.769521e-002 -9.769876e-001 -7.596301e-001 -2.359419e+000 -7.575840e-001 5.104163e+001 2.686326e+000 -1.126946e+000 1.208456e-001 2.410836e-001 -9.237658e-001 -3.790786e-002 -6.489437e-001 -5.681816e-001 -1.299823e-001 5.754213e-002 -2.099410e-001 -3.080649e-001 -1.204677e+000 2.635133e-001 -1.305366e-002 -6.138403e-002 5.467603e-002 -1.296751e-001 9.671947e-002 9.189517e-003 -5.243877e-002 -1.311583e-001 -8.734093e-003 -2.976788e-003 -3.321987e-002 -3.807206e-002
<VARIANCE> 39
 4.607864e+001 3.792688e+001 4.031291e+001 3.724853e+001 4.317045e+001 5.289540e+001 4.938462e+001 3.754032e+001 3.275240e+001 3.200801e+001 2.621450e+001 2.178758e+001 8.289032e+001 6.069265e+000 3.539106e+000 3.462449e+000 4.500762e+000 4.836684e+000 5.445690e+000 5.318894e+000 4.167138e+000 3.632203e+000 3.296494e+000 3.095587e+000 2.502002e+000 6.510130e+000 9.297568e-001 5.934159e-001 5.214112e-001 6.614638e-001 7.223486e-001 8.820072e-001 8.385856e-001 7.662411e-001 6.803247e-001 6.100441e-001 5.482103e-001 4.632044e-001 9.598778e-001
<GCONST> 1.331788e+002
<TRANSP> 5
 0.000000e+000 1.000000e+000 0.000000e+000 0.000000e+000 0.000000e+000
 0.000000e+000 6.718827e-001 3.281173e-001 0.000000e+000 0.000000e+000
 0.000000e+000 0.000000e+000 7.880431e-001 2.119568e-001 0.000000e+000
 0.000000e+000 0.000000e+000 0.000000e+000 6.940797e-001 3.059203e-001
 0.000000e+000 0.000000e+000 0.000000e+000 0.000000e+000 0.000000e+000
<ENDHMM>
~h "aa"
<BEGINHMM>
<NUMSTATES> 5
<STATE> 2
<MEAN> 39
 -1.575463e+000 -1.504303e+001 -1.197863e+001 -1.539302e+001 -8.815442e+000 -3.060475e+000 -8.050226e+000 1.144099e+000 -1.098625e+000 -5.916401e-001 -2.658854e+000 -5.758561e+000 6.441570e+001 1.437332e+000 -1.595672e+000 -1.774888e+000 -1.103561e+000 5.627540e-001 1.230999e+000 1.233051e-001 2.682973e-001 1.771594e-001 -6.381687e-002 7.627788e-002 -8.067804e-001 1.137975e+000 -6.197535e-001 3.441042e-001 2.069262e-001 4.441857e-001 4.182605e-001 1.303196e-001 3.387209e-001 -2.615707e-001 -1.634491e-001 -1.134822e-001 6.677967e-002 2.790139e-001 -5.716324e-001
<VARIANCE> 39
 1.564056e+001 3.367245e+001 4.862281e+001 5.576074e+001 5.842099e+001 9.139771e+001 8.223510e+001 7.778942e+001 6.843350e+001 5.498744e+001 7.360519e+001 4.179551e+001 2.759591e+001 3.210667e+000 2.329407e+000 3.123681e+000 3.777508e+000 4.753620e+000 4.793817e+000 5.818516e+000 5.628655e+000 4.619769e+000 3.915877e+000 4.184835e+000 3.677409e+000 1.802885e+000 4.262440e-001 3.904076e-001 4.330007e-001 5.917263e-001 7.334969e-001 9.311113e-001 1.010326e+000 9.389297e-001 7.603285e-001 6.926027e-001 7.317129e-001 5.800042e-001 4.503898e-001
<GCONST> 1.342062e+002
<STATE> 3
<MEAN> 39
 -3.649327e-002 -1.708092e+001 -1.706898e+001 -1.660165e+001 -4.158214e+000 8.869992e-001 -5.823900e+000 -7.413961e-001 -1.236770e+000 -2.392631e+000 -1.980699e+000 -5.887872e+000 6.511037e+001 8.885016e-002 -6.587166e-002 -3.026071e-001 2.783484e-001 3.503551e-001 -3.382748e-001 -2.400820e-001 2.104776e-001 1.780522e-001 -1.768046e-001 -1.141588e-001 6.077884e-002 -7.532282e-002 -4.589027e-002 1.862897e-001 1.908269e-001 1.172861e-001 -1.607441e-001 -3.058835e-001 -1.592441e-001 1.090069e-001 1.652106e-002 3.875906e-002 -6.178833e-002 5.498683e-002 -1.453983e-001
<VARIANCE> 39
 1.353574e+001 3.283656e+001 3.649552e+001 5.733239e+001 5.685254e+001 8.966998e+001 8.735880e+001 9.449407e+001 7.930199e+001 5.482397e+001 6.659100e+001 4.401304e+001 2.091851e+001 2.754465e-001 6.762519e-001 9.542419e-001 1.329702e+000 1.468595e+000 2.156417e+000 2.315931e+000 2.108672e+000 1.664280e+000 1.533965e+000 1.479401e+000 1.341477e+000 2.363758e-001 5.680697e-002 1.153253e-001 1.428676e-001 1.955781e-001 2.225610e-001 2.559807e-001 3.339795e-001 3.070401e-001 2.921533e-001 2.718235e-001 2.507084e-001 2.395679e-001 5.729083e-002
<GCONST> 1.018994e+002
<STATE> 4
<MEAN> 39
 -7.941981e-001 -1.579902e+001 -1.506847e+001 -1.516110e+001 -5.609599e+000 -3.024129e+000 -7.447696e+000 8.983979e-001 2.961721e-002 -1.607925e+000 -3.818586e+000 -6.180010e+000 6.367647e+001 -3.576388e-001 1.694635e+000 1.144492e+000 1.364520e+000 -4.839410e-001 -1.702843e+000 -7.271441e-001 3.478340e-001 -2.306816e-001 1.886219e-001 -1.757265e-001 5.581905e-001 -1.995421e+000 -4.539458e-001 5.708584e-001 4.554238e-001 5.063397e-001 1.571397e-001 2.930001e-002 7.357299e-002 -3.469006e-001 -2.545593e-001 -4.060596e-002 7.887240e-002 1.937652e-001 -7.655036e-001
<VARIANCE> 39
 1.557379e+001 3.512891e+001 4.516431e+001 5.403072e+001 5.591148e+001 9.591574e+001 9.759901e+001 8.715816e+001 7.382890e+001 5.978259e+001 6.650679e+001 5.038470e+001 2.792687e+001 1.430425e+000 3.351502e+000 2.734889e+000 3.769079e+000 3.638260e+000 3.731158e+000 4.731672e+000 4.724794e+000 4.079839e+000 3.746343e+000 3.430121e+000 3.102105e+000 3.872607e+000 3.819571e-001 3.906293e-001 3.417304e-001 5.298815e-001 6.001531e-001 7.645181e-001 7.397418e-001 7.541965e-001 6.490730e-001 6.566038e-001 5.943909e-001 5.375836e-001 4.459758e-001
<GCONST> 1.315424e+002
<TRANSP> 5
 0.000000e+000 1.000000e+000 0.000000e+000 0.000000e+000 0.000000e+000
 0.000000e+000 6.769154e-001 3.230847e-001 0.000000e+000 0.000000e+000
 0.000000e+000 0.000000e+000 8.584227e-001 1.415773e-001 0.000000e+000
 0.000000e+000 0.000000e+000 0.000000e+000 5.572916e-001 4.427084e-001
 0.000000e+000 0.000000e+000 0.000000e+000 0.000000e+000 0.000000e+000
<ENDHMM>
~h "ae"
<BEGINHMM>
<NUMSTATES> 5
<STATE> 2
<MEAN> 39
 -4.704348e+000 -1.515940e+001 -3.201878e+000 -1.330502e+001 -1.579543e+001 -9.745470e+000 -4.471679e+000 4.999216e+000 -3.521575e+000 -2.612136e+000 -3.958186e+000 -3.619279e+000 6.471961e+001 4.566472e-001 -1.423119e+000 -2.923743e-001 -5.577028e-001 -2.574008e-001 1.381537e-001 2.028393e-001 1.086347e+000 2.335910e-001 -4.808945e-001 -2.011035e-001 -1.733352e-001 1.139061e+000 -3.710614e-001 4.226558e-001 -1.279269e-001 3.082641e-001 4.998204e-001 2.446616e-001 1.043267e-001 -3.221393e-001 2.544763e-002 2.315887e-002 1.026192e-002 1.228949e-001 -5.150225e-001
<VARIANCE> 39
 1.657228e+001 3.294831e+001 5.213956e+001 5.524564e+001 5.220975e+001 6.340301e+001 8.402028e+001 7.024337e+001 8.064741e+001 4.937022e+001 5.585998e+001 3.809814e+001 2.481916e+001 1.682964e+000 2.055100e+000 2.385225e+000 2.443604e+000 2.979848e+000 3.218050e+000 4.575997e+000 3.651935e+000 3.134830e+000 2.624213e+000 2.508422e+000 2.085386e+000 1.606708e+000 3.533104e-001 3.290513e-001 3.357169e-001 4.024373e-001 4.816544e-001 5.239636e-001 6.540400e-001 5.880762e-001 5.692715e-001 5.122262e-001 4.845862e-001 3.770323e-001 2.787741e-001
<GCONST> 1.235184e+002
<STATE> 3
<MEAN> 39
 -4.456212e+000 -1.701944e+001 -6.440547e+000 -1.274806e+001 -1.314925e+001 -7.798660e+000 -1.872191e+000 5.178879e+000 -2.164515e+000 -4.893034e+000 -5.656269e+000 -3.655596e+000 6.557146e+001 4.604083e-002 1.682371e-002 -2.431161e-001 8.763845e-002 2.704746e-001 9.684957e-003 -4.989210e-002 -8.593244e-003 5.891956e-002 -1.049543e-001 -1.161058e-001 2.113580e-002 -9.532265e-002 1.118971e-002 2.067248e-001 3.070693e-002 7.474042e-002 8.605437e-003 -1.013825e-001 -1.508626e-001 -1.172421e-001 -4.247873e-002 1.126704e-001 5.207757e-002 3.609061e-003 -1.846033e-001
<VARIANCE> 39
 1.516490e+001 3.086803e+001 4.900555e+001 4.667152e+001 5.523712e+001 6.592068e+001 7.762777e+001 6.691756e+001 8.799687e+001 4.494715e+001 4.665607e+001 4.200092e+001 2.443101e+001 2.900143e-001 6.237165e-001 1.101137e+000 8.847314e-001 1.307739e+000 1.302982e+000 1.586776e+000 1.432926e+000 1.375464e+000 1.261678e+000 1.209657e+000 1.006181e+000 2.489067e-001 5.565818e-002 1.306510e-001 1.505201e-001 1.621901e-001 2.055065e-001 2.118299e-001 2.527031e-001 2.708060e-001 2.442517e-001 2.168439e-001 2.079276e-001 1.816059e-001 7.328973e-002
<GCONST> 9.707052e+001
<STATE> 4
<MEAN> 39
 -4.271876e+000 -1.464595e+001 -5.693245e+000 -1.244991e+001 -1.310572e+001 -9.813883e+000 -4.830583e+000 4.583415e+000 -2.474139e+000 -3.445872e+000 -5.235332e+000 -3.692614e+000 6.357100e+001 -2.564571e-001 2.085271e+000 4.440212e-001 1.126800e+000 5.294077e-001 -4.437982e-001 -7.453160e-001 -1.048402e+000 -5.527040e-001 4.273514e-001 3.064012e-001 1.132824e-001 -2.223787e+000 -4.495128e-001 6.504223e-001 1.569109e-001 4.780255e-001 3.590426e-001 2.483657e-001 1.951500e-001 -4.584011e-001 -2.057926e-001 1.149779e-002 7.217294e-002 3.412297e-002 -7.821763e-001
<VARIANCE> 39
 1.373803e+001 3.099491e+001 6.278614e+001 4.729968e+001 6.050456e+001 6.592713e+001 8.262974e+001 6.757308e+001 8.068114e+001 5.533326e+001 6.118064e+001 4.449554e+001 3.141554e+001 1.612784e+000 3.102265e+000 3.011788e+000 3.074267e+000 3.720556e+000 3.623896e+000 4.136596e+000 4.401361e+000 4.614104e+000 3.697320e+000 3.446219e+000 2.819138e+000 3.343508e+000 4.179496e-001 3.554497e-001 4.372340e-001 4.787771e-001 6.291144e-001 6.870028e-001 7.491850e-001 7.684807e-001 7.620623e-001 7.440454e-001 7.068649e-001 5.176778e-001 3.899916e-001
<GCONST> 1.306872e+002
<TRANSP> 5
 0.000000e+000 1.000000e+000 0.000000e+000 0.000000e+000 0.000000e+000
 0.000000e+000 5.948880e-001 4.051120e-001 0.000000e+000 0.000000e+000
 0.000000e+000 0.000000e+000 8.425195e-001 1.574805e-001 0.000000e+000
 0.000000e+000 0.000000e+000 0.000000e+000 6.176115e-001 3.823885e-001
 0.000000e+000 0.000000e+000 0.000000e+000 0.000000e+000 0.000000e+000
<ENDHMM>
~h "ah"
<BEGINHMM>
<NUMSTATES> 5
<STATE> 2
<MEAN> 39
 -2.973114e+000 -1.242972e+001 -8.930326e+000 -1.540390e+001 -9.533330e+000 -4.622155e+000 -1.049323e+001 -3.952465e-001 -5.284208e-001 -1.996687e-001 -3.821859e+000 -5.139641e+000 6.340624e+001 1.591028e+000 -1.909359e+000 -6.839325e-001 -1.604817e+000 -3.512747e-001 8.370187e-001 -8.672474e-001 5.475206e-001 9.653633e-001 1.601080e-001 -5.277805e-001 -9.443637e-001 1.633698e+000 -7.849903e-001 4.142460e-001 1.270188e-001 5.150656e-001 4.275835e-001 8.759668e-002 4.893310e-001 -1.275270e-001 -1.864772e-001 -7.714394e-002 6.234507e-002 1.943841e-001 -6.149946e-001
<VARIANCE> 39
 1.608263e+001 3.287929e+001 5.155641e+001 5.159964e+001 5.696588e+001 8.875277e+001 6.664420e+001 6.611592e+001 6.118402e+001 6.422706e+001 7.571124e+001 4.346923e+001 2.774881e+001 4.404314e+000 2.866377e+000 3.135379e+000 4.183603e+000 5.182249e+000 5.499904e+000 5.784634e+000 5.702637e+000 5.374890e+000 4.540069e+000 4.702433e+000 3.689370e+000 2.294737e+000 5.813475e-001 4.874347e-001 5.168720e-001 6.710985e-001 7.203646e-001 9.892356e-001 9.136671e-001 8.855537e-001 7.871912e-001 7.404937e-001 7.994829e-001 6.195717e-001 5.130165e-001
<GCONST> 1.365059e+002
<STATE> 3
<MEAN> 39
 -2.481302e+000 -1.491581e+001 -1.095143e+001 -1.712090e+001 -7.005685e+000 -2.084138e+000 -9.716974e+000 5.036582e-001 1.089765e+000 -1.223292e+000 -5.171201e+000 -6.214463e+000 6.495564e+001 -1.921440e-002 2.163958e-001 7.347421e-002 5.978643e-002 1.205912e-001 -1.370717e-001 -3.627818e-002 -8.988277e-002 -1.933961e-002 -3.068209e-002 -7.906917e-002 -2.169124e-002 -2.210812e-001 -1.439616e-001 4.966151e-001 2.423969e-001 3.452862e-001 -7.909144e-002 -2.833557e-001 5.967671e-002 -2.047237e-001 -3.212649e-001 2.925477e-002 1.202772e-001 1.821024e-001 -4.655938e-001
<VARIANCE> 39
 1.156079e+001 2.785443e+001 3.702926e+001 5.529398e+001 5.627589e+001 8.715837e+001 6.986425e+001 6.012763e+001 6.512773e+001 6.913013e+001 6.861702e+001 4.983174e+001 2.466817e+001 4.416021e-001 1.043610e+000 1.411297e+000 1.599581e+000 1.833726e+000 2.683540e+000 2.126323e+000 2.407744e+000 2.057814e+000 1.955115e+000 2.090033e+000 1.907868e+000 6.047143e-001 1.684294e-001 2.593456e-001 2.203497e-001 3.349229e-001 3.785287e-001 4.193370e-001 5.098925e-001 5.006243e-001 4.598265e-001 4.034537e-001 3.925668e-001 3.887110e-001 1.987750e-001
<GCONST> 1.130873e+002
<STATE> 4
<MEAN> 39
 -2.221380e+000 -1.157789e+001 -8.833822e+000 -1.507616e+001 -8.539008e+000 -5.375528e+000 -1.102311e+001 -1.062796e+000 -9.194072e-001 8.757439e-003 -3.781927e+000 -5.181786e+000 6.152781e+001 -8.913494e-001 2.629113e+000 1.277286e+000 2.086073e+000 2.529009e-001 -7.007488e-001 5.433387e-001 -1.376629e+000 -1.583702e+000 -3.413839e-001 2.255637e-001 6.410016e-001 -2.934544e+000 -6.620136e-001 4.852104e-001 2.215128e-001 5.713332e-001 2.716057e-001 2.088855e-001 4.712748e-001 -2.371810e-001 -2.656538e-001 -1.657099e-001 -8.041119e-002 9.267701e-002 -6.354278e-001
<VARIANCE> 39
 1.332089e+001 3.196395e+001 4.476960e+001 5.469701e+001 4.870112e+001 8.554839e+001 6.819395e+001 6.851605e+001 6.643187e+001 7.196282e+001 7.727708e+001 4.866292e+001 3.301764e+001 2.386099e+000 2.752415e+000 2.760404e+000 4.064867e+000 4.404428e+000 4.830745e+000 5.303058e+000 5.329870e+000 5.189621e+000 5.122315e+000 4.584932e+000 3.863153e+000 3.877151e+000 4.904780e-001 5.231434e-001 4.514999e-001 6.820247e-001 6.217105e-001 8.981271e-001 7.644091e-001 1.053245e+000 7.855303e-001 8.303580e-001 8.183841e-001 6.262544e-001 6.176365e-001
<GCONST> 1.358139e+002
<TRANSP> 5
 0.000000e+000 1.000000e+000 0.000000e+000 0.000000e+000 0.000000e+000
 0.000000e+000 5.309387e-001 4.690613e-001 0.000000e+000 0.000000e+000
 0.000000e+000 0.000000e+000 7.697005e-001 2.302995e-001 0.000000e+000
 0.000000e+000 0.000000e+000 0.000000e+000 5.168738e-001 4.831262e-001
 0.000000e+000 0.000000e+000 0.000000e+000 0.000000e+000 0.000000e+000
<ENDHMM>
~h "ao"
<BEGINHMM>
<NUMSTATES> 5
<STATE> 2
<MEAN> 39
 -1.361328e-001 -9.165830e+000 -1.370379e+001 -2.037325e+001 -1.043129e+001 1.023597e+000 -4.857683e+000 -2.134111e+000 -4.333786e+000 -9.754980e-001 -4.927491e-001 -3.602199e+000 5.930482e+001 1.195117e+000 -7.472064e-001 -7.802981e-001 -1.751986e+000 -1.292594e-001 1.401579e+000 2.945288e-001 -2.354022e-001 -1.926910e-001 -1.205152e-001 2.786182e-001 -8.660958e-002 1.146566e+000 -5.364254e-001 8.890740e-002 1.344804e-001 4.919627e-001 3.595114e-001 -1.416152e-001 3.290899e-002 4.542333e-002 9.879626e-002 -6.278533e-002 -4.044014e-002 1.710326e-001 -2.779449e-001
<VARIANCE> 39
 1.917900e+001 4.829190e+001 4.123383e+001 7.077184e+001 8.030575e+001 7.723212e+001 8.748013e+001 6.378593e+001 6.993110e+001 6.470042e+001 6.729559e+001 4.360573e+001 3.611666e+001 3.813631e+000 2.763066e+000 2.801380e+000 4.615840e+000 5.157548e+000 4.581162e+000 5.222228e+000 4.579687e+000 4.298289e+000 3.976303e+000 3.750989e+000 3.272939e+000 2.587173e+000 5.724425e-001 4.319412e-001 4.002148e-001 6.583378e-001 6.743070e-001 6.976251e-001 8.948122e-001 7.298845e-001 8.055456e-001 6.633765e-001 6.758268e-001 5.281577e-001 3.846103e-001
<GCONST> 1.348597e+002
<STATE> 3
<MEAN> 39
 8.521068e-001 -1.062486e+001 -1.517673e+001 -2.470226e+001 -9.159288e+000 6.116665e+000 -2.062190e+000 -3.481987e+000 -3.719771e+000 -2.459636e+000 -9.215727e-002 -2.897079e+000 6.170003e+001 -4.364510e-002 -3.356971e-001 -1.897351e-001 2.561666e-001 5.106353e-001 -3.322972e-002 -1.721946e-001 -9.702446e-002 1.485920e-001 8.332493e-002 4.523456e-002 -1.134284e-001 2.336225e-001 -3.471110e-002 5.823477e-002 6.446694e-002 2.610561e-001 -1.052419e-002 -2.864137e-001 -1.774822e-001 4.962265e-002 2.903754e-002 6.577580e-002 -4.169668e-002 -5.909867e-002 -9.520946e-002
<VARIANCE> 39
 1.088521e+001 4.397313e+001 3.756163e+001 6.729768e+001 8.977289e+001 6.959836e+001 7.796832e+001 5.925843e+001 6.109681e+001 5.968983e+001 5.887400e+001 4.349048e+001 2.245317e+001 2.487364e-001 1.092232e+000 8.451915e-001 1.697780e+000 1.645641e+000 1.729269e+000 1.739793e+000 1.498739e+000 1.488137e+000 1.580117e+000 1.505749e+000 1.497495e+000 3.781207e-001 5.597844e-002 1.091631e-001 1.247374e-001 1.908552e-001 2.413802e-001 2.429013e-001 2.744177e-001 2.613374e-001 2.602898e-001 2.533866e-001 2.449684e-001 2.290655e-001 4.763785e-002
<GCONST> 1.008300e+002
<STATE> 4
<MEAN> 39
 1.358509e-001 -1.392613e+001 -1.560547e+001 -1.729539e+001 -6.788241e+000 -1.687451e-001 -6.054531e+000 -1.488028e+000 -2.734587e+000 -3.715939e-001 -9.398921e-001 -5.643703e+000 6.270765e+001 -3.285877e-001 3.197328e-001 6.147275e-001 2.061825e+000 6.693554e-002 -1.921876e+000 -9.195771e-001 6.203279e-001 5.348890e-001 1.815941e-002 -6.759822e-001 1.032000e-001 -6.859950e-001 -3.001096e-001 4.008248e-001 4.231554e-001 2.700122e-001 -9.544066e-002 -1.428242e-001 8.412322e-002 -3.615487e-002 -1.363115e-002 -1.314011e-001 -1.315526e-001 2.886775e-001 -4.020079e-001
<VARIANCE> 39
 1.323767e+001 3.880981e+001 3.777522e+001 6.414893e+001 5.790191e+001 8.101443e+001 8.240311e+001 7.033759e+001 7.394824e+001 6.464852e+001 8.667265e+001 5.483288e+001 2.213011e+001 8.616370e-001 2.596223e+000 2.706767e+000 3.239794e+000 4.249149e+000 3.182453e+000 4.539907e+000 3.975140e+000 4.124790e+000 3.954559e+000 3.427397e+000 3.588207e+000 1.499483e+000 3.772597e-001 2.711408e-001 3.190756e-001 4.694749e-001 5.518969e-001 6.557650e-001 8.012916e-001 7.133580e-001 6.842530e-001 6.489020e-001 7.137535e-001 6.241540e-001 1.820967e-001
<GCONST> 1.279683e+002
<TRANSP> 5
 0.000000e+000 1.000000e+000 0.000000e+000 0.000000e+000 0.000000e+000
 0.000000e+000 6.362564e-001 3.637437e-001 0.000000e+000 0.000000e+000
 0.000000e+000 0.000000e+000 8.567944e-001 1.432056e-001 0.000000e+000
 0.000000e+000 0.000000e+000 0.000000e+000 6.410165e-001 3.589835e-001
 0.000000e+000 0.000000e+000 0.000000e+000 0.000000e+000 0.000000e+000
<ENDHMM>
~h "aw"
<BEGINHMM>
<NUMSTATES> 5
<STATE> 2
<MEAN> 39
 -4.116217e+000 -1.680484e+001 -9.308186e+000 -1.344016e+001 -9.458819e+000 -5.353882e+000 -3.623432e+000 2.180989e+000 -2.147916e+000 -3.283130e+000 -6.415412e+000 -4.520871e+000 6.539005e+001 6.404466e-001 -1.564044e+000 -8.967320e-001 -5.393978e-001 5.310395e-001 7.223417e-001 -1.393727e-002 2.863526e-001 4.979550e-001 -5.009300e-001 -5.093742e-001 -3.459459e-001 1.248185e+000 -3.572257e-001 4.102718e-001 2.764450e-002 2.404250e-001 3.625446e-001 2.105898e-001 3.823585e-002 -3.347311e-001 -8.785399e-002 7.183966e-002 1.691319e-001 1.068073e-001 -5.250432e-001
<VARIANCE> 39
 1.629380e+001 3.447834e+001 5.643811e+001 4.885688e+001 6.593476e+001 6.692421e+001 7.760770e+001 7.115416e+001 7.662003e+001 5.199766e+001 5.020353e+001 4.286794e+001 2.518904e+001 1.980811e+000 2.364724e+000 2.291539e+000 2.668497e+000 3.443673e+000 3.166612e+000 4.220862e+000 4.433517e+000 3.312430e+000 2.743820e+000 2.639848e+000 2.536783e+000 2.024754e+000 4.007762e-001 3.945952e-001 3.560518e-001 4.693502e-001 5.511976e-001 5.656067e-001 7.050915e-001 7.481671e-001 6.466457e-001 5.276111e-001 4.719045e-001 4.493055e-001 3.352074e-001
<GCONST> 1.264594e+002
<STATE> 3
<MEAN> 39
 -2.342795e+000 -1.808964e+001 -1.340334e+001 -1.469467e+001 -4.842940e+000 -7.404622e-001 -4.576777e+000 -1.558508e+000 3.408547e-001 -4.125524e+000 -6.082485e+000 -5.390885e+000 6.572149e+001 2.512861e-001 2.892942e-001 -4.349612e-001 -4.031900e-001 3.600968e-001 5.656926e-001 -2.553824e-001 -4.657608e-001 4.462802e-002 2.219943e-001 3.179214e-001 -9.065791e-002 -2.770537e-001 2.104316e-002 1.928012e-001 5.989210e-002 -3.700506e-002 -1.676345e-001 -8.576427e-002 -2.825055e-002 1.157039e-002 -7.221768e-002 8.768035e-002 9.268989e-002 5.085658e-002 -1.332440e-001
<VARIANCE> 39
 1.369520e+001 2.947322e+001 4.040628e+001 5.214055e+001 5.691218e+001 7.775037e+001 8.065337e+001 7.180029e+001 7.068356e+001 5.333091e+001 4.951066e+001 4.599668e+001 2.116128e+001 2.338975e-001 6.792700e-001 7.449517e-001 1.219222e+000 1.456691e+000 1.498614e+000 1.687172e+000 1.695889e+000 1.540512e+000 1.413255e+000 1.470513e+000 1.283783e+000 2.205073e-001 3.872686e-002 9.664532e-002 1.150320e-001 1.616722e-001 2.019914e-001 2.203709e-001 2.650277e-001 2.520918e-001 2.460431e-001 2.075232e-001 2.272925e-001 2.124314e-001 3.832807e-002
<GCONST> 9.654762e+001
<STATE> 4
<MEAN> 39
 -4.256926e-001 -1.242249e+001 -1.500935e+001 -1.957238e+001 -6.605658e+000 2.159914e+000 -5.410854e+000 -3.347669e+000 -1.618185e+000 -4.700529e-001 -2.250113e+000 -5.155727e+000 6.148678e+001 -7.587890e-002 1.285974e+000 5.689554e-001 5.871621e-001 -8.350759e-001 -9.303077e-001 -2.486674e-001 -5.031595e-002 -4.385573e-001 4.508235e-001 2.675366e-001 3.284057e-001 -1.324687e+000 -2.902122e-001 1.560163e-001 3.611021e-001 5.926329e-001 3.376152e-002 -3.871199e-001 2.787367e-003 -3.886165e-002 -7.305537e-002 -8.137279e-002 -1.741607e-001 6.302869e-002 -2.869005e-001
<VARIANCE> 39
 1.292224e+001 4.017311e+001 3.429183e+001 6.651727e+001 6.466322e+001 7.882932e+001 8.686253e+001 6.062603e+001 6.499069e+001 6.383114e+001 6.979839e+001 4.726275e+001 3.486753e+001 9.158245e-001 2.200744e+000 2.158800e+000 4.567266e+000 3.579360e+000 3.849462e+000 3.822135e+000 3.708622e+000 3.508805e+000 3.212812e+000 3.238106e+000 2.970341e+000 1.581710e+000 2.180531e-001 3.405089e-001 3.238527e-001 5.256303e-001 6.320639e-001 5.270846e-001 6.665272e-001 6.305518e-001 6.359485e-001 6.105520e-001 5.846115e-001 5.029516e-001 3.263741e-001
<GCONST> 1.265324e+002
<TRANSP> 5
 0.000000e+000 1.000000e+000 0.000000e+000 0.000000e+000 0.000000e+000
 0.000000e+000 7.124834e-001 2.875166e-001 0.000000e+000 0.000000e+000
 0.000000e+000 0.000000e+000 8.734085e-001 1.265915e-001 0.000000e+000
 0.000000e+000 0.000000e+000 0.000000e+000 7.607049e-001 2.392951e-001
 0.000000e+000 0.000000e+000 0.000000e+000 0.000000e+000 0.000000e+000
<ENDHMM>
~h "ax"
<BEGINHMM>
<NUMSTATES> 5
<STATE> 2
<MEAN> 39
 -4.921459e+000 -9.145011e+000 -5.226860e+000 -1.232154e+001 -1.072485e+001 -9.059195e+000 -1.024891e+001 -1.254251e+000 -1.577689e+000 -4.307899e-001 -4.163431e+000 -3.362752e+000 5.947563e+001 1.614277e+000 -9.924697e-001 3.905399e-001 -1.071909e+000 -9.324119e-001 -3.277424e-001 -1.063355e+000 2.069807e-001 4.326888e-002 1.584627e-001 -3.009600e-001 -3.216893e-001 1.261480e+000 -6.149268e-001 5.284644e-001 5.215689e-003 4.523199e-001 4.289197e-001 3.646351e-001 5.073614e-001 -1.965692e-001 -3.233471e-001 -5.754658e-002 1.808567e-001 1.040123e-001 -8.541191e-001
<VARIANCE> 39
 2.437253e+001 3.423036e+001 6.059324e+001 5.916130e+001 6.171329e+001 7.359737e+001 7.260798e+001 6.199316e+001 6.276431e+001 5.831599e+001 5.629277e+001 3.867039e+001 3.766079e+001 4.822271e+000 3.296171e+000 3.925061e+000 5.050297e+000 4.801071e+000 5.302207e+000 5.613415e+000 5.535115e+000 5.248422e+000 4.239833e+000 4.597994e+000 3.367086e+000 4.648572e+000 6.626541e-001 5.489433e-001 5.341626e-001 7.582378e-001 7.410166e-001 8.893116e-001 9.753276e-001 8.783656e-001 9.187958e-001 7.837836e-001 7.090391e-001 6.017941e-001 8.905230e-001
<GCONST> 1.389630e+002
<STATE> 3
<MEAN> 39
 -3.770947e+000 -1.102646e+001 -3.851892e+000 -1.379067e+001 -1.198337e+001 -8.757891e+000 -1.126907e+001 -7.212657e-002 -2.295840e+000 -4.899103e-001 -4.020896e+000 -3.442481e+000 6.156589e+001 9.656095e-002 6.831640e-001 2.292572e-001 3.333341e-001 2.571645e-001 1.401934e-001 1.957869e-001 -4.948671e-001 -5.600426e-001 -5.766727e-002 1.150574e-001 3.631711e-002 -8.228605e-001 -6.796108e-001 8.740305e-001 -6.474978e-002 7.053517e-001 5.585189e-001 2.548451e-001 5.758070e-001 -4.352530e-001 -3.097737e-001 -1.410071e-001 1.054326e-001 7.778958e-002 -1.029300e+000
<VARIANCE> 39
 1.645604e+001 3.092920e+001 7.161807e+001 6.359039e+001 6.606824e+001 8.112789e+001 7.643111e+001 6.675385e+001 7.156044e+001 6.304489e+001 6.853291e+001 4.289333e+001 2.247222e+001 1.810258e+000 2.283005e+000 2.665375e+000 3.457233e+000 3.362262e+000 3.396387e+000 3.640287e+000 3.920555e+000 3.649655e+000 3.183129e+000 2.993803e+000 2.602572e+000 2.492535e+000 6.684687e-001 5.157644e-001 5.923644e-001 7.683866e-001 7.854528e-001 1.006867e+000 1.117783e+000 1.009431e+000 9.785590e-001 8.264863e-001 7.963258e-001 6.545342e-001 6.324061e-001
<GCONST> 1.338345e+002
<STATE> 4
<MEAN> 39
 -4.228882e+000 -7.048334e+000 -4.147699e+000 -1.126532e+001 -1.016309e+001 -8.694124e+000 -1.018649e+001 -3.031608e+000 -3.559322e+000 -7.881548e-001 -3.380657e+000 -2.880095e+000 5.731962e+001 -1.215385e+000 2.357816e+000 2.694035e-001 1.693580e+000 1.365125e+000 7.382464e-001 1.196313e+000 -1.189669e+000 -1.031686e+000 -4.537013e-001 1.028359e-001 6.359536e-002 -2.714110e+000 -7.715904e-001 3.033352e-001 -6.781706e-002 3.406878e-001 3.563546e-001 3.212731e-001 4.619892e-001 1.426419e-002 -3.360239e-002 -7.515895e-002 1.509654e-002 4.454331e-002 -4.946625e-001
<VARIANCE> 39
 2.214868e+001 3.057027e+001 6.646019e+001 6.343323e+001 6.388272e+001 7.547993e+001 6.179889e+001 6.407525e+001 6.370918e+001 5.944530e+001 6.075837e+001 4.033345e+001 3.285452e+001 3.765755e+000 3.574665e+000 3.659830e+000 5.974893e+000 4.785767e+000 5.364451e+000 5.676138e+000 5.703915e+000 5.522478e+000 4.589135e+000 4.202660e+000 3.766459e+000 5.969957e+000 6.784573e-001 5.021600e-001 6.063445e-001 6.887675e-001 7.446627e-001 9.295537e-001 8.447109e-001 9.754323e-001 8.756268e-001 8.224502e-001 7.795184e-001 6.026922e-001 5.889406e-001
<GCONST> 1.389062e+002
<TRANSP> 5
 0.000000e+000 1.000000e+000 0.000000e+000 0.000000e+000 0.000000e+000
 0.000000e+000 2.860089e-001 7.139911e-001 0.000000e+000 0.000000e+000
 0.000000e+000 0.000000e+000 4.379326e-001 5.620673e-001 0.000000e+000
 0.000000e+000 0.000000e+000 0.000000e+000 2.106441e-001 7.893559e-001
 0.000000e+000 0.000000e+000 0.000000e+000 0.000000e+000 0.000000e+000
<ENDHMM>
~h "ay"
<BEGINHMM>
<NUMSTATES> 5
<STATE> 2
<MEAN> 39
 -1.877687e+000 -1.508481e+001 -1.379443e+001 -1.696495e+001 -5.787970e+000 -3.262058e-002 -5.335732e+000 -2.182026e+000 -2.389202e-001 -1.063449e+000 -4.395717e+000 -6.523187e+000 6.391787e+001 6.932287e-001 -1.904764e+000 -5.518199e-001 -4.885643e-001 3.105617e-001 5.636580e-001 -6.985946e-003 3.490245e-001 7.771800e-001 -4.015130e-001 -6.957588e-001 -6.626368e-001 1.482309e+000 -5.860685e-001 4.164550e-001 4.382890e-001 5.815105e-001 7.533185e-002 -3.147143e-001 1.177244e-001 2.909186e-002 -1.780351e-001 -1.192045e-001 6.444506e-002 3.256122e-001 -5.157297e-001
<VARIANCE> 39
 1.437175e+001 3.394767e+001 3.786968e+001 5.221838e+001 5.757503e+001 8.122212e+001 6.628065e+001 6.399975e+001 6.194540e+001 6.065725e+001 6.896027e+001 4.275335e+001 2.604884e+001 3.046961e+000 2.237622e+000 3.108938e+000 4.481474e+000 3.793418e+000 4.728438e+000 3.963528e+000 4.365281e+000 3.782077e+000 3.296662e+000 3.357703e+000 3.272041e+000 2.264385e+000 4.855928e-001 3.872236e-001 3.841013e-001 6.261116e-001 6.836537e-001 7.239192e-001 7.035072e-001 7.294099e-001 6.687656e-001 6.406657e-001 7.154607e-001 5.459107e-001 3.573355e-001
<GCONST> 1.304854e+002
<STATE> 3
<MEAN> 39
 -2.130972e+000 -1.806857e+001 -1.367780e+001 -1.456953e+001 -4.615981e+000 -8.901283e-001 -4.762057e+000 -1.009902e+000 1.431207e+000 -3.610571e+000 -5.988578e+000 -6.669087e+000 6.549529e+001 -1.972225e-001 -1.954143e-001 5.771128e-001 5.499418e-001 -4.428038e-001 -8.532957e-001 1.088635e-001 7.661007e-001 7.753772e-002 -4.380770e-001 -2.851635e-001 2.543730e-001 5.190348e-002 -2.090556e-002 2.292402e-001 1.737637e-001 -1.230878e-002 -2.572832e-001 -1.953629e-001 2.380524e-002 9.363907e-002 -1.653294e-001 2.307032e-002 1.588103e-001 1.449219e-001 -1.220167e-001
<VARIANCE> 39
 1.126023e+001 3.038206e+001 3.458095e+001 4.569488e+001 5.383849e+001 7.459524e+001 6.979591e+001 6.793512e+001 6.822461e+001 5.310594e+001 5.142466e+001 4.755295e+001 2.021420e+001 2.345170e-001 6.757979e-001 1.022785e+000 1.238953e+000 1.654420e+000 2.048364e+000 1.701209e+000 2.183374e+000 1.484989e+000 1.390668e+000 1.407729e+000 1.352066e+000 2.124303e-001 4.038922e-002 1.196215e-001 1.302323e-001 1.667340e-001 2.263242e-001 2.318448e-001 2.628857e-001 2.819263e-001 2.759840e-001 2.324916e-001 2.643333e-001 2.554228e-001 4.541317e-002
<GCONST> 9.814466e+001
<STATE> 4
<MEAN> 39
 -4.499606e+000 -1.579732e+001 -5.226513e+000 -1.324573e+001 -1.323224e+001 -9.250164e+000 -3.070592e+000 4.943123e+000 -2.034206e+000 -3.863732e+000 -5.300858e+000 -3.030899e+000 6.447897e+001 -3.458698e-001 1.404441e+000 1.663291e+000 4.338633e-001 -1.464864e+000 -1.252280e+000 1.038242e-002 -1.916275e-001 -1.140084e+000 4.108616e-001 9.338538e-001 5.757026e-001 -9.761319e-001 -6.954056e-002 4.384506e-001 -1.230961e-001 1.819169e-001 4.174545e-001 3.317918e-001 -1.587650e-001 -6.313794e-001 -1.259058e-001 1.817870e-001 5.468633e-002 -1.273564e-001 -5.007004e-001
<VARIANCE> 39
 1.202425e+001 3.459087e+001 4.909452e+001 4.568854e+001 5.946767e+001 6.020833e+001 7.346773e+001 6.204459e+001 7.891882e+001 5.064816e+001 4.845906e+001 3.870118e+001 2.570308e+001 5.619763e-001 1.537538e+000 2.207129e+000 2.745736e+000 3.634071e+000 3.052305e+000 4.100395e+000 4.588383e+000 3.706825e+000 3.392593e+000 2.845209e+000 3.216721e+000 1.091520e+000 1.602250e-001 2.814564e-001 3.169107e-001 4.562151e-001 5.900888e-001 4.844754e-001 6.198538e-001 6.174280e-001 6.558311e-001 5.885209e-001 5.710856e-001 4.598335e-001 2.595236e-001
<GCONST> 1.220541e+002
<TRANSP> 5
 0.000000e+000 1.000000e+000 0.000000e+000 0.000000e+000 0.000000e+000
 0.000000e+000 6.121726e-001 3.878274e-001 0.000000e+000 0.000000e+000
 0.000000e+000 0.000000e+000 8.440113e-001 1.559887e-001 0.000000e+000
 0.000000e+000 0.000000e+000 0.000000e+000 7.598539e-001 2.401461e-001
 0.000000e+000 0.000000e+000 0.000000e+000 0.000000e+000 0.000000e+000
<ENDHMM>
~h "ch"
<BEGINHMM>
<NUMSTATES> 5
<STATE> 2
<MEAN> 39
 -1.866740e+001 -4.013870e+000 -4.174021e-001 -4.986165e+000 -4.144851e+000 -2.559266e+000 -5.188788e+000 -1.918683e+000 -2.979290e+000 -2.498728e+000 -2.434087e+000 -1.404357e+000 4.335413e+001 -2.904926e+000 -7.025457e-001 -3.695047e-001 -7.671164e-001 1.025061e+000 1.959591e+000 8.962179e-001 3.435815e-001 8.739448e-001 6.075943e-001 7.160419e-001 4.052522e-001 -3.758609e-002 -1.054932e-002 -3.984841e-001 8.585247e-002 -6.907840e-001 -4.748315e-001 -2.309151e-001 -1.472460e-001 2.022521e-001 8.354135e-002 6.414888e-002 1.205896e-001 4.129193e-002 1.663015e+000
<VARIANCE> 39
 4.430265e+001 5.242713e+001 3.295269e+001 5.266060e+001 3.948336e+001 4.449599e+001 3.154329e+001 3.368043e+001 3.488004e+001 2.862497e+001 2.429650e+001 1.909333e+001 7.928402e+001 5.618837e+000 6.561647e+000 5.373373e+000 8.133815e+000 6.547971e+000 5.066827e+000 4.724946e+000 4.752951e+000 4.561426e+000 3.794432e+000 3.286020e+000 2.651845e+000 2.044283e+001 8.030423e-001 1.554906e+000 9.261022e-001 1.311492e+000 1.005968e+000 1.039215e+000 8.532571e-001 9.220594e-001 7.874388e-001 7.478529e-001 6.846779e-001 4.812121e-001 2.077002e+000
<GCONST> 1.400893e+002
<STATE> 3
<MEAN> 39
 -3.037858e+001 -5.358897e+000 1.727004e+000 -1.178853e+001 -4.539906e+000 1.005071e+000 -2.860180e+000 1.585310e-001 -1.189100e-001 -9.706556e-001 2.382092e-001 2.034471e-001 5.776229e+001 -8.058035e-001 1.243449e-001 4.979363e-001 -1.464611e-001 -7.951344e-001 -2.180600e-001 5.237293e-001 1.048678e-002 7.310899e-002 5.538234e-002 2.967081e-002 6.525718e-002 1.818988e+000 8.186172e-001 3.291048e-002 -1.097761e-001 4.522415e-001 -1.519406e-001 -4.105722e-001 -5.065348e-002 -8.617629e-002 -2.321592e-001 -8.659568e-002 -1.972058e-001 -1.056694e-001 -6.329650e-001
<VARIANCE> 39
 2.091495e+001 3.063742e+001 3.299308e+001 2.425313e+001 3.517644e+001 2.142471e+001 2.270648e+001 2.196521e+001 1.922268e+001 1.627932e+001 1.351456e+001 1.110622e+001 3.329158e+001 4.132825e+000 2.583792e+000 2.659093e+000 2.641343e+000 2.312031e+000 2.201985e+000 1.881541e+000 2.001358e+000 1.737342e+000 1.666692e+000 1.452505e+000 1.252066e+000 5.623876e+000 6.083902e-001 5.901268e-001 5.798141e-001 5.530299e-001 4.687199e-001 4.655217e-001 4.289386e-001 4.092492e-001 3.739049e-001 3.648331e-001 3.014580e-001 2.633305e-001 7.600216e-001
<GCONST> 1.123596e+002
<STATE> 4
<MEAN> 39
 -2.392226e+001 -8.299254e+000 1.221409e+000 -7.832928e+000 -9.988648e+000 -4.562741e+000 -1.049827e+000 -2.399265e-001 -1.443909e+000 -1.518913e+000 -1.244264e+000 -6.565190e-001 5.923848e+001 3.729817e+000 -4.129156e-001 -5.813519e-001 6.179773e-001 -4.993117e-001 -1.711931e+000 -1.095690e+000 6.783614e-002 -6.675272e-001 -5.420491e-001 -5.289271e-001 -3.427727e-001 -7.143521e-001 6.868019e-001 -7.053936e-002 -1.717781e-001 -2.918750e-001 1.363929e-001 6.240935e-002 -6.001441e-001 3.278816e-002 -4.225864e-002 -5.891787e-002 1.573166e-002 -3.302523e-002 -1.564488e-001
<VARIANCE> 39
 4.501673e+001 1.966791e+001 2.511447e+001 3.075395e+001 3.360319e+001 3.139871e+001 3.016054e+001 2.746594e+001 2.458625e+001 2.136934e+001 2.078115e+001 1.631545e+001 2.433570e+001 5.415816e+000 2.076505e+000 3.108568e+000 3.028153e+000 4.394213e+000 4.190471e+000 5.266438e+000 3.634287e+000 3.216937e+000 2.864891e+000 2.789159e+000 2.065154e+000 2.901468e+000 8.318979e-001 3.946908e-001 5.188236e-001 5.268783e-001 6.727360e-001 7.360989e-001 7.560442e-001 6.581460e-001 6.059774e-001 5.802525e-001 5.001677e-001 4.119976e-001 7.785574e-001
<GCONST> 1.229534e+002
<TRANSP> 5
 0.000000e+000 1.000000e+000 0.000000e+000 0.000000e+000 0.000000e+000
 0.000000e+000 7.223663e-001 2.776337e-001 0.000000e+000 0.000000e+000
 0.000000e+000 0.000000e+000 8.066693e-001 1.933307e-001 0.000000e+000
 0.000000e+000 0.000000e+000 0.000000e+000 7.224384e-001 2.775616e-001
 0.000000e+000 0.000000e+000 0.000000e+000 0.000000e+000 0.000000e+000
<ENDHMM>
~h "dh"
<BEGINHMM>
<NUMSTATES> 5
<STATE> 2
<MEAN> 39
 -1.605532e+001 -1.027948e+000 -5.704078e+000 -2.885713e+000 -3.264636e+000 -3.442137e+000 -3.480907e+000 -2.353812e+000 -2.020127e+000 -9.228638e-001 -2.466919e+000 -1.690918e+000 4.197088e+001 -9.623340e-002 -8.239085e-002 -9.186683e-002 -1.863965e-001 -2.184407e-001 -1.376595e-001 6.629787e-002 1.902882e-001 1.784837e-001 -1.718936e-001 -9.271157e-003 5.575578e-002 1.026552e+000 5.060761e-001 -4.508334e-001 -8.865789e-002 -4.653309e-001 -4.845822e-001 -4.210662e-001 -2.210090e-001 1.082862e-001 1.204780e-001 2.944549e-002 -1.323426e-002 2.189842e-002 1.041597e+000
<VARIANCE> 39
 4.624767e+001 2.515273e+001 2.309848e+001 2.578504e+001 2.405893e+001 3.195113e+001 3.656099e+001 3.804937e+001 3.030562e+001 2.547563e+001 2.664908e+001 2.568587e+001 7.367891e+001 4.132617e+000 2.797308e+000 3.133258e+000 3.411927e+000 2.952761e+000 3.709969e+000 3.402841e+000 3.305483e+000 2.951504e+000 2.514842e+000 2.439587e+000 2.287814e+000 9.849895e+000 6.857416e-001 5.759950e-001 5.890816e-001 7.043734e-001 6.273887e-001 6.934950e-001 7.186044e-001 6.880510e-001 6.374117e-001 5.651180e-001 5.249121e-001 4.861021e-001 1.232004e+000
<GCONST> 1.266047e+002
<STATE> 3
<MEAN> 39
 -1.505441e+001 -3.620687e+000 -8.019347e+000 -6.384377e+000 -6.132973e+000 -5.945126e+000 -3.229776e+000 -1.718158e+000 -8.987746e-001 -1.413296e+000 -2.274757e+000 -7.734521e-001 5.193659e+001 2.506162e+000 -8.986468e-001 1.542163e-001 -1.428598e+000 -1.990999e+000 -1.980630e+000 -1.350777e+000 1.304508e-001 4.128796e-001 -1.889670e-001 -4.578095e-001 -2.928165e-001 4.249988e+000 6.313094e-001 -2.712954e-001 4.487690e-001 -2.031766e-001 -3.526825e-001 -1.880843e-001 -4.292556e-001 4.003713e-002 -9.587340e-002 1.745504e-001 -1.047348e-001 -1.913762e-001 -7.244261e-002
<VARIANCE> 39
 3.408982e+001 2.715223e+001 2.359653e+001 2.501089e+001 2.450563e+001 2.735856e+001 3.580973e+001 2.951364e+001 2.547021e+001 2.255131e+001 2.217417e+001 2.174388e+001 4.763788e+001 4.315372e+000 3.083215e+000 3.922196e+000 3.643568e+000 3.900114e+000 4.268469e+000 4.575493e+000 4.570838e+000 4.633799e+000 3.625673e+000 3.436957e+000 3.337516e+000 6.156754e+000 5.183995e-001 6.830076e-001 6.533198e-001 6.831128e-001 5.733550e-001 7.292304e-001 7.775407e-001 6.888577e-001 6.726847e-001 5.778064e-001 6.580380e-001 4.952233e-001 1.012580e+000
<GCONST> 1.275384e+002
<STATE> 4
<MEAN> 39
 -6.810498e+000 -5.104500e+000 -5.769569e+000 -8.729519e+000 -1.138345e+001 -1.150698e+001 -8.557360e+000 -2.349121e+000 -2.544249e-001 -1.127672e+000 -3.960598e+000 -3.083801e+000 5.886194e+001 2.280555e+000 -1.933290e+000 7.201217e-001 -1.717938e+000 -2.035603e+000 -1.412978e+000 -1.359428e+000 7.032445e-001 2.764262e-001 2.300727e-001 -3.059808e-001 -3.547255e-001 2.962780e+000 -5.232497e-001 -8.643222e-002 1.280895e-001 1.678003e-001 4.050681e-001 6.205844e-001 3.760919e-001 1.181551e-001 -2.572201e-001 2.286610e-002 1.003957e-001 9.778319e-002 -9.077166e-001
<VARIANCE> 39
 2.213849e+001 2.997836e+001 3.597841e+001 3.835566e+001 4.451172e+001 4.268082e+001 5.218046e+001 4.441986e+001 4.897792e+001 4.102092e+001 3.424256e+001 3.409571e+001 3.275635e+001 3.625901e+000 3.136181e+000 4.247116e+000 4.157871e+000 4.257597e+000 5.342185e+000 6.233758e+000 5.146091e+000 5.194016e+000 3.962873e+000 4.434249e+000 3.678454e+000 4.142100e+000 5.460263e-001 4.157522e-001 4.357411e-001 5.416893e-001 5.760112e-001 5.537550e-001 6.232064e-001 6.304408e-001 6.100034e-001 5.531350e-001 4.983764e-001 4.858194e-001 6.632600e-001
<GCONST> 1.300736e+002
<TRANSP> 5
 0.000000e+000 1.000000e+000 0.000000e+000 0.000000e+000 0.000000e+000
 0.000000e+000 6.264529e-001 3.735471e-001 0.000000e+000 0.000000e+000
 0.000000e+000 0.000000e+000 3.951401e-001 6.048599e-001 0.000000e+000
 0.000000e+000 0.000000e+000 0.000000e+000 3.320886e-001 6.679114e-001
 0.000000e+000 0.000000e+000 0.000000e+000 0.000000e+000 0.000000e+000
<ENDHMM>
~h "eh"
<BEGINHMM>
<NUMSTATES> 5
<STATE> 2
<MEAN> 39
